{"structure_edges": [[-1, 0, 1], [-1, 1, 1], [-1, 2, 1], [-1, 3, 1], [-1, 7, 1], [-1, 19, 1], [5, 18, 1], [5, 10, 1], [-1, 5, 1], [6, 17, 1], [6, 8, 1], [-1, 6, 1], [16, 12, 1], [15, 9, 1], [16, 15, 1], [4, 16, 1], [-1, 4, 1]], "structure_weights": {"mu": [-2.944747395433248, -1.1164546895023901, 0.8047896831142758, -2.9232260030234376, -3.021939529627652, 0.0, 0.0, -1.618859899773285, -1.435320532911824, -2.9447961910352713, -0.8393355868140374, 2.910083130713037, -1.4890661266004581, -2.956791193387852, 0.0, 0.0, -1.544474757857444, -0.8424366696059387, -1.3824323887533891, -1.5326277518880451, -0.4265858724725455, 0.25880081872239924, -2.3878779875050222, 0.0, 0.0, -0.41375115755442543, -1.4056331752910112, 0.4864062021049016, -1.2599096727947283, -0.2675137640190079, -1.055218413152242, -2.5854058840500467, 0.0, 0.0, 0.011776232499200219, -0.9796237426419089, 0.769890692834129, 0.2745083860008156, 0.11576170492339136, 1.4497537346389504, -1.0575457128432209, 0.0, 0.0, 0.32742778615186513, -1.0855369654233376, 1.323572724972967, -1.0753756748283891, 2.947224623523513, 2.9224953369798192, -2.9028191583949843, 0.0, 0.0, 2.9654876140810464, -0.7001066504617167, -2.29191828613498, -0.8856615019011622, 2.80659067374305, -2.261873489700203, -2.9595354202803197, 0.0, 0.0, -2.1640723522402197, -0.8681901409868148, -2.9777247131743176, -1.067474168098744, 0.11719216374386554, -2.985164263311993, -2.9017275142996346, 0.0, 0.0, -2.913367378590081, -0.7108477796671565, -2.859105822175251, -0.46924538326971577, 0.7070896522571248, -2.9009058275602198, -1.5059538081821198, 0.0, 0.0, -2.8749773165856425, -1.205680554874347, -2.8480279172660823, 0.07810871183491541, 0.5622884907023115, -2.9009058275602198, -1.6848584078824622, 0.0, 0.0, -2.8307101905931193, -1.147644060606253, -3.0407144893532396, -1.10285198042546, 1.2672135487399971, -3.0630244884925784, -2.9145045223620905, 0.0, 0.0, -2.9211848203617325, -0.8922047302073489, 0.0, 0.0, 0.0, 0.0, 0.0, 0.0, 0.0, 0.0, 0.0, -3.0295251057076076, -1.2119402049379884, -0.4172602333672349, -3.040507227098315, -2.8878942123662323, 0.0, 0.0, -2.9825205143616373, -0.3889727977596389, 0.0, 0.0, 0.0, 0.0, 0.0, 0.0, 0.0, 0.0, 0.0, 0.0, 0.0, 0.0, 0.0, 0.0, 0.0, 0.0, 0.0, 0.0, 0.3823215981325604, -1.4804947776131354, -0.6346744604127192, -0.9103700367301267, -2.5443405795828755, 0.0, 0.0, -0.2722644847931336, -1.3558048164089112, 0.90021480289979, 0.29513215047319297, -0.022398721180509604, 2.2839900894764686, -1.499124119063227, 0.0, 0.0, 0.36505155368744, -2.124777499173061, 0.7559624748499308, -0.007210686900959337, 1.1308173013556002, 1.221264932589715, -1.7202103259107377, 0.0, 0.0, 0.4824372486233449, -2.1257987887106866, -3.0049411391685323, -0.8624744747243713, 0.7580885699854056, -2.8952051272930603, -1.110287035354168, 0.0, 0.0, -2.793377662836901, -1.8228687412560438, -2.877435409513286, -0.2270073134530621, 0.7489207701616009, -2.9009058275602198, -0.7584375250589747, 0.0, 0.0, -2.916113077621282, -1.7524106037150091], "sigma": [0.10000000555631752, 0.010274353420527037, 0.013459045360541372, 0.1000000051892946, 0.10000000600162892, 0.1, 0.1, 0.012127812040907982, 0.01, 0.10491526855940543, 0.01, 0.10000000444664721, 0.013732940240332205, 0.1000000047630485, 0.1, 0.1, 0.12145121657162648, 0.01, 0.02078739326066274, 0.025530723976278175, 0.041102686341666375, 0.011490252994635186, 0.02235262478014935, 0.1, 0.1, 0.019953262931527643, 0.15056519216666792, 0.01, 0.01, 0.03860845170300556, 0.08448382165149076, 0.02293417198536548, 0.1, 0.1, 0.01, 0.03166492358218562, 0.011564603731083542, 0.020826567654825393, 0.01, 0.018930579075559766, 0.010042492586263855, 0.1, 0.1, 0.03123316188164479, 0.03767970106593046, 0.01, 0.01, 0.10000000601999438, 0.1000000054385934, 0.1000000047433509, 0.1, 0.1, 0.17970528148509807, 0.013122290310675043, 0.01, 0.010642598894648069, 0.044294967182012306, 0.3602224405267133, 0.024268282070731378, 0.1, 0.1, 0.019026933148263023, 0.01114629087191321, 0.03132303149229733, 0.023044910924637375, 0.02325322112340944, 0.1000000053547355, 0.0535967184226251, 0.1, 0.1, 0.10000000494800906, 0.018974298167168637, 0.05449699148802129, 0.025010790365061562, 0.19952957899142415, 0.10000000494896018, 0.012741632225985152, 0.1, 0.1, 0.0568109045063871, 0.05114098966325276, 0.06711464755845133, 0.037897585005153556, 0.04768025247450825, 0.10000000494896018, 0.028236949645251943, 0.1, 0.1, 0.06559670431296741, 0.01, 0.10000000794182444, 0.024211308772711514, 0.013555932837303119, 0.10000000882878267, 0.09970060886938392, 0.1, 0.1, 0.10000000430769111, 0.2914220914548085, 0.1, 0.1, 0.1, 0.1, 0.1, 0.1, 0.1, 0.1, 0.1, 0.10000000725254986, 0.17297651794014493, 0.011422607387497475, 0.10000001015378948, 0.021935300096060543, 0.1, 0.1, 0.10000000583277291, 0.010354602446969034, 0.1, 0.1, 0.1, 0.1, 0.1, 0.1, 0.1, 0.1, 0.1, 0.1, 0.1, 0.1, 0.1, 0.1, 0.1, 0.1, 0.1, 0.1, 0.015240766192781101, 0.01, 0.011284231913833286, 0.010478409314063322, 0.010000000000004096, 0.1, 0.1, 0.01, 0.023843129108922938, 0.014877630645759077, 0.01376951708871275, 0.06176363505434742, 0.08074708399572783, 0.010123196377166107, 0.1, 0.1, 0.19193703491285738, 0.5649170999432348, 0.11750313436450258, 0.04481958362007363, 0.11015189334446719, 0.155376462419078, 0.012928928811576437, 0.1, 0.1, 0.07635172375206231, 0.13263761382852027, 0.10000000811819787, 0.010834625073175622, 0.07829443516390178, 0.10382282568269878, 0.01, 0.1, 0.1, 0.06997341390930355, 0.07038060138943207, 0.10000000404459658, 0.01477879727768087, 0.4459000720673826, 0.10000000494896018, 0.01870239372098005, 0.1, 0.1, 0.042037655799316995, 0.021105579521324757]}, "policy_weights": [-0.06492997705936432, -0.1179521456360817, -0.11200987547636032, 0.1215742751955986, -0.7604334950447083, -1.5243340730667114, -0.10102986544370651, 0.07182592153549194, 0.22157645225524902, 0.6009021401405334, 0.03486713767051697, 0.07701177150011063, 0.6433990597724915, -0.48339617252349854, -0.03129062056541443, 0.00022306105529423803, 0.07943032681941986, 0.4573448598384857, -0.02862861566245556, -0.015545100905001163, 0.21420739591121674, -0.9593162536621094, 0.1079254075884819, 0.04468202218413353, -0.4367147982120514, -0.6209830045700073, 0.051241155713796616, 0.07980113476514816, -0.5207615494728088, -0.09721120446920395, -0.021505041047930717, -0.07764709740877151, -0.10047055035829544, -0.020794332027435303, 0.03123283199965954, 0.09283073991537094, 0.13812561333179474, 0.03014540858566761, 0.050361517816782, 0.009339549578726292, 0.2871714234352112, -0.46275708079338074, -0.026904789730906487, 0.007487892638891935, 0.12016569823026657, -0.05382508412003517, 0.14139841496944427, -0.17850519716739655, -0.03274368867278099, -0.4901202917098999, -0.07285869121551514, 0.07391680032014847, 0.05184691771864891, -0.14980067312717438, 0.13867579400539398, 0.046492550522089005, 0.12627138197422028, -0.08219671994447708, -0.03065619058907032, -0.025494098663330078, 0.3006749451160431, 0.19167064130306244, -0.01292633917182684, 0.05572831258177757, 0.08141014724969864, 0.06621332466602325, 0.1539412885904312, 0.05244442820549011, -0.23432475328445435, 0.44568541646003723, -0.15550707280635834, 0.0494687594473362, 0.05409782752394676, -0.16800381243228912, -0.03791731968522072, -0.06903897970914841, 0.007962049916386604, 0.19028909504413605, 0.1310563087463379, -0.08644730597734451, -0.6268104910850525, 0.17533443868160248, -0.5283003449440002, -0.42823490500450134, -0.19599254429340363, -1.5696161985397339, 1.0836936235427856, 0.5487222671508789, 0.5420674681663513, 1.3380988836288452, 0.1857082098722458, -1.3544760942459106, -0.3492794334888458, 0.052998367697000504, -0.010546988807618618, -0.8553562164306641, -0.03819563239812851, 0.04413213953375816, 0.06555033475160599, 0.12494956701993942, -0.16660857200622559, 0.015726430341601372, 0.15704523026943207, 0.11151670664548874, -0.09509969502687454, 0.06557906419038773, -0.15948034822940826, -0.6994967460632324, -0.39897188544273376, 0.16767406463623047, -0.0852205827832222, 1.8319644927978516, 1.0668281316757202, -0.1859579235315323, 0.14344869554042816, -0.25548604130744934, 0.06528150290250778, 0.15839578211307526, -0.11712943762540817, -0.1537550836801529, 0.08918821066617966, -0.022560372948646545, 0.11020410805940628, 0.19599460065364838, 0.24054956436157227, -0.011086375452578068, -0.07523691654205322, -0.22283388674259186, 0.2001500278711319, -0.22924162447452545, -0.15868495404720306, 0.24182699620723724, -0.5095972418785095, -0.015348642133176327, 0.06815701723098755, 0.005084112752228975, -0.013688936829566956, 0.029009880498051643, 0.21513985097408295, -0.5875795483589172, -0.32565924525260925, 0.1929004192352295, -0.08004630357027054, 0.14683891832828522, -0.08353585749864578, 0.19293548166751862, -0.14927877485752106, 0.13753940165042877, 0.1009419783949852, 0.2517443001270294, 0.1841730922460556, -0.07316632568836212, -0.3230132758617401, -0.10265684872865677, 0.058460649102926254, -0.20248530805110931, 0.22382284700870514, 0.19597919285297394, 0.16207851469516754, 0.02622676081955433, -0.13959930837154388, 0.03962474688887596, 0.01777005009353161, -0.17964066565036774, -0.7508954405784607, 0.11264599114656448, -0.14325489103794098, 0.21571658551692963, -0.15322232246398926, -0.1495102494955063, -0.055015236139297485, -0.31424322724342346, -0.06194973364472389, -1.6501368284225464, -0.2707582414150238, 1.0543278455734253, 0.12346411496400833, 1.1989821195602417, -1.4380379915237427, -0.619893491268158, -0.0634380504488945, -0.4644489586353302, -0.09500978142023087, 1.484136700630188, 0.1539851576089859, -0.15543974936008453, -0.357298880815506, 0.33722230792045593, -0.035792168229818344, 0.020136820152401924, -0.48658573627471924, 0.07531838119029999, -0.18572723865509033, 0.20681273937225342, 0.30987757444381714, 1.2333735227584839, -0.00110119569581002, -0.14374496042728424, 0.284528911113739, -0.8655214905738831, 0.11025813966989517, 0.07052677124738693, 0.403270959854126, 0.8031778931617737, 0.04747408255934715, -0.004266716074198484, -0.04928029701113701, 0.06518483906984329, -0.03556371107697487, 0.02847430296242237, 0.46590742468833923, -0.27437904477119446, -0.11022893339395523, 0.01982983760535717, -0.18593324720859528, 0.10823451727628708, 0.012441419064998627, -0.14783965051174164, -0.09770671278238297, 0.01564125344157219, 0.17132045328617096, 0.15062402188777924, 0.9824504256248474, -0.008868926204741001, 0.027070878073573112, 0.044169191271066666, -0.05114990100264549, -0.005359686445444822, 0.007706799078732729, -0.18488158285617828, 0.19947074353694916, -0.17026029527187347, -0.040951911360025406, -0.03307625278830528, -0.09773731976747513, 0.1664355844259262, 0.008887567557394505, 0.16327856481075287, 0.0795019343495369, -0.03474348410964012, -0.010334237478673458, -0.05483889952301979, 0.23494505882263184, 0.21589581668376923, -0.1799270063638687, -0.0005341469659470022, -0.23974473774433136, 0.15369033813476562, -0.10118798166513443, -0.08308316022157669, 0.23457573354244232, 0.03793511167168617, -0.14017818868160248, -0.06319750100374222, -0.5398630499839783, 1.549291729927063, -0.1066306009888649, -0.036341097205877304, -0.003435741877183318, 0.03671885281801224, -0.009189584292471409, 0.03395301476120949, -0.5890365242958069, -0.20504404604434967, -0.8528165817260742, -0.4618969261646271, -0.5886827707290649, -0.25666674971580505, -1.4121867418289185, 0.34772875905036926, -1.025995135307312, -0.4989687502384186, -1.0859358310699463, -0.14719167351722717, -0.14349743723869324, -0.08839040249586105, 0.050038475543260574, 0.21697890758514404, 1.9105547666549683, -0.10990702360868454, -0.009487821720540524, -0.538332998752594, -0.5854874849319458, 0.04661881551146507, -0.08568310737609863, 0.7280519604682922, 1.2377063035964966, -0.08804207295179367, 0.04761069640517235, 0.8149750828742981, 0.20140908658504486, 0.06577342748641968, -0.05461782589554787, -0.11238467693328857, 0.7061920762062073, 0.036244627088308334, 0.022367777302861214, 0.17662005126476288, 0.17749471962451935, -0.12138224393129349, 0.04052659869194031, 0.31461086869239807, -0.07207667827606201, 0.005947020370513201, 0.08780526369810104, 0.01702667959034443, -0.13586558401584625, 0.03373134508728981, 0.0507921539247036, 0.26650065183639526, -0.08533566445112228, -0.07767068594694138, -0.036923523992300034, 0.31935539841651917, 0.5173283815383911, 0.05643105134367943, 0.07081330567598343, 0.02842247672379017, -0.05771064758300781, 0.08972949534654617, 0.031134309247136116, -0.05800670012831688, -0.15329335629940033, -0.05829930678009987, 0.12099314481019974, -0.025797368958592415, -0.038321878761053085, 0.0662885382771492, 0.0004832651757169515, -0.11176656931638718, -0.0840214416384697, 0.008823157288134098, -0.13200260698795319, -0.07201404869556427, 0.71661776304245, -0.0785440132021904, -0.03683113679289818, 0.32532885670661926, 0.06542644649744034, -0.08749652653932571, 0.054068148136138916, -0.681230366230011, -0.37147244811058044, -0.06349891424179077, 0.052328888326883316, -0.2651948630809784, -0.09984827041625977, 0.11586464196443558, 0.06590867787599564, 0.18698810040950775, -0.24179665744304657, -0.01732274703681469, -0.02205093391239643, -0.9376347661018372, -0.4735311269760132, 0.03714164346456528, -0.6298131942749023, -0.43891778588294983, -0.701324999332428, -0.7440285086631775, 0.19636519253253937, 0.2215813845396042, -0.9568185210227966, -0.563911497592926, 0.15366515517234802, 0.4247746765613556, -0.037265900522470474, -0.094815693795681, 0.5398349165916443, 0.9529144763946533, -0.011228769086301327, -0.022656021639704704, 0.998746931552887, 0.34371665120124817, 0.16598378121852875, 0.11034206300973892, 0.10305160284042358, -0.8089713454246521, 0.1273728758096695, -0.2506978511810303, -0.45593979954719543, 0.4838760793209076, -0.1862940937280655, 0.05179101228713989, -0.12205708771944046, -0.9452046751976013, 0.16145958006381989, 0.16414214670658112, 0.3320426046848297, 0.17886067926883698, -0.03199523314833641, -0.12838532030582428, 0.09398869425058365, 0.0135652469471097, 0.05214915797114372, -0.008824632503092289, -0.08150655031204224, -0.12125193327665329, -0.032581329345703125, 0.006018329877406359, -0.09257353097200394, 0.0018111704848706722, -0.11162269115447998, -0.12419868260622025, 0.6075047254562378, 0.34508511424064636, 0.03368157520890236, -0.07618849724531174, -0.10162457078695297, -0.020742863416671753, -0.03569639101624489, -0.040838658809661865, 0.0012167688691988587, 0.16928885877132416, -0.20367462933063507, -0.16983188688755035, -0.007422744762152433, 0.1572183221578598, -0.11721957474946976, -0.03979838266968727, -0.2357780784368515, -0.01729785092175007, -0.013745962642133236, -0.09466540068387985, -0.5189891457557678, 0.15414664149284363, 0.11250508576631546, 0.0048759873025119305, -0.005819885525852442, -0.15811869502067566, -0.1875898689031601, 0.16482101380825043, -0.2363746166229248, 0.013716249726712704, 0.08895652741193771, 0.029571739956736565, -0.43820950388908386, 4.166813850402832, -0.07479894906282425, -0.18269143998622894, 0.19068588316440582, 0.148507222533226, 0.005354725290089846, 0.11654876917600632, 0.13234515488147736, -0.22809846699237823, -0.5697197318077087, -0.6552180051803589, 0.8023926615715027, 0.3921285569667816, 1.321205973625183, -0.055361807346343994, -0.20123647153377533, 0.24384267628192902, -0.002899335930123925, 0.17062880098819733, -0.428035706281662, 0.10032617300748825, 0.14343570172786713, -0.5125370025634766, 0.30617478489875793, -0.09612464159727097, 0.023824915289878845, -0.844132125377655, -1.8779278993606567, -0.069400854408741, 0.01848040707409382, -0.34584668278694153, -0.5227231383323669, 0.12156462669372559, -0.08610343188047409, -0.3115134835243225, -1.0260660648345947, 0.25580474734306335, 0.08166276663541794, 0.5104804635047913, 0.277121365070343, 0.04984932765364647, -0.034590985625982285, -0.24317781627178192, -0.13732686638832092, -0.19916830956935883, -0.10001520067453384, -0.314626008272171, -0.05427918955683708, -0.046366576105356216, -0.0500456728041172, 0.08398761600255966, -0.008944115601480007, -0.29788824915885925, 0.09549690037965775, -0.0359819270670414, 0.046869803220033646, 0.09693937748670578, -0.04092514514923096, -0.29450276494026184, 1.4238892793655396, 0.1111065074801445, -0.05948937311768532, -0.2685105502605438, 0.07765620201826096, 0.05634940043091774, -0.008568204939365387, -0.14949537813663483, 0.21860383450984955, 0.15739382803440094, -0.06502766162157059, 0.0010342951864004135, -0.05868971720337868, -0.11519431322813034, 0.05931263789534569, -0.0870404914021492, 0.05354541167616844, 0.06684135645627975, 0.09121911972761154, 0.0022166951093822718, -0.0020778945181518793, -0.11105190962553024, 0.016045020893216133, 0.18880294263362885, 0.2332472950220108, 0.11577450484037399, -0.23092888295650482, -0.4722464978694916, 0.29036158323287964, -0.1125805452466011, -0.10954233258962631, -0.5310173630714417, -1.9811822175979614, 0.05693495646119118, -0.030820699408650398, 0.14076285064220428, 0.19338275492191315, 0.06166971102356911, -0.03813856840133667, -0.10978031158447266, -0.07263036072254181, -0.011998801492154598, -0.4846571385860443, 0.8596324324607849, -0.5288267731666565, 0.08742652088403702, -0.10784677416086197, 0.08448959141969681, 0.2871043384075165, 0.20960403978824615, 0.13963542878627777, -0.17221222817897797, -0.19693873822689056, -0.14348290860652924, -0.31597569584846497, 0.7577695846557617, -0.07111053913831711, -0.03560728207230568, -1.2136231660842896, 0.7956508994102478, 0.07629251480102539, -0.08615345507860184, -0.8314084410667419, 0.029455723240971565, 0.05588448420166969, -0.08398395776748657, 0.3137619197368622, 0.47190919518470764, -0.03819740191102028, -0.015611172653734684, 0.6514439582824707, -0.38895416259765625, -0.01060935016721487, 0.040027085691690445, -0.5375238060951233, 0.222503200173378, -0.14289866387844086, -0.012685532681643963, 0.049829285591840744, -0.11369775980710983, 0.12810491025447845, -0.034862369298934937, -0.1359056979417801, -0.18334530293941498, 0.1303161382675171, 0.044571492820978165, 0.08290302753448486, -0.008509629406034946, 0.1036304235458374, -0.1954285055398941, 0.3790278136730194, -0.3448028862476349, 0.034518178552389145, -0.01801602728664875, -0.026035664603114128, 0.16521762311458588, 0.13300345838069916, 0.03648751601576805, -0.1477780044078827, 0.2210826873779297, -0.03836387023329735, 0.04910954460501671, 0.10812274366617203, 0.0336412750184536, 0.1909366399049759, 0.11829067021608353, 0.011138989590108395, 0.08548509329557419, -0.1653514951467514, -0.050416916608810425, 0.8283913731575012, 0.5074580907821655, 0.2539685070514679, -0.009412228129804134, -0.07997710257768631, 0.1722407341003418, -0.013631374575197697, -0.06599128991365433, 0.051359597593545914, 0.22059743106365204, -0.025461336597800255, -0.03224736824631691, -0.21170379221439362, 1.493054986000061, -0.026952087879180908, -0.095116026699543, -0.2746928334236145, -0.1026076003909111, -0.0206740815192461, -0.09821337461471558, 0.04932171106338501, 0.1130002811551094, -0.40396544337272644, -0.2957402169704437, -0.04175400361418724, -0.49395641684532166, -0.40646252036094666, -1.5675431489944458, 2.3873047828674316, -0.04246506467461586, -0.8303098082542419, 0.3232009708881378, -0.2501828372478485, 0.021653516218066216, 0.10454896837472916, -1.5327290296554565, -0.46860742568969727, -0.0030749214347451925, 0.11514627933502197, -0.9288129210472107, -0.3142890930175781, -0.02433796226978302, 0.08104722946882248, -0.13930778205394745, 0.07660835236310959, -0.09671717137098312, 0.03763579949736595, 1.689559817314148, -0.6176642775535583, -0.00795112643390894, -0.15224049985408783, 0.05188411474227905, 0.08979541063308716, 0.11328340321779251, 0.12303899973630905, -1.340971827507019, -0.21184156835079193, -0.05317944660782814, 0.1851034015417099, -0.46288493275642395, -0.19053857028484344, -0.0017006342532113194, 0.0407404862344265, -0.1600901037454605, -0.12040694802999496, 0.049662381410598755, -0.0043689231388270855, 0.05285276845097542, 0.013665653765201569, -0.08650445193052292, 0.1597660928964615, -0.19984304904937744, -0.21994400024414062, -0.15529464185237885, -0.05488743260502815, 0.20096909999847412, 0.09470392018556595, -0.04891562834382057, 0.00773669732734561, 0.05890269950032234, -0.11886989325284958, -0.06122398376464844, 0.10999008268117905, 0.005968123208731413, 0.10366308689117432, 0.049705151468515396, -0.02568936161696911, 0.030663101002573967, 0.08437972515821457, -0.12020159512758255, -0.013792349956929684, 0.7552029490470886, -0.3322465121746063, 0.09869352728128433, -0.08400779217481613, 0.11360014230012894, -0.13094152510166168, 0.02954411506652832, -0.048555273562669754, 0.6602510213851929, -0.11759734153747559, -0.09943277388811111, -0.16592930257320404, -0.017229389399290085, -0.5038546323776245, 0.01658010296523571, 0.05725157633423805, 0.21243979036808014, 0.3832089900970459, -0.15875184535980225, -0.09927553683519363, -0.24727438390254974, 0.8401927351951599, 0.02985822968184948, 0.07766448706388474, -1.7606183290481567, 0.35579872131347656, -0.33086341619491577, 1.2376353740692139, 0.7860683798789978, -0.7651576399803162, 0.07352916896343231, -0.3270213007926941, -0.21262526512145996, 0.020825950428843498, -0.06322937458753586, -0.36637166142463684, -0.29465940594673157, -0.05089486017823219, -0.27212807536125183, -0.415404349565506, 0.08109720051288605, -0.06319583207368851, -0.10569571703672409, 0.8046693801879883, -0.6083604097366333, 0.09996425360441208, -0.028324784711003304, 0.6065260171890259, 0.9374695420265198, 0.0939246341586113, -0.06119858846068382, -0.3196050822734833, -0.18950605392456055, 0.1929701715707779, 0.09250307828187943, -0.5300619006156921, -0.25496384501457214, -0.07900666445493698, -0.0842185690999031, 0.033537980169057846, -0.16705088317394257, -0.0544787235558033, -0.21634651720523834, -0.04935181513428688, 0.023262767121195793, 0.10654672235250473, -0.034522686153650284, -0.10785416513681412, -0.0500679574906826, -0.1742309182882309, -0.04848713055253029, 0.2152409553527832, 0.5363922715187073, -0.07740271836519241, 0.024795087054371834, -0.029381277039647102, 0.16092108190059662, -0.16927315294742584, 0.02253943867981434, 0.253766268491745, 0.20132453739643097, -0.05894613638520241, -0.08373255282640457, -0.03387060388922691, -0.15257598459720612, 0.024563757702708244, 0.08836574107408524, 0.03865674510598183, 0.14062561094760895, -0.058293577283620834, -0.03453734889626503, 0.5469173192977905, -0.27095896005630493, -0.08092664927244186, 0.10275522619485855, 0.7558409571647644, 0.3234272301197052, -0.16703177988529205, -0.15054430067539215, 0.39721551537513733, 0.5260280966758728, 0.07137929648160934, 0.025550397112965584, -0.08296860009431839, 3.474980592727661, 0.06355762481689453, -0.11739934235811234, 0.1596432626247406, 0.17096710205078125, -0.008635184727609158, -0.05761224403977394, -0.21198773384094238, -0.19274400174617767, -0.6239076256752014, -0.281099408864975, -0.03039061836898327, -0.700535774230957, -0.6389592885971069, -0.2612452208995819, 1.5373822450637817, 0.5156499147415161, 0.5879311561584473, -0.1616959422826767, -0.6336418390274048, -0.1172260120511055, -0.015744803473353386, -0.07360626012086868, -0.8629046082496643, -0.10552114248275757, -0.08691609650850296, -0.5553268194198608, -0.4250164330005646, -0.05510539188981056, -0.0075725470669567585, 0.6780462861061096, 0.13812385499477386, 0.008551456034183502, -0.07722001522779465, 0.35547301173210144, 0.5146494507789612, -0.00937425997108221, 0.009728297591209412, -0.26880159974098206, 0.09694629162549973, 0.13772644102573395, -0.0340004600584507, -0.328141987323761, -0.28547361493110657, 0.008471771143376827, 0.031653642654418945, 0.1313430219888687, -0.08712112158536911, 0.0404333733022213, -0.15032337605953217, 0.058170098811388016, 0.03397682309150696, 0.01735392026603222, -0.12557770311832428, 0.17019547522068024, -0.1222597286105156, 0.04150768741965294, -0.014221222139894962, 0.17298199236392975, 0.08581628650426865, -0.32414838671684265, -0.004468776285648346, -0.12245667725801468, 0.046538710594177246, 0.11415504664182663, 0.043224576860666275, -0.20472906529903412, 0.2862963378429413, -0.05962228402495384, 0.002483081305399537, -0.1394052356481552, 0.026340125128626823, 0.0765620544552803, -0.17775119841098785, 0.15123571455478668, -0.11298633366823196, -0.08522545546293259, -0.11321187764406204, 0.5357624292373657, 0.8664219975471497, -0.04251759871840477, -0.014094485901296139, 0.14505459368228912, 0.006919219624251127, -0.14888201653957367, -0.1120070144534111, -0.02072426676750183, -0.137739896774292, -0.06677025556564331, -0.19988034665584564, -0.21079111099243164, -0.9151642918586731, -0.003238140372559428, -0.030215950682759285, 0.23444201052188873, 0.07312125712633133, 0.11526132375001907, 0.15012703835964203, -0.7859006524085999, 0.2749567925930023, -0.7084618210792542, -0.1679992824792862, -0.7181448340415955, -1.3200064897537231, 0.06058163940906525, 1.1950932741165161, -0.9892930388450623, -0.4968871772289276, -0.49875450134277344, -0.6595343947410583, 0.08405851572751999, 0.005142714828252792, 0.07630287855863571, 0.14544592797756195, 0.1329256296157837, -0.18305478990077972, -0.036438826471567154, 0.41430631279945374, 0.5014567971229553, -0.03567993640899658, -0.09777151793241501, -0.033338967710733414, -0.19702236354351044, 0.056746359914541245, 0.007422358263283968, -0.5323988199234009, -0.11306928843259811, -0.030360130593180656, -0.1527778059244156, 0.03665021061897278, -0.4894302785396576, -0.12253021448850632, -0.11806630343198776, 0.05034006014466286, 0.1678294986486435, 0.06754957884550095, -0.026387037709355354, 0.2540833353996277, -0.10241132974624634, 0.06957293301820755, 0.13772164285182953, -0.11383040994405746, 0.25791090726852417, -0.003280788892880082, -0.019314320757985115, 0.07418884336948395, -0.13266143202781677, 0.03434637561440468, 0.19814260303974152, 0.4473266303539276, -0.005742418114095926, 0.006791815627366304, 0.056489888578653336, -0.03835338354110718, 0.1152033880352974, 0.04067626968026161, -0.0490499772131443, -0.49802592396736145, 0.17548811435699463, 0.16994322836399078, -0.03393864259123802, 0.035682473331689835, 0.07639854401350021, 0.1554257869720459, -0.01724475808441639, -0.2462940365076065, 0.13912715017795563, -0.03402212634682655, -0.04967969283461571, 0.0851162001490593, 1.0937813520431519, 0.11464548856019974, 0.015507937408983707, 0.028807947412133217, 0.15915489196777344, 0.0745050236582756, 0.11756075173616409, 0.05066635087132454, 0.004593937657773495, -0.02380754053592682, 0.023527206853032112, -0.30783411860466003, -0.23378831148147583, 0.058084066957235336, -0.08879495412111282, 0.1383819431066513, 0.1414608657360077, 0.07627075165510178, 0.11989950388669968, -1.036805272102356, -1.0970572233200073, 0.00823450367897749, -0.5198835730552673, 0.5789684653282166, -0.36459192633628845, 0.7427353262901306, 0.4154016077518463, 1.3852401971817017, 0.6279879212379456, 1.641483187675476, 0.35613229870796204, 0.6563730835914612, -0.06869077682495117, -0.070377878844738, 0.26264312863349915, 0.6909613013267517, -0.06744372844696045, 0.11318611353635788, -0.3277631402015686, -0.41776278614997864, 0.09862906485795975, 0.17637299001216888, 1.5504379272460938, -0.1571652591228485, -0.1448742002248764, -0.013203085400164127, 0.43009182810783386, 0.39533427357673645, 0.0023748523090034723, -0.08182109147310257, -0.7816954255104065, -0.08271834999322891, 0.03270206227898598, 0.12810255587100983, -0.07737709581851959, 0.0333586260676384, 0.10673590749502182, -0.16713275015354156, 0.182888463139534, -0.2794096767902374, 0.15726244449615479, -0.10657185316085815, -0.061977583914995193, 0.1662665754556656, 0.25931882858276367, -0.022409571334719658, 0.16688035428524017, 0.1469438523054123, -0.22808478772640228, -0.13813970983028412, 0.9035317301750183, -0.7293707728385925, -0.20377804338932037, -0.031115682795643806, 0.03378409147262573, 0.065846748650074, 0.01224543061107397, 0.09818392246961594, -0.1522025167942047, 0.16178931295871735, 0.053027454763650894, -0.11395823210477829, 0.030750544741749763, 0.13329122960567474, -0.006205924320966005, 0.1118302270770073, -0.07198614627122879, -0.08379190415143967, 0.1683821827173233, -0.008046292699873447, 0.3132205009460449, 0.393398255109787, -0.08637439459562302, -0.054320868104696274, 0.22789223492145538, 0.30655553936958313, 0.07295221835374832, -0.04086875542998314, -0.18785329163074493, 0.38747096061706543, -0.18820132315158844, -0.08744948357343674, -0.8232924342155457, -0.25291916728019714, -0.04277009144425392, 0.039061155170202255, 0.10903216153383255, 0.00172738719265908, 0.14674602448940277, 0.08628679066896439, -0.43953797221183777, -0.35367485880851746, -0.3993619382381439, 0.003420587396249175, -0.4600844085216522, -0.14500738680362701, -0.10313669592142105, -0.9580201506614685, 0.8275250792503357, 0.5557523369789124, 0.3432789146900177, -2.0577471256256104, -1.0442487001419067, -0.05712210759520531, -0.03580251708626747, 0.12336751818656921, 0.7841663360595703, 0.0875191017985344, -0.04045742750167847, 0.3422580063343048, -0.03029610961675644, 0.19922290742397308, -0.031249048188328743, 0.14951466023921967, 0.23204928636550903, 0.13755618035793304, 0.01226320955902338, -0.7055540680885315, -0.44783827662467957, -0.06935817003250122, -0.007557443808764219, -0.47422072291374207, -0.45487403869628906, 0.09931129962205887, 0.11112772673368454, 0.35930323600769043, -0.13479197025299072, 0.00958242267370224, 0.11892246454954147, -0.18197335302829742, 0.36031246185302734, 0.043086711317300797, 0.06623201817274094, -0.17101801931858063, 0.13439048826694489, 0.1464918702840805, -0.09045714884996414, -0.1316651850938797, -0.01974400319159031, -0.1052548885345459, 0.1280643790960312, 0.27905941009521484, 0.7662108540534973, -0.09971440583467484, 0.010942681692540646, -0.11925231665372849, 0.11164164543151855, -0.21218760311603546, -0.1326000690460205, 0.022144226357340813, -0.058250363916158676, 0.011813230812549591, 0.008256250061094761, 0.04727012291550636, 0.1303182989358902, -0.10309409350156784, 0.020286427810788155, 0.11402105540037155, -0.013453071005642414, 0.09347396343946457, 0.12937377393245697, -0.8107529282569885, -0.44185662269592285, 0.1234201118350029, 0.2110968381166458, -0.27999642491340637, -0.34928035736083984, 0.006363064516335726, -0.031425174325704575, -0.13309405744075775, -0.23882938921451569, 0.12697027623653412, -0.039191070944070816, -0.1510247141122818, -0.8918982148170471, 0.04130008816719055, 0.007841982878744602, 0.05857253074645996, -0.028569070622324944, -0.04793975129723549, -0.06809484213590622, -1.0780775547027588, -0.6338434219360352, -0.5232776403427124, -0.08728712797164917, -0.005295842420309782, -1.796801209449768, -0.7191252112388611, 0.6902656555175781, 1.0929100513458252, 0.06834875047206879, 1.2085341215133667, -0.5536602735519409, 0.25733038783073425, 0.10878551751375198, -0.010360299609601498, -1.6052430868148804, -0.6045278906822205, -0.04685330390930176, 0.05746680125594139, 0.13702429831027985, 0.7004561424255371, 0.00977137591689825, -0.033359285444021225, 0.5203136205673218, -1.103342890739441, 0.03256693109869957, 0.014320134185254574, -0.022795455530285835, -0.3470311462879181, -0.07117145508527756, 0.13252712786197662, 0.8190441727638245, -0.38484105467796326, -0.14590583741664886, 0.13757836818695068, -0.6584826111793518, -0.0656205341219902, -0.07479602843523026, -0.1002955511212349, 0.4341166019439697, -0.0353960320353508, 0.04137193784117699, 0.1456686407327652, 0.04593433067202568, 0.352032870054245, 0.16364695131778717, -0.10401583462953568, -0.20368383824825287, -0.1142401322722435, -0.017734887078404427, -0.0015266555128619075, 0.033814601600170135, 0.11587870866060257, 0.02068251185119152, 0.09817563742399216, -0.012906788848340511, 0.0847814679145813, -0.16491569578647614, 0.06750357896089554, 0.11733321100473404, 0.12076058983802795, -0.05424826964735985, 0.03500226512551308, -0.04650622233748436, 0.026204833760857582, -0.08931045979261398, -0.040445420891046524, 0.11098536103963852, 0.02285987325012684, 0.14069293439388275, -0.0442655123770237, 0.09537754207849503, 0.47635653614997864, -0.10241042822599411, -0.006269394885748625, 0.14127159118652344, -0.1775808334350586, 0.04470222815871239, -0.1463235765695572, 0.6477550268173218, 0.22062723338603973, 0.057544413954019547, 0.05425209179520607, -0.03614680841565132, 2.823174238204956, 0.023421308025717735, -0.05700397863984108, 0.2190427929162979, 0.14463868737220764, -0.014617742039263248, 0.0008837691857479513, 0.10551384836435318, 0.26347827911376953, -0.2179877609014511, -0.5472272634506226, -0.10646947473287582, -0.060491934418678284, -0.5794487595558167, -0.8165541291236877, -1.5225706100463867, 0.43655967712402344, 0.9238929748535156, 0.34876394271850586, 0.9928379654884338, -0.007133484352380037, -0.02082495577633381, -1.1491577625274658, -0.6759365200996399, 0.036157965660095215, -0.029286207631230354, -0.3271317780017853, 0.010156406089663506, -0.08512835949659348, -0.032888296991586685, -0.05465751513838768, -0.6903380751609802, -0.07744825631380081, 0.1578352302312851, 0.4627724885940552, 0.0245515089482069, 0.15290497243404388, -0.032802581787109375, 0.6979936957359314, 0.3463868796825409, 0.07267718762159348, 0.022763481363654137, -0.648653507232666, 0.007280068472027779, 0.01585678569972515, 0.02361549623310566, 0.0017223412869498134, -0.09847531467676163, 0.1494779735803604, -0.0024988094810396433, 0.08015717566013336, -0.00448936503380537, -0.1397320181131363, -0.0769110843539238, 0.02168954908847809, 0.08174365013837814, -0.23906992375850677, 0.04082822427153587, 0.46033671498298645, -0.8478323817253113, -0.01840054802596569, 0.01026295218616724, 0.05292391777038574, 0.0344027616083622, -0.122726209461689, -0.040318697690963745, -0.11906994134187698, 0.062479693442583084, 0.08661692589521408, -0.0194022785872221, 0.0046716476790606976, -0.04383591189980507, -0.061771687120199203, -0.020465178415179253, 0.06976557523012161, 0.02868509106338024, -0.039242297410964966, -0.07674026489257812, 1.0893305540084839, 0.8685979843139648, 0.16251827776432037, -0.02096649818122387, 0.2650831341743469, -0.4501091539859772, 0.10663978010416031, -0.06027478352189064, 0.24549610912799835, 0.3641801178455353, -0.03907480463385582, -0.038454439491033554, -0.045011285692453384, -2.049611806869507, 0.1691199690103531, 0.07920139282941818, 0.3750494420528412, 0.015682632103562355, 0.08643073588609695, 0.2534187138080597, -0.4722086191177368, -0.08089394122362137, -0.09505506604909897, -1.2443006038665771, -0.6569153070449829, -0.5467248558998108, -1.2521106004714966, -0.9390351176261902, -0.2402593493461609, 0.684485912322998, -0.27282455563545227, -0.029726563021540642, -0.2739739418029785, -0.016196860000491142, -0.0778377577662468, -0.9084023833274841, -0.8350996971130371, -0.141569122672081, 0.17366303503513336, -0.530009388923645, -0.29014021158218384, 0.11726868897676468, -0.021090475842356682, -0.013640165328979492, -1.6355714797973633, -0.051936596632003784, 0.047758836299180984, 0.8985787034034729, -0.1728687435388565, -0.042949140071868896, -0.004871372599154711, -0.37877318263053894, -0.679222583770752, -0.004038159269839525, 0.02513122372329235, -0.8366942405700684, 0.08660473674535751, -0.043817102909088135, -0.07988745719194412, -0.15438999235630035, 0.5901612639427185, 0.1542212814092636, 0.08389674872159958, 0.07554258406162262, 0.19182418286800385, -0.14647819101810455, -0.047181129455566406, 0.001710516051389277, -0.017555655911564827, -0.17231382429599762, -0.028615204617381096, -0.14161548018455505, -0.6438108682632446, -0.07036226987838745, -0.05114622786641121, -0.0848894789814949, 0.0015807697782292962, 0.03407416120171547, 0.07650161534547806, 0.015662526711821556, -0.05393316224217415, -0.01607385091483593, 0.04324302077293396, -0.06991923600435257, -0.07929635047912598, 0.051180656999349594, -0.017359478399157524, 0.11481953412294388, 0.2093164175748825, -0.2089570313692093, -0.17097578942775726, -0.6553383469581604, -0.08101733028888702, -0.003037605667486787, -0.06340908259153366, 0.06624848395586014, 0.4879126250743866, 0.01365473959594965, 0.04066360369324684, 0.3865066468715668, -0.08517705649137497, 0.2605307400226593, 0.08472888916730881, -0.2983301281929016, 1.9468046426773071, 0.06325513869524002, 0.07607489079236984, -0.02091553993523121, 0.23210088908672333, -0.08106838911771774, -0.037995364516973495, -0.9592915177345276, -0.2709369957447052, -0.51732337474823, -0.6438130736351013, -0.5860100388526917, -1.0744589567184448, 0.003912697546184063, -0.34836170077323914, -0.5882567763328552, -0.0901482030749321, 0.330466091632843, -0.27981141209602356, 0.5411826968193054, -0.009721650741994381, 0.11971903592348099, -0.9109898209571838, 0.2007453292608261, 0.04130852594971657, 0.16372333467006683, 0.6116359829902649, 0.3683108985424042, -0.059925492852926254, -0.007702223490923643, 0.2499280571937561, -1.263497233390808, -0.19035299122333527, -0.0005050330073572695, 0.35305097699165344, -0.021206406876444817, -0.07413864880800247, 0.05448170378804207, 0.17888595163822174, -1.1295186281204224, -0.06578058749437332, 0.15726135671138763, -0.3799002468585968, 0.16865050792694092, -0.041626427322626114, 0.1370248645544052, -0.05059075728058815, -0.3153499662876129, -0.1869213730096817, 0.003691621357575059, -0.12035728245973587, -0.2599397301673889, 0.08828186243772507, 0.06536292284727097, 0.0015937088755890727, -0.1748158484697342, 0.00910241063684225, 0.037648025900125504, 0.3708004057407379, -0.5051001906394958, -0.10997732728719711, 0.06770651787519455, 0.06767309457063675, -0.12302207201719284, -0.02756415866315365, -0.02979552559554577, 0.12668444216251373, -0.05439658835530281, -0.019099516794085503, -0.14100433886051178, 0.1063586100935936, -0.010269044898450375, 0.08183717727661133, 0.03864011541008949, 0.07282084971666336, 0.09212017804384232, 0.15414023399353027, -0.054581183940172195, 0.9035155773162842, 0.2829987406730652, -0.16516266763210297, -0.03714781627058983, 0.2898285686969757, 0.08985482901334763, 0.11805523186922073, 0.21334974467754364, -0.16246022284030914, 0.2829870879650116, 0.13011611998081207, 0.006731211673468351, -0.5059375166893005, -0.42746737599372864, 0.005991071928292513, -0.10566719621419907, 0.24076128005981445, 0.3165357708930969, -0.028506668284535408, -0.0464060939848423, 0.4054822623729706, 1.069037675857544, -0.1454545557498932, -1.2705518007278442, -0.8095598816871643, -1.4998503923416138, 0.6577119827270508, 0.4095611274242401, -1.801729679107666, -0.5633105039596558, 0.8202391266822815, -0.6966476440429688, -0.5712814927101135, -0.016796065494418144, 0.11693810671567917, -0.7441415190696716, -0.5458316802978516, 0.08752978593111038, -0.06001550331711769, -0.08783305436372757, 0.5588045716285706, -0.07759963721036911, 0.1125718280673027, 0.3946743905544281, 0.44139862060546875, -0.01589830219745636, -0.015185819007456303, 0.3014497458934784, -0.34581711888313293, -0.03172164782881737, -0.028383703902363777, 1.333330512046814, 1.1759109497070312, 0.09254641085863113, 0.11710036545991898, -0.3891787827014923, -0.002730725100263953, -0.1289069503545761, -0.05699080601334572, 0.002823842689394951, 0.4031769335269928, 0.09531134366989136, 0.009657458402216434, 0.005019065923988819, -0.2980920970439911, -0.04627200961112976, -0.06401295214891434, 0.07764683663845062, 0.068049855530262, 0.014548183418810368, 0.06521088629961014, 0.01031493954360485, 0.5046544671058655, 0.05295063927769661, -0.18791399896144867, -0.14718200266361237, 0.14308618009090424, -0.07589703053236008, -0.23233984410762787, -0.19496722519397736, -0.08962856978178024, 0.013051189482212067, 0.017172707244753838, -0.3138293921947479, -0.12912259995937347, -0.06540578603744507, 0.14030112326145172, -0.12340892106294632, -0.1232914850115776, 0.0685994029045105, -0.20642401278018951, -0.046359676867723465, 0.09088706225156784, 0.12600289285182953, 0.07557707279920578, 0.5642995238304138, -0.06438171863555908, -0.07815677672624588, 0.012371166609227657, 0.03241061791777611, 0.20782606303691864, -0.015630796551704407, 0.018014563247561455, -0.006529480218887329, -2.3085951805114746, 0.13507018983364105, -0.03158664330840111, -0.07924496382474899, 0.4319054186344147, 0.048859357833862305, 0.024745849892497063, -0.37022724747657776, -0.2553524672985077, -1.140899896621704, -0.04011743888258934, 0.06256531924009323, 0.0391596220433712, 1.022375226020813, 0.691655695438385, 0.2947613596916199, -0.121216781437397, -0.8418270945549011, 0.2822592854499817, 1.2030365467071533, -0.09019274264574051, 0.05143028125166893, -0.5060839056968689, 0.48790982365608215, -0.17148806154727936, -0.1583385318517685, -0.18031693994998932, -0.29804447293281555, 0.026323048397898674, 0.05626409873366356, 0.1527165025472641, -0.8629058003425598, -0.1468270868062973, -0.3175030052661896, 0.3458728492259979, -0.7823169827461243, 0.06864231079816818, 0.0015984439523890615, -0.14135310053825378, -0.4103245437145233, 0.030687006190419197, -0.15689480304718018, -0.4876116216182709, -0.008027948439121246, -0.016235409304499626, -0.06955147534608841, -0.21045230329036713, -0.40338292717933655, -0.0613555945456028, -0.05627649649977684, -0.04617876932024956, -0.32370778918266296, 0.004595537204295397, -0.01637631468474865, -0.030771106481552124, 0.2832634150981903, -0.02828165888786316, 0.0530448853969574, -0.2561890780925751, -0.507761538028717, 0.05397183075547218, -0.09116362780332565, 0.06123524531722069, -0.045048896223306656, -0.07746874541044235, -0.015817761421203613, -0.1332481950521469, 0.0732206329703331, -0.060794051736593246, -0.10559912770986557, -0.014793396927416325, -0.033720675855875015, -0.06554866582155228, -0.028486790135502815, 0.19216597080230713, 0.1170119121670723, -0.12412870675325394, 0.1708761304616928, -0.3720986545085907, -0.48622938990592957, -0.07402003556489944, -0.13206113874912262, -0.05856931582093239, -0.24583379924297333, 0.023026734590530396, -0.1666739135980606, -0.16864891350269318, -0.09395729750394821, 0.06556594371795654, -0.16019009053707123, -0.3012354075908661, 1.5207176208496094, -0.003095779800787568, -0.07055496424436569, -0.015988318249583244, -0.027588114142417908, 0.1287604570388794, -0.06789892166852951, -0.980374276638031, -0.33417701721191406, -0.6838379502296448, 0.1053248718380928, -0.11383071541786194, 0.019005509093403816, -0.9310662150382996, -1.8579769134521484, 0.7605566382408142, 1.5530146360397339, 0.9851877689361572, -0.0848802849650383, 0.12039817124605179, 0.09089911729097366, 0.06331849843263626, -0.0710582584142685, -1.059828758239746, 0.0679125115275383, -0.042190227657556534, -0.07243917882442474, -0.4301447570323944, 0.26744702458381653, -0.1448131948709488, 1.1761726140975952, 0.04684031382203102, -0.21865485608577728, 0.10449372977018356, -0.04645079746842384, -0.38972893357276917, 0.09011440724134445, 0.05373571440577507, 0.4070706069469452, 1.6086615324020386, -0.08334123343229294, -0.0818680003285408, -0.342314749956131, -0.618061900138855, -0.05592268332839012, 0.014849320985376835, -0.12197092920541763, 0.3244691491127014, 0.10451213270425797, -0.002495661610737443, -0.19222627580165863, -0.11914058774709702, 0.008209005929529667, 0.028608767315745354, 0.015763210132718086, -0.17072175443172455, -0.026682129129767418, -0.08194787055253983, -0.0018241485813632607, -0.34039807319641113, -0.1332259327173233, 0.05974293127655983, -0.1948600560426712, -0.06602144986391068, -0.0051424247212708, 0.03372824564576149, 0.04167884215712547, 0.2246285229921341, 0.007451504468917847, -0.262653112411499, -0.07524580508470535, -0.048343125730752945, 0.031197072938084602, -0.012592076323926449, -0.050872381776571274, 0.022925736382603645, 0.035327162593603134, 0.15505529940128326, -0.8073895573616028, 0.043230775743722916, -0.09154785424470901, -0.0709155723452568, -0.2809690535068512, -0.15096306800842285, 0.03404083847999573, 0.01639709062874317, -0.004943135194480419, 0.010914313606917858, 0.08384030312299728, 0.07393728941679001, 0.054999709129333496, -1.9671117067337036, 0.049438294023275375, -0.04841810464859009, 0.2816695272922516, 0.2464139312505722, 0.1022641733288765, 0.11810076236724854, -0.6147476434707642, -0.4683093726634979, 0.20749880373477936, -0.6478490829467773, 0.5156373381614685, -0.38342639803886414, -1.463694453239441, -0.6692075133323669, -0.0586136169731617, 0.9856045246124268, -0.8079634308815002, 0.2340673804283142, -0.02499471604824066, -0.024047093465924263, -0.1655319780111313, -0.8737046122550964, -0.16184529662132263, 0.19351612031459808, -0.032901111990213394, -0.4894571602344513, 1.1671255826950073, 0.05442607030272484, -0.2201298028230667, -0.003649771213531494, 0.12098463624715805, -0.09618956595659256, 0.007787651848047972, 0.2387281209230423, -0.10844818502664566, -0.0648421123623848, -0.0543876476585865, 0.35741302371025085, -0.5197983384132385, -0.16134296357631683, -0.1401662677526474, -0.6745886206626892, -0.004311822820454836, -0.04546952620148659, -0.12077093869447708, -0.26299336552619934, 0.14270423352718353, -0.057541076093912125, -0.04312402382493019, -0.1726367026567459, -0.3307022750377655, -0.03257259353995323, -0.032118674367666245, 0.08092258870601654, -0.0012592971324920654, -0.017330018803477287, 0.08630108088254929, 0.19825278222560883, 0.46992191672325134, 0.035285834223032, -0.13485504686832428, 0.04945746436715126, 0.004772439133375883, -0.01306713093072176, -0.04023275151848793, -0.10025464743375778, 0.11849416047334671, -0.17382502555847168, 0.050940338522195816, 0.06291311234235764, -0.015528096817433834, -0.030745090916752815, 0.027954397723078728, -0.0741727277636528, 0.08459628373384476, -0.0028925274964421988, 0.1918332725763321, -0.4153292179107666, 0.057658836245536804, -0.00430624233558774, 0.011752613820135593, -0.3142499625682831, -0.6456102132797241, -0.09126881510019302, -0.13095401227474213, 0.044913146644830704, -0.3625290095806122, 0.01009669154882431, 0.12100886553525925, -0.2832934558391571, -1.7279497385025024, 0.08894329518079758, 0.10283494740724564, -0.120307557284832, -0.008237875998020172, 2.324898559891153e-05, -0.03245663270354271, 0.43575558066368103, 0.6792992949485779, 0.5132899880409241, -0.8968018889427185, -1.4448784589767456, -0.30830836296081543, -1.4840871095657349, 1.5553399324417114, 1.4576066732406616, -0.5273786187171936, 0.7421310544013977, -0.6054354310035706, 0.5510883927345276, -0.09388328343629837, -0.00830789003521204, 0.19404588639736176, 0.2158515602350235, 0.12860356271266937, -0.1601743847131729, 0.6268974542617798, -0.06586741656064987, 0.15321362018585205, 0.16327954828739166, -0.862407386302948, -0.08688623458147049, 0.047529954463243484, 0.052687257528305054, -0.398003488779068, 0.9617003798484802, -0.02073344588279724, 0.007095799315720797, 0.25032883882522583, 1.1537474393844604, -0.0603935681283474, 0.05766826495528221, 0.05977817252278328, 0.7040320038795471, 0.07821010798215866, -0.041115760803222656, 0.3189029395580292, 0.16471309959888458, 0.1113283708691597, 0.030708668753504753, 0.1237945482134819, 0.08277463167905807, 0.17686568200588226, -0.051697988063097, -0.01753431372344494, 0.08768749982118607, 0.019193366169929504, 0.09103135019540787, 0.32948487997055054, -0.4783487021923065, 0.09153687208890915, 0.021689398214221, 0.016981853172183037, 0.0029473749455064535, -0.07111699134111404, 0.11914645880460739, -0.06443427503108978, -0.07947336882352829, -0.017411602661013603, -0.0638284757733345, -0.014231308363378048, -0.0328025259077549, -0.01654835045337677, -0.10400839895009995, 0.03352754935622215, -0.052841898053884506, -0.30258414149284363, -0.023877831175923347, -0.4737715423107147, 0.4686446487903595, 0.04097112640738487, 0.02844536118209362, -0.2352910190820694, 0.5412763357162476, -0.08366287499666214, -0.08527208119630814, 0.18680061399936676, 0.5005097985267639, -0.04583001509308815, -0.10794151574373245, -0.44138428568840027, -0.412264347076416, 0.0011421533999964595, 0.08482814580202103, 0.004954642150551081, 0.07237129658460617, 0.07286275178194046, -0.030594350770115852, -0.10675331205129623, -0.7451038956642151, 0.1939208060503006, -1.139976143836975, 1.6337770223617554, -1.680987000465393, -1.3860286474227905, -0.21711523830890656, 0.04220232367515564, 0.34708425402641296, -0.7305903434753418, -0.1907529979944229, 0.40377917885780334, 0.014445574022829533, 0.08295946568250656, -0.464337021112442, -1.203454852104187, 0.029869137331843376, -0.12410377711057663, 0.2840161919593811, -1.0834732055664062, -0.015028326772153378, 0.03860974684357643, 1.0198700428009033, -0.48853251338005066, 0.01734064519405365, -0.13968072831630707, -0.40076908469200134, 0.30041664838790894, 0.0761365294456482, -0.14612840116024017, -0.07152020931243896, -0.23434537649154663, -0.02508898638188839, 0.06222456693649292, -0.11157039552927017, -0.029698191210627556, -0.025919614359736443, -0.0798112228512764, 0.1543123722076416, -0.07150571048259735, 0.02627474255859852, -0.06232959404587746, 0.01907871849834919, 0.08087842911481857, -0.03652358055114746, -0.034891992807388306, -0.14301086962223053, 0.09831555932760239, 0.012862100265920162, 0.017210813239216805, 0.5267234444618225, 0.0016941940411925316, 0.012581001035869122, -0.11606382578611374, 0.04937956854701042, -0.08524244278669357, 0.08480750769376755, -0.021305324509739876, 0.11925040930509567, -0.031430091708898544, 0.05166101083159447, -0.10622671991586685, 0.11929129809141159, 0.05703234300017357, -0.09553223103284836, -0.13185594975948334, 0.0029865221586078405, -0.1255081743001938, -0.08804202824831009, -0.003247905522584915, -0.6849884986877441, -1.2437342405319214, -0.030116764828562737, 0.16522561013698578, -0.20814092457294464, -0.21497584879398346, 0.054057877510786057, 0.023923994973301888, -0.09875109046697617, 0.0020534947980195284, 0.007749289274215698, 0.06529945880174637, -0.8086900115013123, 1.7815953493118286, 0.022922327741980553, -0.03407967463135719, 0.18214230239391327, -0.2762306332588196, 0.09230073541402817, 0.003610484069213271, 0.39344242215156555, 0.7610192894935608, 0.1395857036113739, -1.1365480422973633, -0.12875758111476898, -0.38561925292015076, -1.3713016510009766, 0.2449227124452591, 1.072733998298645, -0.06191333010792732, 0.3127499222755432, -0.5931076407432556, -1.2068287134170532, 0.04824038967490196, -0.13612782955169678, -0.2240278571844101, 1.4329205751419067, 0.041936036199331284, 0.09282571822404861, 0.16282495856285095, -0.8768227696418762, -0.1277930587530136, -0.10713183134794235, 0.23170708119869232, -1.2041070461273193, 0.02247944287955761, 0.07316791266202927, 0.38133975863456726, 0.8101244568824768, -0.10120128840208054, -0.09100223332643509, 0.3537757694721222, 0.04340069368481636, 0.11805307120084763, -0.0740974023938179, -0.3073415756225586, 0.21708989143371582, -0.05221803858876228, -0.0216319989413023, -0.3512716591358185, -0.2528095245361328, -0.03061121515929699, -0.12721478939056396, -0.15371359884738922, -0.09839872270822525, -0.11367107182741165, -0.1452871412038803, 0.1268494427204132, -0.18698160350322723, 0.017802150920033455, 0.07956648617982864, 0.05429089441895485, 0.5186298489570618, -0.2626676857471466, 0.13218629360198975, -0.05824047699570656, -0.008974052034318447, -0.15548394620418549, 0.021890850737690926, -0.1271742731332779, -0.36042091250419617, 0.052060846239328384, -0.03179151192307472, -0.13494884967803955, -0.10812831670045853, 0.045334067195653915, -0.01773384027183056, -0.1545795351266861, 0.21464955806732178, 0.10465217381715775, 0.0651666596531868, -0.6536845564842224, -0.1564742475748062, 0.030607251450419426, 0.03999850153923035, 0.4739389419555664, -0.047064151614904404, 0.18753354251384735, 0.21902339160442352, 0.08430754393339157, 0.3838476240634918, 0.08146416395902634, 0.09636711329221725, 0.12716518342494965, -1.8865152597427368, 0.06417394429445267, -0.03877655044198036, 0.0368475578725338, -0.21269075572490692, 0.049146294593811035, -0.05338221415877342, -0.023722326382994652, 0.05634377896785736, -0.07218922674655914, -0.3368067741394043, -0.10596812516450882, -0.40227368474006653, -0.220825657248497, -0.9878187775611877, 1.9075661897659302, -0.6654806733131409, 0.04690450802445412, -0.680550754070282, -0.015926992520689964, 0.19497846066951752, 0.04973375424742699, -0.3888314664363861, -0.6535268425941467, 0.14411891996860504, -0.051949139684438705, -0.017656680196523666, -0.41434237360954285, 0.07776237279176712, 0.12112545222043991, 1.9894524812698364, 1.2898856401443481, 0.09356153756380081, -0.15762756764888763, 0.7022070288658142, -0.11402487754821777, -0.004656679462641478, 0.03358691558241844, -0.3741331994533539, -0.0522768460214138, 0.027453510090708733, 0.015853077173233032, -0.29404547810554504, 0.09224515408277512, 0.14986014366149902, 0.08515555411577225, -0.03963222727179527, 0.1413627713918686, -0.05576949939131737, 0.017385033890604973, -0.07290227711200714, -0.04994186386466026, -0.07088781148195267, -0.0039249020628631115, 0.13802625238895416, 0.05160688981413841, 0.11696731299161911, -0.014731018804013729, -0.3290330767631531, 1.11496901512146, 0.16183270514011383, 0.22993327677249908, -0.10055166482925415, -0.07261902838945389, 0.10361260175704956, 0.09469616413116455, 0.21651147305965424, -0.4354724586009979, -0.022614924237132072, 0.041739046573638916, 0.07112258672714233, 0.07290077954530716, 0.2300727516412735, 0.026597799733281136, 0.11603688448667526, 0.08077550679445267, -0.24182511866092682, 0.06640952080488205, -0.3886202871799469, -0.4684138000011444, -0.1456402689218521, 0.14726565778255463, -0.07207274436950684, 0.14330722391605377, 0.06590235233306885, -0.1817786693572998, 0.08732212334871292, -0.2058687061071396, -0.06002431735396385, -0.10889948159456253, -0.21483738720417023, 0.24325616657733917, 0.02455832250416279, -0.033049020916223526, -0.03061682917177677, 0.17790593206882477, 0.00331304338760674, 0.17353476583957672, 0.5293479561805725, 0.8775882124900818, 0.28196951746940613, -1.388323187828064, -0.7932551503181458, 0.05290305241942406, -0.6982607841491699, 0.8294487595558167, 0.903101921081543, 0.1562950760126114, -0.5328297019004822, -0.3570605218410492, 0.9481471180915833, 0.13081955909729004, -0.1214294359087944, -1.2678372859954834, -1.7463346719741821, 0.03433706983923912, -0.09796971082687378, -0.04213317856192589, 0.15528498589992523, -0.047416504472494125, -0.029680849984288216, -0.4482264220714569, -0.4543546438217163, 0.04655647650361061, 0.09901725500822067, -0.39332959055900574, -0.034098170697689056, -0.06884574145078659, -0.12105380743741989, 1.0601083040237427, 0.8524941802024841, -0.0407729409635067, -0.00038321243482641876, -0.7215070724487305, -0.4349522292613983, -0.047818783670663834, -0.11856435984373093, -0.0694337859749794, 0.15187837183475494, -0.05911719426512718, -0.15145792067050934, 0.07528495043516159, 0.10886717587709427, 0.05284718796610832, -0.010836624540388584, -0.048512816429138184, 0.11919557303190231, -0.2059604972600937, -0.0426592193543911, 0.8540000915527344, -0.05376261845231056, -0.1890791654586792, 0.010099953971803188, -0.0008045270224101841, -0.029209760949015617, -0.15811361372470856, 0.16296790540218353, -0.21389110386371613, 0.2712881863117218, -0.06652366369962692, -0.19335509836673737, 0.04557893052697182, 0.2086310237646103, -0.1143794134259224, 0.07487993687391281, -0.045107483863830566, 0.18271054327487946, -0.007104948628693819, 0.05958915129303932, 0.4401407241821289, -0.1884302943944931, -0.06442684680223465, -0.13179360330104828, -0.21180693805217743, -0.3670884668827057, -0.06521666795015335, -0.014690234325826168, 0.06155043840408325, -0.19514943659305573, 0.04969213530421257, 0.038548585027456284, -0.5830526947975159, -2.156068801879883, 0.09529817849397659, 0.0131836524233222, 0.11716226488351822, 0.3981688320636749, -0.14769281446933746, -0.08010012656450272, 0.16087569296360016, 0.23531462252140045, -1.6710275411605835, -0.37844398617744446, 0.7314887642860413, 0.33626866340637207, 1.0304948091506958, -1.2464655637741089, 0.8373832106590271, 0.6347362399101257, -0.5740748047828674, -0.7826138138771057, 0.7423719763755798, -0.17829644680023193, 0.08439557999372482, 0.1867409497499466, 0.6046321988105774, -0.017755167558789253, 0.036899689584970474, 1.1730643510818481, 1.009155035018921, 0.04554593190550804, 0.08712594956159592, -0.08641243726015091, 0.08399996906518936, 0.11319755762815475, -0.032284826040267944, -0.2107677310705185, 0.2747134566307068, 0.21137405931949615, 0.11418401449918747, -0.11934327334165573, -0.19788728654384613, -0.04765939339995384, 0.10557008534669876, 0.2917499840259552, 0.03155723586678505, -0.025815604254603386, 0.06115543469786644, -0.082502081990242, 0.39342573285102844, -0.031085757538676262, -0.1384107917547226, -0.05249034985899925, -0.34570571780204773, -0.14976142346858978, 0.056424979120492935, 0.09910135716199875, 0.20183704793453217, 0.033485982567071915, -0.1502460390329361, 0.4185861051082611, -0.4651623070240021, 0.1335301250219345, 0.014908910728991032, -0.05904221162199974, 0.06696479767560959, 0.20093758404254913, 0.05057955160737038, -0.26731929183006287, 0.1182999536395073, -0.11452723294496536, -0.24125291407108307, 0.08313756436109543, 0.06599431484937668, -0.13334251940250397, -0.033026184886693954, 0.07917309552431107, 0.03828868642449379, -0.0010970236035063863, -0.0733189582824707, -0.6606303453445435, -0.17140598595142365, 0.043633464723825455, -0.04849868640303612, 0.02124112658202648, 0.09982877969741821, -0.01790734939277172, -0.03623137250542641, 0.029165854677557945, -0.16495837271213531, -0.023257343098521233, 0.0903472825884819, -0.1673571616411209, 1.1142102479934692, -0.07341199368238449, -0.19083689153194427, -0.15122728049755096, 0.14065243303775787, -0.1826944202184677, -0.08240478485822678, -0.5031500458717346, -0.2574310600757599, -1.397271752357483, -0.0039753383025527, -0.5095916390419006, -1.7801127433776855, 1.1573607921600342, -0.46372750401496887, 1.6451054811477661, -1.261348009109497, -0.9858310222625732, 0.5061994194984436, 0.5912790894508362, 0.00169896159786731, -0.03471210226416588, -0.030429214239120483, 1.1215237379074097, -0.029069481417536736, 0.002784360432997346, -0.1404186338186264, -0.08353779464960098, 0.04386991634964943, 0.10298391431570053, 0.4456411600112915, 0.49218928813934326, -0.10827385634183884, 0.14516876637935638, 0.5965985655784607, 0.5413923859596252, -0.013008837588131428, -0.10242296010255814, 0.26458510756492615, -0.15784911811351776, -0.08293665200471878, 0.09388024359941483, -0.13396382331848145, 0.2087276726961136, -0.007782131899148226, 0.007937498390674591, 0.02781975083053112, 0.22290585935115814, -0.00010622156696626917, -0.16236914694309235, -0.031563133001327515, -0.2647860646247864, -0.10878299921751022, -0.09362857788801193, -0.00985779706388712, -0.193717822432518, 0.0949072316288948, 0.10437833517789841, 0.18898306787014008, -0.231126070022583, 0.15902866423130035, 0.13603518903255463, 0.24873854219913483, -0.05859911069273949, 0.0796877071261406, -0.08904921263456345, -0.2821670472621918, -0.5549827218055725, 0.21675293147563934, 0.09122283011674881, -0.08211403340101242, -0.04714420065283775, 0.13078393042087555, -0.03142014518380165, -0.010631232522428036, 0.05083666369318962, 0.07086055725812912, 0.09008937329053879, 0.24049383401870728, 0.18139515817165375, -0.007707260083407164, -0.050667162984609604, 0.06597115099430084, -0.048595961183309555, 0.05124134197831154, 0.026920495554804802, -0.34421464800834656, 0.06554151326417923, 0.019740508869290352, -0.0038327460642904043, -0.4652610123157501, -4.951732635498047, 0.15763328969478607, -0.1840944141149521, 0.08666443079710007, 0.3239617943763733, 0.03892925754189491, -0.031515564769506454, -0.8557705879211426, -0.08589167147874832, -0.01712796278297901, -0.36822131276130676, 0.3259250521659851, -0.8334999084472656, 0.2958674728870392, 0.06216162070631981, 0.7272515892982483, 0.79302978515625, -0.21697880327701569, -0.09710194915533066, -0.5005213022232056, 0.040516648441553116, 0.15922237932682037, 0.299044132232666, 0.16991376876831055, -0.08612339943647385, -0.11707329005002975, -0.0724107176065445, 0.6618747711181641, 0.08864491432905197, 0.08885074406862259, -0.33354857563972473, 1.0268524885177612, 0.05105409026145935, 0.042873021215200424, -0.0904037356376648, -0.33639025688171387, -0.050248030573129654, -0.07336414605379105, 0.1510007530450821, 0.30644848942756653, 0.017735691741108894, 0.0064491406083106995, -0.3905443847179413, 0.22318784892559052, -0.037711288779973984, 0.2219877988100052, 0.17255638539791107, -0.034800220280885696, 0.0815247893333435, 0.12025748938322067, -0.15405841171741486, 0.1078168973326683, 0.03787088766694069, 0.1819029003381729, -0.18082280457019806, 0.20187322795391083, 0.14128781855106354, -0.18110929429531097, -0.03944266214966774, -0.7136864066123962, 0.05511299893260002, 0.08163375407457352, 0.10192834585905075, -0.10579990595579147, 0.17122767865657806, 0.14391686022281647, -0.21383731067180634, -0.028828324750065804, -0.09212541580200195, 0.034613728523254395, 0.1398228406906128, 0.087875597178936, 0.016238687559962273, 0.11988628655672073, -0.16883932054042816, 0.02297939360141754, -0.016629638150334358, -0.048570748418569565, 1.7649205923080444, 1.1408149003982544, -0.12465346604585648, -0.2703259289264679, 0.2769368290901184, 0.07923705875873566, -0.0791279748082161, 0.08063901215791702, -0.08784317970275879, 0.04560178145766258, 0.07144313305616379, -0.22908638417720795, -0.35574743151664734, 1.6258958578109741, 0.037181880325078964, 0.04036391153931618, -0.02007746323943138, -0.09445958584547043, -0.059825245290994644, -0.007963673211634159, -0.9375429749488831, -0.8159453272819519, -0.23409010469913483, -0.32130885124206543, 0.4340963065624237, -0.9706804752349854, -0.3380037248134613, -0.5449886918067932, -2.02482008934021, 0.3943517208099365, 0.4201226532459259, -0.5898815393447876, -0.4186841547489166, -0.11247610300779343, -0.14689947664737701, 0.27683451771736145, -0.004219296388328075, -0.011846770532429218, 0.03025391884148121, 0.911996603012085, -0.477429062128067, 0.009384565986692905, -0.1344233751296997, 0.2337823510169983, -0.6180536150932312, -0.008501545526087284, -0.1113276407122612, -0.6548475027084351, -0.07641680538654327, -0.060293253511190414, 0.05094237998127937, 0.18975937366485596, -0.06900932639837265, -0.10206929594278336, 0.11223388463258743, 0.6818922162055969, -0.14874278008937836, 0.046730998903512955, 0.27208277583122253, 0.385236531496048, -0.41380247473716736, -0.002981379861012101, -0.07960175722837448, -0.19015264511108398, -0.1880105584859848, -0.060429688543081284, -0.1124565526843071, -0.11666067689657211, -0.0946236327290535, -0.12319327145814896, -0.028746934607625008, 1.3997622728347778, 0.0017651597736403346, 0.1698930412530899, -0.003677166998386383, 0.18331028521060944, 0.04620148614048958, 0.008326648734509945, -0.024807320907711983, -0.16102004051208496, -0.01891067810356617, 0.06986498832702637, 0.0025564671959728003, -0.12496959418058395, -0.11550819873809814, -0.038224514573812485, 0.07356245070695877, 0.017377125099301338, -0.030916692689061165, -0.04347359761595726, 0.17556177079677582, -0.6391764283180237, 0.3001839816570282, -0.03808712586760521, -0.049068327993154526, -0.2972349524497986, 0.41385892033576965, -0.10700289160013199, -0.029054103419184685, -1.0070980787277222, -0.2884417176246643, -0.05808765068650246, 0.17225457727909088, -0.17490603029727936, 2.3569376468658447, -0.07858813554048538, -0.00039758006460033357, 0.08003675937652588, 0.09264451265335083, -0.006259602960199118, 0.008358330465853214, -0.44152531027793884, -0.2874101996421814, -0.8950821757316589, -0.6328173875808716, 0.19449736177921295, -0.5543848276138306, 0.14369593560695648, -0.9655011296272278, 2.1265225410461426, -0.308958500623703, -0.5188480615615845, 0.30372199416160583, -0.2721436023712158, -0.09773784130811691, -0.005485608708113432, -0.3053506016731262, -1.3203991651535034, 0.03600630536675453, -0.005223665852099657, 0.4147144854068756, -0.10108543187379837, 0.0009981811745092273, -0.16979168355464935, -0.7772961258888245, 1.3509578704833984, -0.10630909353494644, -0.027078690007328987, 0.31272441148757935, -0.5875588655471802, -0.09675867110490799, -0.009376264177262783, -0.02138000726699829, -0.5988412499427795, -0.1376476138830185, -0.04082870110869408, -0.20321176946163177, -0.8460261225700378, 0.19777320325374603, 0.03492739424109459, 0.11852455884218216, -0.5156988501548767, 0.021879015490412712, -0.0020840929355472326, 0.15995164215564728, -0.026724813506007195, -0.05042789503931999, 0.07543010264635086, -0.056246157735586166, -0.007116608787328005, -0.10621274262666702, -0.13140760362148285, -0.13307000696659088, 0.22519923746585846, -0.03537970781326294, 0.06913674622774124, -0.0009129485697485507, 0.17572639882564545, 0.06867343932390213, 0.13643012940883636, -0.3257165253162384, 0.25718098878860474, -0.07080095261335373, 0.10913277417421341, -0.08424066752195358, 0.11391866952180862, 0.03819579258561134, -0.14271031320095062, 0.0769733116030693, -0.21443355083465576, 0.07753580063581467, 0.06972194463014603, -0.06947674602270126, -0.5996913313865662, 0.055219512432813644, 0.10207580775022507, -0.07866871356964111, -0.6085787415504456, 0.10631214827299118, 0.03254932537674904, 0.1401132047176361, 0.11223383992910385, 0.006892815697938204, -0.007042751181870699, -0.15340270102024078, -0.24080012738704681, 0.0018019323470070958, 0.031893882900476456, -0.0012964840279892087, 0.07557222992181778, 0.012431114912033081, 0.03128882870078087, -0.5441266298294067, -0.6309736967086792, -1.2807472944259644, 0.45788100361824036, -0.6063053011894226, -1.4376659393310547, 0.4313407242298126, 0.639366090297699, 0.5809507966041565, 0.872673511505127, -0.290677011013031, -0.39652779698371887, -0.16156552731990814, -0.03934106603264809, 0.0005887187435291708, -0.0335712730884552, 1.4305580854415894, -0.04433509707450867, 0.10696841031312943, 0.1208798810839653, 0.5601829886436462, 0.1238631084561348, 0.08774638175964355, 0.9485378861427307, 1.1148127317428589, 0.0044957478530704975, 0.11267972737550735, -0.07459407299757004, 0.01936565525829792, 0.002364648738875985, -0.03529879078269005, -0.767941415309906, 0.8169222474098206, 0.0557439886033535, 0.06561725586652756, 0.2315817028284073, 0.3374774158000946, -0.02815169282257557, -0.06835245341062546, 0.23546122014522552, -0.22934818267822266, -0.13736416399478912, -0.08125317841768265, -0.20072700083255768, -0.01149240043014288, 0.06637059897184372, -0.02067822404205799, 0.03302332013845444, -0.2400052398443222, -0.29205968976020813, -0.023226812481880188, 0.4001348912715912, -0.31135091185569763, 0.04967590048909187, 0.059968117624521255, 0.11513792723417282, 0.02590821124613285, 0.03696697577834129, -0.014020039699971676, 0.07039858400821686, -0.26961520314216614, -0.11645578593015671, -0.02238975465297699, 0.020823610946536064, 0.0018926655175164342, 0.17731179296970367, -0.013907388783991337, 0.07298260182142258, 0.06442033499479294, -0.012142046354711056, 0.10927736014127731, 0.6625474691390991, 0.9185419082641602, 0.01773029752075672, -0.09753239154815674, 0.059777241200208664, 0.5518945455551147, -0.036743760108947754, -0.11599696427583694, -0.3816751539707184, -0.5215905904769897, 0.030314117670059204, -0.034037623554468155, -0.827511727809906, 0.183699831366539, 0.1667812019586563, 0.008272185921669006, 0.05074882134795189, -0.25905516743659973, -0.09501301497220993, -0.156464084982872, -0.0581824816763401, 0.01296253502368927, -0.20612747967243195, -0.8433380722999573, -0.31665846705436707, -0.24671989679336548, -1.2980563640594482, 1.0917547941207886, 1.0043002367019653, 0.5675129890441895, -0.10759235173463821, -0.4752868115901947, -0.9936539530754089, -0.007078915368765593, 0.32874301075935364, 0.19452188909053802, 0.9361763000488281, 0.1427161693572998, 0.08910798281431198, -0.501193642616272, -1.1935627460479736, 0.014412596821784973, -0.07377970963716507, 0.20928309857845306, -0.27100732922554016, -0.09816110134124756, 0.1250610202550888, 0.029800085350871086, -0.11449018865823746, 0.02622378058731556, -0.013022392988204956, -0.21485207974910736, 0.12441559880971909, 0.05448555573821068, 0.17477597296237946, -0.02720356173813343, 0.07035284489393234, -0.022712886333465576, -0.2365865558385849, 0.44718125462532043, -0.19111518561840057, -0.018435316160321236, 0.17944882810115814, -0.08812171965837479, 0.0520966611802578, 0.013648823834955692, -0.03044944815337658, -0.01790567860007286, -0.005774504039436579, -0.06004530191421509, -0.17583918571472168, 0.09750423580408096, -0.1811426877975464, 0.028954235836863518, 0.08348267525434494, -0.07912539690732956, -0.039907392114400864, 0.09536118060350418, 0.0837598368525505, -0.4923267662525177, -0.0014511075569316745, 0.0009589782566763461, -0.1431203931570053, 0.11317849904298782, 0.0634540393948555, -0.04558444395661354, -0.024768710136413574, 0.034798260778188705, -0.1154332235455513, -0.07161813229322433, -0.19794179499149323, -0.06185620650649071, 0.032024551182985306, 0.2410280853509903, -0.057402972131967545, -0.18986956775188446, 0.07258935272693634, -0.007542095612734556, 0.0405774749815464, -0.020496264100074768, -0.03547581657767296, 0.012772188521921635, 0.13825835287570953, -0.43182340264320374, -0.3437068462371826, 0.0860341265797615, -0.028973517939448357, 0.014578788541257381, -0.1817944198846817, -0.03866487368941307, 0.13625849783420563, -0.41859927773475647, -0.21292854845523834, -0.8623972535133362, -0.3299858570098877, 0.07371938973665237, -1.3397284746170044, -0.09488553553819656, -1.3231338262557983, -0.7590298652648926, -1.0414153337478638, 0.8561169505119324, -1.060867190361023, -0.43468812108039856, -0.08179713040590286, -0.0457126758992672, -0.5106295347213745, -0.33090874552726746, -0.02191273681819439, -0.06362409144639969, 0.9058548808097839, -0.46306946873664856, 0.06015307083725929, -0.12294744700193405, -0.6560525298118591, 0.043549418449401855, -0.10248330980539322, 0.14327551424503326, 0.08983778208494186, 0.33943602442741394, -0.04310745373368263, -0.16401802003383636, 0.7443066239356995, 1.1108225584030151, 0.0636177584528923, -0.12149452418088913, -0.1502678245306015, 0.17718882858753204, 0.0621793232858181, -0.11624383181333542, -0.267973929643631, 0.05263817310333252, 0.11615478247404099, -0.08283817023038864, -0.06570308655500412, 0.052651818841695786, -0.00032719832961447537, 0.06295520812273026, 0.027212223038077354, 0.09685062617063522, 0.20365311205387115, 0.007542811334133148, 0.11637702584266663, -0.17291676998138428, 0.18938089907169342, 0.031069040298461914, -0.07724224776029587, 0.00627900892868638, -0.032093849033117294, -0.08626823872327805, -0.14253047108650208, -0.07073213905096054, -0.04262707009911537, 0.08683032542467117, 0.27094337344169617, 0.025873543694615364, 0.007001824211329222, 0.14658786356449127, 0.1709674745798111, 0.21239320933818817, -0.06164568290114403, -0.031236885115504265, -0.1949886828660965, 0.11781489104032516, 0.16519688069820404, -0.13896237313747406, 0.06252980977296829, 0.21761800348758698, 0.10152801126241684, 0.08901571482419968, -0.3555311858654022, 0.2635049521923065, -0.04116025194525719, 0.046909984201192856, -0.4121703803539276, 1.1132906675338745, 0.09183061867952347, 0.0019011033000424504, 0.05513852462172508, -0.15012726187705994, -0.10459359735250473, 0.06445349007844925, 0.675536572933197, 0.08395130187273026, -2.0165631771087646, 0.3440130054950714, 0.940889298915863, -1.2235859632492065, 2.26377272605896, -1.0753520727157593, -0.00784640945494175, -0.5662940740585327, -0.908991813659668, -0.4413451850414276, -0.8209086060523987, 0.1057266816496849, 0.12776614725589752, -0.4372433125972748, 0.12107524275779724, -0.07888031750917435, 0.0031974243465811014, -1.197951316833496, -0.049334798008203506, 0.037020888179540634, 0.0038761610630899668, 0.5405659079551697, 0.9709101319313049, -0.01022092904895544, 0.14082372188568115, 1.0233250856399536, 0.6909493803977966, -0.28183820843696594, 0.23430751264095306, -0.17482876777648926, -0.865382194519043, 0.02754107303917408, -0.019953714683651924, -0.351377934217453, 0.1502290815114975, -0.0004907968104816973, -0.05547333136200905, -0.02536766231060028, -0.3146042823791504, 0.01696021668612957, 0.17779575288295746, 0.07625668495893478, 0.3849059045314789, 0.015321879647672176, -0.10725308209657669, 0.16215430200099945, -0.15793810784816742, 0.015023828484117985, -0.003987662028521299, 0.4418528974056244, -0.619229257106781, -0.03547635301947594, -0.044018980115652084, 0.21310089528560638, -0.06441397219896317, 0.21997307240962982, -0.0431581474840641, 0.5948023200035095, 0.024349240586161613, -0.06374353915452957, -0.017475441098213196, 0.06994443386793137, 0.03928369656205177, -0.01434676256030798, 0.10676735639572144, 0.01765410415828228, 0.10861176252365112, -0.024530788883566856, -0.17998932301998138, 0.7097788453102112, -0.1999359279870987, 0.10554658621549606, 0.10362144559621811, 0.02114848606288433, 0.7906700968742371, 0.09308815747499466, -0.034852657467126846, 0.42337989807128906, 0.02939995937049389, 0.05012476071715355, 0.10279571264982224, -0.08230088651180267, -2.3665716648101807, -0.16515718400478363, -0.08550548553466797, 0.1195809543132782, 0.07346982508897781, -0.10710335522890091, 0.030392108485102654, -0.3746372163295746, -0.3599047362804413, -0.5781069993972778, -0.1314772665500641, -0.2811633050441742, -0.47167539596557617, 0.585473895072937, -0.5941382050514221, 1.217516303062439, -0.14343853294849396, 0.8400265574455261, 0.19838093221187592, 0.704561710357666, -0.0836300328373909, 0.010828472673892975, 0.329707533121109, 2.5709359645843506, -0.06943155080080032, 0.015652118250727654, -0.36410829424858093, -0.33844462037086487, -0.03613663092255592, 0.07573073357343674, 0.6993013024330139, -0.7409303784370422, -0.014649092219769955, 0.08456004410982132, 0.9152841567993164, 0.675175130367279, -0.20035888254642487, -0.2717289924621582, -0.4191688001155853, -0.2576189339160919, 0.06286346167325974, 0.10573387891054153, 0.03773853927850723, 0.04200829192996025, 0.06927765160799026, -0.03264394775032997, 0.3242037892341614, -0.08402430266141891, -0.09091561287641525, 0.014024526812136173, -0.19710509479045868, 0.17887067794799805, 0.007705152500420809, 0.01238278392702341, 0.03471701592206955, -0.18348099291324615, -0.05596238002181053, -0.12901701033115387, 0.15585651993751526, -1.2492945194244385, -0.1086219921708107, -0.2333245426416397, 0.12157153338193893, -0.09730423241853714, 0.0973207876086235, -0.04678323492407799, 0.29617759585380554, 0.11252191662788391, -0.1734313815832138, -0.00793095026165247, 0.06712717562913895, 0.06781268864870071, 0.0016626009019091725, 0.05644887313246727, -0.02078072540462017, -0.006981938611716032, -0.09271916002035141, 0.07562465220689774, 0.6800704002380371, -0.7639932632446289, 0.10638073831796646, -0.09356165677309036, 0.01759016141295433, 0.04921647906303406, 0.07115387171506882, -0.19835759699344635, -0.013170878402888775, -0.19751085340976715, -0.14389075338840485, -0.05419345572590828, -0.564846396446228, -0.5486411452293396, 0.06495534628629684, 0.005632191430777311, 0.1472572386264801, -0.18938274681568146, -0.009745619259774685, -0.09504222124814987, 0.45347797870635986, 0.4874887466430664, -0.2714097201824188, -0.20961181819438934, -0.46541687846183777, 0.6585479974746704, 1.9199013710021973, 1.1676446199417114, -0.5379267930984497, -0.7743743062019348, -0.5627950429916382, -0.9445946216583252, 0.4746204912662506, -0.0250240545719862, -0.017253058031201363, -0.1525588482618332, -0.6204880475997925, -0.029668331146240234, 0.02095404453575611, 0.13087259232997894, 0.36709412932395935, 0.12351585179567337, 0.10061586648225784, 0.28447574377059937, 0.32416635751724243, 0.10574150830507278, -0.045104388147592545, 0.3249337375164032, 0.2625134289264679, 0.04507416859269142, -0.07681148499250412, -0.6249171495437622, -1.0705357789993286, -0.10258781164884567, 0.047473352402448654, 0.0776943564414978, -0.18231512606143951, 0.19902946054935455, 0.05427789315581322, -0.506496012210846, 0.4612499475479126, -0.027126071974635124, -0.1959162801504135, -0.030830679461359978, 0.16414318978786469, -0.15858985483646393, -0.14353585243225098, -0.05154452845454216, -0.11441400647163391, 0.0703975036740303, 0.10980211943387985, -0.002155350288376212, -0.050933655351400375, -0.1068505123257637, -0.2678716480731964, -0.1174476221203804, 0.14954183995723724, -0.10475874692201614, -0.03766196593642235, 0.2507241368293762, 0.7879681587219238, -0.03253081068396568, -0.02428203634917736, 0.03381654620170593, -0.0695086196064949, 0.061938460916280746, -0.01591409556567669, 0.04481395706534386, 0.040565427392721176, -0.19675461947917938, 0.06596291810274124, -0.16768436133861542, -0.8278325200080872, -0.1910029798746109, 0.0811842754483223, -0.3828921616077423, 0.004621931817382574, 0.07693289965391159, -0.07451020926237106, -0.269403874874115, 0.04791875556111336, 0.10346972197294235, -0.024267343804240227, 0.0837753489613533, -2.7825868129730225, -0.0044208611361682415, 0.06424666196107864, 0.1618964672088623, 0.1406952440738678, 0.17996050417423248, -0.16826294362545013, -0.923809289932251, -0.6927575469017029, -0.11633407324552536, -0.453524112701416, -0.671286404132843, -1.3708218336105347, 0.12284351140260696, 0.08642207831144333, 0.7870679497718811, -0.22678034007549286, 0.9013236165046692, -0.10084354877471924, -0.4473414123058319, 0.026209471747279167, 0.08888126164674759, 0.24831032752990723, 0.24016596376895905, 0.17224742472171783, 0.08454953879117966, 0.38757941126823425, 0.7029828429222107, 0.06543440371751785, 0.001883515971712768, 0.413603276014328, -1.377987027168274, -0.10152244567871094, -0.06136542186141014, 0.5532656908035278, 0.08498280495405197, 0.019792838022112846, 0.13332520425319672, 0.21916453540325165, 0.4710802733898163, -0.02604222111403942, -0.0019105655374005437, -0.06069648265838623, -0.32853010296821594, -0.1323079913854599, -0.019199520349502563, 0.18175268173217773, 0.023924527689814568, 0.0180188100785017, -0.006633132230490446, -0.13762818276882172, -0.23502208292484283, -0.0022601059172302485, -0.049157824367284775, 0.01490843202918768, -0.0620734877884388, 0.025627819821238518, -0.16979610919952393, 0.3121805489063263, 0.7460278868675232, -0.0160704106092453, 0.05524152144789696, -0.10156739503145218, -0.002886883681640029, 0.2599630057811737, 0.07962089031934738, -0.00933031179010868, -0.022100329399108887, 0.1539088487625122, -0.05917448177933693, 0.2001795917749405, 0.23330233991146088, -0.24586676061153412, 0.2585137188434601, 0.10649717599153519, -0.0764012411236763, -0.1500147581100464, -0.09701049327850342, -0.6811990141868591, 0.8109713196754456, -0.11837982386350632, 0.09014386683702469, 0.4206857979297638, 0.2680552005767822, 0.02578347735106945, 0.05568063259124756, 0.0667320042848587, -0.24716989696025848, 0.11395157128572464, 0.114020936191082, -0.3493616282939911, -1.9427279233932495, 0.011062406934797764, -0.012666820548474789, 0.058228131383657455, 0.11011401563882828, -0.11887060850858688, 0.12401223927736282, -0.6384095549583435, -0.437267929315567, -0.30367639660835266, -0.21500064432621002, 0.2356625199317932, -0.6540852785110474, 0.7679949402809143, 0.4448126554489136, 0.21942664682865143, -0.327171266078949, -0.9102563261985779, 0.2130390852689743, 1.6150647401809692, -0.1036195158958435, 0.13470470905303955, -0.3590266704559326, -0.38131263852119446, -0.11935173720121384, -0.05987066403031349, -1.034470796585083, -0.39003464579582214, -0.008747025392949581, 0.05146215483546257, 0.38192495703697205, 0.4443783462047577, 0.04554117098450661, 0.19700933992862701, 0.41207268834114075, -0.019855467602610588, -0.11504482477903366, 0.05028402432799339, 0.39644983410835266, 0.014088495634496212, 0.11059582233428955, -0.0379062294960022, -0.0412660613656044, -0.1144464910030365, -0.06530546396970749, 0.10689374059438705, 0.22849005460739136, -0.1305781751871109, -0.07399982959032059, -0.03421679511666298, -0.35230326652526855, -0.059272050857543945, 0.05151684954762459, 0.014659435488283634, -0.05212858319282532, 0.22988297045230865, -0.12228430062532425, -0.03265339508652687, 0.36885690689086914, 1.118216633796692, 0.08517222851514816, 0.036633074283599854, -0.18437059223651886, 0.18762421607971191, -0.015094221569597721, -0.04810599610209465, 0.24824373424053192, 0.2356467992067337, -0.08155698329210281, -0.03998773917555809, -0.055177539587020874, 0.07613634318113327, 0.18627239763736725, -0.07293570786714554, -0.07680242508649826, 0.05120861157774925, 0.007889949716627598, -0.01490588579326868, -0.43400147557258606, -0.4701286852359772, -0.05927443131804466, -0.0848495289683342, 0.0716475173830986, -0.06677354127168655, -0.13814105093479156, -0.036991383880376816, -0.23500610888004303, 0.08152737468481064, -0.06516803056001663, 0.021278323605656624, -0.08331890404224396, 2.835578680038452, 0.09079033881425858, -0.09475063532590866, -0.04414958134293556, 0.1579040288925171, -0.034479644149541855, 0.05406028404831886, -0.34525465965270996, 0.17204271256923676, -0.6680131554603577, -0.09918832778930664, -0.23235195875167847, 0.15188120305538177, 0.966921865940094, -0.6428633332252502, 0.15196795761585236, -0.746216356754303, -1.6195966005325317, -0.07553480565547943, -1.520175814628601, -0.13443754613399506, 0.027317872270941734, 0.16482818126678467, 0.630134105682373, 0.10833808034658432, 0.14898358285427094, -0.7442139983177185, -0.23278801143169403, 0.0244941096752882, -0.06397592276334763, 0.5061756372451782, 0.4980684816837311, -0.1683046668767929, -0.03182050958275795, 0.24649570882320404, 1.1904338598251343, 0.10666617006063461, -0.061644673347473145, -0.006544962991029024, 0.15336261689662933, 0.04935064911842346, 0.08165281265974045, -0.03972160816192627, -0.109428770840168, 0.023903636261820793, -0.051107171922922134, -0.02247496135532856, 0.3907577097415924, 0.18635974824428558, -0.06079130992293358, 0.16524401307106018, -0.18281127512454987, -0.023821083828806877, 0.03762679919600487, -0.0033883226569741964, 0.25156429409980774, -0.01100210938602686, 0.1366058737039566, -0.28395339846611023, -1.4490855932235718, -0.07885653525590897, 0.07430446892976761, 0.16903509199619293, -0.13303814828395844, 0.11629080772399902, -0.09932208806276321, 0.07964717596769333, -0.40679696202278137, 0.06472759693861008, -0.07534598559141159, -0.01582355983555317, 0.03552011027932167, 0.0338103212416172, 0.09209764748811722, 0.030496837571263313, -0.0018449091585353017, -0.07635610550642014, 0.0009156697778962553, 1.2821818590164185, -0.5380510091781616, -0.018835974857211113, -0.20926357805728912, 0.0013588619185611606, -0.8201121687889099, -0.10438612848520279, -0.10090474039316177, 0.42574402689933777, -0.3762451708316803, 0.014356045983731747, -0.179780974984169, -0.3262469470500946, -0.3799450099468231, 0.0372215174138546, 0.05938124284148216, 0.11721574515104294, 0.05597132444381714, 0.001730564865283668, 0.16709814965724945, -0.3350059688091278, -0.2382703423500061, 0.568387508392334, -0.8344545960426331, -0.1994389146566391, -1.08553147315979, -1.4657498598098755, -0.1743452399969101, 0.5773606300354004, 0.38118815422058105, 0.18323446810245514, -0.9692811965942383, -0.3574239909648895, -0.10841289907693863, -0.04186766967177391, -0.6941691040992737, 0.5359925627708435, 0.07616580277681351, -0.022969206795096397, 0.44174715876579285, 1.0032498836517334, 0.0358392633497715, -0.055133599787950516, 0.028628000989556313, 0.22860915958881378, 0.22252963483333588, -0.040461305528879166, -0.3659396469593048, -0.6927943229675293, 0.04422878846526146, 0.02106335572898388, 1.2022850513458252, 0.5621303915977478, -6.920017040101811e-05, -0.04050948843359947, -0.3397688865661621, 0.2821023464202881, 0.016192808747291565, 0.08357162028551102, -0.26832300424575806, -0.4396419823169708, 0.12956644594669342, 0.039564698934555054, -0.03377021476626396, 0.2750745117664337, -0.017943141981959343, -0.11044055223464966, 0.06004895269870758, 0.08089964836835861, 0.1101243868470192, 0.05708253011107445, 0.1875085085630417, -0.25700923800468445, 0.23583318293094635, 0.16302825510501862, -0.04115026816725731, -0.04317536577582359, -0.090439073741436, 0.010447374545037746, -0.048135075718164444, -0.09875024110078812, -0.08149182051420212, 0.05782604590058327, -0.10125625878572464, -0.11742091923952103, -0.11414802819490433, 0.07063133269548416, -0.027072757482528687, -0.10294171422719955, 0.054625872522592545, 0.08666832000017166, -0.28662344813346863, -1.0111418962478638, 0.0306528490036726, -0.27696725726127625, -0.16040314733982086, 0.06170397624373436, -0.13839171826839447, -0.12447141855955124, -0.24502800405025482, -0.16564823687076569, -0.13757002353668213, -0.13760016858577728, -0.5512906312942505, -0.14217709004878998, -0.13003744184970856, 0.04210084304213524, 0.13734249770641327, 0.2410590499639511, -0.19346930086612701, -0.03329071030020714, -0.5745278596878052, -0.5600008964538574, -0.7365726828575134, -0.42563870549201965, -0.30855435132980347, -0.23682475090026855, -1.2559386491775513, 0.6962074637413025, 0.18842041492462158, -0.5158640146255493, -0.029309837147593498, -1.097848892211914, -0.92033451795578, 0.23796512186527252, 0.057348549365997314, -0.6886615753173828, -0.6134747862815857, 0.10828446596860886, 0.0963883325457573, 0.513217031955719, -0.33334681391716003, -0.07184071093797684, 0.16008470952510834, 0.07527615875005722, 0.7904528975486755, -0.034770991653203964, 0.08129661530256271, -0.20027248561382294, 0.252241313457489, 0.0975714847445488, 0.013766809366643429, 0.5976114273071289, -0.2081478387117386, -0.026881305500864983, -0.014058410190045834, -0.012345920316874981, 0.24584363400936127, 0.006254240404814482, -0.160423144698143, -0.13787582516670227, 0.14578838646411896, 0.15284766256809235, 0.04348522424697876, -0.12099524587392807, 0.06141750141978264, -0.04818921908736229, 0.07325757294893265, 0.06761301308870316, -0.12797807157039642, -0.058755699545145035, -0.17207978665828705, 1.0528258085250854, 0.8942050337791443, 0.026497630402445793, -0.11947917193174362, -0.11041625589132309, 0.04131156578660011, 0.16674472391605377, -0.1557692289352417, -0.18684017658233643, -0.24337203800678253, -0.12950347363948822, 0.04214388504624367, -0.0014183876337483525, 0.013939023949205875, 0.07426302880048752, 0.06179499998688698, 0.08202582597732544, -0.1275482028722763, -0.11014076322317123, -0.014409243129193783, -0.13378429412841797, -0.22824056446552277, -0.035359468311071396, 0.07595504075288773, -0.17038045823574066, -0.35044172406196594, 0.09122752398252487, -0.054087597876787186, -0.20881612598896027, -0.1060914620757103, 0.09811288118362427, -0.038273390382528305, -0.2777082622051239, -1.2947485446929932, 0.02509850449860096, 0.1298227459192276, 0.306230366230011, -0.05696938931941986, 0.07722746580839157, 0.22575689852237701, 0.46458908915519714, 0.41339966654777527, -0.7670755982398987, -0.9607017040252686, -0.29129451513290405, 0.4030016362667084, 0.7570098042488098, -0.06462185084819794, -1.1293561458587646, 0.152166485786438, -0.6664901375770569, -0.8358792662620544, 0.3181585669517517, -0.1927710920572281, 0.02362818457186222, 0.2164926379919052, -1.1442509889602661, -0.05847549065947533, -0.056681569665670395, 0.12741757929325104, -0.6398701667785645, 0.006234555970877409, -0.20604316890239716, 0.42040398716926575, 1.1327860355377197, -0.1978536993265152, 0.08285177499055862, -0.5273919105529785, -0.5491238832473755, -0.11556065827608109, -0.024258585646748543, 0.32513734698295593, -0.03949254751205444, 0.08344382792711258, -0.09250830858945847, 0.10692071169614792, 0.5744509100914001, 0.05559408292174339, -0.05282535031437874, 0.054806750267744064, -0.09506703168153763, -0.012888575904071331, 0.012597720138728619, 0.05946940556168556, 0.17468903958797455, 0.1755075305700302, 0.14373470842838287, 0.06270230561494827, -0.0884525254368782, -0.064972884953022, 0.1040719673037529, 0.27825242280960083, 1.335912823677063, -0.19355620443820953, 0.030136557295918465, -0.03376832231879234, 0.2754807770252228, -0.20419208705425262, -0.11326765269041061, -0.47872403264045715, -0.2882876694202423, -0.19398300349712372, -0.01063606794923544, 0.006692046765238047, -0.09361780434846878, 0.03482517972588539, 0.17405866086483002, 0.019885851070284843, 0.2455129474401474, -0.04603106155991554, -0.19711564481258392, -0.6639724373817444, -0.26545172929763794, 0.12027192860841751, -0.11200452595949173, -0.2111656814813614, 0.2066679149866104, -0.03820043429732323, 0.15789328515529633, 0.11961685866117477, 0.2087538242340088, 0.16914081573486328, 0.1506126970052719, -0.14899756014347076, 2.020660877227783, 0.07383645325899124, -0.19049181044101715, 0.1342160552740097, -0.17091087996959686, 0.09376812726259232, -0.01021023839712143, -0.8517579436302185, 0.01236033346503973, -0.1643831580877304, -0.5232673287391663, 0.6772637963294983, -0.35576191544532776, -0.29462411999702454, 0.6862329840660095, -0.7648183703422546, -1.053670048713684, -0.7733283042907715, -0.5410040616989136, -1.2179086208343506, -0.029750676825642586, 0.16304777562618256, -0.2968643009662628, -2.498483896255493, -0.11182773113250732, -0.09239511936903, 0.2312634140253067, 0.05990820750594139, -0.024374278262257576, 0.10300981253385544, -0.4390239417552948, -0.5538285970687866, -0.1566316932439804, 0.06292343884706497, -0.43765875697135925, -0.9829749464988708, 0.012751683592796326, -0.16190873086452484, 0.1975082904100418, -1.1567360162734985, -0.22696329653263092, -0.09666203707456589, -0.1925148218870163, -0.1335674226284027, -0.034040335565805435, 0.09014285355806351, -0.013433308340609074, -0.33449578285217285, 0.001991106430068612, 0.08004844933748245, -0.10698198527097702, 0.19835777580738068, -0.1538911908864975, -0.06039995327591896, 0.03610334172844887, -0.09577822685241699, -0.13241779804229736, -0.06565488129854202, 0.8219375610351562, 0.4139629900455475, -0.09739870578050613, 0.06745732575654984, 0.05929785594344139, -0.021108387038111687, 0.06550837308168411, -0.058722373098134995, 0.2599782645702362, -0.48562702536582947, -0.08407575637102127, -0.1063910648226738, -0.009092778898775578, 0.23079778254032135, 0.09701596945524216, -0.1370520442724228, 0.04019385948777199, -0.1340663582086563, -0.0032206883188337088, 0.09435678273439407, -0.47896942496299744, 0.15992163121700287, 0.006793022621423006, 0.0628698468208313, 0.025119781494140625, -0.3154943585395813, 0.13316990435123444, 0.15917910635471344, -0.18720699846744537, -0.059190746396780014, -0.09872967004776001, -0.10429056733846664, -0.11677788943052292, -0.7897605299949646, 0.26117661595344543, 0.13898251950740814, 0.030927659943699837, -0.21498672664165497, -0.04227989539504051, -0.002446793019771576, 0.41906341910362244, 0.2564094066619873, -0.36296841502189636, -0.4922095537185669, 0.9334554076194763, 0.5100688338279724, 0.08319208770990372, 0.2885872721672058, 0.1950387805700302, 0.07056321948766708, 1.075196385383606, 0.11120263487100601, 0.09385674446821213, -0.10364607721567154, 0.04019606485962868, -0.5284900665283203, -1.8046880960464478, -0.1686645895242691, -0.0470823235809803, 0.13122372329235077, 1.1651653051376343, 0.05954122170805931, 0.04667913541197777, 0.45422303676605225, 0.7057041525840759, 0.03000369481742382, 0.17991256713867188, 0.27503055334091187, 1.459570050239563, -0.0652342438697815, -0.04082858934998512, 0.4095659554004669, 0.32944372296333313, 0.04784655198454857, 0.0592770017683506, -0.3298715651035309, 0.42971035838127136, -0.04959750548005104, -0.10835539549589157, 0.0023933029733598232, 0.3434857428073883, 0.04676598682999611, 0.10568941384553909, 0.10945307463407516, 0.18526838719844818, -0.006100138183683157, 0.058443959802389145, -0.06764452904462814, -0.15353000164031982, -0.05312132462859154, -0.004939184058457613, -0.12472608685493469, 1.0243672132492065, 0.21309377253055573, -0.1331612914800644, 0.04445767030119896, 0.08111285418272018, -0.021193144842982292, 0.13434839248657227, 0.5587324500083923, -0.19969753921031952, 0.05960911139845848, -0.12104416638612747, 0.14254416525363922, 0.15378500521183014, 0.12807179987430573, 0.1257331520318985, 0.023933319374918938, -0.03849056735634804, -0.10649275034666061, -0.11783456057310104, -0.7268200516700745, -0.7052659392356873, -0.09920728951692581, 0.10508787631988525, 0.1160985603928566, 0.14568708837032318, 0.00667135464027524, 0.025907978415489197, 0.5294861197471619, -0.1166519820690155, 0.09922964125871658, -0.32891491055488586, -0.3021083474159241, 0.21801364421844482, -0.018665673211216927, -0.09429669380187988, 0.22943948209285736, 0.07714605331420898, -0.16225101053714752, -0.1970570832490921, -0.4563722312450409, -0.38523197174072266, 0.6368066072463989, -0.6397265791893005, -0.6242817640304565, -0.9881923198699951, -1.3883905410766602, 0.6784552931785583, -0.3193347454071045, 0.27892783284187317, 0.033295951783657074, -0.1162380799651146, -0.803280770778656, 0.038936760276556015, 0.04491866007447243, 0.6113340258598328, 2.021735668182373, 0.13261662423610687, 0.07609749585390091, 0.3684720993041992, -0.14325036108493805, 0.11588657647371292, 0.05401932820677757, 0.055637236684560776, -1.1895983219146729, -0.03708994761109352, -0.011644191108644009, 0.7453270554542542, 0.7328619956970215, -0.014505117200314999, -0.020272865891456604, 0.5172863602638245, 0.9513682723045349, -0.028890760615468025, 0.007797047961503267, -0.25731438398361206, 0.18421556055545807, -0.19455240666866302, 0.0634203627705574, 0.09270142763853073, -0.4061591625213623, 0.09788738936185837, -0.00470817880704999, -0.004649981390684843, -0.23386472463607788, -0.09978119283914566, 0.03789025545120239, -0.1265895813703537, -0.13902100920677185, -0.058357417583465576, 0.14318372309207916, 0.44229206442832947, -0.16640689969062805, -0.06462813168764114, 0.04860484227538109, 0.20030640065670013, 0.048821572214365005, -0.031340569257736206, -0.016345711424946785, 0.0733514353632927, 0.014778021723031998, -0.04338771477341652, -0.044036541134119034, 0.010501495562493801, -0.010243035852909088, 0.19764314591884613, -0.15192198753356934, 0.13876940310001373, 0.13341213762760162, 0.0183620136231184, 0.02257244475185871, -0.3318020701408386, 0.04294801875948906, -0.007072777021676302, -0.19318877160549164, -0.3314942717552185, -0.09825924783945084, -0.031359877437353134, -0.1347327083349228, 0.055199187248945236, -0.29104334115982056, 0.11484669893980026, -0.0009860320715233684, -0.621884822845459, 0.2542967200279236, 0.019339783117175102, 0.10996755212545395, 0.15481701493263245, 0.06631620228290558, 0.21338392794132233, 0.13292934000492096, -0.24210667610168457, -0.1679089218378067, -0.746987521648407, -0.7194032073020935, 0.2415590137243271, -0.24965953826904297, 0.5363768935203552, 0.023234983906149864, 0.7057318091392517, -0.3661756217479706, -0.9718989729881287, 0.06550855189561844, 1.5892139673233032, 0.20448018610477448, -0.016961650922894478, -0.7698612213134766, -0.4950689971446991, -0.07155520468950272, 0.008717739023268223, -0.9227294921875, 0.42436814308166504, -0.04414031282067299, 0.046787697821855545, 0.8649880290031433, -0.21363084018230438, -0.01543277408927679, -0.05587601289153099, 0.835624635219574, -0.7655596137046814, -0.0557175911962986, -0.003330836072564125, -0.20060347020626068, -0.698703944683075, -0.09716109186410904, 0.01492141094058752, -0.7986153960227966, -0.17706167697906494, -0.16609801352024078, -0.01438813004642725, 0.45573708415031433, -0.2646615207195282, -0.07037603110074997, 0.07268316298723221, 0.035921983420848846, 0.014205352403223515, -0.11441528052091599, -0.004054971504956484, -0.07778523862361908, 0.18975304067134857, -0.02094613015651703, -0.10760387033224106, 0.009292307309806347, 0.026612786576151848, -0.1241680309176445, 0.0999208614230156, -0.21738268435001373, 0.13331963121891022, 0.08105837553739548, 0.039385464042425156, -0.21856386959552765, -0.11692313104867935, 0.07247709482908249, -0.22324873507022858, 0.09725039452314377, 0.024491069838404655, 0.019282100722193718, -0.02524811215698719, 0.10195259004831314, -0.06788825243711472, -0.10406225919723511, -0.03761553391814232, 1.1455373764038086, -0.16907934844493866, -0.07283330708742142, 0.1577468067407608, 0.14708100259304047, 0.03463307023048401, -0.023333309218287468, -0.028323234990239143, 0.10538824647665024, -0.3731552064418793, -0.0372941829264164, 0.22585298120975494, -0.2343553900718689, 0.14081159234046936, -0.05138323828577995, 0.12870027124881744, 0.0309063121676445, 0.03393680602312088, -0.010340840555727482, -0.05689984932541847, 0.8064326643943787, 0.8123019337654114, 0.02701479382812977, -0.9695425033569336, -0.9822475910186768, 0.1795588582754135, -1.8341745138168335, -0.4731159210205078, 1.0650079250335693, 0.03913107514381409, 0.41199299693107605, -0.7584807276725769, -0.9205760359764099, 0.04346520081162453, -0.06621211767196655, -0.2540578842163086, 0.1453704982995987, -0.02166355960071087, -0.010491392575204372, -0.4201655685901642, 0.3182253837585449, -0.21839283406734467, -0.10971435159444809, 0.2006387859582901, 0.25398585200309753, -0.07408875972032547, -0.09960972517728806, 0.14106999337673187, -1.354849934577942, 0.03135782852768898, 0.053005415946245193, -0.054420050233602524, -0.39432212710380554, -0.05954461917281151, 0.014719902537763119, -0.41597554087638855, 0.09891020506620407, 0.005108259152621031, 0.05762409791350365, -0.4069990813732147, -0.3908648192882538, 0.016698287799954414, -0.15534353256225586, -0.06493639945983887, -0.14687514305114746, 0.018593011423945427, -0.05527262017130852, 0.10290201753377914, 0.07801841199398041, -0.00817923154681921, 0.19250677525997162, 1.1635973453521729, -0.4872489273548126, -0.10817957669496536, 0.08662384003400803, 0.004628804046660662, 0.017194554209709167, 0.16156327724456787, -0.15726850926876068, 0.4416336715221405, 0.27661773562431335, -0.08974885195493698, -0.0008619576110504568, 0.05164480581879616, -0.10160263627767563, 0.09962070733308792, -0.17041827738285065, 0.11587405204772949, -0.21534912288188934, -0.05768483504652977, 0.1293024867773056, -0.4659113585948944, 0.0027601143810898066, -0.08308249711990356, -0.15884758532047272, -0.5409144163131714, -0.2247168868780136, 0.007490179967135191, -0.01455248985439539, -0.14353130757808685, -0.08842997997999191, -0.19336020946502686, 0.016679884865880013, 0.2194921225309372, 0.7744798064231873, 0.007397070061415434, -0.021686317399144173, 0.12663482129573822, 0.07480145990848541, -0.06472610682249069, 0.003529622917994857, -0.2639400362968445, 0.7751192450523376, -0.7807897925376892, -0.4838493764400482, -0.3883016109466553, -1.0502026081085205, -0.10080408304929733, 0.3670596182346344, 0.2306504100561142, -1.6584835052490234, 0.2687259316444397, -0.48012539744377136, -0.5028659701347351, -0.7067853808403015, -0.6724396347999573, -0.6433286666870117, -0.21745777130126953, -0.34815719723701477, -0.3588533401489258, -0.38115552067756653, -0.7340640425682068, -0.7400673031806946, -0.5440401434898376, -0.3561020791530609, -0.2882058620452881, -0.5152881741523743, -0.4335522949695587, -0.40815022587776184, -0.361659973859787, -0.621907651424408, -0.6213806867599487, -0.4478411376476288, -0.44539129734039307, -0.38830819725990295, -0.2522129416465759, -0.18234765529632568, -0.35582998394966125, -0.4227352440357208, -0.1807929128408432, -0.35704299807548523, -0.5472293496131897, -0.12169381976127625, -0.5585018396377563, -0.43993058800697327, -0.033328212797641754, -0.2557048797607422, -0.07666008919477463, -0.2311835139989853, -0.5291176438331604, -0.38695308566093445, -0.37490057945251465, -0.6154812574386597, -0.39939168095588684, -0.47333475947380066, -0.2376057505607605, -0.12280043214559555, -0.7120212912559509, -0.3361610472202301, -0.5639196038246155, -0.5111322402954102, -0.3852241337299347, -1.035488486289978, 