{"structure_edges": [[3, 4, 1], [3, 19, 1], [-1, 3, 1], [11, 15, 1], [14, 16, 1], [14, 18, 1], [13, 14, 1], [12, 13, 1], [11, 12, 1], [-1, 11, 1], [1, 2, 1], [0, 1, 1], [-1, 0, 1], [6, 7, 1], [5, 6, 1], [-1, 5, 1], [9, 10, 1], [8, 9, 1], [-1, 8, 1]], "structure_weights": {"mu": [-2.953693483369232, -2.0131031225055596, 1.1530448391238561, -0.45295824298729565, -0.8049795318465617, 0.0, 0.0, 1.0942646408502785, -1.39758880103814, 2.2064379055606245, -1.0257569813282539, -1.4097032624324013, 1.5260460657079036, 1.0280477929720593, 0.0, 0.0, 0.4277083117067835, -0.06609267593899194, -2.9248032173052483, -0.4342638513537428, -0.41051500378572514, -0.8139242364216103, -0.9429846113999149, 0.0, 0.0, 1.49940622560477, -1.0054630208687785, -1.5143342149749757, -1.4458065336624177, 2.531214544050068, -0.14373060565848436, -1.7358187446470503, 0.0, 0.0, -0.5404933387208517, 0.2196855021659555, -1.716517314748816, -1.0065244719903574, 1.5887167914685223, -0.5474831637865013, 0.7349480488451504, 0.0, 0.0, 0.21250788033928406, -1.1135359245598464, -1.1174054012692152, -0.6170864306506911, 1.5136898163794736, 1.580301568180437, -0.24773227965578773, 0.0, 0.0, 0.07805021093523995, -1.2020122764293037, -1.0543965891959877, -0.85101557727343, -0.15182369671027918, -0.5568661486826707, 0.643961538270882, 0.0, 0.0, 0.9289190201265352, -0.5844176211348259, -0.5800967301377996, -0.4404601355158255, 0.2926897030891444, 1.8312134878898796, -0.9026400185560635, 0.0, 0.0, 0.468696553595632, 0.11387197690932793, 0.38394065755156026, -0.8554083603859162, 0.173291090728426, 2.9367797059177057, -1.8248802613219515, 0.0, 0.0, 0.038755983043622017, 0.6240174048144485, 1.5274911139777032, -0.8885410866482862, -0.6813625467469963, 1.2229034870404303, 0.7418381027633355, 0.0, 0.0, -0.5578527764383414, -1.5943209145620945, 0.6404273183312844, 0.6655061320990027, -0.9937083396480741, 2.9506438826893455, -1.7812143329318728, 0.0, 0.0, -0.5682110226010599, 1.0712579472680688, 1.338566745357359, -1.345094562251062, 0.6503876930171103, 3.124999981154682, -1.3064763590606532, 0.0, 0.0, 0.17694357788930626, 1.2666462749598049, 0.9515409042992101, -0.8347830611079992, -0.6366945465009991, 0.2581208073540383, 0.41281506292835607, 0.0, 0.0, 0.2868450256665601, -0.22024521574531808, 1.3470037847620975, -1.3096668333740182, -1.4243479394353142, -2.122651171737072, -0.9856934146536168, 0.0, 0.0, 0.5772362444695711, -0.7392746169765395, 1.2635799408300596, -1.4891242047787023, -0.7071684147641158, 3.124999981154682, -1.017622540287283, 0.0, 0.0, -0.38753486010742916, 0.6955732817596687, 1.826923828248812, -2.513834476594994, -2.366046662919027, -2.548684275939476, -0.48542970107744293, 0.0, 0.0, -0.39720983406168486, -0.9754134450775594, 2.0736848507709484, -1.9769785522007426, 0.1630083432757823, -2.0293667906725124, -0.8631103855436253, 0.0, 0.0, 0.06863177231146501, -0.7683128321114332, 0.0, 0.0, 0.0, 0.0, 0.0, 0.0, 0.0, 0.0, 0.0, 1.1138207854019955, -1.511094915681633, -2.4642221084140115, -1.958499790030412, -1.4995724835573798, 0.0, 0.0, 0.9047562595272304, -0.7903471043994293, -2.9248032173052483, 0.24391691941361057, -1.1008733048494501, -0.7132650552629152, -1.2251314795329569, 0.0, 0.0, 1.0542470222634979, -0.4136879779868874], "sigma": [0.0999999892817851, 0.01, 0.030131653610397387, 0.024299478560382014, 0.01, 0.1, 0.1, 0.03690088955307462, 0.0688127234237833, 0.039678328422327505, 0.075393408003948, 0.022994061650297968, 0.011091379686925579, 0.024656885497258703, 0.1, 0.1, 0.5875727228364678, 0.012357961209529455, 0.09999999077637048, 0.01, 0.03753373123951435, 0.024186490707884003, 0.04432989583263271, 0.1, 0.1, 0.14075796985459768, 0.1797009855832559, 0.023673107934596118, 0.014545534188395609, 0.16950878284578394, 0.019009350086797973, 0.01, 0.1, 0.1, 0.08883033718965361, 0.01, 0.012914372403960685, 0.013772526374158826, 0.07972357254744723, 0.03435529537604029, 0.011327958038252673, 0.1, 0.1, 0.10140546569671126, 0.5096878211547416, 0.01970682544975662, 0.023469902190393646, 0.1487732652006204, 0.017821419611642467, 0.08540501078780391, 0.1, 0.1, 0.041729975688345626, 0.05464493716735693, 0.010115092894309615, 0.01, 0.23460920166455573, 0.04051574845981793, 0.01006805875845621, 0.1, 0.1, 0.10269862062481945, 0.1256046106614394, 0.044761071310424165, 0.04648058268756505, 0.01, 0.07346969794075679, 0.011761109361430072, 0.1, 0.1, 0.02340851985198662, 0.01, 0.01315677964632961, 0.01, 0.03673578222603399, 0.09999998994644903, 0.02224380304787547, 0.1, 0.1, 0.01, 0.09221063447111931, 0.038879053454316415, 0.0219316135744669, 0.06514794655285053, 0.014562910736537739, 0.0132781490550164, 0.1, 0.1, 0.021371456736168363, 0.08424387567746613, 0.01723392924855435, 0.026334338399272104, 0.08469060894339896, 0.09999998839115766, 0.15454456278102469, 0.1, 0.1, 0.11041380978105539, 0.21326364417614938, 0.015023648836495148, 0.01813474252434045, 0.025476061409187418, 0.09999997923687873, 0.01922525205698964, 0.1, 0.1, 0.01038546024799489, 0.010720199760108016, 0.054999869169825584, 0.01, 0.01, 0.015681759343940286, 0.03514983220356899, 0.1, 0.1, 0.8178971824751089, 0.33932125234260685, 0.047474394990461126, 0.023517393905644203, 0.11424472514596215, 0.061018535283281695, 0.07759323566633994, 0.1, 0.1, 0.23496196654007329, 0.24277624714034288, 0.014573722643442444, 0.052128606656345826, 0.07321800911621008, 0.09999997923687873, 0.010385420280436429, 0.1, 0.1, 0.029918390294694244, 0.1484364359823327, 0.2602324402350157, 0.35398706751089026, 0.3494759707975153, 0.01111828449240592, 0.0277834771641228, 0.1, 0.1, 0.5633491115566013, 0.02068834530001573, 0.02740236179820224, 0.020561337686157057, 0.12269074027114737, 0.01646990181038063, 0.15406190586980054, 0.1, 0.1, 0.2969914532328944, 0.5228557729231651, 0.1, 0.1, 0.1, 0.1, 0.1, 0.1, 0.1, 0.1, 0.1, 0.13665603375365082, 0.19869774277460964, 0.26837775891748317, 0.07741739053230329, 0.010664671232356782, 0.1, 0.1, 0.21219421698115962, 0.2778579721981761, 0.09999999077637048, 0.09227499151783261, 0.018206197979132747, 0.011337698894062165, 0.1014652863416175, 0.1, 0.1, 0.040251890307083524, 0.40257091046018556]}, "policy_weights": [0.22331905364990234, 0.2188098281621933, 0.05805247649550438, -0.0634918287396431, 0.5280925631523132, 0.7780000567436218, -0.19178350269794464, -0.09003520756959915, 0.7019549012184143, 0.5566941499710083, 0.12819184362888336, -0.019483597949147224, -0.5459319353103638, 1.278165578842163, -0.04447931423783302, 0.191345676779747, 0.2038509100675583, 0.10525008291006088, 0.06162482127547264, 0.021996332332491875, 0.173827663064003, -0.6551846861839294, 0.08934693783521652, 0.01698140986263752, 0.3945803642272949, 0.6826077103614807, -0.026384184136986732, -0.10694969445466995, -0.13479627668857574, 0.38146090507507324, -0.11724983900785446, 0.10914360731840134, -0.4672350585460663, 0.7773727774620056, 0.0034182220697402954, 0.029136834666132927, 0.23430006206035614, 0.21740329265594482, 0.14380909502506256, 0.06199752911925316, 0.2055792659521103, 0.5420235991477966, 0.23255445063114166, -0.08079826086759567, -0.7582836747169495, 0.2561529278755188, -0.18116413056850433, 0.09383951872587204, -0.0957464799284935, 0.5650287866592407, -0.03772559389472008, 0.20818136632442474, -0.5697841048240662, 0.05740242823958397, 0.12996865808963776, 0.0459788478910923, -0.1446550041437149, -0.006507908459752798, -0.0212541650980711, -0.02040199749171734, -0.14460352063179016, -0.0888509750366211, 0.015470952726900578, -0.00886473897844553, 0.07309890538454056, -0.171592116355896, 0.06769413501024246, 0.06894034892320633, -0.035426169633865356, 0.054792940616607666, -0.15957067906856537, -0.02671852521598339, -0.060890477150678635, -0.25929850339889526, 0.11426996439695358, -0.02650090865790844, -0.12859785556793213, -0.059888776391744614, 0.12645770609378815, 0.0008467053412459791, -0.48466917872428894, -0.5511183142662048, 0.06930136680603027, -0.1994638442993164, 0.2652862071990967, -0.18296243250370026, -0.07674401998519897, -0.3257000744342804, -0.5018830895423889, 1.8170905113220215, 0.40393319725990295, 0.2583245635032654, 0.7457035183906555, 0.03412678465247154, -0.02496844343841076, 0.5067882537841797, -0.10595854371786118, 0.13564585149288177, 0.174666628241539, 0.36052799224853516, -0.9965038299560547, -0.052984077483415604, -0.037881676107645035, -0.7230653166770935, 0.008602609857916832, 0.01982090063393116, -0.12032925337553024, -0.4195224344730377, 0.15908971428871155, 0.04216933622956276, 0.07655036449432373, 0.04174676910042763, -0.30443134903907776, 0.05730437859892845, -0.10301323980093002, 0.2785785496234894, -0.0804080218076706, 0.07570724934339523, 0.13096167147159576, 0.10680674761533737, 2.074584722518921, 0.04797518625855446, -0.13508011400699615, -0.3539157211780548, -0.003222961211577058, 0.08048183470964432, -0.12212289124727249, 0.4322760999202728, 1.2854888439178467, -0.06780188530683517, -0.0036287906114012003, -0.7471947073936462, -1.1776846647262573, -0.04464277997612953, -0.06829798966646194, 0.5101598501205444, 0.2716269791126251, -0.0022217032965272665, 0.17209364473819733, -0.1786203533411026, 1.2488003969192505, 0.05940217152237892, 0.024752290919423103, 0.4087778627872467, 0.9617214202880859, 0.03352498635649681, 0.0686570480465889, -0.08478481322526932, 0.03632869943976402, -0.017988311126828194, 0.11201190203428268, -0.16196975111961365, -0.03307589888572693, 0.10959593206644058, 0.19201038777828217, -0.13903477787971497, -0.07880447804927826, 0.07638330012559891, -0.024156227707862854, 0.025424351915717125, -0.01579679362475872, 0.1508486121892929, 0.059014078229665756, -0.23361587524414062, -0.19622622430324554, 0.0887172743678093, -0.09440108388662338, 0.04172179475426674, 0.09485013037919998, 0.15094685554504395, 0.019592372700572014, -0.27654027938842773, 0.02569294162094593, -0.8683004975318909, 0.009680725634098053, 0.8085737228393555, -0.4980095326900482, 0.632011353969574, 0.021821456030011177, -0.31257733702659607, -0.09684646129608154, 0.8375750184059143, 0.29299667477607727, -0.004593927878886461, 0.016813727095723152, 0.08479040116071701, -0.36740484833717346, 0.45153239369392395, 0.012582509778439999, -0.04512685164809227, -0.12017897516489029, -0.09489596635103226, -0.029726387932896614, -0.13126517832279205, 0.1665031909942627, -0.03985553979873657, 0.10246872156858444, -0.07912873476743698, 0.06744837015867233, 0.2699942886829376, 0.017251087352633476, 0.025561748072504997, -0.04103309288620949, -1.0596425533294678, -0.03706153854727745, 0.11501406878232956, 0.30469104647636414, -0.35647985339164734, 0.12695811688899994, 0.09398538619279861, 0.11657162755727768, -0.8029679656028748, 0.0133237699046731, 0.012602568604052067, -0.22066806256771088, 0.9746666550636292, 0.08290653675794601, 0.12635459005832672, 0.06655817478895187, 0.15430378913879395, 0.07742507010698318, -0.18681226670742035, -0.7591007351875305, 0.17457769811153412, 0.0036581752356141806, 0.030615657567977905, -1.2693051099777222, -0.4547934830188751, -0.0636143609881401, -0.027960987761616707, 0.9703959822654724, -1.175857663154602, -0.07907574623823166, 0.06442809849977493, -0.07255567610263824, 0.23221278190612793, -0.13494490087032318, -0.04952118173241615, 0.029967794194817543, -0.3532705008983612, -0.02277708239853382, 0.13277506828308105, 0.17136086523532867, 0.08094979077577591, -0.042523473501205444, -0.17173148691654205, 0.030171073973178864, -0.29229381680488586, 0.07116185873746872, -0.061967846006155014, 0.06945925951004028, -0.04460448399186134, -0.03336438909173012, 0.10714765638113022, -0.3231465518474579, -0.06431889533996582, -0.05006343498826027, -0.11003869771957397, -0.07881786674261093, -0.13865973055362701, -0.005022253375500441, 0.08220874518156052, -0.30347374081611633, -0.23280183970928192, 0.0538608618080616, -0.12367451190948486, 0.09323955327272415, -0.38477280735969543, -0.10164488106966019, 0.6895484328269958, 0.6394156217575073, -0.5200105905532837, 0.18730199337005615, 0.7250728607177734, -0.7275068163871765, 0.05482916161417961, -0.06012433394789696, -0.25838035345077515, -0.2861485779285431, 0.1451519876718521, -0.1707637459039688, -0.4583582580089569, 0.058165356516838074, -0.10533154755830765, -0.17089533805847168, 0.07475001364946365, -0.31240472197532654, -0.038510292768478394, -0.006833349820226431, 0.27608272433280945, 1.2439489364624023, -0.027430221438407898, 0.11519216746091843, -0.2858204245567322, -0.5202880501747131, 0.06358509510755539, 0.03717857971787453, -0.20437480509281158, -0.2749200165271759, 0.10595165938138962, 0.021788807585835457, -1.6311969757080078, -2.223615884780884, -0.07732696086168289, 0.13345147669315338, -0.2893175780773163, -0.48089277744293213, -0.15810967981815338, -0.0762365534901619, -0.5586204528808594, -0.19249284267425537, -0.02683562971651554, 0.23120473325252533, 0.07474787533283234, -0.6326689124107361, 0.16187594830989838, -0.042535100132226944, 0.5848655700683594, -0.48097848892211914, 0.10382545739412308, 0.011124037206172943, 0.09931554645299911, 0.6377261877059937, 0.11721300333738327, 0.019383354112505913, 0.785952091217041, 0.5077885985374451, -0.14153943955898285, -0.020860446617007256, -0.04702727124094963, 0.010624543763697147, -0.029941322281956673, -0.04775550588965416, 0.0929800346493721, 0.2499852031469345, -0.08018427342176437, -0.08045559376478195, -0.1443108469247818, -0.13767394423484802, -0.03214600309729576, -0.10034824162721634, 0.08805633336305618, 0.017247868701815605, 0.21176980435848236, 0.21958111226558685, -0.28936195373535156, 0.21590135991573334, -0.18252967298030853, 0.03013482503592968, -0.2191825658082962, -0.25860974192619324, 0.11443495005369186, -0.11882185190916061, -0.46099981665611267, -0.42248913645744324, -0.7078075408935547, -0.4477299153804779, 0.26079753041267395, 0.21189667284488678, 0.9187495708465576, -1.0093995332717896, -0.5768541097640991, 0.6333750486373901, 0.2471889704465866, 0.2931823134422302, 0.4197053611278534, 0.046852800995111465, 0.06895870715379715, 0.07030640542507172, 0.8981733918190002, 0.08406548947095871, -0.01692040078341961, -0.5699663758277893, 0.0964946374297142, 0.08793468028306961, -0.05799853429198265, -0.14194098114967346, -0.5839019417762756, 0.056600574404001236, -0.07432205229997635, -0.400522381067276, -0.19268079102039337, -0.13737080991268158, -0.11660600453615189, -0.2287847250699997, 0.6153035759925842, 0.028639910742640495, 0.038251277059316635, -0.2458011955022812, -1.0398808717727661, -0.09171272069215775, 0.10115651041269302, -1.4731370210647583, -1.8585885763168335, 0.0043899682350456715, -0.04340178146958351, -0.36578622460365295, -0.02135339379310608, 0.10412324219942093, 0.20690204203128815, 0.4144803583621979, 0.7659416794776917, -0.07205582410097122, 0.02103695087134838, 0.5106099843978882, 0.17571969330310822, -0.07836955040693283, 0.062034670263528824, 0.11277899146080017, -0.0588313527405262, 0.0032934125047177076, -0.14073537290096283, 0.5013600587844849, 0.22179986536502838, 0.017021430656313896, 0.07466644048690796, 0.14436553418636322, 0.777763843536377, -0.05430470034480095, -0.03179759159684181, 0.07423077523708344, -0.05843913182616234, 0.0231816153973341, -0.16884122788906097, -0.14019642770290375, 0.03473088517785072, -0.17027415335178375, 0.11740947514772415, 0.22734713554382324, -0.01839470863342285, -0.053466733545064926, 0.02886003442108631, -0.05076213553547859, 0.1540520340204239, -0.0012286454439163208, 0.10716413706541061, -0.017418738454580307, 0.08926557749509811, -0.07916604727506638, 0.1036919429898262, -0.1853463500738144, 0.27369949221611023, 0.26171350479125977, 0.20761005580425262, -0.5073885321617126, -0.5688586831092834, -0.24922560155391693, -0.21888278424739838, -0.10330916196107864, -0.24288934469223022, -0.6546207666397095, -0.8597540855407715, 0.07327395677566528, 0.28954124450683594, 0.5844820737838745, 0.565186083316803, 0.4340720474720001, 0.07815670222043991, -0.007246329914778471, -0.5639895796775818, -0.6038355827331543, -0.04509400948882103, 0.07436143606901169, -0.701334536075592, 0.21065165102481842, -0.18698750436306, 0.12223614007234573, 0.47675785422325134, 0.1077168807387352, 0.029771624132990837, -0.029629496857523918, -0.17478084564208984, 0.4151463210582733, 0.16430102288722992, 0.0287857037037611, 0.2708900272846222, -0.16020460426807404, -0.08259253948926926, 0.08015459030866623, -0.3564119338989258, -0.21397708356380463, 0.16698767244815826, -0.11220847815275192, -0.6592231392860413, 1.0905338525772095, -0.09619700908660889, 0.0004195243527647108, -0.6510637998580933, 0.6457415223121643, 0.028865722939372063, 0.03003370575606823, -0.29162099957466125, -0.633181631565094, -0.16535340249538422, 0.07344358414411545, 0.4526604115962982, -0.2697570025920868, -0.007969521917402744, -0.06298179179430008, 0.27990201115608215, -0.13340507447719574, 0.14177049696445465, 0.0894041582942009, 0.8451337814331055, -0.1823248416185379, -0.09151757508516312, -0.07862377911806107, 0.733278214931488, -0.5888968706130981, 0.2345726490020752, -0.18529736995697021, -0.05241448059678078, 0.19269536435604095, -0.022659512236714363, 0.0013720503775402904, 0.1681983321905136, 0.30478715896606445, 0.013244827277958393, 0.010222822427749634, -0.06861741095781326, 0.07565849274396896, 0.08727674931287766, -0.1217811182141304, -0.06144857034087181, -0.012682945467531681, -0.05022420361638069, -0.03261909261345863, -0.21402667462825775, 0.12985752522945404, 0.06028497591614723, 0.023021696135401726, -0.1049344465136528, -0.21993200480937958, 0.025555917993187904, -0.12596823275089264, -0.6752479672431946, -0.5221824049949646, -1.020336389541626, -0.28292912244796753, 1.0317023992538452, -0.9783505797386169, 0.9747546315193176, 0.33743008971214294, -0.6867284178733826, 0.12675248086452484, -0.1698833554983139, 0.624646782875061, -0.5751661658287048, 0.059084538370370865, 0.16520430147647858, 0.017522122710943222, -0.27204564213752747, -0.056992169469594955, 0.08601284772157669, 0.5464195609092712, -0.029556045308709145, 0.049162860959768295, -0.1447117179632187, 0.13656367361545563, 0.5549511313438416, -0.07892513275146484, 0.11914419382810593, 1.2600367069244385, 1.3962870836257935, -0.1690363734960556, -0.0053170244209468365, -0.394819974899292, -0.8806002736091614, 0.015433340333402157, 0.007428228389471769, -0.20062826573848724, 0.6978675723075867, -0.014286861754953861, 0.060289859771728516, -0.07565269619226456, 0.1629335582256317, -0.0569988489151001, 0.07509446889162064, -0.7073692679405212, -0.10946506261825562, -0.07802944630384445, 0.04121032729744911, 0.46923720836639404, 0.5763404965400696, -0.1443634182214737, 0.10749994963407516, 0.1718638390302658, -0.008557780645787716, -0.09446543455123901, 0.08414728194475174, 0.3913409411907196, 0.6261339783668518, -0.04229259118437767, 0.14407207071781158, -0.4080210030078888, -0.3829054832458496, 0.0007080980576574802, -0.010520369745790958, -0.46425482630729675, -0.021070601418614388, -0.0423693023622036, -0.03067329339683056, -0.06449277698993683, 0.37004056572914124, 0.07186084240674973, -0.03919961676001549, 0.06690376251935959, 0.09452783316373825, -0.180861696600914, 0.043167416006326675, -0.31090599298477173, 0.06442026793956757, -0.05742311105132103, 0.04607674106955528, 0.07793331146240234, -0.04567689076066017, 0.12665949761867523, -0.032508786767721176, -0.020457152277231216, 0.033157166093587875, -0.27812865376472473, 0.10151008516550064, -0.23276138305664062, -0.022406024858355522, 0.1601017564535141, 0.09800595790147781, -0.5365571975708008, -0.41343167424201965, -0.1312648355960846, -0.8205773234367371, 0.015834566205739975, 0.14354625344276428, 0.05547356233000755, -0.5570977926254272, -0.4598703682422638, -0.152610182762146, 0.3686821758747101, 0.4799889028072357, -0.3328644633293152, -0.00876657571643591, -0.12229668349027634, 0.9531926512718201, -0.41011524200439453, -0.156553253531456, 0.28832122683525085, 0.8783416748046875, -0.6243371367454529, -0.013086955063045025, 0.1947496086359024, -0.9962653517723083, -0.5032368302345276, 0.034088198095560074, 0.16024495661258698, 1.3650356531143188, 0.5318865776062012, 0.0664835050702095, 0.00799547042697668, 0.4340651035308838, -0.5743650197982788, 0.06553124636411667, -0.048547353595495224, 0.582915186882019, 0.5792738199234009, -0.010935350321233273, 0.0027951335068792105, -0.43950650095939636, -0.15226124227046967, 0.0018443259177729487, -0.2767431437969208, -0.43000027537345886, 0.1513873040676117, 0.02196374349296093, 0.04027703031897545, 0.6003845930099487, 0.9042374491691589, 0.005751143675297499, -0.06848417967557907, -0.6693832278251648, 0.24487312138080597, 0.1457158476114273, 0.0488511361181736, 0.15938998758792877, 0.8469544053077698, -0.13116014003753662, -0.08383785933256149, -1.5767499208450317, 0.078090138733387, 0.042251020669937134, 0.03255227208137512, -0.4498700797557831, 0.6315978765487671, -0.007353015709668398, -0.20101173222064972, 0.06480931490659714, 0.20117424428462982, -0.15580226480960846, 0.2958360016345978, -0.07303486764431, 0.06229096278548241, 0.12375236302614212, -0.07677602022886276, -0.18308092653751373, 0.11801299452781677, 0.015379293821752071, -0.05649590119719505, -0.07479899376630783, -0.054100628942251205, -0.06597065180540085, 0.13337098062038422, -0.02737160585820675, 0.05239736661314964, -0.07761556655168533, -0.1077316626906395, -0.1843358427286148, 0.2207939773797989, -0.14197218418121338, 0.17308534681797028, -0.3937482535839081, -0.1759546995162964, -0.016270583495497704, -0.43335652351379395, -0.047256674617528915, -0.5991573929786682, -0.01693362556397915, 0.8314333558082581, -0.504280149936676, -0.9506263136863708, -0.1782507747411728, 0.040141511708498, 0.06575824320316315, 0.10109841078519821, -0.11434613913297653, 0.21018503606319427, 0.011416158638894558, 0.052291661500930786, 0.12989209592342377, 0.020458919927477837, 0.5425509214401245, 0.03172456845641136, 0.011404282413423061, 0.09463389962911606, 0.35663461685180664, -0.03248482570052147, 0.053558822721242905, -0.5001341104507446, -0.5072160363197327, -9.959714225260541e-05, -0.08681868761777878, -0.26219967007637024, 1.1670691967010498, 0.057551149278879166, 0.10783100873231888, 0.4668755829334259, 1.3487911224365234, 0.04001602903008461, 0.07543105632066727, 0.3669387400150299, -1.5844122171401978, -0.02924594096839428, 0.15994931757450104, -0.2790406346321106, -0.38133740425109863, 0.0028931573033332825, 0.051965147256851196, -0.12003909796476364, -1.1430319547653198, 0.024594007059931755, -0.011681373231112957, -1.098232388496399, 0.09724826365709305, -0.2110907882452011, 0.06897812336683273, -0.6806202530860901, -0.5932030081748962, 0.06002914533019066, 0.29469868540763855, -0.1331474930047989, -0.5515679717063904, -0.06751071661710739, 0.003717307234182954, -0.4168810546398163, 0.8959386348724365, 0.08056246489286423, -0.17128418385982513, 0.03336188942193985, 0.1451878696680069, 0.13564230501651764, 0.0612490139901638, 0.12233158946037292, 0.05250448361039162, 0.11894596368074417, -0.12410450726747513, -0.10910462588071823, -0.39571666717529297, -0.02865046076476574, 0.03359314426779747, -0.05189996585249901, 0.06606333702802658, 0.011687308549880981, 7.97097382019274e-05, -0.032080840319395065, -0.04032430425286293, -0.009639784693717957, -0.002164962003007531, -0.18726442754268646, -0.13978265225887299, -0.05428658053278923, 0.019996466115117073, -0.18244285881519318, -0.3574772775173187, 0.16225968301296234, -0.34282901883125305, 0.2936546504497528, -1.5431751012802124, 0.3427681624889374, -0.8188271522521973, 0.8158273100852966, 0.29168373346328735, 0.5996297597885132, 0.23340488970279694, -0.0015115287387743592, 0.23847006261348724, 0.07899213582277298, -0.20959632098674774, -0.26840946078300476, 0.027218608185648918, -0.03862473741173744, 0.36087921261787415, 0.40424731373786926, -0.01799430139362812, 0.10088467597961426, 0.2436002939939499, -0.5882541537284851, -0.05153181031346321, -0.07660459727048874, 0.11712078005075455, 0.3505375385284424, 0.06316208094358444, -0.07017987221479416, 0.029310762882232666, 1.40411376953125, 0.004377502482384443, 0.02644619159400463, 0.7460671067237854, 0.16875143349170685, -0.10039293020963669, -0.09961050003767014, 0.3726828992366791, 2.0414528846740723, -0.14162693917751312, 0.02358326129615307, -0.31774428486824036, -0.6192635893821716, -0.11915696412324905, 0.046366747468709946, 0.4189070165157318, 0.4086708724498749, 0.03991958498954773, -0.02523786760866642, -0.21355079114437103, -0.7121191024780273, -0.038376059383153915, -0.21802090108394623, -0.40106311440467834, 0.9129669666290283, 0.27338191866874695, 0.20439814031124115, 0.6982617974281311, 0.9975185394287109, 0.101634182035923, -0.0799633264541626, -0.46842002868652344, 0.5389304757118225, -0.07316052168607712, 0.3188032805919647, -0.1029682531952858, -0.021556580439209938, -0.004350137431174517, -0.04112884774804115, 0.1940947324037552, 0.18834896385669708, -0.07040923088788986, -0.07961613684892654, -0.03232531622052193, 0.14619065821170807, -0.15995776653289795, -0.0001666663447394967, 0.11386264115571976, 0.06538379937410355, -9.128140663960949e-05, -0.20753438770771027, -0.037295613437891006, 0.030613360926508904, 0.03422030434012413, 0.009280308149755001, 0.0419185496866703, -0.16881166398525238, 0.034673359245061874, 0.09953684359788895, -0.5837687849998474, -0.28658393025398254, 1.5076504945755005, -0.30861276388168335, -1.1903258562088013, -0.2594170868396759, -0.0449238084256649, -0.1224895641207695, 0.020084423944354057, 0.03751825913786888, -0.5392767190933228, 0.6334105134010315, 0.3875183165073395, 0.23772738873958588, -0.12353945523500443, -0.10571714490652084, 0.002251878147944808, 0.04074486717581749, 0.11883354932069778, -0.0681234672665596, -1.1914139986038208, 0.13055191934108734, -0.13183675706386566, -0.23681633174419403, -0.09781467169523239, -0.05520438775420189, 0.08513761311769485, -0.35907217860221863, -0.28408604860305786, -0.04213178530335426, 0.09220438450574875, 0.16749928891658783, 0.405638188123703, -0.09730357676744461, 0.05162521079182625, 0.6250167489051819, 0.5359283685684204, -0.13209950923919678, -0.008092680014669895, -0.38142815232276917, 1.552686333656311, -0.03194436803460121, 0.08474140614271164, -0.415661484003067, -0.0008057485683821142, 0.10812555998563766, 0.05937778577208519, 0.06721459329128265, -1.924289584159851, -0.06743574887514114, -0.2058052271604538, -0.3024359345436096, -0.7446137070655823, 0.14378751814365387, 0.01600066013634205, 0.07209891825914383, -0.387332946062088, -0.09515810757875443, 0.02833854965865612, 0.09278248995542526, -0.8727869987487793, -0.039936456829309464, -0.016497818753123283, 0.30301424860954285, -0.23660661280155182, 0.049358759075403214, -0.21388490498065948, -0.11383656412363052, -0.08959078043699265, -0.015546201728284359, -0.022403301671147346, -0.09534614533185959, 0.06262463331222534, 0.13336049020290375, -0.18931221961975098, -0.03350769728422165, -0.18001504242420197, -0.10081237554550171, 0.11132312566041946, -0.03919556364417076, -0.12385427206754684, -0.029474375769495964, -0.017785759642720222, 0.25895780324935913, 0.012991531752049923, -0.0722193643450737, -0.009561852551996708, -0.027377113699913025, -0.09586405754089355, 0.19493937492370605, -0.09852857142686844, -0.17284630239009857, -0.540953516960144, -0.3509264290332794, -0.5363249182701111, 0.04684539511799812, -0.05086224898695946, -0.008616399951279163, 0.7359246611595154, 0.0923004224896431, 0.48797687888145447, -0.03797873109579086, 0.3122537434101105, 0.20983636379241943, -0.03128707781434059, -0.11354685574769974, -0.027579275891184807, 1.5800589323043823, -0.08779554814100266, 0.1051475927233696, -0.08633258193731308, -0.1376611888408661, 0.08501368761062622, 0.03231719136238098, -0.4759438931941986, -0.8170235753059387, 0.2503909766674042, -0.23625420033931732, -0.14797183871269226, 0.020779533311724663, -0.048575010150671005, 0.06561815738677979, 0.007534333039075136, -0.6136165261268616, -0.06837005168199539, 0.022848250344395638, -0.00903725903481245, -0.8884440064430237, -0.06276588886976242, -0.2983853816986084, -0.0694013386964798, -1.6133359670639038, 0.0950927808880806, 0.008427694439888, -0.3713167607784271, 0.9386608600616455, -0.11967825144529343, -0.07966471463441849, 0.2939879894256592, -0.28437328338623047, 0.11114215105772018, 0.10525988787412643, 0.2686586081981659, 0.5814456343650818, -0.0064342389814555645, -0.0403098426759243, -0.06222003325819969, -0.48253104090690613, -0.09822356700897217, -0.009877189062535763, 0.5482755899429321, 0.6331467628479004, 0.023366006091237068, -0.049054596573114395, 0.3818974792957306, 0.20602130889892578, 0.11418067663908005, -0.08745444566011429, -0.25100111961364746, 0.21085770428180695, 0.18141736090183258, 0.09186331182718277, -0.12122253328561783, -0.07112698256969452, 0.04137188196182251, 0.004758644383400679, 4.7892972361296415e-05, -0.16188499331474304, 0.04854289069771767, -0.002747861435636878, -0.004320669453591108, -0.10888314992189407, -0.09010224789381027, -0.10714185982942581, 0.2882371246814728, -0.12281502038240433, 0.006920585874468088, -0.06918507069349289, 0.1401442140340805, -0.3872699439525604, 0.08125782757997513, -0.06482673436403275, -0.32654431462287903, -0.22066213190555573, -0.14020122587680817, -0.3676758110523224, -0.1336045265197754, -0.7730490565299988, -0.7611550688743591, 0.04660188779234886, -0.0096194539219141, -2.0556719303131104, -0.27043676376342773, 0.47441041469573975, 0.33645257353782654, -0.01655401475727558, 0.0687880590558052, -0.46632149815559387, -0.34037771821022034, -0.05728084221482277, 0.20257647335529327, -0.47431957721710205, 1.0031253099441528, 0.1866360753774643, 0.13588847219944, 0.15761995315551758, -0.4929656684398651, -0.089096300303936, 0.1049070730805397, -0.4417242705821991, -0.6733903884887695, 0.13161420822143555, 0.10782340914011002, -0.3752603828907013, -1.4372917413711548, 0.0723024532198906, 0.09287179261445999, -0.5059695839881897, -0.2521624267101288, 0.02833920530974865, 0.014671743847429752, -0.9007998108863831, -0.8373851180076599, 0.3334079086780548, -0.07933639734983444, -0.4155680239200592, -0.532671332359314, -0.0682746097445488, 0.16545069217681885, 0.5142654776573181, 0.3153347671031952, -0.043662454932928085, -0.04510003700852394, -0.08496639877557755, 0.35706260800361633, -0.1320282369852066, -0.0007934178574942052, -1.0153976678848267, -1.060395359992981, -0.1658148616552353, 0.11865437775850296, 0.9304507374763489, 0.5161114931106567, 0.012397444806993008, -0.060675498098134995, 0.5990095734596252, -0.7859942317008972, 0.0663074180483818, -0.11495662480592728, -0.04785816743969917, -0.13657401502132416, 0.07398021966218948, -0.14490292966365814, 0.16306903958320618, 0.12499698251485825, 0.03691670298576355, -0.13766849040985107, -0.020259041339159012, -0.04309692606329918, -0.22448085248470306, -0.08847987651824951, -0.2132297307252884, -0.16002072393894196, 0.09666543453931808, -0.19711901247501373, -0.04172373190522194, 0.09738123416900635, 0.09827214479446411, 0.06607247143983841, 0.09502465277910233, 0.028071491047739983, 0.2008536010980606, -0.026310233399271965, -0.5419521927833557, -0.3331161141395569, -0.3530716896057129, -0.15136286616325378, 0.9563438892364502, 0.5627598166465759, 0.24832727015018463, 0.3206779360771179, 1.1238373517990112, -0.36860355734825134, 0.20789694786071777, 0.42480137944221497, -0.4174974858760834, -0.056957781314849854, -0.06370795518159866, 0.3516860902309418, 1.0337021350860596, -0.11291860789060593, -0.21288514137268066, -0.07830189913511276, -0.6098965406417847, 0.072613425552845, 0.1151200607419014, -0.45180419087409973, -0.13682790100574493, -0.03485563024878502, 0.14557494223117828, 0.2970307469367981, 0.6896666884422302, 0.02632713131606579, -0.010572166182100773, -0.30801746249198914, 1.9161218404769897, 0.001334129017777741, 0.02756032533943653, -0.014813065528869629, -0.08605462312698364, -0.024114428088068962, -0.1004636362195015, -1.658788800239563, -1.8516420125961304, -0.007507071364670992, 0.022970983758568764, -0.3693852126598358, 1.0063282251358032, -0.0034432969987392426, 0.24030660092830658, -0.21901948750019073, 0.760517418384552, 0.07804679125547409, -0.10957115888595581, 0.2935061752796173, 0.8979308009147644, -0.06813163310289383, 0.08467482775449753, 0.8709850907325745, 0.102066271007061, 0.1276250034570694, -0.15265081822872162, 0.5154424905776978, 0.9152367115020752, 0.1276472955942154, -0.18289469182491302, 0.34513428807258606, 0.14748834073543549, 0.18637968599796295, 0.0964127704501152, -0.16192969679832458, -0.06511769443750381, -0.03588950261473656, -0.10095018148422241, 0.008281678892672062, -0.11268924921751022, -0.029503552243113518, 0.11619425565004349, 0.21427981555461884, 0.3032674491405487, 0.060034576803445816, 0.09667832404375076, -0.06264782696962357, -0.08724015206098557, -0.14105810225009918, -0.09587930887937546, -0.07774316519498825, 0.07155262678861618, 0.060434285551309586, 0.14301182329654694, -0.2885570526123047, -0.18879711627960205, 0.10183357447385788, -0.018501074984669685, 0.12387438863515854, 0.1679835468530655, -0.7467471957206726, -0.5174580216407776, 0.16123449802398682, -0.4551902115345001, -0.9610938429832458, -0.2092714160680771, 0.7947940230369568, 0.4320072829723358, 1.159879446029663, 0.5800062417984009, -0.3610372543334961, 0.11224018782377243, -0.045527245849370956, 0.6149340867996216, -0.3693404495716095, -0.04672152176499367, 0.013209833763539791, 0.585750162601471, 0.18665599822998047, -0.12228120118379593, -0.012089633382856846, -0.08682364970445633, -1.073581576347351, 0.02925744839012623, 0.03465044125914574, 0.5747478604316711, -0.9093371033668518, 0.07033521682024002, -0.09210372716188431, 0.273041695356369, 0.8219134211540222, 0.15072844922542572, 0.009312705136835575, 0.24423553049564362, -0.4252417981624603, 0.03281698003411293, -0.009188971482217312, 0.02019050531089306, -0.8610543608665466, 0.0739871934056282, 0.18645308911800385, -0.9138001799583435, -0.436885803937912, 0.026972314342856407, 0.019821597263216972, 0.4385647475719452, -0.3630833327770233, -0.023730816319584846, -0.07757186144590378, -0.20300675928592682, -0.19383084774017334, 0.014957680366933346, -0.016536802053451538, -0.31787413358688354, -0.3986230194568634, -0.13570009171962738, -0.24420712888240814, -0.28141406178474426, -0.6381114721298218, -0.03558235988020897, 0.07360636442899704, -0.4376347064971924, 0.6344433426856995, 0.17566154897212982, 0.037897881120443344, 0.08543426543474197, 0.14588388800621033, -0.02840593457221985, 0.009303568862378597, 0.06052166596055031, -0.21804092824459076, -0.092826247215271, -0.13999058306217194, -0.2600257694721222, 0.4216806888580322, -0.11289869993925095, -0.14164771139621735, -0.08804499357938766, -0.06506829708814621, -0.06717795878648758, 0.0948929712176323, 0.19412784278392792, 0.12169333547353745, -0.12890969216823578, -0.13650262355804443, -0.11840526014566422, -0.1588561236858368, 0.049828264862298965, -0.035520199686288834, -0.22641490399837494, -0.2225852608680725, 0.2797383964061737, -0.617796003818512, -0.14056192338466644, 0.09015106409788132, -0.9087228178977966, -1.8015176057815552, 0.5017691254615784, 1.0465381145477295, 0.031512461602687836, 0.30661895871162415, 0.024970075115561485, -0.06310290843248367, 0.11489164084196091, 0.8777455687522888, -0.33127662539482117, -0.03297337517142296, 0.10344237089157104, 0.7437891364097595, 0.43246492743492126, 0.2065896838903427, 0.07287120074033737, -0.2558787167072296, -1.2505146265029907, -0.03576204553246498, 0.08933799713850021, 0.6121131181716919, -0.21415869891643524, 0.0652875229716301, 0.049885448068380356, -0.2437559813261032, 0.3550882339477539, 0.19592247903347015, 0.06974291056394577, 0.3121793866157532, 0.42466768622398376, -0.05383836850523949, -0.0735994502902031, -0.20562388002872467, -0.03372066468000412, -0.14277209341526031, 0.1775578409433365, -0.24045656621456146, -0.08907651901245117, 0.12811292707920074, -0.25578734278678894, 0.4365227222442627, 0.08286590874195099, -0.038795050233602524, -0.2691197097301483, 0.12993690371513367, 0.017019854858517647, 0.11577450484037399, -0.06077199801802635, -0.5152026414871216, -0.3753744065761566, 0.06969380378723145, 0.005828395020216703, 0.09458409994840622, 1.2076435089111328, 0.08347047120332718, 0.09086810797452927, -0.750115692615509, 0.18697945773601532, 0.23152853548526764, 0.03928050026297569, 0.1652565896511078, 0.06819625198841095, 0.11113656312227249, 0.05199515447020531, 0.025519371032714844, 0.03211158141493797, 0.08436804264783859, 0.09417438507080078, -0.15184880793094635, 0.36436644196510315, -0.043980922549963, -0.08590257912874222, 0.014600620605051517, 0.16635774075984955, 0.017783446237444878, 0.007495790254324675, 0.053887587040662766, 0.1641921103000641, -0.04644310846924782, 0.05217043682932854, -0.016934571787714958, -0.17064590752124786, -0.05500008538365364, 0.10090136528015137, -0.37008586525917053, -0.5085822343826294, 0.44024547934532166, -0.46472516655921936, -0.5407639145851135, -1.4942761659622192, -0.4595140218734741, 0.20719464123249054, 0.022656084969639778, -0.4461651146411896, 1.2059381008148193, 0.344148188829422, 0.3881743848323822, 0.07888228446245193, 0.10181289911270142, 0.05888444557785988, -0.4353456199169159, 0.021206675097346306, 0.12621845304965973, -0.2109239250421524, 0.6138123273849487, 0.055065471678972244, -0.01663150079548359, -0.10684586316347122, 0.15326009690761566, 0.043473366647958755, -0.06721346825361252, -0.25896337628364563, 1.6069730520248413, 0.0033892940264195204, 0.1108386442065239, -0.5111783742904663, 0.05580759420990944, -0.1507568508386612, 0.047612667083740234, -0.8746376633644104, 0.1986207515001297, -0.09512209892272949, 0.14273642003536224, -0.20922081172466278, -0.05135001614689827, -0.06260795146226883, 0.10481008142232895, -0.2876582443714142, -0.10272658616304398, -0.16961060464382172, 0.03168633580207825, 0.17338670790195465, -0.20302225649356842, -0.07641338557004929, -0.05549329146742821, 0.31599751114845276, 0.512185275554657, 0.08343976736068726, 0.1273956447839737, 0.7061638236045837, 0.8366568684577942, -0.07188291102647781, -0.017541350796818733, 0.13099123537540436, 0.5625074505805969, -0.01749691553413868, -0.06623513251543045, 1.1480766534805298, 0.3784911334514618, -0.11311996728181839, 0.0416761077940464, 0.046994488686323166, 0.24399925768375397, -0.010518490336835384, 0.10448598861694336, 0.1335151195526123, -0.06391619145870209, -0.07139349728822708, 0.040688518434762955, 0.043893780559301376, -0.4358506500720978, 0.11426831036806107, 0.002701021730899811, 0.03382650017738342, 0.05277377367019653, -0.03443238139152527, -0.10972940176725388, 0.028350701555609703, -0.20479463040828705, 0.00026393073494546115, 0.08224629610776901, -0.06583350896835327, -0.12904955446720123, -0.07023227959871292, 0.036879297345876694, -0.24847525358200073, -0.17877137660980225, -0.30315738916397095, -0.4286767542362213, -0.36069682240486145, -1.775503158569336, 0.03665976971387863, -0.06813722848892212, -0.9093465805053711, -0.014972851611673832, -0.5554885864257812, 0.596797525882721, 0.01215901505202055, 0.06081080809235573, 0.04719557240605354, -0.35311487317085266, -0.6341594457626343, -0.18643362820148468, -0.09832549095153809, -0.5228633284568787, 0.25012823939323425, -0.09292542189359665, 0.15605996549129486, 0.4106513559818268, -0.5460061430931091, 0.02289530821144581, 0.10455333441495895, -0.20367668569087982, 0.18435978889465332, -0.12287689000368118, 0.08151751011610031, 0.3310055434703827, 1.0064096450805664, -0.13700102269649506, -0.07347852736711502, -0.5809067487716675, -0.19949181377887726, -0.10388016700744629, 0.01647154800593853, -0.2879353165626526, 0.06440864503383636, -0.03085234947502613, -0.08693455904722214, -0.7053069472312927, -0.31081780791282654, -0.10448388010263443, 0.17311178147792816, -0.4577730596065521, -0.19049952924251556, -0.014669566415250301, -0.03466230258345604, 0.23626726865768433, -0.014733806252479553, 0.07674854248762131, 0.1258111149072647, -0.7394166588783264, -1.0579277276992798, -0.019818244501948357, -0.004276714753359556, 0.8749526143074036, -0.17000694572925568, -0.004447270650416613, 0.13101933896541595, -0.1276722103357315, 1.4754400253295898, 0.05202299728989601, 0.261658638715744, 0.0999441146850586, -0.24391840398311615, 0.005401149857789278, 0.04669785872101784, -0.14116385579109192, -0.45519784092903137, -0.0016014421125873923, -0.046721201390028, 0.11045371741056442, 0.09278380870819092, -0.10035494714975357, 0.07220237702131271, 0.08196144551038742, -0.02365436963737011, 0.13642214238643646, 0.13625110685825348, 0.1599496603012085, 0.011906138621270657, 0.1355440467596054, -0.17567765712738037, -0.14957676827907562, 0.2070448249578476, -0.026101259514689445, 0.04257810488343239, -0.6454786658287048, -0.794858455657959, 0.5364341139793396, -0.42850831151008606, -0.09463411569595337, -0.6476160287857056, -0.9597787261009216, -0.6610135436058044, 0.5505251884460449, 0.6735535264015198, 0.2324037402868271, 0.0945630744099617, -1.3245922327041626, 0.1039319634437561, -0.15743042528629303, 0.24986432492733002, -0.1074255108833313, -0.00923373457044363, -0.021301792934536934, -0.3821899890899658, -0.7478639483451843, -0.13843776285648346, -0.05381391569972038, -0.365524560213089, -1.2240465879440308, -0.07916759699583054, 0.18021346628665924, 0.21222861111164093, -0.23071788251399994, 0.1847863346338272, 0.035974714905023575, 0.07484155893325806, -1.4177159070968628, -0.027797279879450798, -0.015445648692548275, -0.15506340563297272, 0.1982906013727188, 0.18175791203975677, 0.1079154834151268, 0.49917876720428467, 2.729360580444336, -0.12624822556972504, -0.07439875602722168, -0.3225603401660919, -0.3890906274318695, -0.14142335951328278, -0.01519011054188013, -0.23444007337093353, -0.5227923393249512, -0.014167682267725468, -0.12246561795473099, -0.2530813217163086, -0.12595130503177643, 0.08422673493623734, 0.274809867143631, 0.14327861368656158, 1.049936056137085, -0.09236066788434982, -0.11552918702363968, -0.8223997950553894, -0.3273296058177948, 0.12900005280971527, -0.043350253254175186, -0.20985238254070282, -0.42083612084388733, 0.005359590519219637, 0.0796828344464302, -0.09557690471410751, 0.36145374178886414, -0.13077236711978912, 0.19532515108585358, 0.03424656018614769, 0.17682261765003204, 0.03966039791703224, 0.05117500200867653, -0.08155177533626556, 0.17794691026210785, 0.05571829900145531, -0.24273252487182617, 0.04802399501204491, -0.02586275152862072, 0.059323910623788834, -0.09159079939126968, -0.17833544313907623, -0.10926862806081772, 0.04967408999800682, 0.13886378705501556, 0.02151370234787464, 0.002707099774852395, 0.16674815118312836, 0.04911184683442116, -0.17351271212100983, -0.15036453306674957, -0.42938199639320374, -0.3776187002658844, 0.33112213015556335, -0.6799306273460388, -0.36887863278388977, -0.7952345013618469, -0.5502381324768066, 1.0491713285446167, 0.18215905129909515, 0.4195532500743866, 0.9714090824127197, 0.059558507055044174, -0.22747109830379486, -0.10399588197469711, 0.3744734227657318, -0.0257358830422163, 0.015221030451357365, 0.035721126943826675, -0.029748372733592987, 0.04619216546416283, 0.003203421598300338, 0.5247707962989807, 0.5512867569923401, 0.2840001881122589, -0.057778239250183105, -0.8256282210350037, -1.479770302772522, 0.1320200115442276, 0.09789079427719116, 0.0862821564078331, 0.3193468451499939, -0.027266057208180428, -0.0828639343380928, 0.06534852087497711, 0.9871529936790466, 0.12484525889158249, -0.03622424229979515, -0.6769928336143494, 0.059023961424827576, 0.036440785974264145, 0.08538740873336792, -0.45177122950553894, -0.3083772361278534, 0.04555201902985573, -0.05434548854827881, -0.3238261044025421, -0.05874377116560936, -0.028948547318577766, -0.044357750564813614, 0.159407839179039, -0.008314377628266811, 0.03740603104233742, -0.06393551826477051, -0.6290786862373352, -1.0160118341445923, 0.10298358649015427, -0.07392258197069168, 0.4796008765697479, -0.27249449491500854, 0.07249975204467773, -0.1863023042678833, 0.07735730707645416, -0.20356343686580658, -0.31656602025032043, -0.059924546629190445, 0.16816510260105133, 0.2775289714336395, 0.0019125117687508464, 0.08678197115659714, 0.03492250666022301, 0.028287580236792564, 0.0538882315158844, 0.12180124968290329, 0.1561656892299652, 0.1747816801071167, -0.10086893290281296, -0.0989047959446907, -0.02161778323352337, -0.04665622115135193, 0.03271770104765892, 0.05732441321015358, 0.23410791158676147, -0.053715821355581284, 0.033533092588186264, 0.015480444766581059, -0.01935731992125511, 0.07929373532533646, 0.020567642524838448, 0.07864845544099808, -0.3832446038722992, -0.35582777857780457, -0.4636797606945038, -0.29703494906425476, 0.5909708738327026, -0.39528802037239075, 1.890354037284851, 0.865409791469574, -0.7059234976768494, 0.38270488381385803, -1.0205671787261963, 0.13779635727405548, -0.18560858070850372, -0.10207551717758179, -0.017039569094777107, -0.5511792898178101, -0.7852320075035095, -0.05865245684981346, 0.22474098205566406, -0.04259597882628441, -0.1375483274459839, -0.05556594952940941, 0.022931186482310295, -0.5514947175979614, 0.7876639366149902, 0.050597187131643295, -0.0033008356112986803, 0.9010642170906067, 0.746676504611969, -0.04913092032074928, -0.2052648812532425, -0.5384531617164612, -1.340387225151062, -0.02489415742456913, 0.06540273874998093, 0.14391888678073883, -0.0040182857774198055, 0.24661467969417572, 0.027276376262307167, -0.530995786190033, -0.14589552581310272, 0.1110619381070137, -0.023418409749865532, -0.39818713068962097, 0.12923379242420197, 0.06946790963411331, 0.09568964689970016, -0.27674317359924316, -0.8160361647605896, 0.05423182621598244, -0.08966737240552902, -0.24968522787094116, 0.04721337929368019, 0.06303954869508743, -0.004277214873582125, 0.08362973481416702, 0.03117123246192932, -0.13788475096225739, 0.13105355203151703, -0.7739412188529968, -0.13290239870548248, -0.060318831354379654, -0.10877691954374313, 0.029559044167399406, -0.9998188614845276, 0.1597694307565689, 0.15435992181301117, -0.2543378174304962, -0.42160752415657043, -0.16939471662044525, 0.08766288310289383, -0.1378629058599472, -0.030809739604592323, -0.0049673584289848804, 0.010324708186089993, 0.055597420781850815, -0.08450555056333542, -0.16220462322235107, 0.021656258031725883, 0.26152634620666504, 0.029911784455180168, -0.1795041710138321, 0.07169396430253983, -0.06848599761724472, 0.018651099875569344, 0.18135632574558258, -0.01626238226890564, 0.0568770132958889, -0.15693631768226624, 0.12092529982328415, 0.0004484648525249213, -0.5089520812034607, -0.5753039121627808, -0.2120124101638794, -0.6414318084716797, -0.16907431185245514, -0.8421897888183594, -0.44155430793762207, 0.2964920103549957, 0.33002451062202454, -1.4553918838500977, -0.5743874311447144, 0.22856904566287994, 0.29088646173477173, 0.11751913279294968, 0.0740695521235466, 0.7138223648071289, -0.008231059648096561, 0.03605115786194801, -0.056405965238809586, 0.6064634919166565, -0.47164347767829895, -0.10347295552492142, -0.07357806712388992, -0.6504193544387817, 0.24740482866764069, -0.04319476708769798, -0.15922047197818756, 0.4870850145816803, -0.016061918810009956, -0.0823785588145256, 0.031197132542729378, -0.47717955708503723, 0.0352313257753849, -0.08443146198987961, -0.09283392876386642, 0.45523402094841003, -0.881681501865387, -0.0010712648509070277, -0.03157883509993553, 0.08420544862747192, -2.455995798110962, -0.03686779737472534, 0.010743462480604649, -0.31176164746284485, 0.30333855748176575, -0.025143412873148918, 0.081328384578228, -0.1407613456249237, 0.6764832139015198, 0.17515753209590912, -0.0028707568999379873, -0.42772433161735535, -1.1748294830322266, 0.2193567007780075, -0.17603160440921783, 0.5911750197410583, -0.03679589182138443, 0.0892750546336174, 0.050974901765584946, -0.3079532980918884, -0.8667004704475403, -0.02578902058303356, -0.07700646668672562, -0.37725064158439636, -0.699808657169342, 0.1605677455663681, -0.008867024444043636, -0.0983830913901329, 0.4391498863697052, 0.008068383671343327, 0.04793072119355202, -0.15304110944271088, 0.18067502975463867, 0.1105792447924614, -0.10836731642484665, -0.01599590666592121, 0.1285352259874344, 0.07642906159162521, -0.08921848982572556, -0.010047673247754574, -0.032819535583257675, -0.047721702605485916, 0.004983383696526289, -0.03494730219244957, -0.08914921432733536, 0.0013115843757987022, 0.05389260873198509, -0.10970159620046616, -0.17653249204158783, 0.14935050904750824, -0.054442089051008224, -0.13468731939792633, -0.28668883442878723, -0.08662223815917969, -0.23085258901119232, -0.5022969841957092, 0.04007444158196449, -1.6848524808883667, 0.20056207478046417, 0.17234444618225098, -0.06780796498060226, -0.1542762666940689, 0.3692765533924103, -0.7691707015037537, -0.09559159725904465, -0.034836526960134506, -0.47627225518226624, 1.4546276330947876, -0.15615308284759521, -0.03505825623869896, -0.11634755879640579, 0.23392225801944733, -0.009895860217511654, 0.09791906923055649, 0.5317920446395874, -0.4690600633621216, -0.013416563160717487, 0.01898312382400036, 0.04207020625472069, 1.2040584087371826, -0.2002079337835312, -0.22475861012935638, -0.2505156397819519, 0.45916762948036194, -0.04640892520546913, -0.10297263413667679, -0.9796323180198669, -0.9283473491668701, 0.09242164343595505, 0.007696316111832857, -0.04462223872542381, -0.9299008250236511, 0.10018793493509293, -0.14882276952266693, -0.38357090950012207, -0.5028263330459595, 0.017353294417262077, 0.14472626149654388, -0.28800538182258606, -0.6276463866233826, -0.0922861099243164, -0.02135409228503704, 0.41289278864860535, 0.5368112921714783, 0.0179643202573061, -0.1607220321893692, -0.21691466867923737, -0.6089529395103455, -0.1302405744791031, -0.04471570625901222, 0.5429369211196899, -0.2710575461387634, 0.20844008028507233, -0.11801517754793167, 0.7573384642601013, 0.6170898675918579, 0.061268266290426254, -0.15614081919193268, -0.27200692892074585, -0.0907820388674736, -0.03351894021034241, 0.06640487164258957, 0.009242729283869267, -0.24338166415691376, 0.038231607526540756, -0.04059004783630371, 0.08555918186903, 0.08763115853071213, 0.08061075955629349, -0.03359026089310646, 0.06599091738462448, -0.13710330426692963, 0.1660550981760025, 0.04433631896972656, -0.13847099244594574, 0.012434837408363819, -0.16156567633152008, -0.17555271089076996, -0.011408715508878231, -0.26837870478630066, 0.37453463673591614, 0.048507098108530045, -0.030215231701731682, -0.030867425724864006, -0.6785903573036194, -0.08687268942594528, 0.4185425341129303, -0.6371999382972717, 0.06967867910861969, 0.4781392514705658, 0.31856396794319153, 0.584618091583252, 0.05187677964568138, 0.58123779296875, -0.4566535949707031, -0.07741009443998337, -0.050506945699453354, 0.22265487909317017, 0.1356949657201767, -0.13357745110988617, 0.08000082522630692, 0.2375764697790146, 0.4006315767765045, 0.19680006802082062, 0.03164529427886009, 0.04484585300087929, -0.7682320475578308, -0.17388296127319336, 0.013724193908274174, -0.9588757157325745, -1.2517130374908447, -0.09114284068346024, 0.07840918749570847, -0.4492996633052826, -0.5243834257125854, 0.028162213042378426, 0.22407864034175873, 0.03329518064856529, 0.05096105858683586, 0.07389294356107712, 0.022992195561528206, -0.48933255672454834, -1.6588770151138306, 0.03569262847304344, 0.09199195355176926, -0.8309857249259949, 0.633322536945343, -0.17917585372924805, 0.02496039681136608, -0.41445448994636536, -0.08655346184968948, 0.061532143503427505, 0.1111595556139946, 0.578855037689209, -0.30402639508247375, -0.048739586025476456, -0.0032108400482684374, 0.3275444805622101, -0.28951042890548706, -0.04698833450675011, -0.11588739603757858, -0.014793450944125652, -0.8877436518669128, 0.091446153819561, -0.1938430517911911, -0.15314090251922607, 0.4155707359313965, -0.12126005440950394, 0.13651706278324127, 0.3074357509613037, -0.17971013486385345, -0.12223697453737259, 0.13617490231990814, -0.10716646909713745, 0.2637419104576111, -0.04961302503943443, 0.017029495909810066, 0.3160553276538849, 0.08736252039670944, -0.07596629858016968, -0.0708187147974968, -0.006490670144557953, 0.04402795806527138, 0.07482301443815231, 0.06759793311357498, -0.2427031397819519, -0.1223326101899147, 0.3048088848590851, -0.09398717433214188, 0.016808290034532547, -0.1013641282916069, 0.16219700872898102, -0.08306825906038284, -0.18552444875240326, -0.4975033104419708, 0.20894105732440948, -0.7914959788322449, -0.12555359303951263, -0.979490339756012, -0.4163476526737213, -0.8570744395256042, -0.7733022570610046, -0.19072140753269196, -1.1901897192001343, 0.2884209454059601, 0.08583460003137589, -0.02449384145438671, 0.1731664091348648, 0.2505049407482147, -0.1726236492395401, -0.0020451692398637533, -0.13173209130764008, 0.26182717084884644, 0.09205804020166397, -0.0205280352383852, 0.05008217692375183, 0.015470582991838455, 0.7854003310203552, 0.06150895729660988, -0.06883174180984497, -0.5418740510940552, -0.17005906999111176, 0.016310645267367363, -0.19017110764980316, 0.44522377848625183, 2.329292058944702, -0.12800049781799316, -0.05378969386219978, 0.2300810068845749, -0.20930598676204681, -0.2075224071741104, 0.22298026084899902, -0.23583556711673737, -0.5787230134010315, 0.12645719945430756, -0.20879842340946198, -0.4062943756580353, 0.007462396752089262, 0.10570014268159866, 0.10034442692995071, 0.5395976305007935, 1.6986929178237915, -0.15443287789821625, 0.022565675899386406, 0.06523114442825317, 0.07345808297395706, 0.22303436696529388, 0.1855299323797226, -0.1123749315738678, 0.06627319753170013, 0.1520472913980484, -0.09210670739412308, -0.709706723690033, -0.13467909395694733, 0.003307014936581254, 0.11257635802030563, 0.5140790343284607, -0.050358179956674576, 0.12236631661653519, 0.15960215032100677, 0.05138314142823219, -0.1262354701757431, 0.15688906610012054, 0.06513387709856033, -0.04074811562895775, 0.03182096406817436, 0.02655973844230175, -0.05203539505600929, -0.05658673867583275, 0.09989205747842789, 0.12668348848819733, -0.009695357643067837, -0.07365072518587112, -0.019739730283617973, 0.032488103955984116, 0.046027716249227524, -0.07046467065811157, 0.11534415930509567, 0.047182437032461166, -0.03050890378654003, -0.25587838888168335, -0.06569025665521622, -0.05344713106751442, 0.023990361019968987, -0.4554487466812134, -0.5139485597610474, 0.5952582955360413, -0.335664302110672, -0.7330477833747864, -1.444414496421814, -1.2591173648834229, -0.3905157744884491, 1.2589653730392456, -0.4038265645503998, 0.4564357101917267, 0.10011764615774155, 0.628507673740387, -0.061368588358163834, -0.07763820141553879, -0.5755400657653809, -1.5186347961425781, -0.07250075787305832, -0.02808469347655773, -0.5255299806594849, -0.5785104036331177, -0.15083922445774078, 0.011230699717998505, 0.1506310999393463, 0.0389840342104435, -0.10405374318361282, 0.03159433230757713, -0.3829197585582733, 0.020696017891168594, -0.05571889504790306, -0.06499480456113815, 0.022854356095194817, 0.8230902552604675, -0.08982963114976883, 0.07687593251466751, -0.6039484739303589, -0.14646349847316742, -0.034380730241537094, -0.12784217298030853, -0.7085074782371521, -0.46552082896232605, 0.08758961409330368, 0.09229468554258347, -0.8087355494499207, -0.2757682204246521, -0.14854632318019867, 0.17710472643375397, -0.6367210745811462, 0.17687644064426422, 0.07333136349916458, -0.07793157547712326, 0.5043034553527832, -0.11239437013864517, -0.0033319927752017975, 0.14345775544643402, 0.5776180624961853, 0.7771029472351074, 0.14367951452732086, 0.038378242403268814, 0.09341162443161011, -0.3917762339115143, 0.38275936245918274, -0.0490109883248806, 0.5252576470375061, -0.22724317014217377, 0.0065514217130839825, -0.030289260670542717, 0.23821641504764557, 0.32537153363227844, 0.09428322315216064, 0.0266032125800848, 0.0567244328558445, -0.052478235214948654, -0.0602499283850193, -0.01228241715580225, 0.15505389869213104, -0.20097453892230988, 0.18313129246234894, -0.0077413772232830524, 0.10402322560548782, -0.054996710270643234, -0.1792076826095581, 0.07821059972047806, 0.23646019399166107, -0.07044177502393723, -0.11104203015565872, 0.036465052515268326, -0.10051334649324417, -0.1287211924791336, 0.10173296183347702, 0.06326520442962646, -0.288388192653656, -0.3846566379070282, -0.38826945424079895, -0.503305971622467, -0.2118654102087021, -0.15115919709205627, -0.6729101538658142, 0.6616310477256775, 1.1391323804855347, -0.02084668166935444, 0.2307422161102295, 0.4916539490222931, 0.011220850050449371, -0.2145238071680069, 0.01895144395530224, 0.05819900333881378, 1.0790115594863892, -0.1531451791524887, 0.10169271379709244, 0.2833208739757538, -0.2594511806964874, -0.02615894377231598, -0.04858837649226189, -0.4974069893360138, 1.0804272890090942, -0.07192570716142654, -0.05486925318837166, 0.039153724908828735, 0.08721541613340378, -0.07089156657457352, 0.16686487197875977, -0.25403741002082825, -0.116793192923069, 0.06078476086258888, -0.2169925421476364, -0.15385028719902039, -2.0285096168518066, 0.23385955393314362, -0.0014879890950396657, 0.023865817114710808, 0.8401581645011902, 0.040214862674474716, 0.09977561980485916, -0.599265992641449, -0.1521657556295395, 0.1102571114897728, 0.1340784877538681, 0.17713503539562225, 1.2922931909561157, -0.11423253268003464, 0.06462907046079636, -0.007959413342177868, -0.25155141949653625, 0.0966188982129097, 0.09321636706590652, -0.49211931228637695, -0.019660456106066704, 0.02448725514113903, 0.13373540341854095, -0.2246505618095398, -0.4822526276111603, 0.024173246696591377, -0.08556855469942093, -0.5373429656028748, -0.06832409650087357, 0.039575930684804916, 0.07969582825899124, -0.13663938641548157, 0.1674886792898178, 0.023202506825327873, 0.05882429704070091, -0.03390932455658913, -0.09726053476333618, -0.012224518693983555, 0.12258172780275345, 0.1512134075164795, 0.0496024526655674, 0.11862026900053024, -0.08173096925020218, -0.040551330894231796, -0.11593245714902878, 0.2337465137243271, 0.0642583891749382, 0.29698827862739563, 0.019462421536445618, 0.05073731765151024, -0.1902545839548111, 0.12784218788146973, 0.1571410894393921, -0.08969581872224808, 0.024419130757451057, -0.7262195944786072, -0.6147829294204712, -0.5592836737632751, -0.47860196232795715, 0.2790658175945282, -0.6388478875160217, 0.5037627220153809, -0.6607761383056641, 0.886092483997345, 0.07213537395000458, 0.36744120717048645, 0.17031480371952057, 0.2441921830177307, -0.002511548111215234, -0.05325060710310936, -0.22490359842777252, 0.10439895838499069, 0.1362365335226059, 0.0026065499987453222, -0.797839343547821, 0.29131752252578735, 0.033651772886514664, -0.12475573271512985, -0.07798803597688675, 0.025323031470179558, -0.010308884084224701, 0.02908634953200817, -1.0269489288330078, 0.17602024972438812, 0.15585459768772125, -0.05506265535950661, -0.4567145109176636, 0.7417659163475037, 0.06905179470777512, -0.1449972540140152, -1.0565741062164307, -0.3363981544971466, -0.17919208109378815, -0.18681681156158447, -0.08011246472597122, -0.799064576625824, 0.12445782870054245, 0.05500425770878792, -0.1894216686487198, -1.096571683883667, -0.2989850342273712, 0.13942551612854004, -0.6599206328392029, 0.31804054975509644, 0.10746888071298599, 0.061848219484090805, 0.3779272139072418, 0.35314837098121643, -0.0729571059346199, -0.06530816107988358, 0.00036881151027046144, -0.8945109248161316, -0.01936751790344715, -0.017259446904063225, 0.6182203888893127, -0.5713645815849304, 0.17004716396331787, 0.024014202877879143, 0.8079407811164856, -0.17315982282161713, 0.04495352879166603, -0.2475423961877823, 0.02331465668976307, -0.17287038266658783, -0.04215141758322716, 0.06332408636808395, -0.057225603610277176, -0.1898179054260254, -0.06615335494279861, 0.0003632856241893023, 0.047207508236169815, -0.12918579578399658, 0.0858815386891365, -0.060498956590890884, 0.09226363152265549, -0.12069904059171677, -0.11437464505434036, -0.18110491335391998, 0.0810120701789856, 0.17085932195186615, -0.19867409765720367, -0.049134761095047, 0.12074514478445053, 0.051917314529418945, 0.03652036562561989, 0.02396504580974579, -0.5838342905044556, -0.502243161201477, 0.1290343850851059, -0.4324626922607422, -0.7661141753196716, -1.0149495601654053, -1.4656763076782227, 0.2999245822429657, 0.6826162934303284, 0.7091642022132874, 1.2012280225753784, 0.35442450642585754, -0.2927723228931427, 0.016231149435043335, 0.13951148092746735, 0.1690920740365982, 1.5099395513534546, 0.02184639684855938, 0.17618346214294434, 0.04954133555293083, -0.9447450637817383, 0.05256126448512077, 0.1607368141412735, -0.5864783525466919, 0.8245163559913635, -0.018638191744685173, -0.1280679553747177, -0.14721441268920898, -0.22929786145687103, 0.08308886736631393, -0.11821473389863968, -0.3502769470214844, 1.0628966093063354, -0.2136356681585312, -0.15665696561336517, -0.17722688615322113, 0.005089256446808577, -0.1639871746301651, -0.024471566081047058, -0.9317759871482849, -0.7060327529907227, -0.15919993817806244, 0.11208904534578323, -0.28481045365333557, -0.09598184376955032, 0.09881985932588577, -0.1040377989411354, 0.024224987253546715, 0.37128207087516785, 0.10303386300802231, -0.18251682817935944, -0.08996134251356125, -0.469095379114151, -0.09719892591238022, 0.07732255011796951, 0.42611774802207947, 0.2533615231513977, 0.1545279175043106, -0.11026924848556519, -0.04498705640435219, 0.239119753241539, 0.09319836646318436, 0.11781693249940872, 0.18794800341129303, -0.8273153901100159, 0.1205144003033638, 0.001298365299589932, -0.36214879155158997, -0.01756705716252327, -0.02898007445037365, 0.13851022720336914, -0.1638130247592926, -0.08310382068157196, 0.03149973973631859, 0.1717391163110733, -0.1985136717557907, -0.11367914080619812, -0.1689959615468979, -0.018052875995635986, 0.05980450287461281, -0.04638884589076042, -0.0919952467083931, 0.06561791151762009, -0.086558997631073, -0.053304869681596756, 0.10654520988464355, -0.14479698240756989, -0.21208979189395905, -0.06115317717194557, 0.10315755754709244, 0.2931809425354004, -0.45635950565338135, -0.4661274254322052, -0.17184138298034668, -0.1071915253996849, -0.2976817786693573, -0.041281796991825104, -0.08948563784360886, -0.968297004699707, 0.2499537467956543, 0.8853607773780823, -0.7604449391365051, 0.32434701919555664, -0.7052369117736816, 0.15453769266605377, -0.09642402082681656, 0.5295133590698242, -0.9272374510765076, -0.18753497302532196, 0.024377567693591118, 0.8721173405647278, -0.4169354736804962, 0.06874775886535645, 0.10331469774246216, -0.2907509505748749, 0.3120366036891937, 0.047468286007642746, -0.15898846089839935, 0.5119276642799377, -0.568838894367218, 0.1496427208185196, -0.04506290331482887, 0.7631625533103943, 2.2261431217193604, 0.05222756043076515, 0.040087584406137466, -0.2510691285133362, -0.23084838688373566, 0.013012334704399109, -0.166260227560997, 0.6227492094039917, 2.319814443588257, 0.09430091828107834, -0.12430690973997116, -0.6515855193138123, 0.01810821332037449, 0.09504150599241257, -0.046692315489053726, 0.47290754318237305, 0.5539172887802124, 0.04567927494645119, 0.24461723864078522, 0.10527408868074417, 0.9128310084342957, 0.03897083178162575, -0.07170623540878296, -0.24573086202144623, 0.22769500315189362, 0.12230812758207321, 0.1521754413843155, -0.4013095200061798, 0.019083363935351372, -0.14699290692806244, -0.0013038404285907745, -0.4575425684452057, -0.8673636317253113, -0.003278009593486786, 0.07056934386491776, 0.1707991510629654, -0.06865053623914719, -0.09343064576387405, 0.08997822552919388, 0.07416040450334549, 0.03180617094039917, 0.014955057762563229, -0.004653402138501406, -0.20907211303710938, -0.007896864786744118, 0.06578278541564941, 0.20856116712093353, 0.05452745780348778, 0.10900198668241501, -0.0697251632809639, -0.03397178649902344, 0.1237609013915062, 0.06600964814424515, -0.14184258878231049, -0.039624664932489395, 0.003182971151545644, -0.15647807717323303, -0.08751506358385086, 0.012491217814385891, 0.25087782740592957, -0.23707811534404755, 0.5667539834976196, -0.4174400866031647, -0.01968236081302166, -0.18379783630371094, -0.8985398411750793, 0.519843578338623, 1.1908304691314697, 0.9668570160865784, -0.17961345613002777, 0.0341879166662693, 1.404617428779602, -0.07621855288743973, 0.08351796865463257, -0.6289872527122498, 0.6608767509460449, -0.013882131315767765, 0.10718059539794922, -0.4471788704395294, 0.9352108836174011, -0.04551151022315025, -0.028473136946558952, 0.1197965070605278, 0.4428795278072357, -0.17879198491573334, -0.11717747896909714, 0.3095874786376953, 0.4746772050857544, 0.0733991339802742, 0.24170635640621185, 0.16956640779972076, -0.0670214369893074, 0.19505293667316437, -0.10779281705617905, -0.39250633120536804, 0.1521538645029068, -0.18866942822933197, 0.05160272493958473, -0.4266243278980255, -0.5825546979904175, -0.06719475239515305, 0.09530007094144821, -0.10418299585580826, 0.3057364821434021, -0.14276836812496185, -0.004403114318847656, -0.7962318062782288, -1.1855356693267822, -0.11287582665681839, -0.043405260890722275, 0.09187053889036179, 0.9952583909034729, -0.12785981595516205, -0.1435101181268692, -0.03211633116006851, 0.39672422409057617, 0.06266175955533981, 0.10684084892272949, 0.4266689717769623, -0.15267619490623474, -0.044430192559957504, -0.11996246129274368, 0.08457709103822708, -0.08244633674621582, 0.02909696288406849, 0.06522922962903976, 0.22190244495868683, 0.08816016465425491, -0.016891419887542725, 0.04907151684165001, -0.06873287260532379, 0.007962075993418694, 0.13836325705051422, 0.01870650239288807, 0.29396289587020874, -0.014783387072384357, -0.03315544128417969, -0.1361600011587143, -0.00829069223254919, 0.03480013832449913, -0.14976762235164642, 0.10568789392709732, -0.08597296476364136, 0.11385142058134079, -0.16953672468662262, 0.1566484123468399, -0.2801592946052551, -0.15317882597446442, 0.047426845878362656, 0.14616096019744873, -0.2966746687889099, -0.2504725754261017, 0.5689035058021545, -0.14027556777000427, -0.8992264866828918, -1.039857029914856, -1.9550093412399292, 1.4778250455856323, 0.6751967072486877, 0.30622291564941406, 0.7501469254493713, 0.4282522201538086, -1.4395381212234497, 0.006435252260416746, 0.012129188515245914, 0.5855007767677307, -0.9391711354255676, 0.21806327998638153, 0.08812927454710007, 0.4745960533618927, -0.8147849440574646, 0.07043760269880295, -0.031329091638326645, -0.16004368662834167, 0.7918398976325989, 0.1324523538351059, 0.04286846145987511, 0.7221898436546326, 0.8053509593009949, 0.19187094271183014, -0.17457129061222076, -0.19430594146251678, -0.6685289740562439, -0.08155841380357742, 0.04770034924149513, 0.5634564757347107, -0.0734485313296318, -0.044119659811258316, 0.043278034776449203, -0.7787971496582031, -0.7275151610374451, -0.0801205113530159, 0.002270200988277793, -0.8175816535949707, 0.6747445464134216, 0.00690506910905242, 0.094151072204113, 0.32695913314819336, -0.3246164619922638, -0.10524237900972366, 0.07612896710634232, -0.914303719997406, -0.2232123166322708, 0.17367053031921387, -0.036850009113550186, -0.039810024201869965, 0.06733264029026031, -0.022045878693461418, 0.08172131329774857, -1.1946159601211548, -1.1247230768203735, 0.034848567098379135, -0.006175627466291189, -0.9396534562110901, -0.06152908131480217, -0.12214266508817673, -0.004773937631398439, 0.14867152273654938, -0.13347072899341583, 0.1102151945233345, -0.06312084197998047, 0.15722332894802094, 0.05490511283278465, -0.03663807734847069, 0.18198621273040771, -0.07232803851366043, -0.21411506831645966, 0.07286268472671509, 0.0896652415394783, 0.05341114476323128, -0.05467187985777855, -0.04068678990006447, 0.023571280762553215, 0.14618320763111115, 0.011519677937030792, -0.11774338036775589, -0.08081746846437454, -0.18379293382167816, -0.23849724233150482, -0.022047368809580803, -0.031151799485087395, -0.397220641374588, -0.09469712525606155, -0.1423039585351944, -0.3867901861667633, 0.4563344419002533, 0.2251763939857483, 0.6857978701591492, -0.6112199425697327, -0.1638546884059906, 0.5984062552452087, -0.6172365546226501, 0.4232349395751953, 0.009527289308607578, 0.04558021202683449, -0.055926378816366196, -0.28538182377815247, -0.3677406311035156, -0.1441178172826767, 0.0027565117925405502, -0.032822974026203156, -0.24255488812923431, -0.12195015698671341, 0.1783381700515747, -0.44980958104133606, 0.02834395319223404, 0.25260376930236816, -0.13627219200134277, -0.2172120362520218, -0.47518107295036316, 0.011138410307466984, 0.15599240362644196, -0.3768887221813202, -3.004404067993164, 0.06921105831861496, 0.18522955477237701, -0.036138005554676056, -0.03983510285615921, 0.04608637094497681, 0.04665398970246315, 0.42820504307746887, 1.9321309328079224, -0.03903213515877724, -0.07837618142366409, -0.2354840636253357, 1.180062174797058, 0.14495693147182465, -0.006251208949834108, 0.3582341969013214, 0.5870104432106018, 0.16240321099758148, -0.0249767005443573, 0.29985615611076355, 0.8531525731086731, -0.010802365839481354, 0.0940653458237648, 0.4755420684814453, -0.07954947650432587, -0.11194764822721481, -0.00842155423015356, -1.1237103939056396, -0.9629481434822083, -0.020116137340664864, 0.03290519118309021, 0.19361551105976105, -0.395702600479126, 0.06947970390319824, -0.08115529268980026, 0.015190273523330688, -0.0773124024271965, -0.0038058904465287924, -0.03438088670372963, -0.2024780511856079, -0.14112865924835205, 0.07195185869932175, 0.056450191885232925, -0.07081229239702225, -0.1356523483991623, -0.14281535148620605, 0.041853900998830795, 0.059255894273519516, -0.07047270983457565, -0.2062319964170456, 0.04198724403977394, -0.008738079108297825, 0.1362467110157013, 0.08976345509290695, -0.01439013984054327, -0.15996432304382324, -0.032166771590709686, 0.09274835139513016, -0.014527364633977413, 0.48618122935295105, 0.33775731921195984, -0.0175132118165493, -0.062298163771629333, 0.041699621826410294, -1.0817927122116089, -0.6157684922218323, -0.5646051168441772, -0.04758023843169212, -0.013096212409436703, 0.43067821860313416, 0.31707242131233215, -0.01356943417340517, -0.25838419795036316, 0.0030582791659981012, -0.46459296345710754, -1.5831068754196167, 0.024751797318458557, 0.15829966962337494, -0.0803908184170723, 0.5252414345741272, 0.11143935471773148, 0.04259330406785011, -0.5583048462867737, -0.5376673340797424, 0.0688057467341423, 0.2228698581457138, 0.5380582213401794, -0.4952498972415924, 0.06755001097917557, 0.1736217588186264, 0.08719372004270554, 1.7942485809326172, -0.004065730143338442, -0.09566164761781693, 0.35202959179878235, -0.09873545169830322, -0.040202680975198746, -0.04815283045172691, 0.28944674134254456, 0.6707643866539001, 0.004119426477700472, -0.1372525542974472, -0.40502265095710754, 0.9275185465812683, 0.07350409775972366, -0.025753946974873543, 0.5566405653953552, -0.05375170335173607, 0.12939311563968658, -0.061013754457235336, -0.6305257081985474, -0.8998003602027893, -0.16426967084407806, 0.1431097835302353, -0.25901079177856445, 0.8556035161018372, 0.05596023425459862, 0.01564083807170391, -0.3550572693347931, -0.21135957539081573, -0.06502008438110352, 0.07873428612947464, -0.02780565433204174, 1.2028125524520874, -0.1355050653219223, -0.011558727361261845, -0.03919264301657677, 0.07114766538143158, -0.003290612017735839, -0.03439110517501831, -0.04328850284218788, -0.02849254198372364, 0.11961055546998978, 0.09878822416067123, -0.05804222449660301, -0.17028535902500153, 0.05992167815566063, -0.14023588597774506, -0.019485263153910637, -0.015314445830881596, 0.1238102838397026, -0.08111453801393509, 0.0029421004001051188, 0.15308894217014313, -0.12746810913085938, -0.08089543133974075, -0.20653913915157318, 0.2708161175251007, 0.14271782338619232, -0.3273288905620575, -0.2862837612628937, -0.31651046872138977, -0.5600537657737732, -0.125130757689476, 1.0349719524383545, -0.9573525786399841, -0.02537280134856701, 0.008004539646208286, 0.13278235495090485, 1.1748989820480347, 0.282364159822464, 0.639156699180603, 0.044293154031038284, 0.153035506606102, 0.2308182567358017, 0.7194651961326599, 2.128173351287842, -0.021364567801356316, -0.09466398507356644, 0.22744567692279816, 0.08272451162338257, 0.11591923981904984, -0.09354151040315628, -0.6429795622825623, 0.29043084383010864, -0.07956892997026443, 0.06354779005050659, 0.16739197075366974, -1.5295754671096802, -0.10371764749288559, -0.11603892594575882, -0.20705969631671906, -0.30751246213912964, 0.04177200421690941, -0.06918364763259888, 0.012801595032215118, 0.11115264147520065, -0.02417478896677494, 0.1781461387872696, -0.43819546699523926, 1.556146502494812, -0.20044271647930145, 0.10909820348024368, -0.7558043599128723, 0.1345091313123703, -0.01280539482831955, -0.007557891774922609, 0.3978917896747589, -0.47576236724853516, -0.13759398460388184, -0.03634661063551903, -0.35320064425468445, -0.36758729815483093, 0.0026315057184547186, -0.02339748479425907, 0.2609109580516815, 0.04885464534163475, -0.12169694155454636, -0.029025880619883537, -0.4574519693851471, 0.5801615118980408, -0.10150174051523209, 0.05755525454878807, 0.06602531671524048, 0.0075591797940433025, -0.07758568972349167, 0.006984151434153318, -0.12328389286994934, 0.09673219174146652, -0.028778431937098503, -0.13738895952701569, -0.10053142160177231, 0.1839524507522583, 0.08083022385835648, -0.007974491454660892, -0.09532991796731949, -0.018800972029566765, -0.19657467305660248, -0.10588980466127396, -0.0011260007740929723, -0.17584539949893951, 0.07155460864305496, 0.137238010764122, 0.08771755546331406, -0.034760866314172745, -0.030534597113728523, 0.05469131842255592, 0.009206240996718407, 0.12782444059848785, 0.02605694718658924, -0.06621278077363968, 0.008345878683030605, -0.16641740500926971, -0.3084285259246826, -1.1444008350372314, 0.5888792276382446, -0.5037632584571838, 0.34711742401123047, 0.4117684066295624, 0.017904935404658318, 0.5483275651931763, 0.3908851146697998, 0.26980486512184143, 0.6335676312446594, -0.04507771506905556, -0.03223898634314537, 0.3007933497428894, 0.2597906291484833, 0.18832062184810638, -0.006678104866296053, 0.30747658014297485, -1.3217699527740479, -0.19262473285198212, 0.2222294956445694, -0.2576715648174286, -0.5235849022865295, -0.0766342356801033, 0.09376906603574753, -0.03589535504579544, 0.1433536857366562, 0.05323803797364235, -0.0032191870268434286, 0.4185574948787689, 1.3681591749191284, 0.03974362835288048, 0.14500738680362701, 0.2626071870326996, -0.3603810966014862, -0.025403710082173347, 0.12114989012479782, -0.3629603087902069, -0.2223181575536728, -0.010109142400324345, 0.16643951833248138, -0.32428213953971863, 0.2366955429315567, 0.1617077738046646, 0.030290154740214348, 0.21415603160858154, 0.6788421273231506, -0.07840920239686966, 0.016690077260136604, -0.40931639075279236, -0.028220854699611664, -0.1749945878982544, -0.17157672345638275, 0.2836802303791046, -0.09506671875715256, 0.016330866143107414, 0.08268178254365921, -0.3567470610141754, 0.9161970615386963, -0.06481654196977615, 0.013656110502779484, -0.5519624948501587, -0.5178128480911255, -0.08758329600095749, -0.06289494037628174, 0.06323154270648956, 0.1685124784708023, 0.07970833033323288, 0.009696164168417454, -0.040717411786317825, 0.03995553031563759, 0.07412093877792358, 0.07407879829406738, -0.2776367962360382, 0.19088797271251678, -0.17264483869075775, -0.09738564491271973, 0.062382105737924576, 0.14458869397640228, -0.013214469887316227, 0.040235843509435654, 0.1285722553730011, 0.004483203869313002, -0.06464391201734543, -0.25678107142448425, -0.19920407235622406, 0.16501258313655853, -0.018696146085858345, 0.01465225126594305, -0.44525718688964844, -0.19625119864940643, 0.8380131721496582, -0.3501913249492645, -0.5523395538330078, -1.3397151231765747, -0.4987035095691681, -0.3078010678291321, 0.4275937080383301, 0.2084939330816269, 0.9946184158325195, 0.33748412132263184, 0.16609670221805573, 0.13354633748531342, -0.13098405301570892, -0.10679971426725388, -0.6464215517044067, -0.03793733939528465, -0.13714061677455902, -1.2176897525787354, -1.3012276887893677, 0.03715294972062111, -0.006888822186738253, 0.8468783497810364, -0.7294885516166687, -0.03250643238425255, -0.051838573068380356, -0.637050449848175, 0.5766164064407349, 0.03572249040007591, -0.008293204009532928, 0.21508963406085968, 0.5544862151145935, -0.019728662446141243, -0.14963555335998535, -0.8419228196144104, -0.41527697443962097, -0.12473677843809128, -0.14258255064487457, 0.026648787781596184, 0.7557534575462341, 0.06500422954559326, -0.058282677084207535, -0.40280070900917053, -0.9291283488273621, -0.0016751977382227778, -0.09266328066587448, -0.9515326023101807, -0.08079936355352402, 0.14863084256649017, -0.03832366690039635, 0.7428035140037537, 1.5729037523269653, 0.13197661936283112, -0.11673580855131149, -0.14225320518016815, -0.02610633708536625, -0.19995595514774323, 0.013085599057376385, 0.4532676041126251, -0.7508358359336853, -0.15575696527957916, -0.07061624526977539, 0.4282008707523346, -0.3542664051055908, 0.26951196789741516, -0.06907344609498978, 0.19321702420711517, -0.2198343425989151, 0.07911790162324905, 0.049626801162958145, 0.06082248315215111, -0.03167649731040001, 0.0013785621849820018, -0.008680486120283604, 0.12214935570955276, -0.014664710499346256, 0.17754815518856049, 0.025991449132561684, -0.03918987140059471, -0.10802078247070312, 0.14420855045318604, -0.0723157599568367, -0.029599763453006744, -0.020370079204440117, 0.015177384950220585, 0.002400593599304557, 0.054183002561330795, -0.3722352683544159, 0.049805719405412674, 0.21483494341373444, -0.4073910713195801, -0.3205263912677765, -0.16892944276332855, -0.3648201525211334, 0.18532468378543854, -0.21124298870563507, 1.0973403453826904, 0.29010483622550964, -0.40140119194984436, -0.018673673272132874, -0.4815128743648529, 0.22016333043575287, 0.295553594827652, -0.08824443072080612, 0.20517279207706451, -0.03589066118001938, 0.4900864064693451, -0.07786797732114792, -0.006044126581400633, -0.02791920304298401, 0.02267509698867798, -0.10992764681577682, -0.18223585188388824, -0.5999196767807007, -1.3519212007522583, -0.12964583933353424, -0.10754235833883286, -0.13219663500785828, -0.9145691394805908, -0.07181250303983688, -0.03302690014243126, -0.554616391658783, -1.4087764024734497, 0.13401247560977936, -0.05059153214097023, 0.6379297375679016, 0.285027414560318, 0.23800204694271088, 0.026690194383263588, 0.08608508855104446, 0.41861578822135925, -0.05808817967772484, -0.15531350672245026, -0.31158944964408875, 0.6035827994346619, 0.08193624764680862, 0.11063457280397415, 0.19196076691150665, -0.11307454109191895, 0.10508144646883011, -0.12893567979335785, -0.19054080545902252, 0.2849588394165039, 0.021095214411616325, 0.04771718010306358, 0.04665720462799072, -0.5289191007614136, 0.0012491325614973903, -0.039546672254800797, 0.3838607966899872, 0.6338709592819214, 0.0032997902017086744, 0.17756591737270355, -0.508841872215271, -0.26634952425956726, -0.19778943061828613, -0.17355002462863922, 0.03403686732053757, -0.2822418808937073, 0.1323561817407608, -0.0644989088177681, -0.09410250931978226, 0.07347565144300461, -0.015969010069966316, 0.044372882694005966, 0.05734729394316673, 0.1619957685470581, 0.09110300987958908, -0.11534727364778519, -0.29316237568855286, 0.04200714826583862, 0.10542691498994827, 0.0395050086081028, -0.11509343236684799, -0.1223892793059349, 0.011693066917359829, 0.09357484430074692, -0.08634400367736816, -0.12989898025989532, -0.14142762124538422, -0.09973776340484619, -0.1655416339635849, -0.26502925157546997, -0.016953084617853165, -0.061353106051683426, 0.1627352386713028, -1.9706025123596191, -0.6758589148521423, -0.9027630686759949, -0.148013636469841, -1.5060319900512695, 0.5021361708641052, 0.10815900564193726, 0.36797186732292175, -0.01786346733570099, -0.06721829622983932, -0.26350969076156616, -0.08088654279708862, -0.05976039543747902, -0.12359214574098587, -0.1510605663061142, 0.9106006026268005, 0.05447153374552727, 0.028188737109303474, 0.8497866988182068, 0.9884061217308044, 0.07837141305208206, 0.042733047157526016, 0.11563539505004883, 0.797950804233551, -0.04548502340912819, -0.06621628999710083, -0.4295223653316498, -1.03556227684021, 0.09379226714372635, 0.19445060193538666, -0.5554944276809692, -0.8328886032104492, 0.13744162023067474, -0.050433140248060226, -1.5126925706863403, -1.6340312957763672, -0.25426313281059265, -0.19095994532108307, -0.64822918176651, -0.18790359795093536, 0.027567842975258827, -0.005260333884507418, -0.22293733060359955, 0.23551033437252045, -0.09644628316164017, 0.08159226924180984, 0.3611263930797577, -0.5842639803886414, -0.10791169852018356, 0.07552682608366013, -0.009744438342750072, -0.39553049206733704, -0.09314883500337601, 0.0268085990101099, 0.36627197265625, -0.6781623959541321, -0.002959606936201453, -0.05748951807618141, 0.1972707360982895, -0.18197570741176605, -0.038822319358587265, 0.0800529196858406, 0.07763166725635529, -0.34174492955207825, 0.0033314693719148636, 0.02187064103782177, 0.15774297714233398, -0.03564915433526039, 0.061563197523355484, 0.10986129194498062, 0.14787700772285461, -0.23470409214496613, 0.0534663163125515, -0.017008749768137932, -0.07131456583738327, 0.007393591571599245, 0.17527198791503906, -0.08216334134340286, 0.01884552650153637, 0.08445823192596436, -0.11720133572816849, 0.11890339106321335, 0.1528639942407608, 0.12827835977077484, 0.08145297318696976, 0.030783651396632195, -0.6011515259742737, -0.19131986796855927, -0.7267876267433167, -0.6557518243789673, 0.1561494916677475, 0.5000558495521545, 0.0672534704208374, 1.0850058794021606, 0.4596015512943268, -0.8400183320045471, -0.6886749863624573, -0.023140445351600647, 0.6914083361625671, -0.012264982797205448, -0.1078125610947609, 0.47371211647987366, -0.8207449913024902, -0.035870134830474854, -0.07184208184480667, 0.7148098349571228, -0.2108653336763382, -0.07040208578109741, -0.14050067961215973, 0.34145215153694153, -0.7183041572570801, -0.004343624692410231, 0.0008517252281308174, 0.16186019778251648, 0.6842403411865234, -0.06574899703264236, -0.09534735232591629, -0.051743391901254654, 0.03469989076256752, -0.10535892099142075, -0.010037912987172604, -0.44096389412879944, -0.0506761260330677, 0.013851090334355831, -0.06626801937818527, 0.1886947900056839, 0.6237520575523376, 0.05763697996735573, -0.189878448843956, -0.22863483428955078, -1.3799325227737427, -0.05792247876524925, 0.04608616605401039, -0.1967165321111679, 0.39745429158210754, 0.036622170358896255, -0.1418025642633438, 0.1605186015367508, -0.734820544719696, -0.105667345225811, -0.11728347092866898, 0.34644362330436707, 0.221748948097229, 0.1653188318014145, 0.08509618788957596, 0.5467025637626648, 0.6551833748817444, -0.13170455396175385, 0.14654742181301117, 0.5720070004463196, 1.0013991594314575, 0.06497370451688766, -0.09482444077730179, 0.2782420814037323, 0.30818724632263184, -0.08028840273618698, 0.0913267657160759, -0.10696708410978317, -0.10638824850320816, 0.1245279386639595, 0.18851794302463531, 0.10283087939023972, 0.006265560630708933, -0.022126613184809685, -0.0881914421916008, -0.11299394816160202, 0.0027226547244936228, -0.062290605157613754, -0.10893703252077103, 0.047675687819719315, -0.0712394267320633, 0.025068609043955803, 0.11831916123628616, -0.10394168645143509, -0.10830947011709213, 0.03768482804298401, -0.032182659953832626, -0.20467303693294525, -0.052538078278303146, 0.5564565658569336, 0.31339555978775024, -0.4928727149963379, -2.065656900405884, -0.08317941427230835, 0.1747734397649765, 0.3847992420196533, -0.9834643006324768, 0.5560024380683899, 0.4095788300037384, 0.26806023716926575, -0.13081683218479156, -0.04924136400222778, -0.5251849889755249, -0.517311155796051, 0.03269592300057411, -0.0746186301112175, -0.6229521036148071, -0.3391306698322296, -0.03634580597281456, 0.11578976362943649, 0.244733989238739, -0.17690682411193848, -0.09161826223134995, -0.08368606120347977, -0.045857276767492294, 0.7637748122215271, -0.17877794802188873, -0.026601312682032585, -0.025042563676834106, -0.056518081575632095, 0.15452514588832855, 0.10801459103822708, 0.07258211076259613, 1.030569314956665, -0.0059797693975269794, 0.019162610173225403, -0.009912434034049511, -0.624485433101654, -0.02208608202636242, 0.00894205179065466, -0.1818837970495224, -0.5527757406234741, -0.012790084816515446, -0.10945535451173782, 0.15505565702915192, -0.7026880383491516, 0.1351999193429947, -0.06696140021085739, 0.41968846321105957, -0.7777463793754578, 0.22513629496097565, 0.007046311628073454, -0.5365100502967834, 0.6415925621986389, 0.015509634278714657, 0.2475104182958603, 0.6889629364013672, 0.2988884449005127, 0.0066104005090892315, -0.21026252210140228, 0.16568194329738617, -1.0029542446136475, 0.023202059790492058, -0.058343056589365005, 0.3217633068561554, -0.12258907407522202, -0.06637590378522873, -0.03669976815581322, -0.029890120029449463, 0.18129147589206696, -0.1632363647222519, -0.026125846430659294, 0.12190579622983932, -0.29877132177352905, 0.17842423915863037, 0.05279922112822533, -0.1157691553235054, 0.020510198548436165, 0.09866341203451157, 0.02021053619682789, -0.1781664937734604, -0.16614213585853577, -0.03462762013077736, 0.08430475741624832, 0.024787547066807747, 0.32835653424263, -0.09729982167482376, 0.03225049003958702, -0.7816901803016663, -0.42254260182380676, 0.9426577687263489, 0.04693187400698662, -1.0084950923919678, -0.7555950284004211, -0.07313066720962524, -0.45584914088249207, -0.10137797147035599, 1.2266523838043213, -0.4274144470691681, 0.22456829249858856, -0.3121362030506134, -0.057213906198740005, -0.07426000386476517, -0.6999679207801819, 0.30322936177253723, 0.06398928910493851, 0.008254081010818481, -0.3916887938976288, -0.6447361707687378, 0.033173684030771255, 0.18588124215602875, 0.013837002217769623, 0.5678998231887817, -0.06099003180861473, -0.08564960211515427, -0.20373080670833588, 0.34379199147224426, -0.05516276881098747, -0.10539066046476364, -0.3329927623271942, 1.4436321258544922, 0.09504605084657669, -0.06053293123841286, -0.8748589158058167, 0.30727526545524597, -0.10970541089773178, 0.17793165147304535, -0.8103852272033691, 0.09083139151334763, -0.056536849588155746, 0.05955147370696068, -0.36430612206459045, 0.4986923635005951, -0.06751144677400589, 0.017608031630516052, -1.0072754621505737, -0.37289881706237793, 0.2876003086566925, 0.08922164887189865, 0.5415630340576172, -0.18729545176029205, 0.00873695407062769, -0.09003401547670364, 0.7009420394897461, -0.47728076577186584, 0.04131979122757912, -0.09465848654508591, -0.07272099703550339, -0.9014119505882263, -0.002680018311366439, 0.0665353462100029, 0.7514035105705261, 0.15895076096057892, 0.15752623975276947, 0.043569713830947876, 0.18965435028076172, 0.028109846636652946, 0.1471855789422989, 0.11750637739896774, 0.06302273273468018, 0.2132122665643692, -0.010502525605261326, 0.11134827136993408, 0.138168603181839, -0.034443460404872894, -0.08036316186189651, -0.0810369923710823, 0.08516794443130493, -0.060213807970285416, 0.09650344401597977, 0.256693571805954, -0.15290836989879608, 0.16214653849601746, 0.0677158311009407, -0.0765419602394104, -0.3030054271221161, 0.008178920485079288, -0.004272573161870241, -0.07093100994825363, -0.3084992468357086, 0.025529226288199425, -0.26058217883110046, -0.19350473582744598, -0.26278406381607056, -1.8697218894958496, 1.0689200162887573, 1.4479217529296875, 0.06704722344875336, -0.49446722865104675, -0.14777161180973053, 0.4605693519115448, -0.6306514143943787, -0.11175323277711868, -0.14737392961978912, 0.47834840416908264, -0.2661450207233429, 0.012063964270055294, 0.1002921462059021, 0.1524897962808609, 0.5346090197563171, 0.056833747774362564, 0.06066996231675148, 0.055025696754455566, 0.7033124566078186, -0.03314671292901039, -0.14832735061645508, 0.07895281165838242, 0.020151924341917038, 0.02657952718436718, 0.1299823373556137, -0.3417802155017853, -0.11834598332643509, -0.028808413073420525, 0.04690122976899147, 0.07079319655895233, -0.2480456829071045, 0.19092418253421783, 0.1316300481557846, 0.8771762251853943, 2.685750722885132, 0.10075553506612778, 0.062375787645578384, -0.23509877920150757, 1.1160610914230347, -0.20288561284542084, -0.10871585458517075, 0.033090412616729736, -0.7224628329277039, -0.02694092132151127, 0.024399368092417717, 0.33773520588874817, -0.5214465856552124, 0.10988763719797134, 0.03241071105003357, 0.5780548453330994, 0.17098183929920197, 0.022962333634495735, 0.12350023537874222, -0.8369627594947815, 0.4624777138233185, 0.16883276402950287, 0.09392910450696945, 0.12249389290809631, 0.4612831771373749, 0.1253298670053482, 0.16831980645656586, 0.30433911085128784, 0.020377065986394882, 0.072123222053051, -0.05265607312321663, 0.06268142908811569, -0.0922577977180481, 0.04709393158555031, -0.07310735434293747, 0.015002538450062275, 0.11429048329591751, -0.053242798894643784, -0.20612145960330963, -0.018188806250691414, 0.0488608293235302, 0.025075117126107216, -0.011237516067922115, 0.08985839039087296, -0.0528680644929409, -0.22155165672302246, -0.01916065625846386, 0.14827083051204681, -0.05446309223771095, -0.10994672030210495, -0.17704631388187408, -0.09735018759965897, 0.002031911164522171, -0.7116487622261047, -0.5025954842567444, 0.6860837340354919, 0.2445657104253769, -0.04116247966885567, 1.5408369302749634, -0.2599811851978302, -0.04278210178017616, 1.6933454275131226, 0.14543162286281586, 0.023568181321024895, -0.1831451654434204, -0.02144189178943634, 0.7399546504020691, -0.884101927280426, 0.09594918042421341, -0.04355790838599205, 0.8058285713195801, 1.501571536064148, 0.0014855946647003293, 0.0825984999537468, -0.3926897346973419, -0.13855230808258057, -0.057071391493082047, -0.04894096031785011, 0.650448203086853, -0.08160500973463058, 0.2452557235956192, -0.014651344157755375, 0.2669934928417206, 0.42964157462120056, -0.022607965394854546, -0.02672266960144043, 0.5360444784164429, -0.5745722055435181, -0.06884824484586716, 0.07488101720809937, -0.6958293914794922, -0.7645158767700195, 0.0668032243847847, 0.018785076215863228, -0.31078797578811646, -0.07987525314092636, -0.13129304349422455, 0.04576307162642479, 0.02709231711924076, -0.24684031307697296, -0.20953519642353058, 0.009636097587645054, -0.2725070118904114, 0.13629387319087982, 0.18941949307918549, 0.18163441121578217, 0.015899907797574997, 0.3297882378101349, -0.050477031618356705, -0.11329733580350876, -0.6121171712875366, -0.5302515625953674, 0.13830317556858063, -0.009798088110983372, -0.7861290574073792, -0.8128862380981445, -0.07970738410949707, -0.04624706134200096, 0.17547070980072021, 0.38714101910591125, -0.13884316384792328, 0.04221552237868309, 0.20925219357013702, 0.16712446510791779, -0.23986409604549408, 0.010355844162404537, -0.0863804891705513, -0.0496489517390728, -0.10147150605916977, -0.0473337359726429, -0.22653697431087494, -0.03262725844979286, -0.11911522597074509, -0.12615691125392914, -0.08008654415607452, -0.1961221694946289, 0.1153327152132988, 0.09811309725046158, -0.10499775409698486, 0.22670839726924896, -0.04631881043314934, 0.062376316636800766, -0.32429978251457214, -0.5593339800834656, -0.5682851672172546, -0.437622994184494, 0.7443495392799377, -0.9296769499778748, 0.14109958708286285, -1.4368592500686646, -0.13270772993564606, 0.21658800542354584, 1.0598571300506592, 0.6307029128074646, 1.2911609411239624, 0.07053976505994797, -0.000599311722908169, 0.5202093720436096, 0.6386699080467224, 0.1577320247888565, 0.10456021875143051, -0.18240167200565338, 0.3429320156574249, -0.09621966630220413, 0.13010118901729584, -0.3467767536640167, 0.09657623618841171, 0.11341489106416702, -0.22693157196044922, 0.09599882364273071, -0.202393040060997, -0.18473540246486664, 0.09486978501081467, -0.2596760392189026, 0.24273158609867096, -0.1282625049352646, 0.01874355785548687, -0.2835722267627716, -0.4035285413265228, -0.016250165179371834, 0.06631308048963547, -0.6307592391967773, -0.07591976225376129, 0.10029495507478714, 0.053171928972005844, -0.6920155882835388, -0.6918578743934631, -0.20476077497005463, 0.11848901957273483, -0.47654151916503906, -0.588455319404602, -0.26462796330451965, 0.05506362393498421, 0.058816615492105484, 0.6179637312889099, -0.01791525073349476, 0.08099757879972458, 0.1569606214761734, 0.8127266764640808, -0.1141587570309639, -0.10655272006988525, 0.012914136052131653, 0.13663412630558014, -0.2237868458032608, -0.0034526288509368896, -0.16661743819713593, -0.2566380202770233, 0.03428018465638161, 0.07901031523942947, 0.35684624314308167, 0.1919906884431839, -0.021683575585484505, 0.22434331476688385, -0.07808757573366165, -0.12900730967521667, 0.051943689584732056, 0.0593675933778286, -0.030188580974936485, 0.025417564436793327, 0.06160736456513405, 0.13590027391910553, -0.2282233089208603, -0.10745597630739212, -0.027546199038624763, -0.032840076833963394, 0.0837564691901207, -0.01695406064391136, -0.036857157945632935, -0.08447558432817459, -0.04699224606156349, 0.008510841056704521, -0.1339862197637558, 0.03493445739150047, -0.2555994689464569, -0.5206250548362732, -0.4514017403125763, -0.5305672287940979, 0.18938805162906647, 0.6649206280708313, 1.16902756690979, -0.5827980637550354, -0.656643807888031, 0.9101346135139465, -0.04398438334465027, 0.2352389693260193, -0.1445808708667755, 0.09668790549039841, -0.029405204579234123, 0.039352092891931534, -0.08090920001268387, -0.1415926069021225, 0.06115817651152611, 0.295968234539032, 0.05405161902308464, 0.033873382955789566, 0.12156759947538376, -0.21998755633831024, -0.5329441428184509, -0.15561771392822266, 0.12594805657863617, -0.04235544428229332, 0.1373264491558075, -0.003907435107976198, 0.027363093569874763, 0.4939108192920685, 0.5415543913841248, -0.1406346708536148, 0.12554693222045898, 0.2785017192363739, 0.3897729218006134, -0.002294594654813409, 0.08814358711242676, -0.36959028244018555, 1.0297439098358154, 0.18388889729976654, 0.00041874474845826626, -0.3515830338001251, 0.17862920463085175, 0.07788551598787308, -0.07669103890657425, -0.24499629437923431, 0.04364130273461342, -0.12830699980258942, 0.0446721576154232, -0.3781656324863434, 0.17979180812835693, -0.03226056694984436, -0.14652490615844727, -0.7909126877784729, -0.1287851184606552, 0.17258523404598236, 0.04636964201927185, -0.09710706025362015, -0.36820873618125916, -0.05092596635222435, 0.08951198309659958, -0.4358782470226288, -0.4609089195728302, -0.11947321146726608, -0.010042660869657993, 0.12118784338235855, 0.13666172325611115, -0.30123087763786316, 0.11492311209440231, -0.3169345259666443, -0.18499572575092316, 0.05328142270445824, -0.07271165400743484, -0.4133531153202057, -0.11539200693368912, -0.12020016461610794, -0.012516559101641178, 0.07715577632188797, -0.09530425071716309, 0.1351344734430313, -0.04881805554032326, 0.08543336391448975, 0.03465444594621658, 0.0620342455804348, 0.04173639789223671, -0.005324128549546003, -0.03408479318022728, 0.2268839031457901, -0.019259141758084297, -0.5400370955467224, -0.4424887001514435, -0.7966279983520508, -0.055420342832803726, 1.2941901683807373, -0.66457599401474, 2.6684377193450928, -0.4637519419193268, -0.7994490265846252, 0.10258138924837112, -1.9195923805236816, 0.23481179773807526, 0.153733029961586, 0.0008759600459598005, -0.038364287465810776, -0.3165894150733948, 1.690596580505371, 0.0915948674082756, 0.04057491198182106, -0.49704882502555847, 0.42690613865852356, 0.17202354967594147, 0.15956057608127594, -0.21523483097553253, -0.15690302848815918, 0.08987850695848465, -0.1722773313522339, -0.8492419123649597, -0.8327855467796326, 0.029601363465189934, -0.08467977494001389, -0.46932122111320496, -0.844880998134613, -0.02524365484714508, 0.061706844717264175, -0.7587923407554626, -0.2504698634147644, 0.3171240985393524, -0.06694865971803665, -0.37047430872917175, 1.2230541706085205, -0.0810026004910469, 0.030623437836766243, -0.017559688538312912, -0.23176264762878418, -0.2729911506175995, 0.18492291867733002, -0.7878102660179138, -0.35710427165031433, 0.025707630440592766, -0.2033805102109909, 0.4556713104248047, 0.09806019812822342, 0.08682788163423538, -0.18925617635250092, 1.1462639570236206, -0.20202095806598663, 0.11163007467985153, 0.08347565680742264, -0.23910999298095703, -0.7841139435768127, -0.21492230892181396, 0.14309249818325043, 0.8527316451072693, 0.8379950523376465, 0.12131189554929733, -0.07226455956697464, 0.12952455878257751, -0.0572676807641983, 0.06429039686918259, -0.04871521517634392, 0.294906884431839, 0.14864325523376465, -0.0976148322224617, -0.0021214557345956564, 0.23476441204547882, 0.019381310790777206, 0.11592555791139603, 0.08902163058519363, -0.090598464012146, -0.011396580375730991, -0.13116884231567383, -0.03337809070944786, -0.02566373161971569, 0.0456511415541172, -0.13828299939632416, 0.1140199825167656, -0.25516319274902344, 0.15591053664684296, -0.0033038367982953787, 0.1845717579126358, -0.21223585307598114, -0.16608329117298126, -0.5799164175987244, -0.41573190689086914, 0.22756622731685638, -0.4915938377380371, 0.020732702687382698, 0.32162636518478394, -0.00261077843606472, 0.6640046834945679, -0.13817237317562103, 0.30062249302864075, -0.7640565037727356, 0.0361478365957737, -0.048657093197107315, -0.32914191484451294, 0.10819550603628159, 0.0335717536509037, -0.06787515431642532, -0.5835200548171997, 0.7356763482093811, -0.23202632367610931, 0.10911198705434799, 0.46600231528282166, -0.3738265335559845, -0.07611031085252762, 0.07180868834257126, -0.968766450881958, -1.486064076423645, -0.022825079038739204, -0.01077034417539835, 0.11709066480398178, -0.18975496292114258, 0.1860731691122055, -0.03398359194397926, -0.09331666678190231, 0.7397417426109314, -0.06672418862581253, -0.1881418079137802, 0.32651710510253906, -1.4033308029174805, -0.04941403493285179, -0.03678864240646362, -0.2541024386882782, 0.6549104452133179, 0.08500445634126663, 0.05578398331999779, 0.2796667218208313, 1.2468650341033936, -0.1430114507675171, 0.04318409785628319, 0.8365878462791443, -0.10144313424825668, -0.049397293478250504, 0.010452068410813808, -0.020976588129997253, 0.8805573582649231, -0.09983796626329422, -0.05482769012451172, 0.5974221229553223, 0.21239350736141205, -0.005283345002681017, -0.08738099783658981, 0.14116455614566803, -0.3461647927761078, 0.021246938034892082, -0.17001748085021973, 0.33282405138015747, 0.005096352659165859, -0.05570244789123535, 0.1875779777765274, -0.2933875024318695, -0.17311979830265045, 0.07532285898923874, -0.016873108223080635, 0.010725690983235836, 0.054214686155319214, -0.08384723216295242, -0.19831372797489166, 0.11490083485841751, -0.15104424953460693, -0.22374127805233002, 0.002391423797234893, -0.13331672549247742, 0.1187385693192482, -0.047924477607011795, -0.052088383585214615, 0.009950956329703331, -0.18941570818424225, 0.1756054311990738, -0.09359794110059738, -0.328719824552536, -0.4480239450931549, -0.0711725503206253, -0.4051056206226349, -0.06417543441057205, -0.6376405358314514, 0.43911775946617126, -0.15380562841892242, -1.5489856004714966, -0.10780204087495804, -0.6189204454421997, -0.3753274977207184, -0.24360965192317963, -0.25380876660346985, -0.518526554107666, -0.43697449564933777, -0.46685174107551575, -0.5225104093551636, -0.43213745951652527, -0.21855628490447998, -0.3901704251766205, -0.4252394139766693, -0.3708289563655853, -0.38019251823425293, -0.07699143886566162, -0.33347418904304504, -0.251240074634552, -0.19417162239551544, -0.6410726308822632, -0.3468327224254608, -0.46974900364875793, -0.44049879908561707, -0.22357915341854095, -0.030900657176971436, -0.3749876320362091, -0.27052974700927734, -0.46891167759895325, -0.3665775954723358, -0.38503050804138184, -0.42464861273765564, -0.13874420523643494, -0.15515373647212982, -0.24751193821430206, 0.05695563927292824, -0.24461199343204498, -0.27489298582077026, -0.2848868668079376, 