{"structure_edges": [[-1, 0, 1], [-1, 1, 1], [-1, 2, 1], [-1, 3, 1], [-1, 4, 1], [-1, 5, 1], [-1, 15, 1], [-1, 14, 1], [19, 8, 1], [10, 7, 1], [19, 10, 1], [12, 9, 1], [12, 17, 1], [16, 18, 1], [12, 16, 1], [19, 12, 1], [6, 19, 1], [-1, 6, 1]], "structure_weights": {"mu": [-1.8107078897670124, -1.399416878271817, 2.097064093023482, -3.0501065801034697, -2.162225531452084, 0.0, 0.0, -2.9472866809968683, -1.2920305389974287, -2.2235522011614814, -1.0822828917311567, 0.7431542659254188, -1.7975597184135357, -2.9697113627500316, 0.0, 0.0, -2.1789353213195937, -0.884136486603899, -0.7921087201305235, 0.17870929775927913, 2.098324187565311, -0.26976637514699126, -1.316670393523626, 0.0, 0.0, -1.422285480197642, 0.01217899767029008, -0.598894506188609, -0.9584207963642849, -2.660128070427153, -1.1648938965730862, -2.8517509685200277, 0.0, 0.0, -0.42907155847054784, -2.162802237329164, 0.3722738158849594, -0.06016122984716603, 2.59378798680581, 2.866940796533995, -2.2343251007188702, 0.0, 0.0, 0.7533114427043412, 1.2805170241603678, 1.3299450166520483, -1.5993167975634297, 2.9753966102236324, 1.0428093568564674, -2.9659522191115943, 0.0, 0.0, 3.015863613260887, -1.069763984039133, -1.285283597991545, -0.9778027297146461, 0.3125635410575291, -1.554745921068095, -2.949863107355282, 0.0, 0.0, -0.9342227198556803, -1.8267945249219453, -0.29186528879260265, -0.5699286496772857, -0.7346047247397843, -0.3119724376787784, -2.9600084592177462, 0.0, 0.0, -1.0426667115925305, -2.447417920311258, -2.911080996713015, -1.0309071754269648, -0.1969323405318106, -2.296046434439553, -2.9431423752394803, 0.0, 0.0, -1.4025147769920352, -2.107865187230643, -2.5439462238720685, 0.3645920949470297, -0.6029036838957531, -2.047546100702395, -2.971035364901465, 0.0, 0.0, -2.07897815520018, -2.908780539598765, -1.9545431989910955, -0.10338905196111783, -0.4252813532638645, -1.1916892334666704, -2.9262921681416008, 0.0, 0.0, -2.3655224630339715, -2.7967024919791075, -2.5, -2.5, -2.5, -2.5, -2.5, -2.5, -2.5, -2.5, -2.5, -2.255548957257193, -1.016093546953602, 0.30201071470816465, -2.729537325067563, -2.9697113627500316, 0.0, 0.0, -1.9451780153826954, -2.4643490191741297, -2.5, -2.5, -2.5, -2.5, -2.5, -2.5, -2.5, -2.5, -2.5, 1.3492820734000484, -2.767775595133545, -1.1032531230507565, 2.642470934142853, -2.9574929437625737, 0.0, 0.0, 0.8616138710885971, -1.4359008778902993, 1.7550856488205955, -0.7421938557870468, 1.7702475095055081, 1.4166136391219715, -2.293978983029072, 0.0, 0.0, 0.7173984055070388, -0.5815127720863269, 0.5706418289609801, -2.839442715895324, -1.3690284038254026, 2.6936894263379876, -2.8743462194026934, 0.0, 0.0, 1.5529040127801845, -1.7652242549102217, 0.9794341135775765, -2.774075585841415, -1.2389121781973467, 2.697618041460485, -2.9902038755992666, 0.0, 0.0, 0.675037309072887, -1.5481557928876757, -2.398019958656495, -0.18883062228997277, -1.2247586775925468, -2.5306146737454718, -3.0433073312649808, 0.0, 0.0, 0.17045238811836394, -0.6225460541569151, -2.2245389141162515, -0.5434065523202137, -0.5176098826614004, -2.1267785020720518, -3.0433073312649808, 0.0, 0.0, -0.13204967216324742, -1.2352719360383482], "sigma": [0.01161425997653302, 0.011062983122607773, 0.013329074196555428, 0.10000006758919354, 0.012531247775283928, 0.1, 0.1, 0.10000004527265118, 0.011772422712417331, 0.013474614709801247, 0.01, 0.011556410450266723, 0.464357636689229, 0.10000004708933655, 0.1, 0.1, 0.025401396184748615, 0.06373569685230578, 0.01, 0.010382976318812843, 0.01, 0.013832387709453157, 0.030268019101280883, 0.1, 0.1, 0.3056107829518094, 0.01, 0.05511085122228243, 0.21980648765366065, 0.0397195527042099, 0.023571357361696372, 0.07011710354971354, 0.1, 0.1, 0.016472166099387543, 0.15612875913874985, 0.01, 0.013464635743670173, 0.028116251867282744, 0.07326668628506242, 0.01, 0.1, 0.1, 0.022433667818492996, 0.010970972096772362, 0.07011306553214153, 0.018946353921076034, 0.10000004928369258, 0.011212608169370435, 0.10000004859073333, 0.1, 0.1, 0.1000000596805437, 0.051868251730473526, 0.010898159812551836, 0.010848044726287006, 0.03227086286119911, 0.10299322604789105, 0.10000004467760844, 0.1, 0.1, 0.019456409926720424, 0.01, 0.05557032328067483, 0.0191451226289332, 0.09650752505628706, 0.08248364983623002, 0.08242714887774576, 0.1, 0.1, 0.014183502157952138, 0.21749923095545548, 0.09088067812226067, 0.05349633950752877, 0.01721027507634259, 0.08845327808080804, 0.10000004190177375, 0.1, 0.1, 0.0599782754083761, 0.013601924940668251, 0.01332404998000009, 0.01, 0.06096815330558726, 0.21684233733092353, 0.10000004983576417, 0.1, 0.1, 0.27506436822511804, 0.10000003594978585, 0.5053213418497967, 0.08117522821604208, 0.0739799385108528, 0.01, 0.1000000398496039, 0.1, 0.1, 0.04252988342434708, 0.0743449871510651, 0.1, 0.1, 0.1, 0.1, 0.1, 0.1, 0.1, 0.1, 0.1, 0.03018614929493008, 0.01, 0.010687732174162919, 0.1447815968586358, 0.10000004708933655, 0.1, 0.1, 0.02115933133749394, 0.38716229042358397, 0.1, 0.1, 0.1, 0.1, 0.1, 0.1, 0.1, 0.1, 0.1, 0.01, 0.048317863991225035, 0.012037714006182526, 0.42119539349809526, 0.2549828625743582, 0.1, 0.1, 0.018450199295271526, 0.17170645641559168, 0.01, 0.01, 0.012985268644131824, 0.023817558675202223, 0.01, 0.1, 0.1, 0.048144856833369214, 0.01, 0.19241434843839064, 0.08510109159752781, 0.011135897057762014, 0.08627281168794647, 0.05976294051903241, 0.1, 0.1, 0.010234841278352513, 0.030467908852096597, 0.03103005472020605, 0.06070473574316067, 0.029160479446517378, 0.2782421067567802, 0.010000000013470563, 0.1, 0.1, 0.651254443142867, 0.5523684628466468, 0.01, 0.012173417721933213, 0.08582746355968507, 0.0154401477566338, 0.10000006726748367, 0.1, 0.1, 0.21454987073108228, 0.23275721533282626, 0.01013117332367105, 0.020181276404250013, 0.10574921211922733, 0.1875367972665617, 0.10000006726748367, 0.1, 0.1, 0.4928690117282586, 0.01248008155160207]}, "policy_weights": [0.42617467045783997, 0.20033638179302216, -0.11200987547636032, 0.1215742751955986, -1.0424717664718628, -0.7057179808616638, -0.10102986544370651, 0.07182592153549194, 0.46670451760292053, 0.8110575675964355, 0.03486713767051697, 0.07701177150011063, -0.440123051404953, -2.210716485977173, -0.03129062056541443, 0.00022306105529423803, 0.029879996553063393, 0.6959609985351562, -0.02862861566245556, -0.015545100905001163, -0.9029480814933777, -0.1923331469297409, 0.1079254075884819, 0.04468202218413353, -1.1201274394989014, -0.42056727409362793, 0.051241155713796616, 0.07980113476514816, 0.24131029844284058, -0.22600704431533813, -0.021505041047930717, -0.07764709740877151, -0.018478693440556526, -0.07563536614179611, 0.03123283199965954, 0.09283073991537094, 0.16569329798221588, -0.010471806861460209, 0.050361517816782, 0.009339549578726292, 0.26886290311813354, 0.07162206619977951, -0.026904789730906487, 0.007487892638891935, -0.009780451655387878, -0.23429106175899506, 0.14139841496944427, -0.17850519716739655, -0.4942498505115509, -0.040255356580019, -0.07285869121551514, 0.07391680032014847, 0.21143363416194916, -0.22228027880191803, 0.13867579400539398, 0.046492550522089005, 0.16299818456172943, -0.23478244245052338, -0.03065619058907032, -0.025494098663330078, 0.4819507300853729, 0.5729560256004333, -0.01292633917182684, 0.05572831258177757, 0.17120318114757538, -0.2617652714252472, 0.1539412885904312, 0.05244442820549011, 0.1605825275182724, -0.01719466969370842, -0.15550707280635834, 0.0494687594473362, 0.20984746515750885, -0.04791254177689552, -0.03791731968522072, -0.06903897970914841, -0.5595421195030212, -0.25066715478897095, 0.1310563087463379, -0.08644730597734451, -0.7458186745643616, -0.18750546872615814, -0.5570756196975708, 0.545348584651947, 1.507858395576477, -0.05240334942936897, 0.9419069886207581, 1.0225563049316406, 0.4579591453075409, 0.021265968680381775, 0.8511189818382263, -0.7807452082633972, -1.329172968864441, 0.052998367697000504, -0.010546988807618618, -0.19710953533649445, 0.5240741968154907, 0.04413213953375816, 0.06555033475160599, -0.250040739774704, 0.33223673701286316, 0.015726430341601372, 0.15704523026943207, -0.7494555115699768, 0.08432000130414963, 0.06557906419038773, -0.15948034822940826, -0.09191828966140747, -0.3370724022388458, 0.16767406463623047, -0.0852205827832222, 1.1377012729644775, 0.6668321490287781, -0.1859579235315323, 0.14344869554042816, -0.2796476185321808, -0.40001407265663147, 0.15839578211307526, -0.11712943762540817, 0.22625850141048431, -0.4727115333080292, -0.022560372948646545, 0.11020410805940628, 0.6050558686256409, 0.2458484023809433, -0.011086375452578068, -0.07523691654205322, -0.3531465232372284, 0.21993939578533173, -0.22924162447452545, -0.15868495404720306, 0.21177537739276886, -0.32573840022087097, -0.015348642133176327, 0.06815701723098755, 0.1165236160159111, 0.04208723083138466, 0.029009880498051643, 0.21513985097408295, -0.17433927953243256, -0.03622683137655258, 0.1929004192352295, -0.08004630357027054, 0.16128085553646088, 0.1327066272497177, 0.19293548166751862, -0.14927877485752106, -0.4491157829761505, -0.09342729300260544, 0.2517443001270294, 0.1841730922460556, 0.5702518224716187, 0.21220619976520538, -0.10265684872865677, 0.058460649102926254, 0.2621433138847351, -0.048019398003816605, 0.19597919285297394, 0.16207851469516754, 0.06720511615276337, -0.194203719496727, 0.03962474688887596, 0.01777005009353161, 0.12299016863107681, -0.0858733132481575, 0.11264599114656448, -0.14325489103794098, 0.10647758096456528, 0.28803274035453796, -0.1495102494955063, -0.055015236139297485, -0.3091711699962616, -0.5554481744766235, -0.2537734806537628, -0.7391452193260193, 0.13336732983589172, -0.4281819760799408, 0.8966319561004639, 0.27699559926986694, -0.3781156539916992, -0.33836057782173157, 0.027300922200083733, -0.0145706282928586, 0.8867829442024231, 0.1539851576089859, -0.15543974936008453, -0.920048713684082, -0.11734911054372787, -0.035792168229818344, 0.020136820152401924, -0.5506166815757751, -0.41021397709846497, -0.18572723865509033, 0.20681273937225342, -0.30066969990730286, 1.2247512340545654, -0.00110119569581002, -0.14374496042728424, 0.16839490830898285, -0.041461896151304245, 0.11025813966989517, 0.07052677124738693, 0.5643640160560608, 1.1033657789230347, 0.04747408255934715, -0.004266716074198484, -0.07062031328678131, -0.09420863538980484, -0.03556371107697487, 0.02847430296242237, 0.43302902579307556, -0.4828568994998932, -0.11022893339395523, 0.01982983760535717, 0.101624496281147, -0.1668710857629776, 0.012441419064998627, -0.14783965051174164, 0.008073599077761173, -0.12122825533151627, 0.17132045328617096, 0.15062402188777924, 0.4527340233325958, -0.46393314003944397, 0.027070878073573112, 0.044169191271066666, -0.05819541588425636, -0.10450512170791626, 0.007706799078732729, -0.18488158285617828, -0.10593882948160172, 0.20479917526245117, -0.040951911360025406, -0.03307625278830528, -0.12522195279598236, 0.3210904896259308, 0.008887567557394505, 0.16327856481075287, 0.0625842809677124, 0.04060041531920433, -0.010334237478673458, -0.05483889952301979, 0.4188337028026581, -0.09603104740381241, -0.1799270063638687, -0.0005341469659470022, 0.005557552445679903, -0.14614972472190857, -0.10118798166513443, -0.08308316022157669, 0.20944587886333466, 0.03073507733643055, -0.14017818868160248, -0.06319750100374222, 0.15264783799648285, 0.03521301969885826, -0.1066306009888649, -0.036341097205877304, -0.8373966813087463, -0.1355072408914566, -0.009189584292471409, 0.03395301476120949, -0.083011694252491, -0.35209012031555176, -0.4527074098587036, -0.3398279845714569, 0.9900929927825928, -0.6078067421913147, -0.36254504323005676, -0.3783784806728363, -0.7964633107185364, 0.8629670143127441, -1.5849741697311401, 0.6036089062690735, 0.9582003951072693, -0.08839040249586105, 0.050038475543260574, 1.191497564315796, 0.9732474684715271, -0.10990702360868454, -0.009487821720540524, 0.6003814935684204, -1.0473289489746094, 0.04661881551146507, -0.08568310737609863, 0.11304211616516113, 1.9627782106399536, -0.08804207295179367, 0.04761069640517235, -0.2183748036623001, -0.05246269330382347, 0.06577342748641968, -0.05461782589554787, -0.3390672504901886, 1.1128885746002197, 0.036244627088308334, 0.022367777302861214, -0.24596644937992096, -0.4340372085571289, -0.12138224393129349, 0.04052659869194031, 0.13857541978359222, -0.08288061618804932, 0.005947020370513201, 0.08780526369810104, 0.1866024285554886, -0.03090509958565235, 0.03373134508728981, 0.0507921539247036, 0.19450075924396515, -0.1673436313867569, -0.07767068594694138, -0.036923523992300034, -0.13682617247104645, -0.15037627518177032, 0.05643105134367943, 0.07081330567598343, 0.06405466794967651, 0.0786256268620491, 0.08972949534654617, 0.031134309247136116, -0.03290439024567604, -0.01983112283051014, -0.05829930678009987, 0.12099314481019974, -0.07045633345842361, -0.17797471582889557, 0.0662885382771492, 0.0004832651757169515, -0.36739668250083923, -0.7501253485679626, 0.008823157288134098, -0.13200260698795319, -1.1726762056350708, -0.06892143934965134, -0.0785440132021904, -0.03683113679289818, 0.003029952524229884, -0.05121852830052376, -0.08749652653932571, 0.054068148136138916, -0.30237266421318054, -0.21261084079742432, -0.06349891424179077, 0.052328888326883316, -0.04789410158991814, 0.03583609685301781, 0.11586464196443558, 0.06590867787599564, -0.3139825463294983, -0.032978568226099014, -0.01732274703681469, -0.02205093391239643, -0.6087721586227417, -0.7727842926979065, -0.0671188235282898, -1.0887573957443237, -0.4210183620452881, -1.2262295484542847, -0.9316594004631042, -0.11561652272939682, 0.12394487112760544, -0.11310981959104538, -0.4720593988895416, 1.4467792510986328, -0.6329646706581116, -0.037265900522470474, -0.094815693795681, 0.9338762760162354, 0.03301575407385826, -0.011228769086301327, -0.022656021639704704, 1.3626700639724731, -0.028395064175128937, 0.16598378121852875, 0.11034206300973892, 0.5509447455406189, -1.5386606454849243, 0.1273728758096695, -0.2506978511810303, -1.1454064846038818, 0.22914892435073853, -0.1862940937280655, 0.05179101228713989, -1.0484830141067505, -0.8664588332176208, 0.16145958006381989, 0.16414214670658112, -0.6144782900810242, 0.05797766149044037, -0.03199523314833641, -0.12838532030582428, 0.2705693542957306, -0.2742704451084137, 0.05214915797114372, -0.008824632503092289, -0.025604501366615295, -0.26363256573677063, -0.032581329345703125, 0.006018329877406359, -0.25740864872932434, 0.05100153014063835, -0.11162269115447998, -0.12419868260622025, -0.1522054225206375, -0.23392295837402344, 0.03368157520890236, -0.07618849724531174, -0.17172624170780182, -0.016580762341618538, -0.03569639101624489, -0.040838658809661865, -0.029443800449371338, -0.32159557938575745, -0.20367462933063507, -0.16983188688755035, 0.0299834031611681, 0.3145947754383087, -0.11721957474946976, -0.03979838266968727, -0.46601390838623047, -0.1313038170337677, -0.013745962642133236, -0.09466540068387985, -1.6537119150161743, -0.3023107349872589, 0.11250508576631546, 0.0048759873025119305, 0.03828075900673866, -0.06947208940982819, -0.1875898689031601, 0.16482101380825043, 0.06695306301116943, -0.05987047776579857, 0.08895652741193771, 0.029571739956736565, 0.2283688336610794, 0.22961242496967316, -0.07479894906282425, -0.18269143998622894, -0.45340049266815186, -0.04544572904706001, 0.005354725290089846, 0.11654876917600632, -0.6463674902915955, 0.19794626533985138, -0.5485427975654602, 0.04365304112434387, 1.4099537134170532, -0.22504527866840363, 1.2500649690628052, -0.1009923592209816, -0.7789755463600159, -0.21437318623065948, 0.158436581492424, -0.21872998774051666, -0.09254633635282516, 0.10032617300748825, 0.14343570172786713, -0.024202147498726845, 0.19984741508960724, -0.09612464159727097, 0.023824915289878845, -0.5252751708030701, -1.8283101320266724, -0.069400854408741, 0.01848040707409382, -0.08933079987764359, -0.5977483987808228, 0.12156462669372559, -0.08610343188047409, -0.6255785226821899, -1.749333381652832, 0.25580474734306335, 0.08166276663541794, 0.39900776743888855, 1.0847095251083374, 0.04984932765364647, -0.034590985625982285, -0.3359856903553009, -0.5855704545974731, -0.19916830956935883, -0.10001520067453384, 0.1836249977350235, 0.19561202824115753, -0.046366576105356216, -0.0500456728041172, -0.03564715012907982, -0.3115842640399933, -0.29788824915885925, 0.09549690037965775, -0.04737009480595589, -0.20111067593097687, 0.09693937748670578, -0.04092514514923096, 0.03197294846177101, -0.0819375291466713, 0.1111065074801445, -0.05948937311768532, -0.4416976273059845, 0.13675296306610107, 0.05634940043091774, -0.008568204939365387, -0.12977024912834167, 0.1815497875213623, 0.15739382803440094, -0.06502766162157059, 0.0030633274000138044, -0.1986970752477646, -0.11519431322813034, 0.05931263789534569, 0.09513724595308304, -0.13094519078731537, 0.06684135645627975, 0.09121911972761154, -0.616022527217865, -0.25436660647392273, -0.11105190962553024, 0.016045020893216133, -0.1400803178548813, 0.020990192890167236, 0.11577450484037399, -0.23092888295650482, -0.14594140648841858, 0.19008876383304596, -0.1125805452466011, -0.10954233258962631, -0.1950167864561081, 0.09922219067811966, 0.05693495646119118, -0.030820699408650398, 0.20717261731624603, 0.2027115821838379, 0.06166971102356911, -0.03813856840133667, -0.22048966586589813, 0.0352664478123188, -0.5387277007102966, -0.12787923216819763, 1.3863335847854614, -0.39696869254112244, 1.111269235610962, -0.6173022985458374, 0.33708715438842773, 0.8615599274635315, 0.2783372104167938, -0.24852126836776733, -0.22146250307559967, -0.19693873822689056, -0.14348290860652924, -0.08220915496349335, 0.41704705357551575, -0.07111053913831711, -0.03560728207230568, -0.3740604817867279, 0.7888899445533752, 0.07629251480102539, -0.08615345507860184, -1.4246711730957031, -3.4655139446258545, 0.05588448420166969, -0.08398395776748657, 0.31272318959236145, 0.5341339111328125, -0.03819740191102028, -0.015611172653734684, -0.39906761050224304, -1.3979607820510864, -0.01060935016721487, 0.040027085691690445, -0.01711510308086872, 0.4372304379940033, -0.14289866387844086, -0.012685532681643963, 0.5328450798988342, 0.04652342200279236, 0.12810491025447845, -0.034862369298934937, 0.22410772740840912, 0.11813961714506149, 0.1303161382675171, 0.044571492820978165, 0.11353262513875961, 0.026161758229136467, 0.1036304235458374, -0.1954285055398941, 0.2877863049507141, -0.18502454459667206, 0.034518178552389145, -0.01801602728664875, -0.15979386866092682, 0.14646852016448975, 0.13300345838069916, 0.03648751601576805, -0.32407230138778687, 0.06161580607295036, -0.03836387023329735, 0.04910954460501671, 0.04125085100531578, 0.19335950911045074, 0.1909366399049759, 0.11829067021608353, -0.4197864234447479, 0.07263999432325363, -0.1653514951467514, -0.050416916608810425, 0.9854304194450378, -0.19023944437503815, 0.2539685070514679, -0.009412228129804134, -0.13402821123600006, -0.06453955918550491, -0.013631374575197697, -0.06599128991365433, -0.059771839529275894, 0.06852169334888458, -0.025461336597800255, -0.03224736824631691, 0.18442563712596893, 0.0074837300926446915, -0.026952087879180908, -0.095116026699543, -0.5363832712173462, -0.18300555646419525, -0.0206740815192461, -0.09821337461471558, -0.3363373577594757, -0.8108959197998047, -0.10355764627456665, -0.7425917983055115, -0.4842629134654999, -0.29625365138053894, -0.9381526112556458, -1.1304359436035156, 1.2936620712280273, -0.36833956837654114, -0.1882922500371933, 1.0523399114608765, -0.3045124113559723, 0.021653516218066216, 0.10454896837472916, -0.5793262720108032, -0.403410941362381, -0.0030749214347451925, 0.11514627933502197, -0.6925143599510193, -0.7972362637519836, -0.02433796226978302, 0.08104722946882248, -0.8854474425315857, 0.8642115592956543, -0.09671717137098312, 0.03763579949736595, 0.5345009565353394, -1.612042784690857, -0.00795112643390894, -0.15224049985408783, -1.6709041595458984, -0.6807604432106018, 0.11328340321779251, 0.12303899973630905, -0.3004961609840393, 0.03482511267066002, -0.05317944660782814, 0.1851034015417099, 0.2983877658843994, -0.12653003633022308, -0.0017006342532113194, 0.0407404862344265, -0.14258477091789246, 0.07530056685209274, 0.049662381410598755, -0.0043689231388270855, 0.19083164632320404, -0.042850200086832047, -0.08650445193052292, 0.1597660928964615, -0.03462402895092964, 0.2751438021659851, -0.15529464185237885, -0.05488743260502815, -0.01820252649486065, 0.0851893499493599, -0.04891562834382057, 0.00773669732734561, -0.1824156492948532, 0.18284232914447784, -0.06122398376464844, 0.10999008268117905, 0.10745132714509964, 0.10325907915830612, 0.049705151468515396, -0.02568936161696911, -0.7098312973976135, -0.4456124007701874, -0.12020159512758255, -0.013792349956929684, 0.723820686340332, -0.3739716112613678, 0.09869352728128433, -0.08400779217481613, 0.15456022322177887, -0.01530987024307251, 0.02954411506652832, -0.048555273562669754, 0.1638212352991104, -0.04932722449302673, -0.09943277388811111, -0.16592930257320404, 0.16481508314609528, -0.0529799647629261, 0.01658010296523571, 0.05725157633423805, 0.18765044212341309, 0.4244227111339569, -0.15875184535980225, -0.09927553683519363, -0.8922502994537354, -0.5784462690353394, -0.4155227243900299, 0.3147163987159729, 0.1704965978860855, -0.390900582075119, -0.7607479691505432, 1.4295579195022583, 0.5447378754615784, 0.16917289793491364, 0.45640167593955994, -0.15022847056388855, -0.04057841747999191, 0.020825950428843498, -0.06322937458753586, 0.41508832573890686, -0.2985902428627014, -0.05089486017823219, -0.27212807536125183, -0.8179890513420105, 0.28416991233825684, -0.06319583207368851, -0.10569571703672409, 0.03177044168114662, -2.5440895557403564, 0.09996425360441208, -0.028324784711003304, 0.4706321060657501, 1.181084394454956, 0.0939246341586113, -0.06119858846068382, 0.10633444786071777, -0.09226453304290771, 0.1929701715707779, 0.09250307828187943, -0.30922001600265503, 0.10978702455759048, -0.07900666445493698, -0.0842185690999031, 0.30612799525260925, -0.1445765197277069, -0.0544787235558033, -0.21634651720523834, 0.09199225157499313, -0.29629990458488464, 0.10654672235250473, -0.034522686153650284, -0.16416801512241364, -0.019451718777418137, -0.1742309182882309, -0.04848713055253029, 0.19737672805786133, 0.05100089684128761, -0.07740271836519241, 0.024795087054371834, -0.17069147527217865, 0.051311273127794266, -0.16927315294742584, 0.02253943867981434, -0.13105984032154083, -0.29752594232559204, -0.05894613638520241, -0.08373255282640457, -0.17434775829315186, -0.0011768488911911845, 0.024563757702708244, 0.08836574107408524, 0.2016158252954483, 0.1819797307252884, -0.058293577283620834, -0.03453734889626503, 0.6522104144096375, -0.5316286683082581, -0.08092664927244186, 0.10275522619485855, 0.13891293108463287, 0.22334454953670502, -0.16703177988529205, -0.15054430067539215, 0.13497474789619446, 0.04041445627808571, 0.07137929648160934, 0.025550397112965584, 0.23182815313339233, -0.08499269932508469, 0.06355762481689453, -0.11739934235811234, 0.5641468167304993, 0.24896709620952606, -0.008635184727609158, -0.05761224403977394, -0.7397118210792542, -1.038278341293335, -0.8343722224235535, -0.14212702214717865, 0.2065894454717636, -0.7206968665122986, -0.39990565180778503, 0.8120207786560059, -0.1855318397283554, -0.16149041056632996, 0.4879206418991089, 0.949766218662262, -0.17875100672245026, -0.1172260120511055, -0.015744803473353386, -0.1392764002084732, -0.7122264504432678, -0.10552114248275757, -0.08691609650850296, -0.4685411751270294, -0.8297200202941895, -0.05510539188981056, -0.0075725470669567585, -0.41874268651008606, 1.5707358121871948, 0.008551456034183502, -0.07722001522779465, 0.5513153076171875, -0.014449238777160645, -0.00937425997108221, 0.009728297591209412, -0.1288064867258072, -0.04247814416885376, 0.13772644102573395, -0.0340004600584507, -0.0645064190030098, -0.05420378968119621, 0.008471771143376827, 0.031653642654418945, 0.5394726991653442, -0.41408371925354004, 0.0404333733022213, -0.15032337605953217, -0.1902933120727539, -0.34871771931648254, 0.01735392026603222, -0.12557770311832428, 0.18886756896972656, -0.18823707103729248, 0.04150768741965294, -0.014221222139894962, 0.0011887120781466365, -0.24140651524066925, -0.32414838671684265, -0.004468776285648346, -0.41755005717277527, 0.18741370737552643, 0.11415504664182663, 0.043224576860666275, -0.2979550063610077, 0.03102445788681507, -0.05962228402495384, 0.002483081305399537, -0.1125950738787651, 0.04295507073402405, 0.0765620544552803, -0.17775119841098785, 0.43770965933799744, -0.7129854559898376, -0.08522545546293259, -0.11321187764406204, 0.8705071806907654, 0.3209531605243683, -0.04251759871840477, -0.014094485901296139, -0.013811041601002216, -0.04336922988295555, -0.14888201653957367, -0.1120070144534111, 0.16639651358127594, -0.08369136601686478, -0.06677025556564331, -0.19988034665584564, 0.24235089123249054, -0.21689961850643158, -0.003238140372559428, -0.030215950682759285, -0.04496210440993309, -0.080223448574543, 0.11526132375001907, 0.15012703835964203, -0.43087878823280334, -0.9821977615356445, -0.12088180333375931, -0.24762479960918427, -0.022494344040751457, -0.9362484812736511, -0.5279291272163391, 1.641940951347351, -1.0960729122161865, -0.8381512761116028, -0.6204448342323303, -0.4911227524280548, -0.5996763110160828, 0.005142714828252792, 0.07630287855863571, 0.669512927532196, 0.3923077881336212, -0.18305478990077972, -0.036438826471567154, 0.8175649046897888, -0.4628749191761017, -0.03567993640899658, -0.09777151793241501, -0.3452244699001312, -1.2123239040374756, 0.056746359914541245, 0.007422358263283968, -1.059353232383728, 0.5898791551589966, -0.030360130593180656, -0.1527778059244156, -1.1896885633468628, -0.48124757409095764, -0.12253021448850632, -0.11806630343198776, -0.12352312356233597, 0.13207100331783295, 0.06754957884550095, -0.026387037709355354, 0.15352000296115875, -0.7396736741065979, 0.06957293301820755, 0.13772164285182953, -0.5416406393051147, 0.32761237025260925, -0.003280788892880082, -0.019314320757985115, 0.13423632085323334, 0.06931795924901962, 0.03434637561440468, 0.19814260303974152, -0.2796812653541565, 0.4080023467540741, 0.006791815627366304, 0.056489888578653336, -0.16929243505001068, -0.10065373033285141, 0.04067626968026161, -0.0490499772131443, -0.16010652482509613, -0.18172426521778107, 0.16994322836399078, -0.03393864259123802, 0.5074672102928162, 0.12798120081424713, 0.1554257869720459, -0.01724475808441639, -0.7197503447532654, 1.2841426134109497, -0.03402212634682655, -0.04967969283461571, -0.7860803008079529, 1.1700305938720703, 0.11464548856019974, 0.015507937408983707, 0.04763926938176155, 0.1082947626709938, 0.0745050236582756, 0.11756075173616409, -0.11790931969881058, 0.1287355124950409, -0.02380754053592682, 0.023527206853032112, -0.019456708803772926, 0.09928622096776962, 0.058084066957235336, -0.08879495412111282, -0.41496750712394714, 0.15398749709129333, 0.07627075165510178, 0.11989950388669968, -0.5175783038139343, 0.016939956694841385, 0.20405133068561554, -0.44969069957733154, -0.13877324759960175, -1.3201110363006592, 0.23310019075870514, 0.8215773701667786, -0.9746582508087158, -0.25016456842422485, 1.6777318716049194, 0.010565727949142456, 0.29497116804122925, -0.06869077682495117, -0.070377878844738, -0.4947737455368042, 0.9559386372566223, -0.06744372844696045, 0.11318611353635788, -1.0026236772537231, -0.3329949676990509, 0.09862906485795975, 0.17637299001216888, 0.31154412031173706, 1.0151550769805908, -0.1448742002248764, -0.013203085400164127, 0.18004177510738373, -0.3653167188167572, 0.0023748523090034723, -0.08182109147310257, -0.8737944960594177, -0.541458010673523, 0.03270206227898598, 0.12810255587100983, -0.10462260246276855, 0.7103396058082581, 0.10673590749502182, -0.16713275015354156, 0.33931708335876465, 0.1876821666955948, 0.15726244449615479, -0.10657185316085815, 0.25461316108703613, 0.17885370552539825, 0.25931882858276367, -0.022409571334719658, 0.1410517394542694, 0.02656608633697033, -0.22808478772640228, -0.13813970983028412, 0.11333522200584412, 0.09069836884737015, -0.20377804338932037, -0.031115682795643806, -0.01748567819595337, -0.01471173670142889, 0.01224543061107397, 0.09818392246961594, -0.2906164526939392, 0.017881156876683235, 0.053027454763650894, -0.11395823210477829, 0.12164998799562454, 0.020489661023020744, -0.006205924320966005, 0.1118302270770073, -0.42381301522254944, -0.3747727572917938, 0.1683821827173233, -0.008046292699873447, 1.2540433406829834, 0.9315669536590576, -0.08637439459562302, -0.054320868104696274, 0.19561640918254852, -0.24718545377254486, 0.07295221835374832, -0.04086875542998314, 0.06535561382770538, -0.06949732452630997, -0.18820132315158844, -0.08744948357343674, -0.2999153435230255, 0.050802748650312424, -0.04277009144425392, 0.039061155170202255, 0.6205657720565796, -0.036654118448495865, 0.14674602448940277, 0.08628679066896439, -0.8464717268943787, -1.3316994905471802, 0.042326975613832474, -0.5635324716567993, -0.32050392031669617, 0.22959750890731812, -0.4631279408931732, -1.4355183839797974, -0.012675334699451923, -0.01451829168945551, -1.277287244796753, -0.9387645125389099, -0.5941449403762817, -0.05712210759520531, -0.03580251708626747, 0.6549925804138184, 1.166555404663086, 0.0875191017985344, -0.04045742750167847, 0.11137688905000687, -0.202390655875206, 0.19922290742397308, -0.031249048188328743, -0.00019436680304352194, 0.371996134519577, 0.13755618035793304, 0.01226320955902338, -0.8501082062721252, -0.3354952037334442, -0.06935817003250122, -0.007557443808764219, -0.02714812569320202, 0.3410188853740692, 0.09931129962205887, 0.11112772673368454, -0.1577841341495514, -0.46674826741218567, 0.00958242267370224, 0.11892246454954147, 0.5110073685646057, -0.10298467427492142, 0.043086711317300797, 0.06623201817274094, -0.20223195850849152, 0.4564075767993927, 0.1464918702840805, -0.09045714884996414, -0.09003966301679611, -0.10998328775167465, -0.1052548885345459, 0.1280643790960312, 0.04255485162138939, 0.15328799188137054, -0.09971440583467484, 0.010942681692540646, -0.2736911475658417, 0.2077932506799698, -0.21218760311603546, -0.1326000690460205, 0.13870874047279358, -0.05889260768890381, 0.011813230812549591, 0.008256250061094761, -0.005476805847138166, 0.14680562913417816, -0.10309409350156784, 0.020286427810788155, 0.050917740911245346, 0.3066070079803467, 0.09347396343946457, 0.12937377393245697, -0.24770401418209076, 0.4914334714412689, 0.1234201118350029, 0.2110968381166458, -0.0973663404583931, -0.22641609609127045, 0.006363064516335726, -0.031425174325704575, 0.1586603820323944, -0.04318011924624443, 0.12697027623653412, -0.039191070944070816, 0.23866795003414154, -0.13396942615509033, 0.04130008816719055, 0.007841982878744602, 0.03685302287340164, -0.5132121443748474, -0.04793975129723549, -0.06809484213590622, -0.27432459592819214, -0.3137318789958954, -0.6382127404212952, -0.26067379117012024, 0.7089762091636658, -2.2522599697113037, 0.45508190989494324, -0.08381610363721848, 0.5737495422363281, 0.577079713344574, 1.5116559267044067, -0.4949887990951538, -0.9740572571754456, 0.10878551751375198, -0.010360299609601498, -1.0787913799285889, -0.7827019691467285, -0.04685330390930176, 0.05746680125594139, -0.4643816649913788, 1.7031041383743286, 0.00977137591689825, -0.033359285444021225, -0.3087669014930725, -0.6216567754745483, 0.03256693109869957, 0.014320134185254574, 0.6222192645072937, -0.8673169016838074, -0.07117145508527756, 0.13252712786197662, -0.07508759945631027, 0.5212283134460449, -0.14590583741664886, 0.13757836818695068, -0.24674439430236816, 0.1666407585144043, -0.07479602843523026, -0.1002955511212349, 0.35045912861824036, 0.372601717710495, 0.04137193784117699, 0.1456686407327652, 0.28188636898994446, 0.9215819835662842, 0.16364695131778717, -0.10401583462953568, -0.13910351693630219, 0.029048947617411613, -0.017734887078404427, -0.0015266555128619075, 0.09978371113538742, 0.04087221249938011, 0.02068251185119152, 0.09817563742399216, -0.1365901380777359, 0.03581557050347328, -0.16491569578647614, 0.06750357896089554, -0.09756642580032349, -0.027175217866897583, -0.05424826964735985, 0.03500226512551308, 0.1305222511291504, 0.021867336705327034, -0.08931045979261398, -0.040445420891046524, -0.49347445368766785, -0.18412362039089203, 0.14069293439388275, -0.0442655123770237, 0.8692395091056824, 0.7409992814064026, -0.10241042822599411, -0.006269394885748625, -0.05538016930222511, 0.17646761238574982, 0.04470222815871239, -0.1463235765695572, 0.13955150544643402, -0.004061116371303797, 0.057544413954019547, 0.05425209179520607, 0.01182285975664854, 0.1548660844564438, 0.023421308025717735, -0.05700397863984108, 0.35612964630126953, -0.12469493597745895, -0.014617742039263248, 0.0008837691857479513, -0.48378482460975647, -0.8850539326667786, -0.10638817399740219, -0.29178956151008606, -0.20871154963970184, -0.7018213272094727, -1.0906933546066284, 0.038518015295267105, 0.14972195029258728, 0.5324693322181702, -0.34819790720939636, 0.06936488300561905, 0.8237543702125549, -0.007133484352380037, -0.02082495577633381, -0.6617473363876343, 0.1941470354795456, 0.036157965660095215, -0.029286207631230354, -0.48349204659461975, 0.7026523947715759, -0.08512835949659348, -0.032888296991586685, -1.1079866886138916, -2.364058017730713, -0.07744825631380081, 0.1578352302312851, 0.2686522603034973, -0.733067512512207, 0.15290497243404388, -0.032802581787109375, 1.0555212497711182, 0.41293004155158997, 0.07267718762159348, 0.022763481363654137, -0.2486901879310608, 0.26948681473731995, 0.01585678569972515, 0.02361549623310566, 0.10383540391921997, -0.49343106150627136, 0.1494779735803604, -0.0024988094810396433, 0.40796324610710144, 0.16642214357852936, -0.1397320181131363, -0.0769110843539238, -0.10499287396669388, 0.2063751369714737, -0.23906992375850677, 0.04082822427153587, 0.17438413202762604, 0.09373562783002853, -0.01840054802596569, 0.01026295218616724, -0.008625461719930172, -0.024104997515678406, -0.122726209461689, -0.040318697690963745, 0.07703805714845657, 0.1488947719335556, 0.08661692589521408, -0.0194022785872221, 0.009010456502437592, -0.07442719489336014, -0.061771687120199203, -0.020465178415179253, -0.1807098388671875, -0.7039974331855774, -0.039242297410964966, -0.07674026489257812, 0.7201518416404724, 0.7672900557518005, 0.16251827776432037, -0.02096649818122387, -0.06980405747890472, 0.21172404289245605, 0.10663978010416031, -0.06027478352189064, 0.06884445250034332, 0.15763244032859802, -0.03907480463385582, -0.038454439491033554, 0.3040640652179718, -0.04435417056083679, 0.1691199690103531, 0.07920139282941818, 1.018696665763855, -0.2794143557548523, 0.08643073588609695, 0.2534187138080597, -0.13342715799808502, -0.6039047837257385, -0.09498881548643112, -0.8301531672477722, -0.49147316813468933, -1.0853135585784912, -0.6689863801002502, 0.8744773268699646, -1.7987898588180542, 0.25947684049606323, -0.3179333508014679, 0.8148479461669922, -0.016258930787444115, -0.016196860000491142, -0.0778377577662468, -0.06476647406816483, -0.9432736039161682, -0.141569122672081, 0.17366303503513336, 0.05482381954789162, 0.09212078899145126, 0.11726868897676468, -0.021090475842356682, -0.9718301296234131, -4.5128068923950195, -0.051936596632003784, 0.047758836299180984, 0.12382293492555618, -0.6884984374046326, -0.042949140071868896, -0.004871372599154711, -0.5259296298027039, -0.5490050911903381, -0.004038159269839525, 0.02513122372329235, -0.001414593425579369, 0.49014711380004883, -0.043817102909088135, -0.07988745719194412, -0.057456210255622864, 0.739412248134613, 0.1542212814092636, 0.08389674872159958, -0.12454723566770554, 0.20434258878231049, -0.14647819101810455, -0.047181129455566406, 0.06888358294963837, 0.12148646265268326, -0.17231382429599762, -0.028615204617381096, -0.29996684193611145, -0.7005519270896912, -0.07036226987838745, -0.05114622786641121, 0.006731738802045584, -0.33921244740486145, 0.03407416120171547, 0.07650161534547806, -0.1218942403793335, 0.10602601617574692, -0.01607385091483593, 0.04324302077293396, -0.08779549598693848, -0.14301443099975586, 0.051180656999349594, -0.017359478399157524, 0.4727534055709839, 0.9493827223777771, -0.2089570313692093, -0.17097578942775726, -0.5797834992408752, -0.8119907975196838, -0.003037605667486787, -0.06340908259153366, -0.17706571519374847, 0.32581084966659546, 0.01365473959594965, 0.04066360369324684, 0.10974036902189255, 0.0891624167561531, 0.2605307400226593, 0.08472888916730881, 0.01953813247382641, 0.146654412150383, 0.06325513869524002, 0.07607489079236984, -0.0069373599253594875, 0.5917004942893982, -0.08106838911771774, -0.037995364516973495, -0.31183725595474243, -0.21221019327640533, 0.1314367800951004, -0.03294893354177475, -0.32489320635795593, 0.10884135961532593, -0.6059704422950745, 0.19417650997638702, -1.6177682876586914, -0.3042021691799164, -0.2619550824165344, -0.45761582255363464, -0.2678050994873047, -0.009721650741994381, 0.11971903592348099, -0.05827522650361061, -0.32815787196159363, 0.04130852594971657, 0.16372333467006683, 0.48989102244377136, 0.2711401581764221, -0.059925492852926254, -0.007702223490923643, 0.33173710107803345, -2.519308567047119, -0.19035299122333527, -0.0005050330073572695, -0.019962714985013008, -0.7639026045799255, -0.07413864880800247, 0.05448170378804207, 0.2613190710544586, -1.1473599672317505, -0.06578058749437332, 0.15726135671138763, -0.0348045751452446, 0.5257033705711365, -0.041626427322626114, 0.1370248645544052, 0.21804474294185638, -0.3099561333656311, -0.1869213730096817, 0.003691621357575059, -0.06829728186130524, -0.18333245813846588, 0.08828186243772507, 0.06536292284727097, -0.028063984587788582, 0.04728410020470619, 0.00910241063684225, 0.037648025900125504, 0.13918092846870422, -0.1689133644104004, -0.10997732728719711, 0.06770651787519455, -0.027220794931054115, -0.23433591425418854, -0.02756415866315365, -0.02979552559554577, 0.2659614384174347, 0.021002979949116707, -0.019099516794085503, -0.14100433886051178, 0.1930244117975235, 0.16499851644039154, 0.08183717727661133, 0.03864011541008949, 0.08268188685178757, 0.06742812693119049, 0.15414023399353027, -0.054581183940172195, 0.44755128026008606, 0.44985947012901306, -0.16516266763210297, -0.03714781627058983, -0.05961074307560921, 0.09503012150526047, 0.11805523186922073, 0.21334974467754364, 0.0476018451154232, -0.005237821023911238, 0.13011611998081207, 0.006731211673468351, 0.06296796351671219, -0.1399320513010025, 0.005991071928292513, -0.10566719621419907, 0.35922375321388245, 0.1315784454345703, -0.028506668284535408, -0.0464060939848423, -0.23043012619018555, -0.44342848658561707, 0.08674746006727219, -0.6574774384498596, 0.15675029158592224, -2.2363533973693848, 1.315205454826355, -0.08717405796051025, 1.5850909948349, -1.285900354385376, 0.6859745383262634, -0.2539112865924835, 0.4535084068775177, -0.016796065494418144, 0.11693810671567917, -0.36135199666023254, -0.07894272357225418, 0.08752978593111038, -0.06001550331711769, 0.5432900786399841, 0.7061419486999512, -0.07759963721036911, 0.1125718280673027, 0.5806206464767456, 1.085934042930603, -0.01589830219745636, -0.015185819007456303, 0.2979997992515564, 0.10744106024503708, -0.03172164782881737, -0.028383703902363777, -0.07630492746829987, 0.40695860981941223, 0.09254641085863113, 0.11710036545991898, -0.13997267186641693, -0.024435726925730705, -0.1289069503545761, -0.05699080601334572, 0.3719867765903473, -0.18048930168151855, 0.09531134366989136, 0.009657458402216434, 0.6679758429527283, -0.1893141120672226, -0.04627200961112976, -0.06401295214891434, 0.06897497922182083, 0.08480118960142136, 0.014548183418810368, 0.06521088629961014, 0.0021838790271431208, 0.4200838506221771, 0.05295063927769661, -0.18791399896144867, -0.2481222301721573, 0.05355038121342659, -0.07589703053236008, -0.23233984410762787, 0.07950003445148468, -0.09065382927656174, 0.013051189482212067, 0.017172707244753838, -0.2895486652851105, -0.16165731847286224, -0.06540578603744507, 0.14030112326145172, -0.44552281498908997, -1.247651219367981, 0.0685994029045105, -0.20642401278018951, 0.03947198763489723, -0.11910582333803177, 0.12600289285182953, 0.07557707279920578, 0.5598778128623962, -0.09865039587020874, -0.07815677672624588, 0.012371166609227657, -0.03584841638803482, 0.21239113807678223, -0.015630796551704407, 0.018014563247561455, 0.0874975323677063, -0.013387887738645077, 0.13507018983364105, -0.03158664330840111, -0.2790982127189636, 0.42328259348869324, 0.048859357833862305, 0.024745849892497063, -0.024843009188771248, -0.07065869122743607, -0.8528376221656799, -0.20745445787906647, 0.7231948971748352, -2.9046382904052734, 0.27475211024284363, 1.0250989198684692, 0.7611952424049377, -1.0097075700759888, -0.9663236141204834, 0.044430848211050034, -0.03727360814809799, -0.09019274264574051, 0.05143028125166893, -0.5197256207466125, 0.028602661564946175, -0.17148806154727936, -0.1583385318517685, -0.21336720883846283, -0.03943067044019699, 0.026323048397898674, 0.05626409873366356, 0.35349658131599426, -0.31776162981987, -0.1468270868062973, -0.3175030052661896, 0.18567518889904022, -0.10559786111116409, 0.06864231079816818, 0.0015984439523890615, -0.23690365254878998, 0.7599595189094543, 0.030687006190419197, -0.15689480304718018, -0.3756760060787201, 0.21500279009342194, -0.016235409304499626, -0.06955147534608841, 0.13748714327812195, -0.05302270129323006, -0.0613555945456028, -0.05627649649977684, 0.04719667509198189, -0.6785692572593689, 0.004595537204295397, -0.01637631468474865, 0.031895630061626434, 0.10564905405044556, -0.02828165888786316, 0.0530448853969574, 0.2037888765335083, 0.5350590944290161, 0.05397183075547218, -0.09116362780332565, -0.1772765964269638, -0.015139938332140446, -0.07746874541044235, -0.015817761421203613, -0.22417838871479034, -0.16629500687122345, -0.060794051736593246, -0.10559912770986557, -0.19499380886554718, -0.020001770928502083, -0.06554866582155228, -0.028486790135502815, -0.14967034757137299, -0.15628251433372498, -0.12412870675325394, 0.1708761304616928, 1.783025860786438, -0.161039337515831, -0.07402003556489944, -0.13206113874912262, -0.03822166100144386, 0.26564666628837585, 0.023026734590530396, -0.1666739135980606, 0.04390832409262657, -0.13331066071987152, 0.06556594371795654, -0.16019009053707123, -0.009918120689690113, -0.06060244143009186, -0.003095779800787568, -0.07055496424436569, 0.1069784089922905, -0.29665133357048035, 0.1287604570388794, -0.06789892166852951, -1.093938946723938, -0.709014356136322, -0.8832820057868958, 0.9597075581550598, 1.3891428709030151, 0.7065110206604004, 0.13536572456359863, -1.7129961252212524, 1.5131117105484009, 1.2819701433181763, -0.1889815777540207, 0.8897297382354736, -0.4198794662952423, 0.09089911729097366, 0.06331849843263626, 0.6161836981773376, -0.5360516905784607, 0.0679125115275383, -0.042190227657556534, 0.39258480072021484, 0.014446561224758625, 0.26744702458381653, -0.1448131948709488, 0.5897818207740784, 1.08214271068573, -0.21865485608577728, 0.10449372977018356, -0.5363789796829224, -0.34676769375801086, 0.09011440724134445, 0.05373571440577507, 0.21284176409244537, 1.1383916139602661, -0.08334123343229294, -0.0818680003285408, -0.8029254078865051, -0.5029734969139099, -0.05592268332839012, 0.014849320985376835, 0.4854383170604706, 0.7090328335762024, 0.10451213270425797, -0.002495661610737443, -0.16921591758728027, 0.1095665767788887, 0.008209005929529667, 0.028608767315745354, 0.10768762975931168, -0.03044300340116024, -0.026682129129767418, -0.08194787055253983, 0.4197063744068146, -0.5925788283348083, -0.1332259327173233, 0.05974293127655983, -0.4379335939884186, -0.038536254316568375, -0.0051424247212708, 0.03372824564576149, -0.03345721215009689, -0.4275566637516022, 0.007451504468917847, -0.262653112411499, -0.09400438517332077, 0.054078202694654465, 0.031197072938084602, -0.012592076323926449, 0.6097959280014038, 0.5040683150291443, 0.035327162593603134, 0.15505529940128326, -0.16312727332115173, 0.4449915885925293, -0.09154785424470901, -0.0709155723452568, 0.1141984835267067, 0.12455721944570541, 0.03404083847999573, 0.01639709062874317, 0.13562215864658356, -0.05828321352601051, 0.08384030312299728, 0.07393728941679001, 0.06694172322750092, -0.10879694670438766, 0.049438294023275375, -0.04841810464859009, -0.291942298412323, 0.1580960750579834, 0.1022641733288765, 0.11810076236724854, -0.7886978983879089, -0.3262222111225128, -1.1303213834762573, 0.4067216217517853, 1.7536793947219849, 0.023047683760523796, 1.597103238105774, -0.3646208941936493, -0.07249455899000168, 0.8636721968650818, -0.6538755297660828, -0.42328640818595886, 0.58303302526474, -0.024047093465924263, -0.1655319780111313, -0.699720561504364, 1.0134583711624146, 0.19351612031459808, -0.032901111990213394, -1.2721138000488281, 0.05245322361588478, 0.05442607030272484, -0.2201298028230667, -0.38949236273765564, 1.3086527585983276, -0.09618956595659256, 0.007787651848047972, 0.484061598777771, 0.24069267511367798, -0.0648421123623848, -0.0543876476585865, -0.5203877091407776, -1.272236704826355, -0.16134296357631683, -0.1401662677526474, -0.5016360282897949, -0.8773406147956848, -0.04546952620148659, -0.12077093869447708, 0.15640045702457428, -0.2364652007818222, -0.057541076093912125, -0.04312402382493019, -0.2232150286436081, -0.6770457625389099, -0.03257259353995323, -0.032118674367666245, 0.09149199724197388, -0.21038316190242767, -0.017330018803477287, 0.08630108088254929, -0.1948305368423462, 0.07306747883558273, 0.035285834223032, -0.13485504686832428, -0.07002132385969162, 0.26835396885871887, -0.01306713093072176, -0.04023275151848793, -0.15786626935005188, 0.19748497009277344, -0.17382502555847168, 0.050940338522195816, -0.14418338239192963, 0.09965986013412476, -0.030745090916752815, 0.027954397723078728, -0.48517414927482605, 0.26257601380348206, -0.0028925274964421988, 0.1918332725763321, 0.8426933884620667, 0.9285344481468201, -0.00430624233558774, 0.011752613820135593, -0.04239356145262718, -0.07922853529453278, -0.09126881510019302, -0.13095401227474213, 0.08619773387908936, -0.015421842224895954, 0.01009669154882431, 0.12100886553525925, -0.08434169739484787, -0.1548449993133545, 0.08894329518079758, 0.10283494740724564, -0.2608664035797119, -0.047010358422994614, 2.324898559891153e-05, -0.03245663270354271, 0.01199450995773077, 0.07011807709932327, -0.21815650165081024, -0.5738998651504517, 1.1767007112503052, -0.5134763121604919, -0.08509356528520584, 1.9774152040481567, 0.38042378425598145, -0.8086382746696472, 0.5060258507728577, -0.5952309966087341, 1.0706617832183838, -0.09388328343629837, -0.00830789003521204, 1.081852912902832, 0.7023034691810608, 0.12860356271266937, -0.1601743847131729, 0.8105509877204895, 0.5820361375808716, 0.15321362018585205, 0.16327954828739166, -0.10112834721803665, 0.9488106369972229, 0.047529954463243484, 0.052687257528305054, -0.891368567943573, 0.6492534279823303, -0.02073344588279724, 0.007095799315720797, 0.7789632678031921, 1.4758654832839966, -0.0603935681283474, 0.05766826495528221, -0.21819232404232025, 0.11724236607551575, 0.07821010798215866, -0.041115760803222656, 0.4494434595108032, 0.5804874300956726, 0.1113283708691597, 0.030708668753504753, 0.4117046892642975, 0.005904868245124817, 0.17686568200588226, -0.051697988063097, -0.2979872524738312, 0.03439132124185562, 0.019193366169929504, 0.09103135019540787, 0.018003640696406364, -0.07036872208118439, 0.09153687208890915, 0.021689398214221, 0.03390059247612953, 0.07517624646425247, -0.07111699134111404, 0.11914645880460739, 0.06535022705793381, -0.46065565943717957, -0.017411602661013603, -0.0638284757733345, -0.10641606897115707, -0.10340487211942673, -0.01654835045337677, -0.10400839895009995, 0.41535332798957825, 0.15711499750614166, -0.30258414149284363, -0.023877831175923347, -0.9560461044311523, -0.022953154519200325, 0.04097112640738487, 0.02844536118209362, -0.04313698410987854, -0.07245386391878128, -0.08366287499666214, -0.08527208119630814, 0.22432614862918854, 0.29767462611198425, -0.04583001509308815, -0.10794151574373245, 0.2774837613105774, 0.14758528769016266, 0.0011421533999964595, 0.08482814580202103, -0.2931664288043976, -0.07100219279527664, 0.07286275178194046, -0.030594350770115852, -0.2109823375940323, 0.02240302599966526, -0.5273986458778381, -0.6235851049423218, 0.7246755957603455, -0.6447896361351013, 0.4004693329334259, 1.1062071323394775, 0.034750308841466904, 0.2511644661426544, 0.006968875881284475, -0.08590716868638992, 1.2444994449615479, 0.014445574022829533, 0.08295946568250656, -0.8031193614006042, -0.8676289916038513, 0.029869137331843376, -0.12410377711057663, -0.36968517303466797, -0.8329229950904846, -0.015028326772153378, 0.03860974684357643, -0.269290953874588, -1.724105954170227, 0.01734064519405365, -0.13968072831630707, -0.01603197678923607, 0.5923362970352173, 0.0761365294456482, -0.14612840116024017, 0.3045874238014221, 0.6920103430747986, -0.02508898638188839, 0.06222456693649292, -0.6640383005142212, -0.8151616454124451, -0.025919614359736443, -0.0798112228512764, 0.05150448903441429, 0.15844181180000305, 0.02627474255859852, -0.06232959404587746, 0.12574754655361176, 0.0636536031961441, -0.03652358055114746, -0.034891992807388306, -0.20102094113826752, -0.07586394250392914, 0.012862100265920162, 0.017210813239216805, -0.13006903231143951, -0.10827597230672836, 0.012581001035869122, -0.11606382578611374, -0.11588836461305618, -0.3001880943775177, 0.08480750769376755, -0.021305324509739876, -0.36228856444358826, -0.051643434911966324, 0.05166101083159447, -0.10622671991586685, 0.1740713268518448, -0.08528047055006027, -0.09553223103284836, -0.13185594975948334, -0.037366900593042374, -1.1083523035049438, -0.08804202824831009, -0.003247905522584915, -0.06941820681095123, -1.1518393754959106, -0.030116764828562737, 0.16522561013698578, -0.16294744610786438, -0.214156374335289, 0.054057877510786057, 0.023923994973301888, 0.06615310162305832, -0.031355615705251694, 0.007749289274215698, 0.06529945880174637, -0.09827757626771927, 0.37780287861824036, 0.022922327741980553, -0.03407967463135719, 0.04714858904480934, -0.8782269358634949, 0.09230073541402817, 0.003610484069213271, 0.043738093227148056, -0.1552427113056183, -0.21239478886127472, -0.768962562084198, -0.08528662472963333, -1.2167627811431885, -0.8470080494880676, 0.21776588261127472, 0.12484920024871826, -0.3787045180797577, 0.4596690833568573, -0.27912041544914246, -0.260932981967926, 0.04824038967490196, -0.13612782955169678, -0.9461964964866638, 1.0034607648849487, 0.041936036199331284, 0.09282571822404861, -0.22324155271053314, -0.7985108494758606, -0.1277930587530136, -0.10713183134794235, -0.08419964462518692, -1.2123680114746094, 0.02247944287955761, 0.07316791266202927, 0.5284628868103027, 0.9982756972312927, -0.10120128840208054, -0.09100223332643509, -0.4782414138317108, 0.011991753242909908, 0.11805307120084763, -0.0740974023938179, -0.25519701838493347, 0.45346084237098694, -0.05221803858876228, -0.0216319989413023, 0.2808196246623993, -0.36445125937461853, -0.03061121515929699, -0.12721478939056396, 0.2651360034942627, -0.25540921092033386, -0.11367107182741165, -0.1452871412038803, 0.07558458298444748, -0.2849138081073761, 0.017802150920033455, 0.07956648617982864, 0.19603656232357025, 0.557138979434967, -0.2626676857471466, 0.13218629360198975, -0.2674413025379181, 0.2723839581012726, -0.15548394620418549, 0.021890850737690926, 0.1351323127746582, 0.1150447204709053, 0.052060846239328384, -0.03179151192307472, -0.08413612097501755, -0.10172025114297867, 0.045334067195653915, -0.01773384027183056, -0.9761505722999573, 0.8245261311531067, 0.10465217381715775, 0.0651666596531868, 0.9337975382804871, 0.5694988965988159, 0.030607251450419426, 0.03999850153923035, 0.31209614872932434, 0.14198218286037445, 0.18753354251384735, 0.21902339160442352, -0.10513459891080856, 0.22576601803302765, 0.08146416395902634, 0.09636711329221725, 0.21978403627872467, -0.060532744973897934, 0.06417394429445267, -0.03877655044198036, 0.4113132953643799, 0.3809375464916229, 0.049146294593811035, -0.05338221415877342, -0.8254305720329285, -1.1341716051101685, -0.7624768614768982, -0.01434359047561884, 1.1881088018417358, -0.22520345449447632, -0.08833985775709152, -0.30338186025619507, 0.589001476764679, -0.2126004695892334, -0.9244353175163269, -0.924282968044281, -0.27015212178230286, 0.19497846066951752, 0.04973375424742699, -0.14143706858158112, -0.6412147879600525, 0.14411891996860504, -0.051949139684438705, -0.341423898935318, 0.42011359333992004, 0.07776237279176712, 0.12112545222043991, -0.021897954866290092, -0.5659871697425842, 0.09356153756380081, -0.15762756764888763, 1.4069918394088745, 0.19012582302093506, -0.004656679462641478, 0.03358691558241844, -0.18144120275974274, -0.08656298369169235, 0.027453510090708733, 0.015853077173233032, -0.5455223321914673, -0.49104800820350647, 0.14986014366149902, 0.08515555411577225, 0.22952105104923248, 0.35387858748435974, -0.05576949939131737, 0.017385033890604973, -0.210531547665596, 0.2662859559059143, -0.07088781148195267, -0.0039249020628631115, 0.2870199382305145, -0.0700330138206482, 0.11696731299161911, -0.014731018804013729, 0.061819493770599365, 0.12015083432197571, 0.16183270514011383, 0.22993327677249908, -0.1622004359960556, 0.13994131982326508, 0.10361260175704956, 0.09469616413116455, -0.0301698949187994, -0.16881895065307617, -0.022614924237132072, 0.041739046573638916, 0.04757678881287575, 0.1617489904165268, 0.2300727516412735, 0.026597799733281136, 0.6444824934005737, -0.037341006100177765, -0.24182511866092682, 0.06640952080488205, 0.2991701066493988, -0.7143417000770569, -0.1456402689218521, 0.14726565778255463, 0.08866380900144577, 0.10680056363344193, 0.06590235233306885, -0.1817786693572998, -0.005693081300705671, -0.08908354490995407, -0.06002431735396385, -0.10889948159456253, -0.11024297028779984, -0.09171964973211288, 0.02455832250416279, -0.033049020916223526, 0.16228236258029938, -0.20629875361919403, 0.00331304338760674, 0.17353476583957672, 0.18725977838039398, 0.3518991768360138, -1.645696759223938, -0.9053690433502197, 1.803665041923523, -0.3319758474826813, 1.125908613204956, -0.9658192992210388, -1.336971640586853, 0.976504385471344, -0.09242620319128036, 0.20517928898334503, 0.5589991211891174, 0.13081955909729004, -0.1214294359087944, -0.3855297565460205, -0.96140456199646, 0.03433706983923912, -0.09796971082687378, -0.21457989513874054, 0.7539383769035339, -0.047416504472494125, -0.029680849984288216, -0.7965171933174133, -1.7141599655151367, 0.04655647650361061, 0.09901725500822067, -0.4955843687057495, -0.3835146129131317, -0.06884574145078659, -0.12105380743741989, -0.07723356038331985, 1.4704469442367554, -0.0407729409635067, -0.00038321243482641876, -0.0026694892439991236, -0.6005191206932068, -0.047818783670663834, -0.11856435984373093, 0.4584212601184845, -0.14030970633029938, -0.05911719426512718, -0.15145792067050934, 0.2774600684642792, -0.2655385136604309, 0.05284718796610832, -0.010836624540388584, -0.13617298007011414, 0.027254560962319374, -0.2059604972600937, -0.0426592193543911, 0.4339304268360138, 0.23329538106918335, -0.1890791654586792, 0.010099953971803188, -0.17147745192050934, -0.06862079352140427, -0.15811361372470856, 0.16296790540218353, -0.1348443180322647, 0.10827565938234329, -0.06652366369962692, -0.19335509836673737, 0.06617284566164017, 0.26114746928215027, -0.1143794134259224, 0.07487993687391281, -0.40143778920173645, 0.7719019055366516, -0.007104948628693819, 0.05958915129303932, 0.4437384307384491, -0.7314615249633789, -0.06442684680223465, -0.13179360330104828, 0.3196553885936737, -0.02683512307703495, -0.06521666795015335, -0.014690234325826168, 0.20709751546382904, 0.1177360936999321, 0.04969213530421257, 0.038548585027456284, 0.04376703128218651, 0.030299296602606773, 0.09529817849397659, 0.0131836524233222, 0.3585377037525177, 0.640340268611908, -0.14769281446933746, -0.08010012656450272, 0.19497273862361908, 0.18808673322200775, -1.2539007663726807, 0.11793103814125061, 1.265891194343567, -0.11568903923034668, -0.403693825006485, -0.39639902114868164, 0.5792974829673767, 1.1693609952926636, 0.09297702461481094, -0.2261352688074112, -0.1723039299249649, -0.17829644680023193, 0.08439557999372482, 0.14162001013755798, 0.5503402948379517, -0.017755167558789253, 0.036899689584970474, 0.8560571074485779, 1.0503100156784058, 0.04554593190550804, 0.08712594956159592, -0.024834217503666878, -0.3187384009361267, 0.11319755762815475, -0.032284826040267944, 0.004485559184104204, 0.4110870659351349, 0.21137405931949615, 0.11418401449918747, -0.4333352744579315, -0.2454281449317932, -0.04765939339995384, 0.10557008534669876, -0.07471723854541779, -0.010181753896176815, -0.025815604254603386, 0.06115543469786644, 0.15472659468650818, 0.44010594487190247, -0.031085757538676262, -0.1384107917547226, -0.4915981590747833, -0.45020148158073425, -0.14976142346858978, 0.056424979120492935, 0.03054436296224594, 0.04790261387825012, 0.033485982567071915, -0.1502460390329361, 0.06862884014844894, 0.20775364339351654, 0.1335301250219345, 0.014908910728991032, -0.07622206211090088, -0.04708253964781761, 0.20093758404254913, 0.05057955160737038, -0.14659784734249115, -0.006767260376363993, -0.11452723294496536, -0.24125291407108307, -0.07048916071653366, 0.23542283475399017, -0.13334251940250397, -0.033026184886693954, 0.2876538634300232, 0.6261935830116272, -0.0010970236035063863, -0.0733189582824707, -0.4891775846481323, -0.2174319475889206, 0.043633464723825455, -0.04849868640303612, -0.049029529094696045, 0.020103788003325462, -0.01790734939277172, -0.03623137250542641, -0.005706189665943384, -0.10799940675497055, -0.023257343098521233, 0.0903472825884819, 0.3079471290111542, -0.1430102437734604, -0.07341199368238449, -0.19083689153194427, -0.5064693093299866, -0.32781335711479187, -0.1826944202184677, -0.08240478485822678, -0.464089035987854, -0.33491066098213196, -0.9098349213600159, 0.09930043667554855, 1.0637413263320923, -1.3871527910232544, 0.7860258221626282, -0.22688047587871552, 0.08836688846349716, -0.8913088440895081, -1.9186687469482422, 0.18928150832653046, 0.693363606929779, 0.00169896159786731, -0.03471210226416588, 0.9698134064674377, 0.8624630570411682, -0.029069481417536736, 0.002784360432997346, 0.5388622879981995, -0.23126761615276337, 0.04386991634964943, 0.10298391431570053, 0.7990393042564392, 2.184095621109009, -0.10827385634183884, 0.14516876637935638, 0.01581205241382122, 0.6850833892822266, -0.013008837588131428, -0.10242296010255814, -0.9172154068946838, -1.3414316177368164, -0.08293665200471878, 0.09388024359941483, -0.1983782798051834, 0.6428531408309937, -0.007782131899148226, 0.007937498390674591, -0.011593635194003582, 0.2008817046880722, -0.00010622156696626917, -0.16236914694309235, -0.07097811251878738, -0.2521417438983917, -0.10878299921751022, -0.09362857788801193, 0.18951411545276642, -0.20068462193012238, 0.0949072316288948, 0.10437833517789841, 0.507422924041748, -0.008371406234800816, 0.15902866423130035, 0.13603518903255463, 0.3896881639957428, 0.03183537349104881, 0.0796877071261406, -0.08904921263456345, 0.22826264798641205, -0.27658170461654663, 0.21675293147563934, 0.09122283011674881, -0.2392134815454483, -0.06422042101621628, 0.13078393042087555, -0.03142014518380165, -0.0032823418732732534, 0.47726523876190186, 0.07086055725812912, 0.09008937329053879, -0.20701074600219727, 0.3192307651042938, -0.007707260083407164, -0.050667162984609604, -0.004682050086557865, -0.08772213011980057, 0.05124134197831154, 0.026920495554804802, -0.11686041951179504, 0.11274313926696777, 0.019740508869290352, -0.0038327460642904043, -0.11377238482236862, -0.2517527937889099, 0.15763328969478607, -0.1840944141149521, 0.39577794075012207, -8.559104026062414e-05, 0.03892925754189491, -0.031515564769506454, -1.0362972021102905, -0.377908855676651, -0.18123078346252441, -0.3322313129901886, -0.09879942983388901, 0.15510843694210052, -0.2928510010242462, -0.5588589906692505, -0.3927778899669647, 0.6982926726341248, -1.4730671644210815, -0.7122120261192322, 0.2341463416814804, 0.040516648441553116, 0.15922237932682037, 1.0375937223434448, 0.32238298654556274, -0.08612339943647385, -0.11707329005002975, 0.10335167497396469, 0.5682149529457092, 0.08864491432905197, 0.08885074406862259, -0.31401389837265015, -3.087890863418579, 0.05105409026145935, 0.042873021215200424, 0.26641061902046204, -1.373896598815918, -0.050248030573129654, -0.07336414605379105, 0.154422789812088, 0.20511652529239655, 0.017735691741108894, 0.0064491406083106995, -0.24530528485774994, 0.02549552731215954, -0.037711288779973984, 0.2219877988100052, 0.46303048729896545, -0.5717106461524963, 0.0815247893333435, 0.12025748938322067, -0.2983340919017792, -0.007971030659973621, 0.03787088766694069, 0.1819029003381729, -0.4167703092098236, 0.26154428720474243, 0.14128781855106354, -0.18110929429531097, 0.3463306128978729, 0.27393266558647156, 0.05511299893260002, 0.08163375407457352, 0.15268494188785553, -0.1842658668756485, 0.17122767865657806, 0.14391686022281647, -0.10445690900087357, 0.007733478676527739, -0.09212541580200195, 0.034613728523254395, 0.3036709129810333, 0.04218927398324013, 0.016238687559962273, 0.11988628655672073, -0.5876806378364563, -0.2508867084980011, -0.016629638150334358, -0.048570748418569565, -0.0006705629057250917, 1.0409200191497803, -0.12465346604585648, -0.2703259289264679, 0.08984098583459854, 0.05797066166996956, -0.0791279748082161, 0.08063901215791702, 0.11498114466667175, 0.04715655371546745, 0.07144313305616379, -0.22908638417720795, -0.30040305852890015, 0.3489067256450653, 0.037181880325078964, 0.04036391153931618, 0.26471832394599915, -0.08816241472959518, -0.059825245290994644, -0.007963673211634159, -0.34528660774230957, -0.6400290727615356, -0.5186244249343872, 0.05104195699095726, 0.3829779326915741, -0.21305148303508759, 0.2112271636724472, -0.9504016041755676, -1.174079179763794, 0.5050165057182312, 0.05141517519950867, 0.6407848000526428, -0.087283194065094, -0.11247610300779343, -0.14689947664737701, 0.6482325792312622, -0.7076370120048523, -0.011846770532429218, 0.03025391884148121, 0.19392482936382294, -0.32686540484428406, 0.009384565986692905, -0.1344233751296997, -0.10605434328317642, 0.6256465315818787, -0.008501545526087284, -0.1113276407122612, -0.6974828839302063, -1.1630895137786865, -0.060293253511190414, 0.05094237998127937, -1.5091263055801392, -0.4805183708667755, -0.10206929594278336, 0.11223388463258743, -0.08400928229093552, -0.08032011985778809, 0.046730998903512955, 0.27208277583122253, 0.5134586691856384, -0.326904833316803, -0.002981379861012101, -0.07960175722837448, -0.08810066431760788, 0.29315072298049927, -0.060429688543081284, -0.1124565526843071, 0.06803779304027557, 0.03502258285880089, -0.12319327145814896, -0.028746934607625008, 0.07902520149946213, 0.19005002081394196, 0.1698930412530899, -0.003677166998386383, 0.26664280891418457, 0.14821314811706543, 0.008326648734509945, -0.024807320907711983, -0.3054029941558838, -0.010055897757411003, 0.06986498832702637, 0.0025564671959728003, -0.1459718942642212, -0.34833860397338867, -0.038224514573812485, 0.07356245070695877, 0.1359422504901886, -0.02825918048620224, -0.04347359761595726, 0.17556177079677582, -0.2043582648038864, 0.013032354414463043, -0.03808712586760521, -0.049068327993154526, 0.08881586045026779, -0.01864350028336048, -0.10700289160013199, -0.029054103419184685, -0.16900567710399628, -0.2136366218328476, -0.05808765068650246, 0.17225457727909088, 0.08538522571325302, 0.22142864763736725, -0.07858813554048538, -0.00039758006460033357, -0.14134477078914642, 0.38867881894111633, -0.006259602960199118, 0.008358330465853214, -1.1495739221572876, -1.1235474348068237, -0.1733628511428833, -0.6660408973693848, -0.7397841811180115, -1.2507869005203247, -0.7152729630470276, -0.8260078430175781, 0.22058868408203125, 0.487216591835022, -1.176330327987671, 0.545465350151062, 1.146988868713379, -0.09773784130811691, -0.005485608708113432, -0.3829176425933838, -0.21859534084796906, 0.03600630536675453, -0.005223665852099657, 0.13820119202136993, 0.49154457449913025, 0.0009981811745092273, -0.16979168355464935, -0.5850354433059692, 1.9192498922348022, -0.10630909353494644, -0.027078690007328987, -0.01943563111126423, -1.28519606590271, -0.09675867110490799, -0.009376264177262783, -0.4480576515197754, -1.2271736860275269, -0.1376476138830185, -0.04082870110869408, -0.6331586241722107, -0.2061476856470108, 0.19777320325374603, 0.03492739424109459, 0.033499039709568024, -0.08439303189516068, 0.021879015490412712, -0.0020840929355472326, 0.09320462495088577, 1.157322645187378, -0.05042789503931999, 0.07543010264635086, 0.11510054022073746, 0.2101190835237503, -0.10621274262666702, -0.13140760362148285, 0.497265487909317, 0.39903584122657776, -0.03537970781326294, 0.06913674622774124, -0.09697102755308151, 0.28523752093315125, 0.06867343932390213, 0.13643012940883636, 0.09035401791334152, 0.18184970319271088, -0.07080095261335373, 0.10913277417421341, -0.11322354525327682, 0.18316422402858734, 0.03819579258561134, -0.14271031320095062, 0.17679114639759064, -1.0552195310592651, 0.07753580063581467, 0.06972194463014603, 0.17306043207645416, -0.22705227136611938, 0.055219512432813644, 0.10207580775022507, 0.1000371053814888, -0.0507049597799778, 0.10631214827299118, 0.03254932537674904, 0.11523393541574478, -0.11184695363044739, 0.006892815697938204, -0.007042751181870699, 0.0624811090528965, 0.0015864447923377156, 0.0018019323470070958, 0.031893882900476456, 0.27665188908576965, 0.44585657119750977, 0.012431114912033081, 0.03128882870078087, -0.6755281090736389, -0.8289185166358948, -0.03422301635146141, -0.5048724412918091, 0.24437116086483002, -1.2716635465621948, -0.6968494057655334, 0.3069823086261749, -0.13194794952869415, 0.4777129888534546, -0.34920570254325867, -0.25869426131248474, -0.381367951631546, -0.03934106603264809, 0.0005887187435291708, 0.01977340504527092, 0.16223493218421936, -0.04433509707450867, 0.10696841031312943, 0.6320443749427795, 1.0086419582366943, 0.1238631084561348, 0.08774638175964355, 0.3948719799518585, 2.4237558841705322, 0.0044957478530704975, 0.11267972737550735, -0.34167060256004333, 0.3634399473667145, 0.002364648738875985, -0.03529879078269005, -0.6201754808425903, 0.41535869240760803, 0.0557439886033535, 0.06561725586652756, -0.29603439569473267, -0.1036689355969429, -0.02815169282257557, -0.06835245341062546, 0.12304071336984634, -0.0840258002281189, -0.13736416399478912, -0.08125317841768265, -0.45138218998908997, -0.7332422137260437, 0.06637059897184372, -0.02067822404205799, -0.006177724804729223, -0.29223349690437317, -0.29205968976020813, -0.023226812481880188, 0.16496089100837708, -0.3908190429210663, 0.04967590048909187, 0.059968117624521255, -0.025278756394982338, 0.19765140116214752, 0.03696697577834129, -0.014020039699971676, -0.2595837414264679, -0.24601149559020996, -0.11645578593015671, -0.02238975465297699, 0.023480312898755074, 0.1292950063943863, 0.17731179296970367, -0.013907388783991337, 0.2163834571838379, 0.043340686708688736, -0.012142046354711056, 0.10927736014127731, 0.3145220875740051, 1.144676923751831, 0.01773029752075672, -0.09753239154815674, 0.1288069486618042, 0.22681014239788055, -0.036743760108947754, -0.11599696427583694, 0.036955591291189194, -0.26511460542678833, 0.030314117670059204, -0.034037623554468155, 0.12465115636587143, -0.3669174015522003, 0.1667812019586563, 0.008272185921669006, -0.007536612451076508, 0.5454301238059998, -0.09501301497220993, -0.156464084982872, -0.5548414587974548, -1.1583212614059448, -0.020188134163618088, -0.8947239518165588, -1.0340090990066528, -1.162490725517273, -1.3783320188522339, 0.6697712540626526, 0.8545722365379333, 0.6824485659599304, -0.1491287797689438, -0.9550208449363708, -0.04042264074087143, -0.007078915368765593, 0.32874301075935364, 0.7446544766426086, 0.39564022421836853, 0.1427161693572998, 0.08910798281431198, 0.009630845859646797, -1.6212793588638306, 0.014412596821784973, -0.07377970963716507, -0.43732133507728577, -1.7089499235153198, -0.09816110134124756, 0.1250610202550888, -0.027881331741809845, -0.0818013995885849, 0.02622378058731556, -0.013022392988204956, 0.5962548851966858, 0.2949492335319519, 0.05448555573821068, 0.17477597296237946, 0.07902257889509201, -0.6579366326332092, -0.022712886333465576, -0.2365865558385849, 0.43373867869377136, 0.00540918717160821, -0.018435316160321236, 0.17944882810115814, -0.004700697958469391, -0.38816389441490173, 0.013648823834955692, -0.03044944815337658, -0.019354654476046562, 0.05773967504501343, -0.06004530191421509, -0.17583918571472168, 0.1974942833185196, 0.4529566466808319, 0.028954235836863518, 0.08348267525434494, -0.1896315962076187, 0.14851807057857513, 0.09536118060350418, 0.0837598368525505, 0.1351267397403717, -0.10719970613718033, 0.0009589782566763461, -0.1431203931570053, -0.013720913790166378, -0.033259715884923935, -0.04558444395661354, -0.024768710136413574, 0.1087861880660057, -0.8190340995788574, -0.07161813229322433, -0.19794179499149323, -0.034815095365047455, 0.20665715634822845, 0.2410280853509903, -0.057402972131967545, -0.15952648222446442, 0.030347714200615883, -0.007542095612734556, 0.0405774749815464, 0.0009231484145857394, -0.20275886356830597, 0.012772188521921635, 0.13825835287570953, 0.14926289021968842, -0.024662556126713753, 0.0860341265797615, -0.028973517939448357, -0.05439295247197151, 0.11766039580106735, -0.03866487368941307, 0.13625849783420563, -0.14129796624183655, -0.36777356266975403, -0.6458368897438049, -0.37960389256477356, 0.5226525664329529, -2.211935043334961, 0.461485356092453, -0.12114406377077103, -0.8997278213500977, -0.7457943558692932, 1.5061341524124146, 0.48324668407440186, -0.012895514257252216, -0.08179713040590286, -0.0457126758992672, -0.015865778550505638, 0.509951114654541, -0.02191273681819439, -0.06362409144639969, 0.9111823439598083, 0.045322906225919724, 0.06015307083725929, -0.12294744700193405, -0.17850257456302643, 0.7023257613182068, -0.10248330980539322, 0.14327551424503326, 0.18974639475345612, 0.33864137530326843, -0.04310745373368263, -0.16401802003383636, -0.4748552739620209, 0.20061920583248138, 0.0636177584528923, -0.12149452418088913, -0.7747829556465149, 0.5402869582176208, 0.0621793232858181, -0.11624383181333542, 0.4416866600513458, -0.18786309659481049, 0.11615478247404099, -0.08283817023038864, 0.06412816792726517, 0.0574798546731472, -0.00032719832961447537, 0.06295520812273026, -0.041815515607595444, 0.027347834780812263, 0.20365311205387115, 0.007542811334133148, 0.5633460879325867, -0.014815781265497208, 0.18938089907169342, 0.031069040298461914, -0.17475391924381256, -0.0211936105042696, -0.032093849033117294, -0.08626823872327805, 0.011398584581911564, 0.42700743675231934, -0.04262707009911537, 0.08683032542467117, 0.24573756754398346, -0.14487947523593903, 0.007001824211329222, 0.14658786356449127, 0.38054779171943665, 0.7607293725013733, -0.06164568290114403, -0.031236885115504265, -0.5127683281898499, -0.057502131909132004, 0.16519688069820404, -0.13896237313747406, 0.291793555021286, 0.17538678646087646, 0.10152801126241684, 0.08901571482419968, 0.040238406509160995, -0.059465546160936356, -0.04116025194525719, 0.046909984201192856, 0.14648304879665375, 0.010847178287804127, 0.09183061867952347, 0.0019011033000424504, -0.2970750033855438, -0.13520881533622742, -0.10459359735250473, 0.06445349007844925, 1.0553141832351685, 0.8279158473014832, -1.6514779329299927, 0.06489364802837372, 2.055116891860962, -2.021575450897217, -0.2790694534778595, -0.5797600150108337, -0.692139208316803, 0.027418257668614388, -0.2558386027812958, -0.704500675201416, 1.0974133014678955, 0.1057266816496849, 0.12776614725589752, -0.6964664459228516, 0.2552400231361389, -0.07888031750917435, 0.0031974243465811014, -0.5603574514389038, -0.04122719541192055, 0.037020888179540634, 0.0038761610630899668, -0.822999894618988, -1.6938780546188354, -0.01022092904895544, 0.14082372188568115, 1.3246047496795654, 0.9369431138038635, -0.28183820843696594, 0.23430751264095306, -0.6614184379577637, -0.48174139857292175, 0.02754107303917408, -0.019953714683651924, -0.4643663167953491, -0.14706586301326752, -0.0004907968104816973, -0.05547333136200905, 0.25675874948501587, -0.15541128814220428, 0.01696021668612957, 0.17779575288295746, 0.13459554314613342, -0.29395410418510437, 0.015321879647672176, -0.10725308209657669, 0.02561541460454464, -0.43919405341148376, 0.015023828484117985, -0.003987662028521299, 0.2941280007362366, -0.6406912207603455, -0.03547635301947594, -0.044018980115652084, 0.1622469276189804, 0.06848490983247757, 0.21997307240962982, -0.0431581474840641, -0.006380903068929911, 0.4996301233768463, -0.06374353915452957, -0.017475441098213196, -0.014427141286432743, 0.10264209657907486, -0.01434676256030798, 0.10676735639572144, -0.07277380675077438, 0.6999278664588928, -0.024530788883566856, -0.17998932301998138, 0.7093955874443054, -0.5923650860786438, 0.10554658621549606, 0.10362144559621811, 0.23424507677555084, 0.48926255106925964, 0.09308815747499466, -0.034852657467126846, 0.2013045996427536, -0.1727377325296402, 0.05012476071715355, 0.10279571264982224, -0.20527608692646027, -0.12280441075563431, -0.16515718400478363, -0.08550548553466797, 0.18843744695186615, 0.17158107459545135, -0.10710335522890091, 0.030392108485102654, 0.36896422505378723, 0.003352709114551544, -0.8242390751838684, -0.3257395923137665, 1.4844800233840942, -0.545877993106842, -1.3250800371170044, 0.05816816911101341, 1.3670645952224731, -0.45664265751838684, 0.054461006075143814, -0.22642995417118073, 0.6672534942626953, -0.0836300328373909, 0.010828472673892975, 0.32421037554740906, 0.7141897082328796, -0.06943155080080032, 0.015652118250727654, -0.40413519740104675, -0.6820645928382874, -0.03613663092255592, 0.07573073357343674, -0.015233353711664677, -0.9843084812164307, -0.014649092219769955, 0.08456004410982132, 0.2875743508338928, 0.05495836213231087, -0.20035888254642487, -0.2717289924621582, -0.5256416201591492, -0.5667925477027893, 0.06286346167325974, 0.10573387891054153, -0.03406928852200508, -0.43584391474723816, 0.06927765160799026, -0.03264394775032997, 0.4309573471546173, -1.156707525253296, -0.09091561287641525, 0.014024526812136173, -0.06873191148042679, 0.24733668565750122, 0.007705152500420809, 0.01238278392702341, 0.01725509576499462, -0.05339032784104347, -0.05596238002181053, -0.12901701033115387, 0.24594217538833618, -0.23408649861812592, -0.1086219921708107, -0.2333245426416397, 0.1832118183374405, -0.04913940653204918, 0.0973207876086235, -0.04678323492407799, -0.12567530572414398, -0.06305021792650223, -0.1734313815832138, -0.00793095026165247, 0.11638010293245316, 0.0779089406132698, 0.0016626009019091725, 0.05644887313246727, -0.1565944105386734, -0.31560060381889343, -0.09271916002035141, 0.07562465220689774, 0.16448867321014404, -0.8120442032814026, 0.10638073831796646, -0.09356165677309036, -0.047565337270498276, -0.1118699386715889, 0.07115387171506882, -0.19835759699344635, 0.12198159098625183, -0.04476602002978325, -0.14389075338840485, -0.05419345572590828, -0.01601123996078968, 0.04487931355834007, 0.06495534628629684, 0.005632191430777311, 0.3006463348865509, -0.08883362263441086, -0.009745619259774685, -0.09504222124814987, -0.3798336684703827, -0.8833722472190857, -0.43709596991539, -1.0987385511398315, -0.046989019960165024, 0.5459452271461487, 1.0685608386993408, -1.6960161924362183, -1.208546757698059, -1.2799293994903564, -0.6688991189002991, -0.28338271379470825, 0.1503800004720688, -0.0250240545719862, -0.017253058031201363, -1.2561589479446411, -0.6021419763565063, -0.029668331146240234, 0.02095404453575611, -0.9610503315925598, 0.100100077688694, 0.12351585179567337, 0.10061586648225784, 0.12371508032083511, 3.945476770401001, 0.10574150830507278, -0.045104388147592545, 0.7624196410179138, 0.7115892767906189, 0.04507416859269142, -0.07681148499250412, -1.14665687084198, -1.3262660503387451, -0.10258781164884567, 0.047473352402448654, 0.2188875824213028, 0.8101387619972229, 0.19902946054935455, 0.05427789315581322, -0.18726356327533722, 0.7533189654350281, -0.027126071974635124, -0.1959162801504135, -0.28888198733329773, 0.4020901024341583, -0.15858985483646393, -0.14353585243225098, -0.033979110419750214, -0.0006894720136187971, 0.0703975036740303, 0.10980211943387985, 0.00294334813952446, 0.2907564640045166, -0.1068505123257637, -0.2678716480731964, -0.1896819919347763, -0.09074723720550537, -0.10475874692201614, -0.03766196593642235, -0.07181351631879807, 0.16959600150585175, -0.03253081068396568, -0.02428203634917736, -0.09917076677083969, -0.140671506524086, 0.061938460916280746, -0.01591409556567669, -0.3945009708404541, 0.32150498032569885, -0.19675461947917938, 0.06596291810274124, 1.0424145460128784, 0.19595015048980713, -0.1910029798746109, 0.0811842754483223, -0.04457583650946617, 0.06723935902118683, 0.07693289965391159, -0.07451020926237106, -0.19923542439937592, 0.10067754983901978, 0.10346972197294235, -0.024267343804240227, 0.07347065955400467, -0.18532298505306244, -0.0044208611361682415, 0.06424666196107864, 0.2529068887233734, 0.010617210529744625, 0.17996050417423248, -0.16826294362545013, -0.3406555950641632, -0.884619414806366, 0.4521741569042206, -0.8422989845275879, -0.5229749083518982, -0.381234735250473, -0.5786923766136169, -0.13026832044124603, 0.9516916871070862, -0.30928775668144226, 0.66405189037323, 0.6068482995033264, -0.2625797390937805, 0.026209471747279167, 0.08888126164674759, 0.7778360247612, 0.013273517601191998, 0.17224742472171783, 0.08454953879117966, 0.43060144782066345, -0.18813107907772064, 0.06543440371751785, 0.001883515971712768, 0.7561665177345276, -1.67935049533844, -0.10152244567871094, -0.06136542186141014, -0.23668406903743744, -0.6039785742759705, 0.019792838022112846, 0.13332520425319672, -0.3469199240207672, 0.14513525366783142, -0.02604222111403942, -0.0019105655374005437, -0.41067221760749817, -0.5392265915870667, -0.1323079913854599, -0.019199520349502563, 0.307196706533432, -0.7137852311134338, 0.0180188100785017, -0.006633132230490446, -0.34211423993110657, -0.35916614532470703, -0.0022601059172302485, -0.049157824367284775, -0.03151410073041916, -0.0374317541718483, 0.025627819821238518, -0.16979610919952393, 0.34084606170654297, 0.6718153357505798, -0.0160704106092453, 0.05524152144789696, -0.2126767486333847, -0.06462133675813675, 0.2599630057811737, 0.07962089031934738, -0.3358369767665863, 0.1786743551492691, 0.1539088487625122, -0.05917448177933693, 0.04762687161564827, 0.2574060261249542, -0.24586676061153412, 0.2585137188434601, 0.48820164799690247, -0.7774672508239746, -0.1500147581100464, -0.09701049327850342, -0.7324623465538025, 0.9026917815208435, -0.11837982386350632, 0.09014386683702469, -0.20815013349056244, -0.3554306924343109, 0.02578347735106945, 0.05568063259124756, 0.04977265000343323, -0.1764087826013565, 0.11395157128572464, 0.114020936191082, 0.12991724908351898, -0.14984990656375885, 0.011062406934797764, -0.012666820548474789, -0.252541720867157, 0.04701777175068855, -0.11887060850858688, 0.12401223927736282, -0.7028388977050781, -0.42139267921447754, -0.9437208771705627, -0.047802168875932693, 0.5544536709785461, -0.8179911971092224, 0.6227086782455444, 0.14801405370235443, -2.042797088623047, -0.6364713311195374, -0.6453794836997986, 0.8610009551048279, 1.9404722452163696, -0.1036195158958435, 0.13470470905303955, -0.9721583724021912, -0.9064559936523438, -0.11935173720121384, -0.05987066403031349, -0.5788922905921936, -0.1601046621799469, -0.008747025392949581, 0.05146215483546257, 0.2137339860200882, 0.34682631492614746, 0.04554117098450661, 0.19700933992862701, -0.04058158025145531, 0.4128958284854889, -0.11504482477903366, 0.05028402432799339, 0.05821818485856056, 0.9771540760993958, 0.11059582233428955, -0.0379062294960022, -0.8153495192527771, -0.40976670384407043, -0.06530546396970749, 0.10689374059438705, -0.00495636323466897, -0.5373001098632812, -0.07399982959032059, -0.03421679511666298, -0.09063058346509933, 0.5396032929420471, 0.05151684954762459, 0.014659435488283634, -0.10059130936861038, 0.2808876037597656, -0.12228430062532425, -0.03265339508652687, 0.34934672713279724, 0.036095358431339264, 0.08517222851514816, 0.036633074283599854, -0.1778872162103653, 0.3857620656490326, -0.015094221569597721, -0.04810599610209465, 0.23094327747821808, -0.07729661464691162, -0.08155698329210281, -0.03998773917555809, -0.07190191000699997, 0.30094674229621887, 0.18627239763736725, -0.07293570786714554, 0.3096170425415039, 0.18373848497867584, 0.007889949716627598, -0.01490588579326868, 1.024178385734558, 0.09409172087907791, -0.05927443131804466, -0.0848495289683342, -0.009715495631098747, -0.09510397911071777, -0.13814105093479156, -0.036991383880376816, -0.1283728927373886, 0.03907916322350502, -0.06516803056001663, 0.021278323605656624, 0.11892807483673096, -0.060073018074035645, 0.09079033881425858, -0.09475063532590866, -0.29498621821403503, -0.10629364103078842, -0.034479644149541855, 0.05406028404831886, -0.320112407207489, -0.1650492250919342, -0.8488301634788513, 1.1332911252975464, 1.1916788816452026, 0.07069038599729538, 1.0117073059082031, 0.4505840837955475, -0.2730063796043396, -0.550105631351471, -1.1742409467697144, 0.296384334564209, -1.7301816940307617, -0.13443754613399506, 0.027317872270941734, 1.067495584487915, 0.4078616797924042, 0.10833808034658432, 0.14898358285427094, -0.2703703045845032, -0.5275821089744568, 0.0244941096752882, -0.06397592276334763, 0.3594265282154083, -2.061635732650757, -0.1683046668767929, -0.03182050958275795, -0.7916126847267151, 0.7192491888999939, 0.10666617006063461, -0.061644673347473145, -0.8718633055686951, -1.428371548652649, 0.04935064911842346, 0.08165281265974045, -0.4276432991027832, 0.1751241832971573, 0.023903636261820793, -0.051107171922922134, 0.25797030329704285, 0.8712473511695862, 0.18635974824428558, -0.06079130992293358, 0.12473389506340027, -0.37078073620796204, -0.023821083828806877, 0.03762679919600487, 0.019281569868326187, 0.045427385717630386, -0.01100210938602686, 0.1366058737039566, 0.037364423274993896, -0.21727649867534637, -0.07885653525590897, 0.07430446892976761, 0.14344479143619537, -0.04381344094872475, 0.11629080772399902, -0.09932208806276321, -0.33903029561042786, -0.31622225046157837, 0.06472759693861008, -0.07534598559141159, -0.14803670346736908, 0.04912137612700462, 0.0338103212416172, 0.09209764748811722, 0.15420149266719818, 0.34122028946876526, -0.07635610550642014, 0.0009156697778962553, -0.09672194719314575, -0.7606591582298279, -0.018835974857211113, -0.20926357805728912, -0.12299744039773941, -0.09369733184576035, -0.10438612848520279, -0.10090474039316177, 0.022946538403630257, -0.02630009315907955, 0.014356045983731747, -0.179780974984169, -0.008857491426169872, 0.05680138245224953, 0.0372215174138546, 0.05938124284148216, 0.2585994601249695, -0.17232714593410492, 0.001730564865283668, 0.16709814965724945, -0.7481350898742676, -0.4265468120574951, 0.12055528163909912, -1.058488130569458, -0.10658904165029526, -0.5423821210861206, -0.5380972623825073, -0.2981199324131012, -0.25321704149246216, 0.7020873427391052, 0.3038054406642914, -0.319335401058197, -0.6747598648071289, -0.10841289907693863, -0.04186766967177391, 0.7779026627540588, 0.6002240777015686, 0.07616580277681351, -0.022969206795096397, 0.7259654998779297, 0.5713421106338501, 0.0358392633497715, -0.055133599787950516, 0.5338439345359802, 1.4041881561279297, 0.22252963483333588, -0.040461305528879166, -0.706869900226593, -0.05122733488678932, 0.04422878846526146, 0.02106335572898388, 0.49856141209602356, 1.3604267835617065, -6.920017040101811e-05, -0.04050948843359947, -0.13179340958595276, 0.1583276242017746, 0.016192808747291565, 0.08357162028551102, 0.12180601805448532, -0.16967904567718506, 0.12956644594669342, 0.039564698934555054, 0.2068772166967392, 0.3301372826099396, -0.017943141981959343, -0.11044055223464966, 0.10300969332456589, -0.17731259763240814, 0.1101243868470192, 0.05708253011107445, 0.09182889014482498, 0.16171255707740784, 0.23583318293094635, 0.16302825510501862, -0.12069834023714066, 0.2843007743358612, -0.090439073741436, 0.010447374545037746, 0.07388407737016678, 0.22590690851211548, -0.08149182051420212, 0.05782604590058327, -0.1453537791967392, -0.359953373670578, -0.11414802819490433, 0.07063133269548416, 0.3367951214313507, -0.26927635073661804, 0.054625872522592545, 0.08666832000017166, -0.5527678728103638, -1.2668083906173706, 0.0306528490036726, -0.27696725726127625, -0.0330524668097496, -0.11060794442892075, -0.13839171826839447, -0.12447141855955124, 0.07223046571016312, -0.2414206713438034, -0.13757002353668213, -0.13760016858577728, -0.16769514977931976, 0.08096277713775635, -0.13003744184970856, 0.04210084304213524, -0.08466052263975143, -0.6773543953895569, -0.19346930086612701, -0.03329071030020714, -0.6377414464950562, -0.6112416982650757, -0.5384026169776917, -0.872586190700531, -0.08711487799882889, 0.17335368692874908, -0.09068649262189865, 0.3657987117767334, -0.2204313427209854, 1.467687726020813, 0.381296306848526, -0.10587251931428909, -1.1435153484344482, 0.23796512186527252, 0.057348549365997314, -0.10726860910654068, -0.3225664794445038, 0.10828446596860886, 0.0963883325457573, 0.02012615278363228, -0.3503410816192627, -0.07184071093797684, 0.16008470952510834, 1.0458801984786987, 4.270233631134033, -0.034770991653203964, 0.08129661530256271, 0.10807228833436966, 0.3734872043132782, 0.0975714847445488, 0.013766809366643429, -0.16266831755638123, 0.025882193818688393, -0.026881305500864983, -0.014058410190045834, -0.09355101734399796, 0.12919297814369202, 0.006254240404814482, -0.160423144698143, -0.011393251828849316, -0.4995522201061249, 0.15284766256809235, 0.04348522424697876, -0.23484037816524506, -0.09455949813127518, -0.04818921908736229, 0.07325757294893265, -0.04316231980919838, -0.21284939348697662, -0.058755699545145035, -0.17207978665828705, 0.2824845016002655, 0.9805974364280701, 0.026497630402445793, -0.11947917193174362, -0.13780270516872406, 0.24091194570064545, 0.16674472391605377, -0.1557692289352417, -0.10872312635183334, -0.08269082009792328, -0.12950347363948822, 0.04214388504624367, 0.1449742466211319, 0.02901768870651722, 0.07426302880048752, 0.06179499998688698, 0.49509844183921814, 0.2348155826330185, -0.11014076322317123, -0.014409243129193783, -0.7448113560676575, -0.35000094771385193, -0.035359468311071396, 0.07595504075288773, 0.17547889053821564, -0.20277650654315948, 0.09122752398252487, -0.054087597876787186, -0.0026397996116429567, 0.16732214391231537, 0.09811288118362427, -0.038273390382528305, 0.33997368812561035, 0.017270106822252274, 0.02509850449860096, 0.1298227459192276, 0.33344563841819763, -0.22431589663028717, 0.07722746580839157, 0.22575689852237701, 0.12114536762237549, -0.07151935249567032, -0.1625603288412094, -0.8544283509254456, -0.20197035372257233, 0.44071289896965027, -0.9507380127906799, 0.6140565276145935, 0.08009053021669388, -0.0603763647377491, -1.3859275579452515, 0.3408283293247223, 0.39704182744026184, -0.1927710920572281, 0.02362818457186222, 1.2591992616653442, -1.1601150035858154, -0.05847549065947533, -0.056681569665670395, 0.6570385098457336, -0.43656495213508606, 0.006234555970877409, -0.20604316890239716, 0.7672318816184998, 2.1062722206115723, -0.1978536993265152, 0.08285177499055862, -0.29059508442878723, -0.6364198327064514, -0.11556065827608109, -0.024258585646748543, 0.9401199817657471, 0.06911645829677582, 0.08344382792711258, -0.09250830858945847, 0.07959216088056564, -0.18420080840587616, 0.05559408292174339, -0.05282535031437874, 0.5548866987228394, 0.3164314925670624, -0.012888575904071331, 0.012597720138728619, 0.04392770305275917, 0.07546073198318481, 0.1755075305700302, 0.14373470842838287, 0.0057009863667190075, 0.054778579622507095, -0.064972884953022, 0.1040719673037529, 0.242670938372612, -0.08001623302698135, -0.19355620443820953, 0.030136557295918465, -0.11541222780942917, 0.34203311800956726, -0.20419208705425262, -0.11326765269041061, -0.0616990365087986, -0.258443146944046, -0.19398300349712372, -0.01063606794923544, 0.08942198753356934, -0.0762239620089531, 0.03482517972588539, 0.17405866086483002, 0.6594459414482117, 1.1178950071334839, -0.04603106155991554, -0.19711564481258392, -0.9580174088478088, -0.1867760568857193, 0.12027192860841751, -0.11200452595949173, -0.1307353675365448, -0.1115749180316925, -0.03820043429732323, 0.15789328515529633, 0.07250838726758957, 0.27814969420433044, 0.16914081573486328, 0.1506126970052719, 0.13918747007846832, -0.001047190628014505, 0.07383645325899124, -0.19049181044101715, 0.3014891743659973, -0.7979374527931213, 0.09376812726259232, -0.01021023839712143, -0.4213979244232178, 0.3946590721607208, -0.5738009214401245, 0.019824353978037834, 0.7679024338722229, -1.1443376541137695, 0.6520833373069763, 0.49415209889411926, -0.21885335445404053, -0.7834648489952087, -0.7073636054992676, -0.12105070799589157, -0.07968582212924957, -0.029750676825642586, 0.16304777562618256, 0.4199395179748535, -0.17349500954151154, -0.11182773113250732, -0.09239511936903, 0.13149788975715637, -0.3501615822315216, -0.024374278262257576, 0.10300981253385544, -0.4256761074066162, -2.2917258739471436, -0.1566316932439804, 0.06292343884706497, -0.8478178977966309, -0.8354924321174622, 0.012751683592796326, -0.16190873086452484, 0.009416087530553341, -0.447103351354599, -0.22696329653263092, -0.09666203707456589, -0.5183616280555725, -0.05602722987532616, -0.034040335565805435, 0.09014285355806351, 0.5286546945571899, 0.1609838455915451, 0.001991106430068612, 0.08004844933748245, -0.3510284423828125, 0.3239920735359192, -0.1538911908864975, -0.06039995327591896, 0.043831612914800644, -0.10701724141836166, -0.13241779804229736, -0.06565488129854202, 0.7006965279579163, 0.2065010815858841, -0.09739870578050613, 0.06745732575654984, 0.002383215120062232, -0.2395496517419815, 0.06550837308168411, -0.058722373098134995, 0.13874410092830658, 0.0020654627587646246, -0.08407575637102127, -0.1063910648226738, 0.01829308457672596, 0.22928310930728912, 0.09701596945524216, -0.1370520442724228, 0.46602633595466614, -0.410828560590744, -0.0032206883188337088, 0.09435678273439407, -1.0074265003204346, -0.9078522324562073, 0.006793022621423006, 0.0628698468208313, -0.06674224883317947, 0.11782173067331314, 0.13316990435123444, 0.15917910635471344, 0.006562754977494478, -0.21728484332561493, -0.09872967004776001, -0.10429056733846664, 0.14121589064598083, 0.11846446990966797, 0.26117661595344543, 0.13898251950740814, -0.4299907386302948, -0.4009806215763092, -0.04227989539504051, -0.002446793019771576, -0.35342034697532654, 0.16814951598644257, -0.8092002272605896, -0.46339020133018494, 0.9753932952880859, -0.30100148916244507, -0.570560872554779, 0.4215491712093353, 0.5993295907974243, 0.010206750594079494, 1.539322018623352, 0.29411932826042175, 0.4764585793018341, -0.10364607721567154, 0.04019606485962868, 0.5195378065109253, -1.5159997940063477, -0.1686645895242691, -0.0470823235809803, 0.4531998932361603, 1.4920320510864258, 0.05954122170805931, 0.04667913541197777, 0.40495774149894714, 0.8572941422462463, 0.03000369481742382, 0.17991256713867188, -0.08447384089231491, 1.0092828273773193, -0.0652342438697815, -0.04082858934998512, 1.0024551153182983, 0.13472019135951996, 0.04784655198454857, 0.0592770017683506, -0.46689316630363464, -0.19926071166992188, -0.04959750548005104, -0.10835539549589157, 0.17993469536304474, 0.3156851828098297, 0.04676598682999611, 0.10568941384553909, -0.12255397439002991, 0.04254826530814171, -0.006100138183683157, 0.058443959802389145, -0.11797238141298294, -0.06410116702318192, -0.05312132462859154, -0.004939184058457613, 0.5878553986549377, 0.13833095133304596, 0.21309377253055573, -0.1331612914800644, 0.11335528641939163, -0.23521901667118073, -0.021193144842982292, 0.13434839248657227, 0.20418046414852142, 0.19412732124328613, 0.05960911139845848, -0.12104416638612747, -0.00694246543571353, 0.354948490858078, 0.12807179987430573, 0.1257331520318985, 0.5612496137619019, 0.028774021193385124, -0.10649275034666061, -0.11783456057310104, -0.41824960708618164, 0.26177161931991577, -0.09920728951692581, 0.10508787631988525, 0.13593004643917084, 0.014711513184010983, 0.00667135464027524, 0.025907978415489197, 0.08542854338884354, -0.09542864561080933, 0.09922964125871658, -0.32891491055488586, -0.1416117250919342, 0.11404228210449219, -0.018665673211216927, -0.09429669380187988, 0.05392849072813988, -0.22077129781246185, -0.16225101053714752, -0.1970570832490921, -0.3195194602012634, -0.36643290519714355, -0.4474595785140991, -0.3223481774330139, 0.38652434945106506, -0.6566921472549438, 0.551505982875824, 1.606531023979187, -1.6647714376449585, -0.7261485457420349, 0.8337798118591309, 1.4110149145126343, -0.569025993347168, 0.038936760276556015, 0.04491866007447243, 1.2695480585098267, 0.6731759905815125, 0.13261662423610687, 0.07609749585390091, 1.313867449760437, 0.6014322638511658, 0.11588657647371292, 0.05401932820677757, 0.28387337923049927, -1.0263155698776245, -0.03708994761109352, -0.011644191108644009, -0.8642781376838684, 0.5000567436218262, -0.014505117200314999, -0.020272865891456604, -0.3945048153400421, 0.4131409227848053, -0.028890760615468025, 0.007797047961503267, -0.24298666417598724, 0.22552627325057983, -0.19455240666866302, 0.0634203627705574, 0.2513999342918396, 0.17518039047718048, 0.09788738936185837, -0.00470817880704999, -0.25420302152633667, -0.1977386623620987, -0.09978119283914566, 0.03789025545120239, -0.25169628858566284, 0.03914644941687584, -0.058357417583465576, 0.14318372309207916, 0.8527840971946716, -0.02623903937637806, -0.06462813168764114, 0.04860484227538109, 0.20366762578487396, -0.08146096020936966, -0.031340569257736206, -0.016345711424946785, 0.175911083817482, -0.30037766695022583, -0.04338771477341652, -0.044036541134119034, -0.03603651747107506, 0.18781231343746185, 0.19764314591884613, -0.15192198753356934, 0.5010544061660767, 0.45035919547080994, 0.0183620136231184, 0.02257244475185871, -1.3370648622512817, -0.3127076327800751, -0.007072777021676302, -0.19318877160549164, 0.0015007475158199668, -0.15149541199207306, -0.031359877437353134, -0.1347327083349228, 0.12730421125888824, -0.006635159719735384, 0.11484669893980026, -0.0009860320715233684, -0.24493525922298431, 0.09950748831033707, 0.019339783117175102, 0.10996755212545395, -0.6181968450546265, 0.09384752064943314, 0.21338392794132233, 0.13292934000492096, -0.7824721336364746, -0.29067352414131165, -0.6238425970077515, -0.22127629816532135, 0.9340695738792419, -0.16479136049747467, 0.5107077360153198, -0.4620618522167206, -0.037916574627161026, -0.8715858459472656, -0.9778572916984558, -0.6970982551574707, 0.6434687972068787, 0.20448018610477448, -0.016961650922894478, -0.3017372786998749, 0.6833829283714294, -0.07155520468950272, 0.008717739023268223, -0.7744430899620056, 0.12114346772432327, -0.04414031282067299, 0.046787697821855545, -0.5280016660690308, 0.5093554854393005, -0.01543277408927679, -0.05587601289153099, 0.8298375010490417, -0.0783030241727829, -0.0557175911962986, -0.003330836072564125, -0.488399475812912, -0.507668673992157, -0.09716109186410904, 0.01492141094058752, -0.3409237563610077, 0.41557803750038147, -0.16609801352024078, -0.01438813004642725, 0.6695918440818787, -0.22051618993282318, -0.07037603110074997, 0.07268316298723221, 0.5228185653686523, -0.06613864749670029, -0.11441528052091599, -0.004054971504956484, -0.07047795504331589, -0.17910216748714447, -0.02094613015651703, -0.10760387033224106, 0.3843493163585663, 0.37375757098197937, -0.1241680309176445, 0.0999208614230156, -0.2474052757024765, 0.5425754189491272, 0.08105837553739548, 0.039385464042425156, -0.2788228690624237, -0.30944639444351196, 0.07247709482908249, -0.22324873507022858, 0.10959244519472122, 0.18544387817382812, 0.019282100722193718, -0.02524811215698719, -0.42001500725746155, -0.7497005462646484, -0.10406225919723511, -0.03761553391814232, 1.6301530599594116, -0.009813412092626095, -0.07283330708742142, 0.1577468067407608, -0.043535083532333374, -0.11202529072761536, -0.023333309218287468, -0.028323234990239143, 0.22010397911071777, -0.32174721360206604, -0.0372941829264164, 0.22585298120975494, -0.030037114396691322, -0.3632921278476715, -0.05138323828577995, 0.12870027124881744, 0.5528964996337891, 0.28297093510627747, -0.010340840555727482, -0.05689984932541847, 0.30927708745002747, -0.07970215380191803, -0.9474884867668152, -0.8339853882789612, 0.5675173997879028, 0.38158366084098816, -1.2380015850067139, -0.7921969294548035, -0.5442928671836853, 0.608329176902771, 0.13306738436222076, 0.31719398498535156, -1.0454788208007812, 0.04346520081162453, -0.06621211767196655, 0.22924946248531342, -0.311832457780838, -0.02166355960071087, -0.010491392575204372, 0.2736750543117523, -0.19880886375904083, -0.21839283406734467, -0.10971435159444809, 0.3613990843296051, 2.832587957382202, -0.07408875972032547, -0.09960972517728806, -0.7562865614891052, -1.709802508354187, 0.03135782852768898, 0.053005415946245193, -1.1795669794082642, -0.3079623878002167, -0.05954461917281151, 0.014719902537763119, -0.5235175490379333, 0.7778541445732117, 0.005108259152621031, 0.05762409791350365, 0.16803546249866486, -0.5262895226478577, 0.016698287799954414, -0.15534353256225586, -0.4726233184337616, 0.03650873526930809, 0.018593011423945427, -0.05527262017130852, -0.041310034692287445, 0.12575480341911316, -0.00817923154681921, 0.19250677525997162, 0.4816683232784271, -0.07467622309923172, -0.10817957669496536, 0.08662384003400803, 0.005739979911595583, 0.027685364708304405, 0.16156327724456787, -0.15726850926876068, 0.001154257683083415, 0.22379471361637115, -0.08974885195493698, -0.0008619576110504568, 0.29906412959098816, -0.06226802244782448, 0.09962070733308792, -0.17041827738285065, 0.2277078777551651, -0.5238166451454163, -0.05768483504652977, 0.1293024867773056, -0.9442271590232849, 0.45430517196655273, -0.08308249711990356, -0.15884758532047272, -0.11396339535713196, -0.31987231969833374, 0.007490179967135191, -0.01455248985439539, 0.12024140357971191, 0.18036724627017975, -0.19336020946502686, 0.016679884865880013, 0.19004689157009125, 0.30234673619270325, 0.007397070061415434, -0.021686317399144173, -0.6993151307106018, -0.7677276730537415, -0.06472610682249069, 0.003529622917994857, -0.2685852348804474, 0.2293708473443985, -0.10043374449014664, -0.0022327250335365534, 0.8611031174659729, -0.3896176517009735, 0.11881469935178757, 0.7910189628601074, 0.8451361656188965, -0.7720199227333069, 0.2513073980808258, -0.5005179047584534, -0.7295132279396057, -0.457490473985672, -0.38722893595695496, -0.6197295784950256, -0.29906150698661804, -0.41353926062583923, -0.5694397687911987, -0.5910195708274841, -0.7000470757484436, -0.30197277665138245, -0.6839668154716492, -0.3558681011199951, -0.5505073666572571, -0.2870069146156311, 0.10445832461118698, -0.22491693496704102, -0.19432242214679718, -0.828724205493927, -0.7116652131080627, -0.416851669549942, -0.29135534167289734, -0.38352832198143005, -0.7609314322471619, -0.4204447269439697, -0.219449982047081, -0.40038323402404785, -0.35522887110710144, -0.1854245811700821, -0.4598716199398041, -0.3487584888935089, -0.4248346984386444, -0.21624590456485748, 0.08136104047298431, -0.1800948530435562, -0.4981671869754791, -0.05601048097014427, -0.4816136658191681, -0.3280203640460968, -0.5890230536460876, -0.5286008715629578, -0.19748716056346893, -0.21413134038448334, -0.4886736571788788, 