{"structure_edges": [[-1, 0, 1], [0, 1, 1], [1, 2, 1], [-1, 15, 1], [15, 16, 1], [16, 17, 1], [-1, 30, 1], [30, 33, 1], [33, 34, 1], [-1, 35, 1], [35, 38, 1], [38, 39, 1]], "structure_weights": {"mu": [-2.95369352547848, -1.8229648978274118, 2.59469405958274, -0.25508190834569283, -0.7718701217474168, 0.0, 0.0, 0.6865649106965849, -1.4894387144054868, 2.2643779737795207, -1.6582409701069587, -0.5340068230990912, 1.167168344883128, 1.2269199922666174, 0.0, 0.0, -0.7495848287113235, -0.13064288594438722, -3.025212926761169, -0.3990297414458433, 0.25799240014502944, -1.0376486255423643, -0.95700474960864, 0.0, 0.0, 1.6003764303051657, -0.6211529247381251, -2.421245146633631, -1.1782742999117022, -0.38581377354320107, -0.04854606720907842, 0.04761433427264785, 0.0, 0.0, 0.4601212579978677, -0.10723920495609124, -2.7777208069297896, -0.7063644504937984, -1.0022418949360874, -1.1437253537432275, -0.9544278712944171, 0.0, 0.0, 0.06527700777991294, -0.2723866288253244, -1.8090254699434338, -1.4564076942385082, 0.18093237821115624, -0.6936353726951936, -1.0218477647353919, 0.0, 0.0, 0.05396129937071622, 0.33910209339165864, -2.2553279104871016, -1.4080896179770086, -0.8378957763950943, -0.7487778962444653, -0.9495575314010845, 0.0, 0.0, 0.11738832984193064, 0.441088963804823, -2.018026730301958, -0.5097427706984488, -1.2008082262130495, -0.5129131447463411, -1.4829260336801267, 0.0, 0.0, -0.07133504932550253, -0.2640619297270669, -2.0681700606625975, -1.4749146832664508, -1.5266520862347313, -0.18087592098506686, -0.18691113974356552, 0.0, 0.0, -0.274125634166424, 0.2859704438128679, -1.8174990117565804, -0.3717333811769001, -1.432744443219005, -0.7103319586048435, -1.3061630514976832, 0.0, 0.0, -0.6401902071604197, 0.043987453611128075, -1.6958251400915283, -1.315127343232052, 1.7413237817836922, -0.1311327509854334, -1.634618062766033, 0.0, 0.0, 0.012662335855423867, -0.11404315797306196, -1.7059055519579054, -1.1727744003045066, -0.04524470870515497, -0.8020475577737394, 0.6254095643362717, 0.0, 0.0, -0.14111520167519975, -0.3969867188011599, -1.7502257585361676, -1.1316743980854025, -0.7473445641768737, 1.1743420425645539, -1.1863151979561606, 0.0, 0.0, -0.19369178528738296, 0.07692287649131269, -0.8211461191733521, -0.8078302889000486, -1.0225595180529603, -0.13954362860081979, -0.6152651299313732, 0.0, 0.0, 0.09095524618598802, -0.16505223104387065, -1.4290418726725025, -0.33054588340290963, -1.9363025401146092, -0.09333267964521255, -1.1172853024972016, 0.0, 0.0, 0.08032661818800385, -0.3081184618663304, -1.50862566914301, -0.6889861067155058, 2.274330007185919, 1.1850593903459485, -0.24135329444527198, 0.0, 0.0, -0.5362963822817379, -1.3449050059129486, -0.8356627278932173, -0.6102753823888795, 0.2652099697496404, -0.2755876545350821, 0.8179484481924071, 0.0, 0.0, 0.940533804650259, 0.8137081848151232, -1.2690612831017019, -0.8206268658632547, 0.4204154871727661, 2.0693062440515138, -0.9570882317137714, 0.0, 0.0, -0.20461039501747888, 0.7432082539428273, -0.025293533982612706, -0.7555585936319682, -1.1236875543125526, -0.08218244011207658, -0.03909147816825979, 0.0, 0.0, -0.37329227370465595, 0.8761327495451628, -0.6026163480938617, -0.2734663131527463, -1.3528932463408636, 0.5960623049598703, -0.7284264211153877, 0.0, 0.0, -0.46271384520299513, -0.11581518746473715, 0.2917371094546191, -2.564985904041993, -0.45995773584982014, 1.5575636767549195, -0.9342449023742813, 0.0, 0.0, -0.023211731715562886, -0.08614684926227567, -0.4249041768942529, -1.399153198498095, -1.1663504281340784, -0.2984247308050702, -0.22478191625024224, 0.0, 0.0, -0.0804048957439885, -0.08994086467292486, 0.2455167536481843, -0.5940021605271615, -1.2526954268052048, 1.396921033729921, -1.4473956507693329, 0.0, 0.0, -0.0641043943107654, 0.12243117269627828, 0.4282503243990227, -1.0056958203753323, -1.2237343386926314, 0.13774991185157165, 0.0760955620124913, 0.0, 0.0, 0.3278110770006392, -0.31021507998975834, -0.017268111915064274, -0.7663915300307448, -1.5233936710396074, 1.0885031029213785, -0.9129649121778975, 0.0, 0.0, -0.3213577471327888, 0.06907095561853296, 0.4868356218508359, -0.8573941163136728, 0.1602599101252651, 1.655599588132908, -1.359966676336291, 0.0, 0.0, 0.03103035772233208, -0.6768254825158637, 0.056626732329941955, -0.5213817092086322, -1.5398114711688269, -0.02237431782888887, 0.41234789498689106, 0.0, 0.0, -0.017156043726545223, 0.20262411949926637, 0.12279318382718224, -0.5415626900997206, -1.292690336605105, 1.5593553203107176, -0.5099743910001109, 0.0, 0.0, 0.507030703423836, -0.1828076790082498, 0.6309910962972247, -1.02143264720814, -1.590949575358766, -0.034918987341489835, -0.06943113651010699, 0.0, 0.0, -0.1081513328666379, 0.09627418595586919, 0.9427920005310046, -0.6420483878115889, -1.2967228653256295, 1.6082664284312582, -1.3750360125279573, 0.0, 0.0, -0.06254658463754359, 0.01667876153850099, 0.4697227184317237, -1.2802960590794754, 1.7544583324277294, 2.9906424237238194, -1.356566559222548, 0.0, 0.0, 0.2695288858329464, 0.45650690274694705, 0.4155056074419907, -0.8835753255105782, -0.9001867283332611, 0.024671600921664816, -0.2574511715223988, 0.0, 0.0, 0.2223952932266743, -0.16945039200177442, 1.1224543136636107, -0.6633180988815046, -1.3378127005199352, 2.6038912852215255, -1.3909494822624524, 0.0, 0.0, -0.06350394828392804, -0.02336139362477623, 1.4522381907172321, -0.9253263835992737, -0.16624645657159295, 1.3962580907453357, 0.7367968274566115, 0.0, 0.0, -1.120744855072447, -0.8060814176358386, 0.7262748231828794, 0.3433955333634491, -1.1015351427474793, 2.998271109200266, -1.8789667971661774, 0.0, 0.0, 0.16733398736538332, 1.431725079543702, 1.1830213738099409, -1.2177109683894383, 1.678805871586245, 3.1250000402050384, -0.8718377524232824, 0.0, 0.0, 0.34111823982230693, 0.7917670392279843, 1.377234289855803, -1.2894402405182233, -1.3107509013668215, 0.276558373305622, -0.4286883335929067, 0.0, 0.0, 0.5548443687318727, 0.29975120244944037, 2.1721666943163958, -0.9197476367952706, -1.566413164298918, -2.00663327503981, -1.5390328776802487, 0.0, 0.0, -0.14370803549452776, -0.10590147561031858, 0.7162131462521075, -0.8536838809244542, 0.6516624485734381, 0.21709561478724293, 0.5828825258821599, 0.0, 0.0, -0.4344416082150614, 0.3182589296729878, 1.524293440777494, -1.607242348359542, 1.6309834243620094, -2.7023176523189174, -0.45520628769674826, 0.0, 0.0, 0.02839455035051282, 0.344198234940509], "sigma": [0.09999988651023616, 0.012157420882792806, 0.020012000283880598, 0.01582011172137382, 0.015811943735069826, 0.1, 0.1, 0.08980079581864464, 0.02741816126070961, 0.05355222352170336, 0.05452647932426722, 0.04447370283313331, 0.09503913691090055, 0.011607219165498554, 0.1, 0.1, 0.01563007062389829, 0.8933967818109523, 0.010000000112128852, 0.04738600805857389, 0.01, 0.01, 0.01, 0.1, 0.1, 1.4644206245180065, 0.029130599680206124, 0.1, 0.1, 0.1, 0.1, 0.1, 0.1, 0.1, 0.1, 0.1, 0.1, 0.1, 0.1, 0.1, 0.1, 0.1, 0.1, 0.1, 0.1, 0.1, 0.1, 0.1, 0.1, 0.1, 0.1, 0.1, 0.1, 0.1, 0.1, 0.1, 0.1, 0.1, 0.1, 0.1, 0.1, 0.1, 0.1, 0.1, 0.1, 0.1, 0.1, 0.1, 0.1, 0.1, 0.1, 0.1, 0.1, 0.1, 0.1, 0.1, 0.1, 0.1, 0.1, 0.1, 0.1, 0.1, 0.1, 0.1, 0.1, 0.1, 0.1, 0.1, 0.1, 0.1, 0.1, 0.1, 0.1, 0.1, 0.1, 0.1, 0.1, 0.1, 0.1, 0.1, 0.1, 0.1, 0.1, 0.1, 0.1, 0.1, 0.1, 0.1, 0.1, 0.1, 0.1, 0.1, 0.1, 0.1, 0.1, 0.1, 0.1, 0.1, 0.1, 0.1, 0.1, 0.1, 0.1, 0.1, 0.1, 0.1, 0.1, 0.1, 0.1, 0.1, 0.1, 0.1, 0.1, 0.1, 0.1, 0.021740598583957705, 0.023522424777595585, 0.17755326497383014, 0.023916732224847487, 0.02391112058432857, 0.1, 0.1, 0.01, 0.021073625090503492, 0.01, 0.024590554741971866, 0.22840196271234414, 0.03765045475945342, 0.01, 0.1, 0.1, 0.34920988520976926, 0.9973154546834865, 0.01, 0.01, 0.017313738301449888, 0.01, 0.016268610520048497, 0.1, 0.1, 0.47799392728900975, 0.4635030304211094, 0.1, 0.1, 0.1, 0.1, 0.1, 0.1, 0.1, 0.1, 0.1, 0.1, 0.1, 0.1, 0.1, 0.1, 0.1, 0.1, 0.1, 0.1, 0.1, 0.1, 0.1, 0.1, 0.1, 0.1, 0.1, 0.1, 0.1, 0.1, 0.1, 0.1, 0.1, 0.1, 0.1, 0.1, 0.1, 0.1, 0.1, 0.1, 0.1, 0.1, 0.1, 0.1, 0.1, 0.1, 0.1, 0.1, 0.1, 0.1, 0.1, 0.1, 0.1, 0.1, 0.1, 0.1, 0.1, 0.1, 0.1, 0.1, 0.1, 0.1, 0.1, 0.1, 0.1, 0.1, 0.1, 0.1, 0.1, 0.1, 0.1, 0.1, 0.1, 0.1, 0.1, 0.1, 0.1, 0.1, 0.1, 0.1, 0.1, 0.1, 0.1, 0.1, 0.1, 0.1, 0.1, 0.1, 0.1, 0.1, 0.1, 0.1, 0.1, 0.1, 0.1, 0.1, 0.1, 0.1, 0.1, 0.1, 0.1, 0.1, 0.1, 0.1, 0.1, 0.1, 0.1, 0.1, 0.1, 0.1, 0.01, 0.010086907720412604, 0.01, 0.09999986541931395, 0.010506983223693813, 0.1, 0.1, 0.0324403125123358, 0.01529355321127756, 0.1, 0.1, 0.1, 0.1, 0.1, 0.1, 0.1, 0.1, 0.1, 0.1, 0.1, 0.1, 0.1, 0.1, 0.1, 0.1, 0.1, 0.1, 0.017312304093202915, 0.01, 0.01, 0.01, 0.06974581061261687, 0.1, 0.1, 0.061758927893780936, 0.038358881432389774, 0.01, 0.01, 0.07219646680307819, 0.010000000035967037, 0.010049880509855431, 0.1, 0.1, 0.021304336554241094, 0.02680233596918782, 0.01, 0.01104686916123704, 0.01, 0.09999977622895526, 0.01, 0.1, 0.1, 0.05162887938698285, 0.01361646845748623, 0.1, 0.1, 0.1, 0.1, 0.1, 0.1, 0.1, 0.1, 0.1, 0.1, 0.1, 0.1, 0.1, 0.1, 0.1, 0.1, 0.1, 0.1, 0.01357017172712719, 0.010877565736566999, 0.03371374951155375, 0.01, 0.01, 0.1, 0.1, 0.6734315067194951, 1.2106295450791453, 0.01, 0.01, 0.1588380759526984, 0.045022620762956, 0.01, 0.1, 0.1, 0.3632715656893641, 1.3764443798236259]}, "policy_weights": [0.04553356394171715, -0.023975923657417297, 0.05805247649550438, -0.0634918287396431, 0.1233554258942604, 0.5867797136306763, -0.19178350269794464, -0.09003520756959915, 0.5369347333908081, 0.37629660964012146, 0.12819184362888336, -0.019483597949147224, 0.10901077836751938, 1.6142655611038208, -0.13240587711334229, -0.10862969607114792, 0.12007260322570801, 0.5890807509422302, -0.03815626725554466, 0.05933183804154396, -0.15141987800598145, 0.3614062964916229, -0.030955610796809196, -0.1203768327832222, 0.12857268750667572, 0.09949406236410141, 0.040192846208810806, -0.013282583095133305, 0.18451286852359772, -0.2419300228357315, -0.06461197882890701, -0.11073911935091019, 0.2247774749994278, 0.6642284393310547, -0.03881830349564552, 0.016745714470744133, -0.28978797793388367, 0.13594411313533783, 0.11859167367219925, 0.10275708884000778, -0.3059942424297333, 0.9391593337059021, -0.04447931423783302, 0.191345676779747, 0.22806455194950104, 0.0639297291636467, 0.06162482127547264, 0.021996332332491875, -0.06333910673856735, -0.36287543177604675, -0.10433709621429443, -0.16433288156986237, -0.09539636224508286, 0.21494753658771515, -0.09513788670301437, -0.10158050805330276, 0.12922967970371246, 0.5921792387962341, -0.13408111035823822, 0.2974705398082733, -0.14567506313323975, -0.8226683735847473, 0.08934693783521652, 0.01698140986263752, 0.16983912885189056, 1.0515117645263672, -0.026384184136986732, -0.10694969445466995, -0.29100558161735535, 0.3158075213432312, -0.11724983900785446, 0.10914360731840134, 0.7461805939674377, 0.710349977016449, 0.1542438268661499, 0.08498173207044601, 0.37323758006095886, 0.15463532507419586, -0.10760844498872757, -0.014258130453526974, 0.21029432117938995, 1.2514114379882812, 0.1526871770620346, 0.19958949089050293, -0.08287899941205978, -0.43402573466300964, 0.006775724235922098, 0.0023360515478998423, -0.08400779217481613, 0.2156553417444229, -0.006377922836691141, 0.027719048783183098, -0.05454633757472038, -0.3965771198272705, -0.18065454065799713, -0.022485537454485893, -0.02497677691280842, -0.23483611643314362, 0.06256705522537231, 0.14977861940860748, -0.07770287245512009, 0.08197205513715744, -0.027382967993617058, -0.02285526879131794, 0.3245565593242645, -0.32375434041023254, 0.18500502407550812, 0.118880994617939, -0.0697784349322319, 0.3265078365802765, -0.14777874946594238, -0.1292640119791031, 0.3127303123474121, 1.0085011720657349, -0.08996463567018509, 0.005764565896242857, -0.07452083379030228, 0.5469149947166443, -0.10028258711099625, -0.286284476518631, -0.6422682404518127, 1.3554733991622925, 0.0034182220697402954, 0.029136834666132927, 0.046115610748529434, -1.4881352186203003, 0.14845381677150726, 0.05909186601638794, -0.5162630677223206, -0.6320290565490723, -0.031691160053014755, 0.022662339732050896, 0.09937254339456558, 0.12777110934257507, 0.14380909502506256, 0.06199752911925316, 0.36280110478401184, 0.4361410439014435, 0.23255445063114166, -0.08079826086759567, -0.47936585545539856, 0.2631259262561798, -0.18116413056850433, 0.09383951872587204, -0.12382494658231735, 0.3903219401836395, -0.15042604506015778, 0.261264830827713, 0.07755602151155472, 0.42267271876335144, -0.062460724264383316, 0.07014299184083939, -0.07708244770765305, 0.43531957268714905, -0.03772559389472008, 0.20818136632442474, -0.7786179184913635, -0.06630278378725052, 0.12996865808963776, 0.0459788478910923, -0.5818452835083008, -0.6378498673439026, -0.03208130970597267, -0.40354123711586, 0.21514059603214264, -0.2166750431060791, 0.02661745250225067, -0.22789286077022552, -0.5492829084396362, 2.1355528831481934, 0.4524478614330292, 0.4584474563598633, 0.23363454639911652, 0.03412678465247154, -0.02496844343841076, 0.6100577116012573, 0.10484874248504639, 0.13564585149288177, 0.174666628241539, 0.28554749488830566, -0.6646478772163391, -0.052984077483415604, -0.037881676107645035, -0.015008331276476383, 0.026705840602517128, 0.10212243348360062, 0.03658634424209595, 0.2517557144165039, 0.6496472954750061, -0.01825711317360401, 0.21182791888713837, 0.3368728458881378, 0.25284913182258606, 0.12470114976167679, -0.029358265921473503, -0.15650726854801178, -0.7253103256225586, 0.03301742672920227, 0.02126323990523815, 0.12338686734437943, 0.10965541750192642, 0.16665004193782806, -0.28902626037597656, 0.008044109679758549, 0.19284486770629883, 0.24904845654964447, 0.08773719519376755, -0.16568253934383392, 0.13820411264896393, 0.045785222202539444, -0.03020551986992359, -0.713073194026947, 0.03255394473671913, 0.01982090063393116, -0.12032925337553024, -0.21444042026996613, 0.18548010289669037, 0.04216933622956276, 0.07655036449432373, 0.24595166742801666, -0.59006267786026, -0.13380597531795502, 0.0013675278751179576, -0.024493856355547905, -0.8663186430931091, -0.03860434889793396, -0.03648906946182251, 0.3884901702404022, 0.24892856180667877, -0.060603026300668716, -0.20988829433918, -0.2915966212749481, -0.08011852204799652, 0.05730437859892845, -0.10301323980093002, 0.403068870306015, -0.33068540692329407, 0.07570724934339523, 0.13096167147159576, 0.09977763891220093, 1.6856023073196411, 0.04797518625855446, -0.13508011400699615, -0.10085686296224594, 0.37743523716926575, 0.1485593467950821, 0.06986480206251144, -0.011657170951366425, 0.4933910071849823, 0.05680340901017189, -0.059966620057821274, -0.2080286294221878, -0.7126469016075134, 0.10190462321043015, -0.17316104471683502, -0.30666211247444153, -0.22729922831058502, -0.1290234476327896, 0.20651642978191376, 0.04642408713698387, -0.3028697669506073, -0.062305692583322525, -0.03615868464112282, -0.07900452613830566, -0.5444460511207581, -0.15397417545318604, 0.17254091799259186, 0.14931094646453857, -0.18681500852108002, -0.007599123287945986, 0.08069104701280594, -0.015530078671872616, 0.20460820198059082, -0.07157932966947556, -0.15462161600589752, -0.03227734938263893, 0.08468068391084671, 0.0648161843419075, -0.1672760397195816, -0.3478374779224396, -1.2135926485061646, 0.0569380484521389, 0.14269673824310303, 0.18697869777679443, 0.1462632566690445, -0.08749978989362717, 0.08953201025724411, -0.12185395509004593, 0.5118227601051331, 0.10980892926454544, -0.004954793024808168, -0.5251755118370056, -0.3102159798145294, 0.08048183470964432, -0.12212289124727249, 0.387868732213974, 0.5811514258384705, 0.14026273787021637, -0.08287274837493896, -0.05121847987174988, -0.15183545649051666, -0.12862063944339752, 0.19579267501831055, 0.5839391350746155, 0.9305683970451355, -0.06780188530683517, -0.0036287906114012003, -0.6747703552246094, -0.9848410487174988, -0.04464277997612953, -0.06829798966646194, 0.5717982649803162, 0.30016079545021057, -0.0022217032965272665, 0.17209364473819733, -0.2672736346721649, -0.2853265106678009, -0.07824968546628952, 0.06344520300626755, 0.010225712321698666, -0.7949857115745544, -0.006040140986442566, -0.03590526804327965, -0.07544320821762085, 1.3586558103561401, 0.05940217152237892, 0.024752290919423103, 0.35073140263557434, 0.9658346772193909, 0.03352498635649681, 0.0686570480465889, -0.45402732491493225, -0.2307843416929245, -0.98747318983078, -0.11965557187795639, 0.5970630049705505, -0.8117995262145996, 0.6859434247016907, 0.34388187527656555, -0.4448646306991577, -0.38480615615844727, 0.6132335662841797, 0.42597147822380066, -0.010871930979192257, 0.016813727095723152, 0.08479040116071701, -0.6062613725662231, 0.3110021650791168, 0.012582509778439999, -0.04512685164809227, -0.23909924924373627, -0.05439502373337746, -0.029726387932896614, -0.13126517832279205, 0.23929311335086823, -0.05196940526366234, -0.09624820202589035, -0.05046403780579567, -0.10896290093660355, -0.03604334220290184, -0.038549717515707016, -0.028932927176356316, 0.38432788848876953, 0.06031889095902443, -0.010973350144922733, -0.10675667971372604, 0.24971364438533783, -0.7480326294898987, 0.14299844205379486, -0.03581094741821289, 0.22899483144283295, 0.2566819489002228, -0.015614359639585018, -0.1687157303094864, 0.12931786477565765, -0.8379868865013123, 0.1654428392648697, 0.08020252734422684, -0.03506103530526161, 0.22380183637142181, -0.031084148213267326, 0.153963103890419, 0.15958596765995026, -0.1517551988363266, 0.10246872156858444, -0.07912873476743698, 0.09128331393003464, 0.3475343883037567, 0.017251087352633476, 0.025561748072504997, -0.3911196291446686, 0.23042915761470795, -0.10720368474721909, 0.017938656732439995, 0.014601529575884342, 0.07228904962539673, 0.045984651893377304, -0.020863233134150505, -0.3058485686779022, -0.24867866933345795, -0.16510523855686188, 0.16559936106204987, 0.34259033203125, -0.7114534974098206, -0.03706153854727745, 0.11501406878232956, 0.17646493017673492, -0.27113083004951477, 0.12695811688899994, 0.09398538619279861, 0.20791269838809967, -0.30777329206466675, 0.0133237699046731, 0.012602568604052067, 0.09289256483316422, 0.7310066819190979, -0.10031187534332275, 0.12958289682865143, 0.0005502974963746965, -0.19106291234493256, 0.20482562482357025, 0.11752044409513474, 0.13133907318115234, -0.1702955812215805, 0.06727360934019089, 0.14184798300266266, 0.21895624697208405, -0.4611988067626953, 0.015542627312242985, 0.09734988957643509, 0.15739645063877106, -0.11667870730161667, -0.0419161356985569, 0.04514667019248009, 0.11635018140077591, 0.027513548731803894, -0.06878561526536942, 0.0887606218457222, 0.12626542150974274, -0.4304104149341583, -0.09937810152769089, 0.004320953506976366, -0.38131651282310486, 0.4034390151500702, 0.017777161672711372, -0.038254234939813614, 0.1406082957983017, -0.07375698536634445, 0.025272248312830925, 0.171981081366539, -0.5149298310279846, -1.2825995683670044, -0.1187823936343193, 0.045436445623636246, 0.18783901631832123, -0.553861677646637, 0.0117094861343503, 0.23386286199092865, 0.194646954536438, 0.3211198151111603, 0.19929610192775726, 0.13291741907596588, -0.4304989278316498, 0.9023913741111755, 0.08290653675794601, 0.12635459005832672, -0.18234778940677643, -0.23585106432437897, -0.04887252673506737, 0.0056692552752792835, -0.2118871957063675, 0.03648165240883827, 0.07524090260267258, -0.2016913741827011, -0.07177631556987762, 0.075468048453331, 0.07742507010698318, -0.18681226670742035, -0.7940093874931335, 0.2386026531457901, 0.0036581752356141806, 0.030615657567977905, -1.5385494232177734, -0.4535331428050995, -0.0636143609881401, -0.027960987761616707, -0.11355520039796829, 0.35458609461784363, 0.1437472105026245, 0.07168949395418167, 0.10144027322530746, 0.36846235394477844, 0.17767180502414703, -0.04369330033659935, 0.5285177826881409, -1.3008309602737427, -0.07907574623823166, 0.06442809849977493, 0.09565174579620361, -0.26743224263191223, -0.13494490087032318, -0.04952118173241615, -0.4055798053741455, -0.42253682017326355, 0.06367676705121994, -0.245591938495636, 0.1737508773803711, -0.3461422622203827, -0.23787663877010345, 0.6803581118583679, 0.6955844759941101, -0.6668053269386292, 0.2729353606700897, 0.8131341338157654, -0.5563874244689941, 0.05482916161417961, -0.06012433394789696, -0.005583977792412043, -0.07182501256465912, 0.1451519876718521, -0.1707637459039688, -0.4373001754283905, 0.11819037795066833, -0.10533154755830765, -0.17089533805847168, -0.1547975391149521, -0.47134068608283997, 0.045270297676324844, 0.02617262862622738, -0.38645699620246887, -0.7833449244499207, -0.07258342951536179, -0.08338392525911331, -0.08197318762540817, -0.45105984807014465, -0.007636077236384153, 0.10776162892580032, -0.47916510701179504, -1.500697135925293, 0.054314617067575455, 0.022094158455729485, 0.23794817924499512, 0.3827178180217743, 0.14482034742832184, 0.15382669866085052, -0.10691987723112106, -1.2645920515060425, 0.09311322122812271, -0.08906757086515427, 0.256803959608078, -0.0824778601527214, 0.10973752290010452, 0.08496075868606567, 0.10621703416109085, -0.45987173914909363, -0.038510292768478394, -0.006833349820226431, 0.292986661195755, 0.8005280494689941, -0.027430221438407898, 0.11519216746091843, -0.5626816153526306, 0.15011726319789886, 0.047710154205560684, -0.023088810965418816, 0.13874004781246185, 0.30928781628608704, 0.1733572632074356, -0.18674404919147491, -0.2273738533258438, 0.4646134674549103, -0.07702671736478806, 0.0008261706680059433, -0.5274468064308167, -0.44565773010253906, 0.06358509510755539, 0.03717857971787453, -0.4728541076183319, -0.22356009483337402, 0.10595165938138962, 0.021788807585835457, -1.5563058853149414, -1.8908849954605103, -0.07732696086168289, 0.13345147669315338, 0.03422072157263756, 0.5041260123252869, 0.01760147325694561, 0.07082885503768921, 0.15912427008152008, 0.17896319925785065, 0.018634112551808357, 0.06623225659132004, 0.0848662257194519, -0.6783842444419861, 0.06184595450758934, 0.22113895416259766, -0.03901657089591026, -0.6698641777038574, -0.0747571513056755, 0.12568126618862152, -0.20211298763751984, 0.01057751476764679, -0.09657049179077148, -0.12330294400453568, -0.023704854771494865, 0.23102782666683197, 0.09427940100431442, 0.10009630769491196, -0.2681526839733124, -0.7027130722999573, 0.02297709695994854, -0.12305761128664017, 0.033547405153512955, -0.3892846405506134, 0.07918012142181396, -0.09516286104917526, -0.04739869013428688, 0.005231823772192001, -0.048164840787649155, 0.17191599309444427, 0.1850576251745224, -0.49418115615844727, 0.036433663219213486, 0.08634866029024124, -0.15033866465091705, 0.04719787463545799, -0.08878255635499954, -0.10941588133573532, 0.06645477563142776, -0.23436546325683594, -0.13252998888492584, -0.17929841578006744, -0.5427374243736267, -0.3579871952533722, -0.15810967981815338, -0.0762365534901619, -0.21292006969451904, -0.8153963685035706, 0.12871672213077545, 0.13489983975887299, -0.10813044756650925, 0.2093675136566162, -0.055270951241254807, -0.09449458867311478, -0.6298485994338989, -0.12043002247810364, -0.02683562971651554, 0.23120473325252533, 0.2639823257923126, -0.8472136855125427, 0.16187594830989838, -0.042535100132226944, 0.5823879837989807, -0.4225721061229706, 0.10382545739412308, 0.011124037206172943, 0.2627008259296417, 0.20009849965572357, 0.2680874168872833, 0.005726379808038473, -0.13933075964450836, 0.4408246576786041, -0.07227928191423416, -0.1282416582107544, 0.13116945326328278, 0.45861878991127014, 0.11721300333738327, 0.019383354112505913, 0.7153556942939758, 0.26929304003715515, -0.14153943955898285, -0.020860446617007256, -0.7421967387199402, -0.6170059442520142, -0.7410430312156677, -0.5403071641921997, 0.23906920850276947, -0.03194596990942955, 0.47670987248420715, -0.9924830794334412, -0.30845120549201965, 0.2484864592552185, 0.3230953812599182, 0.2862689793109894, 0.453391432762146, 0.046852800995111465, 0.06895870715379715, 0.134478360414505, 1.1106960773468018, 0.08406548947095871, -0.01692040078341961, -0.25554993748664856, 0.19532610476016998, 0.08793468028306961, -0.05799853429198265, 0.20100997388362885, 0.6496668457984924, -0.04969465360045433, 0.09646614640951157, 0.16133059561252594, -0.5222778916358948, 0.1796724796295166, -0.1208864375948906, -0.15055741369724274, 0.5637511610984802, 0.012159980833530426, -0.11370671540498734, 0.0698658749461174, 0.25656482577323914, 0.07592201977968216, -0.15062223374843597, -0.08018093556165695, -0.25502684712409973, 0.06587065011262894, -0.058505889028310776, 0.15662695467472076, 0.7099379897117615, -0.08595740050077438, 0.05873512849211693, -0.0043594385497272015, -0.891108512878418, -0.003176033264026046, 0.1045057401061058, 0.007039360236376524, -0.5044851899147034, 0.056600574404001236, -0.07432205229997635, -0.38240835070610046, -0.11384344846010208, -0.13737080991268158, -0.11660600453615189, 0.18975509703159332, -0.13481783866882324, -0.17409707605838776, 0.1883312463760376, 0.38569942116737366, 0.6415053009986877, 0.11330354958772659, 0.07122785598039627, -0.07961427420377731, -0.44567587971687317, -0.13385272026062012, -0.028798073530197144, -0.5164398550987244, 0.33955857157707214, 0.028639910742640495, 0.038251277059316635, -0.13920220732688904, -0.45532843470573425, -0.09171272069215775, 0.10115651041269302, -1.3530912399291992, -1.777694821357727, 0.0043899682350456715, -0.04340178146958351, 0.2488279491662979, 0.809266984462738, 0.009211092256009579, 0.1753300577402115, -0.008453628979623318, 0.12289296835660934, -0.010597900487482548, 0.04562464356422424, 0.056430939584970474, 0.7702057957649231, -0.09987825155258179, -0.02090938203036785, -0.18889929354190826, -1.1150578260421753, -0.01857130415737629, 0.004747103434056044, -0.06065279245376587, -0.37708285450935364, -0.06889701634645462, 0.2721441090106964, -0.11556816846132278, -0.35454490780830383, 0.09631079435348511, 0.19090868532657623, -0.02213253080844879, 0.6613464951515198, 0.1583692878484726, -0.12732098996639252, 0.061612606048583984, -0.08000826090574265, 0.26888158917427063, -0.032013360410928726, -0.007318578194826841, 0.4520616829395294, -0.0960654690861702, 0.17615796625614166, -0.5152855515480042, 0.37454065680503845, 0.1370541900396347, 0.0673896074295044, 0.1537775844335556, -0.20457981526851654, 0.15335725247859955, -0.15900908410549164, -0.31801244616508484, 0.2550153434276581, 0.022532863542437553, 0.2217753678560257, -0.41597533226013184, 0.10901892930269241, 0.10412324219942093, 0.20690204203128815, -0.26674509048461914, -0.20118214190006256, -0.05275428295135498, -0.14557813107967377, 0.38577941060066223, 0.07216470688581467, 0.12987399101257324, 0.0031117741018533707, 0.5789781212806702, 0.9371901154518127, -0.07205582410097122, 0.02103695087134838, 0.44439950585365295, 0.23952680826187134, -0.07836955040693283, 0.062034670263528824, -0.011348932050168514, 0.15355190634727478, 0.0032934125047177076, -0.14073537290096283, -0.325424462556839, -0.0671280100941658, 0.12503230571746826, -0.025691566988825798, -0.10077428072690964, -0.37315067648887634, -0.1871156543493271, -0.01622389256954193, 0.5728436708450317, -0.005291403736919165, 0.017021430656313896, 0.07466644048690796, -0.1872725635766983, 0.6769047379493713, -0.05430470034480095, -0.03179759159684181, -0.6118879914283752, -0.7391950488090515, -0.28911474347114563, -0.4627946615219116, -0.17780137062072754, -0.3627794086933136, -0.5772209763526917, -0.744217574596405, 0.029570231214165688, 0.30318015813827515, 0.43687155842781067, 0.4271395206451416, 0.4290972054004669, 0.07815670222043991, -0.007246329914778471, -0.49916359782218933, -0.7201446890830994, -0.04509400948882103, 0.07436143606901169, -0.6035175323486328, -0.09759622067213058, -0.18698750436306, 0.12223614007234573, 0.16214273869991302, -0.5216990113258362, 0.0638081356883049, -0.29370567202568054, 0.09984778612852097, 0.3340044319629669, -0.19134771823883057, 0.05608701333403587, 0.30397680401802063, 0.4054241478443146, -0.07154124230146408, -0.1462240219116211, 0.07969330996274948, -0.2214958518743515, -0.022242845967411995, -0.12546251714229584, -0.2692277729511261, -0.16305385529994965, -0.10210942476987839, -0.03843802586197853, 0.1857260912656784, 0.8230103850364685, -0.062465544790029526, -0.058650728315114975, -0.056248243898153305, -0.436422199010849, -0.07608139514923096, -0.10239075869321823, 0.5494008660316467, 0.140785351395607, 0.029771624132990837, -0.029629496857523918, -0.20529139041900635, 0.17485368251800537, 0.16430102288722992, 0.0287857037037611, -1.016367793083191, 0.04189875349402428, -0.16855476796627045, 0.05728166922926903, -0.05613500252366066, -0.050546225160360336, -0.16824473440647125, -0.05135367438197136, 0.04573553428053856, -0.4803714454174042, 0.026475826278328896, -0.07938861101865768, -0.043394748121500015, -0.2514743506908417, -0.08259253948926926, 0.08015459030866623, -0.5163026452064514, -0.4122481048107147, 0.16698767244815826, -0.11220847815275192, -0.6468502283096313, 1.2979975938796997, -0.09619700908660889, 0.0004195243527647108, -0.09992528706789017, 0.44628283381462097, 0.03794678673148155, -0.05596357583999634, -0.040885984897613525, 0.16156135499477386, -0.06083410605788231, -0.0003498675941955298, 0.23836134374141693, -0.41333308815956116, 0.018943192437291145, -0.007628329563885927, -0.004532485734671354, 0.3778684139251709, 0.026825925335288048, -0.03447980061173439, -0.11437226086854935, -0.259990930557251, 0.07945441454648972, -0.012498623691499233, -0.003071516752243042, -0.2727985084056854, 0.27674242854118347, 0.1795903593301773, -0.11347150057554245, -0.7963962554931641, -0.014775156043469906, -0.0157660823315382, -0.003941431175917387, -0.08816646784543991, -0.22994516789913177, -0.05342715606093407, 0.09544817358255386, 0.20465920865535736, 0.13093985617160797, -0.03437026962637901, -0.03820139542222023, 0.2419910579919815, 0.1357250064611435, 0.028138218447566032, 0.008718340657651424, 1.2548867464065552, 0.09737347811460495, 0.03188001736998558, -0.2410716861486435, -1.0111750364303589, 0.022681476548314095, 0.12549914419651031, -0.6346577405929565, 0.45878997445106506, 0.028865722939372063, 0.03003370575606823, -0.34030869603157043, -0.9650411009788513, -0.2657490074634552, 0.07254505902528763, -0.13962005078792572, -0.2095615714788437, 0.17396403849124908, -0.0976022407412529, -0.6063495874404907, -0.7148776650428772, -0.16535340249538422, 0.07344358414411545, 0.6268800497055054, -0.11137524247169495, -0.007969521917402744, -0.06298179179430008, 0.5116187334060669, -0.07876407355070114, 0.14177049696445465, 0.0894041582942009, -0.2574301064014435, -0.3353526294231415, 0.10470014810562134, -0.07669376581907272, -0.4305148422718048, -0.5322089791297913, 0.11841917783021927, 0.0703592374920845, 0.8087454438209534, 0.4325961768627167, -0.09151757508516312, -0.07862377911806107, 0.6959963440895081, -0.6479206681251526, 0.2345726490020752, -0.18529736995697021, -0.7204450964927673, -0.552584171295166, -1.0645283460617065, -0.3406219780445099, 1.0824801921844482, -0.937833845615387, 0.9134909510612488, 0.1057128980755806, -0.8143383860588074, 0.610733151435852, -0.17945575714111328, 0.5509157776832581, -0.4603702127933502, 0.059084538370370865, 0.16520430147647858, -0.06061564385890961, -0.22502349317073822, -0.056992169469594955, 0.08601284772157669, 0.0727764144539833, -0.3487981855869293, 0.049162860959768295, -0.1447117179632187, 0.04036954045295715, 0.9358034729957581, 0.18008042871952057, 0.04843354597687721, -0.022355081513524055, 0.5248685479164124, 0.02922922559082508, -0.00487099913880229, -0.07194524258375168, -0.44511696696281433, -0.09988618642091751, 0.02019655890762806, -0.049484942108392715, 0.29602858424186707, -0.031187864020466805, 0.09110570698976517, -0.363540917634964, -0.31921008229255676, -0.24849151074886322, -0.038042787462472916, -0.3300120532512665, -0.914634644985199, -0.10336613655090332, 0.027880700305104256, -0.006696320604532957, 1.3243160247802734, -0.0437811054289341, -0.017169132828712463, 0.17474664747714996, 0.38419389724731445, -0.07892513275146484, 0.11914419382810593, 0.9233217835426331, 1.2617005109786987, -0.1690363734960556, -0.0053170244209468365, -0.13037656247615814, 0.31934234499931335, 0.03104635886847973, 0.19811545312404633, 0.1876957267522812, -0.445341557264328, 0.09218687564134598, 0.004785590339452028, 0.15097616612911224, 0.5130930542945862, 0.03937142714858055, 0.05013133957982063, -0.3219985365867615, -0.5386576056480408, 0.015433340333402157, 0.007428228389471769, -0.25228720903396606, 0.2731075584888458, -0.014286861754953861, 0.060289859771728516, -0.10676757246255875, 0.09521722793579102, -0.0569988489151001, 0.07509446889162064, -0.38425394892692566, -0.5768933296203613, -0.2322382777929306, -0.23360134661197662, -0.24942134320735931, -0.1526487022638321, -0.04332831874489784, 0.13123668730258942, 0.011299395002424717, 0.02790755219757557, -0.04106367006897926, -0.18176482617855072, -0.27114370465278625, -1.9516202211380005, -0.12060617655515671, -0.010053946636617184, 0.022090330719947815, 0.40650463104248047, 0.11460196226835251, -0.013221890665590763, -0.18007004261016846, -1.4578057527542114, 0.004141754936426878, 0.12644147872924805, -0.05826228857040405, -0.07509487122297287, -0.05154549703001976, 0.014095366932451725, -0.08762717992067337, -0.5978664755821228, 0.04978352412581444, -0.062016550451517105, -0.01427996251732111, -0.3713158071041107, 0.069489486515522, 0.15038682520389557, 0.023868916556239128, 0.32707712054252625, 0.1640254259109497, -0.13410650193691254, -0.36146238446235657, -0.3918886184692383, 0.027260025963187218, 0.1615908294916153, 0.5250257849693298, 0.6025781035423279, -0.2591197192668915, 0.020733416080474854, -0.7367464900016785, -0.07340913265943527, -0.07802944630384445, 0.04121032729744911, -0.10753685235977173, 0.21216924488544464, 0.028886737301945686, 0.11526834219694138, 0.204954132437706, 0.20979531109333038, 0.01108712051063776, -0.12958623468875885, 0.24045751988887787, 0.3642675578594208, -0.1443634182214737, 0.10749994963407516, 0.11686421185731888, 0.09828004986047745, -0.09446543455123901, 0.08414728194475174, 0.5296870470046997, 0.6161466836929321, -0.04229259118437767, 0.14407207071781158, -0.06967227905988693, 0.15015806257724762, 0.10637172311544418, 0.07200806587934494, 0.09057606011629105, 0.7916720509529114, -0.07042121887207031, 0.07158268243074417, -0.1568313091993332, -0.28600841760635376, 0.0007080980576574802, -0.010520369745790958, -0.22187598049640656, -0.22409294545650482, -0.0423693023622036, -0.03067329339683056, -0.6558794379234314, -0.5602113008499146, -0.19995911419391632, -0.8583117127418518, 0.19267360866069794, -0.21659018099308014, -0.06455381214618683, 0.07076477259397507, -0.5205284357070923, -0.027833065018057823, 0.058793503791093826, 0.34260883927345276, -0.48386475443840027, -0.00876657571643591, -0.12229668349027634, 0.949199914932251, -0.4206058084964752, -0.156553253531456, 0.28832122683525085, 1.0540837049484253, -0.39571642875671387, -0.013086955063045025, 0.1947496086359024, 0.3391818702220917, -0.3360808193683624, -0.13104881346225739, -0.04635488614439964, -0.10778295248746872, 0.14583109319210052, 0.1272670179605484, 0.08073950558900833, -0.29003405570983887, -0.30545684695243835, -0.10110176354646683, -0.009604930877685547, 0.11707700043916702, -0.337691992521286, 0.00742321414873004, 0.06593340635299683, 0.20091676712036133, 0.024520298466086388, -0.18240953981876373, 0.004057742655277252, 0.0680578276515007, -0.6853313446044922, 0.19543753564357758, 0.01788625307381153, 0.2712543308734894, 0.5338311791419983, 0.045578692108392715, 0.009792395867407322, -0.8696944117546082, -0.29422399401664734, 0.034088198095560074, 0.16024495661258698, 1.0859670639038086, 0.550346314907074, 0.0664835050702095, 0.00799547042697668, 0.2514796555042267, -0.21080143749713898, 0.07943426817655563, 0.08968966454267502, 0.2889917194843292, 0.3225305378437042, -0.027696028351783752, 0.03455210104584694, -0.27860379219055176, -0.44261738657951355, -0.1258932501077652, -0.008628769777715206, 0.011199581436812878, -0.6686267256736755, 0.06553124636411667, -0.048547353595495224, 0.4125281870365143, 0.5459383726119995, -0.010935350321233273, 0.0027951335068792105, -0.33720752596855164, -0.2448418289422989, 0.0018443259177729487, -0.2767431437969208, 0.035879965871572495, -1.1816195249557495, 0.038794394582509995, -0.040237244218587875, 0.05141603946685791, -0.04453933611512184, -0.24895571172237396, 0.03229561820626259, 0.07747601717710495, -0.8472756743431091, 0.07756942510604858, 0.02459113486111164, -0.18606974184513092, 0.13360893726348877, 0.023949233815073967, 0.06893832236528397, 0.1814412921667099, 0.5034598708152771, 0.0786212608218193, -0.11383592337369919, -0.32198429107666016, -0.16569019854068756, 0.23903463780879974, -0.023392466828227043, -0.2952902019023895, -0.40005603432655334, 0.02880472131073475, -0.0033764417748898268, -0.008571312762796879, -0.1857815980911255, 0.2149191051721573, 0.013078154064714909, 0.47638896107673645, -0.00614250497892499, 0.07387953251600266, 0.07803791016340256, -0.1287207454442978, 0.07643450051546097, 0.16584385931491852, 0.05892175808548927, 0.2284712940454483, 0.3033849895000458, 0.18987266719341278, -0.147636279463768, -0.3946714699268341, -0.7514843940734863, -0.07274056226015091, 0.10537727922201157, -0.4181014597415924, 0.12266723066568375, 0.02196374349296093, 0.04027703031897545, 0.005926464218646288, 0.8365545868873596, 0.07418357580900192, -0.026127545163035393, -0.7844838500022888, -0.410515159368515, 0.025501957163214684, 0.14292024075984955, 0.40167900919914246, 0.750895082950592, 0.005751143675297499, -0.06848417967557907, -0.8305838704109192, 0.15765775740146637, 0.1457158476114273, 0.0488511361181736, 0.3308926224708557, 0.6531000733375549, -0.13116014003753662, -0.08383785933256149, 0.1330845206975937, 0.27358558773994446, 0.041793342679739, -0.18902064859867096, 0.25200319290161133, -0.16494189202785492, 0.11738253384828568, 0.2331090122461319, -1.304465413093567, 0.07573069632053375, 0.042251020669937134, 0.03255227208137512, -0.448007732629776, 0.4929670989513397, -0.007353015709668398, -0.20101173222064972, -0.3930227756500244, -0.15434585511684418, -0.2779912054538727, -0.43005990982055664, 0.13324378430843353, -0.1999666541814804, 0.37525323033332825, 0.724825382232666, -0.6298669576644897, -1.1461961269378662, -0.2184363156557083, 0.34215834736824036, 0.09518774598836899, 0.10109841078519821, -0.11434613913297653, 0.22109973430633545, -0.2552025020122528, 0.052291661500930786, 0.12989209592342377, 0.03463487699627876, 0.36151888966560364, 0.03172456845641136, 0.011404282413423061, -0.14524616301059723, -0.7669916749000549, -0.10396326333284378, -0.18508093059062958, -0.18730966746807098, 0.9887447953224182, -0.09502487629652023, -0.0022490175906568766, 0.16895295679569244, -0.021495269611477852, 0.024535568431019783, 0.025619754567742348, 0.1657954603433609, 0.8031215071678162, -0.018111959099769592, -0.00580888194963336, -0.10489941388368607, -0.319379597902298, 0.033723775297403336, -0.03382909670472145, 0.044573668390512466, -0.5316177010536194, 0.09516938775777817, 0.05482655391097069, -0.16556359827518463, -1.122280240058899, -0.03128954395651817, -0.15049730241298676, -0.2865006625652313, 0.5212597250938416, -0.03248482570052147, 0.053558822721242905, -0.5711866021156311, -0.38778719305992126, -9.959714225260541e-05, -0.08681868761777878, 0.4395798146724701, 0.7583304047584534, 0.12671734392642975, -0.024289162829518318, 0.047578033059835434, 0.39904311299324036, 0.028790267184376717, -0.04420090094208717, -0.05477115511894226, -0.05663037672638893, 0.03379678726196289, -0.005696653854101896, -0.5866252779960632, 0.743342399597168, 0.057551149278879166, 0.10783100873231888, 0.07664881646633148, 1.4630242586135864, 0.04001602903008461, 0.07543105632066727, 0.1845923662185669, -1.7430287599563599, -0.02924594096839428, 0.15994931757450104, 0.4619559943675995, 0.3653406798839569, -0.0002555257815402001, 0.09751098603010178, 0.14233948290348053, 0.285084992647171, -0.06173044070601463, 0.07011746615171432, -0.2614302337169647, 0.7463387846946716, -0.00048039478133432567, -0.14009393751621246, 0.129288911819458, -0.473328560590744, 0.04162197932600975, -0.11952947825193405, 0.010791539214551449, 0.21652628481388092, 0.0075291176326572895, 0.005833353381603956, 0.10046304017305374, 0.18815897405147552, 0.2868005931377411, 0.06564449518918991, 0.08971159905195236, 0.08278287202119827, -0.02488643117249012, 0.16785943508148193, -0.051574766635894775, -0.061472419649362564, 0.06680161505937576, 0.01275815162807703, 0.4021989405155182, 0.28729990124702454, 0.13042034208774567, -0.053687866777181625, 0.031132785603404045, 0.43514934182167053, 0.2563786208629608, 0.18086431920528412, -0.08189624547958374, -0.5913129448890686, -0.1414724737405777, 0.10717908293008804, 0.1251852661371231, 0.11536503583192825, 0.0940927192568779, -0.12212801724672318, -0.4603642225265503, -0.49424174427986145, 0.0028931573033332825, 0.051965147256851196, 0.21848256886005402, 0.650245726108551, 0.15414024889469147, -0.0033620300237089396, 0.09273242950439453, 0.18390370905399323, 0.04925733432173729, -0.04931694641709328, -0.03633997216820717, -1.06131911277771, 0.024594007059931755, -0.011681373231112957, -0.8147554993629456, -0.19078397750854492, -0.2110907882452011, 0.06897812336683273, -0.5220662355422974, -0.4401324689388275, 0.06002914533019066, 0.29469868540763855, 0.01200139056891203, 0.2976813018321991, 0.18297125399112701, 0.025398990139365196, 0.05393567681312561, 0.0960758849978447, -0.03859600052237511, 0.048939112573862076, -0.23010610044002533, -0.31546980142593384, -0.06751071661710739, 0.003717307234182954, -0.25697728991508484, 0.8818159103393555, 0.08056246489286423, -0.17128418385982513, -0.3577907383441925, -0.6276072859764099, -0.11252439022064209, -0.5650462508201599, 0.21417348086833954, -1.4367538690567017, 0.2566054165363312, -1.083303689956665, 0.5876015424728394, -0.10866474360227585, 0.3382055461406708, 0.065784752368927, 0.00026987300952896476, 0.23847006261348724, 0.07899213582277298, -0.3614598214626312, -0.21961943805217743, 0.027218608185648918, -0.03862473741173744, 0.18600179255008698, 0.14252208173274994, -0.01799430139362812, 0.10088467597961426, 0.08371900767087936, -0.14014194905757904, 0.10217491537332535, -0.04465574398636818, -0.29885098338127136, 0.4340188503265381, -0.14530672132968903, 0.022741777822375298, 0.20897696912288666, 0.07450269907712936, 0.2510094940662384, 0.1673063188791275, -0.03384506702423096, 0.7726182341575623, 0.04843779280781746, 0.09462123364210129, -0.18255198001861572, 0.21734340488910675, -0.11701082438230515, 0.005437477957457304, 0.21619565784931183, 0.4061495363712311, 0.15433646738529205, 0.12762142717838287, -0.12533079087734222, 1.1598654985427856, -0.003796894336119294, 0.21085809171199799, 0.2299981266260147, -0.4579620659351349, -0.05153181031346321, -0.07660459727048874, 0.22691084444522858, 0.4596233069896698, 0.06316208094358444, -0.07017987221479416, 0.07736574858427048, 0.24665595591068268, -0.09237097948789597, 0.14676333963871002, 0.04043855890631676, 0.18336568772792816, -0.08325476199388504, -0.10660063475370407, -0.03460786119103432, -0.1811220645904541, 0.1489896923303604, 0.0054522608406841755, 0.09011929482221603, 1.5888813734054565, 0.004377502482384443, 0.02644619159400463, 0.6742809414863586, 0.07121358811855316, -0.10039293020963669, -0.09961050003767014, 0.4553788900375366, 1.9112610816955566, -0.14162693917751312, 0.02358326129615307, 0.06645631045103073, -0.11003173142671585, -0.18534350395202637, -0.07606232911348343, 0.18601346015930176, -0.2045442909002304, -0.09112066775560379, -0.05325790122151375, 0.09099959582090378, 0.38476070761680603, 0.02115003578364849, 0.01716543547809124, -0.3219606578350067, 0.7245010733604431, 0.09807205945253372, -0.008133546449244022, 0.12027920037508011, -0.008809431456029415, 0.1283782571554184, 0.09079336374998093, 0.0022991823498159647, 0.24683929979801178, 0.07981806248426437, -0.12073075026273727, -0.10182739049196243, 0.7789535522460938, 0.10773062705993652, 0.047850463539361954, -0.2248849719762802, -0.679222583770752, 0.21206976473331451, -0.04706484451889992, -0.14612208306789398, 0.21038563549518585, 0.15703262388706207, -0.04393082484602928, -0.08323419839143753, 0.29054024815559387, 0.05341922864317894, -0.058845218271017075, 0.12099934369325638, 0.8565976023674011, -0.02181863971054554, 0.005281559657305479, 0.061954375356435776, -0.22879551351070404, 0.02658560685813427, 0.06821364909410477, -0.3661693036556244, -0.6309794783592224, -0.11915696412324905, 0.046366747468709946, -0.31330326199531555, -0.32966020703315735, 0.1575697511434555, 0.0795174241065979, -0.4331808090209961, 0.7515044808387756, 0.09664302319288254, -0.09542196244001389, 0.23600251972675323, 0.4242318570613861, 0.03991958498954773, -0.02523786760866642, -0.10351704806089401, -0.7554675936698914, -0.038376059383153915, -0.21802090108394623, -0.6705141663551331, 0.7072580456733704, 0.27338191866874695, 0.20439814031124115, 0.22553060948848724, -0.2698190212249756, 0.06935333460569382, 0.03471100330352783, -0.09792076796293259, -0.6214908957481384, -0.06779998540878296, 0.05169033631682396, 0.6525327563285828, 1.016739010810852, 0.101634182035923, -0.0799633264541626, -0.3702700436115265, 0.19399352371692657, -0.07316052168607712, 0.3188032805919647, -0.6323343515396118, -0.34934690594673157, 1.650094985961914, -0.293916255235672, -1.2358158826828003, -0.42755603790283203, -0.08168275654315948, -0.2611059248447418, 0.3043646812438965, -0.16698098182678223, -0.5779281854629517, 0.45818838477134705, 0.044427040964365005, 0.23772738873958588, -0.12353945523500443, -0.1682688146829605, 0.07961027324199677, 0.04074486717581749, 0.11883354932069778, -0.06415634602308273, -1.2344282865524292, 0.13055191934108734, -0.13183675706386566, 0.0652778223156929, -0.5670261979103088, 0.1597437709569931, -0.017769696190953255, -0.4249197542667389, -0.3199911415576935, 0.13216732442378998, 0.1272873729467392, -0.17895126342773438, -0.2817394435405731, -0.18064294755458832, 0.021493880078196526, -0.40525051951408386, -1.1180459260940552, 0.132301464676857, -0.12140869349241257, 0.08498596400022507, 0.618190348148346, 0.06320380419492722, -0.10912171751260757, -0.133790984749794, -0.21223084628582, -0.056990381330251694, -0.06513256579637527, 0.07493449002504349, 0.1828707456588745, -0.05086866021156311, 0.07801581174135208, -0.23989678919315338, -0.10767630487680435, -0.05520438775420189, 0.08513761311769485, -0.38240858912467957, -0.09762442111968994, -0.04213178530335426, 0.09220438450574875, -0.04173097386956215, -0.4960184097290039, -0.08594263345003128, 0.1434265524148941, -0.32748958468437195, -0.09496868401765823, -0.03321847319602966, -0.009933934547007084, 0.007528051268309355, -0.0617828406393528, -0.02452648989856243, -0.09024465084075928, 0.1794733852148056, 0.3220837414264679, -0.09730357676744461, 0.05162521079182625, 0.5366325378417969, 0.3546264171600342, -0.13209950923919678, -0.008092680014669895, -0.31452304124832153, 1.5158592462539673, -0.03194436803460121, 0.08474140614271164, 0.31490185856819153, -0.435657262802124, 0.09961215406656265, -0.14620639383792877, -0.2042161226272583, 0.12421143800020218, -0.1113523319363594, -0.059309061616659164, 0.2822735011577606, 0.06119316443800926, -0.07523954659700394, -0.29023268818855286, 0.04042750969529152, -0.4431332051753998, 0.03291260823607445, 0.06333572417497635, -0.039102282375097275, -0.5296162962913513, -0.19214795529842377, -0.07765907794237137, 0.031786832958459854, 0.6394504904747009, -0.2627313435077667, -0.10260952264070511, -0.2109251767396927, -0.15239514410495758, -0.07715631276369095, -0.11767793446779251, 0.12410854548215866, 0.4236307442188263, 0.11486803740262985, 0.012254633940756321, 0.13447879254817963, 0.8394832015037537, 0.02947053499519825, 0.10706628113985062, -0.02816137857735157, 0.23307369649410248, 0.0929654911160469, -0.15856552124023438, 0.507639467716217, 0.41075369715690613, -0.1113966777920723, -0.06344563513994217, 0.033232156187295914, -0.6796936392784119, 0.01104258093982935, 0.0422661267220974, -0.39355888962745667, 0.2210332602262497, 0.10812555998563766, 0.05937778577208519, -0.07471983879804611, -0.8453963398933411, 0.18723440170288086, 0.08749890327453613, 0.3053085505962372, 0.9357863068580627, -0.018095849081873894, 0.09169822931289673, -0.04445182904601097, -1.8724918365478516, -0.06743574887514114, -0.2058052271604538, -0.3646121323108673, -0.5497084259986877, 0.14378751814365387, 0.01600066013634205, -0.04892076179385185, -0.5048178434371948, -0.09515810757875443, 0.02833854965865612, -0.24220941960811615, 0.07904244214296341, 0.0010667442111298442, 0.002066641813144088, -0.1757439225912094, 0.985931396484375, -0.03026142530143261, 0.05370914936065674, -0.09083492308855057, -0.9524633884429932, -0.039936456829309464, -0.016497818753123283, -0.01960785500705242, 0.056200865656137466, 0.049358759075403214, -0.21388490498065948, -0.19046519696712494, -0.6772584319114685, -0.2911038100719452, -0.46120503544807434, 0.09179685264825821, 0.03900915011763573, 0.22905641794204712, 0.6834731101989746, 0.1637394279241562, 0.34832659363746643, -0.31159067153930664, 0.5728035569190979, -0.030462274327874184, -0.03128707781434059, -0.11354685574769974, -0.0802275612950325, 1.545197606086731, -0.08779554814100266, 0.1051475927233696, -0.1174393817782402, -0.11688507348299026, 0.08501368761062622, 0.03231719136238098, 0.14900897443294525, 0.5236214995384216, 0.15914680063724518, 0.031556665897369385, 0.08748555928468704, 0.286864310503006, -0.15913043916225433, -0.09502028673887253, 0.16664744913578033, 0.27165648341178894, -0.0733562633395195, 0.15465031564235687, 0.1560335010290146, 1.1306058168411255, -0.08799148350954056, 0.02706420235335827, 0.05824101343750954, 0.256696492433548, 0.027536271139979362, 0.08451550453901291, -0.32865384221076965, 0.5472164750099182, -0.008912318386137486, 0.07469934970140457, -0.11979366093873978, -0.5584812164306641, 0.17041446268558502, 0.21020247042179108, -0.2810485363006592, -0.6437773108482361, 0.2503909766674042, -0.23625420033931732, -0.20123888552188873, 0.011728927493095398, -0.048575010150671005, 0.06561815738677979, 0.02954605408012867, 0.849388062953949, 0.033235494047403336, -0.12301374226808548, 0.017481831833720207, -0.057061728090047836, -0.006181090604513884, 0.206040620803833, -0.14960967004299164, -0.779804527759552, -0.0574420727789402, -0.07536352425813675, -0.26139479875564575, -0.5788188576698303, -0.06837005168199539, 0.022848250344395638, -0.18079711496829987, -0.8399506211280823, -0.06276588886976242, -0.2983853816986084, -0.32441607117652893, -1.4872533082962036, 0.0950927808880806, 0.008427694439888, 0.020042357966303825, 0.22936607897281647, 0.0732852891087532, -0.17719782888889313, -0.34533020853996277, 0.20355845987796783, -0.10160215944051743, 0.09096217900514603, -0.3047175109386444, 0.41008758544921875, 0.0346406064927578, -0.044165343046188354, 0.22815583646297455, 1.3593214750289917, -0.04750284180045128, 0.03621253743767738, 0.08271192759275436, -0.27377083897590637, 0.21334631741046906, -0.038361553102731705, 0.15498946607112885, -0.7840035557746887, 0.10869427770376205, -0.0891273096203804, 0.2674259841442108, -0.2772696316242218, 0.024957625195384026, -0.010594382882118225, -0.21800734102725983, 0.35794898867607117, -0.02493208460509777, 0.06541908532381058, -0.05462898686528206, 0.34667089581489563, 0.07877176254987717, 0.20807479321956635, -0.08865702897310257, -0.5764217972755432, 0.06081831082701683, 0.07713402062654495, -0.007077537011355162, -0.08811067789793015, -0.28232792019844055, 0.13542760908603668, -0.15352235734462738, -0.3719625771045685, 0.03772497549653053, 0.026304611936211586, -0.3673529326915741, 0.8253657221794128, -0.11967825144529343, -0.07966471463441849, 0.07390546053647995, -0.7988129258155823, 0.05064771696925163, -0.23225022852420807, 0.17148901522159576, 0.3600945770740509, -0.08069873601198196, -0.05351191386580467, 0.09065764397382736, -0.3836531639099121, 0.11114215105772018, 0.10525988787412643, 0.39641425013542175, 0.3765289783477783, -0.0064342389814555645, -0.0403098426759243, -0.0676344558596611, -0.6182690262794495, -0.09822356700897217, -0.009877189062535763, -0.06669902056455612, -0.2734539210796356, -0.033043503761291504, 0.06119370460510254, 0.07600235193967819, -0.1014474555850029, -0.1005488708615303, -0.020217599347233772, 0.9134064316749573, 0.45090582966804504, 0.023366006091237068, -0.049054596573114395, 0.07952035218477249, 0.11510824412107468, 0.11418067663908005, -0.08745444566011429, -0.32647421956062317, -0.3373737633228302, -0.2767215073108673, -0.491941899061203, 0.08135443925857544, -0.730098307132721, -0.5432707071304321, 0.02503659389913082, 0.1152259036898613, -2.272270441055298, -0.2511834502220154, 0.5281094908714294, 0.24906347692012787, -0.01655401475727558, 0.0687880590558052, -0.3069632351398468, -0.5170072913169861, -0.05728084221482277, 0.20257647335529327, -0.4564107656478882, 0.9904614090919495, 0.1866360753774643, 0.13588847219944, 0.07873188704252243, 0.19693411886692047, -0.03352991119027138, -0.08762902021408081, 0.13970817625522614, -0.9588260054588318, 0.011611958034336567, -0.15748097002506256, 0.23492121696472168, -0.5603489279747009, 0.125585675239563, -0.1215050145983696, -0.08676338940858841, 0.5519489645957947, 0.06538326293230057, -0.09518206864595413, -0.06065094843506813, -0.6445688605308533, 0.007803559768944979, 0.04590054973959923, -0.03345700725913048, -0.32038065791130066, -0.03646046295762062, -0.13283586502075195, 0.2328491359949112, 1.7494012117385864, 0.08839870244264603, 0.12994123995304108, 0.039265986531972885, -0.3154442012310028, -0.089096300303936, 0.1049070730805397, -0.3762032091617584, -0.604580819606781, 0.13161420822143555, 0.10782340914011002, 0.21929813921451569, -0.3132185637950897, -0.0008423793478868902, -0.049581024795770645, -0.1707402616739273, -0.19971536099910736, -0.06026274338364601, -0.11623167246580124, 0.0456765852868557, 0.5248327851295471, 0.11144315451383591, 0.0068287900649011135, -0.4206237494945526, -1.443276286125183, 0.0723024532198906, 0.09287179261445999, -0.17631937563419342, -0.20566342771053314, 0.02833920530974865, 0.014671743847429752, -0.7829802632331848, -1.0290592908859253, 0.3334079086780548, -0.07933639734983444, 0.041605737060308456, 0.34064337611198425, 0.08282125741243362, 0.07743441313505173, 0.22171734273433685, 0.11285186558961868, 0.13674722611904144, 0.03753938898444176, -0.023532556369900703, -0.027977706864476204, -0.11156965047121048, -0.024697421118617058, -0.5595816969871521, -0.7538056373596191, 0.002063745865598321, 0.03007620759308338, 0.3259541690349579, -0.3969993591308594, -0.03797030821442604, -0.02021115832030773, -0.022496672347187996, -0.3275897800922394, -0.04647285118699074, 0.08372677117586136, 0.19688092172145844, -0.2562711536884308, 0.11355113238096237, -0.06456292420625687, 0.026142269372940063, 1.2992345094680786, 0.039447370916604996, 0.03560701385140419, -0.14631259441375732, -0.4591979682445526, 0.11098384112119675, 0.10263482481241226, 0.3436262309551239, 0.37543871998786926, 0.041070494800806046, -0.049406085163354874, -0.06547839194536209, 0.1967027187347412, -0.11023639887571335, -0.006150730419903994, -0.004209876526147127, -0.6389822959899902, -0.02967241406440735, 0.025301149114966393, -0.4543614089488983, -0.5893058180809021, -0.0682746097445488, 0.16545069217681885, 0.43230435252189636, 0.6770109534263611, 0.12057553976774216, 0.18705247342586517, -0.6008582711219788, 0.6711234450340271, -0.10518062859773636, -0.06473363190889359, 0.7551074028015137, 0.28307482600212097, -0.043662454932928085, -0.04510003700852394, -0.5088804364204407, 0.32794350385665894, -0.1320282369852066, -0.0007934178574942052, -0.7788192629814148, -1.2154322862625122, -0.1658148616552353, 0.11865437775850296, -0.12920869886875153, -1.5416334867477417, 0.10485338419675827, 0.010311164893209934, 0.11242436617612839, 0.21320343017578125, 0.05436853691935539, 0.14909718930721283, 0.7775946259498596, 0.5566982626914978, 0.012397444806993008, -0.060675498098134995, 0.3439619541168213, -0.9157450795173645, 0.0663074180483818, -0.11495662480592728, -0.4574796259403229, -0.3916034996509552, -0.4491109549999237, -0.28046005964279175, 0.9043282866477966, 0.5300410985946655, 0.3870512545108795, 0.24433939158916473, 1.3767682313919067, -0.471983402967453, 0.5053311586380005, 0.22185885906219482, -0.07394786179065704, -0.056957781314849854, -0.06370795518159866, 0.2859141230583191, 1.0306671857833862, -0.11291860789060593, -0.21288514137268066, -0.2597796618938446, -0.27139338850975037, 0.072613425552845, 0.1151200607419014, 0.1291877031326294, -0.12884700298309326, 0.06819117814302444, -0.19911478459835052, -0.12244690209627151, 0.14452756941318512, -0.1278640180826187, 0.008792468346655369, -0.15993978083133698, -0.5528659224510193, -0.02769160084426403, -0.07097966223955154, 0.29269978404045105, 0.012187347747385502, 0.0677538588643074, 0.10419202595949173, -0.25316905975341797, -0.45731833577156067, -0.017537591978907585, -0.013760827481746674, 0.008371598087251186, 0.15798331797122955, -0.047787804156541824, 0.03327500447630882, 0.09547109156847, 0.11555957049131393, -0.04619329795241356, -0.24422408640384674, -0.21055056154727936, -0.1438237577676773, -0.03485563024878502, 0.14557494223117828, 0.3439526855945587, 0.5737653374671936, 0.02632713131606579, -0.010572166182100773, 0.10486531257629395, -0.1518094390630722, -0.048427168279886246, 0.03258198872208595, -0.15522275865077972, 0.09917377680540085, 0.005789249669760466, 0.08136140555143356, 0.05577630177140236, 0.001232024165801704, -0.04903140291571617, -0.10715087503194809, -0.43085312843322754, 1.8865338563919067, 0.001334129017777741, 0.02756032533943653, 0.26801255345344543, 0.07246743142604828, -0.024114428088068962, -0.1004636362195015, -1.5359764099121094, -1.8298014402389526, -0.007507071364670992, 0.022970983758568764, -0.6926455497741699, 0.06916915625333786, -0.029820648953318596, 0.08418024331331253, -0.0826713964343071, 0.3979127109050751, 0.1137768104672432, -0.09360747784376144, 0.24202512204647064, 1.0576800107955933, 0.04217860475182533, 0.11563634127378464, -0.2275085598230362, -0.203190878033638, -0.06928456574678421, 0.11197365075349808, 0.14355315268039703, 0.2331831306219101, -0.09389639645814896, 0.2741806209087372, -0.10909081250429153, 0.32312944531440735, -0.13295377790927887, -0.19033409655094147, -0.4123583137989044, -0.29897430539131165, -0.13383030891418457, 0.027424754574894905, 0.0380265973508358, -0.23018313944339752, -0.038052741438150406, 0.057351235300302505, 0.24611042439937592, -1.446529507637024, -0.14386294782161713, -0.13480843603610992, -0.014612555503845215, 0.36626097559928894, 0.14140711724758148, -0.0832054540514946, 0.1792750507593155, 0.03460550680756569, -0.09562861919403076, 0.08757496625185013, 0.07382523268461227, -0.041695114225149155, -0.014529288746416569, 0.04760923609137535, -0.4282670021057129, 0.5258488655090332, -0.0034432969987392426, 0.24030660092830658, 0.3824160397052765, 1.0264605283737183, 0.09889931231737137, 0.11031508445739746, 0.18570898473262787, 0.22996924817562103, -0.026639608666300774, 0.0041433838196098804, -0.3527105152606964, 0.7884039878845215, 0.07804679125547409, -0.10957115888595581, 0.19108699262142181, 0.7926945090293884, -0.06813163310289383, 0.08467482775449753, 0.8192374110221863, 0.20593993365764618, 0.1276250034570694, -0.15265081822872162, 0.030610917136073112, -0.3017621338367462, -0.14090074598789215, -0.09491444379091263, -0.16060291230678558, -0.2627684772014618, -0.09045767039060593, 0.05151839926838875, 0.17470864951610565, 0.8209393620491028, 0.1276472955942154, -0.18289469182491302, 0.4342069923877716, 0.037080880254507065, 0.18637968599796295, 0.0964127704501152, 0.042427871376276016, 0.11420869082212448, -0.6739539504051208, -0.44769442081451416, -0.045289721339941025, -0.4995274245738983, -1.0629605054855347, -0.5463204979896545, 0.5654966235160828, 0.8673130869865417, 0.9528929591178894, 0.7912407517433167, -0.3928186893463135, 0.11224018782377243, -0.045527245849370956, 0.7235393524169922, -0.08951985836029053, -0.04672152176499367, 0.013209833763539791, 0.5876397490501404, 0.30337759852409363, -0.12228120118379593, -0.012089633382856846, 0.057369109243154526, -1.0701218843460083, 0.07346869260072708, 0.057040985673666, -0.01873190887272358, 0.3620607554912567, 0.0009521450265310705, 0.1829683631658554, 0.3592958450317383, -0.5175753235816956, -0.11200297623872757, -0.03970574960112572, 0.2811627686023712, 0.17240355908870697, 0.22874762117862701, 0.15102051198482513, 0.19587232172489166, -0.1830420345067978, -0.03713017329573631, 0.14060138165950775, -0.03223210200667381, 0.6095738410949707, 0.03805283084511757, -0.030330775305628777, 0.2403869777917862, 1.0691708326339722, -0.03009730577468872, 0.003586198901757598, -0.0030830318573862314, -0.9121437668800354, 0.02925744839012623, 0.03465044125914574, 0.37806108593940735, -0.6924095749855042, 0.07033521682024002, -0.09210372716188431, -0.1777808517217636, -0.761141300201416, -0.09424955397844315, 0.029398052021861076, 0.1694776862859726, -0.00029304108466021717, -0.03279978409409523, -0.08305644243955612, 0.01005540695041418, -0.17319227755069733, -0.013878137804567814, -0.011056937277317047, 0.17014293372631073, 0.9563799500465393, 0.15072844922542572, 0.009312705136835575, 0.051716964691877365, -0.3476048409938812, 0.03281698003411293, -0.009188971482217312, -0.2725622057914734, -0.2475564330816269, 0.0739871934056282, 0.18645308911800385, 0.3107438385486603, -0.16962289810180664, 0.06526381522417068, 0.07531685382127762, 0.20574943721294403, 0.9988335967063904, 0.08537774533033371, 0.15648424625396729, 0.2926952838897705, -0.28447577357292175, -0.12674139440059662, 0.09484847635030746, -0.18625880777835846, 0.275724858045578, -0.14670990407466888, 0.0146053871139884, 0.2164323478937149, -0.33656075596809387, 0.03857806697487831, -0.11719786375761032, -0.2936716377735138, -0.5040150284767151, 0.07215548306703568, 0.22325825691223145, 0.38607075810432434, 1.0109196901321411, 0.023095866665244102, 0.09579776972532272, -0.23635505139827728, 0.4896388351917267, -0.12109886854887009, 0.23287321627140045, -0.17917965352535248, -0.262905091047287, -0.015112563967704773, -0.059243444353342056, -0.15268053114414215, -0.7252503037452698, -0.12255323678255081, -0.03950792923569679, 0.09324992448091507, 0.3569827377796173, 0.03404238820075989, 0.2565977871417999, 0.15000499784946442, -0.46019747853279114, -0.009006799198687077, -0.09221255034208298, -1.1268121004104614, -0.4398966133594513, 0.026972314342856407, 0.019821597263216972, 0.03631037101149559, 0.3964698016643524, 0.00646200543269515, -0.039419565349817276, 0.29079556465148926, 0.3336999714374542, 0.09002924710512161, -0.031188340857625008, 0.5340924859046936, -0.5192486047744751, -0.023730816319584846, -0.07757186144590378, -0.2065422683954239, -0.0811457708477974, 0.014957680366933346, -0.016536802053451538, -0.5815855264663696, -0.508613646030426, -0.13570009171962738, -0.24420712888240814, -0.2835831344127655, 0.5498484969139099, -0.14999030530452728, -0.1773732751607895, 0.05727565661072731, 0.03429285064339638, -0.061062876135110855, -0.07613831013441086, -0.09628566354513168, -0.888329803943634, -0.03558235988020897, 0.07360636442899704, -0.635860025882721, 0.4381580054759979, 0.17566154897212982, 0.037897881120443344, -0.22261516749858856, -0.3051963746547699, 0.13156633079051971, -0.9428120255470276, -0.02920038439333439, -0.22463995218276978, -0.636757493019104, -1.629690170288086, 0.6846017837524414, 1.1822766065597534, -0.12703968584537506, 0.5804628729820251, 0.3717932403087616, -0.06310290843248367, 0.11489164084196091, 0.848704993724823, -0.2566543221473694, -0.03297337517142296, 0.10344237089157104, 1.016336441040039, 0.5225062370300293, 0.2065896838903427, 0.07287120074033737, -0.0011266133515164256, 0.25724318623542786, 0.16705010831356049, 0.1277250051498413, -0.20104406774044037, -0.4399418532848358, 0.05704211816191673, 0.04305049404501915, 0.03342634066939354, 0.31742599606513977, 0.15022657811641693, -0.007972165010869503, 0.06616050004959106, 0.3799944221973419, 0.0745706632733345, -0.04518160596489906, 0.21427224576473236, -0.019631413742899895, -0.020243898034095764, 0.005641691852360964, 0.0004848800308536738, -1.4693139791488647, 0.07662630081176758, -0.13101540505886078, -0.08792996406555176, -0.7643271088600159, -0.17093156278133392, 0.08696287125349045, -0.11777602881193161, -1.0596294403076172, -0.03576204553246498, 0.08933799713850021, 0.5301347374916077, -0.0359305739402771, 0.0652875229716301, 0.049885448068380356, 0.5323472023010254, -0.1935034841299057, 0.19962002336978912, 0.04274464026093483, 0.44835665822029114, -0.4476800262928009, -0.08434342592954636, 0.08316362649202347, 0.10572302341461182, -0.7413733601570129, 0.04318222776055336, -0.017909614369273186, -0.5915621519088745, 0.33215028047561646, 0.19592247903347015, 0.06974291056394577, 0.26970648765563965, 0.6711474061012268, -0.05383836850523949, -0.0735994502902031, -0.1198456659913063, -0.15246011316776276, -0.14277209341526031, 0.1775578409433365, -0.04682007059454918, 0.2896260917186737, -0.0879475548863411, 0.017490146681666374, -0.2121625691652298, -0.11227332800626755, -0.061615582555532455, -0.03456002101302147, 0.12826059758663177, -0.04146650806069374, -0.11932956427335739, -0.12021160870790482, -0.1881342977285385, -1.692895770072937, -0.08613289147615433, 0.010205469094216824, 0.15851010382175446, 1.1204062700271606, -0.049531761556863785, -0.15465736389160156, -0.028922853991389275, 0.4495639503002167, 0.09899204969406128, -0.007372379768639803, -0.47831013798713684, -0.4566292464733124, -0.0629398301243782, -0.13774921000003815, 0.23761604726314545, 0.706064760684967, 0.0472220815718174, 0.013661409728229046, 0.21117155253887177, 0.5166111588478088, -0.029405442997813225, -0.07183457165956497, -0.20352689921855927, -0.5377258658409119, -0.042831361293792725, -0.014295040629804134, -0.35933253169059753, 0.36826613545417786, 0.2447643131017685, 0.11855506151914597, -0.3488638699054718, 0.4454970061779022, -0.20618343353271484, -0.08474069833755493, -0.3152751624584198, -0.12344907969236374, 0.12811292707920074, -0.25578734278678894, 0.40798839926719666, 0.28730082511901855, -0.04341703653335571, -0.13526104390621185, 0.6413703560829163, 0.47954943776130676, 0.04789060726761818, -0.029561402276158333, 0.33484935760498047, -0.0058012413792312145, -0.038795050233602524, -0.2691197097301483, -0.04869112744927406, 0.11591502279043198, 0.11577450484037399, -0.06077199801802635, -0.5544315576553345, -0.5543152093887329, 0.06969380378723145, 0.005828395020216703, 0.12139904499053955, 0.22881674766540527, 0.06351233273744583, 0.039081037044525146, 0.07992006093263626, -0.3849746286869049, -0.14650402963161469, -0.1044764444231987, 0.030948547646403313, 1.2230100631713867, 0.08347047120332718, 0.09086810797452927, -0.5534886121749878, 0.2771954834461212, 0.23152853548526764, 0.03928050026297569, -0.44360804557800293, -0.518531858921051, 0.24065972864627838, -0.47564032673835754, -0.6196083426475525, -1.8167997598648071, -0.3237377107143402, 0.1853889375925064, -0.010850912891328335, -0.36346718668937683, 0.7549552917480469, 0.23802660405635834, 0.24124884605407715, 0.07888228446245193, 0.10181289911270142, 0.0076316590420901775, -0.39791980385780334, 0.021206675097346306, 0.12621845304965973, -0.09251195192337036, 0.5347022414207458, 0.055065471678972244, -0.01663150079548359, 0.6415776610374451, -0.8699578642845154, 0.19970154762268066, -0.022855250164866447, 0.07226186245679855, 0.30922695994377136, -0.20563532412052155, -0.2550843060016632, 0.1313546746969223, -0.10731963068246841, -0.08607184141874313, 0.10536742210388184, 0.2650856673717499, 0.5527209639549255, 0.052492912858724594, -0.05737125501036644, 0.09211380034685135, -0.5325698256492615, 0.09820573776960373, 0.08713681250810623, -0.008336960338056087, 0.9111014008522034, 0.059659358114004135, 0.020630089566111565, 0.5213317275047302, 0.035194817930459976, -0.2464921623468399, -0.06476055830717087, -0.043995317071676254, 0.15939269959926605, 0.043473366647958755, -0.06721346825361252, -0.39745470881462097, 1.498709797859192, 0.0033892940264195204, 0.1108386442065239, 0.4253244698047638, 0.041250165551900864, 0.03585213050246239, -0.22792457044124603, -0.17783187329769135, 0.060317154973745346, 0.1283876746892929, -0.13904143869876862, 0.19684435427188873, 0.49302956461906433, 0.001160964253358543, 9.984061034629121e-05, -0.3726552426815033, 0.14930199086666107, -0.1507568508386612, 0.047612667083740234, -0.9168701767921448, 0.3462173640727997, -0.09512209892272949, 0.14273642003536224, -0.2873477041721344, 0.18602682650089264, -0.06260795146226883, 0.10481008142232895, -0.23795558512210846, -0.19068385660648346, -0.05451088771224022, 0.10896538943052292, -0.19503165781497955, -0.15612076222896576, -0.13224397599697113, -0.07608617097139359, 0.15788723528385162, -0.371469646692276, 0.04663439467549324, 0.09156370908021927, -0.14140070974826813, -0.29251500964164734, 0.007376566994935274, 0.18004654347896576, -0.09582316130399704, -0.25861045718193054, -0.06582193821668625, -0.02217281050980091, -0.32613375782966614, 0.20947806537151337, 0.038971658796072006, 0.1161116436123848, 0.0017846542177721858, -0.20721133053302765, -0.04701435565948486, -0.20509755611419678, 0.07052827626466751, 0.35615113377571106, -0.05065162852406502, -0.01195510569959879, 0.36174699664115906, 0.03208663687109947, 0.07400370389223099, -0.0920206680893898, -0.04277682304382324, 0.3256025016307831, -0.1514420360326767, 0.05496470257639885, 0.4142936170101166, 0.5233922600746155, 0.04986703768372536, -0.11003228276968002, -0.0645747259259224, 0.1345200389623642, -0.122917540371418, 0.02368880994617939, -0.3595867455005646, -0.09384272247552872, -0.16961060464382172, 0.03168633580207825, 0.12218200415372849, -0.14235831797122955, -0.0032116633374243975, -0.09083353728055954, -0.1031450405716896, 0.06152898073196411, 0.06213032826781273, 0.18108738958835602, 0.19757770001888275, -0.2175016552209854, -0.07641338557004929, -0.05549329146742821, 0.18999625742435455, 0.5009652972221375, 0.08343976736068726, 0.1273956447839737, 0.30340462923049927, 0.7077426314353943, -0.07188291102647781, -0.017541350796818733, 0.11935078352689743, -0.3323023021221161, 0.06486398726701736, 0.204876109957695, 0.05941063538193703, 1.0080968141555786, -0.09853614121675491, 0.02695918269455433, 0.4610988199710846, 0.2285742610692978, -0.01749691553413868, -0.06623513251543045, 1.1349899768829346, 0.321682870388031, -0.11311996728181839, 0.0416761077940464, -0.3750595152378082, -0.2305741161108017, 0.0728989765048027, -0.29860976338386536, -0.3601699769496918, -1.6492730379104614, 0.3195772171020508, -0.43171265721321106, -0.977677583694458, 0.12284374982118607, -0.24356625974178314, 0.4562557637691498, -0.257952481508255, 0.06081080809235573, 0.04719557240605354, -0.509773850440979, -0.5605921149253845, -0.18643362820148468, -0.09832549095153809, -0.34567758440971375, 0.4971943199634552, -0.09292542189359665, 0.15605996549129486, 0.06727612763643265, 0.3807258903980255, -0.037111345678567886, 0.04031467065215111, -0.10511814802885056, -0.27247288823127747, -0.07110976427793503, 0.14492309093475342, 0.1012725904583931, 0.09180294722318649, 0.2233884185552597, 0.11307906359434128, 0.0642576813697815, 0.7306848168373108, 0.06548602133989334, -0.060978714376688004, 0.19616174697875977, -0.033465202897787094, -0.11395562440156937, 0.07303845137357712, -0.21877658367156982, 0.5830444693565369, 0.06214332580566406, -0.2111235409975052, 0.04518580064177513, 0.3207409679889679, -0.036649733781814575, 0.02169165201485157, 0.2791271507740021, -0.3439042568206787, 0.02289530821144581, 0.10455333441495895, -0.05708802118897438, -0.039547618478536606, -0.12287689000368118, 0.08151751011610031, -0.38533565402030945, 1.020257830619812, -0.024470744654536247, -0.025668034330010414, -0.14541544020175934, 0.18405507504940033, -0.2910754382610321, 0.20163726806640625, 0.3098955452442169, 0.4359297454357147, -0.05542566254734993, -0.09355286508798599, -0.037212636321783066, 0.8394842743873596, -0.13700102269649506, -0.07347852736711502, -0.6541951894760132, 0.13873395323753357, -0.10388016700744629, 0.01647154800593853, -0.32259899377822876, 0.3250623345375061, -0.03085234947502613, -0.08693455904722214, 0.04982170835137367, -0.10614930838346481, 0.044470544904470444, 0.014793128706514835, -0.2016049176454544, -0.11452769488096237, -0.1286264806985855, -0.035141680389642715, 0.17923378944396973, -0.00748346047475934, 0.11759579926729202, -0.10456172376871109, -0.02561958134174347, -0.2795726954936981, -0.11877346783876419, -0.0436643622815609, -0.11562656611204147, -0.2920224964618683, 0.12319790571928024, -0.02715611457824707, 0.08520150929689407, -0.5435213446617126, 0.04286515340209007, -0.008130387403070927, 0.36663535237312317, -0.16680456697940826, -0.032093703746795654, -0.044096413999795914, -0.050014737993478775, -0.4800534248352051, 0.07345831394195557, 0.04918361082673073, 0.18454112112522125, 0.08016777783632278, -0.08335231989622116, -0.01051719393581152, 0.0336114801466465, 0.7588915228843689, -0.07353656738996506, -0.027017923071980476, 0.12867878377437592, -0.28197741508483887, 0.16926588118076324, 0.019983844831585884, 0.4486870765686035, 0.22389008104801178, 0.09979700297117233, -0.19149555265903473, -0.6666446924209595, -0.15482543408870697, -0.10448388010263443, 0.17311178147792816, -0.48565247654914856, 0.5170078873634338, -0.03980189934372902, -0.1975870281457901, -0.2980911433696747, -0.5287403464317322, -0.12227488309144974, 0.09218019992113113, -0.4568462669849396, -0.47526928782463074, -0.014669566415250301, -0.03466230258345604, 0.21013014018535614, -0.10058630257844925, 0.07674854248762131, 0.1258111149072647, -0.805173933506012, -1.1526908874511719, -0.019818244501948357, -0.004276714753359556, -0.12494838982820511, -0.40627482533454895, 0.08131664246320724, -0.061502281576395035, 0.07889663428068161, 1.0074273347854614, 0.1267550140619278, -0.11502670496702194, 0.9683341979980469, -0.43976542353630066, -0.004447270650416613, 0.13101933896541595, -0.03413933515548706, 1.3870102167129517, 0.05202299728989601, 0.261658638715744, -0.694222629070282, -0.863426148891449, 0.6229004263877869, -0.5195294618606567, -0.3896937668323517, -0.5867558121681213, -1.0390918254852295, -0.6944651007652283, 0.5679535865783691, 0.8948249816894531, -0.16786275804042816, 0.1618376076221466, -1.3293651342391968, 0.1039319634437561, -0.15743042528629303, 0.3704349100589752, 0.13168370723724365, -0.00923373457044363, -0.021301792934536934, -0.1332216113805771, -0.4160347282886505, -0.13843776285648346, -0.05381391569972038, 0.15108345448970795, 0.7999330163002014, 0.09447752684354782, -0.11190008372068405, 0.25476977229118347, -0.01761949248611927, -0.08363205939531326, 0.07142721861600876, 0.0016744864406064153, 0.03391250595450401, 0.0702143982052803, -0.016696734353899956, -0.06076020374894142, -0.9779033064842224, -0.05822986736893654, -0.04976580664515495, 0.16920863091945648, -0.21051795780658722, 0.07301311939954758, 0.04472702369093895, -0.0340883769094944, -0.45873454213142395, 0.0021839626133441925, 0.03820130601525307, 0.1442180722951889, 0.7754767537117004, -0.16577112674713135, 0.09034764021635056, -0.5258942246437073, -0.9674224257469177, -0.07916759699583054, 0.18021346628665924, -0.03366616740822792, -0.3023090660572052, 0.1847863346338272, 0.035974714905023575, 0.22143952548503876, -0.42945513129234314, 0.11280561238527298, 0.020817024633288383, -0.17360089719295502, 0.35416388511657715, 0.013473914004862309, 0.22568915784358978, -0.298648864030838, 0.05879027023911476, 0.10239104181528091, 0.023156819865107536, -0.004518207162618637, -1.6394850015640259, -0.027797279879450798, -0.015445648692548275, -0.2014550417661667, 0.40194037556648254, 0.18175791203975677, 0.1079154834151268, 0.3068235516548157, 2.1145598888397217, -0.12624822556972504, -0.07439875602722168, 0.06939799338579178, -0.013784353621304035, -0.09453904628753662, -0.07353269308805466, -0.16234920918941498, 0.24559615552425385, -0.08326613157987595, 0.1313072293996811, -0.001090848702006042, -0.47256138920783997, -0.02062751166522503, 0.06183946505188942, -0.008913314901292324, 0.24697758257389069, 0.1655748039484024, -0.11757909506559372, 0.10508144646883011, 0.12065791338682175, -0.06556499749422073, -0.08936022967100143, 0.023137269541621208, -0.09121926873922348, 0.11423074454069138, -0.06162869557738304, -0.4913363754749298, -0.36266258358955383, 0.06075585260987282, -0.10843626409769058, -0.17003382742404938, 0.8149760365486145, 0.0548052154481411, -0.09570849686861038, 0.008606628514826298, -0.6114925742149353, -0.08132392913103104, -0.007951885461807251, 0.009993567131459713, -0.3228457272052765, -0.1981225162744522, 0.01828649453818798, -0.041357334703207016, -0.002275595674291253, 0.08341062813997269, 0.08623247593641281, -0.055184464901685715, 0.11131644994020462, 0.11896275728940964, 0.013059690594673157, -0.5991777181625366, -0.28851035237312317, -0.14142335951328278, -0.01519011054188013, 0.3643703758716583, -1.3015624284744263, 0.11801575869321823, 0.058280762284994125, 0.2753138244152069, -0.684928834438324, -0.019588841125369072, -0.12487030774354935, 0.09534873813390732, -0.38440558314323425, -0.014167682267725468, -0.12246561795473099, -0.30277565121650696, -0.3183421194553375, 0.08422673493623734, 0.274809867143631, 0.1750190407037735, 0.9828738570213318, -0.09236066788434982, -0.11552918702363968, -0.3950013816356659, -0.3621726334095001, 0.19909478724002838, -0.02121168188750744, 0.2778680622577667, -0.49608996510505676, -0.06915230304002762, 0.015185012482106686, -0.7833824753761292, -0.1757563352584839, 0.12900005280971527, -0.043350253254175186, -0.40946292877197266, -0.7421730160713196, 0.005359590519219637, 0.0796828344464302, -0.5247703790664673, -0.4594058692455292, -0.5865432024002075, -0.5494069457054138, 0.42865967750549316, -0.8517065644264221, 0.09658815711736679, -0.40732958912849426, -0.686501681804657, 0.8174218535423279, -0.10250257700681686, 0.5632943511009216, 0.9397878050804138, 0.059558507055044174, -0.22747109830379486, 0.17136108875274658, 0.18283845484256744, -0.0257358830422163, 0.015221030451357365, 0.171699658036232, -0.1764819175004959, 0.04619216546416283, 0.003203421598300338, 0.4028138816356659, 0.7640267014503479, 0.08581029623746872, 0.05142610892653465, -0.03333982452750206, 0.36358097195625305, -0.006907493341714144, -0.16489805281162262, -0.2614159882068634, -0.8925896286964417, 0.021934164687991142, -0.01062211487442255, -0.059444840997457504, 0.5050435662269592, 0.19065354764461517, 0.06282644718885422, -0.07613009214401245, 0.3837900459766388, -0.24729777872562408, -0.03293854370713234, -0.11761534959077835, -0.14518596231937408, -0.06546907871961594, -0.00854631420224905, -0.2275085598230362, -0.29228684306144714, -0.038958851248025894, 0.15875361859798431, 0.4698343575000763, 0.5272818207740784, 0.2840001881122589, -0.057778239250183105, -0.6869382262229919, -1.4929865598678589, 0.1320200115442276, 0.09789079427719116, -0.24562574923038483, -0.015024007298052311, 0.05277416110038757, -0.08560710400342941, -0.019353987649083138, 0.3883735239505768, 0.047465983778238297, -0.06037021055817604, 0.056750599294900894, -0.12271726876497269, -0.0014610652578994632, -0.03390437737107277, 0.02261163294315338, 0.41376635432243347, -0.027266057208180428, -0.0828639343380928, -0.26180553436279297, 0.9420201182365417, 0.12484525889158249, -0.03622424229979515, -0.6596521735191345, -0.08285749703645706, 0.036440785974264145, 0.08538740873336792, -0.26068857312202454, 0.2290823608636856, -0.08956121653318405, -0.07131970673799515, 0.08500153571367264, -0.16396476328372955, -0.088180311024189, 0.06404650956392288, -0.04812491312623024, 0.15709112584590912, -0.011833623051643372, 0.03115600161254406, -0.5996704697608948, -0.17844678461551666, 0.1615598201751709, -0.01727384142577648, 0.40216681361198425, 0.20781922340393066, -0.12173258513212204, 0.2506740391254425, -0.07094895839691162, 0.2514398396015167, 0.11658228188753128, 0.13100551068782806, 0.17012085020542145, -0.005250129383057356, -0.06153344735503197, 0.0564153827726841, 0.09316901117563248, -0.4271073639392853, -0.046450261026620865, 0.12720586359500885, -0.10204819589853287, 0.4945649802684784, 0.1469949334859848, -0.07394140213727951, 0.4481029510498047, 0.5843061804771423, -0.05093694105744362, -0.01006572786718607, -0.3756091296672821, -0.06266938894987106, 0.012538800947368145, 0.10571825504302979, 0.16714049875736237, 0.3420681655406952, 0.10930842161178589, -0.05397401377558708, -0.4189680516719818, -0.36934229731559753, 0.04555201902985573, -0.05434548854827881, 0.2824445068836212, 0.10327530652284622, -0.1008320227265358, 0.09975243359804153, -0.14146758615970612, -0.3959514796733856, 0.03840133175253868, 0.11219704896211624, -0.4707646667957306, 0.026593735441565514, -0.028948547318577766, -0.044357750564813614, 0.3654666244983673, 0.169037327170372, 0.03740603104233742, -0.06393551826477051, -0.3028373718261719, -1.0225008726119995, 0.10298358649015427, -0.07392258197069168, -0.01605379395186901, 0.319257527589798, -0.10834089666604996, 0.10723782330751419, 0.1866745799779892, -0.516713559627533, -0.04359087347984314, -0.11744462698698044, 0.37361016869544983, -0.11431435495615005, 0.07249975204467773, -0.1863023042678833, 0.3132248818874359, 0.30509161949157715, -0.31656602025032043, -0.059924546629190445, -0.3756590187549591, -0.3330540359020233, -0.49647223949432373, -0.23925845324993134, 0.171230748295784, -0.42037978768348694, 1.6556854248046875, 1.1728427410125732, -1.0060738325119019, 0.5859245657920837, -1.3257468938827515, 0.2978687584400177, -0.02466733194887638, -0.10207551717758179, -0.017039569094777107, -0.24359560012817383, -0.6416274309158325, -0.05865245684981346, 0.22474098205566406, 0.046974245458841324, 0.13215529918670654, -0.05556594952940941, 0.022931186482310295, 0.12070596218109131, -0.5863408446311951, -0.012649030424654484, 0.15836773812770844, -0.16706930100917816, 0.15520717203617096, -0.07762222737073898, -0.2553658187389374, -0.22530843317508698, 0.15168128907680511, 0.0747460201382637, 0.04726242646574974, -0.027831820771098137, -0.18941378593444824, 0.011271030642092228, 0.028123078867793083, -0.08835489302873611, -0.13459087908267975, 0.08601700514554977, 0.05095783993601799, -0.07940275222063065, 0.16175530850887299, 0.09997505694627762, -0.12169455736875534, -0.05373496189713478, 0.039826661348342896, -0.1234823539853096, 0.0046819341368973255, -0.5653329491615295, 0.5325378775596619, 0.050597187131643295, -0.0033008356112986803, 0.699134886264801, 0.6384257674217224, -0.04913092032074928, -0.2052648812532425, -0.1466379165649414, -0.18956850469112396, 0.1204834058880806, 0.030638454481959343, 0.07924222946166992, 0.7371101379394531, -0.05651700124144554, 0.06359624117612839, 0.18141506612300873, 0.13813601434230804, -0.12417960911989212, -0.06694734841585159, -0.6045045256614685, -1.1665068864822388, -0.02489415742456913, 0.06540273874998093, 0.030147075653076172, -0.17180906236171722, 0.24661467969417572, 0.027276376262307167, -0.5752241015434265, -0.1184554174542427, 0.1110619381070137, -0.023418409749865532, -0.12711037695407867, -0.46915149688720703, -0.05537211522459984, -0.006428889464586973, -0.004258055705577135, -0.3827238380908966, 0.12250138074159622, 0.11990488320589066, 0.09621890634298325, -0.0666080117225647, 0.0046358187682926655, 0.19957087934017181, 0.07136677950620651, -1.6755181550979614, -0.19481171667575836, -0.019184691831469536, -0.40459731221199036, 0.1744253784418106, -0.02312028594315052, 0.15478993952274323, -0.044877562671899796, -0.9510526061058044, -0.1865823119878769, 0.12506867945194244, -0.20689941942691803, -0.38188931345939636, 0.1534501165151596, -0.022167610004544258, 0.11967097967863083, -0.28496024012565613, 0.024519948288798332, 0.13229908049106598, -0.3885941207408905, -0.531278669834137, 0.18109296262264252, 0.09962760657072067, 0.07763617485761642, 0.6432413458824158, -0.012216582894325256, -0.0019399375887587667, 0.18129707872867584, 0.34780240058898926, -0.06098419800400734, -0.09051584452390671, 0.25705644488334656, -0.10112475603818893, 0.07840495556592941, -0.16735325753688812, -0.5821202993392944, 0.2046232968568802, 0.06946790963411331, 0.09568964689970016, -0.15799210965633392, -0.3607177734375, -0.1311710923910141, 0.048254843801259995, -0.010620147921144962, -0.20737993717193604, -0.07696855068206787, 0.017732230946421623, -0.3707709014415741, -0.6190378069877625, 0.05423182621598244, -0.08966737240552902, -0.2834324538707733, -0.04578223451972008, 0.06303954869508743, -0.004277214873582125, -0.07898200303316116, -0.18765056133270264, -0.13788475096225739, 0.13105355203151703, -0.17731784284114838, -1.0714093446731567, 0.10174465924501419, 0.01620107889175415, 0.01910783164203167, -0.38499924540519714, 0.007758944761008024, -0.0038975554052740335, -0.8145142197608948, -0.12090183049440384, -0.060318831354379654, -0.10877691954374313, -0.15746493637561798, -0.9645576477050781, 0.1597694307565689, 0.15435992181301117, -0.7004275918006897, -0.745305061340332, -0.4490013122558594, -0.705415666103363, 0.026163427159190178, -0.804440975189209, -0.22881214320659637, -0.16996276378631592, 0.6004974246025085, -1.186524510383606, -0.2726319134235382, 0.57462078332901, 0.4539928138256073, 0.11751913279294968, 0.0740695521235466, 0.9503546357154846, 0.0037602968513965607, 0.03605115786194801, -0.056405965238809586, 0.6614629030227661, -0.6297513246536255, -0.10347295552492142, -0.07357806712388992, -0.1261528879404068, -0.19130150973796844, -0.09778041392564774, -0.16736780107021332, 0.28102877736091614, 0.00337969115935266, 0.21307732164859772, 0.222214475274086, -0.08705758303403854, -0.04178500175476074, 0.03317051753401756, -0.17712174355983734, 0.23277737200260162, -0.38986191153526306, -0.18064679205417633, -0.08714313060045242, 0.3007855713367462, 0.08893679827451706, -0.08420909196138382, 0.0735781118273735, -0.049959275871515274, 0.8023598790168762, -0.08675443381071091, -0.19285307824611664, 0.06262504309415817, 0.4434661865234375, -0.04351199045777321, -0.03749721869826317, -0.5271958708763123, 0.24317073822021484, -0.04319476708769798, -0.15922047197818756, 0.24823592603206635, -0.018078969791531563, -0.0823785588145256, 0.031197132542729378, -0.0396016500890255, -0.6522756218910217, 0.07130897045135498, -0.024817703291773796, 0.4385380744934082, -0.4775957763195038, -0.05809640511870384, 0.02725883387029171, -0.15029560029506683, -0.25539305806159973, 0.03313744440674782, -0.007857673801481724, -0.5827874541282654, 0.04671779274940491, -0.08443146198987961, -0.09283392876386642, 0.3272407352924347, -0.5688410401344299, -0.0010712648509070277, -0.03157883509993553, 0.022239549085497856, -2.352266550064087, -0.03686779737472534, 0.010743462480604649, 0.17286492884159088, 0.22672176361083984, 0.11192429810762405, -0.11388743668794632, 0.25296732783317566, -0.17294146120548248, 0.061841849237680435, 0.04824152961373329, -0.14449428021907806, 0.4852123558521271, 0.03196292743086815, -0.04559871926903725, -0.28877022862434387, -1.4180337190628052, -0.145455464720726, -0.05934399738907814, -0.1479635089635849, -0.35700175166130066, -0.13390444219112396, 0.01947726495563984, -0.18463994562625885, -0.577024519443512, -0.020871831104159355, 0.13077805936336517, -0.18629145622253418, -0.20045773684978485, 0.04433083161711693, -0.058385733515024185, 0.16142727434635162, -0.24337078630924225, -0.18575476109981537, 0.014581828378140926, -0.14238391816616058, -1.0227794647216797, 0.14627815783023834, -0.015955179929733276, 0.08452630788087845, 1.0366965532302856, -0.053866270929574966, 0.03535482659935951, -0.23772715032100677, -1.1537131071090698, 0.11303853243589401, 0.01113844569772482, 0.01875668577849865, 0.821840226650238, 0.102344810962677, 0.018871471285820007, -0.4390072822570801, 0.41499707102775574, -0.025143412873148918, 0.081328384578228, -0.1236727312207222, -0.15414975583553314, 0.1559629589319229, -0.014763905666768551, -0.054050806909799576, -0.8605183959007263, -0.19477294385433197, 0.11611544340848923, -0.06800772249698639, 0.4842996299266815, 0.17515753209590912, -0.0028707568999379873, -0.41721484065055847, -0.8448908925056458, 0.2193567007780075, -0.17603160440921783, 0.6719545722007751, 0.0283826794475317, 0.0892750546336174, 0.050974901765584946, 0.394574373960495, 1.042378306388855, 0.10665150731801987, -0.022897420451045036, 0.2644064128398895, 0.8423051238059998, -0.033293187618255615, 0.03604975715279579, -0.35736799240112305, -0.6132360696792603, -0.02578902058303356, -0.07700646668672562, -0.3918256461620331, -0.6149421334266663, 0.1605677455663681, -0.008867024444043636, -0.23816512525081635, -0.41468575596809387, -0.260617196559906, -0.5375261902809143, -0.41364169120788574, 0.050158292055130005, -1.5116323232650757, 0.12552107870578766, 0.17307865619659424, 0.2163662165403366, -0.29709547758102417, 0.49712657928466797, -0.5585079789161682, -0.09559159725904465, -0.034836526960134506, -0.3934365212917328, 1.5579274892807007, -0.15615308284759521, -0.03505825623869896, -0.12052749842405319, 0.42180219292640686, -0.009895860217511654, 0.09791906923055649, -0.10771318525075912, 0.34787464141845703, 0.07125388830900192, -0.22516630589962006, 0.10748099535703659, -0.33740994334220886, 0.1328558772802353, 0.019567983224987984, -0.0610690675675869, 0.8537001609802246, 0.08487396687269211, 0.26531603932380676, 0.13766492903232574, 1.2360600233078003, 0.016555102542042732, 0.045012298971414566, -0.36929813027381897, 0.8048979640007019, 0.3844437301158905, -0.014096544124186039, 0.15182922780513763, -0.06318391114473343, 0.21808969974517822, -0.13214148581027985, -0.12167369574308395, -0.42949578166007996, -0.015445097349584103, 0.30203482508659363, 0.2281317561864853, -0.4826507568359375, -0.013416563160717487, 0.01898312382400036, 0.09866901487112045, 0.8642482161521912, -0.2002079337835312, -0.22475861012935638, -0.16595984995365143, -0.2429029941558838, 0.12253154069185257, 0.020084349438548088, -0.20306943356990814, -0.04349816218018532, 0.15061213076114655, 0.09252818673849106, 0.31073305010795593, 0.5378279089927673, -0.06581038981676102, -0.022540288046002388, -0.3451590836048126, 0.8718118071556091, -0.04640892520546913, -0.10297263413667679, -0.8357630372047424, -0.8259705901145935, 0.09242164343595505, 0.007696316111832857, -0.15393221378326416, -0.9917182922363281, 0.10018793493509293, -0.14882276952266693, -0.42517372965812683, -0.4093306064605713, 0.05008500814437866, -0.12479209154844284, 0.17762885987758636, -0.4646740257740021, 0.1246417686343193, -0.08091486245393753, 0.14088858664035797, 0.5719684958457947, 0.08142877370119095, 0.12257158011198044, -0.3882479965686798, -0.8801579475402832, 0.08664704114198685, -0.09836024791002274, -0.09167767316102982, -0.27142786979675293, 0.055650707334280014, -0.12228893488645554, -0.18148650228977203, 0.9993190765380859, 0.15122900903224945, -0.015485494397580624, -0.16426347196102142, -0.6801428198814392, 0.011721118353307247, 0.1517340987920761, 0.014985681511461735, 0.4939289391040802, -0.036952074617147446, 0.009159579873085022, -0.2005918174982071, -0.6341128945350647, 0.07147281616926193, -0.12430881708860397, -0.0738762691617012, -0.26774927973747253, 0.03788774833083153, 0.12203586846590042, -0.09548608213663101, -1.3562203645706177, 0.11901522427797318, 0.08146774023771286, -0.12351345270872116, 0.2068627029657364, -0.0835576131939888, 0.13347016274929047, -0.6971845030784607, -0.4743337631225586, 0.017353294417262077, 0.14472626149654388, -0.22810576856136322, -0.5226382613182068, -0.026278892531991005, 0.16216696798801422, 0.26422831416130066, 0.3476729094982147, -0.022516785189509392, 0.07242833822965622, -0.37709078192710876, -0.4259251058101654, -0.0922861099243164, -0.02135409228503704, 0.3514421284198761, 0.44670501351356506, 0.0179643202573061, -0.1607220321893692, -0.21262456476688385, -0.35559675097465515, -0.1302405744791031, -0.04471570625901222, -0.020576683804392815, -0.0929487943649292, -0.07398880273103714, -0.034718211740255356, -0.02151879481971264, -0.44817158579826355, 0.07042700052261353, -0.013810918666422367, 0.4193287193775177, -0.7008786797523499, 0.20844008028507233, -0.11801517754793167, 0.7708651423454285, 0.2420254349708557, 0.061268266290426254, -0.15614081919193268, -0.352828711271286, -0.3700430393218994, -0.709074079990387, -0.25322291254997253, 0.3382902145385742, -1.060909390449524, 0.09164466708898544, 0.2513871192932129, 0.11989017575979233, 0.47320523858070374, -0.07543326169252396, 0.6448525190353394, -0.21490080654621124, -0.07741009443998337, -0.050506945699453354, 0.2704436182975769, 0.09595460444688797, -0.13357745110988617, 0.08000082522630692, 0.2675159275531769, 0.559169590473175, 0.19680006802082062, 0.03164529427886009, 0.5264596343040466, 0.24926020205020905, 0.0912419930100441, -0.006999641191214323, -0.20890967547893524, -0.4650016129016876, 0.06401544064283371, 0.2510359585285187, 0.14043591916561127, 0.3570058047771454, 0.05950487032532692, 0.12756143510341644, 0.12329412251710892, -0.37389275431632996, 0.1600957065820694, 0.06262660026550293, -0.40699610114097595, -0.1105659082531929, 0.022232994437217712, -0.0017315720906481147, -0.028233440592885017, -0.5554972290992737, -0.09314101189374924, 0.07258344441652298, 0.07022451609373093, -0.5841580033302307, -0.1972172111272812, 0.08972585946321487, -0.0869022086262703, -0.5997685790061951, -0.17388296127319336, 0.013724193908274174, -0.8892163634300232, -1.0192068815231323, -0.09114284068346024, 0.07840918749570847, -0.0652327612042427, -0.726444661617279, -0.1492917686700821, 0.0885302945971489, -0.1363159567117691, -0.10472885519266129, 0.05861878767609596, 0.02742713876068592, -0.01694767363369465, -0.2028799206018448, 0.03221786394715309, -0.13360725343227386, -0.6488035321235657, -0.5302392244338989, 0.028162213042378426, 0.22407864034175873, -0.17615747451782227, 0.368012934923172, 0.07389294356107712, 0.022992195561528206, -0.628494381904602, -1.652701735496521, 0.03569262847304344, 0.09199195355176926, 0.043364282697439194, 0.34140869975090027, 0.08631777763366699, 0.19575391709804535, 0.14266826212406158, -0.31912925839424133, -0.22354362905025482, -0.015898512676358223, 0.2124263048171997, -0.732843816280365, 0.10407334566116333, 0.07487291842699051, -0.13997198641300201, -0.6053170561790466, 0.11916304379701614, -0.10812155157327652, -0.05020837113261223, 0.07712364941835403, -0.029697207733988762, -0.007648364175111055, -0.22733591496944427, -0.12083541601896286, -0.100784532725811, -0.006958514917641878, -0.3144736588001251, -0.2984311282634735, -0.15180517733097076, 0.12298882752656937, 0.01301670540124178, 0.10019465535879135, -0.11995471268892288, -0.0649266168475151, -0.16232870519161224, -0.19458501040935516, 0.2344977706670761, 0.21507428586483002, -0.11160766333341599, 0.39010635018348694, 0.1358008235692978, 0.021433087065815926, -0.4710354506969452, -0.7003054618835449, -0.06789427250623703, 0.025717345997691154, -0.7841506004333496, -0.37736180424690247, 0.0907515212893486, -0.04672926291823387, -0.8446051478385925, 0.25487568974494934, -0.17917585372924805, 0.02496039681136608, -0.12070965766906738, -0.05761260166764259, -0.21856452524662018, -0.0037851708475500345, 0.07044393569231033, -0.04859951511025429, -0.1793612241744995, -0.01973670907318592, -0.30262038111686707, -0.002585490932688117, 0.061532143503427505, 0.1111595556139946, 0.46096083521842957, -0.48606765270233154, -0.048739586025476456, -0.0032108400482684374, 0.2786276042461395, -0.18027053773403168, -0.04698833450675011, -0.11588739603757858, -0.15820251405239105, -0.8883275389671326, 0.0404626689851284, -0.005318731535226107, 0.3865986168384552, 0.7422705292701721, -0.24221181869506836, 0.14576993882656097, -0.15014730393886566, -1.027827262878418, 0.091446153819561, -0.1938430517911911, -0.16385507583618164, 0.3281779885292053, -0.12126005440950394, 0.13651706278324127, -0.4627971947193146, -0.6079667806625366, 0.04586094245314598, -0.7250362038612366, -0.03541812673211098, -0.9368438720703125, -0.3318798243999481, -0.8905392289161682, -0.8068495392799377, -0.3755625784397125, -0.7411143183708191, 0.16869200766086578, 0.10975074023008347, -0.02449384145438671, 0.1731664091348648, 0.22194410860538483, -0.39453887939453125, -0.0020451692398637533, -0.13173209130764008, 0.32114484906196594, 0.033426400274038315, -0.0205280352383852, 0.05008217692375183, 0.09591423720121384, -0.2902396023273468, 0.005795839708298445, -0.0519571490585804, -0.23370005190372467, 0.03824644908308983, -0.12058674544095993, 0.19926907122135162, -0.06493829935789108, 0.5946131348609924, -0.0037869883235543966, 0.1708456128835678, -0.16314257681369781, -0.3644621670246124, 0.12824343144893646, 0.003444105153903365, 0.135431170463562, 0.03849363699555397, 0.043928083032369614, 0.048313792794942856, 0.15726806223392487, -0.08822422474622726, -0.22414851188659668, 0.16039015352725983, 0.27538350224494934, 1.234207272529602, 0.13410256803035736, -0.03462687134742737, 0.12104213982820511, 0.5838719010353088, 0.06150895729660988, -0.06883174180984497, -0.4454645812511444, -0.3575268089771271, 0.016310645267367363, -0.19017110764980316, 0.20219404995441437, -0.5538864731788635, -0.03778267279267311, 0.048232968896627426, -0.26904770731925964, -0.4582548141479492, 0.06292391568422318, 0.031223980709910393, -0.4358021318912506, -0.42611977458000183, -0.03969699516892433, 0.009322800673544407, 0.3260422348976135, 1.8443979024887085, -0.12800049781799316, -0.05378969386219978, 0.10468494892120361, -0.24168723821640015, -0.2075224071741104, 0.22298026084899902, -0.3990206718444824, -0.6980496048927307, 0.12645719945430756, -0.20879842340946198, -0.052847977727651596, -0.5535039305686951, 0.04562172666192055, 0.0574602447450161, 0.02950483374297619, 0.14674460887908936, -0.1060020849108696, -0.07678926736116409, -0.061393555253744125, -0.4464726150035858, 0.13972260057926178, -0.011964217759668827, 0.010120227001607418, -0.953889787197113, 0.07035035640001297, -0.2246844619512558, 0.18832089006900787, 0.6241325736045837, 0.1372140496969223, 0.0306644756346941, 0.02466905303299427, 1.9316176176071167, -0.03271693363785744, 0.024395601823925972, -0.26302197575569153, -0.15440203249454498, 0.18420980870723724, 0.05511721968650818, 0.014276653528213501, 0.18371082842350006, -0.07039500027894974, 0.12941382825374603, 0.1217808797955513, -0.4119512140750885, -0.03264254704117775, -0.12463057786226273, 0.061275843530893326, -0.4041289985179901, 0.15748073160648346, -0.06200713291764259, -0.19070552289485931, 0.06807112693786621, -0.08955364674329758, 0.0330238975584507, 0.3178870975971222, -0.15763522684574127, -0.10020207613706589, -0.09180235862731934, -0.4871315658092499, 0.06227356195449829, 0.10570014268159866, 0.10034442692995071, 0.09933029860258102, -0.1734670251607895, 0.03936189040541649, -0.05106258764863014, 0.2553592026233673, 0.09307002276182175, 0.18319909274578094, 0.003847517305985093, 0.44210436940193176, 1.566229224205017, -0.15443287789821625, 0.022565675899386406, 0.4734788239002228, -0.1083712950348854, 0.22303436696529388, 0.1855299323797226, -0.07209688425064087, 0.05340421572327614, 0.1520472913980484, -0.09210670739412308, -0.2695605456829071, -0.7413363456726074, 0.12251580506563187, 0.11604081839323044, -0.09036124497652054, -0.47783711552619934, -0.05952787026762962, 0.006663225591182709, -0.6947051882743835, -0.059786081314086914, 0.003307014936581254, 0.11257635802030563, 