{"structure_edges": [[-1, 10, 1], [10, 11, 1], [11, 12, 1], [-1, 15, 1], [15, 16, 1], [16, 17, 1], [-1, 30, 1], [30, 33, 1], [33, 34, 1], [-1, 35, 1], [35, 36, 1], [36, 37, 1]], "structure_weights": {"mu": [-2.374151211162629, -1.5768479552501165, -0.36449771108584633, -1.5614255377769437, -0.9325983822084648, 0.0, 0.0, 0.03948429221304571, -1.1917779401284045, 2.662027151513704, -0.4997405505268725, -1.2183497408317534, 0.181632305287722, -0.007047624061116043, 0.0, 0.0, 0.04233956690607186, -0.03790556079985288, -2.5533049382846014, -0.5225975236792226, -0.9667614196526593, -1.1917408449465925, -1.3135043537262667, 0.0, 0.0, -0.4136751040538877, 0.20768936768089116, -1.9117398746007352, -0.843285021199946, -1.3521881525756543, -0.09282660252940887, -0.1038211425217049, 0.0, 0.0, 0.2865124327613402, 0.5026475614222967, -2.6391056496244323, -0.5082818242272209, -1.3848778287904278, -1.1795207943823651, -1.4761382049123062, 0.0, 0.0, 0.1547169899181485, 0.002542796283354281, -1.9234341470306815, -1.5063661832518207, 0.9119813812578412, -0.09241407023399406, -1.4135533980070831, 0.0, 0.0, 0.02568203552350075, -1.2492887326091762, -2.19417174872665, -1.2758946491153118, -0.9172808347013826, 0.5248101150723404, 0.32508617533191064, 0.0, 0.0, 0.4434473038480221, 0.30809218682596123, -1.932848281082707, -0.7066348468995043, -1.0642950781208613, -1.0519652802299995, -1.2524595667743308, 0.0, 0.0, -0.8059944284275529, 0.18754976667904807, -1.5032634717487792, -0.5311995783302706, -1.5494447090275907, -0.27807562332967534, 0.015571982317077753, 0.0, 0.0, -0.0036281097923593227, 0.2841666029405431, -1.8106325252988769, -0.5340745424366619, -1.213901675638495, -0.7401506897627612, -1.350277286784335, 0.0, 0.0, -0.006779849390457175, -0.10104645548898952, -1.5235772522698667, -1.3478087414320987, 1.8399542975738543, -0.3160578302803484, -1.9572039790271565, 0.0, 0.0, -0.5000904495143617, 2.050270519828463, -1.4740744494437388, -1.6185351186858317, 0.19139564532259395, 0.2449095192866238, 0.6911620654132115, 0.0, 0.0, 0.20773251962283426, -0.5035675411543716, -2.7940919694164843, -1.8955470109102361, 0.5907479036374139, 2.6233180270116727, -0.5439977019872632, 0.0, 0.0, -0.44541473254786373, -1.1041562054852267, -0.9763505732172348, -0.8840454703762851, -0.4143008412060444, 0.2921124979495989, -0.2156488857619002, 0.0, 0.0, 0.3217706896454131, 0.005410176132515369, -1.0236321160077735, -0.4907266946473563, -1.2797599059544127, 0.11822835244499026, -1.1486419708292892, 0.0, 0.0, 0.047741343630134735, -0.3022665927591751, -0.7423713482046674, -1.0915004062504245, 1.9088014372011202, 0.6593265840533753, -1.896719503873503, 0.0, 0.0, 0.7971227157767622, 0.42103023278006474, -1.7067373550616023, -1.3542916324254115, -0.8063410004648471, 0.4877887207705738, 0.054667293683156364, 0.0, 0.0, 0.3977519932102299, -0.2261183562318381, -2.212863852881842, -0.8466458380985317, -0.4029314993298205, -0.08621441245984773, -0.5833104061354234, 0.0, 0.0, 0.08795238730132154, -0.8012877859103198, -0.16306678247665046, -1.0548163430116817, -0.6004332268821265, -0.00931805272728051, 0.03836437512651008, 0.0, 0.0, 0.01894446391205701, -0.28528163411841906, -0.22622383368791565, -0.36694417331402873, -1.0469791173278056, 1.029216179195871, -0.9332649797941303, 0.0, 0.0, 0.195233691316881, 0.40492275967124053, 0.07586077233358673, -1.0469142959412583, 0.10868661952614718, 0.975199686793243, -1.3811489362150384, 0.0, 0.0, 0.3423648664334417, -0.3139412958028884, -0.3470834171853259, -1.0327068334280793, -0.5991829477369055, -0.27400159298083515, 0.026260864391974045, 0.0, 0.0, 0.2487907575093115, 0.36506980216290985, -0.012145290734593748, -0.5194483209737354, -1.5944347965232832, 1.5585181266749581, -1.1045951566582293, 0.0, 0.0, 0.10389465263938112, -0.28537566200980635, 0.4190081725464627, -1.3826303591580036, -1.6200675539916432, -0.195864196921275, -0.5671102009079321, 0.0, 0.0, 0.282563763258731, -0.10408156890459286, -0.23034938368220081, -0.7391844410685663, -0.9593272669811179, 1.0173706795072077, -1.0644401274293296, 0.0, 0.0, -0.17478530768788392, 0.018202643702453114, 0.3865209484838747, -1.2168817370380265, 0.0646718176591783, 1.4127459411869288, -1.098547213490394, 0.0, 0.0, 0.3036456250978931, 0.028580309323112358, -0.2722356183867583, -0.8334008060024829, -1.3835842686465476, 0.05849526485389619, 0.25922555835820865, 0.0, 0.0, 0.0437463940479789, -0.22588359612007666, 1.0823423881850538, -0.15997657221693465, -1.2829656091199022, 1.7094782899803178, -1.5371012478850665, 0.0, 0.0, -0.33301433786399903, -0.026417341702599007, 1.161299532834142, -0.6407146932258582, -1.2356380412983552, -0.3644604794428438, -0.49117640635959414, 0.0, 0.0, -0.081916681085951, -0.22708136868881867, 0.6184710694852734, -0.37691125054267055, -1.329091350143235, 2.045944614451177, -1.4890950769031939, 0.0, 0.0, 0.18064721482516363, -0.4185979087883337, 0.16348417255913142, -0.44699941118259046, 2.48408108928085, 2.95307956941603, -0.715690732239343, 0.0, 0.0, -0.6071172476911105, 0.8566681156389597, 0.8369208348206533, -1.5162422468315466, -1.4250588682846999, 0.2550658953981049, -0.17163457240960706, 0.0, 0.0, -0.7371973132806244, -0.14498877089009019, 1.117232915726354, -0.6682793859037656, -1.3509454574330018, 2.5502903886670607, -1.1341584445349246, 0.0, 0.0, -0.031949180434985854, 0.290141947163612, 1.1576368295448416, -0.7120753822176348, 0.7017172194379129, 0.6557544367013663, 0.6564527625262722, 0.0, 0.0, 0.4819060525325703, 1.4347557030822298, -0.5333670278825134, -0.014022927423381685, 1.048641317173688, 1.4704182123180825, -1.3537980616163676, 0.0, 0.0, 0.4944375411425317, 0.406262366701859, 1.5808411125239867, -1.2524716717243551, 0.44379323205333254, 3.124999965082769, -1.2276288653707426, 0.0, 0.0, 0.3396937122498758, -1.5766331790885701, 2.153467635253849, -1.9584083478167582, 0.7408822196530089, -0.4776715338615945, 0.650587655093703, 0.0, 0.0, -0.8686898447055315, 0.3229542317127519, 1.5899287596624738, -0.7078629119943465, 2.651623882945118, -2.1657061262632302, -1.0469342951126672, 0.0, 0.0, 0.18792067449185287, 1.7309390631710195, 2.6733589221030236, -1.0278392457572834, -0.751322676067003, 0.17986777550624425, 0.009534729683905922, 0.0, 0.0, 0.09664971992144997, 0.45748893355312503, 1.8195038789569553, -0.4636387872124278, -1.3329941210173122, -2.136078890553196, -1.1195279236029323, 0.0, 0.0, 0.01454093244131243, -0.004350354537277951], "sigma": [0.1, 0.1, 0.1, 0.1, 0.1, 0.1, 0.1, 0.1, 0.1, 0.1, 0.1, 0.1, 0.1, 0.1, 0.1, 0.1, 0.1, 0.1, 0.1, 0.1, 0.1, 0.1, 0.1, 0.1, 0.1, 0.1, 0.1, 0.1, 0.1, 0.1, 0.1, 0.1, 0.1, 0.1, 0.1, 0.1, 0.1, 0.1, 0.1, 0.1, 0.1, 0.1, 0.1, 0.1, 0.1, 0.1, 0.1, 0.1, 0.1, 0.1, 0.1, 0.1, 0.1, 0.1, 0.1, 0.1, 0.1, 0.1, 0.1, 0.1, 0.1, 0.1, 0.1, 0.1, 0.1, 0.1, 0.1, 0.1, 0.1, 0.1, 0.1, 0.1, 0.1, 0.1, 0.1, 0.1, 0.1, 0.1, 0.1, 0.1, 0.1, 0.1, 0.1, 0.1, 0.1, 0.1, 0.1, 0.1, 0.1, 0.1, 0.01081235833540286, 0.01584859192771796, 0.015485252645043369, 0.034901417175158087, 0.012346167959055994, 0.1, 0.1, 0.028637263704909308, 0.06311719573217521, 0.012709332032474287, 0.019790744139162656, 0.13767262326021842, 0.01291297653435968, 0.07575171503396945, 0.1, 0.1, 1.8077102327190417, 2.0456979813462595, 0.11868449020644743, 0.01, 0.011147315132927636, 0.12900287604533794, 0.01616730026701341, 0.1, 0.1, 1.0417450454273824, 1.050465663005458, 0.1, 0.1, 0.1, 0.1, 0.1, 0.1, 0.1, 0.1, 0.1, 0.1, 0.1, 0.1, 0.1, 0.1, 0.1, 0.1, 0.1, 0.1, 0.013776800704544316, 0.010616953904689206, 0.10478495300657867, 0.026517737744363546, 0.015198494178577998, 0.1, 0.1, 0.13111097442739816, 0.022442378120779025, 0.021872163506075282, 0.01, 0.01, 0.2261228968938896, 0.01549668352364834, 0.1, 0.1, 2.7908037223200512, 1.281531296611575, 0.01807517166940291, 0.01874636261467534, 0.011255121208601978, 0.01, 0.08727357415072341, 0.1, 0.1, 1.7796756134329677, 1.4793191257821035, 0.1, 0.1, 0.1, 0.1, 0.1, 0.1, 0.1, 0.1, 0.1, 0.1, 0.1, 0.1, 0.1, 0.1, 0.1, 0.1, 0.1, 0.1, 0.1, 0.1, 0.1, 0.1, 0.1, 0.1, 0.1, 0.1, 0.1, 0.1, 0.1, 0.1, 0.1, 0.1, 0.1, 0.1, 0.1, 0.1, 0.1, 0.1, 0.1, 0.1, 0.1, 0.1, 0.1, 0.1, 0.1, 0.1, 0.1, 0.1, 0.1, 0.1, 0.1, 0.1, 0.1, 0.1, 0.1, 0.1, 0.1, 0.1, 0.1, 0.1, 0.1, 0.1, 0.1, 0.1, 0.1, 0.1, 0.1, 0.1, 0.1, 0.1, 0.1, 0.1, 0.1, 0.1, 0.1, 0.1, 0.1, 0.1, 0.1, 0.1, 0.1, 0.1, 0.1, 0.1, 0.1, 0.1, 0.1, 0.1, 0.1, 0.1, 0.1, 0.1, 0.1, 0.1, 0.1, 0.1, 0.1, 0.1, 0.1, 0.1, 0.1, 0.1, 0.1, 0.1, 0.1, 0.1, 0.1, 0.1, 0.01703937911929592, 0.021317198722122184, 0.23184225860109783, 0.091216506654158, 0.010536901936730436, 0.1, 0.1, 0.012187344827966465, 0.05173415091815737, 0.1, 0.1, 0.1, 0.1, 0.1, 0.1, 0.1, 0.1, 0.1, 0.1, 0.1, 0.1, 0.1, 0.1, 0.1, 0.1, 0.1, 0.1, 0.038903498041218856, 0.044487186569221765, 0.09700089438622855, 0.032896320254127205, 0.01, 0.1, 0.1, 1.591377660910688, 2.475672221203857, 0.9068802361437823, 0.01, 0.01719712746200347, 0.012301703042650575, 0.08540878268765827, 0.1, 0.1, 1.441292280016016, 1.8767636280552364, 0.01639583372794688, 0.01, 0.012451740889918078, 0.10000020696243714, 0.012382743746746767, 0.1, 0.1, 0.016201341635710322, 0.01551390020293765, 0.06379643750017815, 0.011880044849766127, 0.2276937350158803, 0.04326890777809944, 0.09607610972222198, 0.1, 0.1, 2.6570070828844714, 1.9078040191910135, 0.013131735775362969, 0.018157928869332266, 0.040586488297160786, 0.01, 0.03735266122355721, 0.1, 0.1, 1.4750459050661293, 1.4981436737106981, 0.1, 0.1, 0.1, 0.1, 0.1, 0.1, 0.1, 0.1, 0.1, 0.1, 0.1, 0.1, 0.1, 0.1, 0.1, 0.1, 0.1, 0.1]}, "policy_weights": [-0.0983647033572197, -0.20061810314655304, 0.05805247649550438, -0.0634918287396431, 0.1551489681005478, 0.3198251724243164, -0.19178350269794464, -0.09003520756959915, 0.29658082127571106, 0.30958297848701477, 0.12819184362888336, -0.019483597949147224, -0.013142124749720097, 1.2338658571243286, -0.13240587711334229, -0.10862969607114792, 0.03537004813551903, 0.37624773383140564, -0.03815626725554466, 0.05933183804154396, -0.0871325135231018, 0.32248327136039734, -0.030955610796809196, -0.1203768327832222, 0.20153506100177765, 0.059072498232126236, 0.040192846208810806, -0.013282583095133305, -0.059397999197244644, -0.36703380942344666, -0.06461197882890701, -0.11073911935091019, 0.3028418719768524, 0.9258595108985901, -0.03881830349564552, 0.016745714470744133, -0.4995770752429962, 0.36382773518562317, 0.11859167367219925, 0.10275708884000778, 0.12508954107761383, 0.035798609256744385, -0.04447931423783302, 0.191345676779747, -0.6925497651100159, -0.16913853585720062, 0.06162482127547264, 0.021996332332491875, -0.6372002363204956, -0.5347349047660828, -0.10433709621429443, -0.16433288156986237, -0.2654290497303009, -0.10745140165090561, -0.09513788670301437, -0.10158050805330276, 0.1257878690958023, 0.46514174342155457, -0.13408111035823822, 0.2974705398082733, -0.4896521270275116, -0.045840855687856674, 0.08934693783521652, 0.01698140986263752, 0.340702086687088, 0.35056355595588684, -0.026384184136986732, -0.10694969445466995, 0.03555851802229881, -0.015111743472516537, -0.11724983900785446, 0.10914360731840134, 0.4718065559864044, 0.594236433506012, 0.1542438268661499, 0.08498173207044601, 0.2353811115026474, 0.36134102940559387, -0.10760844498872757, -0.014258130453526974, 0.17842711508274078, 0.6728911995887756, 0.1526871770620346, 0.19958949089050293, -0.018932299688458443, -1.2933169603347778, 0.006775724235922098, 0.0023360515478998423, -0.05891668424010277, 0.11835216730833054, -0.006377922836691141, 0.027719048783183098, -0.2350487858057022, -0.9948939681053162, -0.18065454065799713, -0.022485537454485893, 0.07034743577241898, 0.13699080049991608, 0.06256705522537231, 0.14977861940860748, -0.26424190402030945, -0.7870378494262695, -0.027382967993617058, -0.02285526879131794, 0.2678699195384979, 0.15191315114498138, 0.18500502407550812, 0.118880994617939, 0.053181130439043045, -0.18297648429870605, -0.14777874946594238, -0.1292640119791031, 0.12352632731199265, 0.8374825119972229, -0.08996463567018509, 0.005764565896242857, -0.27273228764533997, 0.13822506368160248, -0.10028258711099625, -0.286284476518631, -0.27502867579460144, 0.14267638325691223, 0.0034182220697402954, 0.029136834666132927, -0.0903334692120552, -1.0186443328857422, 0.14845381677150726, 0.05909186601638794, -0.3047061264514923, -0.6420565247535706, -0.031691160053014755, 0.022662339732050896, 0.1417846977710724, -0.08122222870588303, 0.14380909502506256, 0.06199752911925316, -0.015815014019608498, 1.0628890991210938, 0.23255445063114166, -0.08079826086759567, -0.20117713510990143, 0.1746504306793213, -0.18116413056850433, 0.09383951872587204, -0.28714680671691895, 0.06878148764371872, -0.15042604506015778, 0.261264830827713, -0.4285605847835541, 0.10706532746553421, -0.062460724264383316, 0.07014299184083939, 0.15973533689975739, 0.5544338822364807, -0.03772559389472008, 0.20818136632442474, -0.21814535558223724, -0.05760550871491432, 0.12996865808963776, 0.0459788478910923, -0.8192237019538879, -0.4817661941051483, 0.8069267868995667, -0.10345209389925003, -0.02602292038500309, -0.04561406373977661, 0.5044504404067993, -0.40084072947502136, -0.41101327538490295, 2.031825542449951, 0.726235568523407, 0.1512354463338852, -0.22068072855472565, 0.03412678465247154, -0.02496844343841076, 0.057624880224466324, -0.3961086571216583, 0.13564585149288177, 0.174666628241539, 0.0616721473634243, -0.41999438405036926, -0.052984077483415604, -0.037881676107645035, -0.30315539240837097, 0.155881866812706, 0.10212243348360062, 0.03658634424209595, 0.3302254378795624, 0.4111693799495697, -0.01825711317360401, 0.21182791888713837, 0.35503336787223816, -0.08192157000303268, 0.12470114976167679, -0.029358265921473503, -0.08667666465044022, -1.4997215270996094, 0.03301742672920227, 0.02126323990523815, 0.00876516755670309, 0.022095652297139168, 0.16665004193782806, -0.28902626037597656, -0.12082814425230026, 0.024084290489554405, 0.24904845654964447, 0.08773719519376755, -0.2831883728504181, 0.5320683121681213, 0.045785222202539444, -0.03020551986992359, -0.3638617694377899, 0.16315816342830658, 0.01982090063393116, -0.12032925337553024, 0.25995370745658875, 0.35376790165901184, 0.04216933622956276, 0.07655036449432373, 0.49650394916534424, -0.1311662346124649, -0.13380597531795502, 0.0013675278751179576, 0.332914799451828, -0.249434694647789, -0.03860434889793396, -0.03648906946182251, 0.4009346663951874, 0.20644831657409668, -0.060603026300668716, -0.20988829433918, -0.8194569945335388, 0.07042629271745682, 0.05730437859892845, -0.10301323980093002, -0.00031386391492560506, 0.634088933467865, 0.07570724934339523, 0.13096167147159576, 0.23935340344905853, 0.3911646902561188, 0.04797518625855446, -0.13508011400699615, -0.1419060081243515, 0.31939005851745605, 0.1485593467950821, 0.06986480206251144, 0.10440445691347122, 0.4756574332714081, 0.05680340901017189, -0.059966620057821274, -0.4577355682849884, -0.4812040627002716, 0.10190462321043015, -0.17316104471683502, -0.0379527248442173, -0.057415787130594254, -0.1290234476327896, 0.20651642978191376, 0.11420535296201706, 0.06794535368680954, -0.062305692583322525, -0.03615868464112282, 0.11909914016723633, 0.21944987773895264, -0.15397417545318604, 0.17254091799259186, 0.26553013920783997, 0.06009120121598244, -0.007599123287945986, 0.08069104701280594, -0.14444516599178314, 0.3036969006061554, -0.07157932966947556, -0.15462161600589752, -0.24500705301761627, -0.050095587968826294, 0.0648161843419075, -0.1672760397195816, -0.17845071852207184, -0.6982851624488831, 0.0569380484521389, 0.14269673824310303, -0.023059478029608727, -0.024535635486245155, -0.08749978989362717, 0.08953201025724411, -0.047127965837717056, 0.09523838013410568, 0.10980892926454544, -0.004954793024808168, 0.5384131073951721, 0.7056394219398499, 0.08048183470964432, -0.12212289124727249, 0.009707697667181492, 0.3366853892803192, 0.14026273787021637, -0.08287274837493896, -0.08922874927520752, -0.5320186018943787, -0.12862063944339752, 0.19579267501831055, -0.45501044392585754, 0.33655908703804016, -0.06780188530683517, -0.0036287906114012003, 0.04285448417067528, -0.44791266322135925, -0.04464277997612953, -0.06829798966646194, 0.4826286733150482, 0.02227550558745861, -0.0022217032965272665, 0.17209364473819733, -0.24281102418899536, -0.4037770926952362, -0.07824968546628952, 0.06344520300626755, 0.2819346785545349, -0.38187018036842346, -0.006040140986442566, -0.03590526804327965, -0.17666469514369965, 0.24062035977840424, 0.05940217152237892, 0.024752290919423103, 0.034783605486154556, 0.5495057106018066, 0.03352498635649681, 0.0686570480465889, -0.43939128518104553, -0.367783784866333, -0.6398643851280212, -0.4487411081790924, 0.9991894364356995, -0.5273483395576477, 1.7290250062942505, -0.5644617676734924, -1.0406770706176758, 0.6750379204750061, 0.09684967249631882, 0.42083218693733215, -0.01919710449874401, 0.016813727095723152, 0.08479040116071701, -0.0031736132223159075, 0.11611711233854294, 0.012582509778439999, -0.04512685164809227, 0.13843023777008057, -0.14090502262115479, -0.029726387932896614, -0.13126517832279205, 0.09381624311208725, -1.0601853132247925, -0.09624820202589035, -0.05046403780579567, -0.05804133787751198, -0.22544477880001068, -0.038549717515707016, -0.028932927176356316, 0.06093752384185791, 0.08636801689863205, -0.010973350144922733, -0.10675667971372604, 0.136041060090065, -0.4346067011356354, 0.14299844205379486, -0.03581094741821289, 0.1878507286310196, 0.468932181596756, -0.015614359639585018, -0.1687157303094864, 0.14421822130680084, -1.679378628730774, 0.1654428392648697, 0.08020252734422684, -0.17207218706607819, 0.0946614220738411, -0.031084148213267326, 0.153963103890419, -0.03377416357398033, 0.03830253705382347, 0.10246872156858444, -0.07912873476743698, -0.08672165870666504, -0.02504133991897106, 0.017251087352633476, 0.025561748072504997, -0.6010890007019043, -0.2161877304315567, -0.10720368474721909, 0.017938656732439995, -0.13535524904727936, -0.21747104823589325, 0.045984651893377304, -0.020863233134150505, -0.406249076128006, 0.012916325591504574, -0.16510523855686188, 0.16559936106204987, -0.5132237076759338, 0.16332292556762695, -0.03706153854727745, 0.11501406878232956, -0.09847038239240646, -0.306448370218277, 0.12695811688899994, 0.09398538619279861, 0.27641552686691284, -0.29676535725593567, 0.0133237699046731, 0.012602568604052067, -0.10550285130739212, 0.39805319905281067, -0.10031187534332275, 0.12958289682865143, -0.1721675544977188, -0.30761221051216125, 0.20482562482357025, 0.11752044409513474, 0.07101357728242874, -0.14388324320316315, 0.06727360934019089, 0.14184798300266266, 0.34384992718696594, 0.265762597322464, 0.015542627312242985, 0.09734988957643509, 0.20293258130550385, 0.42351534962654114, -0.0419161356985569, 0.04514667019248009, 0.271549254655838, 0.35964128375053406, -0.06878561526536942, 0.0887606218457222, 0.22536374628543854, -0.547027051448822, -0.09937810152769089, 0.004320953506976366, -0.47510388493537903, 0.18617762625217438, 0.017777161672711372, -0.038254234939813614, 0.05749678239226341, 0.047292035073041916, 0.025272248312830925, 0.171981081366539, -0.3693196475505829, -0.9946202635765076, -0.1187823936343193, 0.045436445623636246, -0.057127539068460464, -0.40495726466178894, 0.0117094861343503, 0.23386286199092865, 0.10124874860048294, 0.46287915110588074, 0.19929610192775726, 0.13291741907596588, 0.2230222374200821, 1.3212482929229736, 0.08290653675794601, 0.12635459005832672, 0.0683787539601326, 0.2805018126964569, -0.04887252673506737, 0.0056692552752792835, -0.07874839752912521, 0.01858016662299633, 0.07524090260267258, -0.2016913741827011, 0.048002783209085464, 0.133401021361351, 0.07742507010698318, -0.18681226670742035, -0.18233279883861542, 0.6939482092857361, 0.0036581752356141806, 0.030615657567977905, 0.34150388836860657, -0.13819123804569244, -0.0636143609881401, -0.027960987761616707, 0.843539297580719, 0.6757984161376953, 0.1437472105026245, 0.07168949395418167, 0.09701807051897049, 0.028221847489476204, 0.17767180502414703, -0.04369330033659935, 0.3777749538421631, -0.5807462334632874, -0.07907574623823166, 0.06442809849977493, -0.08211898803710938, 0.2874707877635956, -0.13494490087032318, -0.04952118173241615, -0.7080764770507812, -0.5305742025375366, 0.32382088899612427, -0.2962830662727356, -0.7145195603370667, -0.9651139378547668, -1.0188066959381104, 0.2789020836353302, 1.1890065670013428, 0.17198039591312408, -0.045834045857191086, 0.3302321135997772, -0.4706544578075409, 0.05482916161417961, -0.06012433394789696, -0.05778377875685692, 0.13512887060642242, 0.1451519876718521, -0.1707637459039688, 0.013120830990374088, -0.0651087686419487, -0.10533154755830765, -0.17089533805847168, -0.4338425099849701, -0.6495528817176819, 0.045270297676324844, 0.02617262862622738, -0.34634777903556824, -0.7018522620201111, -0.07258342951536179, -0.08338392525911331, 0.18029654026031494, -0.3663279116153717, -0.007636077236384153, 0.10776162892580032, -0.33855125308036804, -1.250412940979004, 0.054314617067575455, 0.022094158455729485, 0.2021036297082901, 0.05457795038819313, 0.14482034742832184, 0.15382669866085052, -0.04331791028380394, -1.8821297883987427, 0.09311322122812271, -0.08906757086515427, 0.11169063299894333, -0.49054911732673645, 0.10973752290010452, 0.08496075868606567, -0.19088508188724518, 0.2094423621892929, -0.038510292768478394, -0.006833349820226431, 0.6461055874824524, -0.502315878868103, -0.027430221438407898, 0.11519216746091843, -0.4725055992603302, 0.25836771726608276, 0.047710154205560684, -0.023088810965418816, 0.2567305266857147, 0.23488165438175201, 0.1733572632074356, -0.18674404919147491, -0.10431350022554398, 0.6514138579368591, -0.07702671736478806, 0.0008261706680059433, -0.5401831269264221, 0.7340098023414612, 0.06358509510755539, 0.03717857971787453, -0.343462198972702, -0.18095646798610687, 0.10595165938138962, 0.021788807585835457, -0.6012917160987854, -0.5066513419151306, -0.07732696086168289, 0.13345147669315338, -0.06337039917707443, 0.4311251938343048, 0.01760147325694561, 0.07082885503768921, 0.07540028542280197, -0.05551278963685036, 0.018634112551808357, 0.06623225659132004, -0.23281075060367584, -0.24046610295772552, 0.06184595450758934, 0.22113895416259766, -0.10092807561159134, -0.5951680541038513, -0.0747571513056755, 0.12568126618862152, -0.05231783911585808, -0.2017420083284378, -0.09657049179077148, -0.12330294400453568, -0.06263566762208939, 0.1552933305501938, 0.09427940100431442, 0.10009630769491196, -0.1533605009317398, -0.5661782622337341, 0.02297709695994854, -0.12305761128664017, -0.2451505810022354, 0.1248089000582695, 0.07918012142181396, -0.09516286104917526, 0.21051661670207977, 0.0026824476663023233, -0.048164840787649155, 0.17191599309444427, 0.19044987857341766, -0.33180883526802063, 0.036433663219213486, 0.08634866029024124, -0.009340732358396053, 0.5650786757469177, -0.08878255635499954, -0.10941588133573532, -0.027071038261055946, -0.293528288602829, -0.13252998888492584, -0.17929841578006744, 0.15237270295619965, 0.34389689564704895, -0.15810967981815338, -0.0762365534901619, -0.2168208360671997, -0.6192497611045837, 0.12871672213077545, 0.13489983975887299, -0.03590520843863487, 0.2594785988330841, -0.055270951241254807, -0.09449458867311478, -0.4274187386035919, -0.3645568788051605, -0.02683562971651554, 0.23120473325252533, 0.13726399838924408, -0.6626048684120178, 0.16187594830989838, -0.042535100132226944, 0.9042577743530273, -0.26545092463493347, 0.10382545739412308, 0.011124037206172943, 0.4529319107532501, -0.18773265182971954, 0.2680874168872833, 0.005726379808038473, 0.06853003799915314, -0.668721616268158, -0.07227928191423416, -0.1282416582107544, -0.07476014643907547, 0.5540871024131775, 0.11721300333738327, 0.019383354112505913, 0.2952062785625458, 0.40209126472473145, -0.14153943955898285, -0.020860446617007256, -0.39050528407096863, -0.5817180871963501, 0.470071941614151, -0.5139865279197693, -0.3026579022407532, -0.9932318329811096, 0.42779526114463806, -1.2431286573410034, -0.5086807608604431, 0.8128490447998047, -0.4067562520503998, 0.07237648218870163, -0.6231846213340759, 0.046852800995111465, 0.06895870715379715, 0.14030538499355316, 1.0911835432052612, 0.08406548947095871, -0.01692040078341961, -0.24646995961666107, -0.25604745745658875, 0.08793468028306961, -0.05799853429198265, 0.15753699839115143, 0.7696179747581482, -0.04969465360045433, 0.09646614640951157, 0.056003209203481674, 0.014340580441057682, 0.1796724796295166, -0.1208864375948906, -0.11926960200071335, -0.37816908955574036, 0.012159980833530426, -0.11370671540498734, 0.18129895627498627, -0.11570440977811813, 0.07592201977968216, -0.15062223374843597, -0.3058641254901886, -0.06450534611940384, 0.06587065011262894, -0.058505889028310776, 0.15059377253055573, 0.71164470911026, -0.08595740050077438, 0.05873512849211693, -0.06729387491941452, -0.3204703629016876, -0.003176033264026046, 0.1045057401061058, 0.6893096566200256, -0.22212432324886322, 0.056600574404001236, -0.07432205229997635, -0.060498252511024475, 0.3266264796257019, -0.13737080991268158, -0.11660600453615189, 0.24190004169940948, 0.07409463822841644, -0.17409707605838776, 0.1883312463760376, 0.48334169387817383, 0.783353328704834, 0.11330354958772659, 0.07122785598039627, -0.010476297698915005, -0.22666333615779877, -0.13385272026062012, -0.028798073530197144, -0.45410582423210144, 0.615720808506012, 0.028639910742640495, 0.038251277059316635, 0.06582702696323395, -0.09344393014907837, -0.09171272069215775, 0.10115651041269302, -0.560493528842926, -0.7127417922019958, 0.0043899682350456715, -0.04340178146958351, 0.15327928960323334, 0.8360043168067932, 0.009211092256009579, 0.1753300577402115, -0.01960928551852703, 0.002805887022987008, -0.010597900487482548, 0.04562464356422424, -0.09428707510232925, 1.2436448335647583, -0.09987825155258179, -0.02090938203036785, -0.1470237821340561, -1.510837435722351, -0.01857130415737629, 0.004747103434056044, -0.10469972342252731, -0.600405752658844, -0.06889701634645462, 0.2721441090106964, -0.18884991109371185, -1.0491257905960083, 0.09631079435348511, 0.19090868532657623, 0.25832629203796387, 0.9335651993751526, 0.1583692878484726, -0.12732098996639252, -0.2990565598011017, 0.23019956052303314, 0.26888158917427063, -0.032013360410928726, -0.007100365590304136, 0.7250886559486389, -0.0960654690861702, 0.17615796625614166, -0.3966663181781769, 0.4926624000072479, 0.1370541900396347, 0.0673896074295044, -0.18018029630184174, -0.4255993366241455, 0.15335725247859955, -0.15900908410549164, -0.05197286233305931, 0.09817003458738327, 0.022532863542437553, 0.2217753678560257, 0.18243975937366486, 0.08095402270555496, 0.10412324219942093, 0.20690204203128815, -0.06891406327486038, -0.2738494873046875, -0.05275428295135498, -0.14557813107967377, 0.27427080273628235, -0.15759943425655365, 0.12987399101257324, 0.0031117741018533707, 0.5778951644897461, 0.6426921486854553, -0.07205582410097122, 0.02103695087134838, 0.5410417914390564, 0.15947535634040833, -0.07836955040693283, 0.062034670263528824, 0.37178125977516174, -0.03621077910065651, 0.0032934125047177076, -0.14073537290096283, -0.03813920170068741, 0.4872484505176544, 0.12503230571746826, -0.025691566988825798, 0.011375884525477886, -0.39998123049736023, -0.1871156543493271, -0.01622389256954193, 0.19425560534000397, -0.29592224955558777, 0.017021430656313896, 0.07466644048690796, 0.08194936066865921, 0.35381487011909485, -0.05430470034480095, -0.03179759159684181, -0.5524436235427856, -0.6625272035598755, 0.774419367313385, -0.3174319565296173, -0.3709845244884491, -0.4893780052661896, 0.018384752795100212, 0.08744335919618607, 0.21682311594486237, 0.2553057372570038, 1.2303440570831299, 0.12285160273313522, 0.26711443066596985, 0.07815670222043991, -0.007246329914778471, -0.07711749523878098, -1.0105866193771362, -0.04509400948882103, 0.07436143606901169, -0.2557568848133087, 0.204631969332695, -0.18698750436306, 0.12223614007234573, -0.11185408383607864, -0.6921395659446716, 0.0638081356883049, -0.29370567202568054, 0.04173218831419945, 0.1059354618191719, -0.19134771823883057, 0.05608701333403587, 0.16866253316402435, 1.079929232597351, -0.07154124230146408, -0.1462240219116211, 0.04032665491104126, 0.17124293744564056, -0.022242845967411995, -0.12546251714229584, -0.16967178881168365, 0.05857223644852638, -0.10210942476987839, -0.03843802586197853, 0.2097865790128708, 0.276122123003006, -0.062465544790029526, -0.058650728315114975, -0.05101752653717995, -0.30518630146980286, -0.07608139514923096, -0.10239075869321823, 0.4773467779159546, -0.2193005234003067, 0.029771624132990837, -0.029629496857523918, -0.08611644059419632, -0.23669582605361938, 0.16430102288722992, 0.0287857037037611, -1.1707953214645386, -0.4422741234302521, -0.16855476796627045, 0.05728166922926903, 0.07941687852144241, -0.36903855204582214, -0.16824473440647125, -0.05135367438197136, -0.17763124406337738, -0.6561021208763123, 0.026475826278328896, -0.07938861101865768, -0.22759221494197845, -0.5371681451797485, -0.08259253948926926, 0.08015459030866623, -0.011709894053637981, -0.675173819065094, 0.16698767244815826, -0.11220847815275192, -0.022054240107536316, 0.42668405175209045, -0.09619700908660889, 0.0004195243527647108, 0.17769421637058258, 0.5840668082237244, 0.03794678673148155, -0.05596357583999634, 0.06737817078828812, 0.31262585520744324, -0.06083410605788231, -0.0003498675941955298, 0.1358461230993271, -0.4230656325817108, 0.018943192437291145, -0.007628329563885927, 0.017760159447789192, -0.3519890010356903, 0.026825925335288048, -0.03447980061173439, -0.21042801439762115, 0.1030532717704773, 0.07945441454648972, -0.012498623691499233, -0.15559221804141998, -0.684727668762207, 0.27674242854118347, 0.1795903593301773, -0.07294958829879761, -0.7017874121665955, -0.014775156043469906, -0.0157660823315382, 0.002450622385367751, -0.00659169303253293, -0.22994516789913177, -0.05342715606093407, -0.14787603914737701, -1.0530320405960083, 0.13093985617160797, -0.03437026962637901, -0.20914103090763092, 0.1777799278497696, 0.1357250064611435, 0.028138218447566032, -0.05754470452666283, 1.890945553779602, 0.09737347811460495, 0.03188001736998558, -0.29721733927726746, -0.5872191786766052, 0.022681476548314095, 0.12549914419651031, 0.2978854477405548, 0.869382381439209, 0.028865722939372063, 0.03003370575606823, -0.2238461822271347, -0.5339098572731018, -0.2657490074634552, 0.07254505902528763, -0.055087607353925705, -0.7866745591163635, 0.17396403849124908, -0.0976022407412529, 0.14977672696113586, -0.9960177540779114, -0.16535340249538422, 0.07344358414411545, -0.15888652205467224, 0.7140583992004395, -0.007969521917402744, -0.06298179179430008, 0.5812482237815857, -0.9935007095336914, 0.14177049696445465, 0.0894041582942009, -0.20597480237483978, -0.5491839051246643, 0.10470014810562134, -0.07669376581907272, -1.3573116064071655, -0.742781937122345, 0.11841917783021927, 0.0703592374920845, 0.30058977007865906, 0.7275291085243225, -0.09151757508516312, -0.07862377911806107, -0.0239912960678339, -0.024800581857562065, 0.2345726490020752, -0.18529736995697021, -0.7198051810264587, -0.44814813137054443, -0.10831153392791748, -0.20238034427165985, 0.3724692761898041, -0.3856830894947052, -0.995133101940155, 0.5395799279212952, 0.2119993418455124, 0.4340171813964844, -0.22385500371456146, 0.29374173283576965, -0.2520098388195038, 0.059084538370370865, 0.16520430147647858, -0.12431038171052933, 0.13827718794345856, -0.056992169469594955, 0.08601284772157669, 0.036177877336740494, -0.2776808440685272, 0.049162860959768295, -0.1447117179632187, 0.02097192220389843, 1.636762022972107, 0.18008042871952057, 0.04843354597687721, 0.05344921723008156, 0.2528495490550995, 0.02922922559082508, -0.00487099913880229, 0.053368691354990005, -0.6961269974708557, -0.09988618642091751, 0.02019655890762806, -0.1574953943490982, 0.3114337623119354, -0.031187864020466805, 0.09110570698976517, -0.17105914652347565, -0.30001020431518555, -0.24849151074886322, -0.038042787462472916, -0.29874059557914734, -1.3736745119094849, -0.10336613655090332, 0.027880700305104256, -0.08276880532503128, 0.4610843360424042, -0.0437811054289341, -0.017169132828712463, 0.588627278804779, 0.5289682745933533, -0.07892513275146484, 0.11914419382810593, 0.1782618910074234, 1.6400495767593384, -0.1690363734960556, -0.0053170244209468365, -0.8650474548339844, -0.5616337060928345, 0.03104635886847973, 0.19811545312404633, -0.02023005299270153, -0.3424544632434845, 0.09218687564134598, 0.004785590339452028, -0.09581094235181808, 0.12899981439113617, 0.03937142714858055, 0.05013133957982063, -0.6394466757774353, 0.6359937787055969, 0.015433340333402157, 0.007428228389471769, 0.25014588236808777, -0.03158928081393242, -0.014286861754953861, 0.060289859771728516, 0.6621076464653015, 0.7599329352378845, -0.0569988489151001, 0.07509446889162064, -0.060699883848428726, -0.32549551129341125, -0.2322382777929306, -0.23360134661197662, -0.09548033028841019, 0.10161567479372025, -0.04332831874489784, 0.13123668730258942, 0.020295945927500725, -0.3514273464679718, -0.04106367006897926, -0.18176482617855072, -0.09199827164411545, -1.0188339948654175, -0.12060617655515671, -0.010053946636617184, 0.0036128240171819925, 0.48005107045173645, 0.11460196226835251, -0.013221890665590763, -0.3047806918621063, -2.287456750869751, 0.004141754936426878, 0.12644147872924805, -0.05485735461115837, 0.003237843280658126, -0.05154549703001976, 0.014095366932451725, -0.17811106145381927, -0.5939759612083435, 0.04978352412581444, -0.062016550451517105, 0.046239111572504044, -0.4441329538822174, 0.069489486515522, 0.15038682520389557, -0.057577017694711685, 0.11489439755678177, 0.1640254259109497, -0.13410650193691254, -0.34944602847099304, -0.738807737827301, 0.027260025963187218, 0.1615908294916153, 0.5735636353492737, 0.23519085347652435, -0.2591197192668915, 0.020733416080474854, -0.06586147844791412, 0.3899063766002655, -0.07802944630384445, 0.04121032729744911, 0.13721786439418793, 0.18401558697223663, 0.028886737301945686, 0.11526834219694138, 0.08102250844240189, 0.41355299949645996, 0.01108712051063776, -0.12958623468875885, 0.4935111701488495, -0.007293201982975006, -0.1443634182214737, 0.10749994963407516, -0.3543851673603058, 0.4557218849658966, -0.09446543455123901, 0.08414728194475174, 0.5952406525611877, -0.016882741823792458, -0.04229259118437767, 0.14407207071781158, 0.8012142777442932, 0.27134281396865845, 0.10637172311544418, 0.07200806587934494, -0.2246725708246231, -0.07965226471424103, -0.07042121887207031, 0.07158268243074417, 0.21031038463115692, -0.32109805941581726, 0.0007080980576574802, -0.010520369745790958, -0.0910419151186943, -0.19398735463619232, -0.0423693023622036, -0.03067329339683056, -0.31500932574272156, -0.17975996434688568, 0.4623766243457794, -0.3234735131263733, 0.10371974855661392, -0.8097424507141113, 0.6381088495254517, 0.18103279173374176, -0.5032287240028381, 0.7908404469490051, -0.13221505284309387, 0.09081102162599564, -0.03764075040817261, -0.00876657571643591, -0.12229668349027634, 0.2519214153289795, -0.01118685957044363, -0.156553253531456, 0.28832122683525085, 0.052391644567251205, -0.4399418532848358, -0.013086955063045025, 0.1947496086359024, 0.060960713773965836, -0.6197977662086487, -0.13104881346225739, -0.04635488614439964, -0.12394476681947708, 0.2536957561969757, 0.1272670179605484, 0.08073950558900833, 0.04110884666442871, -0.19029080867767334, -0.10110176354646683, -0.009604930877685547, -0.05090111121535301, -0.9587717652320862, 0.00742321414873004, 0.06593340635299683, -0.020684661343693733, -0.16498853266239166, -0.18240953981876373, 0.004057742655277252, -0.07754921168088913, -1.3383713960647583, 0.19543753564357758, 0.01788625307381153, 0.16556678712368011, 0.010060355067253113, 0.045578692108392715, 0.009792395867407322, 0.0802198126912117, 0.035100482404232025, 0.034088198095560074, 0.16024495661258698, 0.18644239008426666, 0.34656402468681335, 0.0664835050702095, 0.00799547042697668, -0.8044270873069763, -1.0365904569625854, 0.07943426817655563, 0.08968966454267502, 0.08040320873260498, 0.4163341224193573, -0.027696028351783752, 0.03455210104584694, -0.3023514449596405, -0.07884251326322556, -0.1258932501077652, -0.008628769777715206, -0.34692975878715515, -0.6415783166885376, 0.06553124636411667, -0.048547353595495224, 0.7407349944114685, 0.6821720004081726, -0.010935350321233273, 0.0027951335068792105, -0.7281966805458069, -0.33617067337036133, 0.0018443259177729487, -0.2767431437969208, 0.08702052384614944, -1.355869174003601, 0.038794394582509995, -0.040237244218587875, 0.19655252993106842, -0.016809942200779915, -0.24895571172237396, 0.03229561820626259, -0.0899319127202034, -0.9173945784568787, 0.07756942510604858, 0.02459113486111164, -0.13228334486484528, 0.23320721089839935, 0.023949233815073967, 0.06893832236528397, 0.12011360377073288, 0.36538031697273254, 0.0786212608218193, -0.11383592337369919, -0.22416041791439056, -0.8481931686401367, 0.23903463780879974, -0.023392466828227043, -0.13495947420597076, -0.6150798201560974, 0.02880472131073475, -0.0033764417748898268, -0.057033780962228775, -0.46098610758781433, 0.2149191051721573, 0.013078154064714909, 0.2048233300447464, -0.5778728127479553, 0.07387953251600266, 0.07803791016340256, -0.053858060389757156, 0.31290265917778015, 0.16584385931491852, 0.05892175808548927, 0.5829524397850037, 0.8795956969261169, 0.18987266719341278, -0.147636279463768, -0.22092486917972565, -0.4367802143096924, -0.07274056226015091, 0.10537727922201157, -0.33662649989128113, 0.2072923332452774, 0.02196374349296093, 0.04027703031897545, -0.049712952226400375, 0.40139898657798767, 0.07418357580900192, -0.026127545163035393, -0.4673294723033905, 0.045437123626470566, 0.025501957163214684, 0.14292024075984955, 0.15402880311012268, 0.7963290810585022, 0.005751143675297499, -0.06848417967557907, -0.2701156437397003, 1.0350853204727173, 0.1457158476114273, 0.0488511361181736, -0.05870799720287323, 1.400051236152649, -0.13116014003753662, -0.08383785933256149, 0.3828439712524414, 0.5924243330955505, 0.041793342679739, -0.18902064859867096, 0.0576937161386013, 0.3241199553012848, 0.11738253384828568, 0.2331090122461319, -0.35425302386283875, 0.011573865078389645, 0.042251020669937134, 0.03255227208137512, -0.20776629447937012, -0.08366905897855759, -0.007353015709668398, -0.20101173222064972, -0.47560784220695496, -0.2546844184398651, 0.3805132210254669, -0.30401939153671265, -0.3722755014896393, -0.3253896236419678, -0.5732385516166687, 1.0732364654541016, -0.3756673336029053, -1.1194161176681519, 0.006876424420624971, 0.012652362696826458, 0.27863410115242004, 0.10109841078519821, -0.11434613913297653, 0.1758631467819214, -0.3066231906414032, 0.052291661500930786, 0.12989209592342377, -0.2243175357580185, 0.0254263486713171, 0.03172456845641136, 0.011404282413423061, -0.320893794298172, -1.0981367826461792, -0.10396326333284378, -0.18508093059062958, -0.31827762722969055, 0.5603266358375549, -0.09502487629652023, -0.0022490175906568766, 0.13123776018619537, 0.49682047963142395, 0.024535568431019783, 0.025619754567742348, 0.18906889855861664, 0.7231903672218323, -0.018111959099769592, -0.00580888194963336, -0.13759936392307281, -0.04542657360434532, 0.033723775297403336, -0.03382909670472145, 0.0625181719660759, -0.271332710981369, 0.09516938775777817, 0.05482655391097069, -0.3459932506084442, -0.047115061432123184, -0.03128954395651817, -0.15049730241298676, 0.0379907488822937, 0.471919983625412, -0.03248482570052147, 0.053558822721242905, -0.8563480973243713, -0.6499982476234436, -9.959714225260541e-05, -0.08681868761777878, -0.27906376123428345, 0.24043966829776764, 0.12671734392642975, -0.024289162829518318, -0.39335349202156067, 0.1819768100976944, 0.028790267184376717, -0.04420090094208717, -0.09096425026655197, 0.604492723941803, 0.03379678726196289, -0.005696653854101896, -0.561311662197113, 0.9422988295555115, 0.057551149278879166, 0.10783100873231888, 0.5898553133010864, 0.852022647857666, 0.04001602903008461, 0.07543105632066727, 0.4883308410644531, -0.8552045226097107, -0.02924594096839428, 0.15994931757450104, 0.20765377581119537, 0.38892531394958496, -0.0002555257815402001, 0.09751098603010178, 0.2042483538389206, 0.14804385602474213, -0.06173044070601463, 0.07011746615171432, -0.11663030833005905, 0.46867653727531433, -0.00048039478133432567, -0.14009393751621246, 0.3085319995880127, -0.3960929214954376, 0.04162197932600975, -0.11952947825193405, -0.04159233346581459, 0.22112558782100677, 0.0075291176326572895, 0.005833353381603956, 0.27983948588371277, 0.2982480227947235, 0.2868005931377411, 0.06564449518918991, 0.0762983039021492, 0.05179901793599129, -0.02488643117249012, 0.16785943508148193, -0.01701180823147297, -0.2329564243555069, 0.06680161505937576, 0.01275815162807703, 0.7069081664085388, 1.34013831615448, 0.13042034208774567, -0.053687866777181625, -0.022508712485432625, -0.1121443584561348, 0.2563786208629608, 0.18086431920528412, -0.12848497927188873, -0.5837005972862244, -0.1414724737405777, 0.10717908293008804, 0.2262117713689804, 0.1632683277130127, 0.0940927192568779, -0.12212801724672318, 0.7213237881660461, 0.3934202492237091, 0.0028931573033332825, 0.051965147256851196, 0.3570084869861603, 0.36136457324028015, 0.15414024889469147, -0.0033620300237089396, 0.22163917124271393, 0.11271835118532181, 0.04925733432173729, -0.04931694641709328, 0.7698571085929871, -0.4797367751598358, 0.024594007059931755, -0.011681373231112957, -0.6903945803642273, -0.274729460477829, -0.2110907882452011, 0.06897812336683273, -0.324746698141098, -0.18224333226680756, 0.06002914533019066, 0.29469868540763855, 0.5980821251869202, 0.005160699598491192, 0.18297125399112701, 0.025398990139365196, -0.8355111479759216, 0.05095478892326355, -0.03859600052237511, 0.048939112573862076, 0.13238562643527985, 0.10162293165922165, -0.06751071661710739, 0.003717307234182954, -0.18379689753055573, 0.28635069727897644, 0.08056246489286423, -0.17128418385982513, -0.9569615721702576, -0.8034849762916565, 0.03616291284561157, -0.13685350120067596, 0.583738386631012, -0.5626057386398315, 1.0570824146270752, -0.4572315514087677, -0.05253855511546135, -0.04716605320572853, 0.0702999159693718, 0.18083597719669342, -0.5470375418663025, 0.23847006261348724, 0.07899213582277298, -0.005472369026392698, -0.2548053562641144, 0.027218608185648918, -0.03862473741173744, 0.41641807556152344, 0.4143819510936737, -0.01799430139362812, 0.10088467597961426, -0.26439687609672546, -0.7960017323493958, 0.10217491537332535, -0.04465574398636818, -0.051137953996658325, 0.17913629114627838, -0.14530672132968903, 0.022741777822375298, 0.10458105802536011, -0.1335008293390274, 0.2510094940662384, 0.1673063188791275, 0.04494931921362877, 0.8650586009025574, 0.04843779280781746, 0.09462123364210129, -0.27394869923591614, 0.21251638233661652, -0.11701082438230515, 0.005437477957457304, 0.2858752906322479, 1.1779155731201172, 0.15433646738529205, 0.12762142717838287, -0.1229236051440239, 0.48749157786369324, -0.003796894336119294, 0.21085809171199799, 0.19463075697422028, -0.500278890132904, -0.05153181031346321, -0.07660459727048874, 0.047260385006666183, 0.9074294567108154, 0.06316208094358444, -0.07017987221479416, -0.00577932596206665, 0.7671788334846497, -0.09237097948789597, 0.14676333963871002, 0.23715828359127045, 0.5739015936851501, -0.08325476199388504, -0.10660063475370407, -0.17183172702789307, -0.26285025477409363, 0.1489896923303604, 0.0054522608406841755, -0.8185948729515076, -0.9915104508399963, 0.004377502482384443, 0.02644619159400463, 0.7171199917793274, 0.6342936158180237, -0.10039293020963669, -0.09961050003767014, 0.8542264103889465, 1.618963360786438, -0.14162693917751312, 0.02358326129615307, -0.2356107383966446, -0.02758932299911976, -0.18534350395202637, -0.07606232911348343, 0.17376945912837982, 0.0021597330924123526, -0.09112066775560379, -0.05325790122151375, -0.020437045022845268, -0.6859436631202698, 0.02115003578364849, 0.01716543547809124, -0.001241672900505364, 1.043178677558899, 0.09807205945253372, -0.008133546449244022, 0.16320370137691498, 0.09919708222150803, 0.1283782571554184, 0.09079336374998093, 0.19698621332645416, 0.6550549864768982, 0.07981806248426437, -0.12073075026273727, -0.06173056736588478, 0.8947449326515198, 0.10773062705993652, 0.047850463539361954, -0.1811051368713379, -0.23544953763484955, 0.21206976473331451, -0.04706484451889992, -0.18675421178340912, -0.20972658693790436, 0.15703262388706207, -0.04393082484602928, 0.0295163094997406, 0.012074961327016354, 0.05341922864317894, -0.058845218271017075, 0.05968296155333519, 0.9909009337425232, -0.02181863971054554, 0.005281559657305479, 0.0151863107457757, -0.04932637885212898, 0.02658560685813427, 0.06821364909410477, 0.042782459408044815, -0.296256959438324, -0.11915696412324905, 0.046366747468709946, -0.10952132940292358, 0.17178021371364594, 0.1575697511434555, 0.0795174241065979, -0.11000913381576538, 0.7677424550056458, 0.09664302319288254, -0.09542196244001389, 0.2569339871406555, 0.6351142525672913, 0.03991958498954773, -0.02523786760866642, -0.24944059550762177, -0.28398725390434265, -0.038376059383153915, -0.21802090108394623, 0.22434353828430176, 0.042639438062906265, 0.27338191866874695, 0.20439814031124115, 0.647465169429779, -0.4336268901824951, 0.06935333460569382, 0.03471100330352783, -0.4587053954601288, -0.23841102421283722, -0.06779998540878296, 0.05169033631682396, 0.3600063621997833, -0.0977485254406929, 0.101634182035923, -0.0799633264541626, -0.21424174308776855, 0.3685210645198822, -0.07316052168607712, 0.3188032805919647, -0.15962399542331696, -0.24872733652591705, 0.9595851302146912, -0.5097612738609314, -0.6310313940048218, -0.46845391392707825, -0.630289614200592, 0.14536608755588531, -0.3255722224712372, -0.07019531726837158, -0.32159993052482605, 0.292861670255661, 0.06454657763242722, 0.23772738873958588, -0.12353945523500443, -0.3803601562976837, 0.16499781608581543, 0.04074486717581749, 0.11883354932069778, -0.05538540706038475, -0.929501473903656, 0.13055191934108734, -0.13183675706386566, 0.01823277957737446, -0.3426470458507538, 0.1597437709569931, -0.017769696190953255, -0.3417148292064667, -0.19597148895263672, 0.13216732442378998, 0.1272873729467392, 0.06699549406766891, -0.31756260991096497, -0.18064294755458832, 0.021493880078196526, -0.19198600947856903, -1.4656362533569336, 0.132301464676857, -0.12140869349241257, 0.12466812878847122, 0.5695052146911621, 0.06320380419492722, -0.10912171751260757, -0.10412553697824478, 0.07261347770690918, -0.056990381330251694, -0.06513256579637527, 0.12473439425230026, 0.08605623990297318, -0.05086866021156311, 0.07801581174135208, -0.02254592813551426, 0.04009544849395752, -0.05520438775420189, 0.08513761311769485, -0.5464373230934143, -0.4978841543197632, -0.04213178530335426, 0.09220438450574875, 0.09918355196714401, -0.36880162358283997, -0.08594263345003128, 0.1434265524148941, -0.5361341834068298, 0.18061327934265137, -0.03321847319602966, -0.009933934547007084, 0.08555715531110764, -0.06442975252866745, -0.02452648989856243, -0.09024465084075928, -0.33137649297714233, 0.2561807930469513, -0.09730357676744461, 0.05162521079182625, 0.39125654101371765, 0.6561545729637146, -0.13209950923919678, -0.008092680014669895, -0.013619095087051392, 0.22067682445049286, -0.03194436803460121, 0.08474140614271164, 0.1273803859949112, -0.26865696907043457, 0.09961215406656265, -0.14620639383792877, -0.20515672862529755, 0.113861083984375, -0.1113523319363594, -0.059309061616659164, 0.11345159262418747, 0.3431704342365265, -0.07523954659700394, -0.29023268818855286, 0.016927747055888176, 0.3127475082874298, 0.03291260823607445, 0.06333572417497635, 0.023540766909718513, -0.5469250082969666, -0.19214795529842377, -0.07765907794237137, -0.07496214658021927, 0.9487141966819763, -0.2627313435077667, -0.10260952264070511, -0.05663878098130226, 0.023343423381447792, -0.07715631276369095, -0.11767793446779251, -0.1669488102197647, 0.4193878471851349, 0.11486803740262985, 0.012254633940756321, 0.14620675146579742, 1.3563710451126099, 0.02947053499519825, 0.10706628113985062, -0.0925668403506279, 0.30710864067077637, 0.0929654911160469, -0.15856552124023438, 0.4787349998950958, -0.12766645848751068, -0.1113966777920723, -0.06344563513994217, 0.010659226216375828, -0.28452298045158386, 0.01104258093982935, 0.0422661267220974, -0.5505236983299255, -0.0055450317449867725, 0.10812555998563766, 0.05937778577208519, -0.043877605348825455, -0.5401124358177185, 0.18723440170288086, 0.08749890327453613, 0.13080404698848724, 0.5228858590126038, -0.018095849081873894, 0.09169822931289673, 0.15227149426937103, -0.7050172686576843, -0.06743574887514114, -0.2058052271604538, -0.3206126391887665, 0.08664292097091675, 0.14378751814365387, 0.01600066013634205, 0.10677262395620346, -0.5138188004493713, -0.09515810757875443, 0.02833854965865612, 0.06355257332324982, 0.4821038544178009, 0.0010667442111298442, 0.002066641813144088, -0.5103015303611755, 0.522771954536438, -0.03026142530143261, 0.05370914936065674, -0.08032470941543579, -0.6134218573570251, -0.039936456829309464, -0.016497818753123283, 0.022241709753870964, 0.07656867057085037, 0.049358759075403214, -0.21388490498065948, -0.4263944923877716, -0.6719453930854797, 0.7415094971656799, -0.5353512167930603, -0.8506371378898621, -1.7398176193237305, -0.4366455376148224, 0.4537549316883087, -0.6552973985671997, 0.0013351590605452657, -0.5073920488357544, 0.11838162690401077, 0.25165942311286926, -0.03128707781434059, -0.11354685574769974, -0.07908535748720169, 0.5596699118614197, -0.08779554814100266, 0.1051475927233696, 0.07885604351758957, -0.0339486338198185, 0.08501368761062622, 0.03231719136238098, -0.06866074353456497, 0.2594878375530243, 0.15914680063724518, 0.031556665897369385, 0.1127152368426323, 0.04591548070311546, -0.15913043916225433, -0.09502028673887253, 0.1440788358449936, 0.2892344295978546, -0.0733562633395195, 0.15465031564235687, 0.1716165691614151, 1.3401182889938354, -0.08799148350954056, 0.02706420235335827, 0.14319051802158356, 0.15278898179531097, 0.027536271139979362, 0.08451550453901291, -0.2575569450855255, 0.5145044922828674, -0.008912318386137486, 0.07469934970140457, -0.15810607373714447, 0.03783023729920387, 0.17041446268558502, 0.21020247042179108, 0.5559800863265991, 0.04922269657254219, 0.2503909766674042, -0.23625420033931732, -0.19328226149082184, -0.7344088554382324, -0.048575010150671005, 0.06561815738677979, -0.253645122051239, 0.22143341600894928, 0.033235494047403336, -0.12301374226808548, -0.028616787865757942, -0.2351551204919815, -0.006181090604513884, 0.206040620803833, -0.1340816169977188, -0.20470617711544037, -0.0574420727789402, -0.07536352425813675, -0.4305262565612793, -0.4869130551815033, -0.06837005168199539, 0.022848250344395638, 0.25286799669265747, -0.5806870460510254, -0.06276588886976242, -0.2983853816986084, 0.35274145007133484, -0.4137398302555084, 0.0950927808880806, 0.008427694439888, 0.1040104553103447, 0.25272250175476074, 0.0732852891087532, -0.17719782888889313, -0.26462796330451965, 0.3654625415802002, -0.10160215944051743, 0.09096217900514603, -0.2131599634885788, 0.3302645981311798, 0.0346406064927578, -0.044165343046188354, 0.11301218718290329, 0.8128535151481628, -0.04750284180045128, 0.03621253743767738, -0.03596377745270729, 0.055076658725738525, 0.21334631741046906, -0.038361553102731705, 0.27430465817451477, -0.37923476099967957, 0.10869427770376205, -0.0891273096203804, 0.28869011998176575, 0.03092011623084545, 0.024957625195384026, -0.010594382882118225, -0.31785300374031067, 0.8873013854026794, -0.02493208460509777, 0.06541908532381058, 0.17600499093532562, 0.12189102917909622, 0.07877176254987717, 0.20807479321956635, 0.06689213961362839, -0.4458451271057129, 0.06081831082701683, 0.07713402062654495, 0.12567640841007233, -0.6404370665550232, -0.28232792019844055, 0.13542760908603668, -0.16470064222812653, -0.503537654876709, 0.03772497549653053, 0.026304611936211586, 0.43178653717041016, 0.5538858771324158, -0.11967825144529343, -0.07966471463441849, 0.5186790823936462, -0.17915712296962738, 0.05064771696925163, -0.23225022852420807, 0.15692125260829926, 0.5935130715370178, -0.08069873601198196, -0.05351191386580467, 0.12561967968940735, -0.4554557502269745, 0.11114215105772018, 0.10525988787412643, -0.12225306779146194, 0.2202765941619873, -0.0064342389814555645, -0.0403098426759243, -0.103339783847332, -0.03465849161148071, -0.09822356700897217, -0.009877189062535763, 0.5484484434127808, 0.6803960800170898, -0.033043503761291504, 0.06119370460510254, -0.3190138339996338, -0.38814839720726013, -0.1005488708615303, -0.020217599347233772, 0.014153032563626766, 1.143917202949524, 0.023366006091237068, -0.049054596573114395, -0.009894490242004395, -0.16536711156368256, 0.11418067663908005, -0.08745444566011429, -0.6604305505752563, -0.4877423942089081, 0.2150707095861435, -0.44901514053344727, 0.08634517341852188, -1.553242564201355, 0.028401998803019524, -0.6188336610794067, -0.16877160966396332, -1.0052670240402222, -0.32933303713798523, 0.24641229212284088, 0.6637564301490784, -0.01655401475727558, 0.0687880590558052, -0.5371423363685608, -1.2242506742477417, -0.05728084221482277, 0.20257647335529327, -0.24886558949947357, 0.3585021197795868, 0.1866360753774643, 0.13588847219944, -0.3503224551677704, 0.1736682653427124, -0.03352991119027138, -0.08762902021408081, 0.13814377784729004, -0.5732255578041077, 0.011611958034336567, -0.15748097002506256, 0.30821847915649414, 0.3938498795032501, 0.125585675239563, -0.1215050145983696, 0.005366146098822355, 0.7171183228492737, 0.06538326293230057, -0.09518206864595413, 0.12329398840665817, -0.4086556136608124, 0.007803559768944979, 0.04590054973959923, -0.1306353658437729, 0.37413907051086426, -0.03646046295762062, -0.13283586502075195, 0.28191229701042175, 0.6218748688697815, 0.08839870244264603, 0.12994123995304108, 0.11387905478477478, -0.3637060821056366, -0.089096300303936, 0.1049070730805397, 0.01568339392542839, -0.1593656837940216, 0.13161420822143555, 0.10782340914011002, 0.35410985350608826, -0.12752756476402283, -0.0008423793478868902, -0.049581024795770645, -0.00516144884750247, -0.3585512340068817, -0.06026274338364601, -0.11623167246580124, -0.12849198281764984, 0.31517860293388367, 0.11144315451383591, 0.0068287900649011135, -0.7208709120750427, -0.2027711719274521, 0.0723024532198906, 0.09287179261445999, -0.4482631981372833, -0.20795820653438568, 0.02833920530974865, 0.014671743847429752, -0.2921909987926483, 0.19541119039058685, 0.3334079086780548, -0.07933639734983444, 0.07833420485258102, -0.04307454824447632, 0.08282125741243362, 0.07743441313505173, 0.21011655032634735, 0.23151303827762604, 0.13674722611904144, 0.03753938898444176, -0.08477974683046341, 0.8108336329460144, -0.11156965047121048, -0.024697421118617058, -0.2791769206523895, -0.39826107025146484, 0.002063745865598321, 0.03007620759308338, 0.436125248670578, -0.4089770019054413, -0.03797030821442604, -0.02021115832030773, -0.18435178697109222, -0.35898396372795105, -0.04647285118699074, 0.08372677117586136, 0.03146452084183693, -0.33139970898628235, 0.11355113238096237, -0.06456292420625687, -0.1581946611404419, 1.1201344728469849, 0.039447370916604996, 0.03560701385140419, -0.1504262536764145, -1.0568791627883911, 0.11098384112119675, 0.10263482481241226, 0.3519715964794159, 0.39217373728752136, 0.041070494800806046, -0.049406085163354874, 0.044828031212091446, 0.061525050550699234, -0.11023639887571335, -0.006150730419903994, -0.15376423299312592, -0.6707581877708435, -0.02967241406440735, 0.025301149114966393, 0.06158524379134178, 0.1411827802658081, -0.0682746097445488, 0.16545069217681885, 0.14238931238651276, 0.23328782618045807, 0.12057553976774216, 0.18705247342586517, -0.25757360458374023, 0.7272792458534241, -0.10518062859773636, -0.06473363190889359, 0.24756191670894623, 0.18702173233032227, -0.043662454932928085, -0.04510003700852394, 0.08537564426660538, 0.03486901521682739, -0.1320282369852066, -0.0007934178574942052, 0.1287776231765747, -0.49250122904777527, -0.1658148616552353, 0.11865437775850296, -0.04345240816473961, -0.9665068984031677, 0.10485338419675827, 0.010311164893209934, 0.22625301778316498, -0.09646186977624893, 0.05436853691935539, 0.14909718930721283, 0.2878739535808563, 0.267185240983963, 0.012397444806993008, -0.060675498098134995, 0.18304777145385742, -0.8062219023704529, 0.0663074180483818, -0.11495662480592728, -0.6508603096008301, -0.85346919298172, 0.29952433705329895, -0.6952891945838928, 0.2989472448825836, -0.6456413865089417, 0.11208998411893845, -0.2935655117034912, 0.32986587285995483, 0.10531028360128403, 0.1336374133825302, 0.0468062199652195, -0.035650577396154404, -0.056957781314849854, -0.06370795518159866, 0.0708172395825386, 1.3881969451904297, -0.11291860789060593, -0.21288514137268066, 0.0004829596437048167, -0.15815044939517975, 0.072613425552845, 0.1151200607419014, 0.22397185862064362, 0.5304521918296814, 0.06819117814302444, -0.19911478459835052, 0.15706051886081696, -0.07674659043550491, -0.1278640180826187, 0.008792468346655369, 0.025173930451273918, -0.14506985247135162, -0.02769160084426403, -0.07097966223955154, 0.17565906047821045, 0.2236626297235489, 0.0677538588643074, 0.10419202595949173, -0.16659797728061676, -0.42258742451667786, -0.017537591978907585, -0.013760827481746674, -0.1767590194940567, -0.3268985450267792, -0.047787804156541824, 0.03327500447630882, 0.032608989626169205, -0.33872294425964355, -0.04619329795241356, -0.24422408640384674, -0.17503881454467773, -0.37306690216064453, -0.03485563024878502, 0.14557494223117828, 0.7835392355918884, 0.676312267780304, 0.02632713131606579, -0.010572166182100773, 0.1234193965792656, -0.2695653736591339, -0.048427168279886246, 0.03258198872208595, -0.12265073508024216, 0.16927896440029144, 0.005789249669760466, 0.08136140555143356, -0.06165415421128273, -0.14513565599918365, -0.04903140291571617, -0.10715087503194809, -0.5038996338844299, 0.019721953198313713, 0.001334129017777741, 0.02756032533943653, 0.23720653355121613, 0.28932246565818787, -0.024114428088068962, -0.1004636362195015, -1.1181764602661133, -0.47382351756095886, -0.007507071364670992, 0.022970983758568764, -0.3021790683269501, 0.4189346730709076, -0.029820648953318596, 0.08418024331331253, 0.03522619232535362, 1.086991310119629, 0.1137768104672432, -0.09360747784376144, 0.11958705633878708, 0.5788732171058655, 0.04217860475182533, 0.11563634127378464, -0.05956697091460228, -0.6178249716758728, -0.06928456574678421, 0.11197365075349808, -0.053413718938827515, -0.4431804120540619, -0.09389639645814896, 0.2741806209087372, 0.039707694202661514, 0.2122669368982315, -0.13295377790927887, -0.19033409655094147, -0.45899203419685364, -0.20665550231933594, -0.13383030891418457, 0.027424754574894905, -0.009654625318944454, -0.04410785436630249, -0.038052741438150406, 0.057351235300302505, 0.03887581452727318, -1.7238026857376099, -0.14386294782161713, -0.13480843603610992, 0.06784801930189133, 0.16249942779541016, 0.14140711724758148, -0.0832054540514946, 0.14402629435062408, -0.10808742791414261, -0.09562861919403076, 0.08757496625185013, -0.07325541228055954, 0.05763537064194679, -0.014529288746416569, 0.04760923609137535, -0.1779496818780899, 0.6216645836830139, -0.0034432969987392426, 0.24030660092830658, 0.06058323010802269, 0.30170127749443054, 0.09889931231737137, 0.11031508445739746, 0.23226714134216309, 0.08458888530731201, -0.026639608666300774, 0.0041433838196098804, -0.5765175223350525, 0.7636273503303528, 0.07804679125547409, -0.10957115888595581, 0.08344428986310959, 0.3894009292125702, -0.06813163310289383, 0.08467482775449753, 0.7939801812171936, 0.03631148114800453, 0.1276250034570694, -0.15265081822872162, 0.4101355969905853, -0.7030057311058044, -0.14090074598789215, -0.09491444379091263, 0.1835884302854538, -0.3598027527332306, -0.09045767039060593, 0.05151839926838875, 0.3018961250782013, 0.7094969153404236, 0.1276472955942154, -0.18289469182491302, 0.2061937004327774, -0.007654115092009306, 0.18637968599796295, 0.0964127704501152, -0.24828170239925385, -0.4078693687915802, -0.09910076856613159, -0.64132159948349, 0.07608742266893387, -1.9230657815933228, -0.26910969614982605, -0.2947801947593689, -0.199857696890831, 0.024167118594050407, 0.638875424861908, 0.17628683149814606, 0.32123497128486633, 0.11224018782377243, -0.045527245849370956, 0.0073821768164634705, 0.4469604790210724, -0.04672152176499367, 0.013209833763539791, 0.19330237805843353, 0.05051577463746071, -0.12228120118379593, -0.012089633382856846, -0.23545120656490326, -0.7680234313011169, 0.07346869260072708, 0.057040985673666, 0.09066010266542435, 0.17697058618068695, 0.0009521450265310705, 0.1829683631658554, 0.11436819285154343, -0.540066659450531, -0.11200297623872757, -0.03970574960112572, 0.19393205642700195, -0.33314868807792664, 0.22874762117862701, 0.15102051198482513, 0.07137567549943924, -0.06648100167512894, -0.03713017329573631, 0.14060138165950775, 0.006306096445769072, 0.27424001693725586, 0.03805283084511757, -0.030330775305628777, 0.22305013239383698, 0.5347380638122559, -0.03009730577468872, 0.003586198901757598, -0.2326512187719345, -0.5810743570327759, 0.02925744839012623, 0.03465044125914574, 0.283469021320343, -0.9580411314964294, 0.07033521682024002, -0.09210372716188431, 0.007547452580183744, -0.2441519945859909, -0.09424955397844315, 0.029398052021861076, -0.16548646986484528, -0.17587615549564362, -0.03279978409409523, -0.08305644243955612, -0.06941533833742142, -0.15726043283939362, -0.013878137804567814, -0.011056937277317047, -0.7301703095436096, 0.014722827821969986, 0.15072844922542572, 0.009312705136835575, -0.7861754298210144, -0.5007959008216858, 0.03281698003411293, -0.009188971482217312, -0.7629203200340271, -0.6385146975517273, 0.0739871934056282, 0.18645308911800385, -0.19982312619686127, -0.428886741399765, 0.06526381522417068, 0.07531685382127762, 0.04271906986832619, 1.0577269792556763, 0.08537774533033371, 0.15648424625396729, 0.06103676185011864, 0.18871138989925385, -0.12674139440059662, 0.09484847635030746, -0.05685347691178322, -0.10876353830099106, -0.14670990407466888, 0.0146053871139884, 0.10093313455581665, -0.9168091416358948, 0.03857806697487831, -0.11719786375761032, -0.15323983132839203, -0.14778469502925873, 0.07215548306703568, 0.22325825691223145, 0.2649557292461395, 1.062407374382019, 0.023095866665244102, 0.09579776972532272, -0.24429655075073242, -0.4619240462779999, -0.12109886854887009, 0.23287321627140045, -0.3791968822479248, -0.48492100834846497, -0.015112563967704773, -0.059243444353342056, -0.1782376617193222, -0.31814953684806824, -0.12255323678255081, -0.03950792923569679, -0.08460211008787155, 0.3507380485534668, 0.03404238820075989, 0.2565977871417999, 0.18176938593387604, -0.30960991978645325, -0.009006799198687077, -0.09221255034208298, -0.28826192021369934, -0.7446675300598145, 0.026972314342856407, 0.019821597263216972, -0.27128365635871887, 0.17842625081539154, 0.00646200543269515, -0.039419565349817276, 0.22382259368896484, 0.5276245474815369, 0.09002924710512161, -0.031188340857625008, -0.010794135741889477, 0.0028875682037323713, -0.023730816319584846, -0.07757186144590378, 0.08033745735883713, -0.7810447812080383, 0.014957680366933346, -0.016536802053451538, 0.5901066064834595, 0.041239671409130096, -0.13570009171962738, -0.24420712888240814, 0.07711286097764969, 0.9940605759620667, -0.14999030530452728, -0.1773732751607895, 0.4005095064640045, -0.4768981635570526, -0.061062876135110855, -0.07613831013441086, -0.1253577321767807, -0.05996745452284813, -0.03558235988020897, 0.07360636442899704, -0.09172916412353516, 0.4605574905872345, 0.17566154897212982, 0.037897881120443344, -0.5483464002609253, -0.3041393458843231, 0.891951322555542, -0.6164434552192688, -1.289363980293274, -0.6822867393493652, -0.5597601532936096, -1.1413242816925049, -0.030690796673297882, 1.1224267482757568, -0.9158242344856262, 0.11441873759031296, 0.5253739953041077, -0.06310290843248367, 0.11489164084196091, 0.34572169184684753, -0.4201119840145111, -0.03297337517142296, 0.10344237089157104, 0.2688932716846466, 0.21421144902706146, 0.2065896838903427, 0.07287120074033737, -0.44877246022224426, -0.24049259722232819, 0.16705010831356049, 0.1277250051498413, -0.15383996069431305, -0.41746774315834045, 0.05704211816191673, 0.04305049404501915, 0.07684905081987381, 0.701477587223053, 0.15022657811641693, -0.007972165010869503, 0.0874786376953125, 0.41412970423698425, 0.0745706632733345, -0.04518160596489906, 0.36294129490852356, 0.09394048899412155, -0.020243898034095764, 0.005641691852360964, -0.20502831041812897, -1.3202706575393677, 0.07662630081176758, -0.13101540505886078, -0.31268981099128723, -0.23619602620601654, -0.17093156278133392, 0.08696287125349045, -0.15007688105106354, -0.5090171098709106, -0.03576204553246498, 0.08933799713850021, 0.235535129904747, -0.5912460088729858, 0.0652875229716301, 0.049885448068380356, 0.19445250928401947, -0.5671087503433228, 0.19962002336978912, 0.04274464026093483, 0.27654460072517395, -0.5287676453590393, -0.08434342592954636, 0.08316362649202347, 0.19118034839630127, -0.5087519288063049, 0.04318222776055336, -0.017909614369273186, -0.5757745504379272, 0.41810622811317444, 0.19592247903347015, 0.06974291056394577, -0.17806623876094818, 0.06925119459629059, -0.05383836850523949, -0.0735994502902031, -0.28618574142456055, -0.052638810127973557, -0.14277209341526031, 0.1775578409433365, 0.002587741008028388, 0.05520474538207054, -0.0879475548863411, 0.017490146681666374, -0.12496031075716019, -0.4707035720348358, -0.061615582555532455, -0.03456002101302147, 0.09513343125581741, 0.11569594591856003, -0.11932956427335739, -0.12021160870790482, -0.14103637635707855, -1.6463145017623901, -0.08613289147615433, 0.010205469094216824, 0.23935340344905853, 1.2383888959884644, -0.049531761556863785, -0.15465736389160156, 0.04273616895079613, 0.348232239484787, 0.09899204969406128, -0.007372379768639803, -0.24268461763858795, -0.23490332067012787, -0.0629398301243782, -0.13774921000003815, 0.08013904839754105, 0.7629969716072083, 0.0472220815718174, 0.013661409728229046, 0.12768100202083588, 0.44500061869621277, -0.029405442997813225, -0.07183457165956497, -0.16916655004024506, -0.5013837218284607, -0.042831361293792725, -0.014295040629804134, -0.15595091879367828, 0.6329163908958435, 0.2447643131017685, 0.11855506151914597, -0.3370825946331024, 0.08163570612668991, -0.20618343353271484, -0.08474069833755493, -0.4029944837093353, -0.7306036353111267, 0.12811292707920074, -0.25578734278678894, 0.25103023648262024, -0.07791947573423386, -0.04341703653335571, -0.13526104390621185, 0.30445244908332825, 0.2924337685108185, 0.04789060726761818, -0.029561402276158333, -0.058215007185935974, -0.1829184740781784, -0.038795050233602524, -0.2691197097301483, 0.26373091340065, 0.19164983928203583, 0.11577450484037399, -0.06077199801802635, -0.005708938930183649, -0.22861534357070923, 0.06969380378723145, 0.005828395020216703, 0.3928001821041107, -0.12625588476657867, 0.06351233273744583, 0.039081037044525146, -0.04210914298892021, -0.08805333822965622, -0.14650402963161469, -0.1044764444231987, 0.44806337356567383, 0.9846954941749573, 0.08347047120332718, 0.09086810797452927, -0.07364124059677124, 0.35883426666259766, 0.23152853548526764, 0.03928050026297569, -0.5817024111747742, -0.6709966659545898, 0.2839694321155548, -0.5748438835144043, -0.16953539848327637, -0.8890244960784912, -0.2212420254945755, 0.49751198291778564, 0.43757662177085876, -0.8912906050682068, 0.8692818284034729, 0.10518654435873032, 0.3877725601196289, 0.07888228446245193, 0.10181289911270142, 0.2453460544347763, 0.0686422660946846, 0.021206675097346306, 0.12621845304965973, 0.15698562562465668, 0.7644810676574707, 0.055065471678972244, -0.01663150079548359, 0.4504838287830353, -1.7117365598678589, 0.19970154762268066, -0.022855250164866447, 0.1910630464553833, -0.02897190861403942, -0.20563532412052155, -0.2550843060016632, 0.23830534517765045, 0.4983982741832733, -0.08607184141874313, 0.10536742210388184, 0.2063460499048233, 0.23836947977542877, 0.052492912858724594, -0.05737125501036644, 0.1949019432067871, -0.5874385237693787, 0.09820573776960373, 0.08713681250810623, 0.011151187121868134, 1.922512173652649, 0.059659358114004135, 0.020630089566111565, 0.40890002250671387, -0.27835509181022644, -0.2464921623468399, -0.06476055830717087, -0.19946490228176117, 0.5771464705467224, 0.043473366647958755, -0.06721346825361252, -0.18568606674671173, 0.754170835018158, 0.0033892940264195204, 0.1108386442065239, 0.3347871005535126, 0.23410338163375854, 0.03585213050246239, -0.22792457044124603, 0.08552717417478561, 0.04032120481133461, 0.1283876746892929, -0.13904143869876862, 0.298380583524704, 0.09514450281858444, 0.001160964253358543, 9.984061034629121e-05, -0.4723931550979614, 0.09662950038909912, -0.1507568508386612, 0.047612667083740234, -0.3936173617839813, 0.9390507340431213, -0.09512209892272949, 0.14273642003536224, -0.3492591381072998, 0.06065903231501579, -0.06260795146226883, 0.10481008142232895, -0.02584296278655529, 0.20963065326213837, -0.05451088771224022, 0.10896538943052292, 0.03230128064751625, -0.04321262612938881, -0.13224397599697113, -0.07608617097139359, 0.004830949008464813, -0.40031957626342773, 0.04663439467549324, 0.09156370908021927, -0.060007449239492416, 0.2150336056947708, 0.007376566994935274, 0.18004654347896576, -0.036468807607889175, -0.3657855689525604, -0.06582193821668625, -0.02217281050980091, -0.28275176882743835, -0.5846701264381409, 0.038971658796072006, 0.1161116436123848, 0.050444480031728745, -0.42751118540763855, -0.04701435565948486, -0.20509755611419678, -0.018660901114344597, 0.41986367106437683, -0.05065162852406502, -0.01195510569959879, 0.15886272490024567, 0.05723225697875023, 0.07400370389223099, -0.0920206680893898, 0.0655980184674263, -0.08204669505357742, -0.1514420360326767, 0.05496470257639885, 0.12167870253324509, 0.12958429753780365, 0.04986703768372536, -0.11003228276968002, -0.02834642119705677, 0.036285754293203354, -0.122917540371418, 0.02368880994617939, 0.3113817274570465, 0.19363999366760254, -0.16961060464382172, 0.03168633580207825, 0.14066065847873688, 0.07840652018785477, -0.0032116633374243975, -0.09083353728055954, -0.017610760405659676, 0.06156051531434059, 0.06213032826781273, 0.18108738958835602, 0.26358291506767273, 0.36323967576026917, -0.07641338557004929, -0.05549329146742821, -0.0028018297161906958, -0.24633264541625977, 0.08343976736068726, 0.1273956447839737, 0.15105973184108734, 0.8478851914405823, -0.07188291102647781, -0.017541350796818733, 0.585445761680603, -0.08976949006319046, 0.06486398726701736, 0.204876109957695, 0.41139665246009827, 0.7612811923027039, -0.09853614121675491, 0.02695918269455433, -0.01930828206241131, -0.008756435476243496, -0.01749691553413868, -0.06623513251543045, 0.3662436306476593, 0.10376287251710892, -0.11311996728181839, 0.0416761077940464, -0.5653591752052307, -0.3944660723209381, 0.4980403482913971, -0.27347081899642944, -0.720425546169281, -1.7483634948730469, -0.113242506980896, 0.614453911781311, -0.2974526882171631, -0.11666806787252426, 0.4464893639087677, 0.2883935272693634, -0.06290494650602341, 0.06081080809235573, 0.04719557240605354, -0.19716955721378326, -0.4981394112110138, -0.18643362820148468, -0.09832549095153809, -0.22111503779888153, 0.434244304895401, -0.09292542189359665, 0.15605996549129486, -0.017854690551757812, 0.21466277539730072, -0.037111345678567886, 0.04031467065215111, -0.055766526609659195, -0.23290704190731049, -0.07110976427793503, 0.14492309093475342, 0.16337011754512787, 0.1937272548675537, 0.2233884185552597, 0.11307906359434128, 0.21815474331378937, 0.7713755965232849, 0.06548602133989334, -0.060978714376688004, 0.10477376729249954, 0.1383490413427353, -0.11395562440156937, 0.07303845137357712, 0.10568917542695999, 0.8132928013801575, 0.06214332580566406, -0.2111235409975052, 0.1391230672597885, 0.07022310048341751, -0.036649733781814575, 0.02169165201485157, -0.022251343354582787, 0.7083067893981934, 0.02289530821144581, 0.10455333441495895, 0.7724743485450745, 0.02656880021095276, -0.12287689000368118, 0.08151751011610031, 0.5739083886146545, 0.4285125434398651, -0.024470744654536247, -0.025668034330010414, 0.18542397022247314, 0.041839297860860825, -0.2910754382610321, 0.20163726806640625, 0.49108126759529114, 0.23784901201725006, -0.05542566254734993, -0.09355286508798599, -0.3402421176433563, 0.3299199938774109, -0.13700102269649506, -0.07347852736711502, -0.9199084639549255, 0.048636022955179214, -0.10388016700744629, 0.01647154800593853, -1.0032472610473633, -0.47634175419807434, -0.03085234947502613, -0.08693455904722214, -0.16673626005649567, -0.1973266750574112, 0.044470544904470444, 0.014793128706514835, -0.1786942332983017, 0.13457144796848297, -0.1286264806985855, -0.035141680389642715, -0.00894018355756998, -0.24329759180545807, 0.11759579926729202, -0.10456172376871109, 0.19309164583683014, 0.3245045840740204, -0.11877346783876419, -0.0436643622815609, 0.012856240384280682, -0.3703422248363495, 0.12319790571928024, -0.02715611457824707, 0.42684075236320496, -0.8570151329040527, 0.04286515340209007, -0.008130387403070927, 0.37088438868522644, -0.31965920329093933, -0.032093703746795654, -0.044096413999795914, -0.1612945795059204, -0.880695641040802, 0.07345831394195557, 0.04918361082673073, 0.14471031725406647, 0.3793203830718994, -0.08335231989622116, -0.01051719393581152, -0.16912700235843658, 0.5139885544776917, -0.07353656738996506, -0.027017923071980476, 0.07420896738767624, 0.08245588093996048, 0.16926588118076324, 0.019983844831585884, 0.32403185963630676, 0.20058272778987885, 0.09979700297117233, -0.19149555265903473, -0.3924715518951416, 0.7559569478034973, -0.10448388010263443, 0.17311178147792816, -0.054485734552145004, 0.3208865821361542, -0.03980189934372902, -0.1975870281457901, -0.07718586176633835, -0.5623001456260681, -0.12227488309144974, 0.09218019992113113, -0.9617693424224854, -0.08895748853683472, -0.014669566415250301, -0.03466230258345604, 0.5142726302146912, -0.17379820346832275, 0.07674854248762131, 0.1258111149072647, 0.2980389893054962, -1.2442387342453003, -0.019818244501948357, -0.004276714753359556, 0.15445050597190857, 0.08078886568546295, 0.08131664246320724, -0.061502281576395035, 0.8678990006446838, 0.3998021185398102, 0.1267550140619278, -0.11502670496702194, 0.3339848816394806, -0.08064717799425125, -0.004447270650416613, 0.13101933896541595, -0.020256908610463142, 0.52584308385849, 0.05202299728989601, 0.261658638715744, -0.6306437849998474, -0.6141590476036072, -0.22522114217281342, -0.6019083261489868, 0.626823365688324, -0.2358747273683548, 0.6709337830543518, -0.4964771270751953, 0.43745139241218567, 0.15532734990119934, 0.18581731617450714, -0.007567905355244875, -0.09779583662748337, 0.1039319634437561, -0.15743042528629303, 0.16968442499637604, 0.08531778305768967, -0.00923373457044363, -0.021301792934536934, -0.13611342012882233, -0.3121638596057892, -0.13843776285648346, -0.05381391569972038, 0.03582632541656494, 0.6625342965126038, 0.09447752684354782, -0.11190008372068405, 0.1601630300283432, 0.10144134610891342, -0.08363205939531326, 0.07142721861600876, 0.09249763935804367, 0.27467581629753113, 0.0702143982052803, -0.016696734353899956, -0.0444219671189785, -0.4749765694141388, -0.05822986736893654, -0.04976580664515495, -0.05885059013962746, -0.16268672049045563, 0.07301311939954758, 0.04472702369093895, -0.06708835810422897, 0.45230481028556824, 0.0021839626133441925, 0.03820130601525307, 0.1516183614730835, 0.4814606010913849, -0.16577112674713135, 0.09034764021635056, -0.5286239981651306, -1.1529271602630615, -0.07916759699583054, 0.18021346628665924, -0.6508564352989197, -0.6379185318946838, 0.1847863346338272, 0.035974714905023575, 0.13381589949131012, 0.39230528473854065, 0.11280561238527298, 0.020817024633288383, -0.2571885883808136, 0.3422718346118927, 0.013473914004862309, 0.22568915784358978, -0.2356882244348526, -0.19143688678741455, 0.10239104181528091, 0.023156819865107536, -0.11720820516347885, -0.31668421626091003, -0.027797279879450798, -0.015445648692548275, 0.3323943316936493, 0.49800679087638855, 0.18175791203975677, 0.1079154834151268, 0.5086125731468201, 0.8325331807136536, -0.12624822556972504, -0.07439875602722168, 0.10839255899190903, 0.17418456077575684, -0.09453904628753662, -0.07353269308805466, -0.22798632085323334, -0.13731123507022858, -0.08326613157987595, 0.1313072293996811, -0.014750049449503422, -0.04868628457188606, -0.02062751166522503, 0.06183946505188942, 0.22806453704833984, 0.05987173691391945, 0.1655748039484024, -0.11757909506559372, 0.08621681481599808, -0.1030743196606636, -0.06556499749422073, -0.08936022967100143, 0.22684310376644135, -0.8428621888160706, 0.11423074454069138, -0.06162869557738304, -0.22071100771427155, -0.2066190391778946, 0.06075585260987282, -0.10843626409769058, -0.3459503650665283, 0.1424873024225235, 0.0548052154481411, -0.09570849686861038, -0.036787208169698715, -0.24173830449581146, -0.08132392913103104, -0.007951885461807251, 0.0861203670501709, -0.4176267087459564, -0.1981225162744522, 0.01828649453818798, -0.1584228128194809, -0.7672023177146912, 0.08341062813997269, 0.08623247593641281, 0.14098797738552094, 0.09315259009599686, 0.11896275728940964, 0.013059690594673157, -0.7287694811820984, -0.9721434712409973, -0.14142335951328278, -0.01519011054188013, 0.3224814236164093, -0.28899648785591125, 0.11801575869321823, 0.058280762284994125, 0.2340826839208603, -0.5394744277000427, -0.019588841125369072, -0.12487030774354935, -0.23338580131530762, -0.41030916571617126, -0.014167682267725468, -0.12246561795473099, -0.5478593111038208, -0.5257686972618103, 0.08422673493623734, 0.274809867143631, 0.5836852788925171, 0.7256898283958435, -0.09236066788434982, -0.11552918702363968, -0.9036951065063477, -0.7293912768363953, 0.19909478724002838, -0.02121168188750744, 0.05136984959244728, 0.20374034345149994, -0.06915230304002762, 0.015185012482106686, -0.17448116838932037, -0.029696939513087273, 0.12900005280971527, -0.043350253254175186, 0.029355434700846672, -0.1372583955526352, 0.005359590519219637, 0.0796828344464302, -0.7571083903312683, -0.11727739125490189, 1.2271689176559448, -0.007852921262383461, -0.999060332775116, -0.7031925320625305, -0.5367042422294617, 0.06418576091527939, 0.30221033096313477, -0.05179615691304207, 1.245947003364563, 0.34090474247932434, 0.16232062876224518, 0.059558507055044174, -0.22747109830379486, -0.46410420536994934, -0.00927892979234457, -0.0257358830422163, 0.015221030451357365, -0.08876275271177292, -0.24106766283512115, 0.04619216546416283, 0.003203421598300338, 0.12130200862884521, 0.27649256587028503, 0.08581029623746872, 0.05142610892653465, 0.13531114161014557, 0.47493794560432434, -0.006907493341714144, -0.16489805281162262, 0.06519061326980591, -0.24578739702701569, 0.021934164687991142, -0.01062211487442255, 0.17457614839076996, 0.2613196074962616, 0.19065354764461517, 0.06282644718885422, -0.028058292344212532, 0.43892237544059753, -0.24729777872562408, -0.03293854370713234, -0.21378181874752045, -0.45627591013908386, -0.06546907871961594, -0.00854631420224905, -0.16800570487976074, 0.014116212725639343, -0.038958851248025894, 0.15875361859798431, 0.9653546214103699, 0.09625350683927536, 0.2840001881122589, -0.057778239250183105, -0.6663628220558167, -0.5125166177749634, 0.1320200115442276, 0.09789079427719116, -0.24243545532226562, 0.28320837020874023, 0.05277416110038757, -0.08560710400342941, 0.13724516332149506, 0.24234341084957123, 0.047465983778238297, -0.06037021055817604, -0.20376355946063995, -0.3548894226551056, -0.0014610652578994632, -0.03390437737107277, -0.9348277449607849, 0.29233238101005554, -0.027266057208180428, -0.0828639343380928, 0.3625554144382477, 0.5223636031150818, 0.12484525889158249, -0.03622424229979515, -0.31900539994239807, 0.03850143030285835, 0.036440785974264145, 0.08538740873336792, -0.2947070300579071, -0.08704955130815506, -0.08956121653318405, -0.07131970673799515, -0.062492430210113525, -0.29167911410331726, -0.088180311024189, 0.06404650956392288, -0.09772730618715286, 0.4915594756603241, -0.011833623051643372, 0.03115600161254406, -0.15590107440948486, -0.023348340764641762, 0.1615598201751709, -0.01727384142577648, 0.3686084449291229, 0.28215816617012024, -0.12173258513212204, 0.2506740391254425, -0.1528320461511612, -0.07949274778366089, 0.11658228188753128, 0.13100551068782806, 0.2492070347070694, 0.2536781132221222, -0.06153344735503197, 0.0564153827726841, -0.10970207303762436, -0.07396281510591507, -0.046450261026620865, 0.12720586359500885, 0.1070694848895073, -0.09553086012601852, 0.1469949334859848, -0.07394140213727951, 0.4501066207885742, 0.5452924370765686, -0.05093694105744362, -0.01006572786718607, -0.28154560923576355, -0.08958368748426437, 0.012538800947368145, 0.10571825504302979, 0.3967871367931366, 0.25998732447624207, 0.10930842161178589, -0.05397401377558708, -0.17473138868808746, -0.9372847676277161, 0.04555201902985573, -0.05434548854827881, 0.3510896861553192, 0.1537616103887558, -0.1008320227265358, 0.09975243359804153, 0.04448413476347923, -0.49960091710090637, 0.03840133175253868, 0.11219704896211624, 0.03011160157620907, 0.04937487468123436, -0.028948547318577766, -0.044357750564813614, 0.1228128969669342, 0.04539414867758751, 0.03740603104233742, -0.06393551826477051, 0.15228815376758575, -0.9179334044456482, 0.10298358649015427, -0.07392258197069168, 1.0676391124725342, 0.8481035232543945, -0.10834089666604996, 0.10723782330751419, 0.011261485517024994, -0.20296764373779297, -0.04359087347984314, -0.11744462698698044, 0.09169358760118484, -0.25140950083732605, 0.07249975204467773, -0.1863023042678833, 0.12038613110780716, 0.3181168735027313, -0.31656602025032043, -0.059924546629190445, 0.2531728148460388, -0.1791200190782547, 0.5664800405502319, -0.6269293427467346, -1.0519355535507202, 0.20958258211612701, -0.7791677117347717, 0.11219736188650131, -0.565507709980011, 0.5555034279823303, -0.7970287203788757, -0.20382459461688995, 0.18628622591495514, -0.10207551717758179, -0.017039569094777107, -0.05137799307703972, -0.8563790321350098, -0.05865245684981346, 0.22474098205566406, 0.03689020872116089, -0.0007735342369414866, -0.05556594952940941, 0.022931186482310295, -0.10264202207326889, -1.0014878511428833, -0.012649030424654484, 0.15836773812770844, -0.05562955513596535, -0.09603191167116165, -0.07762222737073898, -0.2553658187389374, -0.15117047727108002, -0.11769486218690872, 0.0747460201382637, 0.04726242646574974, -0.17964981496334076, -0.747860848903656, 0.011271030642092228, 0.028123078867793083, -0.16842783987522125, -0.5129470229148865, 0.08601700514554977, 0.05095783993601799, -0.230194553732872, -0.2117568701505661, 0.09997505694627762, -0.12169455736875534, 0.06049829348921776, 0.045470234006643295, -0.1234823539853096, 0.0046819341368973255, -0.5086560845375061, 1.0666253566741943, 0.050597187131643295, -0.0033008356112986803, 0.2723631262779236, -0.4284246861934662, -0.04913092032074928, -0.2052648812532425, -0.0891306921839714, -0.6617335677146912, 0.1204834058880806, 0.030638454481959343, -0.10874968767166138, 0.28378531336784363, -0.05651700124144554, 0.06359624117612839, 0.09960604459047318, 0.19613446295261383, -0.12417960911989212, -0.06694734841585159, -0.3893141746520996, 0.2566187381744385, -0.02489415742456913, 0.06540273874998093, 0.32815858721733093, -0.40381407737731934, 0.24661467969417572, 0.027276376262307167, 0.19456815719604492, -0.19398309290409088, 0.1110619381070137, -0.023418409749865532, -0.10879648476839066, -0.7588215470314026, -0.05537211522459984, -0.006428889464586973, 0.04258817061781883, -0.7824488282203674, 0.12250138074159622, 0.11990488320589066, -0.05676168575882912, -0.9995613098144531, 0.0046358187682926655, 0.19957087934017181, 0.26220133900642395, -1.0037392377853394, -0.19481171667575836, -0.019184691831469536, -0.37795186042785645, 0.19361083209514618, -0.02312028594315052, 0.15478993952274323, 0.17275594174861908, -0.5570873618125916, -0.1865823119878769, 0.12506867945194244, -0.20768864452838898, 0.06994002312421799, 0.1534501165151596, -0.022167610004544258, 0.01903882808983326, -0.336730033159256, 0.024519948288798332, 0.13229908049106598, -0.31290391087532043, -0.7528719305992126, 0.18109296262264252, 0.09962760657072067, 0.027685044333338737, 0.30906227231025696, -0.012216582894325256, -0.0019399375887587667, 0.293780118227005, 0.42034438252449036, -0.06098419800400734, -0.09051584452390671, 0.3083285987377167, 0.5040373206138611, 0.07840495556592941, -0.16735325753688812, 0.14230988919734955, 0.4808940589427948, 0.06946790963411331, 0.09568964689970016, -0.14708270132541656, 0.031149329617619514, -0.1311710923910141, 0.048254843801259995, 0.21209494769573212, 0.582400381565094, -0.07696855068206787, 0.017732230946421623, 0.038569383323192596, -1.3861743211746216, 0.05423182621598244, -0.08966737240552902, -0.1775967925786972, -0.19700801372528076, 0.06303954869508743, -0.004277214873582125, -0.047506868839263916, -0.0019045951776206493, -0.13788475096225739, 0.13105355203151703, -0.13453234732151031, -0.7383138537406921, 0.10174465924501419, 0.01620107889175415, -0.0763787105679512, -0.9589817523956299, 0.007758944761008024, -0.0038975554052740335, -0.26080605387687683, -0.008565708063542843, -0.060318831354379654, -0.10877691954374313, -0.051642775535583496, -0.12923230230808258, 0.1597694307565689, 0.15435992181301117, -0.6328831315040588, -0.5484194159507751, 0.24685050547122955, -0.16905736923217773, -0.27593451738357544, -1.8636342287063599, -0.5067769885063171, -0.12728656828403473, -0.2751000225543976, -0.13817845284938812, -1.3425008058547974, 0.060106512159109116, 0.04422217980027199, 0.11751913279294968, 0.0740695521235466, -0.008156991563737392, 0.3665929138660431, 0.03605115786194801, -0.056405965238809586, 0.30527183413505554, -0.326673299074173, -0.10347295552492142, -0.07357806712388992, -0.2847289741039276, -0.1321183294057846, -0.09778041392564774, -0.16736780107021332, 0.21399648487567902, 0.18770791590213776, 0.21307732164859772, 0.222214475274086, -0.06593107432126999, 0.13250719010829926, 0.03317051753401756, -0.17712174355983734, 0.1961042881011963, 0.05979478359222412, -0.18064679205417633, -0.08714313060045242, 0.2553400695323944, 0.12937618792057037, -0.08420909196138382, 0.0735781118273735, 0.0047941249795258045, 0.0015799800166860223, -0.08675443381071091, -0.19285307824611664, 0.08047740906476974, 0.2432124763727188, -0.04351199045777321, -0.03749721869826317, 0.35565686225891113, -0.43716081976890564, -0.04319476708769798, -0.15922047197818756, 0.006871784571558237, 0.5835121870040894, -0.0823785588145256, 0.031197132542729378, 0.14303313195705414, -0.38783547282218933, 0.07130897045135498, -0.024817703291773796, 0.06561893969774246, 0.035371068865060806, -0.05809640511870384, 0.02725883387029171, -0.3656329810619354, -0.6685705780982971, 0.03313744440674782, -0.007857673801481724, -0.2911653220653534, 1.018213152885437, -0.08443146198987961, -0.09283392876386642, -0.014633890241384506, -0.20634888112545013, -0.0010712648509070277, -0.03157883509993553, 0.17015431821346283, -0.5369643568992615, -0.03686779737472534, 0.010743462480604649, 0.2218262404203415, 0.6528081297874451, 0.11192429810762405, -0.11388743668794632, 0.23325850069522858, 0.07895941287279129, 0.061841849237680435, 0.04824152961373329, -0.19187210500240326, 0.35023948550224304, 0.03196292743086815, -0.04559871926903725, -0.16751764714717865, -1.1536027193069458, -0.145455464720726, -0.05934399738907814, -0.1401878446340561, -0.39803075790405273, -0.13390444219112396, 0.01947726495563984, -0.08752136677503586, 0.34373047947883606, -0.020871831104159355, 0.13077805936336517, -0.039604876190423965, -0.34508752822875977, 0.04433083161711693, -0.058385733515024185, -0.06804806739091873, 0.22236154973506927, -0.18575476109981537, 0.014581828378140926, -0.025979606434702873, -0.04211447015404701, 0.14627815783023834, -0.015955179929733276, 0.1125628873705864, 0.8512821197509766, -0.053866270929574966, 0.03535482659935951, -0.13748396933078766, -0.32880279421806335, 0.11303853243589401, 0.01113844569772482, -0.07268524914979935, 0.24154925346374512, 0.102344810962677, 0.018871471285820007, -0.28001442551612854, -0.11410942673683167, -0.025143412873148918, 0.081328384578228, 0.20293714106082916, 0.2670442759990692, 0.1559629589319229, -0.014763905666768551, -0.029230715706944466, 0.03461509570479393, -0.19477294385433197, 0.11611544340848923, -0.190785750746727, -0.24210311472415924, 0.17515753209590912, -0.0028707568999379873, -0.3741886615753174, -0.8051310181617737, 0.2193567007780075, -0.17603160440921783, 1.0810872316360474, -0.03382653370499611, 0.0892750546336174, 0.050974901765584946, 1.313105821609497, 1.7045763731002808, 0.10665150731801987, -0.022897420451045036, 0.7461618781089783, 0.5188783407211304, -0.033293187618255615, 0.03604975715279579, 0.267151802778244, -0.7269763946533203, -0.02578902058303356, -0.07700646668672562, 0.07370840758085251, -0.363973468542099, 0.1605677455663681, -0.008867024444043636, 0.017142003402113914, -0.09288180619478226, 1.0358078479766846, -0.3817004859447479, -1.206583857536316, 0.27146846055984497, -1.960983395576477, 1.147920846939087, 1.166215181350708, -0.1566503942012787, 0.45202144980430603, 0.3582024872303009, -0.5530757308006287, -0.09559159725904465, -0.034836526960134506, -0.17513489723205566, 0.5357504487037659, -0.15615308284759521, -0.03505825623869896, -0.01588187925517559, -0.0017717854352667928, -0.009895860217511654, 0.09791906923055649, -0.24514533579349518, 0.8633164763450623, 0.07125388830900192, -0.22516630589962006, 0.1205054447054863, -0.3835301697254181, 0.1328558772802353, 0.019567983224987984, 0.14627240598201752, 0.041821423918008804, 0.08487396687269211, 0.26531603932380676, 0.34663626551628113, 1.884738802909851, 0.016555102542042732, 0.045012298971414566, -0.020834626629948616, 0.7314854264259338, 0.3844437301158905, -0.014096544124186039, 0.47612425684928894, 0.7214822173118591, 0.21808969974517822, -0.13214148581027985, -0.28028371930122375, -0.18236000835895538, -0.015445097349584103, 0.30203482508659363, -0.16099099814891815, -0.2229277342557907, -0.013416563160717487, 0.01898312382400036, 0.5984030961990356, 1.367348074913025, -0.2002079337835312, -0.22475861012935638, 0.7703180313110352, 0.021074948832392693, 0.12253154069185257, 0.020084349438548088, -0.12063968181610107, 0.0482097826898098, 0.15061213076114655, 0.09252818673849106, 0.24297881126403809, -0.05973082780838013, -0.06581038981676102, -0.022540288046002388, -0.5978818535804749, 0.5594135522842407, -0.04640892520546913, -0.10297263413667679, -0.6239944696426392, -0.5549842119216919, 0.09242164343595505, 0.007696316111832857, -0.09414506703615189, 0.23339582979679108, 0.10018793493509293, -0.14882276952266693, -0.4223884046077728, -0.48110535740852356, 0.05008500814437866, -0.12479209154844284, 0.21548831462860107, -0.3353781998157501, 0.1246417686343193, -0.08091486245393753, 0.01155588123947382, 0.11605524271726608, 0.08142877370119095, 0.12257158011198044, -0.3838100731372833, -0.38657471537590027, 0.08664704114198685, -0.09836024791002274, 0.11168540269136429, -0.04637443646788597, 0.055650707334280014, -0.12228893488645554, -0.31183311343193054, 0.15021967887878418, 0.15122900903224945, -0.015485494397580624, -0.054506365209817886, -0.31332728266716003, 0.011721118353307247, 0.1517340987920761, -0.23355819284915924, 0.0790170356631279, -0.036952074617147446, 0.009159579873085022, -0.04987162724137306, -0.34464213252067566, 0.07147281616926193, -0.12430881708860397, -0.04158315435051918, 0.11380065232515335, 0.03788774833083153, 0.12203586846590042, -0.02988782525062561, -1.2495423555374146, 0.11901522427797318, 0.08146774023771286, 0.11060837656259537, 0.699150025844574, -0.0835576131939888, 0.13347016274929047, -1.072571039199829, -0.1112210676074028, 0.017353294417262077, 0.14472626149654388, 0.11137855798006058, -0.08406948298215866, -0.026278892531991005, 0.16216696798801422, 0.21133087575435638, 0.3626416027545929, -0.022516785189509392, 0.07242833822965622, -0.38139572739601135, -0.40267130732536316, -0.0922861099243164, -0.02135409228503704, 0.24710465967655182, 0.2783844470977783, 0.0179643202573061, -0.1607220321893692, 0.8989133834838867, -0.4407874643802643, -0.1302405744791031, -0.04471570625901222, 0.14688512682914734, -0.8827210068702698, -0.07398880273103714, -0.034718211740255356, 0.17334260046482086, -0.14930881559848785, 0.07042700052261353, -0.013810918666422367, 0.022099541500210762, -0.08824778348207474, 0.20844008028507233, -0.11801517754793167, -0.02022409252822399, -0.11692631989717484, 0.061268266290426254, -0.15614081919193268, -0.49097874760627747, -0.7133355736732483, 0.5622812509536743, -0.7197126746177673, -0.21984459459781647, -0.27875208854675293, -0.39458465576171875, -0.41588541865348816, 0.8184308409690857, 0.16393950581550598, -0.2570081055164337, 0.0886956974864006, -0.09482032805681229, -0.07741009443998337, -0.050506945699453354, 0.16002295911312103, 0.006152390968054533, -0.13357745110988617, 0.08000082522630692, -0.21062566339969635, 0.673708975315094, 0.19680006802082062, 0.03164529427886009, 0.13290812075138092, 0.385038822889328, 0.0912419930100441, -0.006999641191214323, 0.169950470328331, -0.15898443758487701, 0.06401544064283371, 0.2510359585285187, 0.12977002561092377, -0.11133230477571487, 0.05950487032532692, 0.12756143510341644, 0.11561096459627151, -0.5165361762046814, 0.1600957065820694, 0.06262660026550293, -0.25237175822257996, -0.438178688287735, 0.022232994437217712, -0.0017315720906481147, -0.009288049302995205, -0.519996166229248, -0.09314101189374924, 0.07258344441652298, -0.0023479480296373367, -0.39498141407966614, -0.1972172111272812, 0.08972585946321487, -0.402281790971756, -0.08341521769762039, -0.17388296127319336, 0.013724193908274174, -0.229588583111763, -1.3448905944824219, -0.09114284068346024, 0.07840918749570847, 0.28730031847953796, -1.208770751953125, -0.1492917686700821, 0.0885302945971489, 0.19557726383209229, -0.13899601995944977, 0.05861878767609596, 0.02742713876068592, -0.0037463682238012552, 0.1940852850675583, 0.03221786394715309, -0.13360725343227386, -0.348300963640213, -0.38545969128608704, 0.028162213042378426, 0.22407864034175873, -0.2839617431163788, -0.20745085179805756, 0.07389294356107712, 0.022992195561528206, -0.08279122412204742, -0.15341328084468842, 0.03569262847304344, 0.09199195355176926, 0.06462753564119339, 0.14127685129642487, 0.08631777763366699, 0.19575391709804535, 0.004972006659954786, -0.4936370551586151, -0.22354362905025482, -0.015898512676358223, -0.026013722643256187, -1.1187914609909058, 0.10407334566116333, 0.07487291842699051, 0.06342702358961105, 0.32708457112312317, 0.11916304379701614, -0.10812155157327652, 0.08103347569704056, 0.16311420500278473, -0.029697207733988762, -0.007648364175111055, -0.02397109381854534, -0.39879295229911804, -0.100784532725811, -0.006958514917641878, -0.22693754732608795, 0.06262271851301193, -0.15180517733097076, 0.12298882752656937, 0.0002602226741146296, 0.4903368651866913, -0.11995471268892288, -0.0649266168475151, -0.3148835003376007, -0.2542140781879425, 0.2344977706670761, 0.21507428586483002, -0.200662299990654, 0.4254373013973236, 0.1358008235692978, 0.021433087065815926, -0.8735739588737488, -1.4184705018997192, -0.06789427250623703, 0.025717345997691154, -0.4047980010509491, -0.0649862214922905, 0.0907515212893486, -0.04672926291823387, -0.22723983228206635, 0.12646210193634033, -0.17917585372924805, 0.02496039681136608, -0.01345354225486517, 0.2579974830150604, -0.21856452524662018, -0.0037851708475500345, -0.06430541723966599, 0.5988101363182068, -0.1793612241744995, -0.01973670907318592, -0.474214106798172, -0.5497282147407532, 0.061532143503427505, 0.1111595556139946, 0.5430448651313782, 0.23808978497982025, -0.048739586025476456, -0.0032108400482684374, 0.7133718132972717, -0.32350367307662964, -0.04698833450675011, -0.11588739603757858, -0.117302305996418, -1.2588378190994263, 0.0404626689851284, -0.005318731535226107, 0.7048006057739258, 1.0437308549880981, -0.24221181869506836, 0.14576993882656097, 0.27028486132621765, -0.6410645842552185, 0.091446153819561, -0.1938430517911911, -0.14208100736141205, 0.6063022017478943, -0.12126005440950394, 0.13651706278324127, -0.7167858481407166, -0.5964890122413635, 0.5220131278038025, -0.33668753504753113, -0.25114068388938904, -0.5306805968284607, 0.32828575372695923, 0.1995040625333786, -0.8854474425315857, 0.1389073133468628, -0.9093430042266846, 0.09311378002166748, 0.12114609032869339, -0.02449384145438671, 0.1731664091348648, -0.06455159932374954, -0.06974638253450394, -0.0020451692398637533, -0.13173209130764008, 0.1291372925043106, 0.18218301236629486, -0.0205280352383852, 0.05008217692375183, 0.002442734083160758, -0.47734877467155457, 0.005795839708298445, -0.0519571490585804, -0.24762822687625885, 0.0212967861443758, -0.12058674544095993, 0.19926907122135162, 0.04899318888783455, 0.956540048122406, -0.0037869883235543966, 0.1708456128835678, -0.07130157202482224, -0.13050390779972076, 0.12824343144893646, 0.003444105153903365, -0.014445231296122074, -0.056649744510650635, 0.043928083032369614, 0.048313792794942856, 0.23209285736083984, 0.16333769261837006, -0.22414851188659668, 0.16039015352725983, 0.3180895149707794, 0.5422678589820862, 0.13410256803035736, -0.03462687134742737, 0.2778172194957733, 0.6168661713600159, 0.06150895729660988, -0.06883174180984497, -0.16011248528957367, -0.29262906312942505, 0.016310645267367363, -0.19017110764980316, -0.12561272084712982, -0.4852255582809448, -0.03778267279267311, 0.048232968896627426, 0.20143993198871613, -0.27310946583747864, 0.06292391568422318, 0.031223980709910393, -0.3638768494129181, -0.05998837575316429, -0.03969699516892433, 0.009322800673544407, -0.25116226077079773, 0.47927042841911316, -0.12800049781799316, -0.05378969386219978, 0.17143817245960236, -0.14423438906669617, -0.2075224071741104, 0.22298026084899902, -0.10830938071012497, -0.8146305680274963, 0.12645719945430756, -0.20879842340946198, 0.09647107124328613, -0.8642310500144958, 0.04562172666192055, 0.0574602447450161, 0.09352969378232956, 0.39450201392173767, -0.1060020849108696, -0.07678926736116409, -0.20166413486003876, 0.049858663231134415, 0.13972260057926178, -0.011964217759668827, 0.14678560197353363, -0.5738211274147034, 0.07035035640001297, -0.2246844619512558, 0.06593810766935349, 0.49198582768440247, 0.1372140496969223, 0.0306644756346941, 0.21431128680706024, 1.9714852571487427, -0.03271693363785744, 0.024395601823925972, 0.049776021391153336, -0.24306534230709076, 0.18420980870723724, 0.05511721968650818, -0.09751509875059128, 0.02586480788886547, -0.07039500027894974, 0.12941382825374603, -0.026686308905482292, -0.9342842698097229, -0.03264254704117775, -0.12463057786226273, 0.19451357424259186, -0.05787516012787819, 0.15748073160648346, -0.06200713291764259, 0.03986397013068199, 0.39836814999580383, -0.08955364674329758, 0.0330238975584507, 0.11088188737630844, 0.05124654248356819, -0.10020207613706589, -0.09180235862731934, 0.2917978763580322, 1.1209089756011963, 0.10570014268159866, 0.10034442692995071, 0.13032414019107819, 0.15804480016231537, 0.03936189040541649, -0.05106258764863014, 0.11227690428495407, -0.2465069442987442, 0.18319909274578094, 0.003847517305985093, -0.3813559114933014, 1.1536474227905273, -0.15443287789821625, 0.022565675899386406, 0.8008543848991394, 0.08834939450025558, 0.22303436696529388, 0.1855299323797226, -0.5910676717758179, 