{"structure_edges": [[-1, 15, 1], [1, 2, 1], [0, 1, 1], [-1, 0, 1], [4, 5, 1], [3, 4, 1], [-1, 3, 1], [8, 18, 1], [7, 8, 1], [6, 7, 1], [-1, 6, 1], [16, 14, 1], [11, 16, 1], [10, 11, 1], [9, 10, 1], [-1, 9, 1]], "structure_weights": {"mu": [-1.4063447095626016, -1.388863538627156, 2.632859058503817, 0.23913899203467529, -0.8899589331957987, 0.0, 0.0, 0.9653700603692699, -1.1401346506766654, -1.2417220259306287, -1.0062854404738464, 0.4231006462598449, -0.5052410926773618, 0.4000356642963478, 0.0, 0.0, 0.7399759827521367, -1.4337005402350007, -0.8806199671036936, -0.30749117872778303, 0.8513561851498349, 0.14710930680331863, -1.1474853831844658, 0.0, 0.0, 1.2608911088444072, -0.3432301185507952, 0.47321068204967925, -0.672553113792062, 2.554538200194437, 0.5680600481123522, -1.7551328893100084, 0.0, 0.0, -0.5326082635461808, 0.7837031329934675, -0.46161691553412937, -1.214703194461152, 0.8658677724654239, 0.5989485126200386, 0.19670100055697828, 0.0, 0.0, 1.0274697836446602, 0.5632843537469304, -1.316892628127265, -0.9407710984361074, 0.3761920721784221, 1.651597364003502, -0.35723798887790914, 0.0, 0.0, -0.4462363295485866, -0.048886573415069544, 0.7111194894998867, -1.1938319834136617, 1.5119888356844837, 3.074281015290122, -0.9304775182073974, 0.0, 0.0, 0.4525556909293925, -0.0782879639073772, 1.4385308581242553, -0.90920401735221, 0.3296165714226235, -0.5938266156095543, -0.16669805871560453, 0.0, 0.0, 1.2041580486027599, -0.3731879962012441, 1.752038912558081, -1.1238420817752186, -0.16749304224575615, 2.942497810429763, -2.744006974090796, 0.0, 0.0, -0.39238822857226113, 0.6069257566690587, 2.217455327191326, -1.375806966593805, 0.3420302862557073, 3.125000009976734, -1.3602575690511867, 0.0, 0.0, 0.2032127304724027, -2.1007757815630015, 2.9765219428716017, -1.7836398905834414, 1.6966510314493983, -0.6425796360713456, -0.5049592990787195, 0.0, 0.0, 0.11535478401114808, -0.12956418185806248, 0.7471878691398244, -0.7462190091812861, -0.8478688517029594, -2.133836656190673, -0.8830168230480857, 0.0, 0.0, -0.4194594492057356, -0.21641433190908083, 0.0, 0.0, 0.0, 0.0, 0.0, 0.0, 0.0, 0.0, 0.0, 0.0, 0.0, 0.0, 0.0, 0.0, 0.0, 0.0, 0.0, 0.0, 1.5718694594813325, -1.4534083100255961, 0.7521853309635299, 3.125000009976734, -1.2092641725781401, 0.0, 0.0, -0.23494708392876662, -1.8360127131616113, 0.7809555657052996, -1.3374535045393066, 1.290813262625199, 3.074281015290122, -0.9674474011968985, 0.0, 0.0, -0.2136022775939554, 0.061626680975169275, 1.1352265766172815, -0.5985738607956952, -0.7003557158816015, -1.9235540156085185, -1.082400305189159, 0.0, 0.0, -0.36305584349056474, -1.0491589273822723, 0.0, 0.0, 0.0, 0.0, 0.0, 0.0, 0.0, 0.0, 0.0, 2.9765219428716017, -1.6895763875944372, 0.7843568405506708, -0.33004801852499904, -0.3169988048358121, 0.0, 0.0, -0.39430997520851796, -0.44521645769087853, 0.0, 0.0, 0.0, 0.0, 0.0, 0.0, 0.0, 0.0, 0.0], "sigma": [0.0570530935865549, 0.01, 0.03341116516321039, 0.01, 0.061561983874946366, 0.1, 0.1, 0.011098741361153694, 0.023129122940478704, 0.01764201219688357, 0.025074324912038613, 0.01, 0.011059251255480186, 0.010027211600313014, 0.1, 0.1, 0.12948687592566438, 0.17393033395527774, 0.026753009456597254, 0.046250834328301585, 0.01, 0.01, 0.07860681623287236, 0.1, 0.1, 0.028110929435291164, 0.4707100562674933, 0.01579503800331742, 0.01, 0.09684353959176877, 0.01406326022582056, 0.01, 0.1, 0.1, 0.01092822447345046, 0.011055222748437257, 0.01345141009787928, 0.020602578254765743, 0.01, 0.05861826807956015, 0.01, 0.1, 0.1, 0.10892352704093099, 0.02824093179550034, 0.011016684014081492, 0.01, 0.010747774537003641, 0.04751249957683891, 0.010680953110520024, 0.1, 0.1, 0.13421016682942696, 0.03766380704861896, 0.04481402669636937, 0.013730781919099027, 0.019579865692075992, 0.09999994867951027, 0.01, 0.1, 0.1, 0.5957278924349271, 0.055032106897254414, 0.010935200655454926, 0.013210624425732731, 0.015702880304659658, 0.05715673591630426, 0.01, 0.1, 0.1, 0.5201683171024367, 0.018348702441195304, 0.024867475441580723, 0.01, 0.012980591483842752, 0.09999996833220909, 0.03971725877178764, 0.1, 0.1, 0.15075896335272018, 0.43802551534030854, 0.01, 0.011918271426915376, 0.1263437747738596, 0.09999993534818748, 0.01, 0.1, 0.1, 0.0195345808006205, 0.01, 0.09999996342933606, 0.017320974741778697, 0.01, 0.017368734116594238, 0.019781144223791753, 0.1, 0.1, 0.32622861551196164, 0.03430811019395118, 0.06398869572801898, 0.012155295105319737, 0.13917684644970968, 0.010922620431746653, 0.010167070338504947, 0.1, 0.1, 0.31256175893899923, 0.5369874861228506, 0.1, 0.1, 0.1, 0.1, 0.1, 0.1, 0.1, 0.1, 0.1, 0.1, 0.1, 0.1, 0.1, 0.1, 0.1, 0.1, 0.1, 0.1, 0.01, 0.035911301980777716, 0.01903419675113171, 0.09999993534818748, 0.012592408509930748, 0.1, 0.1, 0.46232126323644923, 0.5496657632820586, 0.011000341595549771, 0.025253215198436124, 0.09835182205183887, 0.09999994867951027, 0.013624815170174914, 0.1, 0.1, 0.4116253953147978, 0.016233454084658303, 0.017576637446624886, 0.028145373495078643, 0.01426170629233065, 0.01, 0.011271063141250225, 0.1, 0.1, 0.7234042366009099, 0.6062568241625116, 0.1, 0.1, 0.1, 0.1, 0.1, 0.1, 0.1, 0.1, 0.1, 0.09999996342933606, 0.025276015186899, 0.24320952584629502, 0.01, 0.06385738821707128, 0.1, 0.1, 0.02019816616608301, 0.01, 0.1, 0.1, 0.1, 0.1, 0.1, 0.1, 0.1, 0.1, 0.1]}, "policy_weights": [-0.39124616980552673, 0.14007364213466644, -0.04447931423783302, 0.191345676779747, -0.16495893895626068, -0.12842214107513428, 0.06162482127547264, 0.021996332332491875, 0.17841209471225739, -0.5821825265884399, -0.10433709621429443, -0.16433288156986237, -0.7246103286743164, -0.5243587493896484, 0.08934693783521652, 0.01698140986263752, 0.46632686257362366, 0.8247502446174622, -0.026384184136986732, -0.10694969445466995, -0.10955774039030075, 0.026853712275624275, -0.11724983900785446, 0.10914360731840134, -0.3653354346752167, 0.17370109260082245, 0.0034182220697402954, 0.029136834666132927, 0.008074047043919563, 0.20215703547000885, 0.14380909502506256, 0.06199752911925316, 0.03561963886022568, 0.9494753479957581, 0.23255445063114166, -0.08079826086759567, 0.20778663456439972, 0.27396252751350403, -0.18116413056850433, 0.09383951872587204, -0.2986091673374176, 0.5633252859115601, -0.03772559389472008, 0.20818136632442474, -0.45156940817832947, 0.3877973258495331, 0.12996865808963776, 0.0459788478910923, 0.016500411555171013, 0.07281327992677689, -0.13422717154026031, 0.08065693825483322, 0.021715953946113586, -0.04263338819146156, 0.012250707484781742, 0.08281780034303665, 0.06503607332706451, -0.010949426330626011, 0.008587299846112728, -0.06919264048337936, 0.06637514382600784, -0.07385749369859695, 0.08445286750793457, 0.14419029653072357, -0.05225968733429909, 0.13189946115016937, 0.06917984038591385, -0.07582121342420578, 0.13660265505313873, -0.0853692814707756, -0.03933718428015709, -0.019878236576914787, 0.20009969174861908, -0.18003392219543457, 0.03996298089623451, -0.16776417195796967, 0.12568892538547516, -0.09976395219564438, -0.04401513561606407, -0.045178744941949844, -0.8012795448303223, -0.7664760947227478, -0.2749716639518738, -0.41661134362220764, 0.43695542216300964, -0.05838930234313011, 0.4952106177806854, -1.0856553316116333, -0.3319029211997986, 1.6965330839157104, 0.07530201226472855, 0.09052788466215134, 0.6056179404258728, 0.01982090063393116, -0.12032925337553024, -0.27549999952316284, 0.3643883168697357, 0.04216933622956276, 0.07655036449432373, 0.02528499625623226, 0.33939501643180847, -0.13380597531795502, 0.0013675278751179576, -0.714060366153717, 0.4329209625720978, 0.05730437859892845, -0.10301323980093002, 0.34585070610046387, 0.8155354857444763, 0.07570724934339523, 0.13096167147159576, 0.05181330442428589, 0.5734907388687134, 0.04797518625855446, -0.13508011400699615, -0.6486443281173706, 0.4937553107738495, 0.08048183470964432, -0.12212289124727249, -0.0052041602320969105, 0.33750227093696594, -0.06780188530683517, -0.0036287906114012003, -0.22451645135879517, -0.5599214434623718, -0.04464277997612953, -0.06829798966646194, 0.260238915681839, 0.14105625450611115, -0.0022217032965272665, 0.17209364473819733, -0.246953085064888, 0.806481659412384, 0.05940217152237892, 0.024752290919423103, 0.009198136627674103, 0.4455527067184448, 0.03352498635649681, 0.0686570480465889, 0.014153198339045048, 0.08029700070619583, -0.04649706557393074, 0.04945402964949608, 0.18065832555294037, -0.049158427864313126, 0.08746398240327835, 0.008011057041585445, -0.2837636172771454, -0.005120758432894945, -0.06406932324171066, -0.01606898009777069, -0.16794238984584808, -0.06207072362303734, -0.004022505600005388, -0.1895284801721573, 0.09952322393655777, -0.04601920023560524, 0.2822608947753906, -0.012233912013471127, -0.0755501314997673, 0.08937395364046097, -0.10292943567037582, -0.01939968951046467, 0.11675414443016052, -0.05484986677765846, 0.07961959391832352, 0.1289929300546646, -0.09224677830934525, 0.01598680205643177, 0.03718843683600426, 0.06790988892316818, 0.10840355604887009, 0.4429578483104706, -1.2907315492630005, -0.1827562004327774, 2.0479350090026855, -0.2940694987773895, 1.0302937030792236, -0.47462812066078186, -0.006380800157785416, 0.6579218506813049, 0.3770332336425781, 0.26484939455986023, -0.4733581840991974, 0.10246872156858444, -0.07912873476743698, -0.46532246470451355, 1.0182125568389893, 0.017251087352633476, 0.025561748072504997, -0.4053163230419159, -0.3226325213909149, -0.10720368474721909, 0.017938656732439995, -0.39875951409339905, -0.35733917355537415, -0.03706153854727745, 0.11501406878232956, 0.21223114430904388, -0.12330785393714905, 0.12695811688899994, 0.09398538619279861, 0.31033989787101746, -0.11218536645174026, 0.0133237699046731, 0.012602568604052067, -0.4799204170703888, 0.9222986698150635, 0.08290653675794601, 0.12635459005832672, 0.32187703251838684, 0.5149856209754944, 0.07742507010698318, -0.18681226670742035, -0.655471682548523, 0.5115326642990112, 0.0036581752356141806, 0.030615657567977905, -0.06044960394501686, -0.08965707570314407, -0.0636143609881401, -0.027960987761616707, -0.11119746416807175, -0.5395700335502625, -0.07907574623823166, 0.06442809849977493, -0.20848989486694336, 0.14135386049747467, -0.13494490087032318, -0.04952118173241615, -0.09958600252866745, -0.20034219324588776, -0.10716306418180466, 0.16457130014896393, 0.04255535826086998, -0.023365600034594536, 0.0012953785480931401, 0.043002933263778687, -0.15693460404872894, 0.1608818769454956, -0.07783568650484085, 0.10913049429655075, 0.032197557389736176, -0.20742328464984894, -0.10026729851961136, -0.013291939161717892, 0.07083092629909515, 0.15626297891139984, 0.12140630930662155, -0.14369891583919525, -0.16717694699764252, 0.13282538950443268, -0.12056303769350052, -0.12317418307065964, 0.007993212901055813, -0.07073979824781418, 0.09900308400392532, 0.06038731709122658, 0.18390966951847076, -0.16243459284305573, 0.025361182168126106, 0.16861878335475922, -0.5446415543556213, -0.5964032411575317, 0.4996967315673828, -0.6811366677284241, -0.6805030703544617, -1.122483491897583, -1.0482162237167358, 1.4033889770507812, 0.6496495604515076, -0.7519569993019104, 0.13312366604804993, 0.3400849997997284, -0.10243714600801468, -0.038510292768478394, -0.006833349820226431, 0.4486269950866699, 0.0955338254570961, -0.027430221438407898, 0.11519216746091843, -0.7525734305381775, 0.05172354355454445, 0.047710154205560684, -0.023088810965418816, -0.5069507360458374, 0.34585151076316833, 0.06358509510755539, 0.03717857971787453, 0.11522193998098373, 0.22748945653438568, 0.10595165938138962, 0.021788807585835457, -0.43290042877197266, -0.8552027344703674, -0.07732696086168289, 0.13345147669315338, -0.5273447036743164, 0.28245094418525696, -0.15810967981815338, -0.0762365534901619, -0.16114284098148346, -0.7108450531959534, -0.02683562971651554, 0.23120473325252533, 0.19665241241455078, -0.6862011551856995, 0.16187594830989838, -0.042535100132226944, -0.01122237741947174, -0.7533072829246521, 0.10382545739412308, 0.011124037206172943, -0.14499713480472565, 0.47650161385536194, 0.11721300333738327, 0.019383354112505913, 0.5540763139724731, -0.11096223443746567, -0.14153943955898285, -0.020860446617007256, -0.010462119244039059, 0.04555594548583031, 0.10216844826936722, -0.01400898490101099, 0.0830615684390068, 0.033638808876276016, -0.036272671073675156, 0.004918490070849657, -0.24481035768985748, -0.11155954748392105, -0.039870735257864, 0.15135441720485687, -0.08309316635131836, 0.0757582038640976, 0.004042681772261858, -0.021594509482383728, 0.14564085006713867, -0.15442977845668793, 0.048620518296957016, -0.06973093003034592, -0.0167454332113266, -0.10825115442276001, 0.1230454370379448, 0.054645661264657974, -0.06134472414851189, -0.0478065051138401, -0.14922069013118744, 0.10980784893035889, -0.05777013674378395, 0.05829513445496559, 0.10353346914052963, 0.05933380499482155, -0.6416827440261841, -0.6561622619628906, -0.5436305403709412, -0.29371050000190735, 0.678257167339325, -0.6254738569259644, 0.412047415971756, -1.211451768875122, -0.44661858677864075, 0.8670441508293152, -0.3132321536540985, 0.11755385994911194, -0.28000208735466003, 0.056600574404001236, -0.07432205229997635, -0.22637271881103516, 0.5511689186096191, -0.13737080991268158, -0.11660600453615189, 0.3470565974712372, -0.466828852891922, -0.17409707605838776, 0.1883312463760376, -0.8166556358337402, -0.11139487475156784, 0.028639910742640495, 0.038251277059316635, 0.15192438662052155, -0.33052924275398254, -0.09171272069215775, 0.10115651041269302, -0.7283410429954529, -0.46242859959602356, 0.0043899682350456715, -0.04340178146958351, -0.45998141169548035, 0.8498764634132385, 0.10412324219942093, 0.20690204203128815, 0.3623788356781006, 0.3349626064300537, -0.07205582410097122, 0.02103695087134838, 0.7602536082267761, 0.4903455078601837, -0.07836955040693283, 0.062034670263528824, 0.5378862023353577, -0.25824761390686035, 0.0032934125047177076, -0.14073537290096283, -0.2778073251247406, 0.02920754812657833, 0.017021430656313896, 0.07466644048690796, 0.4667706787586212, 0.25810787081718445, -0.05430470034480095, -0.03179759159684181, 0.004858419764786959, -0.08997172862291336, 0.06754504889249802, -0.014314725063741207, -0.007942714728415012, 0.14674712717533112, 0.014683439396321774, -0.10993286222219467, -0.1225573942065239, 0.019483759999275208, 0.08139228820800781, 0.06849240511655807, -0.25693172216415405, 0.04017140716314316, 0.02075711078941822, 0.011990949511528015, 0.1690765619277954, -0.06261453777551651, -0.06987666338682175, 0.12323199957609177, -0.07389634102582932, 0.0017192232189700007, 0.08826172351837158, 0.01987922377884388, 0.056898292154073715, -0.0445789098739624, -0.16907070577144623, -0.13679516315460205, 0.00349218025803566, 0.03703856095671654, 0.043996039777994156, -0.03636643663048744, -0.49896714091300964, -0.4898511469364166, -0.037673600018024445, -0.4537445604801178, 0.11905249953269958, -0.05108422413468361, -1.5159462690353394, -1.0153417587280273, 0.11184242367744446, 0.8964396119117737, 0.39027711749076843, 0.8763331770896912, 0.8217659592628479, 0.029771624132990837, -0.029629496857523918, 0.22560493648052216, 0.4414081871509552, 0.16430102288722992, 0.0287857037037611, -0.8804299235343933, -0.6704275012016296, -0.16855476796627045, 0.05728166922926903, -0.4655117690563202, -0.26991748809814453, -0.08259253948926926, 0.08015459030866623, -0.11005520075559616, -0.3656652867794037, 0.16698767244815826, -0.11220847815275192, -0.03969082981348038, 0.520508885383606, -0.09619700908660889, 0.0004195243527647108, -0.5465024709701538, -0.3475034534931183, 0.028865722939372063, 0.03003370575606823, -0.16791190207004547, -0.5838965177536011, -0.16535340249538422, 0.07344358414411545, -0.5863334536552429, 0.16208066046237946, -0.007969521917402744, -0.06298179179430008, 0.1695185899734497, -1.1658228635787964, 0.14177049696445465, 0.0894041582942009, 0.17757998406887054, 0.559061586856842, -0.09151757508516312, -0.07862377911806107, -0.25909560918807983, -0.7229066491127014, 0.2345726490020752, -0.18529736995697021, -0.09775745123624802, -0.08154822140932083, 0.08367627114057541, -0.09604234248399734, -0.1625954955816269, -0.0626637414097786, -0.01624411530792713, 0.1501023769378662, 0.0912054255604744, -0.04368823394179344, -0.00925722811371088, 0.0754251554608345, 0.09807109087705612, -0.16517342627048492, 0.09576059132814407, 0.07741261273622513, 0.02610236406326294, -0.05258762463927269, 0.11905335634946823, 0.15617133677005768, 0.09835296869277954, 0.016326693817973137, -0.04363560676574707, 0.04918438568711281, 0.24288512766361237, 0.09591381996870041, 0.15633569657802582, -0.03825804963707924, -0.017379803583025932, 0.041644398123025894, 0.10925101488828659, 0.019206108525395393, -0.32275936007499695, -0.4099843502044678, -0.4166587293148041, -0.4098703861236572, 0.754909098148346, -0.8751586079597473, -0.4866448640823364, 0.04566633328795433, 0.3077165484428406, 0.9996106028556824, 0.23223835229873657, -0.3535253703594208, 0.1477673202753067, -0.07892513275146484, 0.11914419382810593, 0.73133784532547, 1.4607915878295898, -0.1690363734960556, -0.0053170244209468365, -0.8021659255027771, 0.07266546040773392, 0.03104635886847973, 0.19811545312404633, -0.6171349287033081, 0.19427816569805145, 0.015433340333402157, 0.007428228389471769, -0.27085164189338684, 0.34657421708106995, -0.014286861754953861, 0.060289859771728516, 0.029360661283135414, -0.27811917662620544, -0.0569988489151001, 0.07509446889162064, -0.7536982893943787, 0.6271780133247375, -0.07802944630384445, 0.04121032729744911, 0.19371671974658966, 0.6076880097389221, -0.1443634182214737, 0.10749994963407516, 0.3359346091747284, 0.29845812916755676, -0.09446543455123901, 0.08414728194475174, 1.021901249885559, 0.6903334259986877, -0.04229259118437767, 0.14407207071781158, -0.9528399109840393, -0.04839398339390755, 0.0007080980576574802, -0.010520369745790958, 0.12294665724039078, -0.25058868527412415, -0.0423693023622036, -0.03067329339683056, 0.26930904388427734, -0.10324593633413315, 0.12855170667171478, -0.12436021119356155, 0.041275475174188614, 0.019915087148547173, 0.04982811585068703, -0.007643886376172304, 0.07555042952299118, -0.13027097284793854, 0.0976376011967659, -0.014936654828488827, 0.048338111490011215, 0.28833919763565063, 0.017423316836357117, 0.03494948521256447, 0.1632223278284073, -0.03752749413251877, 0.07002877444028854, -0.16011522710323334, -0.025833765044808388, 0.1690516322851181, -0.04905524477362633, 0.1725611537694931, -0.10174822062253952, 0.03776543214917183, 0.08451391011476517, 0.020210755988955498, -0.029788168147206306, 0.1295539289712906, 0.005578469950705767, 0.10393866151571274, -0.45355895161628723, -0.17245222628116608, -0.7724582552909851, -0.40345367789268494, 0.7560600638389587, -0.12117349356412888, 0.4070660173892975, -0.1968921422958374, -0.6201392412185669, 0.2388613075017929, 0.08635599166154861, 0.3804030120372772, -0.16050507128238678, 0.034088198095560074, 0.16024495661258698, -0.06431936472654343, 0.3732524812221527, 0.0664835050702095, 0.00799547042697668, -1.1682928800582886, -0.47694793343544006, 0.07943426817655563, 0.08968966454267502, -0.4858546257019043, 0.3410966694355011, 0.06553124636411667, -0.048547353595495224, 0.7206282019615173, 0.5812029242515564, -0.010935350321233273, 0.0027951335068792105, 0.12848888337612152, 0.03134563937783241, 0.0018443259177729487, -0.2767431437969208, -0.35089966654777527, 0.3956741988658905, 0.02196374349296093, 0.04027703031897545, 0.47024309635162354, 0.9183492660522461, 0.005751143675297499, -0.06848417967557907, -0.34841910004615784, 0.11945319175720215, 0.1457158476114273, 0.0488511361181736, -0.24188373982906342, 0.6989734768867493, -0.13116014003753662, -0.08383785933256149, -0.5154861807823181, 0.7389014363288879, 0.042251020669937134, 0.03255227208137512, -0.2564815878868103, -0.010136128403246403, -0.007353015709668398, -0.20101173222064972, 0.06894171983003616, -0.056694742292165756, 0.017183586955070496, 0.25392886996269226, 0.042458709329366684, 0.04764756187796593, 0.13149453699588776, 0.06369269639253616, 0.14484211802482605, -0.16569508612155914, 0.03415149077773094, -0.16391898691654205, -0.0892249271273613, -0.10385902971029282, -0.13107287883758545, -0.042612459510564804, 0.0008213436231017113, 0.19653378427028656, -0.07630176097154617, -0.04671868309378624, -0.030769197270274162, 0.0004698009870480746, -0.18668358027935028, 0.0390431247651577, -0.01235553901642561, -0.034065116196870804, 0.007075012195855379, -0.05685609206557274, 0.025412438437342644, -0.06610220670700073, -0.1414691060781479, -0.06284022331237793, -0.5407658815383911, -0.40033718943595886, -0.5923362970352173, -0.30727317929267883, 0.9971463680267334, -1.1965010166168213, 0.27713558077812195, 0.17246925830841064, -0.3165343105792999, -0.5008708834648132, 0.6595922708511353, 0.14361360669136047, -0.40382054448127747, -0.03248482570052147, 0.053558822721242905, -1.0735788345336914, -0.44070562720298767, -9.959714225260541e-05, -0.08681868761777878, 0.6246136426925659, 0.5549240708351135, 0.12671734392642975, -0.024289162829518318, -0.4496789276599884, 0.8837147355079651, 0.057551149278879166, 0.10783100873231888, 0.5053609609603882, 0.7232356667518616, 0.04001602903008461, 0.07543105632066727, 0.8801775574684143, -0.9290536046028137, -0.02924594096839428, 0.15994931757450104, -0.1377899944782257, -0.6178016662597656, 0.0028931573033332825, 0.051965147256851196, 0.7774327397346497, -0.15014305710792542, 0.024594007059931755, -0.011681373231112957, -1.400131106376648, 0.536311149597168, -0.2110907882452011, 0.06897812336683273, -0.39368072152137756, 0.3083220422267914, 0.06002914533019066, 0.29469868540763855, 0.393052339553833, 0.8790575861930847, -0.06751071661710739, 0.003717307234182954, -0.7262834906578064, 0.2060367912054062, 0.08056246489286423, -0.17128418385982513, -0.14182375371456146, 0.01708786003291607, 0.05317084118723869, 0.1786796897649765, 0.1890975385904312, -0.06290119141340256, 0.12414764612913132, -0.05673283338546753, -0.1937612146139145, 0.32152077555656433, 0.016803307458758354, 0.13374577462673187, -0.04804030433297157, -0.0072958748787641525, -0.18771599233150482, -0.020638125017285347, -0.19152431190013885, -0.08203203231096268, -0.10803829878568649, -0.00988579448312521, -0.09361430257558823, 0.013203729875385761, -0.0426953099668026, 0.029763339087367058, 0.11374593526124954, -0.3339545726776123, 0.04386305809020996, 0.07107079774141312, -0.04871642217040062, 0.07326417416334152, 0.03696081042289734, 0.034033145755529404, -0.3298356831073761, -0.2117161601781845, 0.21223972737789154, -0.04717632755637169, 0.4374038279056549, -0.18038247525691986, 1.0941716432571411, -0.09003616124391556, -0.13279427587985992, 0.2752898037433624, 0.7736117243766785, -0.1329917013645172, -0.4738122522830963, -0.05153181031346321, -0.07660459727048874, -0.3318054974079132, 1.206945538520813, 0.06316208094358444, -0.07017987221479416, -0.136301651597023, 0.874492347240448, -0.09237097948789597, 0.14676333963871002, -0.5844829678535461, -0.7979956269264221, 0.004377502482384443, 0.02644619159400463, 1.1158603429794312, 0.447563499212265, -0.10039293020963669, -0.09961050003767014, 0.4515056312084198, 1.0696384906768799, -0.14162693917751312, 0.02358326129615307, -0.24003289639949799, -0.14920954406261444, -0.11915696412324905, 0.046366747468709946, 0.17484141886234283, 0.4145328104496002, 0.03991958498954773, -0.02523786760866642, -0.18552397191524506, -1.015174150466919, -0.038376059383153915, -0.21802090108394623, 0.6166054010391235, 0.3680751323699951, 0.27338191866874695, 0.20439814031124115, 0.20700909197330475, 0.21448613703250885, 0.101634182035923, -0.0799633264541626, -0.5006161332130432, 0.074099600315094, -0.07316052168607712, 0.3188032805919647, -0.048505816608667374, 0.17384374141693115, 0.21637488901615143, 0.055318061262369156, -0.026075271889567375, -0.16251002252101898, -0.03621584549546242, 0.016195641830563545, 0.179628387093544, -0.20898772776126862, 0.007870233617722988, -0.17577387392520905, 0.023439129814505577, 0.18342529237270355, -0.0877118706703186, 0.09041284769773483, -0.1681961864233017, 0.2373015135526657, 0.024704964831471443, 0.0946599617600441, -0.14234758913516998, 0.14827658236026764, -0.12205363065004349, 0.012872055172920227, -0.13587942719459534, -0.2866622805595398, 0.09590519219636917, 0.25480917096138, -0.04271220788359642, -0.05015482380986214, 0.1412399858236313, 0.1760701984167099, -0.3355848789215088, -0.31169456243515015, 0.5900520086288452, -0.6037091016769409, -0.7284052968025208, -0.33257344365119934, -1.2765179872512817, 0.05496722832322121, -0.17678622901439667, 0.07284726947546005, 0.44191882014274597, -0.7095943093299866, -0.43423840403556824, -0.05520438775420189, 0.08513761311769485, 0.31360766291618347, 0.2773185670375824, -0.04213178530335426, 0.09220438450574875, 0.619381844997406, -0.2891223132610321, -0.08594263345003128, 0.1434265524148941, -0.17364631593227386, 0.48127511143684387, -0.09730357676744461, 0.05162521079182625, -0.20478011667728424, 0.7446041703224182, -0.13209950923919678, -0.008092680014669895, -0.637270450592041, 0.39479875564575195, -0.03194436803460121, 0.08474140614271164, -0.38239333033561707, 0.02244437299668789, 0.10812555998563766, 0.05937778577208519, -0.3722515404224396, -0.6095232963562012, -0.06743574887514114, -0.2058052271604538, -0.014076237566769123, -0.36821040511131287, 0.14378751814365387, 0.01600066013634205, 0.40948519110679626, -0.2850951552391052, -0.09515810757875443, 0.02833854965865612, -0.19031034409999847, -1.2695817947387695, -0.039936456829309464, -0.016497818753123283, 0.23157621920108795, -0.22313572466373444, 0.049358759075403214, -0.21388490498065948, 0.1192619800567627, -0.006431365851312876, -0.009454390965402126, -0.020440056920051575, 0.09772061556577682, -0.05849588289856911, -0.13287664949893951, 0.12356852740049362, 0.12491551786661148, -0.11542738229036331, -0.05294710025191307, 0.1284710019826889, -0.13003049790859222, -0.02506604976952076, 0.06138688698410988, -0.1822756975889206, 0.1461656242609024, 0.014851678162813187, 0.0884351059794426, -0.07903672009706497, -0.004790227394551039, 0.09881747514009476, -0.04154947027564049, -0.05312633886933327, -0.2090151309967041, -0.07570023089647293, 0.1032182052731514, -0.011595903895795345, 0.041536662727594376, 0.09830716997385025, 0.12410534173250198, -0.22163034975528717, -0.35972973704338074, -0.9316889643669128, 0.37507370114326477, -0.7619510293006897, -1.1533939838409424, -1.7394906282424927, -0.2606935203075409, 0.052756160497665405, -0.7205114364624023, -0.11101678758859634, -0.38468626141548157, 0.5398468971252441, 0.28838929533958435, 0.2503909766674042, -0.23625420033931732, -0.5341764092445374, -0.47618231177330017, -0.048575010150671005, 0.06561815738677979, -0.1910647600889206, 0.4979548156261444, 0.033235494047403336, -0.12301374226808548, -0.21378491818904877, -0.10806290060281754, -0.06837005168199539, 0.022848250344395638, 0.381781667470932, -1.030680537223816, -0.06276588886976242, -0.2983853816986084, 0.40070822834968567, -0.6378527283668518, 0.0950927808880806, 0.008427694439888, 0.011993558146059513, 0.6648769974708557, -0.11967825144529343, -0.07966471463441849, 0.2624698281288147, -0.5590439438819885, 0.11114215105772018, 0.10525988787412643, 0.46228405833244324, -0.16420172154903412, -0.0064342389814555645, -0.0403098426759243, -0.3830873966217041, -0.4395104944705963, -0.09822356700897217, -0.009877189062535763, 0.8180103302001953, 1.8362001180648804, 0.023366006091237068, -0.049054596573114395, 0.22112977504730225, 0.020215777680277824, 0.11418067663908005, -0.08745444566011429, 0.06484740972518921, -0.04440993443131447, 0.20124317705631256, 0.08671968430280685, 0.018557174131274223, 0.1312382072210312, 0.041132424026727676, 0.1504964977502823, 0.026045426726341248, -0.020703870803117752, 0.09197831898927689, 0.22753594815731049, 0.11650072783231735, -0.10595639795064926, -0.16238214075565338, -0.1684856414794922, 0.14707638323307037, 0.15361179411411285, 0.14749406278133392, 0.00897106435149908, 0.06324870139360428, -0.03748675808310509, -0.06165838614106178, 0.03253158554434776, 0.08725888282060623, -0.08126122504472733, 0.10470127314329147, -0.13683821260929108, 0.15406955778598785, 0.12086092680692673, 0.03005504421889782, 0.045355912297964096, -0.4678255617618561, -0.20735137164592743, -0.45206117630004883, -0.19915835559368134, 0.8761704564094543, -0.5954469442367554, 1.2504154443740845, 0.546714186668396, 0.5498331785202026, -0.9918985366821289, -0.13709746301174164, 0.8166694045066833, -0.25725793838500977, -0.089096300303936, 0.1049070730805397, 0.014109467156231403, -0.18294580280780792, 0.13161420822143555, 0.10782340914011002, 0.3768453896045685, 0.15221931040287018, -0.0008423793478868902, -0.049581024795770645, -0.8636999726295471, -0.8028964400291443, 0.0723024532198906, 0.09287179261445999, -0.45037034153938293, -0.17576096951961517, 0.02833920530974865, 0.014671743847429752, -0.21955108642578125, 0.08797138184309006, 0.3334079086780548, -0.07933639734983444, -0.48966506123542786, 0.0006078915321268141, -0.0682746097445488, 0.16545069217681885, 0.3383341133594513, 0.46218931674957275, -0.043662454932928085, -0.04510003700852394, -0.6184476613998413, -0.22315789759159088, -0.1320282369852066, -0.0007934178574942052, -0.37022748589515686, -1.0133360624313354, -0.1658148616552353, 0.11865437775850296, -0.30981868505477905, 0.2022242695093155, 0.012397444806993008, -0.060675498098134995, 0.15788663923740387, -1.036008596420288, 0.0663074180483818, -0.11495662480592728, 0.11456669121980667, 0.10435966402292252, -0.04036193713545799, -0.09496551007032394, -0.044126927852630615, 0.07943164557218552, -0.024180054664611816, -0.025238802656531334, -0.02322652004659176, 0.2006985992193222, -0.0817311480641365, 0.02278938703238964, -0.06971840560436249, -0.03649556636810303, -0.061646346002817154, 0.05400226637721062, -0.17534101009368896, -0.20071101188659668, 0.03405169025063515, 0.24650715291500092, 0.09245437383651733, 0.1267695277929306, 0.19909025728702545, -0.10720682889223099, 0.018093153834342957, -0.1610356569290161, 0.17397548258304596, -0.146851047873497, 0.08482743054628372, 0.0572284460067749, 0.050525788217782974, 0.14395783841609955, -0.13450683653354645, -0.5007709264755249, -0.28106164932250977, -0.6914390921592712, 0.881166934967041, 0.21027611196041107, 0.34953567385673523, 0.30792853236198425, -0.35779711604118347, -0.25854426622390747, 0.5941342711448669, -0.5690768957138062, -0.5829414129257202, -0.03485563024878502, 0.14557494223117828, 0.4631153345108032, 0.43445447087287903, 0.02632713131606579, -0.010572166182100773, -0.3593284785747528, 0.2921106517314911, -0.048427168279886246, 0.03258198872208595, -0.15747138857841492, -0.24250906705856323, 0.001334129017777741, 0.02756032533943653, 0.40192970633506775, -0.14185543358325958, -0.024114428088068962, -0.1004636362195015, -1.0168453454971313, 0.06297475844621658, -0.007507071364670992, 0.022970983758568764, -0.2672368884086609, -0.1647249460220337, -0.0034432969987392426, 0.24030660092830658, -0.6396335363388062, 1.0063773393630981, 0.07804679125547409, -0.10957115888595581, -0.15363797545433044, 0.8216260075569153, -0.06813163310289383, 0.08467482775449753, 0.7137927412986755, -0.2521422207355499, 0.1276250034570694, -0.15265081822872162, 0.04141315445303917, 0.47683238983154297, 0.1276472955942154, -0.18289469182491302, 0.5489945411682129, 0.39252761006355286, 0.18637968599796295, 0.0964127704501152, -0.025679677724838257, -0.0339713953435421, -0.12276481837034225, 0.08313321322202682, 0.06779277324676514, 0.02519945241510868, 0.019860461354255676, -0.0924220159649849, 0.05486563965678215, 0.19141662120819092, 0.062435511499643326, -0.0492652989923954, -0.08595777302980423, 0.07329630106687546, -0.1513277143239975, 0.05792814865708351, -0.04815104231238365, 0.21155951917171478, -0.08143103867769241, 0.06574761122465134, 0.041242633014917374, 0.193184494972229, -0.043765123933553696, -0.022639738395810127, 0.09443660825490952, -0.0793042704463005, -0.07383991032838821, -0.08749670535326004, 0.08064775913953781, 0.04342987760901451, 0.005484871566295624, 0.02452119253575802, -0.5352440476417542, -0.35704514384269714, -1.0840471982955933, -0.38727042078971863, 0.6610197424888611, -1.6962891817092896, -0.02416236884891987, -0.6216916441917419, -0.029287246987223625, 0.14235587418079376, 0.9506585001945496, -0.5499268174171448, -0.8917840123176575, 0.02925744839012623, 0.03465044125914574, 0.1115892231464386, -0.8811445832252502, 0.07033521682024002, -0.09210372716188431, -0.3958906829357147, -0.5930946469306946, -0.09424955397844315, 0.029398052021861076, -0.43626323342323303, -0.37445834279060364, 0.15072844922542572, 0.009312705136835575, -0.06845348328351974, -0.10546215623617172, 0.03281698003411293, -0.009188971482217312, -0.25759366154670715, -0.4471103250980377, 0.0739871934056282, 0.18645308911800385, -0.7369422316551208, -0.5629486441612244, 0.026972314342856407, 0.019821597263216972, 0.1858028620481491, -0.439907044172287, -0.023730816319584846, -0.07757186144590378, 0.29380112886428833, -0.2526831328868866, 0.014957680366933346, -0.016536802053451538, 0.5180415511131287, 0.41574904322624207, -0.13570009171962738, -0.24420712888240814, -1.0469707250595093, -0.2553175985813141, -0.03558235988020897, 0.07360636442899704, 0.2849600911140442, 0.4045290946960449, 0.17566154897212982, 0.037897881120443344, 0.02981516532599926, 0.08866328746080399, -0.03288894519209862, 0.10392235964536667, 0.022924868389964104, 0.07132017612457275, -0.10217379778623581, 0.09951496869325638, 0.06365357339382172, -0.16309581696987152, 0.03890382871031761, 0.004564590286463499, 0.06771255284547806, -0.20469601452350616, 0.07213198393583298, 0.04406503215432167, 0.3152501881122589, 0.3248631954193115, -0.01773679070174694, -0.023057686164975166, -0.026201454922556877, 0.01016832236200571, 0.05355523154139519, 0.22310352325439453, 0.010578104294836521, 0.010966919362545013, 0.13324381411075592, -0.1250770092010498, 0.17197619378566742, 0.031513337045907974, 0.06615786999464035, 0.10426915436983109, -0.3431551456451416, -0.27777713537216187, 0.668888509273529, -0.5828753709793091, -1.4603468179702759, -0.08870583027601242, -2.044829845428467, -0.5574607253074646, -0.2219846099615097, 0.371791273355484, -0.1923975944519043, 0.2420942187309265, -0.6660394072532654, -0.03576204553246498, 0.08933799713850021, 0.5197662711143494, -0.23282146453857422, 0.0652875229716301, 0.049885448068380356, 0.7689856886863708, -0.3868994414806366, 0.19962002336978912, 0.04274464026093483, -0.4540081024169922, -0.0012924186885356903, 0.19592247903347015, 0.06974291056394577, 0.026321856305003166, -0.057756826281547546, -0.05383836850523949, -0.0735994502902031, -0.03883179649710655, 0.2782077193260193, -0.14277209341526031, 0.1775578409433365, -0.3727875053882599, -0.3065737783908844, 0.12811292707920074, -0.25578734278678894, 0.48003578186035156, -0.09670510143041611, -0.038795050233602524, -0.2691197097301483, 0.6155634522438049, 0.47639986872673035, 0.11577450484037399, -0.06077199801802635, -0.4562252461910248, 0.34119370579719543, 0.06969380378723145, 0.005828395020216703, 0.6343516111373901, 0.5237451195716858, 0.08347047120332718, 0.09086810797452927, -0.02705123834311962, 0.8692744374275208, 0.23152853548526764, 0.03928050026297569, -0.02465866319835186, 0.17437364161014557, -0.0021826960146427155, -0.05450427159667015, 0.10335301607847214, -0.12060689181089401, -0.01408225204795599, 0.06933891028165817, -0.16606493294239044, -0.022967787459492683, 0.002452457556501031, 0.12896014750003815, 0.026085665449500084, -0.06574845314025879, 0.041880544275045395, 0.07871115952730179, -0.16385485231876373, 0.12903739511966705, -0.12657640874385834, 0.025433173403143883, -0.026071729138493538, -0.07875312119722366, 0.13344527781009674, 0.1421460062265396, -0.05941160395741463, -0.1183793917298317, 0.05764627829194069, -0.04758870229125023, 0.17822836339473724, -0.11913561820983887, 0.05599653348326683, 0.08919484168291092, -0.4422588050365448, -0.6433125734329224, 0.6863754391670227, -0.5324648022651672, -0.607134222984314, -1.7362347841262817, -0.6482247114181519, -0.2213010936975479, -0.242307648062706, -0.38816002011299133, 0.467903733253479, -0.13368366658687592, -0.13636735081672668, 0.043473366647958755, -0.06721346825361252, -0.1462714672088623, 0.8647785782814026, 0.0033892940264195204, 0.1108386442065239, 0.17703790962696075, 0.532902717590332, 0.03585213050246239, -0.22792457044124603, -0.572328507900238, -0.25819629430770874, -0.1507568508386612, 0.047612667083740234, -0.48141732811927795, 0.35595059394836426, -0.09512209892272949, 0.14273642003536224, 0.482568621635437, 0.27153244614601135, -0.06260795146226883, 0.10481008142232895, -0.4317382276058197, 0.6297927498817444, -0.16961060464382172, 0.03168633580207825, 0.3313567638397217, 0.44348764419555664, -0.07641338557004929, -0.05549329146742821, -0.23231561481952667, -0.046223241835832596, 0.08343976736068726, 0.1273956447839737, 0.5931356549263, 1.0677109956741333, -0.07188291102647781, -0.017541350796818733, -0.34407272934913635, -0.058519843965768814, -0.01749691553413868, -0.06623513251543045, 0.7281951308250427, 0.17408229410648346, -0.11311996728181839, 0.0416761077940464, 0.029263673350214958, -0.06388335675001144, -0.0044746543280780315, 0.039633337408304214, -0.08309745788574219, 0.05803453549742699, 0.10838083177804947, -0.08124459534883499, -0.10475350171327591, -0.005124285351485014, 0.07332467287778854, -0.06795526295900345, 0.13050317764282227, 0.17197443544864655, -0.10476521402597427, 0.15602029860019684, 0.007811558898538351, 0.055379897356033325, 0.1558278650045395, 0.02977663464844227, 0.16399072110652924, 0.08386189490556717, 0.020612044259905815, 0.1673804372549057, 0.15798963606357574, -0.010722142644226551, 0.05785441771149635, 0.04798702523112297, 0.019346149638295174, -0.1473444551229477, -0.08427368849515915, -0.1387930065393448, -0.6061009764671326, -0.39253953099250793, -0.15711192786693573, -0.5102344751358032, 0.057211920619010925, -0.929288923740387, 0.08498656749725342, 0.462272971868515, -0.8837718963623047, -0.0408158004283905, 0.25150948762893677, -0.19412146508693695, 0.17439521849155426, 0.02289530821144581, 0.10455333441495895, 0.4610948860645294, -0.24782125651836395, -0.12287689000368118, 0.08151751011610031, -0.2313539832830429, 1.0362855195999146, -0.024470744654536247, -0.025668034330010414, -0.5476384162902832, 0.22182227671146393, -0.13700102269649506, -0.07347852736711502, -1.0190651416778564, -0.15058521926403046, -0.10388016700744629, 0.01647154800593853, -0.7827946543693542, -0.6419782042503357, -0.03085234947502613, -0.08693455904722214, -1.2722808122634888, -0.45965054631233215, -0.10448388010263443, 0.17311178147792816, -0.5676694512367249, -0.18637384474277496, -0.014669566415250301, -0.03466230258345604, 0.43317437171936035, 0.3488979637622833, 0.07674854248762131, 0.1258111149072647, 0.09144114702939987, -1.5248905420303345, -0.019818244501948357, -0.004276714753359556, 0.12740303575992584, -0.1708073765039444, -0.004447270650416613, 0.13101933896541595, 0.7191703915596008, 0.7035870552062988, 0.05202299728989601, 0.261658638715744, -0.025478443130850792, 0.02767881751060486, -0.18850110471248627, 0.12125789374113083, -0.19198139011859894, 0.07703889161348343, 0.15245674550533295, 0.22948838770389557, -0.1705850511789322, 0.08335035294294357, -0.1615249067544937, -0.00368934846483171, -0.2153460830450058, 0.011898495256900787, 0.07162671536207199, -0.09887493401765823, 0.08999539166688919, -0.3809737265110016, -0.012755722738802433, 0.08544886857271194, -0.1207900121808052, -0.14236368238925934, 0.14079846441745758, -0.06212431564927101, 0.1275896579027176, 0.20591938495635986, -0.03348517790436745, 0.12593530118465424, 0.06877397745847702, -0.10176845639944077, -0.06075739488005638, -0.10719192773103714, -0.6895552277565002, -0.5072537660598755, -0.35255101323127747, -0.37501952052116394, 0.42205509543418884, -0.4272976219654083, 0.35352110862731934, -1.0880204439163208, 0.5318436622619629, 0.27866578102111816, -0.05756456032395363, -0.05100921913981438, -1.024935007095337, -0.07916759699583054, 0.18021346628665924, -0.43781590461730957, -0.6388009786605835, 0.1847863346338272, 0.035974714905023575, 0.19551639258861542, -0.05753721296787262, 0.11280561238527298, 0.020817024633288383, -0.5081497430801392, -0.3583390712738037, -0.027797279879450798, -0.015445648692548275, 0.7326488494873047, 1.1733109951019287, 0.18175791203975677, 0.1079154834151268, 0.38158702850341797, 0.6296276450157166, -0.12624822556972504, -0.07439875602722168, -0.14868487417697906, -0.910702645778656, -0.14142335951328278, -0.01519011054188013, -0.04963773861527443, -0.13275066018104553, -0.014167682267725468, -0.12246561795473099, -0.6431627869606018, -0.37955448031425476, 0.08422673493623734, 0.274809867143631, 0.16287195682525635, 1.039021611213684, -0.09236066788434982, -0.11552918702363968, 0.04469477757811546, -0.033590249717235565, 0.12900005280971527, -0.043350253254175186, 0.003009542590007186, -0.6895480155944824, 0.005359590519219637, 0.0796828344464302, -0.006848219782114029, 0.027584174647927284, 0.02973109669983387, 0.0439455546438694, 0.14888954162597656, 0.014598832465708256, 0.023644955828785896, 0.20974509418010712, -0.05997468903660774, -0.0414406917989254, 0.07054150849580765, -0.07129926234483719, 0.01721947081387043, -0.09554565697908401, -0.03229737654328346, -0.09251343458890915, -0.06510350853204727, -0.293430358171463, 0.06107628718018532, 0.06893254071474075, 0.055360790342092514, -0.07473479956388474, 0.0056764823384583, 0.10030797868967056, -0.024829568341374397, 0.022886568680405617, 0.05457218363881111, -0.01766716130077839, -0.16930414736270905, -0.052440840750932693, 0.014177725650370121, -0.010549402795732021, -0.3388359844684601, -0.18237163126468658, -0.5693889260292053, -0.2648105323314667, 0.8716726303100586, -0.6841722130775452, 1.5844157934188843, 0.21366365253925323, -0.5816532373428345, -0.31660863757133484, 0.10581255704164505, 0.3934909403324127, 0.39338746666908264, 0.2840001881122589, -0.057778239250183105, -0.18443214893341064, -1.1881587505340576, 0.1320200115442276, 0.09789079427719116, -0.7620725035667419, 0.10988975316286087, 0.05277416110038757, -0.08560710400342941, -0.6327754855155945, 0.5752946138381958, -0.027266057208180428, -0.0828639343380928, 0.6069883108139038, 1.1377381086349487, 0.12484525889158249, -0.03622424229979515, -0.18007706105709076, -0.004809915088117123, 0.036440785974264145, 0.08538740873336792, -0.6022458672523499, -0.38913777470588684, 0.04555201902985573, -0.05434548854827881, -0.3055441081523895, 0.21622450649738312, -0.028948547318577766, -0.044357750564813614, 0.14154265820980072, 0.3201248049736023, 0.03740603104233742, -0.06393551826477051, 0.27340933680534363, -1.2405365705490112, 0.10298358649015427, -0.07392258197069168, -0.04408782348036766, -0.8862654566764832, 0.07249975204467773, -0.1863023042678833, 0.5174694657325745, 0.5225401520729065, -0.31656602025032043, -0.059924546629190445, 0.1054534837603569, 0.1421748548746109, -0.04984366521239281, 0.042403701692819595, 0.00422046659514308, -0.15817131102085114, -0.0030605997890233994, 0.13981591165065765, -0.34509536623954773, -0.038890060037374496, 0.018095212057232857, 0.1422441154718399, -0.04421064257621765, 0.18208636343479156, 0.11678756028413773, -0.19890405237674713, 0.22720567882061005, -0.1684185266494751, 0.11064635962247849, 0.07872676104307175, -0.1607748419046402, 0.11815714091062546, -0.028251556679606438, -0.01216448750346899, 0.2002842277288437, 0.009696372784674168, -0.2503006160259247, 0.05244658514857292, -0.03657349571585655, 0.06975127011537552, -0.06110632047057152, -0.030147580429911613, -0.05065411701798439, -0.19719479978084564, 0.02127423696219921, -0.37986794114112854, -0.22139118611812592, -0.19857122004032135, -0.4201188385486603, -0.03647253289818764, 0.395836740732193, 0.19748294353485107, -0.7224841713905334, 0.3786297142505646, 0.4196729362010956, 0.050597187131643295, -0.0033008356112986803, 0.032715704292058945, -0.25020310282707214, -0.04913092032074928, -0.2052648812532425, 0.0810193419456482, -0.24532103538513184, 0.1204834058880806, 0.030638454481959343, -0.47715237736701965, -0.7005004286766052, -0.02489415742456913, 0.06540273874998093, 1.0193854570388794, -0.22295401990413666, 0.24661467969417572, 0.027276376262307167, 0.6591089963912964, 0.526952862739563, 0.1110619381070137, -0.023418409749865532, -0.06033938750624657, -0.1504257172346115, 0.06946790963411331, 0.09568964689970016, 0.7966337203979492, -1.183880090713501, 0.05423182621598244, -0.08966737240552902, -1.0884743928909302, -0.3109363615512848, 0.06303954869508743, -0.004277214873582125, -0.450992614030838, 0.38978955149650574, -0.13788475096225739, 0.13105355203151703, -0.7592896819114685, -0.08069265633821487, -0.060318831354379654, -0.10877691954374313, -0.6802110075950623, -0.8199679255485535, 0.1597694307565689, 0.15435992181301117, -0.0502171516418457, 0.1121532991528511, 0.04037543758749962, -0.013319955207407475, -0.1288069635629654, -0.09410203248262405, 0.12339198589324951, 0.10500677675008774, -0.17512713372707367, -0.12452065944671631, 0.0016916543245315552, 0.08836037665605545, -0.026580914855003357, -0.2505626976490021, 0.11159098893404007, -0.051465097814798355, -0.41963163018226624, 0.21438606083393097, -0.08792024105787277, 0.006754683796316385, -0.08160687237977982, 0.07176435738801956, 0.05219584330916405, -0.01694043166935444, 0.11845425516366959, -0.010982015170156956, -0.006671130191534758, 0.04379069432616234, -0.08132810145616531, -0.08368701487779617, 0.07383490353822708, -0.02265465073287487, -0.5151739716529846, -0.4155609607696533, 0.1078077182173729, -0.3609757423400879, 0.15551616251468658, -1.5240336656570435, 0.2771465480327606, 0.22776176035404205, -0.3647885024547577, -0.7654467225074768, -0.5860646963119507, -0.01860693283379078, -0.14264020323753357, -0.04319476708769798, -0.15922047197818756, 0.2108706682920456, -0.7442482113838196, -0.0823785588145256, 0.031197132542729378, 0.4058501720428467, -0.4945472478866577, 0.07130897045135498, -0.024817703291773796, -0.6345490217208862, -0.5061841607093811, -0.08443146198987961, -0.09283392876386642, 0.017354996874928474, -0.5690122246742249, -0.0010712648509070277, -0.03157883509993553, 0.2946820855140686, -1.2721588611602783, -0.03686779737472534, 0.010743462480604649, -0.5530551671981812, 0.44967639446258545, -0.025143412873148918, 0.081328384578228, -0.33408764004707336, 0.4242663085460663, 0.17515753209590912, -0.0028707568999379873, 0.038539644330739975, -0.41583773493766785, 0.2193567007780075, -0.17603160440921783, 0.7633095383644104, -0.0040467167273163795, 0.0892750546336174, 0.050974901765584946, -0.17080532014369965, -0.8623068928718567, -0.02578902058303356, -0.07700646668672562, 0.3179696202278137, -0.3093983829021454, 0.1605677455663681, -0.008867024444043636, -0.000957912823650986, 0.017131151631474495, -0.22452689707279205, -0.07844353467226028, -0.05969030037522316, -0.14900802075862885, 0.005875181872397661, -0.019517764449119568, 0.3736793100833893, 0.12924550473690033, 0.04392829164862633, -0.07214171439409256, -0.0666155144572258, -0.07888127863407135, -0.1394376903772354, 0.017513824626803398, 0.05278009548783302, -0.002777563175186515, 0.038394663482904434, 0.06233679875731468, -0.015731679275631905, 0.09255731105804443, -0.04333389177918434, -0.01647104136645794, 0.03959781304001808, 0.055035416036844254, 0.04840218648314476, 0.12541399896144867, -0.14735232293605804, -0.10923267155885696, -0.03736812248826027, -0.18468548357486725, -0.5267466902732849, -0.6341443657875061, 0.527455747127533, -0.7134494185447693, -0.8949066996574402, -0.7782014012336731, -1.0177499055862427, 0.23573429882526398, 0.15359388291835785, -0.665584146976471, -0.48548558354377747, -0.09833725541830063, 0.0580446682870388, -0.013416563160717487, 0.01898312382400036, 0.5525790452957153, 1.0000866651535034, -0.2002079337835312, -0.22475861012935638, -0.691196858882904, -0.6561307311058044, 0.12253154069185257, 0.020084349438548088, -0.7270083427429199, -0.717459499835968, -0.04640892520546913, -0.10297263413667679, -1.0862749814987183, -0.6850194334983826, 0.09242164343595505, 0.007696316111832857, 0.2834303677082062, 0.25267019867897034, 0.10018793493509293, -0.14882276952266693, -0.6764506697654724, 0.49033626914024353, 0.017353294417262077, 0.14472626149654388, -0.49581286311149597, -0.38318538665771484, -0.0922861099243164, -0.02135409228503704, -0.10189660638570786, -0.17097164690494537, 0.0179643202573061, -0.1607220321893692, 0.5757043957710266, -0.01633695885539055, -0.1302405744791031, -0.04471570625901222, -0.8958559632301331, -0.9539772868156433, 0.20844008028507233, -0.11801517754793167, 0.5799241065979004, 0.06291501224040985, 0.061268266290426254, -0.15614081919193268, 0.025280961766839027, 0.085907943546772, -0.02372351475059986, 0.025301188230514526, -0.02235439233481884, 0.052446264773607254, -0.18049179017543793, 0.07303225994110107, -0.058613166213035583, -0.057165857404470444, -0.03778206929564476, -0.14387869834899902, 0.07769863307476044, 0.10949605703353882, 0.056390222162008286, 0.2078092247247696, 0.45141884684562683, -0.3142009377479553, 0.07128328830003738, 0.31484630703926086, -0.15304350852966309, 0.2489595264196396, 0.0069589014165103436, 0.08425480872392654, 0.08524107187986374, 0.12487074732780457, -0.14111687242984772, -0.0733463242650032, 0.12286413460969925, -0.06425691395998001, 0.12033510953187943, 0.06098806485533714, -0.4631587266921997, -0.5031174421310425, -0.25307825207710266, -0.36905208230018616, 0.07553238421678543, 0.23200899362564087, 0.05440914258360863, -0.3107427954673767, 0.1101074144244194, 0.16789601743221283, -0.697697103023529, -0.22604559361934662, -0.24801701307296753, -0.17388296127319336, 0.013724193908274174, -0.3689124286174774, -1.0303620100021362, -0.09114284068346024, 0.07840918749570847, 0.5390971899032593, -1.4462919235229492, -0.1492917686700821, 0.0885302945971489, -0.2709619700908661, 0.33481743931770325, 0.028162213042378426, 0.22407864034175873, -0.10320388525724411, -0.9024943709373474, 0.07389294356107712, 0.022992195561528206, -0.13854339718818665, -0.5271602869033813, 0.03569262847304344, 0.09199195355176926, -0.562795102596283, -0.023608291521668434, -0.17917585372924805, 0.02496039681136608, -0.295271635055542, 0.1479581594467163, 0.061532143503427505, 0.1111595556139946, 0.343718558549881, -0.7546120285987854, -0.048739586025476456, -0.0032108400482684374, 0.11908269673585892, 0.05581163987517357, -0.04698833450675011, -0.11588739603757858, -0.14803661406040192, -0.7927227020263672, 0.091446153819561, -0.1938430517911911, 0.09588605910539627, 0.2699625790119171, -0.12126005440950394, 0.13651706278324127, -0.024891672655940056, -0.11602426320314407, 0.053521186113357544, -0.028903009369969368, -0.077728271484375, 0.047451797872781754, 0.058275576680898666, -0.11527013033628464, 0.2028706818819046, 0.06879355013370514, 0.15099738538265228, -0.050875190645456314, -0.06941233575344086, -0.02670229971408844, -0.2683276832103729, 0.02465924434363842, 0.04373469576239586, 0.46619173884391785, -0.05260692164301872, -0.16011716425418854, -0.0122376075014472, 0.056184712797403336, -0.14472375810146332, 0.04652675613760948, 0.0763641744852066, 0.04684966430068016, 0.022108497098088264, -0.055640459060668945, 0.10746315866708755, -0.03242752328515053, -0.07243163138628006, -0.041804760694503784, -0.3704071342945099, -0.5295230150222778, 0.6393359899520874, -0.4151463806629181, -0.29040905833244324, -0.782137930393219, -0.01571991853415966, 0.40041470527648926, -0.24544478952884674, -0.9624366164207458, -0.42746591567993164, 0.7584827542304993, 0.8610016703605652, 0.06150895729660988, -0.06883174180984497, 0.16463766992092133, 0.17556606233119965, 0.016310645267367363, -0.19017110764980316, -0.3286447525024414, -0.6441468596458435, -0.03778267279267311, 0.048232968896627426, -0.1352676898241043, 0.13326144218444824, -0.12800049781799316, -0.05378969386219978, 0.015635401010513306, 0.08937894552946091, -0.2075224071741104, 0.22298026084899902, 0.31686946749687195, 0.13938769698143005, 0.12645719945430756, -0.20879842340946198, -0.3866148293018341, 0.4191632568836212, 0.10570014268159866, 0.10034442692995071, 0.0552639402449131, 0.950746476650238, -0.15443287789821625, 0.022565675899386406, 0.37636950612068176, 0.37697646021842957, 0.22303436696529388, 0.1855299323797226, -0.20842353999614716, 0.26563331484794617, 0.1520472913980484, -0.09210670739412308, -0.5946922898292542, -0.4589810073375702, 0.003307014936581254, 0.11257635802030563, -0.021607698872685432, -0.5528672933578491, 0.12236631661653519, 0.15960215032100677, -0.0095467334613204, -0.03319617733359337, 0.15140201151371002, -0.0675927922129631, -0.038178954273462296, 0.11832129210233688, 0.12258707731962204, 0.12596537172794342, 0.154769629240036, 0.2309378832578659, -0.03704971447587013, 0.1904749721288681, 0.13384781777858734, 0.0886763408780098, -0.1046273335814476, 0.15390002727508545, 0.5166260004043579, -0.24321071803569794, -0.06649947911500931, -0.10735992342233658, 0.03457394242286682, -0.0349639393389225, 0.04012986645102501, -0.03168189153075218, -0.2226838916540146, 0.014911636710166931, 0.014148042537271976, 0.05459856614470482, 0.1246110126376152, 0.296403169631958, -0.002011148491874337, -0.15449891984462738, -0.18344955146312714, -0.4077328145503998, -0.31541651487350464, -0.3290860652923584, 0.460044264793396, -1.566830039024353, -0.11555981636047363, 1.6246942281723022, 0.10289299488067627, -1.812639832496643, 0.24927808344364166, -0.07773572951555252, 0.49631646275520325, -0.10405374318361282, 0.03159433230757713, -0.42502447962760925, -0.10239648073911667, -0.05571889504790306, -0.06499480456113815, -0.24715597927570343, 0.5923461318016052, -0.035873863846063614, 0.13684488832950592, -0.57939612865448, -0.008730112574994564, -0.08982963114976883, 0.07687593251466751, -0.15380850434303284, -0.9072749614715576, -0.034380730241537094, -0.12784217298030853, -0.27233177423477173, 0.20278780162334442, 0.08758961409330368, 0.09229468554258347, -1.3239136934280396, -0.3028274476528168, -0.14854632318019867, 0.17710472643375397, -0.42299219965934753, 0.45423364639282227, 0.07333136349916458, -0.07793157547712326, 0.31735914945602417, 0.4418182075023651, -0.0033319927752017975, 0.14345775544643402, 0.4960170090198517, 0.19736076891422272, 0.14367951452732086, 0.038378242403268814, -0.8848429322242737, 0.14139118790626526, 0.38275936245918274, -0.0490109883248806, 0.2987959086894989, 0.04251464828848839, 0.0065514217130839825, -0.030289260670542717, 0.10907944291830063, -0.18433094024658203, 0.033794376999139786, 0.07417391985654831, 0.22742126882076263, -0.013569711707532406, 0.1793975979089737, -0.10601738840341568, -0.14821003377437592, -0.08741893619298935, -0.03261708840727806, 0.01790096051990986, -0.08178454637527466, -0.016451146453619003, -0.061451081186532974, -0.10908758640289307, 0.3203577995300293, -0.05248909816145897, 0.019288048148155212, -0.0561642087996006, -0.15572844445705414, 0.1271684318780899, -0.013562857173383236, 0.01559352781623602, 0.08380424231290817, 0.13991859555244446, 0.09372294694185257, 0.12485431879758835, 0.03548779711127281, -0.058162156492471695, 0.006322086323052645, -0.08762764185667038, -0.7168002724647522, -0.6528207063674927, -0.22025592625141144, -0.4496566355228424, 0.1640455722808838, -0.508213222026825, -0.27214792370796204, 0.15950635075569153, 1.3441905975341797, 0.22424744069576263, 0.3676266372203827, 0.8012595176696777, 0.3135034739971161, -0.07192570716142654, -0.05486925318837166, -0.7970477938652039, -0.3129899799823761, -0.07089156657457352, 0.16686487197875977, -0.5380975604057312, 0.08996284753084183, -0.05116233229637146, -0.03148313984274864, -0.4716968834400177, -0.2279057651758194, 0.06078476086258888, -0.2169925421476364, 0.6325607895851135, -1.3527644872665405, 0.23385955393314362, -0.0014879890950396657, 0.34029054641723633, 0.11450005322694778, 0.040214862674474716, 0.09977561980485916, -0.17423538863658905, 0.2695560157299042, 0.1102571114897728, 0.1340784877538681, 0.6053446531295776, 0.7296106219291687, -0.11423253268003464, 0.06462907046079636, -0.49099209904670715, -0.4297402799129486, 0.0966188982129097, 0.09321636706590652, -0.5149751305580139, 0.22279979288578033, 0.02448725514113903, 0.13373540341854095, 0.2058260440826416, -0.6586686372756958, 0.024173246696591377, -0.08556855469942093, -0.8754971623420715, -0.10145457834005356, 0.039575930684804916, 0.07969582825899124, 0.09417808800935745, -0.18268252909183502, -0.03994547948241234, 0.1952960342168808, -0.08046228438615799, 0.05548415705561638, 0.010471588931977749, 0.023830728605389595, -0.14210787415504456, 0.03548898920416832, -0.12105702608823776, -0.06419967859983444, -0.0678076222538948, -0.00867555383592844, -0.035273972898721695, -0.12479495257139206, -0.3433399498462677, 0.10219300538301468, 0.072781503200531, -0.09863542765378952, 0.10110317915678024, -0.10586711019277573, 0.08096493035554886, -0.06097209081053734, -0.046206485480070114, -0.061425622552633286, 0.0068075768649578094, -0.02840411849319935, -0.09069036692380905, 0.09807885438203812, -0.04524772986769676, -0.28851771354675293, -0.9578197002410889, -0.5024719834327698, -0.1842236965894699, -0.06609207391738892, 0.8462437987327576, -0.7234892845153809, 0.7845797538757324, -1.1367179155349731, 0.661277711391449, 0.5066657662391663, 0.26736220717430115, -0.5379775762557983, 0.009511901065707207, -0.010308884084224701, 0.02908634953200817, -0.38762930035591125, 0.5923528671264648, 0.15585459768772125, -0.05506265535950661, -0.29806235432624817, 0.5023936629295349, -0.020860610529780388, -0.05112228915095329, -0.3121240437030792, 0.6630555391311646, 0.06905179470777512, -0.1449972540140152, -0.07830612361431122, -0.07389570027589798, -0.17919208109378815, -0.18681681156158447, 0.19964908063411713, -0.344052791595459, 0.12445782870054245, 0.05500425770878792, -0.27457186579704285, -1.4844080209732056, -0.2989850342273712, 0.13942551612854004, 0.17376257479190826, 0.25175541639328003, 0.10746888071298599, 0.061848219484090805, -0.05723924934864044, 0.21289841830730438, -0.0729571059346199, -0.06530816107988358, 0.4765143394470215, -0.011012771166861057, -0.01936751790344715, -0.017259446904063225, -0.9922419190406799, -1.3681381940841675, 0.17004716396331787, 0.024014202877879143, 0.30771157145500183, -0.47317203879356384, 0.04495352879166603, -0.2475423961877823, -0.026273539289832115, -0.05423861742019653, -0.00751465605571866, 0.12000954896211624, -0.13416124880313873, 0.13395406305789948, 0.115447036921978, -0.02677408792078495, -0.04650748893618584, -0.002898604841902852, 0.12369168549776077, -0.05650556460022926, -0.016946706920862198, 0.15862970054149628, -0.023091478273272514, -0.006887398194521666, -0.028821637853980064, 0.11556503176689148, -0.054387111216783524, -0.02278934419155121, -0.08398795872926712, -0.056029077619314194, -0.09086798876523972, 0.06378263235092163, -0.12694202363491058, 0.028445757925510406, 0.07381432503461838, -0.1151738092303276, -0.00749823497608304, 0.03984693065285683, 0.05893469229340553, -0.0959131196141243, -0.11118507385253906, -0.6001499891281128, 0.4417977035045624, -0.7479596734046936, -1.147842288017273, -0.9529225826263428, -1.4935897588729858, 1.0507090091705322, 1.1293466091156006, -0.4161200225353241, 0.6402272582054138, -0.2002623826265335, 0.5942865610122681, -0.018638191744685173, -0.1280679553747177, -0.09059741348028183, -0.18136321008205414, 0.08308886736631393, -0.11821473389863968, -0.07661314308643341, 0.3506310284137726, 0.03332405909895897, -0.24497388303279877, -0.8861741423606873, 0.8598556518554688, -0.2136356681585312, -0.15665696561336517, -0.1770503669977188, 0.08154697716236115, -0.1639871746301651, -0.024471566081047058, -0.3368578255176544, -0.7535561919212341, -0.15919993817806244, 0.11208904534578323, -0.5097461938858032, -0.059494610875844955, 0.09881985932588577, -0.1040377989411354, -0.01084431167691946, 0.48341119289398193, 0.10303386300802231, -0.18251682817935944, 0.12831006944179535, 0.0330207459628582, -0.09719892591238022, 0.07732255011796951, 0.37940049171447754, -0.26901793479919434, 0.1545279175043106, -0.11026924848556519, -0.32865282893180847, 0.2229740470647812, 0.09319836646318436, 0.11781693249940872, -0.5349873900413513, -0.4823664426803589, 0.1205144003033638, 0.001298365299589932, -0.06167048215866089, 0.011657348833978176, 0.12881851196289062, -0.12264729291200638, 0.15347205102443695, 0.008963891305029392, 0.04904576763510704, 0.10671175271272659, 0.19606874883174896, 0.14516498148441315, -0.13259470462799072, 0.013722891919314861, -0.017888491973280907, -0.09441769123077393, -0.036251965910196304, -0.09232255071401596, -0.0027578247245401144, -0.07177459448575974, 0.04093143343925476, -0.1353522390127182, 0.02836504392325878, -0.28731226921081543, 0.11543405801057816, 0.1853628009557724, -0.0349038802087307, 0.16755245625972748, -0.16900824010372162, 0.11306238919496536, 0.07118815928697586, -0.13727711141109467, 0.07159554213285446, 0.09456456452608109, 0.048785801976919174, -0.10254784673452377, -0.34713315963745117, -0.29436179995536804, 0.32244864106178284, -1.1112898588180542, 0.44139769673347473, -1.2921087741851807, 0.21503899991512299, 0.7338741421699524, 0.3905615508556366, -0.3235864043235779, 0.23685510456562042, 0.047468286007642746, -0.15898846089839935, 0.21623198688030243, -1.066335916519165, 0.1496427208185196, -0.04506290331482887, 0.19363154470920563, 0.9010611176490784, 0.09141445904970169, -0.05252069607377052, -0.4910799264907837, 0.5291610956192017, 0.05222756043076515, 0.040087584406137466, -0.27059289813041687, -0.18325354158878326, 0.013012334704399109, -0.166260227560997, 0.37636110186576843, 0.5992831587791443, 0.09430091828107834, -0.12430690973997116, -0.5640673637390137, -0.4520967900753021, 0.09504150599241257, -0.046692315489053726, -0.06059585511684418, 0.7008904814720154, 0.04567927494645119, 0.24461723864078522, 0.5916958451271057, 1.437895655632019, 0.03897083178162575, -0.07170623540878296, 0.06533580273389816, 1.3039954900741577, 0.12230812758207321, 0.1521754413843155, -0.3016025722026825, -0.15731124579906464, -0.14699290692806244, -0.0013038404285907745, 0.10887209326028824, -1.1509987115859985, -0.003278009593486786, 0.07056934386491776, -0.05699288472533226, -0.2113899439573288, 0.009597203694283962, -0.18315613269805908, -0.0921630933880806, -0.1787440925836563, 0.094418466091156, 0.1020321473479271, -0.20923231542110443, 0.22785216569900513, 0.00960314180701971, -0.1384122520685196, 0.08537981659173965, -0.15986676514148712, 0.003872196888551116, 0.037580523639917374, -0.3710050582885742, 0.15675510466098785, 0.04370015487074852, -0.014769733883440495, 0.0033207011874765158, -0.09606236219406128, -0.25657323002815247, -0.034292254596948624, 0.13147160410881042, 0.0425930954515934, 0.17457188665866852, -0.05460887774825096, 0.07927960902452469, 0.12812913954257965, 0.09787773340940475, 0.19018469750881195, -0.13547678291797638, -0.1701231449842453, -0.3352079689502716, -0.20849084854125977, 0.32740089297294617, 0.14136268198490143, 0.08985870331525803, -0.16790364682674408, 0.11820916086435318, 1.0574777126312256, -0.3346204459667206, -0.4811539649963379, -0.02809491939842701, -0.17879198491573334, -0.11717747896909714, 0.2363586574792862, 0.24878646433353424, 0.0733991339802742, 0.24170635640621185, 0.46286165714263916, -0.6329055428504944, -0.12143195420503616, -0.10622712224721909, -0.24734419584274292, -0.3448242247104645, 0.19505293667316437, -0.10779281705617905, 0.2593448758125305, 0.6412931680679321, -0.18866942822933197, 0.05160272493958473, -0.30298322439193726, -0.2554648518562317, -0.06719475239515305, 0.09530007094144821, -0.16783656179904938, 0.572227418422699, -0.14276836812496185, -0.004403114318847656, -0.07277113944292068, -1.2088104486465454, -0.11287582665681839, -0.043405260890722275, 0.253407746553421, 0.5197135210037231, -0.12785981595516205, -0.1435101181268692, 0.33214518427848816, 1.0329492092132568, 0.06266175955533981, 0.10684084892272949, -0.3887554109096527, 0.1488395631313324, -0.044430192559957504, -0.11996246129274368, -0.19454242289066315, -0.06621767580509186, 0.02909696288406849, 0.06522922962903976, 0.16533733904361725, -0.05037568137049675, 0.13660933077335358, 0.008095347322523594, 0.22708679735660553, -0.054288286715745926, -0.08689617365598679, 0.045183803886175156, 0.10768631845712662, 0.13706912100315094, -0.11641991883516312, -0.033525411039590836, -0.061919037252664566, 0.1785421371459961, -0.025801166892051697, 0.060431722551584244, -0.052271902561187744, -0.19928407669067383, -0.15192602574825287, 0.07145851850509644, 0.019910795614123344, 0.05196114256978035, 0.1015549823641777, -0.13284026086330414, -0.04762876406311989, -0.028149457648396492, 0.0761028453707695, 0.0695204809308052, -0.1430298238992691, -0.05140600726008415, 0.059020813554525375, -0.04026216268539429, -0.47059595584869385, -0.23765133321285248, -0.17691434919834137, -0.1644267588853836, 0.013340265490114689, -1.312076449394226, -0.9794169068336487, 0.6644878387451172, 0.11777985841035843, -0.7693526148796082, 0.5711492300033569, 0.9754295945167542, 0.36864566802978516, 0.1324523538351059, 0.04286846145987511, -0.5813894271850586, 0.9669342041015625, 0.19187094271183014, -0.17457129061222076, -0.8251513838768005, 1.0132538080215454, -0.01232107076793909, 0.06534433364868164, -0.611079216003418, -0.036820199340581894, -0.08155841380357742, 0.04770034924149513, 0.4967465102672577, 0.2620297074317932, -0.044119659811258316, 0.043278034776449203, 0.062440454959869385, -0.15712092816829681, -0.0801205113530159, 0.002270200988277793, -0.5152310132980347, 0.24538832902908325, 0.00690506910905242, 0.094151072204113, 0.07212703675031662, -0.16741453111171722, -0.10524237900972366, 0.07612896710634232, -0.953188955783844, -0.2659689784049988, 0.17367053031921387, -0.036850009113550186, -0.21293498575687408, -0.42946097254753113, -0.022045878693461418, 0.08172131329774857, 0.39923569560050964, -0.18193413317203522, 0.034848567098379135, -0.006175627466291189, -0.8201714158058167, 0.05446787551045418, -0.12214266508817673, -0.004773937631398439, 0.013834498822689056, -0.08542250841856003, -0.0028983948286622763, -0.04994267597794533, -0.028882799670100212, 2.6892196274275193e-06, 0.19138367474079132, 0.06719237565994263, 0.08295267075300217, 0.26998263597488403, -0.0195589829236269, -0.11354196816682816, 0.08312749117612839, 0.03696322813630104, 0.14159323275089264, 0.080826036632061, 0.03594828024506569, 0.30598875880241394, 0.043073590844869614, 0.13792242109775543, 0.009042062796652317, 0.16026651859283447, -0.15475140511989594, -0.09294843673706055, -0.01651155576109886, -0.005155541934072971, 0.158241406083107, 0.0793766900897026, -0.03650898113846779, 0.07300496846437454, 0.15429449081420898, -0.12517403066158295, -0.8519890904426575, -0.2563195526599884, 0.13097147643566132, -0.11890152096748352, 0.5231408476829529, -0.98841792345047, 0.7082757949829102, -0.7387122511863708, -0.5900806784629822, 0.8258571624755859, -0.7947157025337219, -0.07102369517087936, -0.30525705218315125, 0.25260376930236816, -0.13627219200134277, -0.024240689352154732, -0.41945788264274597, 0.011138410307466984, 0.15599240362644196, 0.6873287558555603, 0.7246694564819336, 0.04291393980383873, -0.012738347984850407, -0.3815653324127197, -1.764276385307312, 0.06921105831861496, 0.18522955477237701, -0.11971643567085266, -0.10622485727071762, 0.04608637094497681, 0.04665398970246315, 0.5022969841957092, 0.5873697996139526, -0.03903213515877724, -0.07837618142366409, 0.04283210262656212, 0.5519290566444397, 0.14495693147182465, -0.006251208949834108, 0.4325099289417267, 0.6052015423774719, 0.16240321099758148, -0.0249767005443573, -0.07981383800506592, 0.7402819991111755, -0.010802365839481354, 0.0940653458237648, 0.5837544202804565, 0.10599696636199951, -0.11194764822721481, -0.00842155423015356, -1.0366439819335938, -1.5244159698486328, -0.020116137340664864, 0.03290519118309021, -0.06521356850862503, 0.5400442481040955, 0.06947970390319824, -0.08115529268980026, 0.05404658988118172, 0.08048897236585617, -0.06082391366362572, -0.03337496891617775, -0.09027718752622604, 0.09347351640462875, 0.16699887812137604, 0.038133468478918076, -0.25529786944389343, 0.24250085651874542, 0.09348820894956589, -0.16364191472530365, -0.026298852637410164, -0.19990001618862152, 0.03351626172661781, 0.1552969068288803, 0.255134642124176, 0.0681026428937912, -0.01937161572277546, -0.16604280471801758, -0.011915086768567562, -0.010861300863325596, 0.07292013615369797, -0.10374454408884048, 0.12978051602840424, -0.1245020255446434, -0.130463108420372, -0.21216678619384766, 0.07156466692686081, -0.05440942570567131, 0.166472926735878, -0.025621624663472176, -0.1261349618434906, 0.11314523965120316, -0.13659454882144928, 0.05165967345237732, 0.7257967591285706, -0.05643492564558983, 1.5370451211929321, 0.7858679890632629, -0.9810841679573059, -0.7396852374076843, -0.13959667086601257, -0.37778112292289734, -0.8141594529151917, 0.0688057467341423, 0.2228698581457138, 0.5903071761131287, -0.530934751033783, 0.06755001097917557, 0.1736217588186264, -0.6641884446144104, -0.241215780377388, -0.007501407992094755, 0.0035060124937444925, -0.6623202562332153, -0.3169615864753723, -0.004065730143338442, -0.09566164761781693, -0.15748056769371033, 0.12227275967597961, -0.040202680975198746, -0.04815283045172691, -0.11063074320554733, -0.40482187271118164, 0.004119426477700472, -0.1372525542974472, -0.3449695110321045, 0.2697299122810364, 0.07350409775972366, -0.025753946974873543, -0.019735543057322502, 0.029659422114491463, 0.12939311563968658, -0.061013754457235336, -0.05153624340891838, -0.7697449326515198, -0.16426967084407806, 0.1431097835302353, 0.45393308997154236, 0.4618941843509674, 0.05596023425459862, 0.01564083807170391, -0.8086567521095276, -0.3141978085041046, -0.06502008438110352, 0.07873428612947464, 0.6771203875541687, 0.5120931267738342, -0.1355050653219223, -0.011558727361261845, 0.06652455776929855, -0.03924119099974632, -0.19244766235351562, 0.040109869092702866, 0.14987753331661224, 0.008583231829106808, -0.17061184346675873, 0.028620688244700432, -0.026170553639531136, -0.006447004619985819, -0.0908958911895752, -0.0011067885207012296, 0.12905825674533844, 0.07214813679456711, -0.009776799939572811, -0.005974449682980776, -0.2997928261756897, -0.06904323399066925, 0.11419451981782913, -0.010833890177309513, 0.007115572225302458, -0.11544907838106155, -0.2597680389881134, 0.06080954894423485, 0.20006950199604034, 0.11642542481422424, -0.06210685148835182, -0.042314883321523666, 0.21725662052631378, -0.04280811548233032, -0.051533717662096024, 0.14105497300624847, -0.6440761685371399, -0.8690007328987122, -0.38113972544670105, -0.5935162901878357, 0.47110334038734436, -0.3946971893310547, 0.23065568506717682, -0.7244133949279785, -0.4477114975452423, 0.4572933614253998, -0.7289547324180603, 0.5473088622093201, 0.4944133460521698, -0.07956892997026443, 0.06354779005050659, -0.08273626863956451, -1.3407517671585083, -0.10371764749288559, -0.11603892594575882, -0.025401649996638298, -0.011839025653898716, 0.24982881546020508, -0.04340166226029396, -0.7099198698997498, -0.5470728874206543, 0.04177200421690941, -0.06918364763259888, 0.3155316710472107, -0.18875537812709808, -0.02417478896677494, 0.1781461387872696, -0.06973941624164581, 0.07020850479602814, -0.20044271647930145, 0.10909820348024368, -0.46628764271736145, -0.19407010078430176, -0.01280539482831955, -0.007557891774922609, 0.33692118525505066, -0.6332405209541321, -0.13759398460388184, -0.03634661063551903, -0.261780709028244, -0.6632198095321655, 0.0026315057184547186, -0.02339748479425907, -0.17456187307834625, -0.3967883884906769, -0.12169694155454636, -0.029025880619883537, 0.014515499584376812, -0.05789749324321747, -0.10150174051523209, 0.05755525454878807, -0.30057093501091003, -0.5412435531616211, -0.07758568972349167, 0.006984151434153318, -0.07432424277067184, -0.16846086084842682, -0.03110065869987011, 0.2171487659215927, 0.19604134559631348, 0.02583625726401806, -0.04427843913435936, 0.11961030215024948, -0.2026863843202591, 0.19320093095302582, 0.03702482953667641, -0.09076296538114548, -0.08389169722795486, 0.023603202775120735, -0.0989074632525444, 0.10757244378328323, 0.20298956334590912, -0.09903527051210403, 0.0011968017788603902, 0.08883398026227951, -0.12470746785402298, -0.07768677920103073, -0.08606929332017899, -0.04973995313048363, 0.03471454605460167, -0.25452131032943726, -0.0941389873623848, 0.0015304553089663386, 0.13631342351436615, -0.1568364053964615, -0.17142702639102936, -0.01620499975979328, -0.2411431521177292, -0.49925950169563293, -0.13893315196037292, -0.8219252228736877, 0.5239404439926147, -0.9302205443382263, 0.9649044871330261, 0.7160417437553406, -0.23220394551753998, -1.313440203666687, -0.9523318409919739, -0.6116787195205688, 0.010791830718517303, -0.0766342356801033, 0.09376906603574753, -0.0783810093998909, -0.8596663475036621, 0.05323803797364235, -0.0032191870268434286, -0.11527522653341293, -1.0287750959396362, 0.05674732103943825, 0.026335565373301506, -0.3021336495876312, -0.4423523247241974, 0.03974362835288048, 0.14500738680362701, -0.21793462336063385, 0.05741948261857033, -0.025403710082173347, 0.12114989012479782, -0.2984616160392761, -0.622501790523529, -0.010109142400324345, 0.16643951833248138, -0.46443697810173035, -0.7056073546409607, 0.1617077738046646, 0.030290154740214348, -0.7727238535881042, 1.0596264600753784, -0.07840920239686966, 0.016690077260136604, 0.2998332381248474, 0.5324888229370117, -0.1749945878982544, -0.17157672345638275, 0.6065069437026978, -0.03643643110990524, 0.016330866143107414, 0.08268178254365921, -0.08242987841367722, 0.8186655044555664, -0.06481654196977615, 0.013656110502779484, 0.48537909984588623, -0.03826811537146568, -0.08758329600095749, -0.06289494037628174, -0.03872784599661827, 0.03198379650712013, 0.1720247119665146, 0.0755801796913147, 0.11755739897489548, 0.006240077316761017, -0.019751043990254402, 0.20951421558856964, 0.11617087572813034, -0.366790771484375, -0.0890086367726326, 0.018318934366106987, 0.07043614238500595, -0.037192586809396744, 0.0764308050274849, -0.0964634045958519, 0.24094606935977936, -0.027438612654805183, -0.06319154053926468, -0.15983106195926666, 0.0022062920033931732, 0.056413356214761734, 0.05161553621292114, -0.03184017166495323, -0.15603770315647125, 0.04965459182858467, 0.1661663055419922, 0.013080493547022343, -0.11644481867551804, 0.20420955121517181, -0.05979257449507713, 0.0369187593460083, -0.46063897013664246, -0.20179784297943115, 0.19502826035022736, -0.17199473083019257, -0.7611879706382751, -1.2888046503067017, -0.8209200501441956, -0.5154404044151306, 0.5717117190361023, -0.6342613101005554, 0.19460393488407135, -0.7476485371589661, 0.19185037910938263, -0.03250643238425255, -0.051838573068380356, 0.4590472877025604, 0.23069077730178833, 0.03572249040007591, -0.008293204009532928, 0.22210757434368134, 0.25644606351852417, -0.15925095975399017, 0.1514512449502945, -0.4252505600452423, -0.013899310491979122, -0.019728662446141243, -0.14963555335998535, -0.43953272700309753, -0.7919520735740662, -0.12473677843809128, -0.14258255064487457, -0.3550889492034912, -0.2110995501279831, 0.06500422954559326, -0.058282677084207535, -0.8192929625511169, -0.5009774565696716, -0.0016751977382227778, -0.09266328066587448, -0.2740305960178375, -0.29563814401626587, 0.14863084256649017, -0.03832366690039635, 0.672724187374115, 0.9813851714134216, 0.13197661936283112, -0.11673580855131149, 1.1865692138671875, 0.035347819328308105, -0.19995595514774323, 0.013085599057376385, -0.8842074275016785, -0.5353908538818359, -0.15575696527957916, -0.07061624526977539, 0.1657409816980362, -0.3547200858592987, 0.26951196789741516, -0.06907344609498978, 0.11198676377534866, 0.12332295626401901, 0.011500277556478977, 0.014644772745668888, 0.14207933843135834, -0.10838834196329117, -0.19433023035526276, 0.16812048852443695, 0.21725241839885712, 0.14515112340450287, 0.01116397138684988, -0.09634458273649216, -0.23095481097698212, 0.10284054279327393, -0.10666383057832718, 0.08674048632383347, 0.014231380075216293, -0.05563974380493164, 0.11212383955717087, 0.00484304828569293, -0.029569627717137337, -0.12892304360866547, -0.02370665781199932, 0.13266099989414215, -0.016708482056856155, 0.1235581636428833, -0.03897082433104515, 0.10080917924642563, 0.020097671076655388, -0.08608686178922653, -0.00028686318546533585, 0.0350860096514225, -0.3298906981945038, -0.5075936913490295, 0.6100844740867615, -0.5100554823875427, -1.0494261980056763, 0.11363813281059265, -0.917478621006012, -0.08732139319181442, 0.5572236776351929, -0.5441917181015015, -0.1742074340581894, -0.4598398506641388, -1.2456343173980713, -0.12964583933353424, -0.10754235833883286, -0.47020336985588074, -0.5475362539291382, -0.07181250303983688, -0.03302690014243126, -0.08156251162290573, 1.2613567113876343, 0.0037168001290410757, -0.06279026716947556, -0.5195902585983276, -0.564265251159668, 0.13401247560977936, -0.05059153214097023, -0.23952628672122955, 0.5543518662452698, 0.23800204694271088, 0.026690194383263588, 0.026352493092417717, -0.16152195632457733, -0.05808817967772484, -0.15531350672245026, -0.6526166200637817, 0.936185896396637, 0.08193624764680862, 0.11063457280397415, -0.1216752827167511, 0.3745664656162262, 0.10508144646883011, -0.12893567979335785, 0.4477485418319702, -0.09680182486772537, 0.021095214411616325, 0.04771718010306358, 0.7016440033912659, 0.40007033944129944, 0.0012491325614973903, -0.039546672254800797, -0.409294456243515, 0.5278855562210083, 0.0032997902017086744, 0.17756591737270355, -0.12383833527565002, -0.6355605721473694, -0.19778943061828613, -0.17355002462863922, -0.033725496381521225, -0.15126289427280426, -0.03650742396712303, 0.018806902691721916, -0.008980930782854557, -0.03452182188630104, 0.005799316335469484, -0.11843741685152054, 0.21684931218624115, 0.18176841735839844, 0.03320693597197533, 0.14852871000766754, -0.18447084724903107, 0.18095196783542633, -0.048932965844869614, -0.03164907917380333, -0.11346448212862015, -0.0239314716309309, 0.07771462947130203, 0.20604823529720306, -0.0002923749852925539, 0.06505787372589111, 0.09055597335100174, 0.05648582801222801, -0.04583471640944481, 0.10638367384672165, -0.009105563163757324, -0.03551459684967995, -0.0021535048726946115, 0.17187310755252838, -0.025190899148583412, -0.0723915621638298, -0.3384564220905304, -0.21468780934810638, -0.24557097256183624, -0.17562036216259003, 0.025122283026576042, -0.34582623839378357, 0.0479133166372776, -0.023512622341513634, -1.0099341869354248, -0.8535073399543762, -0.4386868476867676, 0.062101561576128006, 0.5679273009300232, 0.07837141305208206, 0.042733047157526016, 0.8880576491355896, 0.77789306640625, -0.04548502340912819, -0.06621628999710083, 0.898059606552124, -0.332938015460968, -0.015329941175878048, -0.005001016426831484, -0.462833046913147, 0.5829107165336609, 0.09379226714372635, 0.19445060193538666, -0.700437605381012, -0.7160210609436035, 0.13744162023067474, -0.050433140248060226, -0.8913958072662354, -0.4752941131591797, -0.25426313281059265, -0.19095994532108307, -1.089408040046692, 0.7372551560401917, 0.027567842975258827, -0.005260333884507418, -1.4136933088302612, -0.28655534982681274, -0.09644628316164017, 0.08159226924180984, 0.4291539192199707, -1.1048901081085205, -0.10791169852018356, 0.07552682608366013, 0.1883821338415146, -0.47562968730926514, -0.09314883500337601, 0.0268085990101099, 0.19704163074493408, -0.6898173689842224, -0.002959606936201453, -0.05748951807618141, 0.44853588938713074, -0.5388866066932678, -0.038822319358587265, 0.0800529196858406, 0.018441008403897285, 0.07322383671998978, -0.09900057315826416, 0.0026867759879678488, 0.1251959651708603, -0.01923719234764576, 0.07806408405303955, 0.03701203688979149, 0.22153617441654205, -0.0982489064335823, 0.061219219118356705, -0.059559937566518784, -0.0596887432038784, -0.0029306896030902863, -0.11650586873292923, -0.0670851469039917, -0.051044877618551254, -0.015650909394025803, -0.011290797032415867, 0.08144568651914597, -0.09251033514738083, -0.05279159918427467, 0.07707340270280838, 0.017552584409713745, 0.2225961834192276, 0.0736691877245903, -0.0850803330540657, 0.029696045443415642, -0.03962748870253563, 0.006743476260453463, 0.07715976983308792, -0.05176616087555885, -0.4410410225391388, -0.0628020241856575, -0.5346143841743469, -0.748135507106781, 0.5615411400794983, -0.639765202999115, 0.3723219931125641, 0.19536159932613373, -0.35863354802131653, -0.06994345039129257, 0.13591109216213226, 1.1013280153274536, -0.004635930061340332, -0.004343624692410231, 0.0008517252281308174, 0.4131222069263458, 0.9425646662712097, -0.06574899703264236, -0.09534735232591629, -0.37370064854621887, -1.2971991300582886, -0.062389079481363297, -4.3445495975902304e-05, -0.3103296756744385, -0.6615304350852966, -0.10535892099142075, -0.010037912987172604, -0.13352560997009277, -0.04529351368546486, 0.013851090334355831, -0.06626801937818527, 0.34208962321281433, 0.9634427428245544, 0.05763697996735573, -0.189878448843956, -0.32461023330688477, -0.756962239742279, -0.05792247876524925, 0.04608616605401039, 0.6004582047462463, -0.3751411437988281, 0.036622170358896255, -0.1418025642633438, -0.24253255128860474, 0.13059855997562408, -0.105667345225811, -0.11728347092866898, -0.22243015468120575, -0.1598522812128067, 0.1653188318014145, 0.08509618788957596, 0.8022508025169373, 0.6803521513938904, -0.13170455396175385, 0.14654742181301117, -0.3278946280479431, 0.8774614930152893, 0.06497370451688766, -0.09482444077730179, 0.013269140385091305, -0.005019449163228273, -0.18440820276737213, 0.0401001013815403, 0.10509323328733444, -0.10278927534818649, 0.014089240692555904, 0.05588274821639061, -0.13812562823295593, -0.12465929239988327, -0.045986030250787735, 0.01478253398090601, 0.09698525816202164, 0.15639802813529968, 0.026175418868660927, 0.02026951126754284, 0.026050269603729248, -0.1906677484512329, 0.032494042068719864, 0.046407099813222885, -0.0038090201560407877, -0.08087486773729324, 0.02679114043712616, 0.16749145090579987, -0.13102445006370544, 0.12525606155395508, -0.1071663498878479, -0.018673928454518318, -0.023543434217572212, -0.08934604376554489, 0.07448338717222214, 0.162811741232872, -0.22470785677433014, -0.25322794914245605, 0.013419403694570065, 0.007886836305260658, 0.8706837296485901, -0.4458012878894806, 1.1412349939346313, 0.5041069984436035, -0.2648138701915741, -0.31488314270973206, 0.33797553181648254, 0.36419913172721863, -0.12996913492679596, -0.09161826223134995, -0.08368606120347977, 0.41013607382774353, 1.1389210224151611, -0.17877794802188873, -0.026601312682032585, 0.3438732326030731, -0.03266768530011177, 0.05996501073241234, -0.00859712902456522, -0.4286608397960663, -0.5058513879776001, 0.15452514588832855, 0.10801459103822708, 0.49986377358436584, 1.3678398132324219, -0.0059797693975269794, 0.019162610173225403, 0.27035853266716003, -0.1603393405675888, -0.02208608202636242, 0.00894205179065466, -0.430695503950119, -0.2574389576911926, -0.012790084816515446, -0.10945535451173782, 0.43599143624305725, -0.5939010381698608, 0.1351999193429947, -0.06696140021085739, -0.06132465973496437, -0.4210224151611328, 0.22513629496097565, 0.007046311628073454, -0.18703462183475494, 0.4601706266403198, 0.015509634278714657, 0.2475104182958603, -0.06176172196865082, 0.25046616792678833, 0.0066104005090892315, -0.21026252210140228, 0.10624412447214127, -0.46822312474250793, 0.023202059790492058, -0.058343056589365005, -0.056422825902700424, 0.1535637527704239, 0.020624877884984016, -0.2844872772693634, 0.013909532688558102, -0.032161589711904526, -0.22371649742126465, 0.20825336873531342, -0.08991390466690063, -0.07311563938856125, -0.05213392153382301, 0.012100444175302982, 0.22652171552181244, -0.26508644223213196, -0.05892098322510719, 0.21003182232379913, -0.0013161554234102368, -0.103073351085186, 0.02230897732079029, 0.1808672994375229, -0.22379781305789948, 0.096114881336689, 0.08446662873029709, 0.06401164084672928, 0.1796851009130478, -0.05773293599486351, 0.0049046422354876995, -0.10522020608186722, -0.10924433916807175, 0.018401071429252625, 0.04590284451842308, 0.03950915113091469, -0.5197210907936096, -0.42550894618034363, 0.8224541544914246, -0.3405231535434723, -0.251341313123703, -1.2431623935699463, 0.0029161537531763315, -0.42416176199913025, 0.18339447677135468, 0.7901208996772766, 0.27493980526924133, -0.49193108081817627, 0.4025479853153229, -0.06099003180861473, -0.08564960211515427, 0.6511591672897339, 0.6473390460014343, -0.05516276881098747, -0.10539066046476364, -0.37901178002357483, 0.5688981413841248, -0.017989663407206535, -0.09713073819875717, -0.25842544436454773, 0.29820913076400757, 0.09504605084657669, -0.06053293123841286, -0.5234113335609436, 0.9436101317405701, -0.10970541089773178, 0.17793165147304535, -0.9446068406105042, -0.3983621299266815, -0.056536849588155746, 0.05955147370696068, -0.7979565262794495, -0.3000166118144989, -0.06751144677400589, 0.017608031630516052, -1.1170845031738281, -0.2612018883228302, 0.2876003086566925, 0.08922164887189865, 0.7169193625450134, 0.0947871133685112, 0.00873695407062769, -0.09003401547670364, 1.1477676630020142, -0.2497660517692566, 0.04131979122757912, -0.09465848654508591, -0.41605475544929504, -0.5499500632286072, -0.002680018311366439, 0.0665353462100029, 0.16679571568965912, -0.2966534495353699, 0.15752623975276947, 0.043569713830947876, -0.21297581493854523, 0.0032274548429995775, 0.05511477589607239, -0.07118857651948929, -0.08531796187162399, 0.17177797853946686, -0.03212412819266319, 0.016301287338137627, 0.3262970745563507, 0.0024115596897900105, -0.018956882879137993, -0.03228229656815529, 0.00041408182005397975, -0.140543594956398, -0.2214287966489792, 0.03601446375250816, 0.19519735872745514, 0.3902321755886078, -0.21908004581928253, -0.035538967698812485, -0.2080378383398056, 0.13175223767757416, -0.0853414535522461, -0.0006082584150135517, -0.043276965618133545, 0.02837255783379078, -0.08046448975801468, 0.018260391429066658, -0.0007581303943879902, 0.0006448189378716052, 0.15868081152439117, 0.13862551748752594, -0.011830642819404602, 0.41006040573120117, -0.4049415588378906, -0.43100476264953613, 0.0036949242930859327, -1.5077017545700073, -0.4640444219112396, 0.6810364127159119, 0.6463502645492554, 0.1489018052816391, 0.32372063398361206, -0.5056934952735901, 0.8622704148292542, -0.03314671292901039, -0.14832735061645508, 0.08363782614469528, -0.6267071962356567, 0.02657952718436718, 0.1299823373556137, 0.04394304379820824, -0.6412428617477417, -0.03175142779946327, 0.00275034480728209, -0.5216551423072815, 0.3156628906726837, -0.028808413073420525, 0.04690122976899147, -0.8997744917869568, -1.0256383419036865, 0.19092418253421783, 0.1316300481557846, 0.18684101104736328, 0.9737990498542786, 0.10075553506612778, 0.062375787645578384, -0.5940049886703491, 1.249739408493042, -0.20288561284542084, -0.10871585458517075, -0.8689422011375427, -0.6532710790634155, -0.02694092132151127, 0.024399368092417717, 0.5652922987937927, -0.025286128744482994, 0.10988763719797134, 0.03241071105003357, 1.1624958515167236, 0.29385924339294434, 0.022962333634495735, 0.12350023537874222, -0.6177276372909546, 0.30640217661857605, 0.16883276402950287, 0.09392910450696945, 0.5809757113456726, 0.49191439151763916, 0.1253298670053482, 0.16831980645656586, 0.13556121289730072, -0.03283357247710228, -0.11104460805654526, -0.014062152244150639, -0.28766772150993347, 0.04829087480902672, -0.08112316578626633, 0.1256812959909439, -0.13120006024837494, -0.044866349548101425, -0.1488330215215683, 0.059419628232717514, -0.15804985165596008, 0.14016129076480865, 0.06152433529496193, 0.03145008906722069, 0.3582160174846649, -0.06333326548337936, 0.08912850171327591, 0.2479255050420761, -0.02852889709174633, 0.0931815579533577, 0.009958445094525814, -0.0978727862238884, -0.038962773978710175, 0.19764065742492676, -0.049593713134527206, -0.10354780405759811, -0.1121532991528511, 0.04298880323767662, 0.08187936991453171, 0.06221408024430275, -0.4517592191696167, -0.031439896672964096, -0.12167299538850784, -0.24511869251728058, -0.4884829521179199, -0.14388595521450043, -0.8490193486213684, 0.481667160987854, -0.20619797706604004, 0.8472607731819153, -0.27887970209121704, 0.05268627032637596, -0.5900461077690125, -0.057071391493082047, -0.04894096031785011, 0.23477154970169067, -0.06998775899410248, 0.2452557235956192, -0.014651344157755375, -1.2455261945724487, -0.6971296668052673, -0.0812724307179451, -0.1012805625796318, -0.6517040133476257, 0.2733891010284424, -0.022607965394854546, -0.02672266960144043, 0.5187185406684875, 0.22459696233272552, -0.06884824484586716, 0.07488101720809937, 0.039061542600393295, -0.5549005270004272, 0.0668032243847847, 0.018785076215863228, -0.20673418045043945, 0.32436129450798035, -0.13129304349422455, 0.04576307162642479, 0.03916109725832939, -0.5183247923851013, -0.20953519642353058, 0.009636097587645054, -0.15755829215049744, -0.09073395282030106, 0.18941949307918549, 0.18163441121578217, 0.21610067784786224, 0.028465626761317253, -0.050477031618356705, -0.11329733580350876, -0.5830774903297424, -0.8956509232521057, 0.13830317556858063, -0.009798088110983372, 0.11027849465608597, -0.7888017296791077, -0.07970738410949707, -0.04624706134200096, -0.28938862681388855, 0.05459513142704964, 0.003910258412361145, -0.008014575578272343, -0.03127449378371239, -0.03333711251616478, 0.06751232594251633, -0.0023499855305999517, 0.14860650897026062, -0.171895369887352, 0.07602440565824509, -0.18213868141174316, -0.16342581808567047, 0.13525351881980896, -0.048395927995443344, 0.0369131825864315, 0.11237060278654099, 0.03720933571457863, -0.015288143418729305, 0.028642086312174797, -0.1852259784936905, -0.16687025129795074, 0.09580767899751663, 0.11182092875242233, 0.07137799263000488, -0.10169323533773422, 0.18806195259094238, 0.10762429982423782, 0.017536120489239693, 0.017349811270833015, -0.06442946940660477, 0.009500927291810513, -0.4859236180782318, -0.5176821351051331, -0.3164346218109131, -0.5169234275817871, 0.3413757383823395, -1.087483525276184, 0.26176002621650696, -0.8451204895973206, -1.1778199672698975, 0.5577401518821716, -1.1213568449020386, -0.022465569898486137, 0.5597127676010132, 0.11341489106416702, -0.22693157196044922, 0.10303741693496704, 0.44127678871154785, -0.18473540246486664, 0.09486978501081467, -0.19817374646663666, -0.35173770785331726, -0.03526986017823219, 0.21394269168376923, -0.6640981435775757, -0.5004292130470276, -0.1282625049352646, 0.01874355785548687, -0.10971032828092575, -0.5027198195457458, -0.016250165179371834, 0.06631308048963547, -0.13336347043514252, 0.06851457059383392, 0.10029495507478714, 0.053171928972005844, -0.5467701554298401, -0.6584099531173706, -0.20476077497005463, 0.11848901957273483, -0.366458922624588, -0.6426213979721069, -0.26462796330451965, 0.05506362393498421, 0.0815858244895935, -0.041097380220890045, -0.01791525073349476, 0.08099757879972458, -0.09169942885637283, 1.2765214443206787, -0.1141587570309639, -0.10655272006988525, 0.3953697979450226, 0.8230695724487305, -0.2237868458032608, -0.0034526288509368896, -0.220010444521904, -0.2350165992975235, 0.03428018465638161, 0.07901031523942947, 0.05862277373671532, 0.11207116395235062, 0.06615287810564041, 0.12096869200468063, 0.029332073405385017, 0.18101252615451813, -0.19824455678462982, 0.08526665717363358, 0.09717532247304916, 0.22231173515319824, 0.18643619120121002, 0.18522866070270538, -0.0976695790886879, 0.0018584561767056584, -0.02949240617454052, -0.06623221188783646, 0.08080034703016281, -0.037591271102428436, 0.16060054302215576, 0.13393618166446686, 0.004355780314654112, 0.11015749722719193, 0.20101477205753326, 0.0021443255245685577, 0.20094244182109833, -0.010780402459204197, 0.13433349132537842, -0.10846606642007828, -0.16739381849765778, 0.07852088660001755, 0.12937475740909576, -0.03197520598769188, -0.34432530403137207, -0.558219850063324, -0.37506577372550964, -0.49843132495880127, 0.405524879693985, -1.3073161840438843, 0.4818032681941986, 0.21956145763397217, -0.05210326239466667, 0.014940019696950912, 1.0838695764541626, -0.005490523297339678, -0.018785981461405754, -0.15561771392822266, 0.12594805657863617, -0.07262188196182251, 0.3099135458469391, -0.003907435107976198, 0.027363093569874763, -0.48970332741737366, 0.6437125205993652, 0.038667235523462296, -0.20635239779949188, -0.46182015538215637, -0.17355357110500336, -0.1406346708536148, 0.12554693222045898, 0.004455112386494875, 0.30721530318260193, -0.002294594654813409, 0.08814358711242676, 0.33618494868278503, 0.5999249815940857, 0.18388889729976654, 0.00041874474845826626, -0.6566710472106934, 0.1649482250213623, 0.07788551598787308, -0.07669103890657425, -0.25266629457473755, -0.3760603368282318, -0.12830699980258942, 0.0446721576154232, -0.00229822495020926, 0.1432458460330963, -0.03226056694984436, -0.14652490615844727, -0.05622090771794319, 0.02158096618950367, 0.17258523404598236, 0.04636964201927185, -0.17535270750522614, -0.5962901711463928, -0.05092596635222435, 0.08951198309659958, -0.0873245969414711, -0.02466455288231373, -0.11947321146726608, -0.010042660869657993, -0.07969456166028976, -0.006485117133706808, 0.20538665354251862, 0.05814719572663307, 0.030861495062708855, -0.08621954172849655, 0.0020449201110750437, -0.032690729945898056, 0.07376284152269363, 0.0994185134768486, 0.1982935667037964, 0.07204585522413254, 0.1434222310781479, -0.14028586447238922, 0.05540798231959343, -0.12081705778837204, 0.06786146014928818, 0.052398521453142166, 0.08265376836061478, -0.250614196062088, -0.0661926195025444, -0.04629466310143471, -0.13838183879852295, -0.00014973491488490254, 0.0019747631158679724, -0.03092053346335888, -0.022351576015353203, 0.11517917364835739, 0.058283571153879166, 0.10981553792953491, 0.1153021976351738, -0.04232696071267128, -0.6649636030197144, -0.5465413331985474, -0.6027998924255371, -0.4825764000415802, 0.9626290202140808, -0.3976844847202301, 0.6957144141197205, 0.22510987520217896, -0.07385995239019394, 0.13487765192985535, -0.5012746453285217, -0.6169803738594055, -0.43555447459220886, 0.08987850695848465, -0.1722773313522339, -0.2506748139858246, -0.7284950613975525, 0.029601363465189934, -0.08467977494001389, -0.49644312262535095, 0.4186684191226959, 0.03830162063241005, 0.11206043511629105, -0.15133532881736755, -0.4011125862598419, -0.02524365484714508, 0.061706844717264175, -0.4106139838695526, -0.6270090341567993, 0.3171240985393524, -0.06694865971803665, -0.23181408643722534, 0.7891316413879395, -0.0810026004910469, 0.030623437836766243, -0.03760213404893875, -0.578825056552887, -0.2729911506175995, 0.18492291867733002, -0.5143945813179016, -0.3868240416049957, 0.025707630440592766, -0.2033805102109909, 0.16640910506248474, -0.866941511631012, 0.08682788163423538, -0.18925617635250092, 1.0632303953170776, -0.14504040777683258, 0.11163007467985153, 0.08347565680742264, -0.39274832606315613, -0.008192243054509163, -0.21492230892181396, 0.14309249818325043, 0.4491666555404663, 0.2823202311992645, 0.12131189554929733, -0.07226455956697464, 0.022854970768094063, 0.048075560480356216, -0.17388473451137543, -0.15262089669704437, 0.01983483135700226, 0.07159196585416794, 0.08313118666410446, 0.1426832675933838, -0.01808682084083557, 0.11930223554372787, -0.10051852464675903, -0.11320842057466507, 0.10107272863388062, -0.021128984168171883, 0.13760791718959808, 0.037787262350320816, -0.12102019041776657, 0.1643667072057724, 0.003423338057473302, -0.11262477189302444, 0.12070869654417038, -0.07763326913118362, -0.2010740488767624, -0.04527616128325462, -0.12145821005105972, -0.1287776380777359, -0.1407390683889389, 0.010482647456228733, 0.07136880606412888, -0.07319771498441696, 0.015026464127004147, -0.1894536167383194, -0.3930169641971588, -0.23200179636478424, -0.2935655117034912, -0.279867559671402, -0.14404632151126862, -0.6352634429931641, -0.3645237386226654, -1.450081706047058, 0.030625751242041588, 1.1846048831939697, -0.43184372782707214, 0.5193553566932678, -0.3528278172016144, -0.07611031085252762, 0.07180868834257126, -0.8227366805076599, -0.9701541066169739, -0.022825079038739204, -0.01077034417539835, -1.425296425819397, 0.1880830079317093, 0.019476519897580147, 0.0592879019677639, -0.8199933171272278, -0.21469449996948242, 0.1860731691122055, -0.03398359194397926, 0.33768415451049805, -0.17320694029331207, -0.06672418862581253, -0.1881418079137802, 0.23915712535381317, -0.4265511929988861, -0.04941403493285179, -0.03678864240646362, -0.31313589215278625, 0.5749696493148804, 0.08500445634126663, 0.05578398331999779, 0.9445993900299072, 1.1762183904647827, -0.1430114507675171, 0.04318409785628319, 0.0752975270152092, -0.7139453291893005, -0.049397293478250504, 0.010452068410813808, 0.019148441031575203, 0.1727527529001236, -0.09983796626329422, -0.05482769012451172, 0.09803973883390427, 0.8357649445533752, -0.005283345002681017, -0.08738099783658981, -0.2641088664531708, -0.6895580887794495, 0.021246938034892082, -0.17001748085021973, 0.03644352778792381, -0.18305839598178864, -0.008702635765075684, 0.12967969477176666, -0.02408241294324398, -0.11635779589414597, 0.06990348547697067, 0.12633539736270905, -0.12219249457120895, -0.0584324449300766, 0.11695026606321335, 0.07470298558473587, -0.0872102752327919, -0.30843886733055115, -0.15410329401493073, -0.2038726657629013, 0.024227606132626534, 0.18017373979091644, -0.2568338215351105, 0.006926498841494322, 0.04047929868102074, 0.012136484496295452, -0.030308542773127556, 0.019259138032794, -0.06206502392888069, -0.27501848340034485, 0.10280147939920425, -0.07536650449037552, 0.052135054022073746, -0.01565486006438732, -0.1294482946395874, 0.07265888899564743, -0.4992632567882538, -0.7153239846229553, -0.3008381724357605, -0.7850860953330994, 0.6334653496742249, 0.05800144374370575, -0.49046751856803894, -0.8305988311767578, -0.4608617126941681, 0.04393761232495308, 0.22179295122623444, -0.5865053534507751, -0.13636362552642822, -0.5470001101493835, -0.5791925191879272, -0.6413511633872986, -0.38739848136901855, -0.396541565656662, -0.45750048756599426, -0.33367112278938293, -0.4128057062625885, -0.3239857852458954, -0.35385724902153015, -0.7241008877754211, -0.2009136825799942, -0.4604071080684662, -0.35264942049980164, -0.5099231600761414, -0.4764479398727417, -0.5312796831130981, -0.38297751545906067, -0.22159002721309662, -0.5452238321304321, -0.6345254778862, -0.36824873089790344, -0.27445340156555176, -0.6021908521652222, -0.4200592041015625, -0.2582549750804901, -0.14687837660312653, -0.26412445306777954, -0.3481806814670563, -0.32049351930618286, -0.28638073801994324, -0.6443625092506409, -0.47429558634757996, -0.1563136875629425, -0.6452463865280151, -0.4260978400707245, -0.2590380609035492, -0.23030899465084076, -0.3611922264099121, -0.014308706857264042, -0.20260237157344818, -0.45644333958625793, -0.5109277963638306, -0.5141695737838745, -0.26253560185432434, -0.640471339225769, -0.8584118485450745, -0.8047400116920471, 0.4293060004711151, -0.2428983896970749, -0.3897547721862793, -0.5367211103439331, 0.349228173494339, -0.38601306080818176, -0.358572393655777, 0.4049825966358185, 0.31935933232307434, -0.6776899695396423, -0.47204717993736267, -0.025324931368231773, 0.05829058215022087, 0.04350939765572548, -0.46496960520744324, 