{"structure_edges": [[-1, 0, 1], [-1, 1, 1], [-1, 2, 1], [17, 19, 1], [17, 16, 1], [17, 8, 1], [-1, 17, 1], [5, 15, 1], [5, 11, 1], [7, 10, 1], [5, 7, 1], [-1, 5, 1], [4, 9, 1], [4, 14, 1], [12, 13, 1], [4, 12, 1], [-1, 4, 1], [6, 18, 1], [3, 6, 1], [-1, 3, 1]], "structure_weights": {"mu": [-3.0278339165527735, -0.78327779995088, -0.014701716317591049, -2.977455445291495, -2.6846470050761466, 0.0, 0.0, -2.9063913940115795, -1.2197159022508206, -1.2339428326007127, -1.0689521872587642, 1.1179342533633723, -1.7931257906547824, -3.017827689059385, 0.0, 0.0, -0.7918835164826685, -1.6548980136147096, -0.7512054499661346, -0.9717729298199638, 2.989869023934248, -0.3997342566191045, -2.8241514919559427, 0.0, 0.0, -0.23359302787269112, -1.6395183213237565, -0.4039637864879235, -1.6033849834985345, -0.37468140250883053, 0.3821293574555149, -2.982895519335321, 0.0, 0.0, 0.34139849103093994, -1.6942826912436266, 1.0572349669485537, -0.976502609216593, 2.868638940095183, 1.0625137203106065, -3.0179452280214294, 0.0, 0.0, 0.03023061486751104, -2.8962945322945743, 1.1413226189410786, -0.29562048824867837, 1.9619336345887428, 1.6744752976970139, -2.0810204482577213, 0.0, 0.0, 2.0488917770292954, -1.798531150761845, -0.1620631210965819, -1.416876115495853, -0.7578327238133158, -0.6459540987229485, -2.929038723989773, 0.0, 0.0, 0.44686775643290283, -1.1004332476883771, 0.18257536923516007, -0.5561214129603919, 3.0128578023641928, 0.6572229496110802, -3.006048131217633, 0.0, 0.0, -0.9586655181999013, 0.44033127552300094, -0.905913517738476, -1.2935430242007986, -0.1040587443239592, -1.2526518106993476, -2.918751488822361, 0.0, 0.0, 0.6931490362210422, -1.4607899502266273, 2.183598984542572, -0.8509910903835907, -1.4067200317806066, 1.6538160317513522, -2.9294428170246767, 0.0, 0.0, 1.6895581476143056, -2.295508457229438, -0.6655258022720973, -0.4722513295981924, 0.7918372315857702, -2.132663478025808, -3.073671241205269, 0.0, 0.0, -1.2831220800599281, -0.45954109146744343, 2.935707864368618, -0.8029106067762286, 0.6920497346977068, 0.11703051992130148, -0.8016131572768943, 0.0, 0.0, 1.4793559141015598, -0.32222349965457925, -0.052862845407534886, -1.1417092983099755, -2.5423099406055694, -0.38517746360298843, -2.9933025960433124, 0.0, 0.0, 0.0904720765163669, -1.3049067691773721, -0.4388113437611121, -0.08504245957359909, -0.011491644031084538, 0.6584612869020788, -2.8996531554266887, 0.0, 0.0, -0.9516964094491129, -0.9396479650041324, 1.2658402244166336, -0.8942187479976046, 2.879297851890191, 0.5719502590740541, -2.9946202633849173, 0.0, 0.0, 2.0108516597869857, -1.7093421590448503, -1.1170450700631651, -0.22892959070021376, 1.7711854597838008, 0.4334669387231902, -2.926336805411175, 0.0, 0.0, 0.4689713845624773, 0.1962247427480631, -0.06750692278342209, -1.3735362481614202, -0.576519278100905, -1.2604294482552227, -3.026508294765072, 0.0, 0.0, 0.8918493395134701, -0.6003798730762434, 0.08349282073095986, -0.43024240094957344, 0.8222189126529406, 0.733304914955697, -3.005194763687942, 0.0, 0.0, -0.862465195310271, -1.2062610238238347, -2.0991965381981563, -1.189420379032458, -0.8415934834450725, 0.6764772828479433, -2.953637235129047, 0.0, 0.0, 0.6688284605964088, 0.14023085839588387, -0.38958931545728726, -1.3419553367112396, -0.5176804053575113, -0.4811170198434982, -2.9200969623396547, 0.0, 0.0, 0.5221499377304759, -0.495185768261116], "sigma": [0.010000000077916958, 0.015246525110650904, 0.09183379387601433, 0.10000007316493728, 0.164369159096731, 0.1, 0.1, 0.10000005238241323, 0.01, 0.010113371938839953, 0.09290952223699163, 0.17377039490536875, 0.01, 0.10000008677580019, 0.1, 0.1, 0.03269269594017607, 0.01, 0.026677261068756918, 0.01, 0.23215847386050437, 0.032696193085330595, 0.08975368013132067, 0.1, 0.1, 0.03608966437404977, 0.0185986598402711, 0.010165896456718334, 0.011931072405472573, 0.027895793464509523, 0.01, 0.10000007536474205, 0.1, 0.1, 0.012750360204499055, 0.010654904700303591, 0.028015543019538847, 0.03652452139028236, 0.10000004257383481, 0.5732490581910983, 0.10000008640883479, 0.1, 0.1, 0.18018765943118237, 0.10000004989114547, 0.013166905582330055, 0.018605816302455256, 0.09491956846429263, 0.011455661132445356, 0.011413242415637825, 0.1, 0.1, 0.010723210166557803, 0.01, 0.017748570223886654, 0.024690020538248123, 0.01, 0.23439276232662276, 0.10000005858756401, 0.1, 0.1, 0.5021077557028585, 0.5830763087090526, 0.01, 0.01, 0.10000008500852009, 0.08422068106737325, 0.10000008255700969, 0.1, 0.1, 0.355616931167148, 0.10883571375657326, 0.03822752706863971, 0.016977097552465292, 0.01115645992120575, 0.011447362040884571, 0.10000005648861966, 0.1, 0.1, 0.23692018890964367, 0.02986015417506008, 0.030096526510990543, 0.027689628236001077, 0.14795687779544453, 0.014545804051147089, 0.10000005922559722, 0.1, 0.1, 0.019782217211493185, 0.022739915599818958, 0.01, 0.01459490820132259, 0.1389944808782576, 0.25807548280755205, 0.10000010776617493, 0.1, 0.1, 0.1913575232288999, 0.14330891262045511, 0.10000006040738883, 0.07652616739239387, 0.13257826535438474, 0.1803852922970411, 0.0573960674594271, 0.1, 0.1, 0.29317690881176933, 0.8473796525518559, 0.20621841721738896, 0.04865239779132776, 0.010000000000082582, 0.24394286703518556, 0.10000007983088999, 0.1, 0.1, 0.1645674446206129, 0.02674425557433706, 0.16746367752186228, 0.04803857948995027, 0.26019960776925377, 0.3479383336093735, 0.10000004979820276, 0.1, 0.1, 0.1641045191095005, 0.471043914107627, 0.02470010478684615, 0.03603227887649185, 0.10000004506672991, 0.338185701206267, 0.10000007709626134, 0.1, 0.1, 0.3527416881321856, 0.5374964229642676, 0.15154452228799467, 0.04748890274695951, 0.17720260559451806, 0.1995143762033291, 0.10000005843224993, 0.1, 0.1, 0.26487394428450056, 0.11485590434693005, 0.02147665264073051, 0.01, 0.010718959118299218, 0.4095015363694912, 0.100000089953935, 0.1, 0.1, 0.5568619558697607, 0.07386337540920161, 0.03510325307259209, 0.016587030057049278, 0.05889062685681169, 0.0175587466958161, 0.01000000002803303, 0.1, 0.1, 0.012301574914637096, 0.01, 0.029349417817981914, 0.01, 0.1719094872976232, 0.19344229284691156, 0.10000006595726185, 0.1, 0.1, 0.4579257096746734, 0.01, 0.04891494303700522, 0.020620063626093855, 0.01, 0.17313788817453155, 0.10000005525240285, 0.1, 0.1, 0.29785894537815777, 0.0691888482733365]}, "policy_weights": [0.2610117793083191, -0.22033046185970306, -0.11200987547636032, 0.1215742751955986, -1.0985900163650513, -3.723679542541504, -0.10102986544370651, 0.07182592153549194, 0.8098315596580505, 1.0237189531326294, 0.03486713767051697, 0.07701177150011063, -0.2388601303100586, -0.8004550933837891, -0.03129062056541443, 0.00022306105529423803, 0.0028836613055318594, 0.6955615878105164, -0.02862861566245556, -0.015545100905001163, 0.32444238662719727, -0.26157569885253906, 0.1079254075884819, 0.04468202218413353, -0.46435418725013733, 0.03246057406067848, 0.051241155713796616, 0.07980113476514816, -0.12810322642326355, 0.25884824991226196, -0.021505041047930717, -0.07764709740877151, 0.1227581575512886, 0.3174853026866913, 0.03123283199965954, 0.09283073991537094, 0.005156299564987421, 0.1323532909154892, 0.050361517816782, 0.009339549578726292, -0.27673250436782837, 0.11073113232851028, -0.026904789730906487, 0.007487892638891935, 0.5114775896072388, -0.26290231943130493, 0.14139841496944427, -0.17850519716739655, -0.243469700217247, -0.16129764914512634, -0.07285869121551514, 0.07391680032014847, -0.05620294436812401, -0.07044399529695511, 0.13867579400539398, 0.046492550522089005, 0.21833230555057526, -0.061221856623888016, -0.03065619058907032, -0.025494098663330078, -0.1830461472272873, 0.7733942866325378, -0.01292633917182684, 0.05572831258177757, 0.035959068685770035, -0.40184351801872253, 0.1539412885904312, 0.05244442820549011, 0.026652542874217033, 0.28511786460876465, -0.15550707280635834, 0.0494687594473362, -0.013485327363014221, 0.04343012347817421, -0.03791731968522072, -0.06903897970914841, -0.2351682335138321, -0.13492272794246674, 0.1310563087463379, -0.08644730597734451, -0.6018076539039612, 0.7248424887657166, -0.013559193350374699, 0.16749966144561768, 0.10839573293924332, -0.2963397800922394, 0.33757543563842773, -0.17565810680389404, 0.9053265452384949, 0.18778276443481445, 0.1532064825296402, 0.635170578956604, -2.150744676589966, 0.052998367697000504, -0.010546988807618618, -0.8723801970481873, 1.3406132459640503, 0.04413213953375816, 0.06555033475160599, -1.0747421979904175, -0.3107723891735077, 0.015726430341601372, 0.15704523026943207, -0.3575272560119629, 0.7320199012756348, 0.06557906419038773, -0.15948034822940826, -0.2875845432281494, -0.8250321745872498, 0.16767406463623047, -0.0852205827832222, 0.8954655528068542, 1.23110032081604, -0.1859579235315323, 0.14344869554042816, -0.020551053807139397, -0.056921977549791336, 0.15839578211307526, -0.11712943762540817, -0.05667507275938988, -0.7204517722129822, -0.022560372948646545, 0.11020410805940628, 0.4850449562072754, 0.10867094248533249, -0.011086375452578068, -0.07523691654205322, -0.21259428560733795, 0.3857932388782501, -0.22924162447452545, -0.15868495404720306, -0.16811500489711761, 0.4280690848827362, -0.015348642133176327, 0.06815701723098755, 0.31204754114151, -0.1969785839319229, 0.029009880498051643, 0.21513985097408295, 0.04558229818940163, 0.32988670468330383, 0.1929004192352295, -0.08004630357027054, 0.21655724942684174, -0.18480609357357025, 0.19293548166751862, -0.14927877485752106, 0.11093179136514664, 0.0997055396437645, 0.2517443001270294, 0.1841730922460556, -0.23306719958782196, -2.2364938259124756, -0.10265684872865677, 0.058460649102926254, 0.34212741255760193, 0.06124192476272583, 0.19597919285297394, 0.16207851469516754, 0.052635449916124344, 0.07142116129398346, 0.03962474688887596, 0.01777005009353161, -0.029262283816933632, 0.1026545837521553, 0.11264599114656448, -0.14325489103794098, 0.2866356670856476, 0.671869695186615, -0.1495102494955063, -0.055015236139297485, 0.16688311100006104, -0.059606436640024185, -0.8513672947883606, -0.5337494611740112, -0.9429683685302734, -0.8020901679992676, 1.0577352046966553, -0.34989121556282043, -1.6466503143310547, -0.21828563511371613, 0.47980037331581116, 0.46465158462524414, 2.8906688690185547, 0.1539851576089859, -0.15543974936008453, -0.24914099276065826, -0.023559318855404854, -0.035792168229818344, 0.020136820152401924, -0.09337974339723587, -0.5963484048843384, -0.18572723865509033, 0.20681273937225342, 0.2942073941230774, 1.535414695739746, -0.00110119569581002, -0.14374496042728424, 0.6059812307357788, -0.039929572492837906, 0.11025813966989517, 0.07052677124738693, 0.10326205939054489, 0.14869503676891327, 0.04747408255934715, -0.004266716074198484, -0.0025071525014936924, -0.22022056579589844, -0.03556371107697487, 0.02847430296242237, -0.06144892796874046, -0.20302557945251465, -0.11022893339395523, 0.01982983760535717, -0.2762882709503174, -0.1242399513721466, 0.012441419064998627, -0.14783965051174164, 0.15679813921451569, 0.13773538172245026, 0.17132045328617096, 0.15062402188777924, 0.22845561802387238, 0.13611873984336853, 0.027070878073573112, 0.044169191271066666, -0.005068812984973192, 0.4296446144580841, 0.007706799078732729, -0.18488158285617828, -0.008680670522153378, 0.04127732291817665, -0.040951911360025406, -0.03307625278830528, -0.1621655374765396, 0.15791037678718567, 0.008887567557394505, 0.16327856481075287, 0.07495623081922531, -0.3114350140094757, -0.010334237478673458, -0.05483889952301979, -0.6111921668052673, 0.9766404032707214, -0.1799270063638687, -0.0005341469659470022, 0.05001590773463249, 0.10746113210916519, -0.10118798166513443, -0.08308316022157669, -0.0578700490295887, 0.21084769070148468, -0.14017818868160248, -0.06319750100374222, -0.24114419519901276, 0.12542317807674408, -0.1066306009888649, -0.036341097205877304, -0.3871751129627228, -0.1644231379032135, -0.009189584292471409, 0.03395301476120949, -1.028506875038147, 0.037256717681884766, -0.2514633536338806, -0.1960626095533371, -0.5588998794555664, -1.173846960067749, -0.1580430120229721, 0.1498669534921646, -0.47266629338264465, -0.7995341420173645, -1.989438533782959, 0.596275806427002, -0.3216328024864197, -0.08839040249586105, 0.050038475543260574, 0.35456016659736633, 1.1054984331130981, -0.10990702360868454, -0.009487821720540524, 0.08021175116300583, -0.6297497153282166, 0.04661881551146507, -0.08568310737609863, 0.4860736131668091, 1.5468157529830933, -0.08804207295179367, 0.04761069640517235, 0.11661171168088913, 0.7312764525413513, 0.06577342748641968, -0.05461782589554787, 0.40162864327430725, 1.0949634313583374, 0.036244627088308334, 0.022367777302861214, -0.07410915195941925, 0.06716031581163406, -0.12138224393129349, 0.04052659869194031, -0.21114015579223633, -0.09101223200559616, 0.005947020370513201, 0.08780526369810104, 0.20219208300113678, 0.38251185417175293, 0.03373134508728981, 0.0507921539247036, 0.5231138467788696, 0.2197457104921341, -0.07767068594694138, -0.036923523992300034, 0.13537968695163727, -0.00900936033576727, 0.05643105134367943, 0.07081330567598343, 0.0747639462351799, 0.19618986546993256, 0.08972949534654617, 0.031134309247136116, 0.11637160181999207, -0.04634195193648338, -0.05829930678009987, 0.12099314481019974, 0.08105002343654633, -0.09577783197164536, 0.0662885382771492, 0.0004832651757169515, 0.13068625330924988, -0.07587271928787231, 0.008823157288134098, -0.13200260698795319, -0.45041707158088684, 0.3113362193107605, -0.0785440132021904, -0.03683113679289818, -0.10550379008054733, -0.11812806874513626, -0.08749652653932571, 0.054068148136138916, -0.2181558609008789, -0.18969927728176117, -0.06349891424179077, 0.052328888326883316, -0.07518266141414642, 0.17619942128658295, 0.11586464196443558, 0.06590867787599564, -0.08889900892972946, -0.2334938645362854, -0.01732274703681469, -0.02205093391239643, -0.3642434775829315, 0.32137537002563477, -0.11960362643003464, -0.3076046109199524, -0.33969882130622864, -0.1682051569223404, -0.7991619110107422, -0.9157469868659973, 1.9175124168395996, -0.08604121208190918, -0.29396796226501465, 0.7808871865272522, -0.4467256963253021, -0.037265900522470474, -0.094815693795681, 1.0963088274002075, 3.1866037845611572, -0.011228769086301327, -0.022656021639704704, 0.44383856654167175, 0.7428134083747864, 0.16598378121852875, 0.11034206300973892, -0.5201864838600159, -0.40205857157707214, 0.1273728758096695, -0.2506978511810303, 0.2581155002117157, 0.3022415041923523, -0.1862940937280655, 0.05179101228713989, -1.0612514019012451, -0.2032167762517929, 0.16145958006381989, 0.16414214670658112, 0.08991027623414993, -0.04516233131289482, -0.03199523314833641, -0.12838532030582428, -0.3401243984699249, 0.16091087460517883, 0.05214915797114372, -0.008824632503092289, 0.17410163581371307, -0.5127047300338745, -0.032581329345703125, 0.006018329877406359, -0.002912237076088786, -0.4244641959667206, -0.11162269115447998, -0.12419868260622025, -0.30116966366767883, 0.2086002677679062, 0.03368157520890236, -0.07618849724531174, -0.6824044585227966, -0.574266791343689, -0.03569639101624489, -0.040838658809661865, 0.057551149278879166, -0.1602613627910614, -0.20367462933063507, -0.16983188688755035, -0.11028055101633072, 0.2955334484577179, -0.11721957474946976, -0.03979838266968727, -0.25657615065574646, -0.019015293568372726, -0.013745962642133236, -0.09466540068387985, -0.5497731566429138, -0.22655321657657623, 0.11250508576631546, 0.0048759873025119305, -0.11734744161367416, 0.3851461708545685, -0.1875898689031601, 0.16482101380825043, -0.25412437319755554, 0.3118949830532074, 0.08895652741193771, 0.029571739956736565, 0.05672282353043556, 0.4004025161266327, -0.07479894906282425, -0.18269143998622894, -0.09045960754156113, 0.1704484224319458, 0.005354725290089846, 0.11654876917600632, -0.46207812428474426, 1.034638524055481, -0.03766405209898949, -0.5482500791549683, -0.6637452840805054, 0.04350292682647705, -0.07980715483427048, 0.6496829986572266, 0.06276620924472809, 0.7125100493431091, -0.3790602684020996, 0.764155387878418, 0.6368016600608826, 0.10032617300748825, 0.14343570172786713, -0.5927375555038452, 1.8748854398727417, -0.09612464159727097, 0.023824915289878845, -0.6093634366989136, -1.920395016670227, -0.069400854408741, 0.01848040707409382, -0.45527970790863037, -1.5797654390335083, 0.12156462669372559, -0.08610343188047409, -0.01055991742759943, -0.760464608669281, 0.25580474734306335, 0.08166276663541794, 0.7465726733207703, 1.027065396308899, 0.04984932765364647, -0.034590985625982285, 0.1549128144979477, 0.012407558970153332, -0.19916830956935883, -0.10001520067453384, -0.4241442382335663, -0.10876583307981491, -0.046366576105356216, -0.0500456728041172, -0.21998398005962372, -0.322298139333725, -0.29788824915885925, 0.09549690037965775, -0.016827452927827835, -0.5326899290084839, 0.09693937748670578, -0.04092514514923096, -0.214737668633461, 0.64014732837677, 0.1111065074801445, -0.05948937311768532, -0.34304043650627136, -0.04165015369653702, 0.05634940043091774, -0.008568204939365387, -0.05828547850251198, 0.016431916505098343, 0.15739382803440094, -0.06502766162157059, -0.10121440142393112, -0.06205832585692406, -0.11519431322813034, 0.05931263789534569, -0.054333727806806564, 0.197175994515419, 0.06684135645627975, 0.09121911972761154, -0.3882538974285126, -0.42502930760383606, -0.11105190962553024, 0.016045020893216133, -0.037507086992263794, -0.014257346279919147, 0.11577450484037399, -0.23092888295650482, -0.1055377647280693, -0.011531325988471508, -0.1125805452466011, -0.10954233258962631, -0.209580659866333, 0.15948767960071564, 0.05693495646119118, -0.030820699408650398, -0.3981854021549225, -0.1860172301530838, 0.06166971102356911, -0.03813856840133667, -0.1788901835680008, 0.7830962538719177, -0.4966316521167755, -0.2387099415063858, -0.5567141771316528, -0.2865596115589142, 0.4070787727832794, 0.2320660799741745, 0.723720133304596, 0.7298640608787537, 0.22998197376728058, 1.6194859743118286, 0.5391656160354614, -0.19693873822689056, -0.14348290860652924, -0.6277579665184021, -0.12025202065706253, -0.07111053913831711, -0.03560728207230568, -0.5527419447898865, -0.08319509774446487, 0.07629251480102539, -0.08615345507860184, 0.06578017771244049, -0.4748649299144745, 0.05588448420166969, -0.08398395776748657, -0.46993398666381836, 0.3664593994617462, -0.03819740191102028, -0.015611172653734684, 0.6696906685829163, 0.609300971031189, -0.01060935016721487, 0.040027085691690445, -0.18690495193004608, 0.023817090317606926, -0.14289866387844086, -0.012685532681643963, 0.42366108298301697, 0.49245503544807434, 0.12810491025447845, -0.034862369298934937, 0.198974147439003, -0.10557261854410172, 0.1303161382675171, 0.044571492820978165, 0.13309703767299652, -0.03489238768815994, 0.1036304235458374, -0.1954285055398941, 0.2730315029621124, 0.09953952580690384, 0.034518178552389145, -0.01801602728664875, -0.07035267353057861, 0.4717869460582733, 0.13300345838069916, 0.03648751601576805, 0.12257981300354004, -0.17239509522914886, -0.03836387023329735, 0.04910954460501671, 0.12762776017189026, 0.015758100897073746, 0.1909366399049759, 0.11829067021608353, 0.05492642521858215, 0.29602524638175964, -0.1653514951467514, -0.050416916608810425, -0.14267121255397797, 0.10444808751344681, 0.2539685070514679, -0.009412228129804134, 0.11307669430971146, -0.6392747759819031, -0.013631374575197697, -0.06599128991365433, 0.5819434523582458, 0.9321479201316833, -0.025461336597800255, -0.03224736824631691, 0.05421263352036476, -0.18839608132839203, -0.026952087879180908, -0.095116026699543, 0.15478621423244476, -0.18902432918548584, -0.0206740815192461, -0.09821337461471558, -0.7361851334571838, 0.47040972113609314, -0.6114031076431274, -0.7458577156066895, -0.7477532029151917, -0.30681756138801575, -1.3282899856567383, 0.5667551159858704, 1.9110177755355835, 1.1731631755828857, -1.1769741773605347, 1.4397276639938354, -0.0823642686009407, 0.021653516218066216, 0.10454896837472916, 0.23632977902889252, 0.5370301604270935, -0.0030749214347451925, 0.11514627933502197, 0.02690848894417286, -1.1936851739883423, -0.02433796226978302, 0.08104722946882248, -0.15674176812171936, 0.1572827845811844, -0.09671717137098312, 0.03763579949736595, -0.32293224334716797, -0.5799030065536499, -0.00795112643390894, -0.15224049985408783, -0.35769203305244446, -1.3199727535247803, 0.11328340321779251, 0.12303899973630905, -0.30627909302711487, -0.00905237253755331, -0.05317944660782814, 0.1851034015417099, -0.12276706099510193, -0.000500220397952944, -0.0017006342532113194, 0.0407404862344265, 0.13899680972099304, 0.3120260238647461, 0.049662381410598755, -0.0043689231388270855, 0.36713436245918274, -0.19124792516231537, -0.08650445193052292, 0.1597660928964615, -0.06900846213102341, 0.09271051734685898, -0.15529464185237885, -0.05488743260502815, 0.5418396592140198, 0.4907711446285248, -0.04891562834382057, 0.00773669732734561, 0.014284064061939716, -0.004009373020380735, -0.06122398376464844, 0.10999008268117905, -0.08951439708471298, 0.08394718915224075, 0.049705151468515396, -0.02568936161696911, 0.2391989380121231, 0.18502581119537354, -0.12020159512758255, -0.013792349956929684, -0.43611523509025574, -0.22586186230182648, 0.09869352728128433, -0.08400779217481613, 0.05233462527394295, 0.10874628275632858, 0.02954411506652832, -0.048555273562669754, 0.3250064253807068, 0.3322155773639679, -0.09943277388811111, -0.16592930257320404, 0.10714495927095413, -0.0685705617070198, 0.01658010296523571, 0.05725157633423805, 0.7622219920158386, 0.4835658371448517, -0.15875184535980225, -0.09927553683519363, -0.6397639513015747, 1.2117153406143188, -1.0583008527755737, -0.09247422218322754, -0.8851187825202942, -0.7906692624092102, -0.37587812542915344, 0.3204585015773773, 1.1037557125091553, -0.08421146124601364, 0.821230947971344, 0.7043562531471252, -0.6088572144508362, 0.020825950428843498, -0.06322937458753586, 0.022156478837132454, -0.3598971664905548, -0.05089486017823219, -0.27212807536125183, -0.23865102231502533, -1.018535852432251, -0.06319583207368851, -0.10569571703672409, 0.4216597080230713, -1.2717257738113403, 0.09996425360441208, -0.028324784711003304, -0.38958731293678284, 1.1142417192459106, 0.0939246341586113, -0.06119858846068382, 0.8331637382507324, -0.8210057616233826, 0.1929701715707779, 0.09250307828187943, -0.2463103085756302, 0.023368148133158684, -0.07900666445493698, -0.0842185690999031, 0.09499955922365189, 0.5058483481407166, -0.0544787235558033, -0.21634651720523834, 0.2897486388683319, 0.38545194268226624, 0.10654672235250473, -0.034522686153650284, -0.01590580865740776, -0.4781060516834259, -0.1742309182882309, -0.04848713055253029, -0.13299356400966644, 0.15386104583740234, -0.07740271836519241, 0.024795087054371834, 0.43283286690711975, 0.433429092168808, -0.16927315294742584, 0.02253943867981434, -0.009161547757685184, -0.20517562329769135, -0.05894613638520241, -0.08373255282640457, -0.18533118069171906, -0.11822284013032913, 0.024563757702708244, 0.08836574107408524, -0.2664801776409149, -0.1916736364364624, -0.058293577283620834, -0.03453734889626503, -0.10636936873197556, -1.4318476915359497, -0.08092664927244186, 0.10275522619485855, 0.47754526138305664, 0.4836796522140503, -0.16703177988529205, -0.15054430067539215, 1.3545836210250854, -0.21783636510372162, 0.07137929648160934, 0.025550397112965584, -0.1098618134856224, 0.1373652070760727, 0.06355762481689453, -0.11739934235811234, 0.943016767501831, 0.11586781591176987, -0.008635184727609158, -0.05761224403977394, -0.6188187003135681, 0.013045980595052242, -0.6104397177696228, -0.4907369911670685, -1.1630035638809204, -0.39587244391441345, -0.9368571639060974, 0.07332951575517654, 1.7404909133911133, 0.5569685697555542, 0.38144588470458984, 0.5989387631416321, -1.189083218574524, -0.1172260120511055, -0.015744803473353386, 0.5272374749183655, -1.0032950639724731, -0.10552114248275757, -0.08691609650850296, -0.11657333374023438, -1.5368582010269165, -0.05510539188981056, -0.0075725470669567585, 0.3712552487850189, -0.38142845034599304, 0.008551456034183502, -0.07722001522779465, 0.8985491394996643, -0.10143076628446579, -0.00937425997108221, 0.009728297591209412, -0.3934016227722168, -0.9033393263816833, 0.13772644102573395, -0.0340004600584507, -0.07188057154417038, -0.036468930542469025, 0.008471771143376827, 0.031653642654418945, -0.20867420732975006, -0.25541117787361145, 0.0404333733022213, -0.15032337605953217, -0.006414510775357485, -0.07187176495790482, 0.01735392026603222, -0.12557770311832428, 0.45494696497917175, -0.37759634852409363, 0.04150768741965294, -0.014221222139894962, -0.07732968777418137, 0.23154407739639282, -0.32414838671684265, -0.004468776285648346, -0.9126376509666443, -0.26107048988342285, 0.11415504664182663, 0.043224576860666275, 0.05825144425034523, 0.17267835140228271, -0.05962228402495384, 0.002483081305399537, -0.20433638989925385, -0.09384153038263321, 0.0765620544552803, -0.17775119841098785, 0.2729295790195465, -0.12885688245296478, -0.08522545546293259, -0.11321187764406204, -0.06873191148042679, 0.9973573088645935, -0.04251759871840477, -0.014094485901296139, -0.40548136830329895, -0.549858033657074, -0.14888201653957367, -0.1120070144534111, 0.09187468141317368, -0.3689975440502167, -0.06677025556564331, -0.19988034665584564, 0.0721130296587944, -0.18810825049877167, -0.003238140372559428, -0.030215950682759285, 0.06291335076093674, -0.6318211555480957, 0.11526132375001907, 0.15012703835964203, -0.27735164761543274, -0.00485058780759573, -0.5457280874252319, -0.12751784920692444, -0.16392174363136292, -1.8064765930175781, 1.0437735319137573, 1.3241959810256958, -1.4507373571395874, -0.5404362678527832, -0.9371271729469299, 0.24915291368961334, -1.0376551151275635, 0.005142714828252792, 0.07630287855863571, 0.5420713424682617, 1.2867072820663452, -0.18305478990077972, -0.036438826471567154, 0.283950537443161, -0.35277533531188965, -0.03567993640899658, -0.09777151793241501, -0.9859514832496643, 0.2604964077472687, 0.056746359914541245, 0.007422358263283968, -0.47748124599456787, -0.0069487267173826694, -0.030360130593180656, -0.1527778059244156, -0.34957456588745117, -0.23783089220523834, -0.12253021448850632, -0.11806630343198776, 0.08014356344938278, 0.19379250705242157, 0.06754957884550095, -0.026387037709355354, -0.3218672573566437, 0.013574875891208649, 0.06957293301820755, 0.13772164285182953, -0.233229860663414, -0.20294402539730072, -0.003280788892880082, -0.019314320757985115, 0.1931692361831665, -0.013845468871295452, 0.03434637561440468, 0.19814260303974152, -0.01731412298977375, 0.11394070833921432, 0.006791815627366304, 0.056489888578653336, 0.07534422725439072, 0.8402678370475769, 0.04067626968026161, -0.0490499772131443, -0.012816295027732849, -0.13622654974460602, 0.16994322836399078, -0.03393864259123802, -0.20190732181072235, -0.11634314805269241, 0.1554257869720459, -0.01724475808441639, -0.24255888164043427, 0.1570739448070526, -0.03402212634682655, -0.04967969283461571, -0.2727338671684265, 1.9871602058410645, 0.11464548856019974, 0.015507937408983707, -0.1640452891588211, 0.25147202610969543, 0.0745050236582756, 0.11756075173616409, -0.5394343733787537, 0.8285767436027527, -0.02380754053592682, 0.023527206853032112, -0.08334702998399734, -0.035763949155807495, 0.058084066957235336, -0.08879495412111282, -0.20794032514095306, -0.6297557950019836, 0.07627075165510178, 0.11989950388669968, -1.0101442337036133, 1.0633924007415771, -0.2551376223564148, -0.18320636451244354, -0.8347933888435364, -1.0195809602737427, 0.4066274166107178, 0.614621102809906, 0.0403963066637516, -0.125299334526062, 1.1226588487625122, 1.051771879196167, 1.2819613218307495, -0.06869077682495117, -0.070377878844738, 0.016689283773303032, 0.8373002409934998, -0.06744372844696045, 0.11318611353635788, -1.1052616834640503, -0.5216479897499084, 0.09862906485795975, 0.17637299001216888, 0.6860646605491638, -0.27213266491889954, -0.1448742002248764, -0.013203085400164127, -0.22688601911067963, 0.7034510970115662, 0.0023748523090034723, -0.08182109147310257, -0.4081037938594818, 0.025457987561821938, 0.03270206227898598, 0.12810255587100983, -0.25471067428588867, -0.05805296078324318, 0.10673590749502182, -0.16713275015354156, 0.09904355555772781, 0.2414688915014267, 0.15726244449615479, -0.10657185316085815, 0.1836913377046585, 0.12254369258880615, 0.25931882858276367, -0.022409571334719658, 0.5693779587745667, 0.3046846389770508, -0.22808478772640228, -0.13813970983028412, -0.06911934912204742, -0.4289814531803131, -0.20377804338932037, -0.031115682795643806, -0.10752009600400925, 0.5245069265365601, 0.01224543061107397, 0.09818392246961594, -0.12133276462554932, 0.014589522033929825, 0.053027454763650894, -0.11395823210477829, -0.019930554553866386, 0.2630608379840851, -0.006205924320966005, 0.1118302270770073, -0.19208185374736786, -0.18391315639019012, 0.1683821827173233, -0.008046292699873447, -0.5957140326499939, 2.1627197265625, -0.08637439459562302, -0.054320868104696274, 0.35706472396850586, -0.3481188118457794, 0.07295221835374832, -0.04086875542998314, 0.8881043791770935, 1.127086877822876, -0.18820132315158844, -0.08744948357343674, -0.3409378230571747, 0.20201294124126434, -0.04277009144425392, 0.039061155170202255, 0.49414241313934326, 0.1993803232908249, 0.14674602448940277, 0.08628679066896439, -1.2234135866165161, -0.1082959771156311, -0.11282583326101303, -0.8665981888771057, -1.0599299669265747, -0.021455960348248482, 1.047729730606079, -1.500750184059143, -0.21827514469623566, -0.5700234174728394, 1.0759638547897339, 0.07193667441606522, -0.8305791020393372, -0.05712210759520531, -0.03580251708626747, 0.5666967630386353, 2.2641403675079346, 0.0875191017985344, -0.04045742750167847, -0.10083018988370895, 0.08100055903196335, 0.19922290742397308, -0.031249048188328743, 0.7679552435874939, 1.8107205629348755, 0.13755618035793304, 0.01226320955902338, -0.06933166831731796, -1.5390968322753906, -0.06935817003250122, -0.007557443808764219, -0.332793265581131, -0.47393134236335754, 0.09931129962205887, 0.11112772673368454, 0.0985250398516655, -0.32544782757759094, 0.00958242267370224, 0.11892246454954147, -0.4230087697505951, -0.09147671610116959, 0.043086711317300797, 0.06623201817274094, -0.6034302711486816, 0.24265243113040924, 0.1464918702840805, -0.09045714884996414, 0.12691965699195862, -0.07624877244234085, -0.1052548885345459, 0.1280643790960312, -0.3480038344860077, 0.19894899427890778, -0.09971440583467484, 0.010942681692540646, -0.2766396403312683, 0.031095296144485474, -0.21218760311603546, -0.1326000690460205, 0.10851120203733444, 0.17261867225170135, 0.011813230812549591, 0.008256250061094761, 0.029258280992507935, 0.021894259378314018, -0.10309409350156784, 0.020286427810788155, 0.03257149085402489, -0.1548253297805786, 0.09347396343946457, 0.12937377393245697, -0.5529007315635681, 0.16893242299556732, 0.1234201118350029, 0.2110968381166458, -0.240616574883461, 0.010664002038538456, 0.006363064516335726, -0.031425174325704575, -0.38001009821891785, 0.4851970374584198, 0.12697027623653412, -0.039191070944070816, -0.2767045497894287, -0.140427365899086, 0.04130008816719055, 0.007841982878744602, -0.2174248844385147, -0.13238736987113953, -0.04793975129723549, -0.06809484213590622, -0.6672911643981934, -0.141678586602211, -0.8425095677375793, -0.44611403346061707, -0.9823799729347229, -0.383193701505661, -0.04760682210326195, 0.7281346917152405, 1.0555956363677979, 0.18207873404026031, 0.4582843780517578, 0.4272697865962982, -1.1607738733291626, 0.10878551751375198, -0.010360299609601498, -1.1380521059036255, -3.0338518619537354, -0.04685330390930176, 0.05746680125594139, -0.07605796307325363, 0.7934131026268005, 0.00977137591689825, -0.033359285444021225, 0.1399678885936737, -0.5013940930366516, 0.03256693109869957, 0.014320134185254574, -0.6892079710960388, -0.7444095015525818, -0.07117145508527756, 0.13252712786197662, 0.3995217978954315, 0.057678475975990295, -0.14590583741664886, 0.13757836818695068, -0.1978423148393631, 0.12577925622463226, -0.07479602843523026, -0.1002955511212349, -0.048100683838129044, 0.034959979355335236, 0.04137193784117699, 0.1456686407327652, 0.24602602422237396, -0.04460418224334717, 0.16364695131778717, -0.10401583462953568, -0.031132271513342857, -0.2501283586025238, -0.017734887078404427, -0.0015266555128619075, -0.3473179042339325, -0.08188069611787796, 0.02068251185119152, 0.09817563742399216, 0.5970478653907776, 0.49363815784454346, -0.16491569578647614, 0.06750357896089554, 0.09921300411224365, 0.12340652942657471, -0.05424826964735985, 0.03500226512551308, -0.11621412634849548, 0.14962539076805115, -0.08931045979261398, -0.040445420891046524, 0.23065882921218872, 0.023160604760050774, 0.14069293439388275, -0.0442655123770237, -0.3895849883556366, 0.44929471611976624, -0.10241042822599411, -0.006269394885748625, 0.14412102103233337, 0.3449583351612091, 0.04470222815871239, -0.1463235765695572, 0.6216499209403992, -0.013288835994899273, 0.057544413954019547, 0.05425209179520607, -0.0951303169131279, 0.22621828317642212, 0.023421308025717735, -0.05700397863984108, 0.26692599058151245, -0.35242369771003723, -0.014617742039263248, 0.0008837691857479513, -0.2804715633392334, 0.4615935981273651, -0.29915496706962585, -0.837770402431488, -0.7273684144020081, -0.14182236790657043, 0.2732296288013458, -1.1133548021316528, -0.7942824363708496, -0.3200191855430603, 0.9506130218505859, 1.0674630403518677, 0.2812206447124481, -0.007133484352380037, -0.02082495577633381, 0.043746184557676315, 0.3015846610069275, 0.036157965660095215, -0.029286207631230354, 0.09991469234228134, 0.5861005187034607, -0.08512835949659348, -0.032888296991586685, -1.2376726865768433, -0.9729834198951721, -0.07744825631380081, 0.1578352302312851, -0.28898411989212036, -0.8187376856803894, 0.15290497243404388, -0.032802581787109375, 0.4128827750682831, 1.0179730653762817, 0.07267718762159348, 0.022763481363654137, -0.40000441670417786, -0.17988549172878265, 0.01585678569972515, 0.02361549623310566, 0.10479315370321274, -0.13841333985328674, 0.1494779735803604, -0.0024988094810396433, 0.6580811142921448, 0.4229336082935333, -0.1397320181131363, -0.0769110843539238, 0.1499018520116806, -0.055182475596666336, -0.23906992375850677, 0.04082822427153587, 0.5895823240280151, -0.029406609013676643, -0.01840054802596569, 0.01026295218616724, 0.8891846537590027, 0.12909957766532898, -0.122726209461689, -0.040318697690963745, 0.23549602925777435, -0.07622967660427094, 0.08661692589521408, -0.0194022785872221, -0.24575065076351166, -0.021379083395004272, -0.061771687120199203, -0.020465178415179253, 0.22145497798919678, 0.1472017616033554, -0.039242297410964966, -0.07674026489257812, -0.4734964668750763, 0.025750217959284782, 0.16251827776432037, -0.02096649818122387, -0.05254668369889259, -0.09707679599523544, 0.10663978010416031, -0.06027478352189064, 0.7112875580787659, 0.19126857817173004, -0.03907480463385582, -0.038454439491033554, -0.021436290815472603, 0.16639842092990875, 0.1691199690103531, 0.07920139282941818, 0.6754570603370667, 0.008066361770033836, 0.08643073588609695, 0.2534187138080597, 0.23038893938064575, 1.4692367315292358, -0.4417558014392853, -2.053368091583252, 0.30494168400764465, -0.4139390289783478, -1.48599374294281, -0.5468207001686096, -1.9382786750793457, 0.9581725597381592, -0.07208991795778275, 0.44209781289100647, -0.4388136863708496, -0.016196860000491142, -0.0778377577662468, -0.060301121324300766, -1.4310293197631836, -0.141569122672081, 0.17366303503513336, -0.4636441469192505, -0.6593101620674133, 0.11726868897676468, -0.021090475842356682, -0.3887147903442383, -0.7440001368522644, -0.051936596632003784, 0.047758836299180984, 1.160980463027954, 0.0419498085975647, -0.042949140071868896, -0.004871372599154711, -0.8450701832771301, -1.433003306388855, -0.004038159269839525, 0.02513122372329235, -0.1168811023235321, 0.324344664812088, -0.043817102909088135, -0.07988745719194412, -0.15978460013866425, 0.754641592502594, 0.1542212814092636, 0.08389674872159958, -0.24586765468120575, 0.19396807253360748, -0.14647819101810455, -0.047181129455566406, -0.1560869663953781, -0.05085063353180885, -0.17231382429599762, -0.028615204617381096, -0.08274219185113907, -0.28873035311698914, -0.07036226987838745, -0.05114622786641121, -0.771962583065033, -0.8898680806159973, 0.03407416120171547, 0.07650161534547806, 0.1266150176525116, 0.1467486470937729, -0.01607385091483593, 0.04324302077293396, -0.11775576323270798, -0.14164958894252777, 0.051180656999349594, -0.017359478399157524, 0.16755138337612152, 0.6790685057640076, -0.2089570313692093, -0.17097578942775726, -0.2723497450351715, -0.7011094689369202, -0.003037605667486787, -0.06340908259153366, -0.22501403093338013, 0.6401925086975098, 0.01365473959594965, 0.04066360369324684, -0.41143134236335754, 0.23064206540584564, 0.2605307400226593, 0.08472888916730881, -0.042581211775541306, 0.003160659223794937, 0.06325513869524002, 0.07607489079236984, -0.2971844971179962, 0.4177605211734772, -0.08106838911771774, -0.037995364516973495, -0.5485681295394897, -0.5418838858604431, -1.2641448974609375, 0.18698084354400635, -0.6239207983016968, -1.412876009941101, 1.6708005666732788, 0.04423990473151207, -0.04645675793290138, -0.7401455044746399, -0.7878831028938293, 0.42315220832824707, 1.5924406051635742, -0.009721650741994381, 0.11971903592348099, -0.2140379101037979, -1.5882691144943237, 0.04130852594971657, 0.16372333467006683, 0.6222866773605347, 0.80845707654953, -0.059925492852926254, -0.007702223490923643, 0.0019670205656439066, -1.8192251920700073, -0.19035299122333527, -0.0005050330073572695, -0.1211458370089531, -1.2896651029586792, -0.07413864880800247, 0.05448170378804207, 0.2671827971935272, -0.07125354558229446, -0.06578058749437332, 0.15726135671138763, -0.19535697996616364, 0.37291231751441956, -0.041626427322626114, 0.1370248645544052, -0.3047599494457245, 0.059603992849588394, -0.1869213730096817, 0.003691621357575059, -0.17025397717952728, -0.46483227610588074, 0.08828186243772507, 0.06536292284727097, 0.1450357586145401, -0.2598784565925598, 0.00910241063684225, 0.037648025900125504, -0.04863102361559868, -0.0017252042889595032, -0.10997732728719711, 0.06770651787519455, -0.3840201795101166, -1.2544610500335693, -0.02756415866315365, -0.02979552559554577, 0.2646600902080536, -0.016465727239847183, -0.019099516794085503, -0.14100433886051178, -0.09249115735292435, -0.2560810446739197, 0.08183717727661133, 0.03864011541008949, 0.09883899241685867, 0.13580594956874847, 0.15414023399353027, -0.054581183940172195, -0.16728733479976654, -0.34308454394340515, -0.16516266763210297, -0.03714781627058983, 0.206673264503479, -0.06754451245069504, 0.11805523186922073, 0.21334974467754364, -0.27976176142692566, 0.17509329319000244, 0.13011611998081207, 0.006731211673468351, -0.08891048282384872, 0.07973287999629974, 0.005991071928292513, -0.10566719621419907, 0.29279187321662903, 0.03687828779220581, -0.028506668284535408, -0.0464060939848423, -0.3547055423259735, 0.4526456296443939, 0.3348808288574219, -0.48431646823883057, 0.013277367688715458, -0.8724161982536316, -0.7077174782752991, 1.2961052656173706, 0.6705241799354553, -0.851350724697113, 0.14622196555137634, 0.6420841813087463, -0.561742901802063, -0.016796065494418144, 0.11693810671567917, -0.32243040204048157, 0.5635634660720825, 0.08752978593111038, -0.06001550331711769, -0.04543301463127136, 0.5920938849449158, -0.07759963721036911, 0.1125718280673027, 0.6645017862319946, 1.0162793397903442, -0.01589830219745636, -0.015185819007456303, -0.10664092749357224, -0.40376925468444824, -0.03172164782881737, -0.028383703902363777, 0.9685866236686707, 0.4294154644012451, 0.09254641085863113, 0.11710036545991898, 0.14452123641967773, -0.1738658994436264, -0.1289069503545761, -0.05699080601334572, 0.09245062619447708, -0.32590702176094055, 0.09531134366989136, 0.009657458402216434, 0.08018087595701218, 0.04449781775474548, -0.04627200961112976, -0.06401295214891434, 0.33060625195503235, 0.33458825945854187, 0.014548183418810368, 0.06521088629961014, -0.058936480432748795, 0.31344908475875854, 0.05295063927769661, -0.18791399896144867, -0.6031221747398376, 0.2449163794517517, -0.07589703053236008, -0.23233984410762787, -0.29021769762039185, -0.08231531828641891, 0.013051189482212067, 0.017172707244753838, -0.3241940438747406, -0.11368986964225769, -0.06540578603744507, 0.14030112326145172, -0.11906265467405319, -0.5883539915084839, 0.0685994029045105, -0.20642401278018951, -0.4566551744937897, -0.2022598534822464, 0.12600289285182953, 0.07557707279920578, 0.8752104640007019, 0.5156238675117493, -0.07815677672624588, 0.012371166609227657, 0.1180882528424263, 0.6135048866271973, -0.015630796551704407, 0.018014563247561455, 0.11547426134347916, -0.06088344380259514, 0.13507018983364105, -0.03158664330840111, 0.0624627023935318, 0.910224974155426, 0.048859357833862305, 0.024745849892497063, 0.2905661463737488, 1.6492185592651367, -0.7394497990608215, -0.9777784943580627, -0.45131734013557434, -2.1711313724517822, -0.193464994430542, 0.3223998248577118, -0.20963256061077118, -0.5034880042076111, -0.5464939475059509, 0.7755452990531921, 0.10385974496603012, -0.09019274264574051, 0.05143028125166893, -0.7372706532478333, -0.9995602965354919, -0.17148806154727936, -0.1583385318517685, 0.4161100387573242, 0.03772410750389099, 0.026323048397898674, 0.05626409873366356, -0.03367031365633011, 0.08133415877819061, -0.1468270868062973, -0.3175030052661896, 0.11419674009084702, -0.28215473890304565, 0.06864231079816818, 0.0015984439523890615, 1.0219829082489014, 1.2125580310821533, 0.030687006190419197, -0.15689480304718018, -0.16748733818531036, 0.09288346022367477, -0.016235409304499626, -0.06955147534608841, -0.17407239973545074, -0.2903701663017273, -0.0613555945456028, -0.05627649649977684, -0.02659437246620655, -0.7227657437324524, 0.004595537204295397, -0.01637631468474865, 0.0735969990491867, 0.29007962346076965, -0.02828165888786316, 0.0530448853969574, -0.6423555016517639, -0.40234389901161194, 0.05397183075547218, -0.09116362780332565, 0.5996884107589722, 0.22242586314678192, -0.07746874541044235, -0.015817761421203613, -0.02848438359797001, -0.01747983507812023, -0.060794051736593246, -0.10559912770986557, 0.020384514704346657, -0.06166195869445801, -0.06554866582155228, -0.028486790135502815, 0.23461200296878815, 0.4722839891910553, -0.12412870675325394, 0.1708761304616928, -0.6461629271507263, -1.3635188341140747, -0.07402003556489944, -0.13206113874912262, -0.5517781972885132, -0.004193469882011414, 0.023026734590530396, -0.1666739135980606, -0.21938134729862213, 0.34124019742012024, 0.06556594371795654, -0.16019009053707123, -0.04827463626861572, -0.008921867236495018, -0.003095779800787568, -0.07055496424436569, -0.04119002819061279, -0.6222833395004272, 0.1287604570388794, -0.06789892166852951, -1.0865401029586792, 1.2739437818527222, -0.5590482354164124, -0.28435251116752625, -0.39978840947151184, -0.27089980244636536, -1.3048440217971802, -1.4071186780929565, 0.6423468589782715, 0.8515673279762268, 1.091166615486145, 0.2775235176086426, -0.4371091425418854, 0.09089911729097366, 0.06331849843263626, -0.07220805436372757, -0.46560144424438477, 0.0679125115275383, -0.042190227657556534, -0.49991416931152344, 0.4676157236099243, 0.26744702458381653, -0.1448131948709488, 0.702928364276886, 0.048219356685876846, -0.21865485608577728, 0.10449372977018356, -0.3972730338573456, 0.24342776834964752, 0.09011440724134445, 0.05373571440577507, 0.5236304998397827, 2.2154507637023926, -0.08334123343229294, -0.0818680003285408, 0.026910779997706413, -0.19654534757137299, -0.05592268332839012, 0.014849320985376835, 0.003368668258190155, 0.4327278137207031, 0.10451213270425797, -0.002495661610737443, -0.5114003419876099, 0.3517615497112274, 0.008209005929529667, 0.028608767315745354, 0.041328784078359604, -0.008087093010544777, -0.026682129129767418, -0.08194787055253983, -0.4041881263256073, -0.28464436531066895, -0.1332259327173233, 0.05974293127655983, -1.1873873472213745, -0.9363642334938049, -0.0051424247212708, 0.03372824564576149, 0.06923912465572357, -0.07586445659399033, 0.007451504468917847, -0.262653112411499, 0.04349681735038757, -0.005031137261539698, 0.031197072938084602, -0.012592076323926449, -0.10990571230649948, -0.28089314699172974, 0.035327162593603134, 0.15505529940128326, -0.6717758178710938, 1.0467203855514526, -0.09154785424470901, -0.0709155723452568, -0.03625240549445152, -0.1904078722000122, 0.03404083847999573, 0.01639709062874317, -0.26228001713752747, -0.6032012701034546, 0.08384030312299728, 0.07393728941679001, 0.17208993434906006, -0.017444079741835594, 0.049438294023275375, -0.04841810464859009, 0.06978053599596024, 0.26619699597358704, 0.1022641733288765, 0.11810076236724854, -0.21838076412677765, 0.8523699641227722, 0.04062935337424278, -0.8832531571388245, 0.1727890819311142, -0.17253468930721283, -0.9296401143074036, 1.0277918577194214, -0.05567431077361107, 0.5696640610694885, -0.6732884049415588, 0.6211780905723572, -0.017037883400917053, -0.024047093465924263, -0.1655319780111313, 0.4527681767940521, 0.7143226265907288, 0.19351612031459808, -0.032901111990213394, -0.14619041979312897, 0.9360294938087463, 0.05442607030272484, -0.2201298028230667, 0.08728807419538498, 0.6973602175712585, -0.09618956595659256, 0.007787651848047972, -0.3783872127532959, -0.8008298873901367, -0.0648421123623848, -0.0543876476585865, -0.5234450101852417, -1.197698712348938, -0.16134296357631683, -0.1401662677526474, -0.30230212211608887, -0.01850523240864277, -0.04546952620148659, -0.12077093869447708, -0.27127188444137573, 0.6047174334526062, -0.057541076093912125, -0.04312402382493019, 0.13408617675304413, -0.5327553749084473, -0.03257259353995323, -0.032118674367666245, 1.0051681995391846, 0.32476308941841125, -0.017330018803477287, 0.08630108088254929, -0.2802738845348358, -0.08250666409730911, 0.035285834223032, -0.13485504686832428, 0.518585205078125, 0.12570329010486603, -0.01306713093072176, -0.04023275151848793, 0.14266344904899597, 0.2502155005931854, -0.17382502555847168, 0.050940338522195816, 0.09543490409851074, 0.016341861337423325, -0.030745090916752815, 0.027954397723078728, 0.4398409426212311, 0.30513113737106323, -0.0028925274964421988, 0.1918332725763321, -0.8502143025398254, 1.6222120523452759, -0.00430624233558774, 0.011752613820135593, -0.1329566091299057, -0.311886727809906, -0.09126881510019302, -0.13095401227474213, 0.5478382706642151, 0.2758009135723114, 0.01009669154882431, 0.12100886553525925, -0.1652432531118393, -0.015218584798276424, 0.08894329518079758, 0.10283494740724564, 0.11006676405668259, 0.13635359704494476, 2.324898559891153e-05, -0.03245663270354271, -0.5911387801170349, 1.4155129194259644, -0.5258828401565552, -0.5566276907920837, 0.0254528671503067, -0.15627889335155487, -0.42599865794181824, -0.16200055181980133, 0.2693926990032196, -0.4976005256175995, 1.6467933654785156, 0.18472690880298615, 0.8413422703742981, -0.09388328343629837, -0.00830789003521204, 1.0281226634979248, 0.13661883771419525, 0.12860356271266937, -0.1601743847131729, 0.6444496512413025, 0.4009377956390381, 0.15321362018585205, 0.16327954828739166, -0.7637128829956055, 0.7713267207145691, 0.047529954463243484, 0.052687257528305054, 0.5669789910316467, 1.1467549800872803, -0.02073344588279724, 0.007095799315720797, -0.047336872667074203, 1.798055648803711, -0.0603935681283474, 0.05766826495528221, -0.07092868536710739, -0.1319802850484848, 0.07821010798215866, -0.041115760803222656, -0.04200061783194542, 0.058358922600746155, 0.1113283708691597, 0.030708668753504753, 0.3379491865634918, 0.6783175468444824, 0.17686568200588226, -0.051697988063097, 0.07710432261228561, 0.7565693855285645, 0.019193366169929504, 0.09103135019540787, -0.013666464947164059, -0.267922967672348, 0.09153687208890915, 0.021689398214221, 0.3394638001918793, 0.5129556059837341, -0.07111699134111404, 0.11914645880460739, -0.07617706805467606, -0.17174504697322845, -0.017411602661013603, -0.0638284757733345, -0.10276388376951218, -0.02879113145172596, -0.01654835045337677, -0.10400839895009995, 0.19557087123394012, 0.17567574977874756, -0.30258414149284363, -0.023877831175923347, -0.6454156637191772, 0.8077946305274963, 0.04097112640738487, 0.02844536118209362, -0.12756787240505219, 0.3018482029438019, -0.08366287499666214, -0.08527208119630814, 0.06343825161457062, 0.389070063829422, -0.04583001509308815, -0.10794151574373245, -0.04802211746573448, -0.004439815413206816, 0.0011421533999964595, 0.08482814580202103, -0.3738848865032196, 0.2300083488225937, 0.07286275178194046, -0.030594350770115852, -0.2653045356273651, 0.720182478427887, -0.043079230934381485, -1.221993327140808, 0.14035888016223907, -0.46281611919403076, -0.9145622849464417, -0.8589617609977722, -1.306225061416626, 0.7934266924858093, -0.28888386487960815, 0.25167757272720337, 0.08550547808408737, 0.014445574022829533, 0.08295946568250656, -1.18299400806427, -1.3101255893707275, 0.029869137331843376, -0.12410377711057663, -0.11733006685972214, -1.2819435596466064, -0.015028326772153378, 0.03860974684357643, 0.47978365421295166, -1.7849675416946411, 0.01734064519405365, -0.13968072831630707, -0.5575769543647766, 0.8283481597900391, 0.0761365294456482, -0.14612840116024017, 0.0762026458978653, 0.582651674747467, -0.02508898638188839, 0.06222456693649292, 0.006100610364228487, -0.3502514660358429, -0.025919614359736443, -0.0798112228512764, -0.07146461308002472, 0.15581606328487396, 0.02627474255859852, -0.06232959404587746, 0.20915520191192627, -0.09302929788827896, -0.03652358055114746, -0.034891992807388306, 0.0016863624332472682, 0.18337495625019073, 0.012862100265920162, 0.017210813239216805, -0.23422090709209442, -0.4030275046825409, 0.012581001035869122, -0.11606382578611374, 0.20829518139362335, -0.3666982352733612, 0.08480750769376755, -0.021305324509739876, -0.04280273988842964, 0.18993735313415527, 0.05166101083159447, -0.10622671991586685, 0.10210275650024414, -0.018486905843019485, -0.09553223103284836, -0.13185594975948334, 0.10250324010848999, -0.4066573679447174, -0.08804202824831009, -0.003247905522584915, -0.6235834360122681, -0.37293335795402527, -0.030116764828562737, 0.16522561013698578, -0.4598517119884491, 0.12767979502677917, 0.054057877510786057, 0.023923994973301888, 0.25749799609184265, 0.49290230870246887, 0.007749289274215698, 0.06529945880174637, -0.06977856159210205, 0.2206435352563858, 0.022922327741980553, -0.03407967463135719, 0.07165776193141937, -0.9706183075904846, 0.09230073541402817, 0.003610484069213271, 0.46277427673339844, 1.2028263807296753, -0.6409319639205933, -0.7880825400352478, -0.6262873411178589, -1.1932793855667114, 0.3060623109340668, -0.8285550475120544, 0.5184963941574097, -0.5777425169944763, -0.08980483561754227, 0.24575422704219818, -1.911594271659851, 0.04824038967490196, -0.13612782955169678, -0.32964393496513367, 0.2718157172203064, 0.041936036199331284, 0.09282571822404861, -0.06545526534318924, -2.0066702365875244, -0.1277930587530136, -0.10713183134794235, -0.23264668881893158, -0.900822639465332, 0.02247944287955761, 0.07316791266202927, 0.018823444843292236, 0.0026425777468830347, -0.10120128840208054, -0.09100223332643509, -0.18721891939640045, -0.687171995639801, 0.11805307120084763, -0.0740974023938179, -0.1315394788980484, -0.0052572195418179035, -0.05221803858876228, -0.0216319989413023, -0.009061737917363644, -0.5397186279296875, -0.03061121515929699, -0.12721478939056396, 0.06480259448289871, -0.10037096589803696, -0.11367107182741165, -0.1452871412038803, 0.44425204396247864, 0.11527693271636963, 0.017802150920033455, 0.07956648617982864, 0.0036372614558786154, 0.0028876045253127813, -0.2626676857471466, 0.13218629360198975, 0.22585217654705048, 0.4617353677749634, -0.15548394620418549, 0.021890850737690926, 0.08397097140550613, 0.12973164021968842, 0.052060846239328384, -0.03179151192307472, -0.16131386160850525, -0.1905091553926468, 0.045334067195653915, -0.01773384027183056, -0.05145265534520149, 1.0838003158569336, 0.10465217381715775, 0.0651666596531868, -0.2739315330982208, 0.889507532119751, 0.030607251450419426, 0.03999850153923035, 0.15107609331607819, 0.23206092417240143, 0.18753354251384735, 0.21902339160442352, 0.5552283525466919, 1.3744021654129028, 0.08146416395902634, 0.09636711329221725, 0.1323784738779068, -0.2147548347711563, 0.06417394429445267, -0.03877655044198036, 0.3584196865558624, 0.24608348309993744, 0.049146294593811035, -0.05338221415877342, -0.40035757422447205, 0.44732001423835754, -0.10514072328805923, -0.5305518507957458, -0.03892936557531357, -0.43046316504478455, -0.45540234446525574, 0.39276358485221863, -0.5080447793006897, -0.6740798354148865, -0.9205624461174011, 0.46445128321647644, 0.628028929233551, 0.19497846066951752, 0.04973375424742699, -0.5704198479652405, -0.6903800368309021, 0.14411891996860504, -0.051949139684438705, -0.636604905128479, 0.28298357129096985, 0.07776237279176712, 0.12112545222043991, 0.75791996717453, 0.7469787001609802, 0.09356153756380081, -0.15762756764888763, -0.17147137224674225, 0.1640099287033081, -0.004656679462641478, 0.03358691558241844, -0.23148639500141144, -0.7848138213157654, 0.027453510090708733, 0.015853077173233032, -0.09015792608261108, -0.10880447179079056, 0.14986014366149902, 0.08515555411577225, -0.6526612639427185, 0.23989653587341309, -0.05576949939131737, 0.017385033890604973, -0.1552518755197525, -0.09353335946798325, -0.07088781148195267, -0.0039249020628631115, 0.2694081962108612, 0.29100945591926575, 0.11696731299161911, -0.014731018804013729, -0.42876526713371277, 0.17062650620937347, 0.16183270514011383, 0.22993327677249908, -0.15400539338588715, -0.5026455521583557, 0.10361260175704956, 0.09469616413116455, -0.1191936805844307, 0.11152049154043198, -0.022614924237132072, 0.041739046573638916, 0.10435441881418228, 0.23090523481369019, 0.2300727516412735, 0.026597799733281136, 0.20402978360652924, 0.1729750782251358, -0.24182511866092682, 0.06640952080488205, -0.9021374583244324, -0.45657670497894287, -0.1456402689218521, 0.14726565778255463, 0.00013039217446930707, 0.4909214675426483, 0.06590235233306885, -0.1817786693572998, -0.2456093579530716, -0.3150656223297119, -0.06002431735396385, -0.10889948159456253, -0.2521452009677887, 0.10835706442594528, 0.02455832250416279, -0.033049020916223526, -0.132381409406662, 0.13287343084812164, 0.00331304338760674, 0.17353476583957672, 0.35227516293525696, 1.0381863117218018, -1.6008459329605103, -1.1108742952346802, -0.9714508056640625, 0.3337283432483673, 1.055765986442566, -0.4547835886478424, -0.723619282245636, 0.08206106722354889, 0.06322836875915527, 0.3546657860279083, 1.317254900932312, 0.13081955909729004, -0.1214294359087944, -0.5262618064880371, 0.641318678855896, 0.03433706983923912, -0.09796971082687378, -0.8133456110954285, 0.9880685210227966, -0.047416504472494125, -0.029680849984288216, 0.09283467382192612, 0.6267136335372925, 0.04655647650361061, 0.09901725500822067, -0.9691311717033386, 0.7303952574729919, -0.06884574145078659, -0.12105380743741989, -0.4625139534473419, 0.9048359990119934, -0.0407729409635067, -0.00038321243482641876, 0.09535824507474899, -0.3644813001155853, -0.047818783670663834, -0.11856435984373093, 0.14961542189121246, 0.10774000734090805, -0.05911719426512718, -0.15145792067050934, -0.00036264260415919125, 0.3213699162006378, 0.05284718796610832, -0.010836624540388584, -0.015181242488324642, -0.034662213176488876, -0.2059604972600937, -0.0426592193543911, 0.21612851321697235, 0.15046052634716034, -0.1890791654586792, 0.010099953971803188, -0.25067809224128723, -0.9324770569801331, -0.15811361372470856, 0.16296790540218353, 0.01357954740524292, -0.07024944573640823, -0.06652366369962692, -0.19335509836673737, 0.010014424100518227, 0.16934669017791748, -0.1143794134259224, 0.07487993687391281, -0.06119556725025177, 0.23119257390499115, -0.007104948628693819, 0.05958915129303932, -0.40856072306632996, -1.2384750843048096, -0.06442684680223465, -0.13179360330104828, 0.5114507079124451, 0.21483469009399414, -0.06521666795015335, -0.014690234325826168, -0.03810444474220276, 0.14942632615566254, 0.04969213530421257, 0.038548585027456284, -0.011412062682211399, -0.02864908240735531, 0.09529817849397659, 0.0131836524233222, 0.1674429178237915, 0.9827069640159607, -0.14769281446933746, -0.08010012656450272, -0.30353790521621704, 0.31319093704223633, -0.3275826573371887, -0.6231328248977661, -0.6822428107261658, -2.0030384063720703, -0.1801164150238037, 0.17448198795318604, 0.7432031631469727, 0.37735119462013245, -1.6012171506881714, 0.14649344980716705, 0.04669111594557762, -0.17829644680023193, 0.08439557999372482, 0.06162869557738304, 0.5663250684738159, -0.017755167558789253, 0.036899689584970474, 1.0632779598236084, 1.4140681028366089, 0.04554593190550804, 0.08712594956159592, -0.43159547448158264, 0.1758701354265213, 0.11319755762815475, -0.032284826040267944, -0.16552232205867767, -0.38760969042778015, 0.21137405931949615, 0.11418401449918747, -0.14787136018276215, 0.10963260382413864, -0.04765939339995384, 0.10557008534669876, 0.22965262830257416, -0.20438478887081146, -0.025815604254603386, 0.06115543469786644, -0.2990834414958954, 0.6417858004570007, -0.031085757538676262, -0.1384107917547226, 0.16950945556163788, -0.09120690822601318, -0.14976142346858978, 0.056424979120492935, 0.5001600980758667, 0.5068832039833069, 0.033485982567071915, -0.1502460390329361, -0.21167875826358795, -0.03456354886293411, 0.1335301250219345, 0.014908910728991032, 0.31183430552482605, 0.4836859405040741, 0.20093758404254913, 0.05057955160737038, 0.08614522218704224, 0.011837969534099102, -0.11452723294496536, -0.24125291407108307, -0.008151195012032986, 0.10919798165559769, -0.13334251940250397, -0.033026184886693954, 0.5069988965988159, 0.25151416659355164, -0.0010970236035063863, -0.0733189582824707, -0.7100011706352234, -0.2690543532371521, 0.043633464723825455, -0.04849868640303612, -0.15976382791996002, 0.3600018322467804, -0.01790734939277172, -0.03623137250542641, 0.2676885426044464, 0.42190203070640564, -0.023257343098521233, 0.0903472825884819, 0.1531146913766861, 0.18739043176174164, -0.07341199368238449, -0.19083689153194427, 0.06767003238201141, -0.20333997905254364, -0.1826944202184677, -0.08240478485822678, -0.583455502986908, 0.6091188192367554, -0.6083841919898987, -0.3250715136528015, -0.053590234369039536, -0.6516522169113159, 0.12174438685178757, 0.3195229172706604, 0.3928232491016388, -0.6018267273902893, -0.7116853594779968, 0.16998088359832764, 0.6726579666137695, 0.00169896159786731, -0.03471210226416588, 0.7677399516105652, 1.4488649368286133, -0.029069481417536736, 0.002784360432997346, 0.30418235063552856, 0.3971031606197357, 0.04386991634964943, 0.10298391431570053, -0.5047916173934937, 0.6183418035507202, -0.10827385634183884, 0.14516876637935638, 0.641433596611023, -0.13672110438346863, -0.013008837588131428, -0.10242296010255814, -0.9492349624633789, 0.24112123250961304, -0.08293665200471878, 0.09388024359941483, -0.09043515473604202, 0.10873039811849594, -0.007782131899148226, 0.007937498390674591, -0.10362410545349121, 0.26845404505729675, -0.00010622156696626917, -0.16236914694309235, 0.11133337020874023, -0.15352103114128113, -0.10878299921751022, -0.09362857788801193, 0.5590377449989319, -0.17229878902435303, 0.0949072316288948, 0.10437833517789841, -0.21083234250545502, 0.06608664244413376, 0.15902866423130035, 0.13603518903255463, 2.0565361976623535, 0.5652261972427368, 0.0796877071261406, -0.08904921263456345, -0.06495992839336395, -0.20693375170230865, 0.21675293147563934, 0.09122283011674881, -0.21551001071929932, -0.04583367705345154, 0.13078393042087555, -0.03142014518380165, 0.3757467269897461, 0.15869739651679993, 0.07086055725812912, 0.09008937329053879, -0.3762526512145996, 1.3499242067337036, -0.007707260083407164, -0.050667162984609604, -0.1964196413755417, -0.7497749924659729, 0.05124134197831154, 0.026920495554804802, -0.16561362147331238, 0.040746282786130905, 0.019740508869290352, -0.0038327460642904043, -0.06065214052796364, -0.4036617577075958, 0.15763328969478607, -0.1840944141149521, -0.0008621420129202306, -0.11065033823251724, 0.03892925754189491, -0.031515564769506454, -0.9317750334739685, 1.1987324953079224, -0.1488797813653946, -0.364284485578537, -0.4193183481693268, -1.1390961408615112, -0.25107628107070923, 0.1799333244562149, -0.5438284873962402, 1.6502894163131714, -0.1601281315088272, 0.45046865940093994, 2.489750385284424, 0.040516648441553116, 0.15922237932682037, 0.6918655037879944, -0.45464757084846497, -0.08612339943647385, -0.11707329005002975, 0.1337212175130844, 0.5339118242263794, 0.08864491432905197, 0.08885074406862259, -0.4464360773563385, -1.480725884437561, 0.05105409026145935, 0.042873021215200424, 0.11335181444883347, -0.721828281879425, -0.050248030573129654, -0.07336414605379105, -0.26996901631355286, 0.8235852122306824, 0.017735691741108894, 0.0064491406083106995, -0.08553653955459595, -0.007339887786656618, -0.037711288779973984, 0.2219877988100052, -0.041999757289886475, -0.04676089063286781, 0.0815247893333435, 0.12025748938322067, -0.1450730860233307, -0.413618803024292, 0.03787088766694069, 0.1819029003381729, -0.12601210176944733, 0.7082124352455139, 0.14128781855106354, -0.18110929429531097, 0.34588339924812317, 0.132658451795578, 0.05511299893260002, 0.08163375407457352, 0.5408024191856384, -1.031962513923645, 0.17122767865657806, 0.14391686022281647, 0.02210010401904583, 0.11308649182319641, -0.09212541580200195, 0.034613728523254395, 0.1297224909067154, -0.16170206665992737, 0.016238687559962273, 0.11988628655672073, -0.020582709461450577, -0.02742536924779415, -0.016629638150334358, -0.048570748418569565, -0.10652109235525131, 1.866338849067688, -0.12465346604585648, -0.2703259289264679, -0.2830793857574463, -0.24711018800735474, -0.0791279748082161, 0.08063901215791702, -0.41191771626472473, -0.7970439791679382, 0.07144313305616379, -0.22908638417720795, -0.21055175364017487, 0.07801666110754013, 0.037181880325078964, 0.04036391153931618, -0.4251772463321686, 0.8451178669929504, -0.059825245290994644, -0.007963673211634159, -0.6329656839370728, 0.19961737096309662, -0.2009924203157425, -0.4130840003490448, -0.04758073762059212, -1.0711548328399658, 0.2994022071361542, 0.9706929326057434, 0.4766653776168823, -0.37743136286735535, -0.44006189703941345, 0.47785571217536926, -0.31255432963371277, -0.11247610300779343, -0.14689947664737701, 0.8516575694084167, -0.9336662292480469, -0.011846770532429218, 0.03025391884148121, 0.9802210927009583, -0.7367168068885803, 0.009384565986692905, -0.1344233751296997, -0.48663172125816345, -0.2643010914325714, -0.008501545526087284, -0.1113276407122612, -0.5646485686302185, -0.5907260775566101, -0.060293253511190414, 0.05094237998127937, -0.3325759768486023, 0.32161739468574524, -0.10206929594278336, 0.11223388463258743, 0.1844334453344345, -0.4996977150440216, 0.046730998903512955, 0.27208277583122253, -0.23482418060302734, -0.898429811000824, -0.002981379861012101, -0.07960175722837448, -0.10259140282869339, -0.950834333896637, -0.060429688543081284, -0.1124565526843071, 0.07605282962322235, -0.14879834651947021, -0.12319327145814896, -0.028746934607625008, 0.34033307433128357, -0.08383607864379883, 0.1698930412530899, -0.003677166998386383, 1.8271821737289429, 1.9440809488296509, 0.008326648734509945, -0.024807320907711983, 0.22141902148723602, 0.06676112860441208, 0.06986498832702637, 0.0025564671959728003, -0.0763634666800499, -0.05869513377547264, -0.038224514573812485, 0.07356245070695877, 0.07848768681287766, -0.12878236174583435, -0.04347359761595726, 0.17556177079677582, -0.27590104937553406, -0.00672178203240037, -0.03808712586760521, -0.049068327993154526, -0.5244047045707703, 0.4119677245616913, -0.10700289160013199, -0.029054103419184685, -0.06971168518066406, -0.1005936935544014, -0.05808765068650246, 0.17225457727909088, 0.1398216187953949, 0.13618502020835876, -0.07858813554048538, -0.00039758006460033357, -0.3855505883693695, -0.01802528090775013, -0.006259602960199118, 0.008358330465853214, -0.8377285599708557, 0.3396279811859131, -0.5625593066215515, 0.11026950925588608, -0.796146810054779, -0.46673262119293213, 0.8356351852416992, 0.03222326189279556, 1.0872375965118408, 0.6437612175941467, 0.4360314905643463, 0.7428492903709412, 2.424312114715576, -0.09773784130811691, -0.005485608708113432, -0.11378058791160583, -1.430693507194519, 0.03600630536675453, -0.005223665852099657, 0.5741842985153198, 0.18667638301849365, 0.0009981811745092273, -0.16979168355464935, -1.3207513093948364, 0.33982184529304504, -0.10630909353494644, -0.027078690007328987, -0.1597297340631485, -0.876955509185791, -0.09675867110490799, -0.009376264177262783, 0.48389485478401184, -1.3617048263549805, -0.1376476138830185, -0.04082870110869408, -0.3244505226612091, -0.2860354483127594, 0.19777320325374603, 0.03492739424109459, -0.15264762938022614, -0.25323542952537537, 0.021879015490412712, -0.0020840929355472326, 0.5717592835426331, 0.3302578628063202, -0.05042789503931999, 0.07543010264635086, 0.04165054112672806, 0.09117526561021805, -0.10621274262666702, -0.13140760362148285, -0.05679633095860481, 0.4904031753540039, -0.03537970781326294, 0.06913674622774124, 1.1353758573532104, 1.2411338090896606, 0.06867343932390213, 0.13643012940883636, -0.11432508379220963, 0.17456509172916412, -0.07080095261335373, 0.10913277417421341, -0.19561316072940826, -0.1843072921037674, 0.03819579258561134, -0.14271031320095062, 0.23273293673992157, -0.12174724787473679, 0.07753580063581467, 0.06972194463014603, -0.4079168736934662, -0.946174681186676, 0.055219512432813644, 0.10207580775022507, 0.24293850362300873, -0.34903600811958313, 0.10631214827299118, 0.03254932537674904, 0.3204376995563507, -0.1663825809955597, 0.006892815697938204, -0.007042751181870699, -0.11473225802183151, 0.2939279079437256, 0.0018019323470070958, 0.031893882900476456, 0.4494670331478119, 0.5351318717002869, 0.012431114912033081, 0.03128882870078087, -0.3501659333705902, -0.06334828585386276, -0.41054579615592957, 0.07099811732769012, -0.4133117198944092, -1.073110818862915, 0.2548500895500183, 0.7980626225471497, 0.44269195199012756, 0.29519587755203247, -0.07315026223659515, -0.0957900807261467, 0.07879404723644257, -0.03934106603264809, 0.0005887187435291708, 0.10161205381155014, 0.006342471111565828, -0.04433509707450867, 0.10696841031312943, 0.5332513451576233, 0.7041091322898865, 0.1238631084561348, 0.08774638175964355, -0.15870073437690735, 0.40691685676574707, 0.0044957478530704975, 0.11267972737550735, -0.4326745569705963, -1.0900871753692627, 0.002364648738875985, -0.03529879078269005, -0.39117905497550964, 0.854372501373291, 0.0557439886033535, 0.06561725586652756, 0.06365441530942917, 0.11320532113313675, -0.02815169282257557, -0.06835245341062546, 0.04363593831658363, 0.0701199322938919, -0.13736416399478912, -0.08125317841768265, -0.0996110662817955, -0.07212664186954498, 0.06637059897184372, -0.02067822404205799, 0.24023407697677612, 0.023807154968380928, -0.29205968976020813, -0.023226812481880188, -0.2751559317111969, -0.17481933534145355, 0.04967590048909187, 0.059968117624521255, 1.1633175611495972, 0.679047167301178, 0.03696697577834129, -0.014020039699971676, 0.004328158684074879, -0.10183846950531006, -0.11645578593015671, -0.02238975465297699, -0.0748915746808052, 0.1604757010936737, 0.17731179296970367, -0.013907388783991337, 0.2549993693828583, 0.18570579588413239, -0.012142046354711056, 0.10927736014127731, -0.21977829933166504, 0.7651200294494629, 0.01773029752075672, -0.09753239154815674, 0.05223408341407776, 0.31073445081710815, -0.036743760108947754, -0.11599696427583694, 0.2748158574104309, -1.5268040895462036, 0.030314117670059204, -0.034037623554468155, -0.23594897985458374, 0.003593161702156067, 0.1667812019586563, 0.008272185921669006, 0.0843663141131401, 0.29310300946235657, -0.09501301497220993, -0.156464084982872, -0.24544598162174225, 0.5110605955123901, 0.3722669184207916, -1.041456937789917, -0.22429418563842773, -0.6976282000541687, -2.390866994857788, -0.02926039509475231, -0.32683107256889343, 0.7772282958030701, 0.9110670685768127, -0.14154554903507233, -0.08529257774353027, -0.007078915368765593, 0.32874301075935364, 0.1938570886850357, 1.5964871644973755, 0.1427161693572998, 0.08910798281431198, -0.231658935546875, -1.8223565816879272, 0.014412596821784973, -0.07377970963716507, -0.7806016802787781, -1.584680438041687, -0.09816110134124756, 0.1250610202550888, 0.332835853099823, 0.33524301648139954, 0.02622378058731556, -0.013022392988204956, 0.8978165984153748, 0.6185351014137268, 0.05448555573821068, 0.17477597296237946, 0.06045166775584221, -0.2198023945093155, -0.022712886333465576, -0.2365865558385849, 0.3098113238811493, 0.08644568920135498, -0.018435316160321236, 0.17944882810115814, 0.03588953986763954, 0.3226141333580017, 0.013648823834955692, -0.03044944815337658, 0.09571794420480728, 0.25181105732917786, -0.06004530191421509, -0.17583918571472168, 0.023699039593338966, -0.5329636931419373, 0.028954235836863518, 0.08348267525434494, 0.4027852714061737, 0.4155420958995819, 0.09536118060350418, 0.0837598368525505, -0.11474606394767761, -0.12942753732204437, 0.0009589782566763461, -0.1431203931570053, 0.1273280382156372, 0.2063882201910019, -0.04558444395661354, -0.024768710136413574, 0.1394418627023697, -0.179270401597023, -0.07161813229322433, -0.19794179499149323, -0.045809805393218994, -0.3701472580432892, 0.2410280853509903, -0.057402972131967545, -0.1092224046587944, 0.0666426569223404, -0.007542095612734556, 0.0405774749815464, 0.382780522108078, 0.15686063468456268, 0.012772188521921635, 0.13825835287570953, -0.05536740645766258, -0.010584204457700253, 0.0860341265797615, -0.028973517939448357, -0.542633056640625, 0.02294054813683033, -0.03866487368941307, 0.13625849783420563, -0.15539871156215668, -0.3268706798553467, -0.5363244414329529, -0.7139505743980408, -0.37090161442756653, -0.8246707320213318, -0.2182314395904541, -1.011902928352356, -0.9058669209480286, 0.20630834996700287, 1.32709801197052, 0.22938616573810577, -0.01751965470612049, -0.08179713040590286, -0.0457126758992672, 0.46399930119514465, 0.6587034463882446, -0.02191273681819439, -0.06362409144639969, 1.407251000404358, 0.053194981068372726, 0.06015307083725929, -0.12294744700193405, -1.3372154235839844, 0.4665861427783966, -0.10248330980539322, 0.14327551424503326, 1.3585692644119263, -1.017459750175476, -0.04310745373368263, -0.16401802003383636, -0.2962779402732849, 1.3753794431686401, 0.0636177584528923, -0.12149452418088913, -0.5649346709251404, 0.22022153437137604, 0.0621793232858181, -0.11624383181333542, -0.5481457114219666, -0.062401071190834045, 0.11615478247404099, -0.08283817023038864, 0.8487138152122498, -0.08715643733739853, -0.00032719832961447537, 0.06295520812273026, 0.09481054544448853, 0.29920846223831177, 0.20365311205387115, 0.007542811334133148, 0.11150916665792465, 0.6011186242103577, 0.18938089907169342, 0.031069040298461914, -0.2541913092136383, -0.43284574151039124, -0.032093849033117294, -0.08626823872327805, 0.07556109130382538, 0.4124612510204315, -0.04262707009911537, 0.08683032542467117, 0.4078434407711029, -0.009055675938725471, 0.007001824211329222, 0.14658786356449127, 0.4505578279495239, -0.21445108950138092, -0.06164568290114403, -0.031236885115504265, -0.33245664834976196, 0.5906854271888733, 0.16519688069820404, -0.13896237313747406, -0.51315838098526, -0.08906323462724686, 0.10152801126241684, 0.08901571482419968, -0.17245878279209137, -0.4046459496021271, -0.04116025194525719, 0.046909984201192856, 0.15361788868904114, 0.23733927309513092, 0.09183061867952347, 0.0019011033000424504, 0.01445776131004095, 1.1324422359466553, -0.10459359735250473, 0.06445349007844925, 0.3031678795814514, 1.0590182542800903, -1.0976401567459106, -0.035282161086797714, -0.4188527762889862, -1.2357370853424072, 1.4369364976882935, 0.8588284850120544, 0.6708921790122986, -0.2476637214422226, -0.17447735369205475, 0.46100902557373047, -0.9021540284156799, 0.1057266816496849, 0.12776614725589752, -0.31282609701156616, -0.6727004647254944, -0.07888031750917435, 0.0031974243465811014, -0.24469302594661713, -0.8467593193054199, 0.037020888179540634, 0.0038761610630899668, 0.0011172035010531545, -0.08811134845018387, -0.01022092904895544, 0.14082372188568115, 0.5082182884216309, 0.48311647772789, -0.28183820843696594, 0.23430751264095306, 0.14681334793567657, -1.505320429801941, 0.02754107303917408, -0.019953714683651924, -0.06915586441755295, 0.03618122264742851, -0.0004907968104816973, -0.05547333136200905, 0.08156824856996536, 0.10347390919923782, 0.01696021668612957, 0.17779575288295746, 0.4515233039855957, 0.4914546310901642, 0.015321879647672176, -0.10725308209657669, 0.39998650550842285, 0.4299163520336151, 0.015023828484117985, -0.003987662028521299, 0.19533683359622955, -0.17294596135616302, -0.03547635301947594, -0.044018980115652084, 1.5326448678970337, 0.1521514505147934, 0.21997307240962982, -0.0431581474840641, 0.06437177211046219, 0.3254213035106659, -0.06374353915452957, -0.017475441098213196, -0.05875057354569435, 0.08425118774175644, -0.01434676256030798, 0.10676735639572144, 0.1334853172302246, 0.20873220264911652, -0.024530788883566856, -0.17998932301998138, -0.46464112401008606, -0.5262151956558228, 0.10554658621549606, 0.10362144559621811, 0.43792614340782166, 0.7966515421867371, 0.09308815747499466, -0.034852657467126846, 0.3046782612800598, 0.1493150144815445, 0.05012476071715355, 0.10279571264982224, -0.2231198102235794, -0.12121514230966568, -0.16515718400478363, -0.08550548553466797, 0.24423886835575104, 0.4546278417110443, -0.10710335522890091, 0.030392108485102654, 0.14348123967647552, 0.28742715716362, -1.4656959772109985, -0.37836042046546936, -0.48542800545692444, -1.3602381944656372, 0.3207238018512726, -0.042269203811883926, 0.3218829333782196, -0.5487756729125977, 0.8393440842628479, 0.10426243394613266, 1.4680849313735962, -0.0836300328373909, 0.010828472673892975, -0.02639477513730526, 0.23015020787715912, -0.06943155080080032, 0.015652118250727654, 0.1502298265695572, -0.7121220231056213, -0.03613663092255592, 0.07573073357343674, -0.35628366470336914, -0.5700265169143677, -0.014649092219769955, 0.08456004410982132, -0.811995804309845, -0.2564343810081482, -0.20035888254642487, -0.2717289924621582, -0.010322412475943565, 0.14223897457122803, 0.06286346167325974, 0.10573387891054153, -0.2122073918581009, -0.3624750077724457, 0.06927765160799026, -0.03264394775032997, -0.004908118862658739, 0.3396455943584442, -0.09091561287641525, 0.014024526812136173, 0.21838904917240143, 0.1561809927225113, 0.007705152500420809, 0.01238278392702341, 0.834871232509613, 0.17170681059360504, -0.05596238002181053, -0.12901701033115387, 0.1867074817419052, -0.2762817442417145, -0.1086219921708107, -0.2333245426416397, 0.9975109696388245, -0.7445289492607117, 0.0973207876086235, -0.04678323492407799, 0.11204397678375244, -0.022276712581515312, -0.1734313815832138, -0.00793095026165247, 0.029045788571238518, 0.2501411736011505, 0.0016626009019091725, 0.05644887313246727, 0.4878096282482147, -0.015598688274621964, -0.09271916002035141, 0.07562465220689774, -0.6079549193382263, -2.0257012844085693, 0.10638073831796646, -0.09356165677309036, -0.10470372438430786, -0.24297331273555756, 0.07115387171506882, -0.19835759699344635, 0.3446905314922333, -0.20213891565799713, -0.14389075338840485, -0.05419345572590828, -0.18443083763122559, -0.08086330443620682, 0.06495534628629684, 0.005632191430777311, 0.22389692068099976, 0.10810407251119614, -0.009745619259774685, -0.09504222124814987, 0.11946643143892288, 0.5135287046432495, -0.5427922606468201, -0.37627720832824707, -0.6086626648902893, -0.3287540078163147, 1.0927752256393433, 0.034135881811380386, -1.0876046419143677, -1.3084595203399658, -0.5732108354568481, -0.35535863041877747, -1.8237932920455933, -0.0250240545719862, -0.017253058031201363, -0.4285106956958771, -1.6882781982421875, -0.029668331146240234, 0.02095404453575611, -0.40099573135375977, 0.008617815561592579, 0.12351585179567337, 0.10061586648225784, 0.16863898932933807, 0.5021017789840698, 0.10574150830507278, -0.045104388147592545, 0.07596633583307266, -0.19433201849460602, 0.04507416859269142, -0.07681148499250412, -0.4360370337963104, -1.4360562562942505, -0.10258781164884567, 0.047473352402448654, 0.2572486698627472, 0.41136041283607483, 0.19902946054935455, 0.05427789315581322, -0.7964326739311218, 0.23435856401920319, -0.027126071974635124, -0.1959162801504135, -0.2817211151123047, 0.09451261907815933, -0.15858985483646393, -0.14353585243225098, -0.15199841558933258, 0.1977563053369522, 0.0703975036740303, 0.10980211943387985, -0.06488262861967087, 0.1820996254682541, -0.1068505123257637, -0.2678716480731964, 0.3022781014442444, 0.94032883644104, -0.10475874692201614, -0.03766196593642235, 0.18226675689220428, 0.12121141701936722, -0.03253081068396568, -0.02428203634917736, 0.10591892153024673, -0.051638539880514145, 0.061938460916280746, -0.01591409556567669, -0.0864696279168129, 0.24316073954105377, -0.19675461947917938, 0.06596291810274124, -0.3734648525714874, -0.9123188853263855, -0.1910029798746109, 0.0811842754483223, -0.04436545446515083, 0.6833471655845642, 0.07693289965391159, -0.07451020926237106, -0.6850586533546448, 0.8514737486839294, 0.10346972197294235, -0.024267343804240227, -0.07778582721948624, -0.24402713775634766, -0.0044208611361682415, 0.06424666196107864, -0.36220672726631165, -0.04998957738280296, 0.17996050417423248, -0.16826294362545013, -0.8370326161384583, -0.5814179182052612, -0.6510201692581177, -0.181590273976326, -0.8766253590583801, -0.4899710416793823, 1.449100375175476, -1.2195559740066528, 0.11333524435758591, -0.6208248138427734, 1.204383134841919, 0.6269885301589966, -1.9819196462631226, 0.026209471747279167, 0.08888126164674759, -0.221976637840271, -0.592475950717926, 0.17224742472171783, 0.08454953879117966, -0.4042423665523529, -0.04383213445544243, 0.06543440371751785, 0.001883515971712768, 0.8482742309570312, -0.614644467830658, -0.10152244567871094, -0.06136542186141014, -0.4703763425350189, 0.2997596561908722, 0.019792838022112846, 0.13332520425319672, 0.6800888180732727, 1.4124242067337036, -0.02604222111403942, -0.0019105655374005437, -0.045214030891656876, 0.0938042402267456, -0.1323079913854599, -0.019199520349502563, -0.0825824961066246, 0.03980580344796181, 0.0180188100785017, -0.006633132230490446, -0.2397891730070114, 0.41229042410850525, -0.0022601059172302485, -0.049157824367284775, 0.5822071433067322, -0.21368353068828583, 0.025627819821238518, -0.16979610919952393, 0.07211523503065109, 0.4190104007720947, -0.0160704106092453, 0.05524152144789696, -0.6261191368103027, -0.049663811922073364, 0.2599630057811737, 0.07962089031934738, -0.202437624335289, -0.09162045270204544, 0.1539088487625122, -0.05917448177933693, 0.21647144854068756, 0.40015271306037903, -0.24586676061153412, 0.2585137188434601, 0.1714470535516739, -0.12368527799844742, -0.1500147581100464, -0.09701049327850342, -0.632199227809906, 1.0020873546600342, -0.11837982386350632, 0.09014386683702469, -0.09631377458572388, -0.06294377148151398, 0.02578347735106945, 0.05568063259124756, -0.013217538595199585, 0.19059611856937408, 0.11395157128572464, 0.114020936191082, 0.004308811388909817, -0.2799181640148163, 0.011062406934797764, -0.012666820548474789, -0.28549471497535706, -0.16768111288547516, -0.11887060850858688, 0.12401223927736282, -0.5860376954078674, 0.70791095495224, -0.6243055462837219, -0.9816849231719971, 0.018774718046188354, -1.774375319480896, -0.8951749205589294, 0.4597519338130951, -0.4123067557811737, -0.16749906539916992, -0.5583071112632751, 1.0326091051101685, 2.2760426998138428, -0.1036195158958435, 0.13470470905303955, -0.7390891909599304, -0.0700843408703804, -0.11935173720121384, -0.05987066403031349, -1.0656956434249878, -0.8688345551490784, -0.008747025392949581, 0.05146215483546257, 1.075114130973816, -0.08495735377073288, 0.04554117098450661, 0.19700933992862701, -0.06773035228252411, 1.1622484922409058, -0.11504482477903366, 0.05028402432799339, 1.0898845195770264, 0.42076030373573303, 0.11059582233428955, -0.0379062294960022, 0.4641518294811249, 0.16516292095184326, -0.06530546396970749, 0.10689374059438705, 0.19869156181812286, 0.029798587784171104, -0.07399982959032059, -0.03421679511666298, -0.5870944261550903, -0.009089557453989983, 0.05151684954762459, 0.014659435488283634, -0.03867971897125244, 0.458316832780838, -0.12228430062532425, -0.03265339508652687, 0.032597485929727554, 0.7629547715187073, 0.08517222851514816, 0.036633074283599854, -0.8511489033699036, 0.22818948328495026, -0.015094221569597721, -0.04810599610209465, 0.25323301553726196, -0.04627721384167671, -0.08155698329210281, -0.03998773917555809, -0.18969283998012543, -0.11455437541007996, 0.18627239763736725, -0.07293570786714554, -0.09798341244459152, 0.34154680371284485, 0.007889949716627598, -0.01490588579326868, -0.5082454681396484, 1.7682973146438599, -0.05927443131804466, -0.0848495289683342, 0.5572863817214966, 0.4600200951099396, -0.13814105093479156, -0.036991383880376816, -0.11987101286649704, 0.06541133671998978, -0.06516803056001663, 0.021278323605656624, 0.049350351095199585, 0.17638196051120758, 0.09079033881425858, -0.09475063532590866, -0.13869747519493103, 0.1530010849237442, -0.034479644149541855, 0.05406028404831886, -0.25023403763771057, 0.17052389681339264, -0.38835766911506653, -0.4683713912963867, -0.32539549469947815, 0.1278904527425766, 0.08034121990203857, -0.05701214447617531, -0.6531194448471069, -0.1568523794412613, -2.202892541885376, 0.36852964758872986, -1.1191675662994385, -0.13443754613399506, 0.027317872270941734, 0.44869282841682434, -0.42993712425231934, 0.10833808034658432, 0.14898358285427094, -0.4448518455028534, -0.13006052374839783, 0.0244941096752882, -0.06397592276334763, 0.7480126023292542, -0.3436301052570343, -0.1683046668767929, -0.03182050958275795, -0.5993238091468811, 1.307000994682312, 0.10666617006063461, -0.061644673347473145, -0.034798357635736465, -0.5392311811447144, 0.04935064911842346, 0.08165281265974045, -0.21045076847076416, 0.04401859641075134, 0.023903636261820793, -0.051107171922922134, -0.15696023404598236, -0.06600773334503174, 0.18635974824428558, -0.06079130992293358, 0.4228334128856659, 0.12545856833457947, -0.023821083828806877, 0.03762679919600487, 0.344256192445755, 0.4070197641849518, -0.01100210938602686, 0.1366058737039566, -0.146468386054039, -0.29203519225120544, -0.07885653525590897, 0.07430446892976761, 1.1480467319488525, -0.9856255054473877, 0.11629080772399902, -0.09932208806276321, -0.023293672129511833, 0.07371895760297775, 0.06472759693861008, -0.07534598559141159, -0.08887486904859543, 0.5425191521644592, 0.0338103212416172, 0.09209764748811722, -0.05839717388153076, -0.12109888345003128, -0.07635610550642014, 0.0009156697778962553, -0.027378937229514122, -1.8714827299118042, -0.018835974857211113, -0.20926357805728912, 0.08390838652849197, -0.5315527319908142, -0.10438612848520279, -0.10090474039316177, 0.7405778765678406, -0.14435401558876038, 0.014356045983731747, -0.179780974984169, -0.10892678052186966, 0.09638571739196777, 0.0372215174138546, 0.05938124284148216, 0.4176078140735626, 0.2815869450569153, 0.001730564865283668, 0.16709814965724945, -0.5259267091751099, 0.32771340012550354, -0.10112952440977097, -0.5310375094413757, -0.8578789830207825, -1.3231496810913086, -1.320304036140442, 1.4341048002243042, -0.37440159916877747, 1.356791615486145, 0.4813227951526642, -0.14294494688510895, -0.9714507460594177, -0.10841289907693863, -0.04186766967177391, -0.061558011919260025, 1.3031352758407593, 0.07616580277681351, -0.022969206795096397, 0.4507623016834259, 0.6008080840110779, 0.0358392633497715, -0.055133599787950516, -0.6234899163246155, -0.3585698902606964, 0.22252963483333588, -0.040461305528879166, -0.34131625294685364, -0.9553148746490479, 0.04422878846526146, 0.02106335572898388, 0.5186492800712585, 1.00563645362854, -6.920017040101811e-05, -0.04050948843359947, -0.13213112950325012, -0.22112441062927246, 0.016192808747291565, 0.08357162028551102, 0.014384538866579533, -1.0175226926803589, 0.12956644594669342, 0.039564698934555054, 0.5317562818527222, 0.5053591132164001, -0.017943141981959343, -0.11044055223464966, 0.08246626704931259, -0.5268664956092834, 0.1101243868470192, 0.05708253011107445, -0.027000024914741516, -0.1052551195025444, 0.23583318293094635, 0.16302825510501862, 0.25620242953300476, 0.03757203370332718, -0.090439073741436, 0.010447374545037746, 0.13490964472293854, 0.14547257125377655, -0.08149182051420212, 0.05782604590058327, -0.25182753801345825, -0.33759069442749023, -0.11414802819490433, 0.07063133269548416, -0.03312653675675392, 0.04589530825614929, 0.054625872522592545, 0.08666832000017166, -0.3277724087238312, -3.516202211380005, 0.0306528490036726, -0.27696725726127625, -0.03290790319442749, -0.24802881479263306, -0.13839171826839447, -0.12447141855955124, -0.01429250929504633, -0.28996220231056213, -0.13757002353668213, -0.13760016858577728, -0.29242318868637085, 0.1936284750699997, -0.13003744184970856, 0.04210084304213524, 0.2232263684272766, -0.305284708738327, -0.19346930086612701, -0.03329071030020714, -0.4436209201812744, 0.10811973363161087, -0.7187133431434631, -0.4643111526966095, -0.7629156708717346, -0.06830853968858719, 0.6238123178482056, 1.9149894714355469, -1.3773852586746216, 1.291875958442688, 0.9921922087669373, 0.0746227353811264, -1.347842812538147, 0.23796512186527252, 0.057348549365997314, -0.18087710440158844, 0.43838104605674744, 0.10828446596860886, 0.0963883325457573, -0.5952480435371399, -1.288924217224121, -0.07184071093797684, 0.16008470952510834, 0.417224645614624, 1.2078721523284912, -0.034770991653203964, 0.08129661530256271, -0.2706966698169708, -0.2804591953754425, 0.0975714847445488, 0.013766809366643429, 0.07702779024839401, -0.5351389646530151, -0.026881305500864983, -0.014058410190045834, 0.28249529004096985, -0.02610030770301819, 0.006254240404814482, -0.160423144698143, -0.5512264966964722, -0.16129973530769348, 0.15284766256809235, 0.04348522424697876, -0.6032686829566956, 0.2353677898645401, -0.04818921908736229, 0.07325757294893265, 0.15072524547576904, 0.17406834661960602, -0.058755699545145035, -0.17207978665828705, -0.027165254577994347, 0.3662438690662384, 0.026497630402445793, -0.11947917193174362, -0.7786875367164612, 0.24869529902935028, 0.16674472391605377, -0.1557692289352417, 0.014378742314875126, -0.1668652445077896, -0.12950347363948822, 0.04214388504624367, 0.021628020331263542, -0.06441630423069, 0.07426302880048752, 0.06179499998688698, -0.03307652473449707, 0.022867882624268532, -0.11014076322317123, -0.014409243129193783, -0.4522256553173065, -1.8922747373580933, -0.035359468311071396, 0.07595504075288773, 0.06582653522491455, 0.47287461161613464, 0.09122752398252487, -0.054087597876787186, -0.5118440985679626, 0.8363408446311951, 0.09811288118362427, -0.038273390382528305, 0.1446705311536789, -0.2134920358657837, 0.02509850449860096, 0.1298227459192276, -0.45847514271736145, -0.6399179697036743, 0.07722746580839157, 0.22575689852237701, -0.2751059830188751, -0.30854374170303345, -1.0299265384674072, -0.3712315857410431, -1.391382098197937, 0.6274374127388, 1.4641388654708862, 0.6926942467689514, -0.4317863881587982, -0.2580762803554535, -0.08544964343309402, -0.020518923178315163, 1.873556137084961, -0.1927710920572281, 0.02362818457186222, 0.45448318123817444, -0.7439265251159668, -0.05847549065947533, -0.056681569665670395, 0.2891483008861542, -1.0375500917434692, 0.006234555970877409, -0.20604316890239716, -0.11617029458284378, 0.6196771264076233, -0.1978536993265152, 0.08285177499055862, -0.37467339634895325, -0.6596778631210327, -0.11556065827608109, -0.024258585646748543, -0.18605349957942963, -0.034878432750701904, 0.08344382792711258, -0.09250830858945847, -0.1186351403594017, 0.1734328418970108, 0.05559408292174339, -0.05282535031437874, 0.22151239216327667, 0.17101550102233887, -0.012888575904071331, 0.012597720138728619, 0.20686690509319305, 0.29510003328323364, 0.1755075305700302, 0.14373470842838287, 0.05847566947340965, -0.15327121317386627, -0.064972884953022, 0.1040719673037529, -0.06821991503238678, 0.286482036113739, -0.19355620443820953, 0.030136557295918465, 0.1502615213394165, 1.9772263765335083, -0.20419208705425262, -0.11326765269041061, -0.18061663210391998, -0.12035775929689407, -0.19398300349712372, -0.01063606794923544, -0.08168988674879074, -0.11177435517311096, 0.03482517972588539, 0.17405866086483002, 0.32621803879737854, 0.33698299527168274, -0.04603106155991554, -0.19711564481258392, -0.2472693920135498, 0.8232679963111877, 0.12027192860841751, -0.11200452595949173, -0.24225091934204102, -0.4894179105758667, -0.03820043429732323, 0.15789328515529633, 0.35085150599479675, 0.2028989940881729, 0.16914081573486328, 0.1506126970052719, 0.02122017927467823, 0.09366179257631302, 0.07383645325899124, -0.19049181044101715, 0.11613582819700241, -0.9273309111595154, 0.09376812726259232, -0.01021023839712143, -0.067501001060009, 1.1418722867965698, 0.04736470803618431, -0.5339571237564087, 0.3381218910217285, -2.010023593902588, 0.3119104504585266, -0.18537195026874542, -0.7394218444824219, -0.9689490795135498, -0.7590152621269226, 0.7616004347801208, 0.11075805872678757, -0.029750676825642586, 0.16304777562618256, 0.007613129448145628, -1.1862154006958008, -0.11182773113250732, -0.09239511936903, -0.5743575692176819, -0.06796277314424515, -0.024374278262257576, 0.10300981253385544, -0.4074374735355377, -0.3766622543334961, -0.1566316932439804, 0.06292343884706497, -0.3689284324645996, -0.7772927284240723, 0.012751683592796326, -0.16190873086452484, -0.0565313845872879, -1.540500283241272, -0.22696329653263092, -0.09666203707456589, 0.3011019825935364, 0.14142045378684998, -0.034040335565805435, 0.09014285355806351, -0.27651092410087585, -0.2421393245458603, 0.001991106430068612, 0.08004844933748245, -0.0706966444849968, 0.06869466602802277, -0.1538911908864975, -0.06039995327591896, 0.3301525115966797, -0.1844242364168167, -0.13241779804229736, -0.06565488129854202, -0.1566420942544937, -0.07871304452419281, -0.09739870578050613, 0.06745732575654984, -0.30329629778862, -0.47352901101112366, 0.06550837308168411, -0.058722373098134995, 0.06780432164669037, -0.1844741255044937, -0.08407575637102127, -0.1063910648226738, -0.07455696910619736, 0.5001206994056702, 0.09701596945524216, -0.1370520442724228, 0.11456752568483353, 0.07599158585071564, -0.0032206883188337088, 0.09435678273439407, -0.7854927182197571, 0.8469849228858948, 0.006793022621423006, 0.0628698468208313, -0.2157694548368454, -0.05937592312693596, 0.13316990435123444, 0.15917910635471344, -0.1517174392938614, 0.08064855635166168, -0.09872967004776001, -0.10429056733846664, 0.14329589903354645, 0.09001028537750244, 0.26117661595344543, 0.13898251950740814, -0.46536490321159363, -0.3218255639076233, -0.04227989539504051, -0.002446793019771576, -0.3852405250072479, 0.14244483411312103, -1.4087353944778442, -0.5648636221885681, -0.6466848254203796, -0.5346590280532837, 0.776278555393219, -0.29035040736198425, 0.44838860630989075, -0.4280104637145996, 1.5129882097244263, 0.48643624782562256, -0.2896117866039276, -0.10364607721567154, 0.04019606485962868, -1.0302393436431885, -2.222137212753296, -0.1686645895242691, -0.0470823235809803, -0.359771728515625, 1.1081210374832153, 0.05954122170805931, 0.04667913541197777, 1.3002997636795044, 0.8532256484031677, 0.03000369481742382, 0.17991256713867188, 0.08455932140350342, 1.5696841478347778, -0.0652342438697815, -0.04082858934998512, 0.9613377451896667, 0.11894988268613815, 0.04784655198454857, 0.0592770017683506, 0.23327739536762238, -0.09946639090776443, -0.04959750548005104, -0.10835539549589157, 0.06536871194839478, 0.3561801016330719, 0.04676598682999611, 0.10568941384553909, 0.12261871248483658, 0.5312243103981018, -0.006100138183683157, 0.058443959802389145, 0.19436289370059967, 0.11898946017026901, -0.05312132462859154, -0.004939184058457613, 0.07877630740404129, 0.06227492913603783, 0.21309377253055573, -0.1331612914800644, 0.22090943157672882, 0.2554657757282257, -0.021193144842982292, 0.13434839248657227, -0.006126325111836195, 0.20154716074466705, 0.05960911139845848, -0.12104416638612747, 0.1112007275223732, 0.3416121304035187, 0.12807179987430573, 0.1257331520318985, -0.13111141324043274, -0.2960643470287323, -0.10649275034666061, -0.11783456057310104, -0.29329174757003784, -0.17521439492702484, -0.09920728951692581, 0.10508787631988525, 0.39645788073539734, -0.29939499497413635, 0.00667135464027524, 0.025907978415489197, 0.6060551404953003, -0.2507246136665344, 0.09922964125871658, -0.32891491055488586, -0.3710927963256836, 0.016126317903399467, -0.018665673211216927, -0.09429669380187988, 0.5595026612281799, 0.3907437026500702, -0.16225101053714752, -0.1970570832490921, -0.34759894013404846, -0.4086900055408478, -0.01444560382515192, -0.7607627511024475, -0.5449452996253967, -0.027687350288033485, -0.5632923245429993, -1.1225173473358154, -1.7919553518295288, 0.004977456759661436, 0.8742246627807617, 1.230732798576355, -0.5178270936012268, 0.038936760276556015, 0.04491866007447243, 1.3901232481002808, 2.5106968879699707, 0.13261662423610687, 0.07609749585390091, 0.513389527797699, -0.016053499653935432, 0.11588657647371292, 0.05401932820677757, -0.4044480621814728, -0.24935747683048248, -0.03708994761109352, -0.011644191108644009, 0.05792007967829704, 0.08481103181838989, -0.014505117200314999, -0.020272865891456604, 0.08390534669160843, 1.1658328771591187, -0.028890760615468025, 0.007797047961503267, 0.03926514461636543, -0.004963970743119717, -0.19455240666866302, 0.0634203627705574, -0.21110059320926666, 0.19051145017147064, 0.09788738936185837, -0.00470817880704999, 0.3661979138851166, -0.358893483877182, -0.09978119283914566, 0.03789025545120239, -0.04725825786590576, -0.4396653473377228, -0.058357417583465576, 0.14318372309207916, 0.16009804606437683, -0.023037532344460487, -0.06462813168764114, 0.04860484227538109, 0.35809966921806335, 0.11509477347135544, -0.031340569257736206, -0.016345711424946785, 0.140831857919693, 0.03175637498497963, -0.04338771477341652, -0.044036541134119034, -0.16424737870693207, -0.11256400495767593, 0.19764314591884613, -0.15192198753356934, 0.05014719441533089, 0.33449864387512207, 0.0183620136231184, 0.02257244475185871, -0.8124657273292542, -0.412413090467453, -0.007072777021676302, -0.19318877160549164, -0.4297569692134857, -0.018028156831860542, -0.031359877437353134, -0.1347327083349228, 0.3562183082103729, 0.3359992206096649, 0.11484669893980026, -0.0009860320715233684, -0.039238717406988144, 0.06633860617876053, 0.019339783117175102, 0.10996755212545395, -0.12919498980045319, 0.052383903414011, 0.21338392794132233, 0.13292934000492096, -0.7555704116821289, 0.8354454040527344, -0.5727867484092712, -0.6000329852104187, -0.6439314484596252, 0.9652233719825745, -0.020515305921435356, -0.7149694561958313, -0.05049199238419533, -0.23451177775859833, 0.14790287613868713, 0.3862047493457794, 2.3796138763427734, 0.20448018610477448, -0.016961650922894478, 0.10094481706619263, 0.36557862162590027, -0.07155520468950272, 0.008717739023268223, -0.40023085474967957, 1.3085440397262573, -0.04414031282067299, 0.046787697821855545, 0.4359855353832245, 0.2642597258090973, -0.01543277408927679, -0.05587601289153099, -0.3266267776489258, -0.9248819351196289, -0.0557175911962986, -0.003330836072564125, -0.05726451054215431, -1.3236333131790161, -0.09716109186410904, 0.01492141094058752, 0.11618271470069885, -0.05396439507603645, -0.16609801352024078, -0.01438813004642725, 0.026761963963508606, 0.24912826716899872, -0.07037603110074997, 0.07268316298723221, -0.27464208006858826, 0.012819863855838776, -0.11441528052091599, -0.004054971504956484, -0.006342500448226929, 0.07665293663740158, -0.02094613015651703, -0.10760387033224106, -0.2948416769504547, 0.018343711271882057, -0.1241680309176445, 0.0999208614230156, -0.6950201392173767, -0.29393771290779114, 0.08105837553739548, 0.039385464042425156, -0.0643000453710556, -0.21346332132816315, 0.07247709482908249, -0.22324873507022858, -0.03429684415459633, -0.26467639207839966, 0.019282100722193718, -0.02524811215698719, -0.10035955160856247, -0.47614291310310364, -0.10406225919723511, -0.03761553391814232, -0.24542802572250366, -1.0372097492218018, -0.07283330708742142, 0.1577468067407608, 0.6483133435249329, -0.17579923570156097, -0.023333309218287468, -0.028323234990239143, 0.3196837604045868, 0.019250858575105667, -0.0372941829264164, 0.22585298120975494, -0.31853529810905457, 0.005510002840310335, -0.05138323828577995, 0.12870027124881744, 0.10507067292928696, 0.7422885298728943, -0.010340840555727482, -0.05689984932541847, -0.20546185970306396, -0.13859926164150238, -0.342649906873703, -0.265750914812088, -0.7598755955696106, 0.3824276924133301, -0.5078238844871521, 2.15891432762146, 1.9415174722671509, -0.0001623017742531374, -0.11160897463560104, 0.446409672498703, -0.9582369923591614, 0.04346520081162453, -0.06621211767196655, 0.734052836894989, 0.8560819029808044, -0.02166355960071087, -0.010491392575204372, -0.3541445732116699, 0.39604976773262024, -0.21839283406734467, -0.10971435159444809, -0.47113001346588135, 1.4312571287155151, -0.07408875972032547, -0.09960972517728806, 0.14602424204349518, -1.2994176149368286, 0.03135782852768898, 0.053005415946245193, -0.34671589732170105, -1.5295392274856567, -0.05954461917281151, 0.014719902537763119, 0.028713731095194817, 0.03452644124627113, 0.005108259152621031, 0.05762409791350365, -0.48861220479011536, -0.025598207488656044, 0.016698287799954414, -0.15534353256225586, -0.06066561117768288, -0.45886704325675964, 0.018593011423945427, -0.05527262017130852, -0.028818538412451744, -0.09769926220178604, -0.00817923154681921, 0.19250677525997162, 0.10280636698007584, 0.22316454350948334, -0.10817957669496536, 0.08662384003400803, 0.31341102719306946, -0.2578042149543762, 0.16156327724456787, -0.15726850926876068, 0.28725382685661316, 0.2285141944885254, -0.08974885195493698, -0.0008619576110504568, 0.029599668458104134, -0.2842320501804352, 0.09962070733308792, -0.17041827738285065, 0.056908708065748215, -0.33287665247917175, -0.05768483504652977, 0.1293024867773056, -0.5493242144584656, 0.38999512791633606, -0.08308249711990356, -0.15884758532047272, -0.32919636368751526, -0.1342919021844864, 0.007490179967135191, -0.01455248985439539, 0.0703691840171814, 0.1628044992685318, -0.19336020946502686, 0.016679884865880013, 0.10868930071592331, 0.24928408861160278, 0.007397070061415434, -0.021686317399144173, -0.20230428874492645, 0.40986111760139465, -0.06472610682249069, 0.003529622917994857, -0.3440065085887909, 0.46513333916664124, -1.1560384035110474, -0.1791166067123413, -0.9812155365943909, -1.0773066282272339, 0.10664833337068558, -0.1823962777853012, -0.8774499297142029, -1.3737746477127075, 0.8196268677711487, -0.22489316761493683, -0.1630057990550995, -0.5593637228012085, -0.2666991055011749, -0.6000173687934875, -0.26990777254104614, -0.593061089515686, -0.35338398814201355, -0.5506993532180786, -0.5492896437644958, -0.693722665309906, -0.8328227996826172, -0.6374463438987732, -0.5345949530601501, -0.4762812852859497, -0.2517797350883484, -0.28252318501472473, -0.1544615775346756, -1.0055969953536987, -0.7552240490913391, -0.7837843894958496, -0.5130053162574768, -0.3163430392742157, -0.23501461744308472, -0.4966648519039154, -0.4204042851924896, -0.661026120185852, -0.2423834651708603, 