{"structure_edges": [[-1, 0, 1], [-1, 1, 1], [-1, 2, 1], [4, 9, 1], [-1, 4, 1], [17, 10, 1], [16, 11, 1], [12, 13, 1], [12, 8, 1], [16, 12, 1], [17, 16, 1], [-1, 17, 1], [19, 7, 1], [5, 19, 1], [-1, 5, 1], [14, 6, 1], [14, 15, 1], [3, 14, 1], [-1, 3, 1]], "structure_weights": {"mu": [-2.994267883763553, -1.236163881485413, 0.7550436574417966, -2.979247099033462, -2.9427007375063923, 0.0, 0.0, -2.932125252213904, -0.5652107213166335, -2.970817699749995, -0.570304208477579, -1.011960372904234, -0.4439363252857417, -3.022402759739201, 0.0, 0.0, -2.093792660755674, -1.988783487236629, 0.21576527995860206, -0.19240918276940744, -2.3209604562257264, -0.4786595184148372, -3.009930364943141, 0.0, 0.0, -0.029055299494404507, -0.390413616880513, -0.33152711441575317, -1.320161528692266, 0.2736155780644218, -0.6439624825700193, -0.6838373941303245, 0.0, 0.0, 0.1933884841730041, -0.6047020916815309, 1.1770206794773492, -1.1856787729987857, 2.9035173207244513, 1.4992940882788859, -2.3703573920098027, 0.0, 0.0, 0.3767793373878935, -0.10712788080720186, 1.8205502783678627, -0.24064506709039257, 2.862155311477188, 1.3627947594646657, -1.5781070605372436, 0.0, 0.0, 2.035553035844589, -0.9248425368472809, 0.05819001349023358, -1.5089978775490223, 0.3936741324389111, -1.1060317575392018, -0.4641733345825634, 0.0, 0.0, 0.3648099106277802, -0.3721201904102679, -0.38497150879463454, -0.9696615715143665, -0.4088243992357412, -0.6377358624910785, -0.44027249531761925, 0.0, 0.0, -0.026469564725856442, -0.974775469647111, -0.390647106846099, -0.33640899209954184, -2.0108004564162356, -0.9536556463433107, -2.8841431393503427, 0.0, 0.0, -0.855422090340893, -1.1148014756147626, 1.1871578830644802, -1.2976613494363778, 2.9293943649431067, 0.4173789121592452, -2.909482471273447, 0.0, 0.0, 2.0589642292175716, -1.8284573196579952, -0.36848777660871873, -1.5999363684201393, 0.14651150810823724, -0.4476154785479551, -0.3162926303987941, 0.0, 0.0, 0.25031887475749187, -1.1155129317042567, -0.7054843950490634, -1.4439351086876278, -0.38942462115474635, -0.5665942230840795, -0.5851684419704226, 0.0, 0.0, 0.5192421970876108, -0.7740135531760731, 0.6619258737418994, -0.7693091538320204, 0.606970705751308, 0.8774200084147495, -2.9616314205774272, 0.0, 0.0, 0.9110964876102772, -0.9378135507185987, -2.9263784252991485, -0.39273181109808863, -0.10530786048225453, -2.9407611896513517, -2.873494905298805, 0.0, 0.0, -1.8722746639148904, -0.6842232069702137, 0.40199112705390855, -1.1576194344835957, 2.7993562527783658, 0.3006703563460504, -2.7815896321768263, 0.0, 0.0, -0.07644858182951667, -0.4792548433083166, -3.104368834360574, -1.0242748659453687, -0.9183495180474837, -3.0007889763071027, -2.273029898043189, 0.0, 0.0, -2.468824083053247, -0.46982553523533044, -3.104368834360574, -1.4970966142723712, -0.4867881115465811, -3.0007889763071027, -2.8856427853672173, 0.0, 0.0, -2.723882282518707, -0.5424869096073006, -2.9931393677990314, -1.083838202150301, 0.844272886934742, -2.998409806555584, -2.993205870697091, 0.0, 0.0, -2.7361085925407105, -0.4817500901686139, 0.0, 0.0, 0.0, 0.0, 0.0, 0.0, 0.0, 0.0, 0.0, -0.5508437778909915, -0.7010359846163873, 1.8915220607739538, -0.6973537664851563, -2.8264550527030567, 0.0, 0.0, -1.1449698565124433, -2.28824510490396], "sigma": [0.10000004818909736, 0.014265814281673698, 0.04274174139716174, 0.10000004525606572, 0.05570908955035355, 0.1, 0.1, 0.10000003668398678, 0.021550200809914932, 0.10000004260065198, 0.01394317375151467, 0.4475637582940181, 0.04498116496148464, 0.10000005469111233, 0.1, 0.1, 0.023710729001978955, 0.010555304628269882, 0.05448578934764364, 0.01, 0.010658067117144152, 0.24036424042787807, 0.010000000015727118, 0.1, 0.1, 0.012526262984480984, 0.013469312542638733, 0.019525996003251625, 0.021518431618603815, 0.01, 0.01, 0.010154008788017964, 0.1, 0.1, 0.013741809151607071, 0.03112652173266975, 0.05660342587773132, 0.010512443009369342, 0.10000003001342088, 0.0592552484313919, 0.03200704267173031, 0.1, 0.1, 0.02116244481271589, 0.017297772911305867, 0.03050999119646393, 0.01, 0.03687750924324778, 0.010378975685671107, 0.01, 0.1, 0.1, 0.014919153480533734, 0.03667157019899377, 0.01, 0.01, 0.21653011135823955, 0.01589179729942267, 0.01054629577370681, 0.1, 0.1, 0.31285647689544355, 0.04558356719727319, 0.03501197822911787, 0.09101335338157959, 0.24579739715748652, 0.3626912125737383, 0.19104496135429944, 0.1, 0.1, 0.08298199490945335, 0.01, 0.2951645881304738, 0.01239831823937219, 0.010103652488821337, 0.010721031187762674, 0.10000002828029708, 0.1, 0.1, 0.15511908752602127, 0.3189906211528161, 0.025633000075409963, 0.01, 0.034569828651849946, 0.12000892090901065, 0.1000000324373706, 0.1, 0.1, 0.0378331330167921, 0.11099805349865492, 0.025345676966531915, 0.01, 0.027330743902220924, 0.040194634855574354, 0.055332228855162716, 0.1, 0.1, 0.01365818061025852, 0.04479569243332479, 0.013512242330330588, 0.023485991906239033, 0.1732641750261489, 0.013476932562918107, 0.015563400201325421, 0.1, 0.1, 0.0686400298265194, 0.04586610662510037, 0.03849068107050602, 0.013466973735869015, 0.17631430248588342, 0.05058448633119825, 0.10000004188481329, 0.1, 0.1, 0.10138755263783666, 0.5795624613300023, 0.10000003548851545, 0.0717718196864861, 0.03337262025565118, 0.10000003844766038, 0.010000000008222624, 0.1, 0.1, 0.5381467931359066, 0.25963431043992585, 0.03289580425144376, 0.013399835286230581, 0.09999838738330875, 0.01572728937297133, 0.06878611244973967, 0.1, 0.1, 0.729631827897931, 0.31119722036565756, 0.10000007110104714, 0.14997153074338365, 0.09375865404722883, 0.10000004941247799, 0.010624971611397483, 0.1, 0.1, 0.013515455588236778, 0.2444062003479815, 0.10000007110104714, 0.01, 0.01191256590546799, 0.10000004941247799, 0.045789399454572534, 0.1, 0.1, 0.15155273057063334, 0.6432126194649217, 0.03412598491176701, 0.01, 0.012256812728479165, 0.1000000494556028, 0.01286118202121917, 0.1, 0.1, 0.07975870997639345, 0.016393315968291366, 0.1, 0.1, 0.1, 0.1, 0.1, 0.1, 0.1, 0.1, 0.1, 0.040867784097206546, 0.012968927570548273, 0.1905257342231643, 0.01968502209676592, 0.05875147584062423, 0.1, 0.1, 0.0472662917376529, 0.2470395743036861]}, "policy_weights": [-0.34966352581977844, -0.5433071255683899, -0.11200987547636032, 0.1215742751955986, -0.7457066178321838, -3.34350848197937, -0.10102986544370651, 0.07182592153549194, 0.5459384322166443, -0.22641658782958984, 0.03486713767051697, 0.07701177150011063, 0.8957758545875549, -0.608068585395813, -0.03129062056541443, 0.00022306105529423803, -0.1701897233724594, 0.26409250497817993, -0.02862861566245556, -0.015545100905001163, -0.3924137055873871, 0.308697909116745, 0.1079254075884819, 0.04468202218413353, -0.3761296570301056, -0.18970231711864471, 0.051241155713796616, 0.07980113476514816, -0.22026188671588898, 0.3190394341945648, -0.021505041047930717, -0.07764709740877151, -0.08627904206514359, 0.16343024373054504, 0.03123283199965954, 0.09283073991537094, 0.8581231236457825, 0.6124838590621948, 0.050361517816782, 0.009339549578726292, -0.31188347935676575, -0.06741064786911011, -0.026904789730906487, 0.007487892638891935, 0.08640170842409134, -0.12357508391141891, 0.14139841496944427, -0.17850519716739655, -0.17381592094898224, -0.7703775763511658, -0.07285869121551514, 0.07391680032014847, -0.00619518430903554, -0.35402700304985046, 0.13867579400539398, 0.046492550522089005, 0.6294516921043396, -0.36040255427360535, -0.03065619058907032, -0.025494098663330078, 0.13973763585090637, -0.1647556722164154, -0.01292633917182684, 0.05572831258177757, -0.11187385767698288, 0.3001602292060852, 0.1539412885904312, 0.05244442820549011, -0.40719035267829895, 0.0032582732383161783, -0.15550707280635834, 0.0494687594473362, 0.09138137847185135, 0.030404387041926384, -0.03791731968522072, -0.06903897970914841, -0.10429107397794724, 0.761690616607666, 0.1310563087463379, -0.08644730597734451, -0.5504470467567444, -0.2840569317340851, -0.04777900502085686, -0.07115025818347931, -0.08433455973863602, 0.1820518523454666, -0.23400680720806122, 0.5747659802436829, -0.31245988607406616, 0.8792629837989807, 0.16199491918087006, 0.6230117082595825, -0.8291206359863281, 0.052998367697000504, -0.010546988807618618, -1.2561348676681519, -0.9317820072174072, 0.04413213953375816, 0.06555033475160599, -0.11187504976987839, 1.2741448879241943, 0.015726430341601372, 0.15704523026943207, -0.7496218085289001, 0.15305520594120026, 0.06557906419038773, -0.15948034822940826, 0.22053615748882294, -8.46395269036293e-05, 0.16767406463623047, -0.0852205827832222, 0.22420953214168549, 1.8342951536178589, -0.1859579235315323, 0.14344869554042816, 0.13616451621055603, -0.025967927649617195, 0.15839578211307526, -0.11712943762540817, -0.29819589853286743, -0.020584391430020332, -0.022560372948646545, 0.11020410805940628, 0.5327137112617493, 0.08373343199491501, -0.011086375452578068, -0.07523691654205322, 0.05044671893119812, 0.8321107029914856, -0.22924162447452545, -0.15868495404720306, -0.12572093307971954, 0.2575254440307617, -0.015348642133176327, 0.06815701723098755, -0.01490519568324089, 0.052983302623033524, 0.029009880498051643, 0.21513985097408295, -0.0299984123557806, -0.19372449815273285, 0.1929004192352295, -0.08004630357027054, 0.24388258159160614, -0.5525079965591431, 0.19293548166751862, -0.14927877485752106, 0.08160001784563065, 0.029882488772273064, 0.2517443001270294, 0.1841730922460556, -0.17169640958309174, -0.3121609389781952, -0.10265684872865677, 0.058460649102926254, 0.4302224814891815, -0.46437886357307434, 0.19597919285297394, 0.16207851469516754, 0.3552793562412262, -0.15166842937469482, 0.03962474688887596, 0.01777005009353161, 0.10745469480752945, -0.006899647414684296, 0.11264599114656448, -0.14325489103794098, -0.2737107574939728, 0.4177010953426361, -0.1495102494955063, -0.055015236139297485, -0.5081459283828735, -0.5555568933486938, -0.361481636762619, -1.0436127185821533, -0.6836004257202148, -0.9287363886833191, -0.7708025574684143, 0.19144845008850098, 0.6907219290733337, 0.37285706400871277, -0.1211991012096405, 0.5623608827590942, 0.16283465921878815, 0.1539851576089859, -0.15543974936008453, -0.5729793310165405, -0.5260037183761597, -0.035792168229818344, 0.020136820152401924, -0.09690094739198685, -0.1548672765493393, -0.18572723865509033, 0.20681273937225342, 0.18700961768627167, 0.7941418290138245, -0.00110119569581002, -0.14374496042728424, -0.14001251757144928, -0.3511243164539337, 0.11025813966989517, 0.07052677124738693, 0.20585930347442627, 0.5067635178565979, 0.04747408255934715, -0.004266716074198484, 0.17616605758666992, -0.24779866635799408, -0.03556371107697487, 0.02847430296242237, 0.13379742205142975, 0.12677384912967682, -0.11022893339395523, 0.01982983760535717, 0.17242467403411865, -0.08437079191207886, 0.012441419064998627, -0.14783965051174164, -0.6670545935630798, 0.0038713228423148394, 0.17132045328617096, 0.15062402188777924, -0.06106698140501976, -0.17708100378513336, 0.027070878073573112, 0.044169191271066666, -0.041916970163583755, 0.08154755085706711, 0.007706799078732729, -0.18488158285617828, 0.005085575859993696, -0.0492134727537632, -0.040951911360025406, -0.03307625278830528, -0.10153757780790329, 0.16333545744419098, 0.008887567557394505, 0.16327856481075287, 0.050140444189310074, 0.19164301455020905, -0.010334237478673458, -0.05483889952301979, -0.06661482155323029, 0.06232309341430664, -0.1799270063638687, -0.0005341469659470022, 0.15970003604888916, 0.2870994210243225, -0.10118798166513443, -0.08308316022157669, 0.3531493842601776, 0.29031649231910706, -0.14017818868160248, -0.06319750100374222, 0.039271410554647446, 0.10967766493558884, -0.1066306009888649, -0.036341097205877304, -0.16041401028633118, -0.765598714351654, -0.009189584292471409, 0.03395301476120949, -0.8073857426643372, 0.08266281336545944, -0.4526195228099823, 0.1010328158736229, 0.5482649207115173, -1.8703595399856567, 1.0924441814422607, 0.12296927720308304, -0.9447765946388245, 0.2664357125759125, -0.643760085105896, 0.5475720763206482, 0.7369279265403748, -0.08839040249586105, 0.050038475543260574, -0.1813000589609146, 2.400268316268921, -0.10990702360868454, -0.009487821720540524, 0.20029307901859283, -0.239730104804039, 0.04661881551146507, -0.08568310737609863, 0.34547093510627747, 0.6817155480384827, -0.08804207295179367, 0.04761069640517235, 0.5539698004722595, 0.49708321690559387, 0.06577342748641968, -0.05461782589554787, -0.21743939816951752, 0.10988041013479233, 0.036244627088308334, 0.022367777302861214, 0.007069834042340517, 0.05627407133579254, -0.12138224393129349, 0.04052659869194031, 0.16929246485233307, -0.4926382601261139, 0.005947020370513201, 0.08780526369810104, 0.2879941165447235, -0.08497738093137741, 0.03373134508728981, 0.0507921539247036, 0.5203534960746765, 0.12176159024238586, -0.07767068594694138, -0.036923523992300034, -0.09062600880861282, -0.12534186244010925, 0.05643105134367943, 0.07081330567598343, 0.014384206384420395, -0.10141273587942123, 0.08972949534654617, 0.031134309247136116, 0.13250158727169037, 0.342739075422287, -0.05829930678009987, 0.12099314481019974, 0.10497235506772995, 0.027542194351553917, 0.0662885382771492, 0.0004832651757169515, -0.20112264156341553, -0.10375344008207321, 0.008823157288134098, -0.13200260698795319, -0.3201592266559601, 0.21846245229244232, -0.0785440132021904, -0.03683113679289818, 0.0860096737742424, -0.6340650916099548, -0.08749652653932571, 0.054068148136138916, 0.1851656287908554, -0.7835497856140137, -0.06349891424179077, 0.052328888326883316, 0.009982219897210598, 0.040786147117614746, 0.11586464196443558, 0.06590867787599564, 0.8307971954345703, -0.3659415543079376, -0.01732274703681469, -0.02205093391239643, -0.34040501713752747, -0.3220069706439972, -0.5473060011863708, -0.4636535942554474, 0.11569381505250931, -0.058416351675987244, -0.6544360518455505, -1.0197006464004517, 1.167265772819519, 0.774042546749115, -0.6140044927597046, 1.1223469972610474, -0.16067062318325043, -0.037265900522470474, -0.094815693795681, -0.38923099637031555, 0.9270956516265869, -0.011228769086301327, -0.022656021639704704, 0.9181785583496094, 0.48633095622062683, 0.16598378121852875, 0.11034206300973892, -0.6872817873954773, 0.016500486060976982, 0.1273728758096695, -0.2506978511810303, -0.21294738352298737, 0.5188287496566772, -0.1862940937280655, 0.05179101228713989, -0.49419310688972473, -1.1920167207717896, 0.16145958006381989, 0.16414214670658112, 0.20431995391845703, 0.2206030637025833, -0.03199523314833641, -0.12838532030582428, -0.11315533518791199, -0.26438993215560913, 0.05214915797114372, -0.008824632503092289, -0.06634120643138885, -0.08448035269975662, -0.032581329345703125, 0.006018329877406359, -1.0328956842422485, 0.03907611966133118, -0.11162269115447998, -0.12419868260622025, -0.25812268257141113, 0.36728164553642273, 0.03368157520890236, -0.07618849724531174, -0.10215210169553757, -0.013211934827268124, -0.03569639101624489, -0.040838658809661865, 0.1544409841299057, 0.04157128185033798, -0.20367462933063507, -0.16983188688755035, 0.18611498177051544, 0.1436401605606079, -0.11721957474946976, -0.03979838266968727, -0.5830173492431641, 0.12876664102077484, -0.013745962642133236, -0.09466540068387985, -0.025253942236304283, 0.04013573378324509, 0.11250508576631546, 0.0048759873025119305, 0.027102740481495857, 0.31838804483413696, -0.1875898689031601, 0.16482101380825043, 0.13037382066249847, -0.47030356526374817, 0.08895652741193771, 0.029571739956736565, 0.08625973016023636, 0.10453831404447556, -0.07479894906282425, -0.18269143998622894, 1.1733834743499756, 0.49634602665901184, 0.005354725290089846, 0.11654876917600632, -0.30921509861946106, -0.1918012946844101, -0.6229001879692078, -0.8151839375495911, -0.09922506660223007, -1.0721036195755005, 0.6842617988586426, 0.40943148732185364, -0.37957385182380676, -0.9312403798103333, -0.372990220785141, 0.5211321115493774, 0.39478161931037903, 0.10032617300748825, 0.14343570172786713, -0.8864441514015198, 0.40796950459480286, -0.09612464159727097, 0.023824915289878845, -1.1066409349441528, -1.5521646738052368, -0.069400854408741, 0.01848040707409382, -0.29007986187934875, -1.2882345914840698, 0.12156462669372559, -0.08610343188047409, -0.6077104210853577, -1.151810646057129, 0.25580474734306335, 0.08166276663541794, 0.6328028440475464, 0.532198965549469, 0.04984932765364647, -0.034590985625982285, -0.14043273031711578, -0.26022571325302124, -0.19916830956935883, -0.10001520067453384, -0.4823346436023712, -0.29814693331718445, -0.046366576105356216, -0.0500456728041172, 0.06413466483354568, -0.19410134851932526, -0.29788824915885925, 0.09549690037965775, -0.7024183869361877, -0.6390834450721741, 0.09693937748670578, -0.04092514514923096, -0.12959705293178558, 0.2664267420768738, 0.1111065074801445, -0.05948937311768532, -0.29745224118232727, 0.14557185769081116, 0.05634940043091774, -0.008568204939365387, -0.01923982985317707, -0.035555072128772736, 0.15739382803440094, -0.06502766162157059, 0.15407589077949524, -0.5063985586166382, -0.11519431322813034, 0.05931263789534569, -0.28026142716407776, -0.2313825488090515, 0.06684135645627975, 0.09121911972761154, -0.04074171930551529, -0.13024897873401642, -0.11105190962553024, 0.016045020893216133, -0.07753796875476837, -0.0528436116874218, 0.11577450484037399, -0.23092888295650482, -0.035072509199380875, -0.020685825496912003, -0.1125805452466011, -0.10954233258962631, -0.21034763753414154, 0.015702052041888237, 0.05693495646119118, -0.030820699408650398, -0.3022870719432831, 0.3363504409790039, 0.06166971102356911, -0.03813856840133667, -0.42806974053382874, -0.22866851091384888, -0.4229488670825958, -1.0022352933883667, -0.5861440300941467, -0.21808068454265594, 0.11504432559013367, 0.2696530520915985, 1.333051323890686, 0.2909798324108124, 0.7131796479225159, 0.45340684056282043, -0.010658405721187592, -0.19693873822689056, -0.14348290860652924, -0.6343302130699158, -1.1127642393112183, -0.07111053913831711, -0.03560728207230568, -0.26439982652664185, -0.13542267680168152, 0.07629251480102539, -0.08615345507860184, -0.45435377955436707, -1.5702770948410034, 0.05588448420166969, -0.08398395776748657, 0.1721567064523697, 0.8483111262321472, -0.03819740191102028, -0.015611172653734684, 0.4079572260379791, -0.45290660858154297, -0.01060935016721487, 0.040027085691690445, -0.167998805642128, 0.1827593892812729, -0.14289866387844086, -0.012685532681643963, -0.147218257188797, 0.013308812864124775, 0.12810491025447845, -0.034862369298934937, -0.05756312236189842, -0.15334652364253998, 0.1303161382675171, 0.044571492820978165, 0.47415924072265625, -0.4899272620677948, 0.1036304235458374, -0.1954285055398941, -0.1253547966480255, -0.15337201952934265, 0.034518178552389145, -0.01801602728664875, -0.02673870138823986, 0.18057560920715332, 0.13300345838069916, 0.03648751601576805, -0.09246373176574707, -0.5877577066421509, -0.03836387023329735, 0.04910954460501671, 0.01183468010276556, -0.19221985340118408, 0.1909366399049759, 0.11829067021608353, 0.24684859812259674, 0.27216169238090515, -0.1653514951467514, -0.050416916608810425, 0.10524249821901321, 0.09813817590475082, 0.2539685070514679, -0.009412228129804134, -0.10806631296873093, 0.4257107079029083, -0.013631374575197697, -0.06599128991365433, 0.13291171193122864, 0.508383572101593, -0.025461336597800255, -0.03224736824631691, 0.1323946863412857, 0.018196390941739082, -0.026952087879180908, -0.095116026699543, -1.4341915845870972, -0.960338294506073, -0.0206740815192461, -0.09821337461471558, -0.21851323544979095, 0.0403396412730217, -0.025472642853856087, -0.4319291412830353, -1.188184380531311, -0.21730615198612213, -1.6018887758255005, 0.48023465275764465, 1.1951706409454346, 0.2042037695646286, -0.8039082884788513, 2.060405731201172, -0.1773252934217453, 0.021653516218066216, 0.10454896837472916, -0.42475178837776184, -0.5376601815223694, -0.0030749214347451925, 0.11514627933502197, -0.3903394639492035, -1.1335365772247314, -0.02433796226978302, 0.08104722946882248, -0.6495563387870789, -0.6226735711097717, -0.09671717137098312, 0.03763579949736595, -0.6244186162948608, -0.5222426056861877, -0.00795112643390894, -0.15224049985408783, 0.6523929238319397, -0.5820246338844299, 0.11328340321779251, 0.12303899973630905, -0.2028956264257431, 0.2826347053050995, -0.05317944660782814, 0.1851034015417099, -0.2563020884990692, -0.18686698377132416, -0.0017006342532113194, 0.0407404862344265, -0.113348089158535, -0.10831507295370102, 0.049662381410598755, -0.0043689231388270855, -0.04283815994858742, -0.3125331699848175, -0.08650445193052292, 0.1597660928964615, -0.27210572361946106, 0.10658403486013412, -0.15529464185237885, -0.05488743260502815, 0.18133531510829926, 0.19692738354206085, -0.04891562834382057, 0.00773669732734561, -0.06685839593410492, -0.008756788447499275, -0.06122398376464844, 0.10999008268117905, -0.12415730208158493, 0.12657631933689117, 0.049705151468515396, -0.02568936161696911, -0.13471440970897675, 0.026265421882271767, -0.12020159512758255, -0.013792349956929684, -0.1228100135922432, 0.02697882056236267, 0.09869352728128433, -0.08400779217481613, 0.1731097251176834, 0.30896618962287903, 0.02954411506652832, -0.048555273562669754, 0.8322493433952332, -0.2645183205604553, -0.09943277388811111, -0.16592930257320404, 0.1707639843225479, -0.16685153543949127, 0.01658010296523571, 0.05725157633423805, 0.7357974648475647, 1.2148617506027222, -0.15875184535980225, -0.09927553683519363, -0.9265562891960144, 0.6456024050712585, -0.6619747877120972, 0.16095224022865295, -0.48399367928504944, -0.08329682052135468, -0.012861103750765324, -0.21168406307697296, -0.3748185932636261, -1.0192358493804932, 0.8164272308349609, -0.23294122517108917, -0.3146653473377228, 0.020825950428843498, -0.06322937458753586, -0.5406683683395386, 0.5648342370986938, -0.05089486017823219, -0.27212807536125183, -0.48473218083381653, -1.064573049545288, -0.06319583207368851, -0.10569571703672409, 0.5683704018592834, -0.8594885468482971, 0.09996425360441208, -0.028324784711003304, 0.40250954031944275, 1.2301197052001953, 0.0939246341586113, -0.06119858846068382, -0.015026886947453022, 0.23244692385196686, 0.1929701715707779, 0.09250307828187943, -0.04988768324255943, 0.28634265065193176, -0.07900666445493698, -0.0842185690999031, -0.119513601064682, -0.03458115831017494, -0.0544787235558033, -0.21634651720523834, 0.09526904672384262, 0.23154877126216888, 0.10654672235250473, -0.034522686153650284, -0.21384452283382416, -0.25046536326408386, -0.1742309182882309, -0.04848713055253029, -0.31422996520996094, 0.0704355388879776, -0.07740271836519241, 0.024795087054371834, -0.10740388184785843, 0.21791864931583405, -0.16927315294742584, 0.02253943867981434, 0.14173723757266998, -0.27404966950416565, -0.05894613638520241, -0.08373255282640457, 0.011640534736216068, -0.11799896508455276, 0.024563757702708244, 0.08836574107408524, 0.24119259417057037, 0.4965153932571411, -0.058293577283620834, -0.03453734889626503, -0.12777839601039886, -0.27304407954216003, -0.08092664927244186, 0.10275522619485855, -0.31105679273605347, 0.43131375312805176, -0.16703177988529205, -0.15054430067539215, 0.06567960232496262, -0.05043371394276619, 0.07137929648160934, 0.025550397112965584, 0.17338810861110687, 0.10350561141967773, 0.06355762481689453, -0.11739934235811234, -0.19160278141498566, 0.12509456276893616, -0.008635184727609158, -0.05761224403977394, -1.0534456968307495, -0.9559069275856018, -0.8345146179199219, -0.4544437825679779, -0.1117933914065361, -0.376089483499527, -0.4524029493331909, -0.725392758846283, 1.2944377660751343, 0.9522120356559753, -0.17632170021533966, 0.2720974087715149, -0.9240548014640808, -0.1172260120511055, -0.015744803473353386, -0.20814798772335052, -0.7874612808227539, -0.10552114248275757, -0.08691609650850296, 0.5166769623756409, -0.4175756871700287, -0.05510539188981056, -0.0075725470669567585, -0.03782864660024643, -0.012931360863149166, 0.008551456034183502, -0.07722001522779465, -0.028116611763834953, -0.14803948998451233, -0.00937425997108221, 0.009728297591209412, -0.29764458537101746, -0.5480250120162964, 0.13772644102573395, -0.0340004600584507, -0.1367345005273819, 0.17334626615047455, 0.008471771143376827, 0.031653642654418945, 0.13057303428649902, 0.07975160330533981, 0.0404333733022213, -0.15032337605953217, 0.25818631052970886, 0.10634380578994751, 0.01735392026603222, -0.12557770311832428, -0.112978495657444, -0.5177746415138245, 0.04150768741965294, -0.014221222139894962, -0.5201244950294495, -0.2720445692539215, -0.32414838671684265, -0.004468776285648346, -0.18334929645061493, -0.13848777115345, 0.11415504664182663, 0.043224576860666275, -0.0831034705042839, 0.5194941163063049, -0.05962228402495384, 0.002483081305399537, -0.07464098185300827, 0.11114243417978287, 0.0765620544552803, -0.17775119841098785, 0.47750523686408997, -0.33589982986450195, -0.08522545546293259, -0.11321187764406204, -0.2043921798467636, -0.020694492384791374, -0.04251759871840477, -0.014094485901296139, -0.2213284820318222, -0.48666760325431824, -0.14888201653957367, -0.1120070144534111, 0.18295808136463165, -0.6990246176719666, -0.06677025556564331, -0.19988034665584564, 0.1059141531586647, -0.005439337808638811, -0.003238140372559428, -0.030215950682759285, 1.1308521032333374, -0.31805163621902466, 0.11526132375001907, 0.15012703835964203, -0.5726080536842346, -0.0793461948633194, -0.8794838786125183, -0.2559957802295685, 0.4239005744457245, -0.9174239635467529, 0.06461996585130692, 1.3198482990264893, -1.016194224357605, -1.3169984817504883, -0.41727662086486816, -0.3624911308288574, -0.3887600600719452, 0.005142714828252792, 0.07630287855863571, -0.4843033254146576, 0.6263822317123413, -0.18305478990077972, -0.036438826471567154, 0.6420001983642578, 0.6158703565597534, -0.03567993640899658, -0.09777151793241501, -1.1023924350738525, -0.7826632857322693, 0.056746359914541245, 0.007422358263283968, 0.1850498765707016, 1.066552758216858, -0.030360130593180656, -0.1527778059244156, -0.5282720327377319, -0.05781390145421028, -0.12253021448850632, -0.11806630343198776, -0.13393820822238922, -0.052228156477212906, 0.06754957884550095, -0.026387037709355354, 0.21807877719402313, -0.6491270661354065, 0.06957293301820755, 0.13772164285182953, 0.12674297392368317, -0.025299938395619392, -0.003280788892880082, -0.019314320757985115, 0.2467079907655716, -0.005136490799486637, 0.03434637561440468, 0.19814260303974152, -0.2868294417858124, -0.06536581367254257, 0.006791815627366304, 0.056489888578653336, -0.05434880778193474, 0.14227332174777985, 0.04067626968026161, -0.0490499772131443, -0.14493323862552643, 0.25670573115348816, 0.16994322836399078, -0.03393864259123802, 0.14073128998279572, -0.14632688462734222, 0.1554257869720459, -0.01724475808441639, -0.44220778346061707, 0.2991466820240021, -0.03402212634682655, -0.04967969283461571, -0.21940596401691437, 0.18481118977069855, 0.11464548856019974, 0.015507937408983707, -0.2505321800708771, -0.4736725091934204, 0.0745050236582756, 0.11756075173616409, -0.48396822810173035, 0.31305959820747375, -0.02380754053592682, 0.023527206853032112, 0.01756878010928631, -0.03728306666016579, 0.058084066957235336, -0.08879495412111282, 0.41567087173461914, -0.29398593306541443, 0.07627075165510178, 0.11989950388669968, 0.3641910254955292, 0.10114704817533493, -1.0053303241729736, -0.8366429209709167, 0.5041751265525818, -0.5897091031074524, -0.760199248790741, 2.0293257236480713, 0.25124937295913696, 0.8748942017555237, 1.3476494550704956, -0.018904343247413635, 0.08784651011228561, -0.06869077682495117, -0.070377878844738, -0.4628138840198517, 2.411306381225586, -0.06744372844696045, 0.11318611353635788, -0.4854831397533417, -0.3260612189769745, 0.09862906485795975, 0.17637299001216888, 0.801952064037323, 0.02932247705757618, -0.1448742002248764, -0.013203085400164127, 0.7305901646614075, -0.2944266200065613, 0.0023748523090034723, -0.08182109147310257, -0.3009670376777649, -0.6740568280220032, 0.03270206227898598, 0.12810255587100983, -0.17853407561779022, -0.2609644830226898, 0.10673590749502182, -0.16713275015354156, 0.1838413029909134, -0.12624801695346832, 0.15726244449615479, -0.10657185316085815, 0.07174081355333328, 0.14770279824733734, 0.25931882858276367, -0.022409571334719658, 0.8937008380889893, 1.0758970975875854, -0.22808478772640228, -0.13813970983028412, -0.12576057016849518, -0.34017637372016907, -0.20377804338932037, -0.031115682795643806, 0.050228241831064224, 0.04823041334748268, 0.01224543061107397, 0.09818392246961594, -0.21646006405353546, 0.34123632311820984, 0.053027454763650894, -0.11395823210477829, -0.10521744936704636, -0.028770597651600838, -0.006205924320966005, 0.1118302270770073, 0.39660927653312683, -0.004384311847388744, 0.1683821827173233, -0.008046292699873447, -0.08771779388189316, 0.3291659355163574, -0.08637439459562302, -0.054320868104696274, -0.008538417518138885, -0.3970504701137543, 0.07295221835374832, -0.04086875542998314, 0.07313954085111618, 0.13170720636844635, -0.18820132315158844, -0.08744948357343674, -0.23088933527469635, 0.10693418234586716, -0.04277009144425392, 0.039061155170202255, -0.42722606658935547, -1.2953721284866333, 0.14674602448940277, 0.08628679066896439, -0.5603328347206116, -0.9311115741729736, -0.5863560438156128, -0.591766893863678, -0.3021221458911896, -0.15228964388370514, 0.01809399202466011, -1.680355191230774, 1.137613296508789, 0.32735592126846313, 0.669990062713623, -1.1248642206192017, -0.36678168177604675, -0.05712210759520531, -0.03580251708626747, -0.09914981573820114, 1.4594138860702515, 0.0875191017985344, -0.04045742750167847, 0.03230264410376549, -0.17481182515621185, 0.19922290742397308, -0.031249048188328743, 0.7992523312568665, 1.186447024345398, 0.13755618035793304, 0.01226320955902338, -0.31859979033470154, -1.1737176179885864, -0.06935817003250122, -0.007557443808764219, -1.1230428218841553, 0.12839818000793457, 0.09931129962205887, 0.11112772673368454, -0.2258620411157608, -0.23362161219120026, 0.00958242267370224, 0.11892246454954147, 0.2569246292114258, 0.26280590891838074, 0.043086711317300797, 0.06623201817274094, -0.06213760003447533, 0.06102174520492554, 0.1464918702840805, -0.09045714884996414, 0.024671198800206184, -0.4716547429561615, -0.1052548885345459, 0.1280643790960312, -0.09071583300828934, 0.20743758976459503, -0.09971440583467484, 0.010942681692540646, -0.050045114010572433, -0.0774647444486618, -0.21218760311603546, -0.1326000690460205, 0.17574431002140045, 0.403271347284317, 0.011813230812549591, 0.008256250061094761, -0.016546742990612984, 0.04235950484871864, -0.10309409350156784, 0.020286427810788155, 0.30433040857315063, -0.37791553139686584, 0.09347396343946457, 0.12937377393245697, -0.059038762003183365, 0.17340314388275146, 0.1234201118350029, 0.2110968381166458, -1.2551213502883911, -0.8780947327613831, 0.006363064516335726, -0.031425174325704575, -0.5502036809921265, 0.1573406308889389, 0.12697027623653412, -0.039191070944070816, 0.029421744868159294, -0.08338450640439987, 0.04130008816719055, 0.007841982878744602, 0.6311158537864685, 0.1842617243528366, -0.04793975129723549, -0.06809484213590622, -0.21896831691265106, -0.5785959959030151, -0.8812468647956848, 0.21471811830997467, 0.43502238392829895, -0.9026517271995544, 1.1587727069854736, 1.0132044553756714, -0.5657873153686523, -0.384664922952652, -0.11467769742012024, 0.3610830307006836, -1.0662353038787842, 0.10878551751375198, -0.010360299609601498, -0.7688283324241638, -1.2077410221099854, -0.04685330390930176, 0.05746680125594139, 0.3472324311733246, 0.43751129508018494, 0.00977137591689825, -0.033359285444021225, 0.11753729730844498, -0.9862057566642761, 0.03256693109869957, 0.014320134185254574, -0.10019790381193161, -1.0438815355300903, -0.07117145508527756, 0.13252712786197662, -0.2915806472301483, -0.5599828362464905, -0.14590583741664886, 0.13757836818695068, -0.09618102759122849, -0.18681417405605316, -0.07479602843523026, -0.1002955511212349, 0.5850580334663391, 0.28693488240242004, 0.04137193784117699, 0.1456686407327652, 0.08687949925661087, 0.051717359572649, 0.16364695131778717, -0.10401583462953568, -0.8854725956916809, -0.3481883704662323, -0.017734887078404427, -0.0015266555128619075, -0.2107062190771103, 0.11096946150064468, 0.02068251185119152, 0.09817563742399216, 0.02237146906554699, 0.07885587960481644, -0.16491569578647614, 0.06750357896089554, 0.05876315012574196, -0.1205919161438942, -0.05424826964735985, 0.03500226512551308, 0.014727308414876461, -0.07929360866546631, -0.08931045979261398, -0.040445420891046524, 0.10518599301576614, 0.1459580808877945, 0.14069293439388275, -0.0442655123770237, 0.07252242416143417, -0.3672921657562256, -0.10241042822599411, -0.006269394885748625, -0.5419596433639526, 0.4673599898815155, 0.04470222815871239, -0.1463235765695572, 0.17656385898590088, 0.17003698647022247, 0.057544413954019547, 0.05425209179520607, 0.08266771584749222, 0.14006899297237396, 0.023421308025717735, -0.05700397863984108, -0.2309264987707138, -1.9038320779800415, -0.014617742039263248, 0.0008837691857479513, -0.41445937752723694, -0.2939477264881134, -0.30432531237602234, -0.6096689105033875, -0.6950917840003967, -1.0221720933914185, 0.48051074147224426, 0.8667637705802917, -0.9977855086326599, 0.28304198384284973, -0.03004482202231884, 0.44322875142097473, 0.8282909989356995, -0.007133484352380037, -0.02082495577633381, -0.9612798690795898, 0.3572011888027191, 0.036157965660095215, -0.029286207631230354, 0.5717402696609497, 0.7945610880851746, -0.08512835949659348, -0.032888296991586685, -0.19226188957691193, -1.1398231983184814, -0.07744825631380081, 0.1578352302312851, 0.5563403367996216, 0.28310373425483704, 0.15290497243404388, -0.032802581787109375, -0.3937265872955322, -0.2560533881187439, 0.07267718762159348, 0.022763481363654137, -0.3093951344490051, -0.08382808417081833, 0.01585678569972515, 0.02361549623310566, -0.030926110222935677, -0.031551893800497055, 0.1494779735803604, -0.0024988094810396433, 0.13755467534065247, -0.08176565915346146, -0.1397320181131363, -0.0769110843539238, 0.4748023450374603, 1.1865090131759644, -0.23906992375850677, 0.04082822427153587, 0.11455536633729935, 0.11141613125801086, -0.01840054802596569, 0.01026295218616724, -0.049869854003190994, 0.029162677004933357, -0.122726209461689, -0.040318697690963745, 0.0852058157324791, 0.5731801390647888, 0.08661692589521408, -0.0194022785872221, 0.17407380044460297, -0.25931668281555176, -0.061771687120199203, -0.020465178415179253, 0.5504533052444458, 0.10083016008138657, -0.039242297410964966, -0.07674026489257812, -0.04833906888961792, 0.021616041660308838, 0.16251827776432037, -0.02096649818122387, -0.45119956135749817, -0.5287914276123047, 0.10663978010416031, -0.06027478352189064, 0.11701369285583496, 0.5464467406272888, -0.03907480463385582, -0.038454439491033554, 0.11879313737154007, -0.08251208811998367, 0.1691199690103531, 0.07920139282941818, 0.36713144183158875, -0.07467033714056015, 0.08643073588609695, 0.2534187138080597, -0.0837283730506897, 0.08607333153486252, -0.36399045586586, -1.2931345701217651, -0.5477737784385681, -0.38769960403442383, -0.5405239462852478, -1.0545692443847656, -1.0267845392227173, 0.44373583793640137, -1.1124556064605713, 0.131325826048851, -0.6780033707618713, -0.016196860000491142, -0.0778377577662468, -0.5449763536453247, -0.869016170501709, -0.141569122672081, 0.17366303503513336, -0.2811729907989502, -0.3820075988769531, 0.11726868897676468, -0.021090475842356682, -1.0574634075164795, -1.372096061706543, -0.051936596632003784, 0.047758836299180984, 0.460269957780838, 0.8271685242652893, -0.042949140071868896, -0.004871372599154711, -0.5801626443862915, -1.0351725816726685, -0.004038159269839525, 0.02513122372329235, -0.2974611222743988, 0.19489555060863495, -0.043817102909088135, -0.07988745719194412, 0.052215296775102615, 0.4088769257068634, 0.1542212814092636, 0.08389674872159958, 0.1396700143814087, 0.1593102365732193, -0.14647819101810455, -0.047181129455566406, 0.16507397592067719, 0.18553493916988373, -0.17231382429599762, -0.028615204617381096, -0.307014524936676, 0.014663685113191605, -0.07036226987838745, -0.05114622786641121, -0.1649051010608673, -0.07992518693208694, 0.03407416120171547, 0.07650161534547806, 0.041062064468860626, 0.5642185807228088, -0.01607385091483593, 0.04324302077293396, -0.0010400050086900592, 0.15416035056114197, 0.051180656999349594, -0.017359478399157524, 0.7913599610328674, 0.3079929053783417, -0.2089570313692093, -0.17097578942775726, -0.2925574779510498, -0.21876919269561768, -0.003037605667486787, -0.06340908259153366, 0.0803673192858696, 0.3239240050315857, 0.01365473959594965, 0.04066360369324684, -0.1722562164068222, -0.11533335596323013, 0.2605307400226593, 0.08472888916730881, 0.02142302878201008, 0.012754191644489765, 0.06325513869524002, 0.07607489079236984, 0.2346377968788147, 0.9378989338874817, -0.08106838911771774, -0.037995364516973495, -1.0604121685028076, -0.9494174122810364, 0.09315942972898483, -0.7736020088195801, -0.43125060200691223, -0.9875103831291199, -0.5737790465354919, -0.5658398866653442, -1.6855634450912476, -1.0257463455200195, -0.8814255595207214, 0.49983659386634827, -0.051475051790475845, -0.009721650741994381, 0.11971903592348099, -0.5681267380714417, -0.986731231212616, 0.04130852594971657, 0.16372333467006683, 0.7544060349464417, 0.5294851660728455, -0.059925492852926254, -0.007702223490923643, -0.8647076487541199, -1.2620164155960083, -0.19035299122333527, -0.0005050330073572695, -0.13084015250205994, -0.3262466490268707, -0.07413864880800247, 0.05448170378804207, -0.007671520579606295, -0.6810306906700134, -0.06578058749437332, 0.15726135671138763, -0.1827307492494583, 0.2892630696296692, -0.041626427322626114, 0.1370248645544052, 0.09594374150037766, -0.17830632627010345, -0.1869213730096817, 0.003691621357575059, -0.01176570262759924, -0.05069101229310036, 0.08828186243772507, 0.06536292284727097, -0.5032567381858826, -0.4536891281604767, 0.00910241063684225, 0.037648025900125504, -0.13508345186710358, -0.04447096213698387, -0.10997732728719711, 0.06770651787519455, 0.1151573583483696, -0.08032157272100449, -0.02756415866315365, -0.02979552559554577, 0.29550352692604065, -0.4516659080982208, -0.019099516794085503, -0.14100433886051178, 0.1885034590959549, -0.43155625462532043, 0.08183717727661133, 0.03864011541008949, -0.02715347148478031, 0.05323326587677002, 0.15414023399353027, -0.054581183940172195, -0.04517707601189613, -0.10801395028829575, -0.16516266763210297, -0.03714781627058983, -0.8003998398780823, 0.1303418129682541, 0.11805523186922073, 0.21334974467754364, -0.04624289646744728, 0.05013972893357277, 0.13011611998081207, 0.006731211673468351, 0.015711607411503792, -0.04556149244308472, 0.005991071928292513, -0.10566719621419907, 0.45163729786872864, -0.5760563015937805, -0.028506668284535408, -0.0464060939848423, -0.8218176960945129, -0.8893201351165771, -0.08568895608186722, -0.7550097107887268, -0.13346758484840393, -0.8816060423851013, 0.4282437860965729, -0.26525789499282837, 0.9449034333229065, -1.1964809894561768, 0.8493070006370544, -0.19998221099376678, -0.39831066131591797, -0.016796065494418144, 0.11693810671567917, -0.5004206299781799, -0.7693930268287659, 0.08752978593111038, -0.06001550331711769, 0.695882260799408, 0.7932310700416565, -0.07759963721036911, 0.1125718280673027, 0.4137878715991974, 0.6885260939598083, -0.01589830219745636, -0.015185819007456303, 1.0641634464263916, 0.0485227145254612, -0.03172164782881737, -0.028383703902363777, -0.021538781002163887, 0.5912432074546814, 0.09254641085863113, 0.11710036545991898, -0.03553251177072525, -0.00011920998804271221, -0.1289069503545761, -0.05699080601334572, 0.24364541471004486, -0.1513199508190155, 0.09531134366989136, 0.009657458402216434, 0.2562693655490875, 0.07058095186948776, -0.04627200961112976, -0.06401295214891434, 0.1753769963979721, 0.9442726969718933, 0.014548183418810368, 0.06521088629961014, -0.06385914981365204, 0.25212472677230835, 0.05295063927769661, -0.18791399896144867, -0.20584337413311005, 0.07414163649082184, -0.07589703053236008, -0.23233984410762787, -0.10310586541891098, -0.3155412971973419, 0.013051189482212067, 0.017172707244753838, -0.43709853291511536, -0.6276723742485046, -0.06540578603744507, 0.14030112326145172, -0.033558543771505356, -0.2647595703601837, 0.0685994029045105, -0.20642401278018951, -0.22244739532470703, 0.061950281262397766, 0.12600289285182953, 0.07557707279920578, 0.30881553888320923, 0.23198677599430084, -0.07815677672624588, 0.012371166609227657, -0.10487812757492065, -0.17521034181118011, -0.015630796551704407, 0.018014563247561455, 0.017594369128346443, -0.10390222817659378, 0.13507018983364105, -0.03158664330840111, -0.1974271535873413, 1.0596531629562378, 0.048859357833862305, 0.024745849892497063, -0.25195664167404175, -0.10303732007741928, -1.345833659172058, 0.02495533786714077, 0.7462329268455505, -1.159751057624817, 1.5618761777877808, 0.5456371903419495, 0.9789944291114807, -0.2556445300579071, -0.42255473136901855, 0.006359010934829712, 0.26340219378471375, -0.09019274264574051, 0.05143028125166893, -1.0630227327346802, -0.8810650706291199, -0.17148806154727936, -0.1583385318517685, -0.17505359649658203, -0.535779595375061, 0.026323048397898674, 0.05626409873366356, 0.8093318939208984, 0.41643717885017395, -0.1468270868062973, -0.3175030052661896, 0.5007514953613281, -0.7609214186668396, 0.06864231079816818, 0.0015984439523890615, 0.19326162338256836, 0.4219684302806854, 0.030687006190419197, -0.15689480304718018, 0.04320145770907402, 0.08529867976903915, -0.016235409304499626, -0.06955147534608841, -0.12420462816953659, 0.033194221556186676, -0.0613555945456028, -0.05627649649977684, -0.1418156921863556, -0.31729164719581604, 0.004595537204295397, -0.01637631468474865, 0.08198089897632599, 0.8820555806159973, -0.02828165888786316, 0.0530448853969574, -0.34175989031791687, -0.08036495000123978, 0.05397183075547218, -0.09116362780332565, -0.010927659459412098, 0.07564128190279007, -0.07746874541044235, -0.015817761421203613, 0.08995872735977173, -0.21853207051753998, -0.060794051736593246, -0.10559912770986557, -0.18494711816310883, -0.006168306339532137, -0.06554866582155228, -0.028486790135502815, 0.5003595948219299, 0.5164510011672974, -0.12412870675325394, 0.1708761304616928, -0.07830201834440231, -0.009467349387705326, -0.07402003556489944, -0.13206113874912262, 0.10300799459218979, -0.015532340854406357, 0.023026734590530396, -0.1666739135980606, 0.03659108653664589, 0.12356173247098923, 0.06556594371795654, -0.16019009053707123, -0.013993366621434689, 0.10276059061288834, -0.003095779800787568, -0.07055496424436569, -0.4922632873058319, -0.500433087348938, 0.1287604570388794, -0.06789892166852951, -0.856257438659668, -0.1849394589662552, -0.830413818359375, 0.24099349975585938, 0.57707679271698, -0.9054394364356995, 0.6751289367675781, -0.27361735701560974, 1.951625943183899, 1.4488009214401245, 0.5851923227310181, -0.1559988409280777, -0.17025578022003174, 0.09089911729097366, 0.06331849843263626, 0.06510443240404129, -0.6143308281898499, 0.0679125115275383, -0.042190227657556534, -0.24886035919189453, 0.15866316854953766, 0.26744702458381653, -0.1448131948709488, 1.131482720375061, 1.0837037563323975, -0.21865485608577728, 0.10449372977018356, -0.206174835562706, -0.3920600414276123, 0.09011440724134445, 0.05373571440577507, 0.23287107050418854, 1.4879385232925415, -0.08334123343229294, -0.0818680003285408, 0.09560278803110123, -0.3390488922595978, -0.05592268332839012, 0.014849320985376835, -0.10376767069101334, 0.6982820630073547, 0.10451213270425797, -0.002495661610737443, -0.07722283154726028, -0.07058649510145187, 0.008209005929529667, 0.028608767315745354, 0.095146544277668, -0.6565546989440918, -0.026682129129767418, -0.08194787055253983, -0.1710936576128006, -0.13834808766841888, -0.1332259327173233, 0.05974293127655983, -0.20662260055541992, -0.027568688616156578, -0.0051424247212708, 0.03372824564576149, 0.06150728836655617, 0.42081418633461, 0.007451504468917847, -0.262653112411499, -0.04485723748803139, -0.4302873909473419, 0.031197072938084602, -0.012592076323926449, -0.1894100159406662, -0.021693138405680656, 0.035327162593603134, 0.15505529940128326, -0.2346949428319931, 0.3288934826850891, -0.09154785424470901, -0.0709155723452568, -0.09096094220876694, -0.11333152651786804, 0.03404083847999573, 0.01639709062874317, -0.15417659282684326, 0.03934510797262192, 0.08384030312299728, 0.07393728941679001, 0.1398695707321167, -0.10571504384279251, 0.049438294023275375, -0.04841810464859009, 0.28318148851394653, 1.6493192911148071, 0.1022641733288765, 0.11810076236724854, -0.5580276846885681, -0.32496926188468933, -0.07605063915252686, -0.971473753452301, 0.03885691612958908, -0.2770884335041046, -0.3133842647075653, 0.457568496465683, 0.7089138627052307, 0.6632294058799744, 0.33761414885520935, 1.0356296300888062, 0.5889759659767151, -0.024047093465924263, -0.1655319780111313, -0.5885199308395386, 0.33051034808158875, 0.19351612031459808, -0.032901111990213394, -0.33557483553886414, 1.6390095949172974, 0.05442607030272484, -0.2201298028230667, -0.11352357268333435, 0.03346322849392891, -0.09618956595659256, 0.007787651848047972, -0.34239253401756287, -0.8772856593132019, -0.0648421123623848, -0.0543876476585865, 0.8048744797706604, -0.7078649401664734, -0.16134296357631683, -0.1401662677526474, -0.15574361383914948, 0.03195541352033615, -0.04546952620148659, -0.12077093869447708, -0.14618924260139465, 0.17121745645999908, -0.057541076093912125, -0.04312402382493019, -0.07069986313581467, -0.2648770213127136, -0.03257259353995323, -0.032118674367666245, 0.2797597050666809, -0.8674584031105042, -0.017330018803477287, 0.08630108088254929, -0.11883533746004105, 0.07684003561735153, 0.035285834223032, -0.13485504686832428, 0.03536226972937584, 0.03822877258062363, -0.01306713093072176, -0.04023275151848793, 0.1474684774875641, -0.34377387166023254, -0.17382502555847168, 0.050940338522195816, -0.18527592718601227, -0.02527931146323681, -0.030745090916752815, 0.027954397723078728, 0.10490313917398453, 0.14523577690124512, -0.0028925274964421988, 0.1918332725763321, -0.2987503707408905, 0.11942780762910843, -0.00430624233558774, 0.011752613820135593, -0.03433654084801674, -0.07191527634859085, -0.09126881510019302, -0.13095401227474213, 0.586799681186676, -0.060458555817604065, 0.01009669154882431, 0.12100886553525925, -0.034895505756139755, -0.060482319444417953, 0.08894329518079758, 0.10283494740724564, -1.4020081758499146, -1.6620599031448364, 2.324898559891153e-05, -0.03245663270354271, -0.41857096552848816, 0.10750316828489304, -0.8271445631980896, -0.22773416340351105, 0.06401722878217697, 0.3413185179233551, 0.44877639412879944, 0.4061689078807831, 0.47285476326942444, -0.6649337410926819, 0.6265588402748108, -0.34722641110420227, 0.18744181096553802, -0.09388328343629837, -0.00830789003521204, 0.20749379694461823, 0.7477044463157654, 0.12860356271266937, -0.1601743847131729, 0.8602933883666992, 0.7411656379699707, 0.15321362018585205, 0.16327954828739166, -1.2760288715362549, -0.35330578684806824, 0.047529954463243484, 0.052687257528305054, 0.05534196272492409, 1.6340466737747192, -0.02073344588279724, 0.007095799315720797, -0.774320662021637, 0.8052588105201721, -0.0603935681283474, 0.05766826495528221, -0.29660820960998535, 0.2821856439113617, 0.07821010798215866, -0.041115760803222656, 0.04244282469153404, 0.32058167457580566, 0.1113283708691597, 0.030708668753504753, 0.20435988903045654, 0.036675337702035904, 0.17686568200588226, -0.051697988063097, -0.7535025477409363, 0.358563631772995, 0.019193366169929504, 0.09103135019540787, 0.012792958877980709, -0.42380985617637634, 0.09153687208890915, 0.021689398214221, 0.019646795466542244, 0.02913293056190014, -0.07111699134111404, 0.11914645880460739, 0.16877160966396332, -0.6582355499267578, -0.017411602661013603, -0.0638284757733345, 0.41930481791496277, 0.048518020659685135, -0.01654835045337677, -0.10400839895009995, -0.05553215369582176, -0.29600831866264343, -0.30258414149284363, -0.023877831175923347, -0.21597598493099213, 0.27636009454727173, 0.04097112640738487, 0.02844536118209362, -0.6103406548500061, -0.023946387693285942, -0.08366287499666214, -0.08527208119630814, -0.2776396572589874, 0.6197057366371155, -0.04583001509308815, -0.10794151574373245, 0.057803694158792496, 0.06024419888854027, 0.0011421533999964595, 0.08482814580202103, 0.49121764302253723, 0.2417123168706894, 0.07286275178194046, -0.030594350770115852, -0.4170147478580475, -1.13872492313385, 0.4506312906742096, -1.2685612440109253, 0.43208059668540955, -1.0413038730621338, -0.8384646773338318, -0.9722194075584412, -0.3400735557079315, 0.7053508162498474, -0.40929266810417175, -0.535216212272644, 0.4502609670162201, 0.014445574022829533, 0.08295946568250656, -0.8354300856590271, -0.7421098351478577, 0.029869137331843376, -0.12410377711057663, -0.06655130535364151, -0.9420070052146912, -0.015028326772153378, 0.03860974684357643, 1.4189413785934448, -0.26847055554389954, 0.01734064519405365, -0.13968072831630707, 0.20873892307281494, 0.7452109456062317, 0.0761365294456482, -0.14612840116024017, -0.8240265846252441, -0.41156506538391113, -0.02508898638188839, 0.06222456693649292, 0.031123466789722443, -0.08794691413640976, -0.025919614359736443, -0.0798112228512764, 0.0963028073310852, -0.06310771405696869, 0.02627474255859852, -0.06232959404587746, 0.1786714643239975, -0.04046947509050369, -0.03652358055114746, -0.034891992807388306, -0.963661253452301, -0.09837836772203445, 0.012862100265920162, 0.017210813239216805, -0.32375916838645935, 0.07282596081495285, 0.012581001035869122, -0.11606382578611374, 0.028737427666783333, -0.09351425617933273, 0.08480750769376755, -0.021305324509739876, -0.021121887490153313, -0.1544954627752304, 0.05166101083159447, -0.10622671991586685, 0.33811259269714355, 0.11563421040773392, -0.09553223103284836, -0.13185594975948334, 0.06708069145679474, 0.1040412113070488, -0.08804202824831009, -0.003247905522584915, -0.07680398225784302, -0.10716661065816879, -0.030116764828562737, 0.16522561013698578, -0.23360323905944824, -0.5578001141548157, 0.054057877510786057, 0.023923994973301888, -0.31184670329093933, -0.14293812215328217, 0.007749289274215698, 0.06529945880174637, -0.048506442457437515, 0.2213260978460312, 0.022922327741980553, -0.03407967463135719, 0.07807696610689163, -0.4129699170589447, 0.09230073541402817, 0.003610484069213271, 1.4266482591629028, 0.9664421081542969, -0.6152849793434143, -1.7175806760787964, -0.3514258861541748, -0.9703711867332458, -0.2503833472728729, 0.7394389510154724, -0.26322323083877563, 0.04796242713928223, 0.10175465792417526, 0.16072030365467072, -1.025126338005066, 0.04824038967490196, -0.13612782955169678, -1.1886197328567505, 0.962821900844574, 0.041936036199331284, 0.09282571822404861, 0.03074696473777294, -1.0408337116241455, -0.1277930587530136, -0.10713183134794235, 0.5828019380569458, -0.7860711216926575, 0.02247944287955761, 0.07316791266202927, 0.7867678999900818, 0.8905858993530273, -0.10120128840208054, -0.09100223332643509, -0.3478516638278961, 0.6486223936080933, 0.11805307120084763, -0.0740974023938179, -0.07965932786464691, 0.41205498576164246, -0.05221803858876228, -0.0216319989413023, -0.18475086987018585, -0.27923184633255005, -0.03061121515929699, -0.12721478939056396, -0.026341130957007408, -0.15682192146778107, -0.11367107182741165, -0.1452871412038803, 0.0024131073150783777, -0.7041950821876526, 0.017802150920033455, 0.07956648617982864, -0.11636436730623245, 0.07096097618341446, -0.2626676857471466, 0.13218629360198975, -0.08106911182403564, 0.024088533595204353, -0.15548394620418549, 0.021890850737690926, -0.09419440478086472, 0.1686244159936905, 0.052060846239328384, -0.03179151192307472, -0.36008408665657043, -0.009306174702942371, 0.045334067195653915, -0.01773384027183056, 0.1385398805141449, 0.3228822648525238, 0.10465217381715775, 0.0651666596531868, -0.06366802752017975, 0.11088621616363525, 0.030607251450419426, 0.03999850153923035, -0.26041409373283386, -0.42433831095695496, 0.18753354251384735, 0.21902339160442352, -0.2638401687145233, -0.029274018481373787, 0.08146416395902634, 0.09636711329221725, 0.1467079073190689, -0.015112428925931454, 0.06417394429445267, -0.03877655044198036, -0.7723398804664612, 0.7414491772651672, 0.049146294593811035, -0.05338221415877342, -0.7933236956596375, -0.7797970175743103, -0.4038800895214081, -0.701619565486908, 0.38741469383239746, -1.1275626420974731, -0.19710563123226166, -0.11138678342103958, -0.2575729191303253, -0.37589821219444275, -0.31626030802726746, -0.2452375739812851, 0.2910786271095276, 0.19497846066951752, 0.04973375424742699, -0.36456575989723206, 0.29931098222732544, 0.14411891996860504, -0.051949139684438705, -0.17873825132846832, 0.14104010164737701, 0.07776237279176712, 0.12112545222043991, 0.8385257124900818, 0.1695549041032791, 0.09356153756380081, -0.15762756764888763, 0.1781439632177353, -0.9097824692726135, -0.004656679462641478, 0.03358691558241844, -0.8306689262390137, -0.3314622938632965, 0.027453510090708733, 0.015853077173233032, -0.1089271679520607, 0.09742557257413864, 0.14986014366149902, 0.08515555411577225, -0.26371997594833374, -0.21574638783931732, -0.05576949939131737, 0.017385033890604973, 0.11227575689554214, -0.12842293083667755, -0.07088781148195267, -0.0039249020628631115, 0.8458443284034729, 0.40949416160583496, 0.11696731299161911, -0.014731018804013729, -0.1638346016407013, 0.4448198974132538, 0.16183270514011383, 0.22993327677249908, -0.14430227875709534, -0.15064004063606262, 0.10361260175704956, 0.09469616413116455, 0.010289332829415798, -0.00238440022803843, -0.022614924237132072, 0.041739046573638916, 0.3673727810382843, 0.2076369971036911, 0.2300727516412735, 0.026597799733281136, 0.16674910485744476, -0.011604594998061657, -0.24182511866092682, 0.06640952080488205, -0.30944153666496277, -0.21884171664714813, -0.1456402689218521, 0.14726565778255463, -0.20978213846683502, 0.9161881804466248, 0.06590235233306885, -0.1817786693572998, -0.14967378973960876, -0.5328946709632874, -0.06002431735396385, -0.10889948159456253, -0.062174197286367416, 0.01311431359499693, 0.02455832250416279, -0.033049020916223526, 0.47635379433631897, 0.044382598251104355, 0.00331304338760674, 0.17353476583957672, 0.9533584117889404, 0.8033380508422852, -0.6876068115234375, -1.9328861236572266, -0.7871446013450623, -0.521163821220398, -0.06846902519464493, -0.2462415099143982, -0.9242287278175354, 0.46672359108924866, -0.3761689364910126, 0.07770396769046783, 0.5028032660484314, 0.13081955909729004, -0.1214294359087944, -0.9233443140983582, -1.485427737236023, 0.03433706983923912, -0.09796971082687378, -0.3099987208843231, -0.0035844112280756235, -0.047416504472494125, -0.029680849984288216, -0.07348303496837616, 0.36133623123168945, 0.04655647650361061, 0.09901725500822067, -0.7122543454170227, -0.17739784717559814, -0.06884574145078659, -0.12105380743741989, -0.42536404728889465, 0.8103447556495667, -0.0407729409635067, -0.00038321243482641876, 0.06973517686128616, -0.27082738280296326, -0.047818783670663834, -0.11856435984373093, 0.07594047486782074, 0.21237803995609283, -0.05911719426512718, -0.15145792067050934, 0.0962161049246788, 0.0012780434917658567, 0.05284718796610832, -0.010836624540388584, -0.5975146889686584, -0.0591927208006382, -0.2059604972600937, -0.0426592193543911, 0.05669282376766205, -0.031666841357946396, -0.1890791654586792, 0.010099953971803188, -0.015542343258857727, 0.08606798201799393, -0.15811361372470856, 0.16296790540218353, -0.03825763240456581, -0.17922605574131012, -0.06652366369962692, -0.19335509836673737, 0.35647106170654297, 0.15010906755924225, -0.1143794134259224, 0.07487993687391281, 0.004547036252915859, 0.06719066202640533, -0.007104948628693819, 0.05958915129303932, 0.11493147164583206, -0.25336122512817383, -0.06442684680223465, -0.13179360330104828, -0.48524391651153564, -0.2407078593969345, -0.06521666795015335, -0.014690234325826168, -0.12310587614774704, 0.1712801456451416, 0.04969213530421257, 0.038548585027456284, 0.009828909300267696, -0.09137772768735886, 0.09529817849397659, 0.0131836524233222, 0.843022346496582, 0.7537946701049805, -0.14769281446933746, -0.08010012656450272, -0.9382286071777344, -0.275697261095047, -0.922940194606781, -0.3270535469055176, 0.15668891370296478, -0.34695741534233093, 0.2074097841978073, -1.105940818786621, 1.3481254577636719, 0.6209710836410522, -1.3579779863357544, -0.5434006452560425, -0.12226971238851547, -0.17829644680023193, 0.08439557999372482, -0.5676175951957703, 1.1781760454177856, -0.017755167558789253, 0.036899689584970474, 1.0692802667617798, 1.1345922946929932, 0.04554593190550804, 0.08712594956159592, 0.47689005732536316, 0.38962700963020325, 0.11319755762815475, -0.032284826040267944, 0.17960797250270844, -0.3059876263141632, 0.21137405931949615, 0.11418401449918747, -0.4432811439037323, -0.762505054473877, -0.04765939339995384, 0.10557008534669876, 0.2771436870098114, -0.030855774879455566, -0.025815604254603386, 0.06115543469786644, -0.07041573524475098, 0.2173473984003067, -0.031085757538676262, -0.1384107917547226, -0.0350457988679409, -0.020096872001886368, -0.14976142346858978, 0.056424979120492935, -0.07663369923830032, 0.6170710921287537, 0.033485982567071915, -0.1502460390329361, -0.10019370168447495, -0.21138618886470795, 0.1335301250219345, 0.014908910728991032, -0.17298121750354767, 0.09717800468206406, 0.20093758404254913, 0.05057955160737038, -0.11724983900785446, -0.3145730793476105, -0.11452723294496536, -0.24125291407108307, 0.12530098855495453, 0.0841040089726448, -0.13334251940250397, -0.033026184886693954, 0.49644598364830017, 0.40823760628700256, -0.0010970236035063863, -0.0733189582824707, -0.39274677634239197, 0.012998034246265888, 0.043633464723825455, -0.04849868640303612, -0.32764843106269836, 0.30741018056869507, -0.01790734939277172, -0.03623137250542641, -0.025817235931754112, -0.1551014482975006, -0.023257343098521233, 0.0903472825884819, 0.1993313580751419, 0.032908204942941666, -0.07341199368238449, -0.19083689153194427, -0.7284190058708191, -1.0272551774978638, -0.1826944202184677, -0.08240478485822678, -0.1889495700597763, -0.0514683723449707, -1.374085545539856, 0.6555722951889038, 1.4327930212020874, -0.39369985461235046, 2.51576566696167, 0.38524654507637024, 0.9518115520477295, -0.8275403380393982, -0.29737213253974915, 0.4025443494319916, 0.3698037564754486, 0.00169896159786731, -0.03471210226416588, -0.7351841330528259, 1.139094591140747, -0.029069481417536736, 0.002784360432997346, 0.7362394332885742, 1.0631144046783447, 0.04386991634964943, 0.10298391431570053, 0.05123336985707283, 0.25399917364120483, -0.10827385634183884, 0.14516876637935638, 1.308592677116394, 0.3378739655017853, -0.013008837588131428, -0.10242296010255814, -0.008635726757347584, 0.12661506235599518, -0.08293665200471878, 0.09388024359941483, -0.35013869404792786, -0.2968902885913849, -0.007782131899148226, 0.007937498390674591, 0.1879989355802536, 0.13296981155872345, -0.00010622156696626917, -0.16236914694309235, 0.14834877848625183, -0.3309444487094879, -0.10878299921751022, -0.09362857788801193, 0.14632321894168854, -0.5534271001815796, 0.0949072316288948, 0.10437833517789841, -0.10036183148622513, -0.1471039205789566, 0.15902866423130035, 0.13603518903255463, 0.14528681337833405, -0.08204448968172073, 0.0796877071261406, -0.08904921263456345, 0.12486729025840759, -0.01001005619764328, 0.21675293147563934, 0.09122283011674881, -0.17015080153942108, -0.2938874363899231, 0.13078393042087555, -0.03142014518380165, 0.4171037971973419, 0.20897848904132843, 0.07086055725812912, 0.09008937329053879, -0.1858074814081192, 0.14255405962467194, -0.007707260083407164, -0.050667162984609604, -0.45551207661628723, -0.6045247316360474, 0.05124134197831154, 0.026920495554804802, -0.4298178255558014, 0.08425671607255936, 0.019740508869290352, -0.0038327460642904043, -0.006034117192029953, -0.25207284092903137, 0.15763328969478607, -0.1840944141149521, 0.20672155916690826, -0.02283146046102047, 0.03892925754189491, -0.031515564769506454, -0.8000878691673279, -0.2452550083398819, -0.908221960067749, -0.5007725358009338, -0.05155843496322632, -0.35505256056785583, 0.5476095080375671, -1.9361578226089478, -0.43392041325569153, 0.9890727996826172, -0.9691345691680908, 0.8985102772712708, 0.46488478779792786, 0.040516648441553116, 0.15922237932682037, -0.08478880673646927, 1.1454917192459106, -0.08612339943647385, -0.11707329005002975, 0.23836302757263184, 0.47172436118125916, 0.08864491432905197, 0.08885074406862259, -0.7298728823661804, -1.0430439710617065, 0.05105409026145935, 0.042873021215200424, 0.11755844950675964, -0.18529637157917023, -0.050248030573129654, -0.07336414605379105, 0.5161248445510864, 0.3931257426738739, 0.017735691741108894, 0.0064491406083106995, -0.17572782933712006, 0.11273244768381119, -0.037711288779973984, 0.2219877988100052, 0.2212880402803421, 0.019761325791478157, 0.0815247893333435, 0.12025748938322067, -0.07916640490293503, -0.05414659157395363, 0.03787088766694069, 0.1819029003381729, -0.6580802202224731, 1.1162230968475342, 0.14128781855106354, -0.18110929429531097, -0.001382562448270619, -0.22184784710407257, 0.05511299893260002, 0.08163375407457352, -0.0031522910576313734, -0.12887659668922424, 0.17122767865657806, 0.14391686022281647, -0.04911809787154198, -0.36345982551574707, -0.09212541580200195, 0.034613728523254395, 0.5184869766235352, -0.36764588952064514, 0.016238687559962273, 0.11988628655672073, -0.4930840730667114, -0.05789117515087128, -0.016629638150334358, -0.048570748418569565, 0.05849645659327507, 0.3928181827068329, -0.12465346604585648, -0.2703259289264679, 0.21661925315856934, -0.18806694447994232, -0.0791279748082161, 0.08063901215791702, 0.4544277489185333, 0.11436165124177933, 0.07144313305616379, -0.22908638417720795, -0.1652744859457016, 0.08506172150373459, 0.037181880325078964, 0.04036391153931618, -0.5974549651145935, -0.9322329163551331, -0.059825245290994644, -0.007963673211634159, -0.9850568771362305, -1.1756525039672852, -0.43052124977111816, -1.0272561311721802, -0.5654997825622559, -1.124540090560913, -0.5460292100906372, -0.7039070725440979, 1.583027720451355, 0.5965142846107483, 1.1070911884307861, -0.1686171144247055, -0.16186858713626862, -0.11247610300779343, -0.14689947664737701, 0.21131546795368195, -0.6266494989395142, -0.011846770532429218, 0.03025391884148121, 0.6514686942100525, -0.263872891664505, 0.009384565986692905, -0.1344233751296997, -0.7743411064147949, -0.1617550402879715, -0.008501545526087284, -0.1113276407122612, -0.6791477799415588, -0.3491213619709015, -0.060293253511190414, 0.05094237998127937, -0.9105138182640076, -1.0953991413116455, -0.10206929594278336, 0.11223388463258743, 0.3057374060153961, -0.5281504988670349, 0.046730998903512955, 0.27208277583122253, 0.36302807927131653, -0.6724098324775696, -0.002981379861012101, -0.07960175722837448, 0.00236826715990901, -0.12578022480010986, -0.060429688543081284, -0.1124565526843071, -0.6103643774986267, -1.036639928817749, -0.12319327145814896, -0.028746934607625008, 0.00425474438816309, 0.37012526392936707, 0.1698930412530899, -0.003677166998386383, 0.15909604728221893, -0.06367665529251099, 0.008326648734509945, -0.024807320907711983, -0.09524985402822495, -0.17466819286346436, 0.06986498832702637, 0.0025564671959728003, -0.1075592115521431, -0.31709960103034973, -0.038224514573812485, 0.07356245070695877, 0.028620190918445587, -0.19171373546123505, -0.04347359761595726, 0.17556177079677582, 0.0070930588990449905, 0.1903596669435501, -0.03808712586760521, -0.049068327993154526, -0.40604349970817566, 0.34865450859069824, -0.10700289160013199, -0.029054103419184685, -0.7659037709236145, -0.35582295060157776, -0.05808765068650246, 0.17225457727909088, 0.14391885697841644, 0.0277447197586298, -0.07858813554048538, -0.00039758006460033357, 0.4639115333557129, 0.33659717440605164, -0.006259602960199118, 0.008358330465853214, -1.1948386430740356, -1.462203860282898, -0.30908629298210144, -0.47184786200523376, -0.4834718704223633, -1.0380412340164185, 0.3401962220668793, -0.6819509863853455, 2.3302977085113525, 0.2348930984735489, 0.12723466753959656, 0.9597170352935791, 0.6567014455795288, -0.09773784130811691, -0.005485608708113432, -0.8061581254005432, -1.110843300819397, 0.03600630536675453, -0.005223665852099657, 0.3323362469673157, -0.23904655873775482, 0.0009981811745092273, -0.16979168355464935, -0.6061974763870239, 0.953899621963501, -0.10630909353494644, -0.027078690007328987, -0.3276102840900421, -0.4381883144378662, -0.09675867110490799, -0.009376264177262783, 0.18965065479278564, -0.9441664814949036, -0.1376476138830185, -0.04082870110869408, -0.19877946376800537, -0.31877920031547546, 0.19777320325374603, 0.03492739424109459, -0.1835194081068039, -0.7659773826599121, 0.021879015490412712, -0.0020840929355472326, 0.28751662373542786, 0.06422223150730133, -0.05042789503931999, 0.07543010264635086, -0.5979131460189819, 0.4653835594654083, -0.10621274262666702, -0.13140760362148285, -0.2490689754486084, -0.058086637407541275, -0.03537970781326294, 0.06913674622774124, 0.025261761620640755, 0.06599199771881104, 0.06867343932390213, 0.13643012940883636, 0.07584373652935028, 0.2861948311328888, -0.07080095261335373, 0.10913277417421341, -0.29106447100639343, 0.30472761392593384, 0.03819579258561134, -0.14271031320095062, 0.3226158916950226, -0.3580648899078369, 0.07753580063581467, 0.06972194463014603, -0.08147574961185455, 0.04819172993302345, 0.055219512432813644, 0.10207580775022507, -0.06665916740894318, -0.07776463776826859, 0.10631214827299118, 0.03254932537674904, 0.5188775658607483, 0.013264636509120464, 0.006892815697938204, -0.007042751181870699, -0.06284011155366898, 0.005693566519767046, 0.0018019323470070958, 0.031893882900476456, 0.048330146819353104, 0.9589567184448242, 0.012431114912033081, 0.03128882870078087, -0.8575852513313293, -0.1837446540594101, -0.332882821559906, -0.4247998893260956, -0.05691538378596306, -1.321212649345398, -0.0695919468998909, -0.7780265808105469, 1.0638474225997925, 0.3968714773654938, -0.0972704365849495, 0.22698086500167847, 0.137461319565773, -0.03934106603264809, 0.0005887187435291708, -0.5855809450149536, 0.34627100825309753, -0.04433509707450867, 0.10696841031312943, 0.4014687240123749, 0.8114920258522034, 0.1238631084561348, 0.08774638175964355, 0.3697652816772461, 0.46043190360069275, 0.0044957478530704975, 0.11267972737550735, 0.28571411967277527, 0.021549062803387642, 0.002364648738875985, -0.03529879078269005, -0.38900360465049744, 1.04401695728302, 0.0557439886033535, 0.06561725586652756, 0.1146862804889679, -0.006429050117731094, -0.02815169282257557, -0.06835245341062546, -0.06002442538738251, 0.0663566067814827, -0.13736416399478912, -0.08125317841768265, -0.08204574882984161, -0.1287648230791092, 0.06637059897184372, -0.02067822404205799, -1.3205622434616089, -2.099158763885498, -0.29205968976020813, -0.023226812481880188, -0.22728465497493744, -0.29315558075904846, 0.04967590048909187, 0.059968117624521255, 0.15183398127555847, 0.06278824061155319, 0.03696697577834129, -0.014020039699971676, 0.046358589082956314, 0.15510793030261993, -0.11645578593015671, -0.02238975465297699, 0.021925223991274834, 0.0921279788017273, 0.17731179296970367, -0.013907388783991337, 0.11035729199647903, -0.07155115157365799, -0.012142046354711056, 0.10927736014127731, -0.20409466326236725, 0.13209910690784454, 0.01773029752075672, -0.09753239154815674, -0.045792583376169205, 0.43927064538002014, -0.036743760108947754, -0.11599696427583694, 0.07823272049427032, -0.38907983899116516, 0.030314117670059204, -0.034037623554468155, -0.06973720341920853, -0.01744675822556019, 0.1667812019586563, 0.008272185921669006, -0.08004408329725266, 0.05253130570054054, -0.09501301497220993, -0.156464084982872, -0.03221515566110611, -0.7890515923500061, -0.40505358576774597, -1.1946995258331299, -0.5568713545799255, 0.2000136524438858, -1.6663435697555542, 0.01902790181338787, 1.2547733783721924, 0.07347600907087326, 0.914604127407074, -0.5502456426620483, -0.8893582224845886, -0.007078915368765593, 0.32874301075935364, -0.3130813241004944, 0.9027890563011169, 0.1427161693572998, 0.08910798281431198, 0.18690598011016846, -1.6405504941940308, 0.014412596821784973, -0.07377970963716507, -0.19713576138019562, -0.4828529357910156, -0.09816110134124756, 0.1250610202550888, 0.9252890944480896, 0.2052357941865921, 0.02622378058731556, -0.013022392988204956, 0.11103784292936325, -0.18327689170837402, 0.05448555573821068, 0.17477597296237946, -0.025194378569722176, -0.1851210594177246, -0.022712886333465576, -0.2365865558385849, 0.055277351289987564, -0.09608861058950424, -0.018435316160321236, 0.17944882810115814, 0.1257101595401764, 0.036553047597408295, 0.013648823834955692, -0.03044944815337658, -0.5874185562133789, 0.29906031489372253, -0.06004530191421509, -0.17583918571472168, 0.042423125356435776, 0.3258962333202362, 0.028954235836863518, 0.08348267525434494, -0.19101811945438385, -0.01672261580824852, 0.09536118060350418, 0.0837598368525505, 0.19967050850391388, 0.03690630942583084, 0.0009589782566763461, -0.1431203931570053, -0.025180092081427574, 0.24822472035884857, -0.04558444395661354, -0.024768710136413574, 0.20775817334651947, 0.15054699778556824, -0.07161813229322433, -0.19794179499149323, -0.0643581822514534, -0.1196727380156517, 0.2410280853509903, -0.057402972131967545, -0.17960862815380096, -0.8412163853645325, -0.007542095612734556, 0.0405774749815464, -0.19351474940776825, -0.7125157713890076, 0.012772188521921635, 0.13825835287570953, 0.020680220797657967, 0.015626726672053337, 0.0860341265797615, -0.028973517939448357, -0.021280737593770027, -0.7869012951850891, -0.03866487368941307, 0.13625849783420563, -0.7129688858985901, -0.624139666557312, -0.6385642290115356, -0.34223631024360657, 0.4933730661869049, -1.1922589540481567, 0.2002863734960556, -0.16279105842113495, -0.3243746757507324, 0.8933573365211487, 1.242935299873352, -0.5506325364112854, -0.23062372207641602, -0.08179713040590286, -0.0457126758992672, -0.3945818841457367, 0.61788409948349, -0.02191273681819439, -0.06362409144639969, 2.1546132564544678, -0.1743927001953125, 0.06015307083725929, -0.12294744700193405, -0.6387442946434021, 0.8734483122825623, -0.10248330980539322, 0.14327551424503326, 0.4372067153453827, -0.031493790447711945, -0.04310745373368263, -0.16401802003383636, -0.30812790989875793, 0.2737550139427185, 0.0636177584528923, -0.12149452418088913, -0.34906503558158875, 0.2869410812854767, 0.0621793232858181, -0.11624383181333542, -0.07885514199733734, 0.037627484649419785, 0.11615478247404099, -0.08283817023038864, 0.05655359849333763, 0.01940588839352131, -0.00032719832961447537, 0.06295520812273026, -0.849855363368988, 0.35109207034111023, 0.20365311205387115, 0.007542811334133148, -0.06306938827037811, 0.27834567427635193, 0.18938089907169342, 0.031069040298461914, -0.07620971649885178, -0.1336173117160797, -0.032093849033117294, -0.08626823872327805, 0.21956537663936615, -0.277506560087204, -0.04262707009911537, 0.08683032542467117, 0.542851984500885, 0.0319424606859684, 0.007001824211329222, 0.14658786356449127, -0.0069596003741025925, 0.8027178645133972, -0.06164568290114403, -0.031236885115504265, -0.19111154973506927, -0.05508077144622803, 0.16519688069820404, -0.13896237313747406, -0.5728501081466675, 0.2987219989299774, 0.10152801126241684, 0.08901571482419968, -0.5472685098648071, -0.0459403358399868, -0.04116025194525719, 0.046909984201192856, 0.08396405726671219, 0.08678949624300003, 0.09183061867952347, 0.0019011033000424504, 0.667595386505127, 0.6176334023475647, -0.10459359735250473, 0.06445349007844925, -0.5667324662208557, -1.1062129735946655, -1.039902687072754, 0.8567762970924377, 0.9292040467262268, -1.5972079038619995, 0.47971776127815247, 1.4656223058700562, 0.10307180881500244, 0.08370750397443771, 0.4403539001941681, -1.308272123336792, -0.5437894463539124, 0.1057266816496849, 0.12776614725589752, -0.7077708840370178, 0.03851133584976196, -0.07888031750917435, 0.0031974243465811014, -0.12868550419807434, -0.9483868479728699, 0.037020888179540634, 0.0038761610630899668, 0.4191162586212158, -0.805107593536377, -0.01022092904895544, 0.14082372188568115, 1.5947927236557007, 0.5644789338111877, -0.28183820843696594, 0.23430751264095306, -0.5850724577903748, -0.5952649712562561, 0.02754107303917408, -0.019953714683651924, 0.10513750463724136, 0.3383167088031769, -0.0004907968104816973, -0.05547333136200905, -0.015683230012655258, -0.19449733197689056, 0.01696021668612957, 0.17779575288295746, 0.08731692284345627, 0.23186828196048737, 0.015321879647672176, -0.10725308209657669, 0.6756888031959534, 0.37110474705696106, 0.015023828484117985, -0.003987662028521299, -0.017475618049502373, -0.4342384338378906, -0.03547635301947594, -0.044018980115652084, 0.12517639994621277, -0.10968483239412308, 0.21997307240962982, -0.0431581474840641, 0.17466844618320465, 0.33071354031562805, -0.06374353915452957, -0.017475441098213196, -0.23922912776470184, 0.27573922276496887, -0.01434676256030798, 0.10676735639572144, 0.35732772946357727, 0.44885632395744324, -0.024530788883566856, -0.17998932301998138, -0.17469404637813568, -0.09690467268228531, 0.10554658621549606, 0.10362144559621811, -0.13710680603981018, 0.28059908747673035, 0.09308815747499466, -0.034852657467126846, -0.7920466065406799, -0.5864660143852234, 0.05012476071715355, 0.10279571264982224, -0.16110409796237946, -0.029198231175541878, -0.16515718400478363, -0.08550548553466797, 0.1584438979625702, 0.16068135201931, -0.10710335522890091, 0.030392108485102654, -0.25404733419418335, -0.8136501312255859, -1.0904589891433716, 0.22782088816165924, 1.5842725038528442, 0.0927971675992012, 1.2262603044509888, -0.200042724609375, 1.0855300426483154, -0.05339805409312248, 0.19414211809635162, 0.3634202182292938, 0.8868226408958435, -0.0836300328373909, 0.010828472673892975, -0.7404813766479492, 1.3686200380325317, -0.06943155080080032, 0.015652118250727654, -0.796414315700531, -0.2971949279308319, -0.03613663092255592, 0.07573073357343674, 0.8065220713615417, -0.9061688780784607, -0.014649092219769955, 0.08456004410982132, 0.41147708892822266, 0.05651598796248436, -0.20035888254642487, -0.2717289924621582, 0.10135761648416519, -0.4762533903121948, 0.06286346167325974, 0.10573387891054153, -0.07704556733369827, -0.4451160728931427, 0.06927765160799026, -0.03264394775032997, -0.158782958984375, -0.006958558689802885, -0.09091561287641525, 0.014024526812136173, 0.17069925367832184, 0.2826940715312958, 0.007705152500420809, 0.01238278392702341, 0.6405307054519653, -0.22342918813228607, -0.05596238002181053, -0.12901701033115387, -0.2558366656303406, -0.2804224193096161, -0.1086219921708107, -0.2333245426416397, 0.07478170841932297, -0.18748776614665985, 0.0973207876086235, -0.04678323492407799, 0.037184957414865494, -0.044588420540094376, -0.1734313815832138, -0.00793095026165247, 0.2858601212501526, 0.026209084317088127, 0.0016626009019091725, 0.05644887313246727, 0.11954966932535172, 0.09667669981718063, -0.09271916002035141, 0.07562465220689774, -0.15970000624656677, -0.17895378172397614, 0.10638073831796646, -0.09356165677309036, 0.03637445718050003, -0.10924028605222702, 0.07115387171506882, -0.19835759699344635, 0.5093298554420471, 0.02795095182955265, -0.14389075338840485, -0.05419345572590828, -0.0924796387553215, 0.01773652248084545, 0.06495534628629684, 0.005632191430777311, -0.307575523853302, -0.20836789906024933, -0.009745619259774685, -0.09504222124814987, -0.09454011172056198, 0.054745014756917953, -0.9198529124259949, -0.6094404458999634, -0.3757424056529999, -0.10262048989534378, 1.73355233669281, -0.7155900597572327, -1.5683554410934448, -1.8000165224075317, -1.1298927068710327, -1.6187165975570679, -0.2352035641670227, -0.0250240545719862, -0.017253058031201363, -0.9468249678611755, -1.900504469871521, -0.029668331146240234, 0.02095404453575611, -0.13708463311195374, 0.3501415550708771, 0.12351585179567337, 0.10061586648225784, 1.2427369356155396, 1.216159701347351, 0.10574150830507278, -0.045104388147592545, 0.8399695754051208, 0.36551567912101746, 0.04507416859269142, -0.07681148499250412, -0.5122383832931519, -0.9691593647003174, -0.10258781164884567, 0.047473352402448654, 0.2217346429824829, 0.10258568078279495, 0.19902946054935455, 0.05427789315581322, -0.40570759773254395, 0.286273717880249, -0.027126071974635124, -0.1959162801504135, 0.026151904836297035, -0.01340653095394373, -0.15858985483646393, -0.14353585243225098, 0.3370814025402069, 0.26848268508911133, 0.0703975036740303, 0.10980211943387985, -0.3067935109138489, 0.18533198535442352, -0.1068505123257637, -0.2678716480731964, -0.16051317751407623, 0.019189240410923958, -0.10475874692201614, -0.03766196593642235, 0.45427843928337097, 0.6286858916282654, -0.03253081068396568, -0.02428203634917736, -0.23942001163959503, -0.12221194058656693, 0.061938460916280746, -0.01591409556567669, 0.40213772654533386, 0.21346378326416016, -0.19675461947917938, 0.06596291810274124, 0.11809328198432922, -0.1272098869085312, -0.1910029798746109, 0.0811842754483223, -0.29007095098495483, -0.328154981136322, 0.07693289965391159, -0.07451020926237106, -0.9883890748023987, -0.32200533151626587, 0.10346972197294235, -0.024267343804240227, 0.1429746150970459, -0.056516703218221664, -0.0044208611361682415, 0.06424666196107864, -0.3996628224849701, -0.08589112013578415, 0.17996050417423248, -0.16826294362545013, -0.6123551726341248, -1.2113492488861084, -0.17797614634037018, -0.22983425855636597, -0.09858608990907669, -0.48043200373649597, -0.6753330826759338, -0.7428603768348694, 1.726028323173523, 0.08602249622344971, 1.159787893295288, -0.1086854562163353, -0.8748883605003357, 0.026209471747279167, 0.08888126164674759, -0.2915550172328949, 0.8055552840232849, 0.17224742472171783, 0.08454953879117966, -0.12888427078723907, -0.28056785464286804, 0.06543440371751785, 0.001883515971712768, 1.3652478456497192, 0.48630473017692566, -0.10152244567871094, -0.06136542186141014, 0.697139322757721, 0.5058751702308655, 0.019792838022112846, 0.13332520425319672, 0.23519013822078705, 0.27981337904930115, -0.02604222111403942, -0.0019105655374005437, 0.30440711975097656, -0.23448063433170319, -0.1323079913854599, -0.019199520349502563, -0.12095022946596146, -0.2516510784626007, 0.0180188100785017, -0.006633132230490446, -0.057445283979177475, 0.16881561279296875, -0.0022601059172302485, -0.049157824367284775, 0.36998239159584045, -1.7009562253952026, 0.025627819821238518, -0.16979610919952393, -0.1802370399236679, 0.36208078265190125, -0.0160704106092453, 0.05524152144789696, -0.06966190785169601, -0.04591059684753418, 0.2599630057811737, 0.07962089031934738, -0.08157472312450409, 0.34737899899482727, 0.1539088487625122, -0.05917448177933693, 0.3053310513496399, 0.3250569999217987, -0.24586676061153412, 0.2585137188434601, 0.2672504782676697, 0.21720091998577118, -0.1500147581100464, -0.09701049327850342, -0.3774973452091217, 0.22739560902118683, -0.11837982386350632, 0.09014386683702469, -0.31040045619010925, -0.5620220303535461, 0.02578347735106945, 0.05568063259124756, -0.2294488102197647, -0.2407235950231552, 0.11395157128572464, 0.114020936191082, -0.01503682043403387, -0.1321967989206314, 0.011062406934797764, -0.012666820548474789, -0.23626655340194702, -0.6957406401634216, -0.11887060850858688, 0.12401223927736282, -0.5702275633811951, -0.2947891354560852, -0.8494192957878113, -0.05873817205429077, 0.05138486623764038, -0.043518904596567154, -0.175964817404747, 1.268324613571167, -0.1323666274547577, -0.9934825301170349, -0.7787211537361145, 0.13310226798057556, 1.1125725507736206, -0.1036195158958435, 0.13470470905303955, -0.8584486842155457, -0.5983065962791443, -0.11935173720121384, -0.05987066403031349, -0.5675826668739319, -0.4679259955883026, -0.008747025392949581, 0.05146215483546257, 1.3215597867965698, 0.65215003490448, 0.04554117098450661, 0.19700933992862701, 0.8414506316184998, 0.7893876433372498, -0.11504482477903366, 0.05028402432799339, 0.12545932829380035, -0.004637476522475481, 0.11059582233428955, -0.0379062294960022, 0.2175454944372177, 0.2353343963623047, -0.06530546396970749, 0.10689374059438705, -0.31166988611221313, 0.10572930425405502, -0.07399982959032059, -0.03421679511666298, -0.3142090141773224, 0.15280674397945404, 0.05151684954762459, 0.014659435488283634, -0.19375582039356232, 0.5456609725952148, -0.12228430062532425, -0.03265339508652687, 0.1216515302658081, 0.47329437732696533, 0.08517222851514816, 0.036633074283599854, -0.20687176287174225, 0.19580967724323273, -0.015094221569597721, -0.04810599610209465, 0.5377716422080994, 0.3757970631122589, -0.08155698329210281, -0.03998773917555809, -0.3939213454723358, 0.2467043250799179, 0.18627239763736725, -0.07293570786714554, 0.030262192711234093, 0.10256099700927734, 0.007889949716627598, -0.01490588579326868, -0.2950247824192047, -0.05692366883158684, -0.05927443131804466, -0.0848495289683342, 0.1352538764476776, 0.2598569095134735, -0.13814105093479156, -0.036991383880376816, -0.031345073133707047, 0.09369819611310959, -0.06516803056001663, 0.021278323605656624, 0.08762716501951218, 0.16095876693725586, 0.09079033881425858, -0.09475063532590866, 0.08650357276201248, 1.0146225690841675, -0.034479644149541855, 0.05406028404831886, -0.49688610434532166, 0.2680390477180481, -0.9813871383666992, 0.05599028244614601, 1.0240744352340698, -0.09525085240602493, 1.2518454790115356, 0.38136211037635803, 0.5029965043067932, -0.4542236626148224, -1.8486747741699219, 0.7920859456062317, -0.9584845900535583, -0.13443754613399506, 0.027317872270941734, -0.03492564707994461, 1.1563241481781006, 0.10833808034658432, 0.14898358285427094, -0.2356729656457901, -0.490390807390213, 0.0244941096752882, -0.06397592276334763, 0.24474619328975677, -0.6337829828262329, -0.1683046668767929, -0.03182050958275795, -0.3945203125476837, 0.451784610748291, 0.10666617006063461, -0.061644673347473145, 0.4275052547454834, -0.33137932419776917, 0.04935064911842346, 0.08165281265974045, 0.11755598336458206, 0.06813656538724899, 0.023903636261820793, -0.051107171922922134, -0.18084655702114105, 0.5494037866592407, 0.18635974824428558, -0.06079130992293358, 0.18822741508483887, -0.035175587981939316, -0.023821083828806877, 0.03762679919600487, 0.15371109545230865, 1.6884618997573853, -0.01100210938602686, 0.1366058737039566, -0.31514212489128113, 0.14896221458911896, -0.07885653525590897, 0.07430446892976761, 0.16607728600502014, -0.06967698782682419, 0.11629080772399902, -0.09932208806276321, -0.05437060073018074, -0.06948279589414597, 0.06472759693861008, -0.07534598559141159, -0.10466360300779343, -0.02324073016643524, 0.0338103212416172, 0.09209764748811722, 0.007869078777730465, -0.2971847355365753, -0.07635610550642014, 0.0009156697778962553, -0.05625791847705841, -0.07510518282651901, -0.018835974857211113, -0.20926357805728912, 0.13549552857875824, -0.06689155846834183, -0.10438612848520279, -0.10090474039316177, 0.4424726068973541, -0.48839470744132996, 0.014356045983731747, -0.179780974984169, -0.09498852491378784, 0.009636766277253628, 0.0372215174138546, 0.05938124284148216, -0.06118154898285866, -0.3468952476978302, 0.001730564865283668, 0.16709814965724945, -0.8207316398620605, 0.2236853390932083, -0.4886793792247772, -0.8047623634338379, -0.13958323001861572, -0.4511736333370209, -0.9894558787345886, 1.1771304607391357, -0.2616644501686096, -0.3448013961315155, -0.0846206545829773, -0.34302762150764465, -1.0329445600509644, -0.10841289907693863, -0.04186766967177391, -1.078398585319519, 0.6531749367713928, 0.07616580277681351, -0.022969206795096397, 0.12705780565738678, 0.4808345139026642, 0.0358392633497715, -0.055133599787950516, 0.6432604193687439, 0.5538269281387329, 0.22252963483333588, -0.040461305528879166, -0.2137901932001114, -0.4884167015552521, 0.04422878846526146, 0.02106335572898388, 0.0985524132847786, 0.8847094178199768, -6.920017040101811e-05, -0.04050948843359947, 0.01943598873913288, 0.10258043557405472, 0.016192808747291565, 0.08357162028551102, -0.05695338547229767, -0.8817538619041443, 0.12956644594669342, 0.039564698934555054, 0.15421511232852936, 0.07016408443450928, -0.017943141981959343, -0.11044055223464966, -0.11424076557159424, 0.009636425413191319, 0.1101243868470192, 0.05708253011107445, -0.3489999771118164, 0.18288862705230713, 0.23583318293094635, 0.16302825510501862, -0.09253991395235062, -0.16062231361865997, -0.090439073741436, 0.010447374545037746, 0.17514348030090332, 0.24781447649002075, -0.08149182051420212, 0.05782604590058327, 0.07013101875782013, -0.0684615895152092, -0.11414802819490433, 0.07063133269548416, 0.06624799966812134, -0.03472444787621498, 0.054625872522592545, 0.08666832000017166, -0.14009065926074982, -0.24977914988994598, 0.0306528490036726, -0.27696725726127625, -0.5465527772903442, -0.12817570567131042, -0.13839171826839447, -0.12447141855955124, 0.03865528106689453, -0.2817523181438446, -0.13757002353668213, -0.13760016858577728, -0.2011234611272812, 0.013622172176837921, -0.13003744184970856, 0.04210084304213524, -0.633760392665863, 0.8231373429298401, -0.19346930086612701, -0.03329071030020714, -0.5120359063148499, -0.07466220110654831, -0.9410457015037537, -0.4275965988636017, 0.10372471064329147, -0.6638180017471313, 0.767123281955719, 1.2784072160720825, -0.2711430490016937, -0.13137008249759674, 0.8874343037605286, 0.21808521449565887, -0.5608991384506226, 0.23796512186527252, 0.057348549365997314, -1.1072837114334106, -0.7369057536125183, 0.10828446596860886, 0.0963883325457573, -0.012750656343996525, -0.3210289776325226, -0.07184071093797684, 0.16008470952510834, 0.1874668449163437, 1.3343902826309204, -0.034770991653203964, 0.08129661530256271, -0.07101212441921234, 0.1172700822353363, 0.0975714847445488, 0.013766809366643429, 0.12602373957633972, 0.16820622980594635, -0.026881305500864983, -0.014058410190045834, 0.20339052379131317, -0.10045754909515381, 0.006254240404814482, -0.160423144698143, -0.5859315991401672, -0.2944509983062744, 0.15284766256809235, 0.04348522424697876, 0.072052963078022, -0.07173557579517365, -0.04818921908736229, 0.07325757294893265, -0.024961138144135475, -1.7331923246383667, -0.058755699545145035, -0.17207978665828705, -0.0829523354768753, 0.05078117176890373, 0.026497630402445793, -0.11947917193174362, -0.14032243192195892, 0.1339326947927475, 0.16674472391605377, -0.1557692289352417, -0.10510552674531937, -0.7261313796043396, -0.12950347363948822, 0.04214388504624367, -0.13519062101840973, -0.24469345808029175, 0.07426302880048752, 0.06179499998688698, -0.07266057282686234, 0.06952566653490067, -0.11014076322317123, -0.014409243129193783, -0.2965029776096344, -0.4641890525817871, -0.035359468311071396, 0.07595504075288773, 0.14788958430290222, -0.32369276881217957, 0.09122752398252487, -0.054087597876787186, -0.016407016664743423, 0.5391269326210022, 0.09811288118362427, -0.038273390382528305, 0.2160302847623825, -0.00782038364559412, 0.02509850449860096, 0.1298227459192276, 0.3730788230895996, 0.46282657980918884, 0.07722746580839157, 0.22575689852237701, 0.3141832947731018, 0.022481443360447884, -0.5566152334213257, -0.9046182036399841, -1.0470573902130127, 0.446301132440567, -1.0750806331634521, 0.5881806015968323, 0.5612002015113831, -0.1437601000070572, -0.22706721723079681, -0.3055761158466339, 0.20704682171344757, -0.1927710920572281, 0.02362818457186222, -0.27324220538139343, 0.1342768371105194, -0.05847549065947533, -0.056681569665670395, 0.5048083662986755, -0.8110857605934143, 0.006234555970877409, -0.20604316890239716, 0.09208977967500687, 0.9845244884490967, -0.1978536993265152, 0.08285177499055862, 0.26401928067207336, -0.025203349068760872, -0.11556065827608109, -0.024258585646748543, -0.7066860198974609, -0.9439609050750732, 0.08344382792711258, -0.09250830858945847, 0.08601229637861252, 0.09533893316984177, 0.05559408292174339, -0.05282535031437874, 0.08976304531097412, 0.06497811526060104, -0.012888575904071331, 0.012597720138728619, 0.10462621599435806, 0.12403341382741928, 0.1755075305700302, 0.14373470842838287, -1.1177499294281006, -0.5333545804023743, -0.064972884953022, 0.1040719673037529, -0.043668027967214584, 0.07702543586492538, -0.19355620443820953, 0.030136557295918465, -0.14435969293117523, 0.28864380717277527, -0.20419208705425262, -0.11326765269041061, -0.18960942327976227, -0.3001601994037628, -0.19398300349712372, -0.01063606794923544, 0.05691404640674591, -0.3458421528339386, 0.03482517972588539, 0.17405866086483002, 0.0867687538266182, 0.7874173521995544, -0.04603106155991554, -0.19711564481258392, -0.30854490399360657, -0.03278433904051781, 0.12027192860841751, -0.11200452595949173, -0.6538028120994568, 0.44753554463386536, -0.03820043429732323, 0.15789328515529633, -0.14768269658088684, 0.04035138711333275, 0.16914081573486328, 0.1506126970052719, 0.032323215156793594, 0.04309740290045738, 0.07383645325899124, -0.19049181044101715, 0.5690584778785706, -1.1121444702148438, 0.09376812726259232, -0.01021023839712143, -0.6106109619140625, -0.038749419152736664, -0.41619372367858887, -0.8021916747093201, 0.40907713770866394, -1.1769267320632935, -0.6912660002708435, -0.4231627881526947, 0.6329007744789124, 0.3764408528804779, -0.1311393827199936, 0.6331568360328674, -0.6670852303504944, -0.029750676825642586, 0.16304777562618256, -0.577753484249115, -1.3328818082809448, -0.11182773113250732, -0.09239511936903, -0.2681410014629364, -0.482065349817276, -0.024374278262257576, 0.10300981253385544, -0.6244391202926636, -0.7546845078468323, -0.1566316932439804, 0.06292343884706497, -0.498331218957901, -0.43003320693969727, 0.012751683592796326, -0.16190873086452484, 0.33324211835861206, -0.39491280913352966, -0.22696329653263092, -0.09666203707456589, 0.13168101012706757, -0.046444300562143326, -0.034040335565805435, 0.09014285355806351, -0.26709800958633423, -0.43724963068962097, 0.001991106430068612, 0.08004844933748245, 0.08416187018156052, 0.30241629481315613, -0.1538911908864975, -0.06039995327591896, 0.4749545753002167, -0.9122418761253357, -0.13241779804229736, -0.06565488129854202, -0.09023699909448624, 0.08539094775915146, -0.09739870578050613, 0.06745732575654984, 0.0953500047326088, -0.006062187720090151, 0.06550837308168411, -0.058722373098134995, 0.05935996398329735, -0.8427422642707825, -0.08407575637102127, -0.1063910648226738, -0.4368933141231537, 0.3069944381713867, 0.09701596945524216, -0.1370520442724228, -0.032438699156045914, 0.16231946647167206, -0.0032206883188337088, 0.09435678273439407, -0.2030690461397171, -0.11724220961332321, 0.006793022621423006, 0.0628698468208313, -0.16653135418891907, -0.27434495091438293, 0.13316990435123444, 0.15917910635471344, 0.5356138944625854, -0.6081542372703552, -0.09872967004776001, -0.10429056733846664, 0.11522281914949417, 0.0093863969668746, 0.26117661595344543, 0.13898251950740814, -0.4542272984981537, -0.8446388840675354, -0.04227989539504051, -0.002446793019771576, 0.07245413959026337, 0.2336299568414688, -0.997675895690918, -0.7874436378479004, 0.1662108451128006, 0.2354826182126999, -1.0503966808319092, 0.819024384021759, 1.0343433618545532, 0.844890296459198, 1.3996504545211792, -0.33969947695732117, 0.21929216384887695, -0.10364607721567154, 0.04019606485962868, -0.5182414054870605, -1.3656731843948364, -0.1686645895242691, -0.0470823235809803, 0.570475161075592, 1.2279664278030396, 0.05954122170805931, 0.04667913541197777, 0.5600057244300842, 0.9170323014259338, 0.03000369481742382, 0.17991256713867188, 0.7150864601135254, 0.8053780198097229, -0.0652342438697815, -0.04082858934998512, -0.43500712513923645, 0.3700718581676483, 0.04784655198454857, 0.0592770017683506, -0.4850529432296753, 0.15659178793430328, -0.04959750548005104, -0.10835539549589157, -0.04546671733260155, 0.7800235152244568, 0.04676598682999611, 0.10568941384553909, 0.15647673606872559, 0.21219207346439362, -0.006100138183683157, 0.058443959802389145, -0.7877044677734375, -1.10282301902771, -0.05312132462859154, -0.004939184058457613, -0.006583643611520529, 0.010808252729475498, 0.21309377253055573, -0.1331612914800644, 0.04605022072792053, 0.19384361803531647, -0.021193144842982292, 0.13434839248657227, 0.209470734000206, 0.34416112303733826, 0.05960911139845848, -0.12104416638612747, 0.17363692820072174, 0.7435269355773926, 0.12807179987430573, 0.1257331520318985, 0.14425435662269592, -0.2829887866973877, -0.10649275034666061, -0.11783456057310104, -0.24975578486919403, -0.2062440663576126, -0.09920728951692581, 0.10508787631988525, -0.33392879366874695, -0.12640558183193207, 0.00667135464027524, 0.025907978415489197, -0.7548064589500427, -0.07379067689180374, 0.09922964125871658, -0.32891491055488586, -0.0492115281522274, 0.07462262362241745, -0.018665673211216927, -0.09429669380187988, 0.2944910228252411, -0.05481376126408577, -0.16225101053714752, -0.1970570832490921, -0.755084216594696, -0.6347271203994751, -0.014874518848955631, -0.6667118668556213, 0.3427734076976776, -0.9726426005363464, -0.22331736981868744, 0.33824923634529114, -1.2234257459640503, -1.120685338973999, 0.10359072685241699, 0.9617807865142822, -0.9452228546142578, 0.038936760276556015, 0.04491866007447243, 0.27344197034835815, 2.1197235584259033, 0.13261662423610687, 0.07609749585390091, 0.3183283507823944, 0.7265400290489197, 0.11588657647371292, 0.05401932820677757, 0.0925871804356575, 0.041873786598443985, -0.03708994761109352, -0.011644191108644009, 0.28823307156562805, 0.7949954867362976, -0.014505117200314999, -0.020272865891456604, -0.1383410543203354, 1.2771761417388916, -0.028890760615468025, 0.007797047961503267, 0.028159113600850105, -0.31377503275871277, -0.19455240666866302, 0.0634203627705574, 0.1789809614419937, -0.04862963780760765, 0.09788738936185837, -0.00470817880704999, 0.31760454177856445, -0.08271899074316025, -0.09978119283914566, 0.03789025545120239, -1.5826267004013062, -0.8526684641838074, -0.058357417583465576, 0.14318372309207916, 0.11062546819448471, 0.12876881659030914, -0.06462813168764114, 0.04860484227538109, 0.15982279181480408, 0.03523964434862137, -0.031340569257736206, -0.016345711424946785, 0.25063130259513855, -0.25779134035110474, -0.04338771477341652, -0.044036541134119034, 0.15958751738071442, 0.061274293810129166, 0.19764314591884613, -0.15192198753356934, 0.06495089828968048, 0.23081065714359283, 0.0183620136231184, 0.02257244475185871, -0.23652102053165436, -0.06571775674819946, -0.007072777021676302, -0.19318877160549164, -0.4359455406665802, -0.18800115585327148, -0.031359877437353134, -0.1347327083349228, 0.44307610392570496, -0.20412801206111908, 0.11484669893980026, -0.0009860320715233684, -0.05588603392243385, -0.013342331163585186, 0.019339783117175102, 0.10996755212545395, 0.04118161275982857, 0.1016739010810852, 0.21338392794132233, 0.13292934000492096, -0.7183741927146912, -0.38897109031677246, -0.4133548438549042, -0.7736926674842834, 0.13918372988700867, -0.7413340210914612, 0.4832051992416382, -0.04311111569404602, 0.7831143736839294, 0.0535149984061718, -0.5350618958473206, 0.013567606918513775, 0.9568325877189636, 0.20448018610477448, -0.016961650922894478, -0.4192310869693756, 0.11868811398744583, -0.07155520468950272, 0.008717739023268223, -0.14587558805942535, 0.5895466208457947, -0.04414031282067299, 0.046787697821855545, 0.14666809141635895, 0.5906150937080383, -0.01543277408927679, -0.05587601289153099, -0.8891344666481018, -0.7970147728919983, -0.0557175911962986, -0.003330836072564125, -0.4568834602832794, -1.675653338432312, -0.09716109186410904, 0.01492141094058752, -0.056594666093587875, -0.10537444800138474, -0.16609801352024078, -0.01438813004642725, 0.4712037742137909, -0.3971717655658722, -0.07037603110074997, 0.07268316298723221, 0.09252656251192093, 0.04128461331129074, -0.11441528052091599, -0.004054971504956484, 0.2033330649137497, 0.43455740809440613, -0.02094613015651703, -0.10760387033224106, -0.21852953732013702, -0.0659416913986206, -0.1241680309176445, 0.0999208614230156, -0.22690914571285248, 0.030202535912394524, 0.08105837553739548, 0.039385464042425156, -0.11267542839050293, -0.9763628840446472, 0.07247709482908249, -0.22324873507022858, -0.0816786140203476, -0.1558373123407364, 0.019282100722193718, -0.02524811215698719, 0.27780601382255554, 0.029905935749411583, -0.10406225919723511, -0.03761553391814232, -0.17215968668460846, -0.1292935460805893, -0.07283330708742142, 0.1577468067407608, -0.19594871997833252, 0.3028128743171692, -0.023333309218287468, -0.028323234990239143, -0.06117207184433937, -0.30470600724220276, -0.0372941829264164, 0.22585298120975494, -0.003095174441114068, -0.0617520771920681, -0.05138323828577995, 0.12870027124881744, -0.22489793598651886, 0.390598326921463, -0.010340840555727482, -0.05689984932541847, 0.1619095653295517, 0.15013672411441803, -0.6300224661827087, -0.5503510236740112, -0.43772092461586, 0.6338738203048706, 0.3423173129558563, 0.07064413279294968, 0.829989492893219, -1.5163687467575073, -0.4480433166027069, 0.20724083483219147, -0.8492918610572815, 0.04346520081162453, -0.06621211767196655, -0.6766604781150818, -0.30654391646385193, -0.02166355960071087, -0.010491392575204372, 0.007305128034204245, 0.8702325224876404, -0.21839283406734467, -0.10971435159444809, -0.16526876389980316, 0.549615740776062, -0.07408875972032547, -0.09960972517728806, -0.3047623336315155, -1.6561845541000366, 0.03135782852768898, 0.053005415946245193, -0.5048633217811584, -0.3450200855731964, -0.05954461917281151, 0.014719902537763119, 0.039494309574365616, -0.21742890775203705, 0.005108259152621031, 0.05762409791350365, 0.06983296573162079, 0.04486408829689026, 0.016698287799954414, -0.15534353256225586, 0.1916119009256363, 0.01449228823184967, 0.018593011423945427, -0.05527262017130852, 0.02934887818992138, 1.0900580883026123, -0.00817923154681921, 0.19250677525997162, 0.2047790288925171, 0.04745388403534889, -0.10817957669496536, 0.08662384003400803, -0.06401949375867844, 0.1549430787563324, 0.16156327724456787, -0.15726850926876068, 0.2693970501422882, -0.22181321680545807, -0.08974885195493698, -0.0008619576110504568, -0.2934420704841614, 4.6651966840727255e-05, 0.09962070733308792, -0.17041827738285065, 0.2292718142271042, -0.5339255928993225, -0.05768483504652977, 0.1293024867773056, -0.18752504885196686, 0.03330229967832565, -0.08308249711990356, -0.15884758532047272, -0.040138449519872665, 0.22476910054683685, 0.007490179967135191, -0.01455248985439539, 0.13856686651706696, -0.14995792508125305, -0.19336020946502686, 0.016679884865880013, 0.19601599872112274, 0.10503026098012924, 0.007397070061415434, -0.021686317399144173, -0.11908925324678421, 0.4171924591064453, -0.06472610682249069, 0.003529622917994857, -0.47015759348869324, -0.4827772378921509, -0.6120324730873108, -0.5030598044395447, -0.13291752338409424, -0.44986140727996826, -0.8193753361701965, -0.014798309653997421, -0.33087509870529175, -1.7245508432388306, 1.1528836488723755, -0.36091235280036926, -0.4875596761703491, -0.47165393829345703, -0.6334882974624634, -0.8757161498069763, -0.5952848792076111, -0.418658584356308, -0.4879622161388397, -0.8690452575683594, -0.9336519837379456, -0.694271981716156, -0.6407870650291443, -0.3290841281414032, -0.3740987479686737, -0.5185896158218384, -0.2474491447210312, -0.47069886326789856, -0.40865471959114075, -0.7733749747276306, -0.6348734498023987, -0.7267616391181946, -0.14104007184505463, -0.31079596281051636, -0.6136419177055359, -0.24530579149723053, -0.6847882270812988, -0.4028700292110443, -0.6218739748001099, -0.6693764328956604, 