{"structure_edges": [[-1, 10, 1], [10, 11, 1], [11, 12, 1], [-1, 15, 1], [15, 16, 1], [16, 17, 1], [-1, 30, 1], [30, 33, 1], [33, 34, 1], [-1, 35, 1], [35, 38, 1], [38, 39, 1]], "structure_weights": {"mu": [-2.8150801867851944, -1.3342044397657236, 1.4227952976140141, -1.6347648959228422, -1.4734355714377403, 0.0, 0.0, -0.3890436274187332, -0.773807611254802, 1.7576154465821345, -1.110442569314556, -0.7702046690726904, 0.5161172831063876, 0.20412441265400638, 0.0, 0.0, -0.46912316531969184, -0.2566458377790021, -2.6073031075039506, -0.006894342873347029, -1.098833195956032, -1.2080793874289997, -1.310345162132264, 0.0, 0.0, -0.4129630821638215, -0.2459964214667943, -2.2903284796269525, -1.231035738935929, -1.3703988749280152, 0.3561508475543692, 0.29700945766730086, 0.0, 0.0, -0.16927128971562153, -0.24830020612695264, -2.5718308150374587, -0.8991744646078615, -2.5743784021524814, -1.1062236961322998, -1.47605818063644, 0.0, 0.0, 0.1737644793593022, 0.09188360335721475, -1.5858197315064355, -1.242543554586136, 0.5820355064160149, -1.0592634146488147, -1.599633423970492, 0.0, 0.0, -0.10886255819546192, -1.376832659705019, -2.4363753410931124, -0.9499214265920047, -1.1454405373267806, 0.14211301205968885, 0.02839413534135728, 0.0, 0.0, 0.5515701196534869, -0.33240283569659224, -2.4227229669134895, -0.5079176053927298, -0.9816531461273129, -0.5762478352799367, -1.2401707169176974, 0.0, 0.0, 0.020465792323697607, 0.2778142859769081, -1.3613973081855988, -1.1329152810694172, -1.0114093231959436, 0.4285645442625671, -0.0877606336489001, 0.0, 0.0, -0.4739996574262284, 0.22747286780235076, -1.9464566571665494, -0.5769221596261496, -0.6955274801794697, -0.7292242320147889, -1.3826971144544444, 0.0, 0.0, -0.05640369335589621, -0.008807933340525938, -1.5151525305345035, -1.406424832281462, 1.6440814910410142, -0.058385066681892576, -0.9463505673389219, 0.0, 0.0, 0.7091953178177722, -0.9119174441788448, -1.1987771831967293, -1.6031444544741817, 0.3636288885393137, -0.34033256117668237, 0.4785678449301902, 0.0, 0.0, -0.06368060264771414, -1.2658218652518634, -0.9625007167026012, -0.23085753200448014, 2.7663267671684912, 0.18744582066988416, -1.122458131824142, 0.0, 0.0, 1.7038432429324686, -0.7635317432241591, -0.1510158847379567, -1.9278963886635445, -1.3199032432610265, 0.27308853227663804, -0.6745975337672016, 0.0, 0.0, -0.654722794378975, 0.24705436927033378, -0.9303324078330251, -0.8382468837063962, -1.3728805757829174, -0.3761163850829815, -1.138965062071, 0.0, 0.0, -0.08517790224392233, 0.08392528849553292, 0.4778171760762176, -0.7837137623572658, 2.067038007823066, 0.6787465515421486, -1.8916278297162725, 0.0, 0.0, -0.18752047447905285, 0.8292505188581546, -0.6700763688279305, -1.02968805257772, 1.6831977787333066, 1.2016860128057147, -0.04031908233358615, 0.0, 0.0, 1.200586548391753, -0.9030040622904422, -1.1528171635599322, -1.0518419984950462, 0.19089373048288977, 1.8191735419792279, -0.3578444874592342, 0.0, 0.0, -0.3455765431141374, -0.7009980657906977, -0.11076299980020715, -0.9116187603843948, -0.7202338443012123, 0.14177294138043753, -0.14508139506501133, 0.0, 0.0, 0.21104409818436126, 0.12504145971504327, -0.3875990110904395, 0.24639022527007293, -1.116629502561427, 0.7423113653236867, -1.1623613868821991, 0.0, 0.0, 0.0761096594566811, 0.015331021986806033, -0.18038209589814028, -1.879054610049639, -0.007112255685553275, 1.1811956014378795, -1.0994081595702745, 0.0, 0.0, 0.5585042668085826, -1.9912594148473097, -0.5910686059243601, -0.8713278855633998, -2.2501457281801094, 0.42536908417622293, -0.057482327452103264, 0.0, 0.0, -0.05064816686366379, 0.5834982715626582, -0.07325836882912158, -0.7150339716843587, -1.4765417987039469, 1.202120498521022, -1.1659255419392878, 0.0, 0.0, -0.4171602181577021, 0.32643081893188175, 0.4715892513563964, -1.2664811998578607, -1.2475658350756589, 0.32277533700296024, -0.243306949044533, 0.0, 0.0, 0.627056728941162, 0.18327324183094976, -0.14900726863242741, -0.21182462718326797, -1.313553110404361, 1.3388300625769838, -1.0320884010430682, 0.0, 0.0, -0.6449170338781194, -0.14392798216858801, 0.4226079777721053, -0.4738560753148022, 0.5863778458572089, 2.16658608465386, -1.4606981729177573, 0.0, 0.0, -0.14172527061518256, 0.20281672377428756, -0.05143953313903038, -0.7242570003400866, -1.2487976268539984, 0.1372014115109249, 0.29493552038742493, 0.0, 0.0, -0.32015841507736814, -0.3983838633081714, 0.1618467530074807, -1.079895481432154, -1.2025513722490078, 1.588157515740855, -1.2082377860726032, 0.0, 0.0, 0.03797549020927592, -0.3191825114061151, 0.9548945631906836, -0.789299769916957, -1.028551676492909, 0.2161003425523272, 0.046878638938551355, 0.0, 0.0, 0.046667617785227426, 0.11557078668621786, 0.6307046132720882, -0.7950025143104502, -1.3728093794640086, 1.9120900340046239, -1.8076738214165382, 0.0, 0.0, 0.4710828762012621, 0.09515192082250185, 0.9555522726923474, -1.2257961030068483, 1.9938939337552737, 3.074281029155594, -0.6468030572627524, 0.0, 0.0, -0.8887418466099568, -0.060750496135010296, 0.40561362198310463, -0.9527460590035169, -1.1335544094149246, -0.08440607631856628, 0.2689128037263826, 0.0, 0.0, 0.021802392610651953, 0.37339405323779373, 1.4230857926580218, -0.5161699647858081, -1.3073786326629644, 2.6093737415225347, -1.3194353544435522, 0.0, 0.0, -0.3446481147519901, -0.0023361278711459816, 1.3765831903385053, -1.0195397234523926, 0.900221510324072, -0.9683190644996885, -0.03484904920296542, 0.0, 0.0, -0.8351235731761345, -0.6422910620677437, 2.0428007267168806, -0.9805258151951757, -0.5869643923472965, 2.95962284024663, -2.7029487300650357, 0.0, 0.0, -0.5047204230288542, 0.842901688715647, 1.7996517260348401, -1.510484969502292, 1.4371556004427135, 3.125000023972033, -1.3651083523915608, 0.0, 0.0, 0.1642870692438575, -1.921232363847579, 1.160776214900805, -1.4850291517732104, -1.2940110929930053, 0.06473143500356845, -0.09197569897363495, 0.0, 0.0, 0.030780224048582758, 0.17191793630814534, 1.8857394728060293, -0.7373616956942973, -1.6001564915011732, -1.7616435801810602, -1.3860296252089668, 0.0, 0.0, 0.1402314030396876, 0.03101033221513213, 2.7875952202109846, -1.4308513205623115, 2.25427708096911, -0.20779505920925875, -0.19502499820384095, 0.0, 0.0, -0.5461152426594991, -1.2431283935829347, 1.0086831119904855, -1.14065503884654, 0.4555768408761141, -2.547790788373383, -0.7164747900663562, 0.0, 0.0, -1.0478889654997372, -0.0738737964281515], "sigma": [0.1, 0.1, 0.1, 0.1, 0.1, 0.1, 0.1, 0.1, 0.1, 0.1, 0.1, 0.1, 0.1, 0.1, 0.1, 0.1, 0.1, 0.1, 0.1, 0.1, 0.1, 0.1, 0.1, 0.1, 0.1, 0.1, 0.1, 0.1, 0.1, 0.1, 0.1, 0.1, 0.1, 0.1, 0.1, 0.1, 0.1, 0.1, 0.1, 0.1, 0.1, 0.1, 0.1, 0.1, 0.1, 0.1, 0.1, 0.1, 0.1, 0.1, 0.1, 0.1, 0.1, 0.1, 0.1, 0.1, 0.1, 0.1, 0.1, 0.1, 0.1, 0.1, 0.1, 0.1, 0.1, 0.1, 0.1, 0.1, 0.1, 0.1, 0.1, 0.1, 0.1, 0.1, 0.1, 0.1, 0.1, 0.1, 0.1, 0.1, 0.1, 0.1, 0.1, 0.1, 0.1, 0.1, 0.1, 0.1, 0.1, 0.1, 0.012955672179091325, 0.011694605001147051, 0.059284872312509763, 0.03868155936360894, 0.01, 0.1, 0.1, 0.01725192269488987, 0.02659934654677443, 0.049068602466506434, 0.019032388959647182, 0.0630572072869127, 0.01808645156979369, 0.0591968230010363, 0.1, 0.1, 1.4989746634523566, 2.2435488228935307, 0.01, 0.013281131724397204, 0.189897030609226, 0.02190143784195981, 0.05262415547684911, 0.1, 0.1, 1.523949167242848, 0.5725697975918029, 0.1, 0.1, 0.1, 0.1, 0.1, 0.1, 0.1, 0.1, 0.1, 0.1, 0.1, 0.1, 0.1, 0.1, 0.1, 0.1, 0.1, 0.1, 0.028878106704024648, 0.029739868659129122, 0.010492555770346846, 0.01771619967589764, 0.010360743053923479, 0.1, 0.1, 0.03699092712822626, 0.0220655709062855, 0.0212922041298415, 0.01, 0.010620754061030037, 0.015416452058815786, 0.01, 0.1, 0.1, 1.3079321554818026, 0.2373004836884416, 0.011945453736544473, 0.01827701755194127, 0.017804060360322508, 0.04134025084510441, 0.026325292904150158, 0.1, 0.1, 1.9181259244352344, 1.5765403993549878, 0.1, 0.1, 0.1, 0.1, 0.1, 0.1, 0.1, 0.1, 0.1, 0.1, 0.1, 0.1, 0.1, 0.1, 0.1, 0.1, 0.1, 0.1, 0.1, 0.1, 0.1, 0.1, 0.1, 0.1, 0.1, 0.1, 0.1, 0.1, 0.1, 0.1, 0.1, 0.1, 0.1, 0.1, 0.1, 0.1, 0.1, 0.1, 0.1, 0.1, 0.1, 0.1, 0.1, 0.1, 0.1, 0.1, 0.1, 0.1, 0.1, 0.1, 0.1, 0.1, 0.1, 0.1, 0.1, 0.1, 0.1, 0.1, 0.1, 0.1, 0.1, 0.1, 0.1, 0.1, 0.1, 0.1, 0.1, 0.1, 0.1, 0.1, 0.1, 0.1, 0.1, 0.1, 0.1, 0.1, 0.1, 0.1, 0.1, 0.1, 0.1, 0.1, 0.1, 0.1, 0.1, 0.1, 0.1, 0.1, 0.1, 0.1, 0.1, 0.1, 0.1, 0.1, 0.1, 0.1, 0.1, 0.1, 0.1, 0.1, 0.1, 0.1, 0.1, 0.1, 0.1, 0.1, 0.1, 0.1, 0.010408816995177891, 0.019963003597447532, 0.014017740515667001, 0.010001174183097681, 0.01, 0.1, 0.1, 0.06483962187311484, 0.01, 0.1, 0.1, 0.1, 0.1, 0.1, 0.1, 0.1, 0.1, 0.1, 0.1, 0.1, 0.1, 0.1, 0.1, 0.1, 0.1, 0.1, 0.1, 0.01, 0.01, 0.0171564195549916, 0.33494727488998494, 0.01724051652157966, 0.1, 0.1, 0.8918738219707136, 2.5771866818472797, 0.012744714208619095, 0.015138391841303939, 0.0454253630685742, 0.010000005572053673, 0.010000000563333129, 0.1, 0.1, 2.132325713322583, 1.5957414754713093, 0.01, 0.04264309907872084, 0.047119913107488684, 0.09999985233099669, 0.01, 0.1, 0.1, 0.010898867908721807, 0.020798938627089807, 0.1, 0.1, 0.1, 0.1, 0.1, 0.1, 0.1, 0.1, 0.1, 0.1, 0.1, 0.1, 0.1, 0.1, 0.1, 0.1, 0.1, 0.1, 0.010000000185209145, 0.0279570495442951, 0.01747163646007567, 0.01, 0.017048624833118906, 0.1, 0.1, 0.7549270213175786, 1.3986541853309689, 0.013584464688538217, 0.017064968983893668, 0.03491294425611897, 0.010000000000125213, 0.033337119394824255, 0.1, 0.1, 1.540779899329666, 1.5219643961934803]}, "policy_weights": [0.033603485673666, 0.17211996018886566, 0.05805247649550438, -0.0634918287396431, 0.1874062865972519, -0.0755874514579773, -0.19178350269794464, -0.09003520756959915, 0.13953028619289398, 0.05080823227763176, 0.12819184362888336, -0.019483597949147224, -0.1874973028898239, 0.3975243866443634, -0.13240587711334229, -0.10862969607114792, 0.044446226209402084, 0.48781728744506836, -0.03815626725554466, 0.05933183804154396, -0.015019507147371769, 0.4048013985157013, -0.030955610796809196, -0.1203768327832222, -0.1587662547826767, 0.3955766260623932, 0.040192846208810806, -0.013282583095133305, 0.0656595304608345, -0.10961834341287613, -0.06461197882890701, -0.11073911935091019, 0.22929812967777252, 0.050623711198568344, -0.03881830349564552, 0.016745714470744133, -0.5611658096313477, 0.2331526130437851, 0.11859167367219925, 0.10275708884000778, -0.35588669776916504, 0.20434324443340302, -0.04447931423783302, 0.191345676779747, -0.10197795182466507, -0.21539270877838135, 0.06162482127547264, 0.021996332332491875, 0.10189735144376755, -0.5063633322715759, -0.10433709621429443, -0.16433288156986237, -0.033883631229400635, 0.02142232470214367, -0.09513788670301437, -0.10158050805330276, 0.31794050335884094, 0.4294690787792206, -0.13408111035823822, 0.2974705398082733, -0.8899993300437927, -0.8379418253898621, 0.08934693783521652, 0.01698140986263752, 0.5812548398971558, 0.9956486225128174, -0.026384184136986732, -0.10694969445466995, -0.1294099986553192, 0.02252727933228016, -0.11724983900785446, 0.10914360731840134, 0.3649536669254303, 0.36692166328430176, 0.1542438268661499, 0.08498173207044601, 0.2930646240711212, 0.02632986567914486, -0.10760844498872757, -0.014258130453526974, 0.16229282319545746, 0.44947096705436707, 0.1526871770620346, 0.19958949089050293, -0.12254417687654495, -0.5738731026649475, 0.006775724235922098, 0.0023360515478998423, 0.048640552908182144, 0.23545671999454498, -0.006377922836691141, 0.027719048783183098, -0.36145302653312683, -0.7553907036781311, -0.18065454065799713, -0.022485537454485893, 0.12238288670778275, 0.03821384534239769, 0.06256705522537231, 0.14977861940860748, -0.11947929114103317, -0.3435828387737274, -0.027382967993617058, -0.02285526879131794, 0.046285565942525864, 0.3263554871082306, 0.18500502407550812, 0.118880994617939, -0.3281967341899872, -0.2702579200267792, -0.14777874946594238, -0.1292640119791031, -0.13938738405704498, 1.0051602125167847, -0.08996463567018509, 0.005764565896242857, -0.23258258402347565, 0.11446262151002884, -0.10028258711099625, -0.286284476518631, -0.35542991757392883, -0.11698509007692337, 0.0034182220697402954, 0.029136834666132927, -0.2182050496339798, -1.4491044282913208, 0.14845381677150726, 0.05909186601638794, -0.21732576191425323, -0.2882242202758789, -0.031691160053014755, 0.022662339732050896, 0.07853090018033981, 0.03134625405073166, 0.14380909502506256, 0.06199752911925316, 0.11262651532888412, 0.8683281540870667, 0.23255445063114166, -0.08079826086759567, 0.10930288583040237, 0.6006696820259094, -0.18116413056850433, 0.09383951872587204, -0.41356611251831055, 0.0857045128941536, -0.15042604506015778, 0.261264830827713, 0.06558723002672195, -0.0013232853962108493, -0.062460724264383316, 0.07014299184083939, -0.07258052378892899, 0.3802171051502228, -0.03772559389472008, 0.20818136632442474, -0.6720878481864929, 0.41526028513908386, 0.12996865808963776, 0.0459788478910923, -0.8819538950920105, -0.8567782044410706, -0.29125842452049255, -0.4394478499889374, 0.585229754447937, -0.11451979726552963, 0.34564265608787537, -0.984861433506012, -0.17226816713809967, 1.287094235420227, 0.2563374638557434, 0.2967087924480438, -0.7622976899147034, 0.03412678465247154, -0.02496844343841076, -0.21267367899417877, -0.16980589926242828, 0.13564585149288177, 0.174666628241539, -0.05745214596390724, -0.18259136378765106, -0.052984077483415604, -0.037881676107645035, -0.2909841537475586, 0.09825562685728073, 0.10212243348360062, 0.03658634424209595, 0.08962512761354446, 0.3955656588077545, -0.01825711317360401, 0.21182791888713837, 0.4102074205875397, -0.5893701910972595, 0.12470114976167679, -0.029358265921473503, -0.25195053219795227, -0.7179130911827087, 0.03301742672920227, 0.02126323990523815, 0.10083562135696411, -0.1198885515332222, 0.16665004193782806, -0.28902626037597656, 0.13635672628879547, 0.06535030156373978, 0.24904845654964447, 0.08773719519376755, -0.1634063869714737, 0.29427197575569153, 0.045785222202539444, -0.03020551986992359, -0.028543679043650627, 0.6512491106987, 0.01982090063393116, -0.12032925337553024, -0.2925243079662323, 0.1788758784532547, 0.04216933622956276, 0.07655036449432373, 0.2799167037010193, 0.31059902906417847, -0.13380597531795502, 0.0013675278751179576, 0.1303473562002182, -0.4006905257701874, -0.03860434889793396, -0.03648906946182251, 0.3792392909526825, 0.2073998600244522, -0.060603026300668716, -0.20988829433918, -0.9505713582038879, 0.36839041113853455, 0.05730437859892845, -0.10301323980093002, 0.2519022822380066, 1.113303303718567, 0.07570724934339523, 0.13096167147159576, -0.07299209386110306, 0.4398714601993561, 0.04797518625855446, -0.13508011400699615, -0.1546557992696762, -0.01643492467701435, 0.1485593467950821, 0.06986480206251144, -0.001348881865851581, 0.23809386789798737, 0.05680340901017189, -0.059966620057821274, -0.26392701268196106, -0.6782894730567932, 0.10190462321043015, -0.17316104471683502, -0.3853760063648224, -0.04101219400763512, -0.1290234476327896, 0.20651642978191376, 0.23463083803653717, -0.025599269196391106, -0.062305692583322525, -0.03615868464112282, 0.07451850175857544, -0.2216459959745407, -0.15397417545318604, 0.17254091799259186, 0.11655902117490768, -0.26944491267204285, -0.007599123287945986, 0.08069104701280594, -0.04284825921058655, 0.575185239315033, -0.07157932966947556, -0.15462161600589752, -0.20725153386592865, -0.06496643275022507, 0.0648161843419075, -0.1672760397195816, -0.34660604596138, -0.5780444145202637, 0.0569380484521389, 0.14269673824310303, -0.13639722764492035, -0.01033750269562006, -0.08749978989362717, 0.08953201025724411, -0.14462269842624664, 0.24736428260803223, 0.10980892926454544, -0.004954793024808168, -0.8991308808326721, 0.47918418049812317, 0.08048183470964432, -0.12212289124727249, 0.28043076395988464, 0.11035323888063431, 0.14026273787021637, -0.08287274837493896, -0.07446515560150146, -0.28424713015556335, -0.12862063944339752, 0.19579267501831055, -0.0005783214583061635, 0.03076007217168808, -0.06780188530683517, -0.0036287906114012003, -0.10436712950468063, -0.38806435465812683, -0.04464277997612953, -0.06829798966646194, 0.4561885595321655, 0.2907908260822296, -0.0022217032965272665, 0.17209364473819733, -0.3687841594219208, -0.11579514294862747, -0.07824968546628952, 0.06344520300626755, 0.1594015508890152, -0.03544599190354347, -0.006040140986442566, -0.03590526804327965, -0.24723392724990845, 0.6248297095298767, 0.05940217152237892, 0.024752290919423103, -0.00847122073173523, 0.45200487971305847, 0.03352498635649681, 0.0686570480465889, 0.26526540517807007, 0.44171079993247986, -1.3503618240356445, -0.37989330291748047, 1.9608632326126099, -0.3232453167438507, 0.7141751646995544, -0.5594163537025452, -0.020258216187357903, 0.8745549321174622, 0.4099216163158417, 0.4007621109485626, 0.17020200192928314, 0.016813727095723152, 0.08479040116071701, 0.12385643273591995, 0.09041499346494675, 0.012582509778439999, -0.04512685164809227, 0.18237613141536713, 0.025250623002648354, -0.029726387932896614, -0.13126517832279205, 0.12059963494539261, -0.3295488655567169, -0.09624820202589035, -0.05046403780579567, -0.14972282946109772, -0.24029876291751862, -0.038549717515707016, -0.028932927176356316, 0.15909864008426666, 0.44931837916374207, -0.010973350144922733, -0.10675667971372604, -0.15506602823734283, -0.5664377808570862, 0.14299844205379486, -0.03581094741821289, -0.0897291973233223, 0.27366015315055847, -0.015614359639585018, -0.1687157303094864, 0.17303790152072906, -0.020286859944462776, 0.1654428392648697, 0.08020252734422684, -0.29839590191841125, 0.18860067427158356, -0.031084148213267326, 0.153963103890419, 0.22997070848941803, -0.5222922563552856, 0.10246872156858444, -0.07912873476743698, -0.435575932264328, 0.8088261485099792, 0.017251087352633476, 0.025561748072504997, -0.3923797309398651, -0.4604276418685913, -0.10720368474721909, 0.017938656732439995, -0.03272252902388573, -0.32480672001838684, 0.045984651893377304, -0.020863233134150505, -0.3379330337047577, 0.11706305295228958, -0.16510523855686188, 0.16559936106204987, -0.5276579260826111, -0.17939747869968414, -0.03706153854727745, 0.11501406878232956, 0.28987547755241394, -0.284075528383255, 0.12695811688899994, 0.09398538619279861, 0.33883047103881836, -0.08793722838163376, 0.0133237699046731, 0.012602568604052067, -0.03281226381659508, 0.5819424986839294, -0.10031187534332275, 0.12958289682865143, -0.34632542729377747, -0.4323921501636505, 0.20482562482357025, 0.11752044409513474, 0.07201843708753586, -0.848892867565155, 0.06727360934019089, 0.14184798300266266, 0.33083125948905945, 0.34018298983573914, 0.015542627312242985, 0.09734988957643509, 0.3092155158519745, 0.21524597704410553, -0.0419161356985569, 0.04514667019248009, 0.36955931782722473, -0.7098316550254822, -0.06878561526536942, 0.0887606218457222, 0.021349715068936348, -0.6336455345153809, -0.09937810152769089, 0.004320953506976366, -0.2929944694042206, 0.13783381879329681, 0.017777161672711372, -0.038254234939813614, 0.1994934231042862, 0.04872288927435875, 0.025272248312830925, 0.171981081366539, -0.6039267182350159, -1.2509889602661133, -0.1187823936343193, 0.045436445623636246, -0.23964883387088776, -0.2993681728839874, 0.0117094861343503, 0.23386286199092865, 0.1630180925130844, 0.8428574204444885, 0.19929610192775726, 0.13291741907596588, -0.6134098172187805, 0.8807544112205505, 0.08290653675794601, 0.12635459005832672, 0.06985057145357132, 0.027790604159235954, -0.04887252673506737, 0.0056692552752792835, -0.009473629295825958, 0.34630510210990906, 0.07524090260267258, -0.2016913741827011, 0.25050991773605347, 0.5820468664169312, 0.07742507010698318, -0.18681226670742035, -0.6344888806343079, 0.41982319951057434, 0.0036581752356141806, 0.030615657567977905, -0.09569337218999863, -0.4039957523345947, -0.0636143609881401, -0.027960987761616707, -0.07844071835279465, 0.17206789553165436, 0.1437472105026245, 0.07168949395418167, 0.029994187876582146, 0.06788987666368484, 0.17767180502414703, -0.04369330033659935, 0.017999468371272087, -0.42479994893074036, -0.07907574623823166, 0.06442809849977493, -0.3940996825695038, 0.24789492785930634, -0.13494490087032318, -0.04952118173241615, -0.7539002299308777, -0.7398143410682678, 0.5260962843894958, -0.8494357466697693, -0.757706344127655, -1.2939026355743408, -1.11824631690979, 1.3116062879562378, 0.8410937190055847, -0.8538557887077332, 0.049354758113622665, 0.32183119654655457, -0.40654805302619934, 0.05482916161417961, -0.06012433394789696, 0.14016950130462646, 0.14092791080474854, 0.1451519876718521, -0.1707637459039688, -0.09692855924367905, -0.0534537248313427, -0.10533154755830765, -0.17089533805847168, -0.20749767124652863, 0.19590337574481964, 0.045270297676324844, 0.02617262862622738, -0.16202892363071442, -0.543455183506012, -0.07258342951536179, -0.08338392525911331, 0.22328472137451172, -0.3867246210575104, -0.007636077236384153, 0.10776162892580032, -0.6350283026695251, -1.401788592338562, 0.054314617067575455, 0.022094158455729485, 0.014330013655126095, 0.163846954703331, 0.14482034742832184, 0.15382669866085052, -0.15200971066951752, -1.1126431226730347, 0.09311322122812271, -0.08906757086515427, 0.22895954549312592, -0.14088164269924164, 0.10973752290010452, 0.08496075868606567, 0.33391210436820984, 0.09446055442094803, -0.038510292768478394, -0.006833349820226431, 0.5784217119216919, 0.07930804044008255, -0.027430221438407898, 0.11519216746091843, -0.7183871865272522, -0.023733263835310936, 0.047710154205560684, -0.023088810965418816, 0.030399473384022713, -0.3855914771556854, 0.1733572632074356, -0.18674404919147491, -0.28923681378364563, 0.2355813980102539, -0.07702671736478806, 0.0008261706680059433, -0.7232570052146912, 0.48415708541870117, 0.06358509510755539, 0.03717857971787453, 0.006862757261842489, 0.2246660590171814, 0.10595165938138962, 0.021788807585835457, -0.6168995499610901, -0.6630482077598572, -0.07732696086168289, 0.13345147669315338, 0.10819347947835922, 0.5522083640098572, 0.01760147325694561, 0.07082885503768921, 0.10253382474184036, 0.31245705485343933, 0.018634112551808357, 0.06623225659132004, 0.20369504392147064, -1.0308340787887573, 0.06184595450758934, 0.22113895416259766, -0.027427585795521736, -0.40218302607536316, -0.0747571513056755, 0.12568126618862152, 0.03978573903441429, -0.05518173798918724, -0.09657049179077148, -0.12330294400453568, 0.15360568463802338, -0.25110819935798645, 0.09427940100431442, 0.10009630769491196, -0.2311270385980606, -0.18793605268001556, 0.02297709695994854, -0.12305761128664017, 0.022924872115254402, 0.06178092584013939, 0.07918012142181396, -0.09516286104917526, 0.16096006333827972, 0.021246179938316345, -0.048164840787649155, 0.17191599309444427, 0.474215030670166, 0.13581012189388275, 0.036433663219213486, 0.08634866029024124, -0.08367044478654861, 0.2519557774066925, -0.08878255635499954, -0.10941588133573532, 0.061891134828329086, 0.009332253597676754, -0.13252998888492584, -0.17929841578006744, -0.5601636171340942, -0.1523413211107254, -0.15810967981815338, -0.0762365534901619, -0.11011219769716263, -0.662625253200531, 0.12871672213077545, 0.13489983975887299, -0.13173066079616547, 0.15978680551052094, -0.055270951241254807, -0.09449458867311478, -0.19716282188892365, -0.86216801404953, -0.02683562971651554, 0.23120473325252533, 0.1821373701095581, -0.7217215895652771, 0.16187594830989838, -0.042535100132226944, 0.012446287088096142, -0.4500708281993866, 0.10382545739412308, 0.011124037206172943, 0.23889683187007904, 0.17783617973327637, 0.2680874168872833, 0.005726379808038473, -0.04311573877930641, 0.16827704012393951, -0.07227928191423416, -0.1282416582107544, -0.31527021527290344, 0.4568804204463959, 0.11721300333738327, 0.019383354112505913, 0.6316977739334106, -0.1846020370721817, -0.14153943955898285, -0.020860446617007256, -0.8562615513801575, -0.8719425797462463, -0.7091651558876038, -0.5435324907302856, 0.845264732837677, -0.7076507210731506, 0.2987081706523895, -1.156943917274475, -0.543999195098877, 0.4006522595882416, -0.5014842748641968, 0.13849402964115143, -0.42718568444252014, 0.046852800995111465, 0.06895870715379715, 0.12492381781339645, 0.3617420494556427, 0.08406548947095871, -0.01692040078341961, -0.1604684442281723, -0.11519026011228561, 0.08793468028306961, -0.05799853429198265, -0.0807274654507637, 0.10390595346689224, -0.04969465360045433, 0.09646614640951157, 0.007725059986114502, -0.10856398195028305, 0.1796724796295166, -0.1208864375948906, -0.02211022563278675, 0.18550555408000946, 0.012159980833530426, -0.11370671540498734, 0.11124075204133987, 0.3846072852611542, 0.07592201977968216, -0.15062223374843597, -0.32376930117607117, -0.2710292339324951, 0.06587065011262894, -0.058505889028310776, 0.299423485994339, 0.23061467707157135, -0.08595740050077438, 0.05873512849211693, -0.054861169308423996, -0.1743752807378769, -0.003176033264026046, 0.1045057401061058, 0.13390997052192688, -0.14524130523204803, 0.056600574404001236, -0.07432205229997635, -0.29357096552848816, 0.5575166344642639, -0.13737080991268158, -0.11660600453615189, 0.06494838744401932, -0.2264184206724167, -0.17409707605838776, 0.1883312463760376, 0.7513414025306702, 0.8316144943237305, 0.11330354958772659, 0.07122785598039627, 0.0014778872719034553, -0.3078961670398712, -0.13385272026062012, -0.028798073530197144, -1.0756932497024536, 0.028182746842503548, 0.028639910742640495, 0.038251277059316635, 0.1488112062215805, -0.14871403574943542, -0.09171272069215775, 0.10115651041269302, -0.7957191467285156, -0.3872009813785553, 0.0043899682350456715, -0.04340178146958351, 0.12093483656644821, 0.5890541672706604, 0.009211092256009579, 0.1753300577402115, -0.08003807067871094, 0.2377917617559433, -0.010597900487482548, 0.04562464356422424, -0.07696492224931717, 0.11269807070493698, -0.09987825155258179, -0.02090938203036785, -0.33612677454948425, -1.125615119934082, -0.01857130415737629, 0.004747103434056044, 0.04657744988799095, -0.5227113366127014, -0.06889701634645462, 0.2721441090106964, -0.16307497024536133, -0.2691535949707031, 0.09631079435348511, 0.19090868532657623, -0.042906131595373154, 0.7335323691368103, 0.1583692878484726, -0.12732098996639252, 0.023324521258473396, 0.33154061436653137, 0.26888158917427063, -0.032013360410928726, 0.09422136098146439, 0.684204638004303, -0.0960654690861702, 0.17615796625614166, -0.6137872338294983, 0.004481602925807238, 0.1370541900396347, 0.0673896074295044, -0.038007501512765884, -0.19827067852020264, 0.15335725247859955, -0.15900908410549164, -0.19554854929447174, 0.38246989250183105, 0.022532863542437553, 0.2217753678560257, -0.5108985304832458, 0.818303108215332, 0.10412324219942093, 0.20690204203128815, -0.2817401885986328, -0.6247387528419495, -0.05275428295135498, -0.14557813107967377, 0.3772711455821991, -0.4131961166858673, 0.12987399101257324, 0.0031117741018533707, 0.5167084336280823, 0.23496411740779877, -0.07205582410097122, 0.02103695087134838, 0.8508809208869934, 0.31427714228630066, -0.07836955040693283, 0.062034670263528824, 0.42682120203971863, -0.1617516279220581, 0.0032934125047177076, -0.14073537290096283, -0.49610331654548645, 0.09904373437166214, 0.12503230571746826, -0.025691566988825798, 0.16002653539180756, -0.11073967069387436, -0.1871156543493271, -0.01622389256954193, -0.3927444517612457, -0.08005975186824799, 0.017021430656313896, 0.07466644048690796, 0.6268026232719421, 0.2553843855857849, -0.05430470034480095, -0.03179759159684181, -0.7386587262153625, -0.7373002171516418, -0.20848457515239716, -0.6114779114723206, 0.40064194798469543, -0.42464232444763184, -1.0954687595367432, -0.657008707523346, 0.0651061087846756, 0.5335907340049744, 0.2704332172870636, 0.21514451503753662, 0.3133053779602051, 0.07815670222043991, -0.007246329914778471, -0.3264579474925995, -0.772559642791748, -0.04509400948882103, 0.07436143606901169, -0.28162720799446106, -0.01697397418320179, -0.18698750436306, 0.12223614007234573, -0.11966932564973831, -0.257021427154541, 0.0638081356883049, -0.29370567202568054, -0.044467743486166, 0.18633975088596344, -0.19134771823883057, 0.05608701333403587, 0.2950878143310547, 0.5243958830833435, -0.07154124230146408, -0.1462240219116211, -0.1252613067626953, 0.011491970159113407, -0.022242845967411995, -0.12546251714229584, -0.20218326151371002, -0.31597211956977844, -0.10210942476987839, -0.03843802586197853, 0.1795961707830429, 0.30489233136177063, -0.062465544790029526, -0.058650728315114975, -0.05854422226548195, -0.45530465245246887, -0.07608139514923096, -0.10239075869321823, 0.7935457229614258, 0.7025927901268005, 0.029771624132990837, -0.029629496857523918, 0.15174207091331482, 0.5301914811134338, 0.16430102288722992, 0.0287857037037611, -0.8935829997062683, -0.6455751061439514, -0.16855476796627045, 0.05728166922926903, -0.1422739177942276, -0.032498862594366074, -0.16824473440647125, -0.05135367438197136, -0.23374556005001068, -0.28922316431999207, 0.026475826278328896, -0.07938861101865768, -0.5109502077102661, 0.1501796692609787, -0.08259253948926926, 0.08015459030866623, -0.049917880445718765, -0.37156835198402405, 0.16698767244815826, -0.11220847815275192, -0.030732212588191032, 0.41114887595176697, -0.09619700908660889, 0.0004195243527647108, -0.04852153733372688, 0.6201104521751404, 0.03794678673148155, -0.05596357583999634, -0.12579093873500824, 0.1978740692138672, -0.06083410605788231, -0.0003498675941955298, 0.229951873421669, -0.4467425048351288, 0.018943192437291145, -0.007628329563885927, -0.24346734583377838, -0.04423365369439125, 0.026825925335288048, -0.03447980061173439, -0.026117533445358276, 0.015177682973444462, 0.07945441454648972, -0.012498623691499233, 0.2332787662744522, -0.1500866562128067, 0.27674242854118347, 0.1795903593301773, -0.20909540355205536, -0.4354548156261444, -0.014775156043469906, -0.0157660823315382, -0.11690044403076172, -0.08006519079208374, -0.22994516789913177, -0.05342715606093407, -0.17256341874599457, -0.6055684685707092, 0.13093985617160797, -0.03437026962637901, -0.2559301555156708, 0.019811781123280525, 0.1357250064611435, 0.028138218447566032, -0.15917585790157318, 0.8847020268440247, 0.09737347811460495, 0.03188001736998558, -0.32389429211616516, -0.7786378264427185, 0.022681476548314095, 0.12549914419651031, -0.5933900475502014, -0.627484917640686, 0.028865722939372063, 0.03003370575606823, -0.14739225804805756, -0.8833220601081848, -0.2657490074634552, 0.07254505902528763, 0.056160930544137955, -0.3057403862476349, 0.17396403849124908, -0.0976022407412529, -0.29826635122299194, -0.7114419937133789, -0.16535340249538422, 0.07344358414411545, -0.6365606188774109, 0.17129504680633545, -0.007969521917402744, -0.06298179179430008, 0.15906763076782227, -0.991670548915863, 0.14177049696445465, 0.0894041582942009, -0.14410100877285004, -0.17807458341121674, 0.10470014810562134, -0.07669376581907272, -0.29447242617607117, -0.41248416900634766, 0.11841917783021927, 0.0703592374920845, -0.08217490464448929, 0.35681620240211487, -0.09151757508516312, -0.07862377911806107, -0.22572852671146393, -0.8884440064430237, 0.2345726490020752, -0.18529736995697021, -0.43978628516197205, -0.4630449712276459, -0.49502769112586975, -0.44370272755622864, 0.8030392527580261, -1.03477942943573, -0.21750009059906006, 0.12994863092899323, 0.23295170068740845, 0.9734410643577576, -0.018526773899793625, 0.32327815890312195, -0.27210113406181335, 0.059084538370370865, 0.16520430147647858, -0.4743347465991974, -0.32799866795539856, -0.056992169469594955, 0.08601284772157669, -0.03986480459570885, -0.01606362871825695, 0.049162860959768295, -0.1447117179632187, -0.1305326372385025, 0.9167003035545349, 0.18008042871952057, 0.04843354597687721, -0.07437438517808914, 0.3039110004901886, 0.02922922559082508, -0.00487099913880229, 0.16444934904575348, -0.14731253683567047, -0.09988618642091751, 0.02019655890762806, -0.09554063528776169, -0.21654774248600006, -0.031187864020466805, 0.09110570698976517, -0.001776892808265984, -0.4032120704650879, -0.24849151074886322, -0.038042787462472916, -0.36004945635795593, -0.6601758599281311, -0.10336613655090332, 0.027880700305104256, -0.19619394838809967, 0.4097817838191986, -0.0437811054289341, -0.017169132828712463, -0.23432324826717377, 0.16272781789302826, -0.07892513275146484, 0.11914419382810593, 0.8034941554069519, 1.3798809051513672, -0.1690363734960556, -0.0053170244209468365, -0.6539259552955627, 0.31426113843917847, 0.03104635886847973, 0.19811545312404633, 0.012628124095499516, 0.20824311673641205, 0.09218687564134598, 0.004785590339452028, 0.09312968701124191, 0.40938615798950195, 0.03937142714858055, 0.05013133957982063, -0.7894216179847717, 0.057616353034973145, 0.015433340333402157, 0.007428228389471769, -0.18817387521266937, 0.3779659569263458, -0.014286861754953861, 0.060289859771728516, -0.046113792806863785, -0.05436796322464943, -0.0569988489151001, 0.07509446889162064, -0.48137953877449036, -0.6119251847267151, -0.2322382777929306, -0.23360134661197662, -0.2900995910167694, 0.060659054666757584, -0.04332831874489784, 0.13123668730258942, 0.12447904795408249, 0.010612486861646175, -0.04106367006897926, -0.18176482617855072, -0.06851255148649216, -0.9824629426002502, -0.12060617655515671, -0.010053946636617184, 0.13680662214756012, 0.4170092046260834, 0.11460196226835251, -0.013221890665590763, -0.03483161702752113, -1.1440564393997192, 0.004141754936426878, 0.12644147872924805, -0.01289732288569212, 0.17965997755527496, -0.05154549703001976, 0.014095366932451725, -0.17898927628993988, -0.9690274596214294, 0.04978352412581444, -0.062016550451517105, -0.11070863157510757, -0.29995015263557434, 0.069489486515522, 0.15038682520389557, -0.03815078362822533, 0.3607960045337677, 0.1640254259109497, -0.13410650193691254, -0.34866854548454285, -0.30865100026130676, 0.027260025963187218, 0.1615908294916153, 0.35935094952583313, -0.04461270198225975, -0.2591197192668915, 0.020733416080474854, -0.8373298048973083, 0.5692276358604431, -0.07802944630384445, 0.04121032729744911, 0.09111989289522171, 0.09458517283201218, 0.028886737301945686, 0.11526834219694138, 0.12993945181369781, 0.09158903360366821, 0.01108712051063776, -0.12958623468875885, 0.20324327051639557, 0.6510583758354187, -0.1443634182214737, 0.10749994963407516, 0.23346741497516632, 0.15119518339633942, -0.09446543455123901, 0.08414728194475174, 0.9846258759498596, 0.6090949773788452, -0.04229259118437767, 0.14407207071781158, -0.4112612307071686, 0.3421444594860077, 0.10637172311544418, 0.07200806587934494, 0.03541198745369911, 0.03989278897643089, -0.07042121887207031, 0.07158268243074417, -0.9144125580787659, -0.1008424386382103, 0.0007080980576574802, -0.010520369745790958, -0.019652562215924263, -0.6011284589767456, -0.0423693023622036, -0.03067329339683056, -0.6673573851585388, -0.34387895464897156, -0.6344233155250549, -0.5168972015380859, 0.741946280002594, -0.5006395578384399, 0.15572001039981842, -0.1451239138841629, -0.42944273352622986, 0.16922570765018463, 0.06706149131059647, 0.2099475860595703, 0.040508657693862915, -0.00876657571643591, -0.12229668349027634, 0.6474609971046448, -0.06043320521712303, -0.156553253531456, 0.28832122683525085, 0.22470666468143463, -0.2068333774805069, -0.013086955063045025, 0.1947496086359024, 0.33415839076042175, -0.21568988263607025, -0.13104881346225739, -0.04635488614439964, -0.144185408949852, 0.09305261820554733, 0.1272670179605484, 0.08073950558900833, 0.07395017892122269, 0.15732885897159576, -0.10110176354646683, -0.009604930877685547, -0.011255503632128239, -0.5833244919776917, 0.00742321414873004, 0.06593340635299683, -0.3089427947998047, 0.060316380113363266, -0.18240953981876373, 0.004057742655277252, 0.06374751776456833, -0.3646107017993927, 0.19543753564357758, 0.01788625307381153, -0.030988989397883415, -0.08366023749113083, 0.045578692108392715, 0.009792395867407322, 0.33283379673957825, 0.0837855264544487, 0.034088198095560074, 0.16024495661258698, -0.30231210589408875, 0.06005566939711571, 0.0664835050702095, 0.00799547042697668, -1.1752222776412964, -0.5072633028030396, 0.07943426817655563, 0.08968966454267502, -0.11013263463973999, 0.3979487717151642, -0.027696028351783752, 0.03455210104584694, -0.2583925426006317, -0.29221293330192566, -0.1258932501077652, -0.008628769777715206, -0.5425691604614258, -0.00018819414253812283, 0.06553124636411667, -0.048547353595495224, 0.698063313961029, 0.6139405965805054, -0.010935350321233273, 0.0027951335068792105, -0.06416142731904984, -0.19675801694393158, 0.0018443259177729487, -0.2767431437969208, 0.4769316017627716, -0.5625701546669006, 0.038794394582509995, -0.040237244218587875, 0.05260534957051277, -0.012658938765525818, -0.24895571172237396, 0.03229561820626259, -0.2827933132648468, -0.9958868622779846, 0.07756942510604858, 0.02459113486111164, -0.21287702023983002, 0.1421680599451065, 0.023949233815073967, 0.06893832236528397, 0.11933314800262451, 0.29135963320732117, 0.0786212608218193, -0.11383592337369919, -0.2521164119243622, -0.2210143357515335, 0.23903463780879974, -0.023392466828227043, -0.02765280194580555, -0.2587795555591583, 0.02880472131073475, -0.0033764417748898268, -0.12626264989376068, -0.5118984580039978, 0.2149191051721573, 0.013078154064714909, 0.39920708537101746, -0.15178059041500092, 0.07387953251600266, 0.07803791016340256, -0.08574080467224121, 0.009107961319386959, 0.16584385931491852, 0.05892175808548927, 0.20166699588298798, 0.0025881717447191477, 0.18987266719341278, -0.147636279463768, -0.4234226644039154, -0.710242748260498, -0.07274056226015091, 0.10537727922201157, -0.4137935936450958, 0.4902878999710083, 0.02196374349296093, 0.04027703031897545, 0.2465210109949112, 0.9734382033348083, 0.07418357580900192, -0.026127545163035393, -0.43458476662635803, -0.14352558553218842, 0.025501957163214684, 0.14292024075984955, 0.46668246388435364, 0.8591079115867615, 0.005751143675297499, -0.06848417967557907, -0.5295218229293823, 0.08038240671157837, 0.1457158476114273, 0.0488511361181736, -0.26038214564323425, 0.43810078501701355, -0.13116014003753662, -0.08383785933256149, 0.25292232632637024, -0.019980909302830696, 0.041793342679739, -0.18902064859867096, 0.3669605553150177, 0.007186427246779203, 0.11738253384828568, 0.2331090122461319, -0.22714827954769135, 0.5512519478797913, 0.042251020669937134, 0.03255227208137512, -0.4883127510547638, 0.06833518296480179, -0.007353015709668398, -0.20101173222064972, -0.6944098472595215, -0.5066742300987244, -0.5910645723342896, -0.361113041639328, 0.8604956269264221, -1.5813716650009155, 0.3369324207305908, 0.3416600227355957, -0.3860832154750824, -0.765446126461029, 0.4422183036804199, 0.07179272919893265, -0.31148889660835266, 0.10109841078519821, -0.11434613913297653, 0.2738786041736603, -0.06539697200059891, 0.052291661500930786, 0.12989209592342377, -0.17173172533512115, 0.07854925841093063, 0.03172456845641136, 0.011404282413423061, -0.34484145045280457, -0.576880931854248, -0.10396326333284378, -0.18508093059062958, -0.28285929560661316, 0.5416149497032166, -0.09502487629652023, -0.0022490175906568766, 0.14695881307125092, 0.13128291070461273, 0.024535568431019783, 0.025619754567742348, -0.01558257732540369, 0.30564144253730774, -0.018111959099769592, -0.00580888194963336, -0.21460272371768951, 0.05547529086470604, 0.033723775297403336, -0.03382909670472145, 0.21461455523967743, -0.2972566783428192, 0.09516938775777817, 0.05482655391097069, -0.2611639201641083, -0.14220654964447021, -0.03128954395651817, -0.15049730241298676, 0.1378626972436905, -0.32444238662719727, -0.03248482570052147, 0.053558822721242905, -1.1538865566253662, -0.29441824555397034, -9.959714225260541e-05, -0.08681868761777878, 0.5475606322288513, 0.375370591878891, 0.12671734392642975, -0.024289162829518318, -0.4060641825199127, 0.7890090346336365, 0.028790267184376717, -0.04420090094208717, -0.1316441148519516, -0.13411663472652435, 0.03379678726196289, -0.005696653854101896, -0.49792972207069397, 0.6314064264297485, 0.057551149278879166, 0.10783100873231888, 0.6353355050086975, 1.0213431119918823, 0.04001602903008461, 0.07543105632066727, 0.3663170039653778, -0.8959690928459167, -0.02924594096839428, 0.15994931757450104, 0.6225376725196838, 0.46518847346305847, -0.0002555257815402001, 0.09751098603010178, 0.17791412770748138, -0.1773519366979599, -0.06173044070601463, 0.07011746615171432, -0.09814531356096268, 0.6054831147193909, -0.00048039478133432567, -0.14009393751621246, -0.01716114766895771, -0.5335578322410583, 0.04162197932600975, -0.11952947825193405, -0.05180267617106438, 0.25634241104125977, 0.0075291176326572895, 0.005833353381603956, 0.23021914064884186, 0.21635128557682037, 0.2868005931377411, 0.06564449518918991, 0.022082475945353508, -0.34151220321655273, -0.02488643117249012, 0.16785943508148193, 0.1294545978307724, -0.7687291502952576, 0.06680161505937576, 0.01275815162807703, 0.42244771122932434, 1.2381030321121216, 0.13042034208774567, -0.053687866777181625, -0.005036711227148771, 0.07727139443159103, 0.2563786208629608, 0.18086431920528412, -0.07290368527173996, -0.3620185852050781, -0.1414724737405777, 0.10717908293008804, 0.19426441192626953, 0.12142753601074219, 0.0940927192568779, -0.12212801724672318, -0.07317817956209183, -0.5007218718528748, 0.0028931573033332825, 0.051965147256851196, 0.3679502010345459, 0.7856512665748596, 0.15414024889469147, -0.0033620300237089396, 0.15489064157009125, 0.09851109236478806, 0.04925733432173729, -0.04931694641709328, 0.6794063448905945, -0.022327737882733345, 0.024594007059931755, -0.011681373231112957, -1.2387837171554565, 0.2804882824420929, -0.2110907882452011, 0.06897812336683273, -0.470946341753006, 0.23705051839351654, 0.06002914533019066, 0.29469868540763855, 0.43790438771247864, 0.28234049677848816, 0.18297125399112701, 0.025398990139365196, 0.01361500471830368, -0.1617036908864975, -0.03859600052237511, 0.048939112573862076, 0.23432588577270508, 0.8261216282844543, -0.06751071661710739, 0.003717307234182954, -0.8238278031349182, 0.18823109567165375, 0.08056246489286423, -0.17128418385982513, -0.4760594069957733, -0.38477054238319397, 0.08766097575426102, -0.1374209225177765, 0.5691232085227966, -0.4961228668689728, 1.148654818534851, 0.04170539602637291, -0.3059728741645813, -0.03357252851128578, 0.971014678478241, 0.26247265934944153, 0.04192149639129639, 0.23847006261348724, 0.07899213582277298, 0.3294239342212677, -0.08815903216600418, 0.027218608185648918, -0.03862473741173744, 0.35297343134880066, 0.15317346155643463, -0.01799430139362812, 0.10088467597961426, -0.011377216316759586, -0.03181815519928932, 0.10217491537332535, -0.04465574398636818, -0.18926630914211273, 0.05649751052260399, -0.14530672132968903, 0.022741777822375298, 0.14025260508060455, 0.061027709394693375, 0.2510094940662384, 0.1673063188791275, -0.3364720046520233, 0.9987773299217224, 0.04843779280781746, 0.09462123364210129, -0.15718688070774078, 0.03884810581803322, -0.11701082438230515, 0.005437477957457304, 0.2356410026550293, 0.6133283972740173, 0.15433646738529205, 0.12762142717838287, -0.42638257145881653, 0.4788341224193573, -0.003796894336119294, 0.21085809171199799, -0.10218282788991928, -0.5994495153427124, -0.05153181031346321, -0.07660459727048874, -0.05548073723912239, 1.0818583965301514, 0.06316208094358444, -0.07017987221479416, -0.4341942369937897, 0.6082854270935059, -0.09237097948789597, 0.14676333963871002, -0.0686199739575386, 0.4703269302845001, -0.08325476199388504, -0.10660063475370407, -0.04507651925086975, -0.15350164473056793, 0.1489896923303604, 0.0054522608406841755, -0.7377622723579407, -0.7965729832649231, 0.004377502482384443, 0.02644619159400463, 1.0928831100463867, 0.350758820772171, -0.10039293020963669, -0.09961050003767014, 0.4844999611377716, 0.8656685948371887, -0.14162693917751312, 0.02358326129615307, 0.02159532718360424, -0.11970209330320358, -0.18534350395202637, -0.07606232911348343, 0.09669853001832962, -0.19307075440883636, -0.09112066775560379, -0.05325790122151375, -0.1999424248933792, 0.2306346744298935, 0.02115003578364849, 0.01716543547809124, 0.018495546653866768, 0.4378258287906647, 0.09807205945253372, -0.008133546449244022, 0.1462474912405014, -0.6323127746582031, 0.1283782571554184, 0.09079336374998093, -0.054639462381601334, 0.1478872150182724, 0.07981806248426437, -0.12073075026273727, -0.09255517274141312, 0.7464713454246521, 0.10773062705993652, 0.047850463539361954, -0.23228217661380768, -0.8751131892204285, 0.21206976473331451, -0.04706484451889992, -0.2663784325122833, 0.1404724270105362, 0.15703262388706207, -0.04393082484602928, -0.1584397703409195, -0.07242333889007568, 0.05341922864317894, -0.058845218271017075, 0.04241887107491493, 0.9903145432472229, -0.02181863971054554, 0.005281559657305479, -0.11924540996551514, -0.6921029686927795, 0.02658560685813427, 0.06821364909410477, -0.5041959881782532, -0.4758725166320801, -0.11915696412324905, 0.046366747468709946, 0.021752474829554558, 0.4503125846385956, 0.1575697511434555, 0.0795174241065979, -0.18909882009029388, 0.9576645493507385, 0.09664302319288254, -0.09542196244001389, 0.08666033297777176, 0.42431357502937317, 0.03991958498954773, -0.02523786760866642, 0.16657808423042297, -0.8511683344841003, -0.038376059383153915, -0.21802090108394623, 0.6157699823379517, 0.5062974691390991, 0.27338191866874695, 0.20439814031124115, 0.34798333048820496, -0.3190257251262665, 0.06935333460569382, 0.03471100330352783, 0.0907323881983757, -0.3513686954975128, -0.06779998540878296, 0.05169033631682396, 0.05369468405842781, 0.352660208940506, 0.101634182035923, -0.0799633264541626, -0.3697613775730133, -0.049856480211019516, -0.07316052168607712, 0.3188032805919647, -0.5375869870185852, -0.655546247959137, 0.4203818738460541, -0.8576860427856445, -0.5453981161117554, -0.6838672757148743, -1.0520334243774414, -0.13228973746299744, 0.06815726310014725, 0.09366780519485474, 0.3839510381221771, 0.37394046783447266, -0.05599331483244896, 0.23772738873958588, -0.12353945523500443, -0.37410762906074524, 0.17212893068790436, 0.04074486717581749, 0.11883354932069778, 0.08848916739225388, -0.5354610085487366, 0.13055191934108734, -0.13183675706386566, 0.2099371701478958, -0.14141212403774261, 0.1597437709569931, -0.017769696190953255, -0.4017525017261505, -0.09044008702039719, 0.13216732442378998, 0.1272873729467392, 0.14202392101287842, -0.29784324765205383, -0.18064294755458832, 0.021493880078196526, -0.5070429444313049, -0.80171138048172, 0.132301464676857, -0.12140869349241257, 0.16260375082492828, 0.6010599732398987, 0.06320380419492722, -0.10912171751260757, -0.19133366644382477, 0.5217079520225525, -0.056990381330251694, -0.06513256579637527, 0.11006835848093033, 0.26621201634407043, -0.05086866021156311, 0.07801581174135208, -0.8776507377624512, -0.22877050936222076, -0.05520438775420189, 0.08513761311769485, 0.3650088608264923, 0.3416624367237091, -0.04213178530335426, 0.09220438450574875, 0.710396945476532, -0.45394328236579895, -0.08594263345003128, 0.1434265524148941, -0.21234942972660065, 0.42712923884391785, -0.03321847319602966, -0.009933934547007084, 0.11453152447938919, 0.007326416205614805, -0.02452648989856243, -0.09024465084075928, -0.18484731018543243, 0.45597586035728455, -0.09730357676744461, 0.05162521079182625, -0.1986001580953598, 0.23145054280757904, -0.13209950923919678, -0.008092680014669895, -0.4457767903804779, 0.3234257400035858, -0.03194436803460121, 0.08474140614271164, 0.20652008056640625, -0.31737616658210754, 0.09961215406656265, -0.14620639383792877, -0.2056817263364792, 0.016094805672764778, -0.1113523319363594, -0.059309061616659164, 0.17915163934230804, 0.34546539187431335, -0.07523954659700394, -0.29023268818855286, -0.18631266057491302, -0.21533608436584473, 0.03291260823607445, 0.06333572417497635, 0.24686382710933685, -0.4405323565006256, -0.19214795529842377, -0.07765907794237137, -0.22760368883609772, 0.35644862055778503, -0.2627313435077667, -0.10260952264070511, -0.09909253567457199, -0.2886963188648224, -0.07715631276369095, -0.11767793446779251, 0.055112238973379135, 0.32059141993522644, 0.11486803740262985, 0.012254633940756321, 0.3322295844554901, 1.0666130781173706, 0.02947053499519825, 0.10706628113985062, -0.03352254256606102, 0.0012125737266615033, 0.0929654911160469, -0.15856552124023438, 0.13505256175994873, -0.04674876108765602, -0.1113966777920723, -0.06344563513994217, 0.05535312369465828, -0.43968674540519714, 0.01104258093982935, 0.0422661267220974, -0.36132290959358215, 0.17278458178043365, 0.10812555998563766, 0.05937778577208519, -0.12174772471189499, -0.6147045493125916, 0.18723440170288086, 0.08749890327453613, 0.2991977035999298, 0.48536208271980286, -0.018095849081873894, 0.09169822931289673, -0.6242737174034119, -0.7443952560424805, -0.06743574887514114, -0.2058052271604538, 0.012363065965473652, -0.22411847114562988, 0.14378751814365387, 0.01600066013634205, 0.6600523591041565, -0.29906412959098816, -0.09515810757875443, 0.02833854965865612, -0.44756510853767395, -0.29470542073249817, 0.0010667442111298442, 0.002066641813144088, -0.23839546740055084, 0.5824536681175232, -0.03026142530143261, 0.05370914936065674, -0.03413113206624985, -0.9464035630226135, -0.039936456829309464, -0.016497818753123283, 0.3970286548137665, -0.18093551695346832, 0.049358759075403214, -0.21388490498065948, -0.45623621344566345, -1.040108561515808, 0.4149318039417267, -0.7555809020996094, -1.2208549976348877, -2.0023996829986572, -0.457210510969162, 0.10837721824645996, -0.49741700291633606, 0.03255166858434677, -0.4697933495044708, 0.08748567849397659, 0.15358078479766846, -0.03128707781434059, -0.11354685574769974, -0.17933034896850586, 0.5447340607643127, -0.08779554814100266, 0.1051475927233696, -0.019070880487561226, -0.25687888264656067, 0.08501368761062622, 0.03231719136238098, 0.04306092858314514, 0.45063403248786926, 0.15914680063724518, 0.031556665897369385, 0.057333942502737045, 0.012269794009625912, -0.15913043916225433, -0.09502028673887253, 0.08448141813278198, 0.17327366769313812, -0.0733562633395195, 0.15465031564235687, 0.12523557245731354, 0.8413801789283752, -0.08799148350954056, 0.02706420235335827, 0.13911008834838867, 0.03812927380204201, 0.027536271139979362, 0.08451550453901291, -0.20949386060237885, 0.3221850097179413, -0.008912318386137486, 0.07469934970140457, -0.09105106443166733, 0.07179009914398193, 0.17041446268558502, 0.21020247042179108, 0.427783340215683, 0.3281424343585968, 0.2503909766674042, -0.23625420033931732, -0.3004491925239563, -0.5113267302513123, -0.048575010150671005, 0.06561815738677979, -0.1760910600423813, 0.2568034827709198, 0.033235494047403336, -0.12301374226808548, -0.12606488168239594, -0.29778578877449036, -0.006181090604513884, 0.206040620803833, -0.4474749267101288, -0.22617433965206146, -0.0574420727789402, -0.07536352425813675, -0.35554906725883484, -0.0995268002152443, -0.06837005168199539, 0.022848250344395638, 0.2908274531364441, -0.9863803386688232, -0.06276588886976242, -0.2983853816986084, 0.31708258390426636, -0.39576420187950134, 0.0950927808880806, 0.008427694439888, -0.03563066944479942, 0.20968009531497955, 0.0732852891087532, -0.17719782888889313, -0.49704596400260925, 0.473178893327713, -0.10160215944051743, 0.09096217900514603, -0.017215358093380928, 0.12718750536441803, 0.0346406064927578, -0.044165343046188354, 0.01822790689766407, 0.8690999150276184, -0.04750284180045128, 0.03621253743767738, 0.0655708983540535, -0.06024957075715065, 0.21334631741046906, -0.038361553102731705, 0.18320442736148834, -0.37108179926872253, 0.10869427770376205, -0.0891273096203804, 0.15453316271305084, -0.5148424506187439, 0.024957625195384026, -0.010594382882118225, -0.13560880720615387, 0.43772903084754944, -0.02493208460509777, 0.06541908532381058, 0.03452810272574425, 0.5749230980873108, 0.07877176254987717, 0.20807479321956635, -0.18759416043758392, -0.5085472464561462, 0.06081831082701683, 0.07713402062654495, -0.10034943372011185, -0.07669996470212936, -0.28232792019844055, 0.13542760908603668, -0.27167895436286926, -0.47347643971443176, 0.03772497549653053, 0.026304611936211586, 0.1111907884478569, 0.5719064474105835, -0.11967825144529343, -0.07966471463441849, 0.08691907674074173, -0.7180095314979553, 0.05064771696925163, -0.23225022852420807, 0.17395971715450287, 0.8014755249023438, -0.08069873601198196, -0.05351191386580467, 0.4092439115047455, -0.4915204346179962, 0.11114215105772018, 0.10525988787412643, 0.2501182556152344, 0.002807580167427659, -0.0064342389814555645, -0.0403098426759243, -0.2747557461261749, -0.642511785030365, -0.09822356700897217, -0.009877189062535763, 0.03109157271683216, 0.43367859721183777, -0.033043503761291504, 0.06119370460510254, 0.2590618431568146, -0.08440376073122025, -0.1005488708615303, -0.020217599347233772, 0.9048907160758972, 1.86007559299469, 0.023366006091237068, -0.049054596573114395, -0.045766111463308334, -0.11421307921409607, 0.11418067663908005, -0.08745444566011429, -0.5476288199424744, -0.3747158944606781, -0.5279265642166138, -0.38796165585517883, 0.9586934447288513, -0.7263975739479065, 1.2888100147247314, 0.5246740579605103, 0.24983000755310059, -0.6645725965499878, -0.16380281746387482, 0.2856747806072235, 0.3757689297199249, -0.01655401475727558, 0.0687880590558052, -0.5209917426109314, -0.5863260626792908, -0.05728084221482277, 0.20257647335529327, -0.2856764495372772, 0.35750654339790344, 0.1866360753774643, 0.13588847219944, -0.2597978413105011, 0.44371604919433594, -0.03352991119027138, -0.08762902021408081, 0.11250638216733932, -0.45908161997795105, 0.011611958034336567, -0.15748097002506256, 0.38770177960395813, 0.33073854446411133, 0.125585675239563, -0.1215050145983696, -0.2986571490764618, 0.3210935890674591, 0.06538326293230057, -0.09518206864595413, 0.22945617139339447, -0.5283351540565491, 0.007803559768944979, 0.04590054973959923, -0.08672178536653519, -8.749635890126228e-05, -0.03646046295762062, -0.13283586502075195, 0.25750139355659485, 0.5743312239646912, 0.08839870244264603, 0.12994123995304108, 0.7120357155799866, -0.21546126902103424, -0.089096300303936, 0.1049070730805397, 0.06277315318584442, -0.20715363323688507, 0.13161420822143555, 0.10782340914011002, 0.4356985092163086, 0.4091661870479584, -0.0008423793478868902, -0.049581024795770645, -0.027815043926239014, -0.173957958817482, -0.06026274338364601, -0.11623167246580124, -0.054226238280534744, 0.28418752551078796, 0.11144315451383591, 0.0068287900649011135, -0.8421030640602112, -0.3775123655796051, 0.0723024532198906, 0.09287179261445999, -0.4962245225906372, -0.3372560441493988, 0.02833920530974865, 0.014671743847429752, -0.05574868619441986, 0.27389955520629883, 0.3334079086780548, -0.07933639734983444, 0.011647664941847324, 0.227752223610878, 0.08282125741243362, 0.07743441313505173, 0.1663431078195572, 0.07110459357500076, 0.13674722611904144, 0.03753938898444176, 0.14154981076717377, 0.6602897047996521, -0.11156965047121048, -0.024697421118617058, -0.48540833592414856, 0.06430702656507492, 0.002063745865598321, 0.03007620759308338, 0.3890978991985321, -0.5106835961341858, -0.03797030821442604, -0.02021115832030773, -0.11335302144289017, 0.4780091941356659, -0.04647285118699074, 0.08372677117586136, 0.1260814517736435, -0.103905089199543, 0.11355113238096237, -0.06456292420625687, -0.12844215333461761, 1.054967999458313, 0.039447370916604996, 0.03560701385140419, 0.030295727774500847, -0.41828158497810364, 0.11098384112119675, 0.10263482481241226, 0.17830681800842285, 0.22050736844539642, 0.041070494800806046, -0.049406085163354874, -0.11302613466978073, 0.15228475630283356, -0.11023639887571335, -0.006150730419903994, -0.17826353013515472, -0.9599934220314026, -0.02967241406440735, 0.025301149114966393, -0.43357738852500916, 0.17466558516025543, -0.0682746097445488, 0.16545069217681885, 0.21739275753498077, 0.18347382545471191, 0.12057553976774216, 0.18705247342586517, -0.2209687978029251, 0.4541473686695099, -0.10518062859773636, -0.06473363190889359, 0.6118116974830627, 0.3757024109363556, -0.043662454932928085, -0.04510003700852394, -0.6279954314231873, -0.050628166645765305, -0.1320282369852066, -0.0007934178574942052, -0.4132173955440521, -0.9209908843040466, -0.1658148616552353, 0.11865437775850296, -0.22884751856327057, -0.5854958891868591, 0.10485338419675827, 0.010311164893209934, 0.22908402979373932, -0.07393664866685867, 0.05436853691935539, 0.14909718930721283, -0.18205972015857697, 0.4582149088382721, 0.012397444806993008, -0.060675498098134995, -0.028610000386834145, -0.8640782237052917, 0.0663074180483818, -0.11495662480592728, -0.270307332277298, -0.5195065140724182, -0.08453906327486038, -0.694696843624115, 0.6572588086128235, 0.35214510560035706, 0.2182420939207077, 0.15932796895503998, -0.43663153052330017, -0.008532924577593803, 0.37407228350639343, 0.13642333447933197, 0.1689053773880005, -0.056957781314849854, -0.06370795518159866, -0.1373526006937027, 0.5859127044677734, -0.11291860789060593, -0.21288514137268066, -0.247434601187706, -0.12796400487422943, 0.072613425552845, 0.1151200607419014, 0.09833348542451859, 0.043334994465112686, 0.06819117814302444, -0.19911478459835052, -0.0015590706607326865, 0.029199572280049324, -0.1278640180826187, 0.008792468346655369, 0.10820972174406052, 0.12390076369047165, -0.02769160084426403, -0.07097966223955154, 0.186400905251503, 0.2920127213001251, 0.0677538588643074, 0.10419202595949173, -0.1464221477508545, -0.18196584284305573, -0.017537591978907585, -0.013760827481746674, -0.173677459359169, -0.7669476866722107, -0.047787804156541824, 0.03327500447630882, -0.1378983110189438, -0.5641880035400391, -0.04619329795241356, -0.24422408640384674, -0.6078840494155884, -0.47305014729499817, -0.03485563024878502, 0.14557494223117828, 0.3643498718738556, 0.6576747298240662, 0.02632713131606579, -0.010572166182100773, -0.44716009497642517, 0.36164066195487976, -0.048427168279886246, 0.03258198872208595, -0.12818406522274017, 0.38422369956970215, 0.005789249669760466, 0.08136140555143356, -0.08027219772338867, -0.23171423375606537, -0.04903140291571617, -0.10715087503194809, -0.07842499017715454, -0.2946039140224457, 0.001334129017777741, 0.02756032533943653, 0.3544377386569977, -0.008822527714073658, -0.024114428088068962, -0.1004636362195015, -1.0628527402877808, 0.10098493844270706, -0.007507071364670992, 0.022970983758568764, -0.29080629348754883, 0.23641633987426758, -0.029820648953318596, 0.08418024331331253, 0.08803457021713257, 0.6875420212745667, 0.1137768104672432, -0.09360747784376144, 0.21765105426311493, 0.1736478954553604, 0.04217860475182533, 0.11563634127378464, 0.021217582747340202, -0.43325677514076233, -0.06928456574678421, 0.11197365075349808, 0.17840814590454102, -0.09183920174837112, -0.09389639645814896, 0.2741806209087372, 0.15145181119441986, 0.7120346426963806, -0.13295377790927887, -0.19033409655094147, -0.2921924889087677, -0.05356371030211449, -0.13383030891418457, 0.027424754574894905, 0.09348643571138382, -0.0688394233584404, -0.038052741438150406, 0.057351235300302505, 0.1818474978208542, -1.4307290315628052, -0.14386294782161713, -0.13480843603610992, 0.17595495283603668, 0.559478223323822, 0.14140711724758148, -0.0832054540514946, 0.06249731406569481, -0.6608642935752869, -0.09562861919403076, 0.08757496625185013, 0.23795460164546967, -0.26079222559928894, -0.014529288746416569, 0.04760923609137535, -0.3419437110424042, 0.07169168442487717, -0.0034432969987392426, 0.24030660092830658, 0.47843363881111145, 1.0174835920333862, 0.09889931231737137, 0.11031508445739746, 0.35886648297309875, 0.5034851431846619, -0.026639608666300774, 0.0041433838196098804, -0.6862836480140686, 1.2890946865081787, 0.07804679125547409, -0.10957115888595581, -0.11497440934181213, 0.7101345062255859, -0.06813163310289383, 0.08467482775449753, 0.4918513596057892, 0.1841707080602646, 0.1276250034570694, -0.15265081822872162, 0.12969137728214264, -0.09471893310546875, -0.14090074598789215, -0.09491444379091263, -0.08127302676439285, 0.3160131275653839, -0.09045767039060593, 0.05151839926838875, 0.11746691912412643, 0.3193165957927704, 0.1276472955942154, -0.18289469182491302, 0.4262925684452057, 0.00711599038913846, 0.18637968599796295, 0.0964127704501152, -0.5546932816505432, -0.3765077292919159, -0.8932885527610779, -0.3970244228839874, 0.5019840598106384, -1.9525285959243774, -0.06824148446321487, -0.7591506838798523, -0.21146385371685028, -0.05244038626551628, 0.810558021068573, 0.2585294246673584, -0.23068834841251373, 0.11224018782377243, -0.045527245849370956, 0.38557305932044983, 0.20066988468170166, -0.04672152176499367, 0.013209833763539791, 0.06314689666032791, 0.07949315756559372, -0.12228120118379593, -0.012089633382856846, -0.12559081614017487, -0.647249162197113, 0.07346869260072708, 0.057040985673666, -0.07994996756315231, 0.16990624368190765, 0.0009521450265310705, 0.1829683631658554, 0.21928288042545319, -0.46148255467414856, -0.11200297623872757, -0.03970574960112572, -0.057463642209768295, 0.006895144935697317, 0.22874762117862701, 0.15102051198482513, 0.1622748225927353, -0.1602935642004013, -0.03713017329573631, 0.14060138165950775, 0.059877749532461166, 0.5209885239601135, 0.03805283084511757, -0.030330775305628777, 0.24863670766353607, 0.4811396300792694, -0.03009730577468872, 0.003586198901757598, -0.379909485578537, -0.8606640696525574, 0.02925744839012623, 0.03465044125914574, 0.08241420984268188, -0.8408110737800598, 0.07033521682024002, -0.09210372716188431, -0.11207655817270279, -0.7043624520301819, -0.09424955397844315, 0.029398052021861076, -0.2387680858373642, -0.48739245533943176, -0.03279978409409523, -0.08305644243955612, -0.14412449300289154, -0.11932159215211868, -0.013878137804567814, -0.011056937277317047, -0.7087505459785461, -0.2971075177192688, 0.15072844922542572, 0.009312705136835575, 0.1255800724029541, -0.06541454046964645, 0.03281698003411293, -0.009188971482217312, 0.019811483100056648, -0.3757067024707794, 0.0739871934056282, 0.18645308911800385, 0.24788500368595123, -0.03966289386153221, 0.06526381522417068, 0.07531685382127762, 0.18024469912052155, 0.511067807674408, 0.08537774533033371, 0.15648424625396729, 0.005559246521443129, -0.37668994069099426, -0.12674139440059662, 0.09484847635030746, -0.022375313565135002, -0.0017748101381585002, -0.14670990407466888, 0.0146053871139884, 0.24155783653259277, -0.42522624135017395, 0.03857806697487831, -0.11719786375761032, -0.1478106826543808, 0.09808994084596634, 0.07215548306703568, 0.22325825691223145, 0.3296647071838379, 0.7481679916381836, 0.023095866665244102, 0.09579776972532272, -0.24144910275936127, -0.4642315208911896, -0.12109886854887009, 0.23287321627140045, -0.2894480526447296, -0.7533813118934631, -0.015112563967704773, -0.059243444353342056, -0.14458142220973969, -0.25413963198661804, -0.12255323678255081, -0.03950792923569679, -0.22162573039531708, -0.00917860772460699, 0.03404238820075989, 0.2565977871417999, 0.2417595237493515, -0.48472121357917786, -0.009006799198687077, -0.09221255034208298, -0.8705866932868958, -0.4725032150745392, 0.026972314342856407, 0.019821597263216972, -0.20708441734313965, 0.1893608719110489, 0.00646200543269515, -0.039419565349817276, 0.2552051246166229, 0.11270713061094284, 0.09002924710512161, -0.031188340857625008, 0.3064470887184143, -0.13726772367954254, -0.023730816319584846, -0.07757186144590378, 0.0015879719285294414, 0.06595854461193085, 0.014957680366933346, -0.016536802053451538, 0.6970520615577698, 0.41698506474494934, -0.13570009171962738, -0.24420712888240814, -0.17754890024662018, 0.5419917106628418, -0.14999030530452728, -0.1773732751607895, 0.0709715485572815, -0.03204936161637306, -0.061062876135110855, -0.07613831013441086, -1.1217668056488037, -0.08007938414812088, -0.03558235988020897, 0.07360636442899704, 0.2588784992694855, 0.48876556754112244, 0.17566154897212982, 0.037897881120443344, -0.5805143117904663, -0.4176214635372162, 0.6720213890075684, -0.7687658667564392, -1.2876845598220825, -0.24274657666683197, -1.9496173858642578, -0.4233790934085846, -0.38873228430747986, 0.6257809996604919, -0.2546902596950531, 0.14991869032382965, 0.6880908608436584, -0.06310290843248367, 0.11489164084196091, 0.5003748536109924, -0.31241750717163086, -0.03297337517142296, 0.10344237089157104, 0.011496893130242825, 0.14615918695926666, 0.2065896838903427, 0.07287120074033737, -0.08862782269716263, 0.3488214313983917, 0.16705010831356049, 0.1277250051498413, -0.2006254941225052, -0.567164957523346, 0.05704211816191673, 0.04305049404501915, 0.1270536333322525, 0.24492360651493073, 0.15022657811641693, -0.007972165010869503, -0.1370871216058731, 0.37792256474494934, 0.0745706632733345, -0.04518160596489906, 0.3337607681751251, -0.16324388980865479, -0.020243898034095764, 0.005641691852360964, -0.33455154299736023, -0.46595481038093567, 0.07662630081176758, -0.13101540505886078, -0.12079858779907227, -0.26597192883491516, -0.17093156278133392, 0.08696287125349045, 0.1597050279378891, -0.48739704489707947, -0.03576204553246498, 0.08933799713850021, 0.31571242213249207, -0.265731543302536, 0.0652875229716301, 0.049885448068380356, 0.4988408088684082, -0.6082831025123596, 0.19962002336978912, 0.04274464026093483, 0.42483189702033997, -0.4574293792247772, -0.08434342592954636, 0.08316362649202347, 0.2484743595123291, -0.305023193359375, 0.04318222776055336, -0.017909614369273186, -0.677280604839325, 0.1519608050584793, 0.19592247903347015, 0.06974291056394577, 0.006614312529563904, 0.12360481172800064, -0.05383836850523949, -0.0735994502902031, -0.09577009826898575, 0.016019461676478386, -0.14277209341526031, 0.1775578409433365, -0.09952259808778763, -0.041193898767232895, -0.0879475548863411, 0.017490146681666374, -0.2948772609233856, -0.1646183580160141, -0.061615582555532455, -0.03456002101302147, 0.0140066584572196, -0.40306583046913147, -0.11932956427335739, -0.12021160870790482, -0.20423699915409088, -1.0859249830245972, -0.08613289147615433, 0.010205469094216824, 0.2828054130077362, 0.9785986542701721, -0.049531761556863785, -0.15465736389160156, 0.15590117871761322, 0.3282420337200165, 0.09899204969406128, -0.007372379768639803, -0.20151448249816895, -0.3229539394378662, -0.0629398301243782, -0.13774921000003815, 0.11408448964357376, 0.8073425889015198, 0.0472220815718174, 0.013661409728229046, 0.07142286747694016, 0.6990957856178284, -0.029405442997813225, -0.07183457165956497, 0.040902819484472275, -0.17915214598178864, -0.042831361293792725, -0.014295040629804134, -0.11669135093688965, 0.45682623982429504, 0.2447643131017685, 0.11855506151914597, -0.4446611702442169, 0.019272489473223686, -0.20618343353271484, -0.08474069833755493, -0.4477095305919647, -0.436799019575119, 0.12811292707920074, -0.25578734278678894, 0.3657250702381134, 0.12476371973752975, -0.04341703653335571, -0.13526104390621185, 0.505528450012207, 0.22654271125793457, 0.04789060726761818, -0.029561402276158333, 0.31211522221565247, 0.282627135515213, -0.038795050233602524, -0.2691197097301483, 0.7189745306968689, 0.7438954710960388, 0.11577450484037399, -0.06077199801802635, -0.12773039937019348, 0.016189681366086006, 0.06969380378723145, 0.005828395020216703, 0.2957174479961395, 0.26738837361335754, 0.06351233273744583, 0.039081037044525146, -0.04261988028883934, -0.25545409321784973, -0.14650402963161469, -0.1044764444231987, 0.8602845072746277, 0.2996477484703064, 0.08347047120332718, 0.09086810797452927, 0.06466411799192429, 0.8650490641593933, 0.23152853548526764, 0.03928050026297569, -0.7193041443824768, -0.8094657063484192, 0.38653549551963806, -0.5332769751548767, -0.3590700924396515, -1.8490198850631714, -0.48181864619255066, -0.2701720893383026, -0.1139272153377533, -0.3432862460613251, 0.4968167543411255, 0.3254949748516083, 0.5224785208702087, 0.07888228446245193, 0.10181289911270142, 0.24047113955020905, -0.4675145447254181, 0.021206675097346306, 0.12621845304965973, 0.031307730823755264, 0.09546896070241928, 0.055065471678972244, -0.01663150079548359, 0.5022764801979065, -0.6226950287818909, 0.19970154762268066, -0.022855250164866447, 0.16742254793643951, 0.2993175983428955, -0.20563532412052155, -0.2550843060016632, 0.4115942418575287, 0.2440209537744522, -0.08607184141874313, 0.10536742210388184, 0.19142238795757294, -0.16462336480617523, 0.052492912858724594, -0.05737125501036644, 0.05559742823243141, -0.4995269477367401, 0.09820573776960373, 0.08713681250810623, 0.12453257292509079, 1.136912226676941, 0.059659358114004135, 0.020630089566111565, 0.16468621790409088, -0.21512864530086517, -0.2464921623468399, -0.06476055830717087, -0.390199214220047, -0.14572976529598236, 0.043473366647958755, -0.06721346825361252, -0.06723461300134659, 1.006363034248352, 0.0033892940264195204, 0.1108386442065239, 0.1117519959807396, 0.2831556499004364, 0.03585213050246239, -0.22792457044124603, -0.2866852581501007, 0.04242745041847229, 0.1283876746892929, -0.13904143869876862, 0.22362948954105377, 0.3940463066101074, 0.001160964253358543, 9.984061034629121e-05, -0.6940174102783203, -0.28396958112716675, -0.1507568508386612, 0.047612667083740234, -0.6393595337867737, 0.6318250298500061, -0.09512209892272949, 0.14273642003536224, 0.38692507147789, 0.4743303954601288, -0.06260795146226883, 0.10481008142232895, -0.1640557199716568, -0.04770314693450928, -0.05451088771224022, 0.10896538943052292, 0.13219954073429108, 0.2640238106250763, -0.13224397599697113, -0.07608617097139359, 0.04542988911271095, -0.06903349608182907, 0.04663439467549324, 0.09156370908021927, -0.5477309823036194, 0.00831905659288168, 0.007376566994935274, 0.18004654347896576, 0.01855465956032276, -0.39245370030403137, -0.06582193821668625, -0.02217281050980091, -0.19694049656391144, -0.02716010995209217, 0.038971658796072006, 0.1161116436123848, 0.05072856321930885, -0.21257519721984863, -0.04701435565948486, -0.20509755611419678, -0.15161250531673431, -0.25292471051216125, -0.05065162852406502, -0.01195510569959879, 0.21952946484088898, -0.5326276421546936, 0.07400370389223099, -0.0920206680893898, -0.1465216726064682, -0.07597178965806961, -0.1514420360326767, 0.05496470257639885, -0.009617968462407589, 0.6605166792869568, 0.04986703768372536, -0.11003228276968002, 0.05048150196671486, 0.42947623133659363, -0.122917540371418, 0.02368880994617939, -0.4526146352291107, 0.4780101478099823, -0.16961060464382172, 0.03168633580207825, 0.18729160726070404, -0.20774079859256744, -0.0032116633374243975, -0.09083353728055954, 0.11743473261594772, 0.27074673771858215, 0.06213032826781273, 0.18108738958835602, 0.07142036408185959, 0.4076552093029022, -0.07641338557004929, -0.05549329146742821, -0.0809565931558609, -0.07668356597423553, 0.08343976736068726, 0.1273956447839737, 0.8024052977561951, 0.6951259970664978, -0.07188291102647781, -0.017541350796818733, 0.11616634577512741, -0.21091820299625397, 0.06486398726701736, 0.204876109957695, -0.05866605043411255, 0.42948058247566223, -0.09853614121675491, 0.02695918269455433, -0.3580295741558075, 0.10552500933408737, -0.01749691553413868, -0.06623513251543045, 0.56550133228302, 0.13399969041347504, -0.11311996728181839, 0.0416761077940464, -0.7572439312934875, -0.490050345659256, -0.39016154408454895, -0.6243337988853455, 0.23274260759353638, -1.0088186264038086, 0.36138105392456055, 0.3517865836620331, -0.9211136698722839, -0.17780520021915436, 0.028982013463974, 0.3638973534107208, -0.3980112373828888, 0.06081080809235573, 0.04719557240605354, 0.04221845045685768, -0.04214894399046898, -0.18643362820148468, -0.09832549095153809, -0.1793808937072754, -0.0002715110022109002, -0.09292542189359665, 0.15605996549129486, -0.14134548604488373, 0.5659261345863342, -0.037111345678567886, 0.04031467065215111, -0.09818006306886673, -0.5944199562072754, -0.07110976427793503, 0.14492309093475342, 0.21231721341609955, -0.4413873255252838, 0.2233884185552597, 0.11307906359434128, -0.16098381578922272, 0.3340449631214142, 0.06548602133989334, -0.060978714376688004, 0.13776077330112457, -0.018321825191378593, -0.11395562440156937, 0.07303845137357712, -0.20931126177310944, 0.20097780227661133, 0.06214332580566406, -0.2111235409975052, 0.19890069961547852, 0.2840276062488556, -0.036649733781814575, 0.02169165201485157, -0.062449440360069275, 0.3019430935382843, 0.02289530821144581, 0.10455333441495895, 0.383929580450058, -0.2079675942659378, -0.12287689000368118, 0.08151751011610031, -0.09686058759689331, 1.024407982826233, -0.024470744654536247, -0.025668034330010414, 0.001708962139673531, 0.11926614493131638, -0.2910754382610321, 0.20163726806640625, 0.11925304681062698, 0.009119569323956966, -0.05542566254734993, -0.09355286508798599, -0.6980966925621033, 0.41887855529785156, -0.13700102269649506, -0.07347852736711502, -0.9820012450218201, -0.19715721905231476, -0.10388016700744629, 0.01647154800593853, -0.7409899830818176, -0.7009730935096741, -0.03085234947502613, -0.08693455904722214, -0.06378894299268723, -0.1536722332239151, 0.044470544904470444, 0.014793128706514835, -0.6331924796104431, 0.025046976283192635, -0.1286264806985855, -0.035141680389642715, 0.07351536303758621, -0.6835132241249084, 0.11759579926729202, -0.10456172376871109, 0.14566265046596527, -0.12326788157224655, -0.11877346783876419, -0.0436643622815609, -0.016713516786694527, -0.29126641154289246, 0.12319790571928024, -0.02715611457824707, 0.5970640182495117, -0.8596639037132263, 0.04286515340209007, -0.008130387403070927, 0.2962837517261505, -0.2658837139606476, -0.032093703746795654, -0.044096413999795914, -0.09342194348573685, -0.9653453230857849, 0.07345831394195557, 0.04918361082673073, 0.12708590924739838, -0.09522449225187302, -0.08335231989622116, -0.01051719393581152, -0.2848222553730011, 0.7030125260353088, -0.07353656738996506, -0.027017923071980476, 0.011661947704851627, -0.22838543355464935, 0.16926588118076324, 0.019983844831585884, 0.2737438976764679, 0.6474700570106506, 0.09979700297117233, -0.19149555265903473, -1.0608739852905273, -0.3136463463306427, -0.10448388010263443, 0.17311178147792816, -0.06141066178679466, 0.21116940677165985, -0.03980189934372902, -0.1975870281457901, -0.11886251717805862, -0.18145738542079926, -0.12227488309144974, 0.09218019992113113, -0.3431537449359894, -0.19490672647953033, -0.014669566415250301, -0.03466230258345604, 0.38089826703071594, 0.31632113456726074, 0.07674854248762131, 0.1258111149072647, 0.05460887774825096, -1.3578168153762817, -0.019818244501948357, -0.004276714753359556, -0.042851176112890244, -0.3544180691242218, 0.08131664246320724, -0.061502281576395035, 0.2501787841320038, 0.4980611801147461, 0.1267550140619278, -0.11502670496702194, 0.45832446217536926, -0.2602848410606384, -0.004447270650416613, 0.13101933896541595, 0.5857638716697693, 0.5907454490661621, 0.05202299728989601, 0.261658638715744, -0.8163653016090393, -0.6328626275062561, -0.30666789412498474, -0.4242316782474518, 0.4500245749950409, -0.3028159737586975, -0.128509983420372, -1.057461142539978, 0.4733906090259552, 0.3715743124485016, -0.1662033647298813, 0.031070617958903313, -0.17386700212955475, 0.1039319634437561, -0.15743042528629303, 0.2364966720342636, -0.17240355908870697, -0.00923373457044363, -0.021301792934536934, -0.23781849443912506, -0.2827906906604767, -0.13843776285648346, -0.05381391569972038, 0.08481968194246292, 0.3638620674610138, 0.09447752684354782, -0.11190008372068405, 0.23276184499263763, 0.2532949149608612, -0.08363205939531326, 0.07142721861600876, 0.11703027039766312, 0.10927761346101761, 0.0702143982052803, -0.016696734353899956, -0.09922188520431519, -0.8860049247741699, -0.05822986736893654, -0.04976580664515495, 0.24463798105716705, -0.0831754207611084, 0.07301311939954758, 0.04472702369093895, 0.14071857929229736, -0.10593914240598679, 0.0021839626133441925, 0.03820130601525307, 0.06672442704439163, 0.5219407677650452, -0.16577112674713135, 0.09034764021635056, 0.05587417259812355, -0.7267079949378967, -0.07916759699583054, 0.18021346628665924, -0.22845958173274994, -0.7111557126045227, 0.1847863346338272, 0.035974714905023575, 0.16739284992218018, 0.10082853585481644, 0.11280561238527298, 0.020817024633288383, -0.028033344075083733, 0.4966030418872833, 0.013473914004862309, 0.22568915784358978, -0.3667302429676056, 0.06408948451280594, 0.10239104181528091, 0.023156819865107536, -0.7059168219566345, -0.5826383233070374, -0.027797279879450798, -0.015445648692548275, 0.8213061690330505, 1.1327656507492065, 0.18175791203975677, 0.1079154834151268, 0.26774245500564575, 0.3993690013885498, -0.12624822556972504, -0.07439875602722168, 0.17461897432804108, 0.14976607263088226, -0.09453904628753662, -0.07353269308805466, -0.2835642993450165, -0.006888126488775015, -0.08326613157987595, 0.1313072293996811, 0.05535102263092995, 0.7634655833244324, -0.02062751166522503, 0.06183946505188942, -0.10699504613876343, 0.6200746893882751, 0.1655748039484024, -0.11757909506559372, 0.18362568318843842, 0.21711347997188568, -0.06556499749422073, -0.08936022967100143, -0.16368772089481354, -0.410576194524765, 0.11423074454069138, -0.06162869557738304, -0.2343606799840927, -0.5695080161094666, 0.06075585260987282, -0.10843626409769058, -0.05938488617539406, 0.8341599106788635, 0.0548052154481411, -0.09570849686861038, -0.14470325410366058, -0.45760342478752136, -0.08132392913103104, -0.007951885461807251, 0.15609872341156006, -0.4938984215259552, -0.1981225162744522, 0.01828649453818798, -0.16859330236911774, 0.02015174739062786, 0.08341062813997269, 0.08623247593641281, -0.0482214130461216, -0.36317846179008484, 0.11896275728940964, 0.013059690594673157, -0.27502021193504333, -0.8546215891838074, -0.14142335951328278, -0.01519011054188013, 0.19384290277957916, -0.677238404750824, 0.11801575869321823, 0.058280762284994125, 0.2658223807811737, -0.6062455177307129, -0.019588841125369072, -0.12487030774354935, -0.09256938844919205, -0.21212323009967804, -0.014167682267725468, -0.12246561795473099, -0.4549403190612793, 0.03161441907286644, 0.08422673493623734, 0.274809867143631, 0.29375070333480835, 0.6215139031410217, -0.09236066788434982, -0.11552918702363968, -0.49584296345710754, -0.6345095038414001, 0.19909478724002838, -0.02121168188750744, 0.33308717608451843, 0.018896786496043205, -0.06915230304002762, 0.015185012482106686, -0.14907799661159515, 0.00708007114008069, 0.12900005280971527, -0.043350253254175186, -0.18909232318401337, -0.59062659740448, 0.005359590519219637, 0.0796828344464302, -0.5070045590400696, -0.397815465927124, -0.5762935876846313, -0.3633229434490204, 1.0802937746047974, -1.1536405086517334, 1.643527865409851, 0.3591787815093994, -0.2921951413154602, -0.19080232083797455, 0.05308033898472786, 0.2617146968841553, 0.31626084446907043, 0.059558507055044174, -0.22747109830379486, -0.3720633089542389, -0.10178423672914505, -0.0257358830422163, 0.015221030451357365, -0.09915626049041748, -0.2590360939502716, 0.04619216546416283, 0.003203421598300338, 0.39340445399284363, -0.20992954075336456, 0.08581029623746872, 0.05142610892653465, -0.08076895028352737, 0.43707892298698425, -0.006907493341714144, -0.16489805281162262, 0.11199723929166794, -0.16257382929325104, 0.021934164687991142, -0.01062211487442255, -0.22896815836429596, 0.6005749106407166, 0.19065354764461517, 0.06282644718885422, 0.016512004658579826, 0.5499266982078552, -0.24729777872562408, -0.03293854370713234, -0.19100366532802582, -0.4884825050830841, -0.06546907871961594, -0.00854631420224905, -0.24305033683776855, -0.004855681676417589, -0.038958851248025894, 0.15875361859798431, 0.41131100058555603, 0.3138945400714874, 0.2840001881122589, -0.057778239250183105, -0.5615348219871521, -1.097097396850586, 0.1320200115442276, 0.09789079427719116, -0.7012519240379333, 0.13056565821170807, 0.05277416110038757, -0.08560710400342941, 0.0568854846060276, 0.3329611122608185, 0.047465983778238297, -0.06037021055817604, -0.14767812192440033, -0.32181838154792786, -0.0014610652578994632, -0.03390437737107277, -0.8377024531364441, 0.13995859026908875, -0.027266057208180428, -0.0828639343380928, 0.5339196920394897, 1.2425460815429688, 0.12484525889158249, -0.03622424229979515, -0.5657892823219299, -0.14243127405643463, 0.036440785974264145, 0.08538740873336792, 0.049701809883117676, 0.07878399640321732, -0.08956121653318405, -0.07131970673799515, 0.06629305332899094, -0.17228983342647552, -0.088180311024189, 0.06404650956392288, 0.11636985093355179, 0.028893860056996346, -0.011833623051643372, 0.03115600161254406, -0.50592041015625, 0.030439557507634163, 0.1615598201751709, -0.01727384142577648, 0.30567291378974915, 0.5240148901939392, -0.12173258513212204, 0.2506740391254425, -0.05108791962265968, 0.02758476324379444, 0.11658228188753128, 0.13100551068782806, 0.23907063901424408, 0.26694342494010925, -0.06153344735503197, 0.0564153827726841, -0.0003036732960026711, -0.6339083313941956, -0.046450261026620865, 0.12720586359500885, -0.18280552327632904, 0.6960654854774475, 0.1469949334859848, -0.07394140213727951, 0.3585794270038605, 0.5849824547767639, -0.05093694105744362, -0.01006572786718607, -0.3982105255126953, -0.07880973815917969, 0.012538800947368145, 0.10571825504302979, 0.3795047104358673, 0.7115110754966736, 0.10930842161178589, -0.05397401377558708, -0.7276518940925598, -0.5875176787376404, 0.04555201902985573, -0.05434548854827881, 0.21632052958011627, -0.10894163697957993, -0.1008320227265358, 0.09975243359804153, 0.15297912061214447, -0.1777772754430771, 0.03840133175253868, 0.11219704896211624, -0.26755595207214355, 0.16938309371471405, -0.028948547318577766, -0.044357750564813614, -0.05410367622971535, 0.260105162858963, 0.03740603104233742, -0.06393551826477051, 0.2435818463563919, -1.341628909111023, 0.10298358649015427, -0.07392258197069168, 0.1841738373041153, 0.232694610953331, -0.10834089666604996, 0.10723782330751419, 0.3769473731517792, -0.11073756963014603, -0.04359087347984314, -0.11744462698698044, -0.11843407899141312, -0.9189577698707581, 0.07249975204467773, -0.1863023042678833, 0.5468732714653015, 0.40274444222450256, -0.31656602025032043, -0.059924546629190445, -0.18318819999694824, -0.30137988924980164, -0.1583685427904129, -0.4302639961242676, 0.08411228656768799, -0.49914488196372986, -0.4353419840335846, 0.07537072151899338, 0.4481829106807709, 0.128177672624588, -0.6258705258369446, -0.007002099882811308, 0.14514125883579254, -0.10207551717758179, -0.017039569094777107, 0.2063121646642685, -0.6196289658546448, -0.05865245684981346, 0.22474098205566406, 0.11527539044618607, 0.15629075467586517, -0.05556594952940941, 0.022931186482310295, -0.06603913754224777, -0.641079843044281, -0.012649030424654484, 0.15836773812770844, -0.09764992445707321, -0.11980284005403519, -0.07762222737073898, -0.2553658187389374, 0.003987931180745363, -0.08407146483659744, 0.0747460201382637, 0.04726242646574974, -0.39908936619758606, -0.5025033354759216, 0.011271030642092228, 0.028123078867793083, -0.1431884914636612, -0.567716658115387, 0.08601700514554977, 0.05095783993601799, -0.07426315546035767, 0.20306284725666046, 0.09997505694627762, -0.12169455736875534, -0.4967169761657715, -0.17049263417720795, -0.1234823539853096, 0.0046819341368973255, 0.2618372142314911, 0.7095348238945007, 0.050597187131643295, -0.0033008356112986803, -0.07290404289960861, -0.22460363805294037, -0.04913092032074928, -0.2052648812532425, -0.05250580981373787, -0.18776793777942657, 0.1204834058880806, 0.030638454481959343, -0.38966748118400574, 0.36040210723876953, -0.05651700124144554, 0.06359624117612839, 0.047352466732263565, -0.008327932097017765, -0.12417960911989212, -0.06694734841585159, -0.6129545569419861, -0.8462429642677307, -0.02489415742456913, 0.06540273874998093, 0.8344454765319824, 0.01873096637427807, 0.24661467969417572, 0.027276376262307167, 0.615629255771637, 0.6827581524848938, 0.1110619381070137, -0.023418409749865532, 0.05861782655119896, -0.23231981694698334, -0.05537211522459984, -0.006428889464586973, 0.2267298549413681, -0.3838655650615692, 0.12250138074159622, 0.11990488320589066, -0.0422532819211483, -0.5583916306495667, 0.0046358187682926655, 0.19957087934017181, 0.1335068792104721, -1.1088722944259644, -0.19481171667575836, -0.019184691831469536, -0.2205323427915573, 0.25724247097969055, -0.02312028594315052, 0.15478993952274323, -0.1770646721124649, -0.5227609276771545, -0.1865823119878769, 0.12506867945194244, -0.21917201578617096, 0.02692907117307186, 0.1534501165151596, -0.022167610004544258, 0.060067471116781235, 0.1549636274576187, 0.024519948288798332, 0.13229908049106598, -0.176656112074852, -0.7528891563415527, 0.18109296262264252, 0.09962760657072067, 0.15501414239406586, 0.543708860874176, -0.012216582894325256, -0.0019399375887587667, 0.09490367025136948, 0.34430500864982605, -0.06098419800400734, -0.09051584452390671, 0.30204224586486816, 0.4727344810962677, 0.07840495556592941, -0.16735325753688812, -0.19126133620738983, -0.14880886673927307, 0.06946790963411331, 0.09568964689970016, -0.11675740033388138, -0.10116983205080032, -0.1311710923910141, 0.048254843801259995, -0.04510485753417015, -0.07251805812120438, -0.07696855068206787, 0.017732230946421623, 0.584109902381897, -1.0930641889572144, 0.05423182621598244, -0.08966737240552902, -1.1095354557037354, -0.27854013442993164, 0.06303954869508743, -0.004277214873582125, -0.418416827917099, 0.2277836799621582, -0.13788475096225739, 0.13105355203151703, 0.1026458814740181, 0.0918465256690979, 0.10174465924501419, 0.01620107889175415, 0.04640912637114525, -0.20303680002689362, 0.007758944761008024, -0.0038975554052740335, -0.8392114043235779, 0.06785573065280914, -0.060318831354379654, -0.10877691954374313, -0.6186046004295349, -0.621889054775238, 0.1597694307565689, 0.15435992181301117, -0.6489413976669312, -0.573513925075531, 0.07942347973585129, -0.4617004096508026, 0.1964895874261856, -1.7191487550735474, 0.40683743357658386, -0.16215847432613373, -0.4078660011291504, -0.6311723589897156, -0.5297803282737732, 0.2877807915210724, 0.24906136095523834, 0.11751913279294968, 0.0740695521235466, -0.2742975056171417, 0.10466765612363815, 0.03605115786194801, -0.056405965238809586, 0.09700357913970947, -0.047043461352586746, -0.10347295552492142, -0.07357806712388992, -0.3670024573802948, -0.35773563385009766, -0.09778041392564774, -0.16736780107021332, 0.15891563892364502, -0.035089198499917984, 0.21307732164859772, 0.222214475274086, 0.1979760080575943, 0.34048864245414734, 0.03317051753401756, -0.17712174355983734, -0.0994371548295021, 0.7511290907859802, -0.18064679205417633, -0.08714313060045242, 0.17567728459835052, 0.1130206510424614, -0.08420909196138382, 0.0735781118273735, -0.03128340467810631, 0.2768235504627228, -0.08675443381071091, -0.19285307824611664, 0.03352582827210426, 0.28824588656425476, -0.04351199045777321, -0.03749721869826317, 0.1365053504705429, -0.07982971519231796, -0.04319476708769798, -0.15922047197818756, 0.13892029225826263, -0.49610888957977295, -0.0823785588145256, 0.031197132542729378, 0.25829747319221497, -0.4286355674266815, 0.07130897045135498, -0.024817703291773796, 0.11459947377443314, -0.5851746201515198, -0.05809640511870384, 0.02725883387029171, -0.22356273233890533, -0.06024753674864769, 0.03313744440674782, -0.007857673801481724, -0.8002625107765198, -0.40006211400032043, -0.08443146198987961, -0.09283392876386642, 0.05742524191737175, -0.6409186124801636, -0.0010712648509070277, -0.03157883509993553, 0.15082983672618866, -1.306864619255066, -0.03686779737472534, 0.010743462480604649, -0.010269156657159328, -0.05856162682175636, 0.11192429810762405, -0.11388743668794632, 0.10116764158010483, -0.05138637498021126, 0.061841849237680435, 0.04824152961373329, -0.1405038833618164, -0.400698184967041, 0.03196292743086815, -0.04559871926903725, -0.2354765087366104, -0.9757460951805115, -0.145455464720726, -0.05934399738907814, -0.13986076414585114, -0.057037290185689926, -0.13390444219112396, 0.01947726495563984, -0.14665506780147552, -0.13595841825008392, -0.020871831104159355, 0.13077805936336517, -0.22786904871463776, -0.1181487962603569, 0.04433083161711693, -0.058385733515024185, -0.05667286738753319, -0.41520705819129944, -0.18575476109981537, 0.014581828378140926, -0.02217213623225689, 0.16087625920772552, 0.14627815783023834, -0.015955179929733276, 0.08376156538724899, 0.622090756893158, -0.053866270929574966, 0.03535482659935951, -0.09689342230558395, 0.38516345620155334, 0.11303853243589401, 0.01113844569772482, -0.06870580464601517, 0.425189346075058, 0.102344810962677, 0.018871471285820007, -0.6677126288414001, 0.36072179675102234, -0.025143412873148918, 0.081328384578228, 0.08335649222135544, 0.5876755714416504, 0.1559629589319229, -0.014763905666768551, 0.06153750792145729, -0.39057445526123047, -0.19477294385433197, 0.11611544340848923, -0.47747692465782166, 0.32857319712638855, 0.17515753209590912, -0.0028707568999379873, -0.21071527898311615, -0.32474473118782043, 0.2193567007780075, -0.17603160440921783, 0.8605032563209534, -0.19380591809749603, 0.0892750546336174, 0.050974901765584946, 0.47500136494636536, 0.40105345845222473, 0.10665150731801987, -0.022897420451045036, 0.43917325139045715, 0.6517424583435059, -0.033293187618255615, 0.03604975715279579, -0.16743813455104828, -0.5644174218177795, -0.02578902058303356, -0.07700646668672562, 0.09379573911428452, -0.19263218343257904, 0.1605677455663681, -0.008867024444043636, -0.5787208676338196, -0.7533121109008789, 0.39567121863365173, -0.8117220997810364, -0.7644080519676208, -1.2171984910964966, -1.027077078819275, 0.25985410809516907, 0.22700117528438568, -0.6395411491394043, -0.28611165285110474, 0.3342576324939728, -0.015299857594072819, -0.09559159725904465, -0.034836526960134506, 0.048221733421087265, 0.7788681387901306, -0.15615308284759521, -0.03505825623869896, 0.09498339146375656, -0.19495604932308197, -0.009895860217511654, 0.09791906923055649, -0.2002226561307907, 0.6143923401832581, 0.07125388830900192, -0.22516630589962006, 0.10647021979093552, -0.17308424413204193, 0.1328558772802353, 0.019567983224987984, 0.21771790087223053, 0.46115735173225403, 0.08487396687269211, 0.26531603932380676, 0.049537595361471176, 1.0885907411575317, 0.016555102542042732, 0.045012298971414566, -0.039148446172475815, 0.5445394515991211, 0.3844437301158905, -0.014096544124186039, 0.36406800150871277, 0.6027765274047852, 0.21808969974517822, -0.13214148581027985, -0.12203668802976608, -0.2945851981639862, -0.015445097349584103, 0.30203482508659363, -0.08108992874622345, 0.11701203137636185, -0.013416563160717487, 0.01898312382400036, 0.5108255743980408, 1.0215626955032349, -0.2002079337835312, -0.22475861012935638, -0.8411063551902771, -0.8295817375183105, 0.12253154069185257, 0.020084349438548088, -0.22520186007022858, 0.032892342656850815, 0.15061213076114655, 0.09252818673849106, 0.18721936643123627, 0.23671342432498932, -0.06581038981676102, -0.022540288046002388, -0.8606694340705872, -0.8613577485084534, -0.04640892520546913, -0.10297263413667679, -1.112051248550415, -0.7985741496086121, 0.09242164343595505, 0.007696316111832857, 0.4270484447479248, 0.11839613318443298, 0.10018793493509293, -0.14882276952266693, -0.5059050917625427, -0.249147430062294, 0.05008500814437866, -0.12479209154844284, 0.2457251399755478, -0.157102569937706, 0.1246417686343193, -0.08091486245393753, 0.1644134670495987, 0.9846200346946716, 0.08142877370119095, 0.12257158011198044, -0.3472449779510498, -0.731914222240448, 0.08664704114198685, -0.09836024791002274, 0.174216628074646, 0.20741216838359833, 0.055650707334280014, -0.12228893488645554, -0.1275089979171753, -0.07359092682600021, 0.15122900903224945, -0.015485494397580624, -0.1438532918691635, -0.35173991322517395, 0.011721118353307247, 0.1517340987920761, -0.024092016741633415, 0.8552752137184143, -0.036952074617147446, 0.009159579873085022, -0.07659684866666794, -0.5050548911094666, 0.07147281616926193, -0.12430881708860397, -0.047511931508779526, 0.3005466163158417, 0.03788774833083153, 0.12203586846590042, 0.03615027293562889, -0.9370747208595276, 0.11901522427797318, 0.08146774023771286, 0.025200078263878822, 0.6364384293556213, -0.0835576131939888, 0.13347016274929047, -0.649612545967102, 0.5024499297142029, 0.017353294417262077, 0.14472626149654388, -0.03704822063446045, -0.3345358669757843, -0.026278892531991005, 0.16216696798801422, 0.368754118680954, 0.06603246182203293, -0.022516785189509392, 0.07242833822965622, -0.5890762209892273, -0.41553178429603577, -0.0922861099243164, -0.02135409228503704, -0.15315842628479004, -0.10527948290109634, 0.0179643202573061, -0.1607220321893692, 0.45853516459465027, -0.10775565356016159, -0.1302405744791031, -0.04471570625901222, -0.024371692910790443, 0.22221995890140533, -0.07398880273103714, -0.034718211740255356, 0.06959850341081619, -0.22119830548763275, 0.07042700052261353, -0.013810918666422367, -0.7767587304115295, -0.9101750254631042, 0.20844008028507233, -0.11801517754793167, 0.5892492532730103, 0.21330071985721588, 0.061268266290426254, -0.15614081919193268, -0.6108794808387756, -0.6464673280715942, -0.4488936960697174, -0.5034769773483276, 0.2673945724964142, 0.17590691149234772, -0.13034549355506897, -0.6510339379310608, 0.12209343165159225, 0.21212433278560638, -0.5433269143104553, 0.15985988080501556, -0.18950311839580536, -0.07741009443998337, -0.050506945699453354, 0.10843456536531448, 0.3776874542236328, -0.13357745110988617, 0.08000082522630692, -0.16407181322574615, 0.16773450374603271, 0.19680006802082062, 0.03164529427886009, 0.2783227264881134, 0.059054020792245865, 0.0912419930100441, -0.006999641191214323, 0.22149015963077545, 0.14722563326358795, 0.06401544064283371, 0.2510359585285187, 0.25254079699516296, -0.023295730352401733, 0.05950487032532692, 0.12756143510341644, -0.10443972796201706, -0.3505583107471466, 0.1600957065820694, 0.06262660026550293, -0.3448620140552521, -0.28980183601379395, 0.022232994437217712, -0.0017315720906481147, -0.071468286216259, -0.6814393401145935, -0.09314101189374924, 0.07258344441652298, 0.07513152807950974, -0.05764126405119896, -0.1972172111272812, 0.08972585946321487, -0.03497792035341263, -0.04892471432685852, -0.17388296127319336, 0.013724193908274174, -0.25931909680366516, -0.8704537749290466, -0.09114284068346024, 0.07840918749570847, 0.4721818268299103, -1.2189141511917114, -0.1492917686700821, 0.0885302945971489, -0.1636807769536972, -0.41162410378456116, 0.05861878767609596, 0.02742713876068592, -0.014310880564153194, 0.03526332601904869, 0.03221786394715309, -0.13360725343227386, -0.5668970346450806, 0.27431079745292664, 0.028162213042378426, 0.22407864034175873, -0.14332057535648346, -1.1554499864578247, 0.07389294356107712, 0.022992195561528206, -0.03550981730222702, -0.5109825730323792, 0.03569262847304344, 0.09199195355176926, -0.019479496404528618, 0.2137976437807083, 0.08631777763366699, 0.19575391709804535, 0.02888074330985546, -0.5187644362449646, -0.22354362905025482, -0.015898512676358223, 0.12270879000425339, -0.8324604630470276, 0.10407334566116333, 0.07487291842699051, -0.07450579851865768, 0.0609973706305027, 0.11916304379701614, -0.10812155157327652, 0.18077518045902252, 0.23166944086551666, -0.029697207733988762, -0.007648364175111055, -0.25487712025642395, -0.5322046875953674, -0.100784532725811, -0.006958514917641878, -0.32740476727485657, -0.34957173466682434, -0.15180517733097076, 0.12298882752656937, 0.08617722988128662, 0.5003232359886169, -0.11995471268892288, -0.0649266168475151, -0.253114253282547, -0.3977840840816498, 0.2344977706670761, 0.21507428586483002, -0.20325066149234772, 0.3899162709712982, 0.1358008235692978, 0.021433087065815926, -0.26792022585868835, -0.6184244751930237, -0.06789427250623703, 0.025717345997691154, -0.49934861063957214, 0.20424531400203705, 0.0907515212893486, -0.04672926291823387, -0.6201363205909729, -0.0582033209502697, -0.17917585372924805, 0.02496039681136608, 0.04503319039940834, 0.590547502040863, -0.21856452524662018, -0.0037851708475500345, -0.0561218298971653, -0.03121846728026867, -0.1793612241744995, -0.01973670907318592, -0.077938012778759, 0.2402348667383194, 0.061532143503427505, 0.1111595556139946, 0.2620823085308075, -0.6687270998954773, -0.048739586025476456, -0.0032108400482684374, 0.1632884442806244, 0.026678845286369324, -0.04698833450675011, -0.11588739603757858, -0.08813916891813278, -0.8216052055358887, 0.0404626689851284, -0.005318731535226107, 0.31288936734199524, 0.40676751732826233, -0.24221181869506836, 0.14576993882656097, 0.20961858332157135, -0.944303572177887, 0.091446153819561, -0.1938430517911911, -0.023189157247543335, 0.4096684753894806, -0.12126005440950394, 0.13651706278324127, -0.5346084833145142, -0.6816855072975159, 0.6594594717025757, -0.6026138067245483, -0.018853994086384773, -0.9934104084968567, -0.21074391901493073, 0.2378065586090088, -0.18286345899105072, -1.0315096378326416, -0.4402928054332733, 0.15813829004764557, 0.1632796674966812, -0.02449384145438671, 0.1731664091348648, -0.13599467277526855, -0.06955765932798386, -0.0020451692398637533, -0.13173209130764008, -0.020495695993304253, 0.256876677274704, -0.0205280352383852, 0.05008217692375183, -0.12402462214231491, -0.41909995675086975, 0.005795839708298445, -0.0519571490585804, -0.16866327822208405, 0.15618109703063965, -0.12058674544095993, 0.19926907122135162, 0.1264439970254898, 0.8020018935203552, -0.0037869883235543966, 0.1708456128835678, -0.30265161395072937, -0.2741904556751251, 0.12824343144893646, 0.003444105153903365, 0.014670698903501034, 0.02674269489943981, 0.043928083032369614, 0.048313792794942856, 0.19479835033416748, 0.02040587179362774, -0.22414851188659668, 0.16039015352725983, 0.2492041438817978, 0.45452168583869934, 0.13410256803035736, -0.03462687134742737, 0.7111454010009766, 0.9090661406517029, 0.06150895729660988, -0.06883174180984497, 0.07001162320375443, 0.3030717074871063, 0.016310645267367363, -0.19017110764980316, -0.09931213408708572, -0.7486218810081482, -0.03778267279267311, 0.048232968896627426, -0.05244595184922218, 0.16131208837032318, 0.06292391568422318, 0.031223980709910393, -0.4516238868236542, -0.271013468503952, -0.03969699516892433, 0.009322800673544407, -0.36712029576301575, 0.226177379488945, -0.12800049781799316, -0.05378969386219978, -0.1931106299161911, 0.1417539268732071, -0.2075224071741104, 0.22298026084899902, 0.37758874893188477, 0.14597822725772858, 0.12645719945430756, -0.20879842340946198, 0.1517915576696396, -0.7777004837989807, 0.04562172666192055, 0.0574602447450161, -0.08982199430465698, 0.18561314046382904, -0.1060020849108696, -0.07678926736116409, -0.25883057713508606, 0.2736820876598358, 0.13972260057926178, -0.011964217759668827, 0.10016810148954391, -0.5864166617393494, 0.07035035640001297, -0.2246844619512558, 0.2128874510526657, 0.4883013069629669, 0.1372140496969223, 0.0306644756346941, 0.1621851772069931, 1.2643109560012817, -0.03271693363785744, 0.024395601823925972, 0.23009850084781647, 0.14719749987125397, 0.18420980870723724, 0.05511721968650818, -0.1745135635137558, 0.38904955983161926, -0.07039500027894974, 0.12941382825374603, 0.050197403877973557, -0.27534177899360657, -0.03264254704117775, -0.12463057786226273, 0.07413703948259354, -0.19328655302524567, 0.15748073160648346, -0.06200713291764259, -0.16229544579982758, 0.12363410741090775, -0.08955364674329758, 0.0330238975584507, 0.2798028290271759, -0.08951645344495773, -0.10020207613706589, -0.09180235862731934, -0.714701235294342, 0.377549409866333, 0.10570014268159866, 0.10034442692995071, 0.21196453273296356, 0.30114176869392395, 0.03936189040541649, -0.05106258764863014, 0.36494728922843933, -0.16544459760189056, 0.18319909274578094, 0.003847517305985093, -0.04152267798781395, 0.7647722363471985, -0.15443287789821625, 0.022565675899386406, 0.4770776331424713, 0.1250753402709961, 0.22303436696529388, 0.1855299323797226, -0.10842739790678024, -0.0684211403131485, 0.1520472913980484, -0.09210670739412308, -0.3710304796695709, 