{"structure_edges": [[-1, 15, 1], [8, 18, 1], [7, 8, 1], [6, 7, 1], [-1, 6, 1], [5, 12, 1], [4, 5, 1], [3, 4, 1], [-1, 3, 1], [2, 13, 1], [1, 2, 1], [0, 1, 1], [-1, 0, 1], [11, 19, 1], [11, 16, 1], [10, 11, 1], [9, 10, 1], [-1, 9, 1]], "structure_weights": {"mu": [-1.7026234516482366, -1.5325536843525789, 1.6501496185446225, 0.1091386211715266, -1.4242902362248528, 0.0, 0.0, -1.021432820870021, 0.48789201681510425, -1.6941429591974044, -0.6826736298752064, 0.16959215671286315, -0.7367931378788284, 0.7974905416292059, 0.0, 0.0, 0.8835101777771075, 0.1481161530305275, -1.7534685261183474, -1.6662501991568812, 0.5928969810097099, 1.6947808613509467, -0.6251314276196003, 0.0, 0.0, -0.11211516145926206, 0.24090386139588918, -0.6335166646295117, -0.8092468549306121, 2.5516015903916744, 0.33625861174650296, -1.7557929985268443, 0.0, 0.0, 0.34914765554064325, 0.18541453218228615, -1.1036070415733465, -0.7472102396573983, -0.5607565117567734, 1.2989099200808123, -0.34585410882634415, 0.0, 0.0, 0.5052771424207034, -0.5673521794112818, -1.753815610703062, -0.9262724886446165, 0.5407569784773711, 0.8534277046878865, -0.633928988119171, 0.0, 0.0, -0.5219069504633992, 0.03383471753525986, 0.21953493293643794, -0.7356962279214905, 2.36403790418467, 2.9530795882278067, -0.7019410696958848, 0.0, 0.0, -0.15633720693237543, 0.023852195096217263, 0.9312190624401011, -0.21077641384495813, 0.8379805744561106, 0.7123433139812908, 0.2786028486548301, 0.0, 0.0, -0.3870639815693868, 2.466875933465009, 0.6505546030007465, -0.15094749751715458, 0.7040419661386902, 0.9689879031691491, -1.505567678131428, 0.0, 0.0, 0.08019841716841711, 0.8169797796272874, 1.728589801817787, -1.4905682481261677, -0.12468198518937713, 3.1249999906699655, -1.4235587907099458, 0.0, 0.0, 0.9746239154821035, -1.117747668599508, 1.5800174855879798, -2.1514686221447286, 0.5520030209833823, 0.34441497094650164, 0.43687531107275185, 0.0, 0.0, -0.8024029417403119, -0.44858678627941156, 2.2047344718981674, -0.6367252641124451, 0.8587646143349006, -1.9814760145108519, -1.7380977312873027, 0.0, 0.0, -0.9730573129238279, 0.5125053603476617, 2.1229635253198307, -1.0122732088154676, 0.1015261281087816, -2.109277900640813, -1.2958519558810215, 0.0, 0.0, -0.7415692679123678, 0.2523405046115733, -1.5112660999959822, -1.2164261382047004, 0.5845585000724328, 0.4009659975908632, -0.6777396846406424, 0.0, 0.0, 0.027042690068388137, -0.028803602497381828, 0.0, 0.0, 0.0, 0.0, 0.0, 0.0, 0.0, 0.0, 0.0, 1.4698889129639887, -0.6405562904683497, 0.447020865775704, 0.12018912290517879, 1.2183708251689924, 0.0, 0.0, -0.3552891763246107, 1.4495980348073816, -1.4761136210141208, -1.5671757421742918, -0.1308275962322841, -0.7289258639808879, 0.811309582901839, 0.0, 0.0, 0.1659554595890891, -0.6733036807829026, 0.0, 0.0, 0.0, 0.0, 0.0, 0.0, 0.0, 0.0, 0.0, 1.4607235724624683, -1.3731961949619347, 0.8042081959261786, -1.206188356543709, -1.398466663031638, 0.0, 0.0, -0.6966685667857552, 0.7348547458943543, 0.9684203322539207, -1.1867970203108866, 1.231957871518882, 2.9530795882278067, -1.1857448669930353, 0.0, 0.0, -0.1884297215268973, 1.1981558405577062], "sigma": [0.01, 0.043025621560744194, 0.02199159496305567, 0.04171338574168169, 0.010707512177837854, 0.1, 0.1, 0.015623822442483525, 0.06515759895544962, 0.023904460618373324, 0.012488494926163315, 0.0568798348003989, 0.02967653436561935, 0.01, 0.1, 0.1, 0.1024184868775924, 0.4517503189069935, 0.04004235521090661, 0.043212762398186076, 0.13423474922993495, 0.022824791804185125, 0.030348916917069826, 0.1, 0.1, 0.01047975696362417, 0.6686273157904719, 0.044683977357196446, 0.014582276311803668, 0.011440921220609648, 0.016421559578745516, 0.012199329396095167, 0.1, 0.1, 0.14194517654633318, 0.03101327492546845, 0.04173105154976555, 0.04132524320181257, 0.048834770084867085, 0.010192663919979781, 0.01808009430301137, 0.1, 0.1, 0.2798222999488914, 0.06473525808315811, 0.01, 0.01, 0.025739073426848877, 0.014838387849128111, 0.05359175807679077, 0.1, 0.1, 0.07053067764798134, 0.28891199767529113, 0.014713146125852082, 0.010957819370280597, 0.3627055936124298, 0.0999999947869955, 0.014036702340056455, 0.1, 0.1, 0.21878368795095052, 0.01, 0.02393763711745913, 0.04939566332842992, 0.05954448172296718, 0.1256444081656264, 0.013421216090538457, 0.1, 0.1, 0.013388084632718872, 0.2632446738666985, 0.011229551692575035, 0.01, 0.015872215174370118, 0.027166641098539328, 0.01, 0.1, 0.1, 0.023901320208378547, 0.023238788673605917, 0.010613379145799285, 0.0339945736315377, 0.06132457271407514, 0.09999999005390457, 0.0520361788189773, 0.1, 0.1, 0.043878671761341775, 0.12573566222603821, 0.012101457878720499, 0.01008785469378744, 0.0555618822710923, 0.14026061199955311, 0.03637804745337133, 0.1, 0.1, 0.017974968038925763, 0.11659950455936577, 0.05783200252888289, 0.05488809131068531, 0.011912342615508635, 0.01, 0.01871804002862037, 0.1, 0.1, 0.2186271860532673, 0.01, 0.01, 0.014898480741720123, 0.01, 0.03488593592385605, 0.01007768984396877, 0.1, 0.1, 0.2819598882450062, 0.11972839305936255, 0.028782906173974346, 0.017388634699629344, 0.01229519058378622, 0.17838704630274407, 0.03699833121831467, 0.1, 0.1, 0.11583732723784536, 0.14873648411879967, 0.1, 0.1, 0.1, 0.1, 0.1, 0.1, 0.1, 0.1, 0.1, 0.014305369058541044, 0.04940426869619233, 0.04187353661570404, 0.010492382989665998, 0.09481362311611148, 0.1, 0.1, 0.025024658889688942, 0.01, 0.022526582974308672, 0.03354645971544059, 0.27680120599211244, 0.05502442931599899, 0.012603552760339627, 0.1, 0.1, 0.7045510462123764, 0.46091060908187437, 0.1, 0.1, 0.1, 0.1, 0.1, 0.1, 0.1, 0.1, 0.1, 0.018433742301638585, 0.017506946904159378, 0.018823779781284432, 0.049797089539270235, 0.01, 0.1, 0.1, 0.2841374674844898, 0.12450435255156062, 0.010131899333789496, 0.0393204201726505, 0.0927078057231483, 0.0999999947869955, 0.011014016542651887, 0.1, 0.1, 0.47560051050955665, 0.01324242423196761]}, "policy_weights": [-0.24631310999393463, 0.09733433276414871, -0.04447931423783302, 0.191345676779747, -0.5015059113502502, -0.5898870229721069, 0.06162482127547264, 0.021996332332491875, -0.671875, -0.5180946588516235, -0.10433709621429443, -0.16433288156986237, -0.4250192940235138, 0.030556200072169304, 0.08934693783521652, 0.01698140986263752, 0.4292044937610626, 0.43820223212242126, -0.026384184136986732, -0.10694969445466995, -0.037354227155447006, -0.07105976343154907, -0.11724983900785446, 0.10914360731840134, -0.13885238766670227, 0.049671951681375504, 0.0034182220697402954, 0.029136834666132927, 0.1905694454908371, 0.13862183690071106, 0.14380909502506256, 0.06199752911925316, 0.01693248376250267, 1.096787452697754, 0.23255445063114166, -0.08079826086759567, -0.2986845076084137, 0.1411205679178238, -0.18116413056850433, 0.09383951872587204, 0.020084934309124947, 0.03202883154153824, -0.15042604506015778, 0.261264830827713, -0.3592348098754883, 0.25581857562065125, -0.062460724264383316, 0.07014299184083939, 0.16137492656707764, -0.02622041292488575, -0.1658705621957779, 0.0711677148938179, -0.1060628816485405, -0.006718990858644247, -0.11031121015548706, 0.03732379898428917, 0.08874667435884476, -0.0468134842813015, -0.15008330345153809, -0.06574773043394089, -0.048827480524778366, -0.08958099037408829, 0.11977409571409225, 0.11628209799528122, -0.09262364357709885, 0.23696106672286987, -0.02585696242749691, -0.11612390726804733, -0.07586795836687088, 0.04855084791779518, 0.11507021635770798, 0.12738801538944244, 0.038645293563604355, -0.0010023355716839433, -0.09528935700654984, -0.0330868661403656, 0.08370089530944824, -0.13513149321079254, -0.039335910230875015, -0.054592471569776535, -0.8801091313362122, -0.5658193230628967, 0.5103135704994202, -0.3160891830921173, 0.277542382478714, 0.010493488050997257, 0.9909419417381287, -0.6832727789878845, -0.3650922477245331, 2.275869369506836, 0.4281461238861084, -0.45529377460479736, 0.3846224844455719, 0.01982090063393116, -0.12032925337553024, 0.3784399926662445, 0.4480275809764862, 0.04216933622956276, 0.07655036449432373, 0.7616177201271057, -0.2429063469171524, -0.13380597531795502, 0.0013675278751179576, -0.756521999835968, 0.0839504525065422, 0.05730437859892845, -0.10301323980093002, -0.11816204339265823, 0.569689154624939, 0.07570724934339523, 0.13096167147159576, 0.23605871200561523, 0.5464774370193481, 0.04797518625855446, -0.13508011400699615, 0.422102689743042, 1.0061389207839966, 0.08048183470964432, -0.12212289124727249, -0.3796751797199249, 0.21130706369876862, -0.06780188530683517, -0.0036287906114012003, -0.026295850053429604, -0.6191924810409546, -0.04464277997612953, -0.06829798966646194, 0.35411593317985535, -0.1252281218767166, -0.0022217032965272665, 0.17209364473819733, -0.28441718220710754, -0.2208612710237503, -0.07824968546628952, 0.06344520300626755, 0.46261438727378845, -0.19032321870326996, -0.006040140986442566, -0.03590526804327965, 0.1204071119427681, -0.06665485352277756, 0.15424619615077972, 0.04678511992096901, 0.1755673736333847, -0.02025112882256508, 0.0371820293366909, -0.08483564108610153, 0.11268294602632523, -0.04729282483458519, 0.00944454874843359, 0.06597531586885452, 0.005727172363549471, -0.1586974859237671, -0.08683300763368607, 0.13224150240421295, -0.06770836561918259, 0.10811556130647659, 0.14304910600185394, 0.06098860129714012, -0.14611388742923737, -0.0563773475587368, 0.06360883265733719, 0.01943582482635975, -0.11005531996488571, -0.009941240772604942, 0.038141075521707535, 0.028489919379353523, 0.3192557990550995, 0.04760783910751343, 0.12046074122190475, 0.026057347655296326, -0.22211597859859467, -0.22599464654922485, -0.8794650435447693, -0.49430611729621887, 1.2623815536499023, -0.2802884876728058, 1.8725446462631226, -0.807039737701416, -1.1526298522949219, 0.49523434042930603, 0.4003656804561615, -0.06566261500120163, 0.0764128714799881, 0.10246872156858444, -0.07912873476743698, -0.10342947393655777, -0.01786712370812893, 0.017251087352633476, 0.025561748072504997, -0.5391005873680115, -0.5270806550979614, -0.10720368474721909, 0.017938656732439995, -0.2950189709663391, 0.0767020508646965, -0.03706153854727745, 0.11501406878232956, -0.1603374183177948, -0.5059453845024109, 0.12695811688899994, 0.09398538619279861, 0.3333911597728729, -0.5203466415405273, 0.0133237699046731, 0.012602568604052067, 0.10946988314390182, 1.3593500852584839, 0.08290653675794601, 0.12635459005832672, 0.10049406439065933, 0.2659805417060852, 0.07742507010698318, -0.18681226670742035, -0.21002505719661713, 0.7459887862205505, 0.0036581752356141806, 0.030615657567977905, 0.2630462944507599, -0.0976264476776123, -0.0636143609881401, -0.027960987761616707, 0.8923664689064026, 0.8499289155006409, 0.1437472105026245, 0.07168949395418167, 0.18559812009334564, 0.13178659975528717, 0.17767180502414703, -0.04369330033659935, 0.10869287699460983, 0.1559462547302246, 0.10101758688688278, 0.036849770694971085, -0.05272042378783226, -0.01351405680179596, -0.27814581990242004, -0.04086148366332054, -0.0808861181139946, -0.03674698248505592, 0.024234948679804802, 0.009427077136933804, -0.019851814955472946, 0.014864505268633366, 0.12101006507873535, 0.18251489102840424, 0.03713444247841835, 0.19973675906658173, 0.13456059992313385, -0.17262960970401764, 0.007911727763712406, -0.03698459267616272, -0.057328641414642334, 0.1293410211801529, -0.07910813391208649, 0.0010675217490643263, -0.04287264123558998, 0.07758630067110062, 0.31810837984085083, 0.003426298266276717, -0.4182872772216797, 0.011821805499494076, -0.7049922347068787, -0.4624723196029663, 0.30905723571777344, -0.28052353858947754, -0.7312104105949402, -0.945585310459137, -1.202204704284668, 0.3407476246356964, 1.0647114515304565, -0.02169845998287201, -0.017346208915114403, -0.4027886390686035, 0.13856449723243713, -0.038510292768478394, -0.006833349820226431, 0.5339894890785217, -0.3983292877674103, -0.027430221438407898, 0.11519216746091843, -0.5489884614944458, 0.17377163469791412, 0.047710154205560684, -0.023088810965418816, -0.5749115347862244, 0.836581289768219, 0.06358509510755539, 0.03717857971787453, -0.23170381784439087, -0.38890883326530457, 0.10595165938138962, 0.021788807585835457, -0.5746257901191711, -0.4551618993282318, -0.07732696086168289, 0.13345147669315338, 0.1198650673031807, 0.36514946818351746, -0.15810967981815338, -0.0762365534901619, -0.47157061100006104, -0.49144843220710754, -0.02683562971651554, 0.23120473325252533, -0.05171577259898186, -0.6321201920509338, 0.16187594830989838, -0.042535100132226944, 0.7465500831604004, -0.06450469046831131, 0.10382545739412308, 0.011124037206172943, 0.4022127687931061, 0.13186658918857574, 0.2680874168872833, 0.005726379808038473, 0.05834101140499115, -0.8142853379249573, -0.07227928191423416, -0.1282416582107544, 0.04802951589226723, -0.0985482931137085, 0.05785251036286354, -0.06080031022429466, -0.09648092836141586, 0.03558791056275368, 0.0017465410055592656, 0.0878797248005867, 0.04327288642525673, -0.08757270127534866, 0.008580171503126621, -0.02007227949798107, 0.49213215708732605, -0.2736966609954834, 0.017864124849438667, -0.2810974419116974, 0.04033787176012993, -0.09882200509309769, -0.028253016993403435, -0.08097023516893387, 0.016672926023602486, 0.04860059544444084, -0.03685793653130531, 0.03031867742538452, 0.10799907892942429, 0.050249695777893066, -0.02927332930266857, 0.15108107030391693, 0.29449960589408875, -0.17705200612545013, 0.016664164140820503, 0.04550907015800476, 0.2142762988805771, -0.3753156363964081, 0.6304029822349548, -0.5992297530174255, -0.3390979468822479, -0.9779462218284607, 0.7570880055427551, -1.5859273672103882, -0.7462482452392578, 0.7233405113220215, -0.3229844272136688, 0.564206600189209, -0.0059561035595834255, 0.056600574404001236, -0.07432205229997635, 0.013549833558499813, 0.5149108171463013, -0.13737080991268158, -0.11660600453615189, 0.13609102368354797, 0.13778294622898102, -0.17409707605838776, 0.1883312463760376, -0.32708626985549927, 0.9581149220466614, 0.028639910742640495, 0.038251277059316635, 0.12745453417301178, -0.31450650095939636, -0.09171272069215775, 0.10115651041269302, -0.5225608944892883, -0.787263810634613, 0.0043899682350456715, -0.04340178146958351, 0.15319004654884338, 0.09283644706010818, 0.10412324219942093, 0.20690204203128815, 0.7384672164916992, 0.6559180617332458, -0.07205582410097122, 0.02103695087134838, 0.6489697098731995, 0.3392179012298584, -0.07836955040693283, 0.062034670263528824, 0.27504807710647583, -0.07393086701631546, 0.0032934125047177076, -0.14073537290096283, -0.11570306867361069, 0.5197173357009888, 0.12503230571746826, -0.025691566988825798, -0.040876712650060654, -0.9268597960472107, -0.1871156543493271, -0.01622389256954193, 0.10485962778329849, -0.042787790298461914, 0.009816081263124943, 0.022158237174153328, -0.07026274502277374, -0.08106328547000885, 0.15095172822475433, 0.24586080014705658, -0.16227926313877106, 0.04612850770354271, 0.0544135607779026, -0.0353546105325222, 0.02560967020690441, 0.18547634780406952, -0.12864255905151367, -0.12063945084810257, -0.05215374752879143, -0.09559912234544754, 0.08062613755464554, 0.0786982849240303, -0.02845689468085766, -0.037271324545145035, -0.002504462143406272, 0.16888821125030518, 0.017672298476099968, 0.14237354695796967, 0.01700293831527233, 0.07114439457654953, 0.10322213917970657, 0.46874138712882996, -0.05532628297805786, -0.13094089925289154, -0.49747276306152344, -0.5985912680625916, 0.7517905831336975, -0.31076136231422424, -0.44906964898109436, -0.3041783273220062, -0.47923752665519714, -0.054387252777814865, 0.533528208732605, 0.5150870680809021, 1.4606655836105347, 0.32086485624313354, -0.0023250433150678873, 0.029771624132990837, -0.029629496857523918, -0.15134862065315247, -0.30920740962028503, 0.16430102288722992, 0.0287857037037611, -1.3442765474319458, -0.6932743191719055, -0.16855476796627045, 0.05728166922926903, -0.1156691238284111, -0.3289956748485565, -0.08259253948926926, 0.08015459030866623, 0.26964330673217773, -0.5117550492286682, 0.16698767244815826, -0.11220847815275192, 0.09153727442026138, 0.4179428517818451, -0.09619700908660889, 0.0004195243527647108, 0.27253538370132446, 0.9064862132072449, 0.028865722939372063, 0.03003370575606823, 0.1487898975610733, -0.8393080830574036, -0.16535340249538422, 0.07344358414411545, 0.0661812350153923, 0.6360039114952087, -0.007969521917402744, -0.06298179179430008, 0.37120580673217773, -0.9775275588035583, 0.14177049696445465, 0.0894041582942009, -0.24446798861026764, -0.5897659659385681, 0.10470014810562134, -0.07669376581907272, -1.5785026550292969, -0.8517773747444153, 0.11841917783021927, 0.0703592374920845, -0.058062318712472916, 0.047578711062669754, 0.05215364694595337, -0.071370430290699, -0.04920419678092003, 0.06391598284244537, -0.1854083389043808, -0.04182102903723717, -0.005108501296490431, 0.06385529786348343, 0.11904870718717575, 0.03745996579527855, 0.049389902502298355, 0.2735324203968048, -0.08807641267776489, -0.09421627968549728, 0.006115760188549757, -0.2507334351539612, -0.05034756287932396, 0.038133230060338974, -0.08550143986940384, 0.13209271430969238, 0.009855121374130249, -0.06327908486127853, 0.007972211576998234, -0.14010843634605408, -0.04827908053994179, 0.07588767260313034, -0.22037003934383392, -0.3009006977081299, 0.0203744787722826, 0.02622997760772705, -0.586061418056488, -0.3311583399772644, -0.16886006295681, -0.045140448957681656, 0.2762121856212616, 0.09924065321683884, -0.7816811203956604, 0.40482696890830994, 0.18498541414737701, 0.8331408500671387, -0.2583896815776825, 0.23690487444400787, 0.5029115080833435, -0.07892513275146484, 0.11914419382810593, 0.11973452568054199, 1.8239727020263672, -0.1690363734960556, -0.0053170244209468365, -0.8775702118873596, -0.5615062117576599, 0.03104635886847973, 0.19811545312404633, -0.6439581513404846, 0.30273959040641785, 0.015433340333402157, 0.007428228389471769, 0.32364174723625183, -0.15808990597724915, -0.014286861754953861, 0.060289859771728516, 0.630323052406311, 0.7727822661399841, -0.0569988489151001, 0.07509446889162064, -0.07877252995967865, 0.4694196283817291, -0.07802944630384445, 0.04121032729744911, 0.5375427007675171, 0.025397678837180138, -0.1443634182214737, 0.10749994963407516, -0.2392302304506302, 0.7745814919471741, -0.09446543455123901, 0.08414728194475174, 0.58151775598526, 0.2142583578824997, -0.04229259118437767, 0.14407207071781158, 0.84190434217453, 0.05952276289463043, 0.10637172311544418, 0.07200806587934494, -0.3090975880622864, -0.17249365150928497, -0.07042121887207031, 0.07158268243074417, 0.048083897680044174, -0.08250243216753006, -0.04041280969977379, -0.023968515917658806, 0.09417072683572769, -0.013372339308261871, 0.002092500915750861, 0.10918580740690231, -0.28007128834724426, 0.25102993845939636, 0.024291785433888435, -0.09446748346090317, 0.16355298459529877, 0.151223286986351, 0.04344293102622032, -0.150711789727211, 0.08162431418895721, -0.21366198360919952, 0.1184685155749321, 0.06419896334409714, -0.11632264405488968, 0.016708316281437874, -0.014478071592748165, 0.06652509421110153, 0.24629737436771393, 0.26372718811035156, 0.04848772659897804, 0.10972682386636734, 0.17743635177612305, 0.09654776006937027, -0.014618783257901669, -0.004670750815421343, -0.024793731048703194, 0.023380247876048088, 0.2591477334499359, -0.23042495548725128, 0.41390326619148254, -0.8024136424064636, 0.8258917927742004, 0.08501756936311722, -0.43948838114738464, 0.7795416712760925, -0.10551988333463669, -0.06822513788938522, 0.04281682148575783, 0.034088198095560074, 0.16024495661258698, 0.485713928937912, 0.5096278190612793, 0.0664835050702095, 0.00799547042697668, -1.0685060024261475, -1.1431275606155396, 0.07943426817655563, 0.08968966454267502, -0.324940025806427, -0.6733130812644958, 0.06553124636411667, -0.048547353595495224, 0.4406302869319916, 0.6752462387084961, -0.010935350321233273, 0.0027951335068792105, -0.5229135751724243, -0.4036214351654053, 0.0018443259177729487, -0.2767431437969208, -0.2868392765522003, 0.04431304708123207, 0.02196374349296093, 0.04027703031897545, 0.053705066442489624, 0.8390884399414062, 0.005751143675297499, -0.06848417967557907, -0.14843153953552246, 1.123808741569519, 0.1457158476114273, 0.0488511361181736, -0.025814035907387733, 1.1717711687088013, -0.13116014003753662, -0.08383785933256149, 0.5992475152015686, 0.7702198028564453, 0.041793342679739, -0.18902064859867096, 0.06798536330461502, 0.4079990088939667, 0.11738253384828568, 0.2331090122461319, -0.06826990842819214, -0.0600055493414402, 0.009291081689298153, 0.04364025220274925, -0.02274593710899353, 0.07232790440320969, -0.09013248234987259, -0.08884472399950027, 0.08128999918699265, -0.10804843157529831, 0.11260353773832321, -0.08501661568880081, 0.11600843816995621, 0.335462361574173, -0.2571060359477997, 0.05025939270853996, -0.005431787576526403, 0.2431672215461731, -0.09820031374692917, 0.18419577181339264, 0.09934734553098679, 0.001257629948668182, 0.0826306864619255, -0.020049212500452995, 0.3084867000579834, 0.045857686549425125, -0.0317370630800724, 0.17582297325134277, -0.01576073095202446, -0.31623074412345886, -0.16572223603725433, 0.06797515600919724, -0.3554565906524658, -0.2474234700202942, 0.21982859075069427, -0.21912090480327606, -0.23281128704547882, -0.26874417066574097, -0.29801326990127563, 1.0206021070480347, -0.46474215388298035, -1.3923178911209106, 0.11562811583280563, 0.06394003331661224, 0.6984161734580994, -0.03248482570052147, 0.053558822721242905, -0.6516426801681519, -0.5273826718330383, -9.959714225260541e-05, -0.08681868761777878, -0.20131351053714752, 0.19672004878520966, 0.12671734392642975, -0.024289162829518318, -0.5270119309425354, 0.8052838444709778, 0.057551149278879166, 0.10783100873231888, 0.7761164307594299, 0.855274498462677, 0.04001602903008461, 0.07543105632066727, 0.707451343536377, -0.9257080554962158, -0.02924594096839428, 0.15994931757450104, 0.777516782283783, 0.40230032801628113, 0.0028931573033332825, 0.051965147256851196, 0.550595223903656, -0.5720778107643127, 0.024594007059931755, -0.011681373231112957, -0.6673994660377502, -0.4081061780452728, -0.2110907882452011, 0.06897812336683273, -0.4813896715641022, -0.357578307390213, 0.06002914533019066, 0.29469868540763855, 0.57252037525177, 0.11728955060243607, 0.18297125399112701, 0.025398990139365196, -0.9051592350006104, 0.4912882149219513, -0.03859600052237511, 0.048939112573862076, -0.1875622421503067, 0.12969043850898743, -0.13878358900547028, 0.011088072322309017, -0.03808397427201271, 0.38498684763908386, 0.06914132088422775, 0.11213696748018265, 0.12850572168827057, 0.10546553134918213, 0.004846226889640093, 0.1307813972234726, -0.06928425282239914, 0.1838592141866684, -0.0797601267695427, 0.04394971951842308, -0.01327410340309143, -0.15776172280311584, -0.04376021400094032, 0.06102871522307396, -0.1981789916753769, 0.20034311711788177, 0.2013377994298935, 0.18887995183467865, 0.06747448444366455, -0.07914162427186966, 0.08441478759050369, 0.07787931710481644, -0.06639201194047928, -0.03489908203482628, -0.13200511038303375, -0.1493072658777237, -1.0612361431121826, -0.7734541296958923, 0.05826668441295624, -0.047143515199422836, 0.6746372580528259, -0.3882470428943634, 1.0095741748809814, -0.49313977360725403, 0.12253058701753616, 0.09603173285722733, 0.1498894840478897, 0.12785911560058594, -0.5542405843734741, -0.05153181031346321, -0.07660459727048874, 0.14168275892734528, 0.990445077419281, 0.06316208094358444, -0.07017987221479416, 0.3574800491333008, 0.9644461274147034, -0.09237097948789597, 0.14676333963871002, -0.9086396098136902, -0.5770922303199768, 0.004377502482384443, 0.02644619159400463, 0.5271905660629272, 0.7055453658103943, -0.10039293020963669, -0.09961050003767014, 1.1339799165725708, 1.7482091188430786, -0.14162693917751312, 0.02358326129615307, -0.011803344823420048, -0.4837419092655182, -0.11915696412324905, 0.046366747468709946, 0.13212920725345612, 0.6004366278648376, 0.03991958498954773, -0.02523786760866642, -0.22611409425735474, -0.3992571532726288, -0.038376059383153915, -0.21802090108394623, 0.1023707464337349, 0.17832088470458984, 0.27338191866874695, 0.20439814031124115, 0.5691041350364685, -0.5062414407730103, 0.06935333460569382, 0.03471100330352783, -0.5912642478942871, -0.3635607063770294, -0.06779998540878296, 0.05169033631682396, -0.041851405054330826, 0.15736378729343414, 0.034347888082265854, -0.08330149203538895, 0.04429874196648598, 0.03542325273156166, -0.004968390334397554, -0.04132497310638428, 0.08539008349180222, -0.030790386721491814, 0.058650556951761246, -0.029841693118214607, -0.18897362053394318, -0.6559948921203613, -0.1180572435259819, 0.11144066601991653, -0.002904631430283189, -0.007768114563077688, -0.005001113284379244, 0.18497608602046967, 0.07855366915464401, 0.01471491064876318, 0.04764341935515404, 0.07924681901931763, -0.14730872213840485, 0.03385627269744873, -0.09352607280015945, -0.07002390176057816, 0.35452553629875183, 0.22677689790725708, 0.06605785340070724, 0.16370819509029388, -0.1766369789838791, -0.2731167674064636, 1.0653246641159058, -0.531825602054596, -0.692106306552887, -0.3976724147796631, -0.5180363059043884, -0.22445636987686157, -0.3701165020465851, 0.04990963265299797, -0.04447442665696144, -0.18755900859832764, 0.09153369814157486, -0.05520438775420189, 0.08513761311769485, -0.26180794835090637, -0.5801805257797241, -0.04213178530335426, 0.09220438450574875, 0.28428202867507935, -0.3732109069824219, -0.08594263345003128, 0.1434265524148941, -0.1857154369354248, 0.40678802132606506, -0.09730357676744461, 0.05162521079182625, 0.5098057389259338, 0.658668577671051, -0.13209950923919678, -0.008092680014669895, -0.19830511510372162, 0.12215542793273926, -0.03194436803460121, 0.08474140614271164, -0.5316867232322693, -0.17295719683170319, 0.10812555998563766, 0.05937778577208519, 0.05253512039780617, -0.888189971446991, -0.06743574887514114, -0.2058052271604538, -0.329013854265213, 0.0287424698472023, 0.14378751814365387, 0.01600066013634205, 0.07406111061573029, -0.6956483721733093, -0.09515810757875443, 0.02833854965865612, -0.28680965304374695, 0.38890698552131653, 0.0010667442111298442, 0.002066641813144088, -0.6959872841835022, 0.8615925908088684, -0.03026142530143261, 0.05370914936065674, -0.00755080534145236, 0.07801120728254318, 0.1379089504480362, 0.12364733964204788, -0.061116114258766174, 0.011364295147359371, 0.027930228039622307, -0.14202474057674408, 0.04345196858048439, 0.016546668484807014, 0.07171482592821121, -0.060501571744680405, -0.1469365507364273, 0.12399780005216599, 0.07112114876508713, -0.09453057497739792, -0.024097321555018425, -0.0506172776222229, -0.026117781177163124, 0.04376768693327904, 0.08371829986572266, 0.17147766053676605, -0.018722685053944588, -0.08401822298765182, 0.21958805620670319, 0.33591750264167786, -0.07224618643522263, -0.024937240406870842, 0.07877780497074127, 0.224916473031044, -0.14037121832370758, -0.11086922883987427, -0.35947898030281067, -0.530622124671936, 0.6156057119369507, -0.5135200619697571, -1.0664074420928955, -1.8017750978469849, -0.5838733315467834, 0.39607831835746765, -0.4537738263607025, 0.3516712486743927, -0.5085163712501526, 0.6843944191932678, -0.12516914308071136, 0.2503909766674042, -0.23625420033931732, -0.3545284569263458, -0.626373827457428, -0.048575010150671005, 0.06561815738677979, -0.2989901602268219, 0.293901652097702, 0.033235494047403336, -0.12301374226808548, -0.21663333475589752, -0.7131070494651794, -0.06837005168199539, 0.022848250344395638, 0.4911740720272064, -0.6026970148086548, -0.06276588886976242, -0.2983853816986084, 0.4705824553966522, -0.5408654808998108, 0.0950927808880806, 0.008427694439888, 0.4632859528064728, 0.2408905029296875, -0.11967825144529343, -0.07966471463441849, 0.2533704936504364, -0.3314044773578644, 0.11114215105772018, 0.10525988787412643, -0.269298791885376, 0.061126213520765305, -0.0064342389814555645, -0.0403098426759243, -0.2882208824157715, 0.17129017412662506, -0.09822356700897217, -0.009877189062535763, 0.8718728423118591, 0.2972520887851715, -0.033043503761291504, 0.06119370460510254, -0.5958729386329651, -0.552760899066925, -0.1005488708615303, -0.020217599347233772, -0.03486025705933571, -0.01156641636043787, 0.128981351852417, -0.01464559230953455, -0.041604701429605484, -0.25690609216690063, -0.1441955417394638, -0.10749471932649612, -0.04062619432806969, 0.010037346743047237, 0.04303375259041786, 0.1609569638967514, 0.2033175677061081, 0.20744355022907257, -0.0922401025891304, -0.05851990357041359, -0.03642598167061806, -0.05268440768122673, -0.10665365308523178, -0.018312783911824226, 0.1325819343328476, -0.04446354880928993, 0.010321683250367641, -0.24074123799800873, -0.063236765563488, -0.11260379105806351, -0.003251412184908986, 0.10079336911439896, 0.020478786900639534, 0.17594580352306366, -0.1134021207690239, -0.10541784018278122, -0.6459265351295471, -0.3604302406311035, 0.054239075630903244, -0.21570062637329102, 0.26021671295166016, -1.5208498239517212, 0.0828060656785965, -1.1235226392745972, -0.17338065803050995, -0.9199778437614441, -0.38867923617362976, 0.04510657861828804, -0.3857743442058563, -0.089096300303936, 0.1049070730805397, -0.004152247216552496, -0.1998283714056015, 0.13161420822143555, 0.10782340914011002, 0.49075400829315186, -0.08119747787714005, -0.0008423793478868902, -0.049581024795770645, -0.8536324501037598, -0.30541113018989563, 0.0723024532198906, 0.09287179261445999, -0.5794149041175842, -0.2719328701496124, 0.02833920530974865, 0.014671743847429752, -0.41700026392936707, 0.44462108612060547, 0.3334079086780548, -0.07933639734983444, -0.057317182421684265, -0.05071280524134636, -0.0682746097445488, 0.16545069217681885, 0.29122525453567505, 0.07038609683513641, -0.043662454932928085, -0.04510003700852394, 0.09911597520112991, 0.032437633723020554, -0.1320282369852066, -0.0007934178574942052, 0.14779093861579895, -0.8318729996681213, -0.1658148616552353, 0.11865437775850296, -0.21035511791706085, -1.2417173385620117, 0.10485338419675827, 0.010311164893209934, 0.38155224919319153, -0.1694466918706894, 0.05436853691935539, 0.14909718930721283, -0.1932377964258194, -0.026424000039696693, 0.009340950287878513, 0.02079753391444683, -0.05121627449989319, -0.10793956369161606, -0.11026140302419662, -0.22600387036800385, -0.004877549130469561, -0.0011247833026573062, -0.057159606367349625, 0.058772023767232895, -0.15694037079811096, -0.3024311363697052, -0.11461281031370163, -0.03521298989653587, 0.18175210058689117, -0.1273648738861084, 0.16854523122310638, -0.01835705153644085, 0.05355453863739967, 0.07803904265165329, 0.02692553587257862, 0.09298773854970932, -0.30419760942459106, -0.2973479926586151, -0.08052391558885574, 0.12697292864322662, 0.13494227826595306, -0.162080779671669, -0.08528392761945724, 0.10572410374879837, -0.5309777855873108, -0.6915541291236877, 0.20670007169246674, -0.615186870098114, 0.30632394552230835, -0.5651163458824158, 0.07402843981981277, -0.5105690360069275, 0.4188799560070038, 0.19660507142543793, 0.05217688903212547, -0.48110756278038025, -0.5926360487937927, -0.03485563024878502, 0.14557494223117828, 1.0109385251998901, 0.8181784749031067, 0.02632713131606579, -0.010572166182100773, 0.13415619730949402, -0.35295891761779785, -0.048427168279886246, 0.03258198872208595, -0.45825132727622986, 0.20417039096355438, 0.001334129017777741, 0.02756032533943653, 0.19878919422626495, 0.11664079874753952, -0.024114428088068962, -0.1004636362195015, -1.2787905931472778, -0.5292015671730042, -0.007507071364670992, 0.022970983758568764, -0.3359062969684601, 0.5342854261398315, -0.0034432969987392426, 0.24030660092830658, -0.5335521697998047, 1.1353261470794678, 0.07804679125547409, -0.10957115888595581, 0.2559582591056824, 0.5194417238235474, -0.06813163310289383, 0.08467482775449753, 0.8747971653938293, 0.1309434473514557, 0.1276250034570694, -0.15265081822872162, 0.43560364842414856, -0.6222262382507324, -0.14090074598789215, -0.09491444379091263, 0.27518704533576965, -0.15651752054691315, -0.09045767039060593, 0.05151839926838875, -0.06643815338611603, -0.010749475099146366, -0.03880629315972328, 0.17345236241817474, -0.03896620124578476, 0.07982386648654938, -0.014794752933084965, -0.0858544185757637, -0.038428422063589096, 0.08407331258058548, -0.16537262499332428, 0.10035692900419235, -0.0779266208410263, 0.06921672075986862, 0.016378430649638176, -0.12834297120571136, -0.041086822748184204, 0.11610961705446243, -0.118042953312397, -0.03355172276496887, 0.12029445916414261, 0.06369417160749435, -0.009140320122241974, -0.03817402943968773, -0.08115242421627045, -0.12473965436220169, 0.0707978680729866, 0.14445413649082184, 0.17481552064418793, -0.2765998840332031, -0.10180819779634476, -0.06096428260207176, -0.0034947802778333426, -0.08984912186861038, -0.27800843119621277, -0.46595141291618347, 0.10431639105081558, -1.5425416231155396, -0.536155641078949, -0.227843776345253, -0.5027447938919067, 0.043916571885347366, 0.6708775162696838, -0.2613227367401123, -1.0153480768203735, 0.02925744839012623, 0.03465044125914574, 0.21546055376529694, -0.7606977820396423, 0.07033521682024002, -0.09210372716188431, 0.11181434243917465, -0.23466633260250092, -0.09424955397844315, 0.029398052021861076, -0.5292338728904724, 0.4380752146244049, 0.15072844922542572, 0.009312705136835575, -0.6423407196998596, -0.6035376787185669, 0.03281698003411293, -0.009188971482217312, -0.7581701874732971, -1.121314287185669, 0.0739871934056282, 0.18645308911800385, -0.3500418961048126, -0.9576253890991211, 0.026972314342856407, 0.019821597263216972, 0.1596839278936386, 0.06674718856811523, -0.023730816319584846, -0.07757186144590378, -0.04462385177612305, -1.0603420734405518, 0.014957680366933346, -0.016536802053451538, 0.4831971824169159, 0.362575501203537, -0.13570009171962738, -0.24420712888240814, -0.040178146213293076, 1.334506869316101, -0.14999030530452728, -0.1773732751607895, 0.1013457179069519, -0.42779985070228577, -0.061062876135110855, -0.07613831013441086, 0.02883792109787464, -0.09149462729692459, 0.05278034880757332, 0.01938489079475403, 0.12650837004184723, 0.07095818966627121, -0.10315290838479996, -0.029035182669758797, -0.06873113662004471, 0.22199703752994537, -0.10923358052968979, -0.026735810562968254, 0.049229975789785385, -0.13770733773708344, 0.08487271517515182, -0.004532042425125837, -0.05254976078867912, -0.034479618072509766, 0.19629718363285065, -0.08990073949098587, 0.008908972144126892, -0.08149039000272751, 0.22425080835819244, -0.03540670871734619, -0.0213022381067276, -0.12951375544071198, -0.017002642154693604, -0.22522951662540436, 0.20396612584590912, 0.15631793439388275, 0.026944736018776894, 0.09873688966035843, -0.39844417572021484, -0.0598638691008091, 0.6805786490440369, -0.39722147583961487, -1.0377142429351807, -0.37569043040275574, -0.2496667057275772, -1.1962289810180664, -0.3258543610572815, 1.0276423692703247, -1.0579020977020264, -0.25174278020858765, -0.5953115820884705, -0.03576204553246498, 0.08933799713850021, 0.19100238382816315, -0.5319653153419495, 0.0652875229716301, 0.049885448068380356, 0.25723811984062195, -0.8523712158203125, 0.19962002336978912, 0.04274464026093483, -0.47272494435310364, 0.6534199714660645, 0.19592247903347015, 0.06974291056394577, -0.07919753342866898, -0.10151637345552444, -0.05383836850523949, -0.0735994502902031, -0.17661535739898682, -0.16240476071834564, -0.14277209341526031, 0.1775578409433365, -0.36159491539001465, -0.794004499912262, 0.12811292707920074, -0.25578734278678894, -0.06856515258550644, -0.12600922584533691, -0.038795050233602524, -0.2691197097301483, 0.3784087598323822, 0.2743457853794098, 0.11577450484037399, -0.06077199801802635, -0.07418297976255417, -0.15224051475524902, 0.06969380378723145, 0.005828395020216703, 0.2530222237110138, -0.01468366477638483, 0.06351233273744583, 0.039081037044525146, -0.038482487201690674, -0.15280339121818542, -0.14650402963161469, -0.1044764444231987, 0.00056868651881814, 0.028851239010691643, -0.08618026226758957, 0.09437067061662674, -0.002951301634311676, 0.22078798711299896, 0.03507772460579872, 0.03129583224654198, 0.04739278927445412, 0.08257441967725754, 0.17457593977451324, 0.05134900286793709, 0.03868100792169571, -0.24059587717056274, -0.012211785651743412, 0.08980625122785568, -0.1522241085767746, -0.26540297269821167, 0.04104474186897278, 0.048204630613327026, 0.09993735700845718, 0.14329038560390472, 0.07230515033006668, 0.10638505220413208, 0.0032724139746278524, -0.2161594182252884, -0.02412949688732624, 0.06271059066057205, -0.0443115234375, -0.30689260363578796, -0.0021666924003511667, -0.0553094781935215, -0.36432504653930664, -0.573275625705719, 0.18399257957935333, -0.5659505128860474, -0.12268874049186707, -1.0773223638534546, -0.00502105662599206, 0.4829973876476288, 0.7082171440124512, -0.8576173186302185, 1.0566214323043823, -0.4770665466785431, 0.40690991282463074, 0.043473366647958755, -0.06721346825361252, 0.06143229827284813, 1.33830988407135, 0.0033892940264195204, 0.1108386442065239, 0.30608129501342773, 0.6212849020957947, 0.03585213050246239, -0.22792457044124603, -0.17915131151676178, -0.016991524025797844, -0.1507568508386612, 0.047612667083740234, -0.3665628433227539, 1.0034083127975464, -0.09512209892272949, 0.14273642003536224, -0.3676016330718994, 0.10027433186769485, -0.06260795146226883, 0.10481008142232895, 0.050890784710645676, 0.5357560515403748, -0.16961060464382172, 0.03168633580207825, 0.3264940083026886, 0.6416974663734436, -0.07641338557004929, -0.05549329146742821, 0.17899620532989502, -0.03211759775876999, 0.08343976736068726, 0.1273956447839737, 0.17516569793224335, 0.9994850754737854, -0.07188291102647781, -0.017541350796818733, 0.21456767618656158, -0.09674987941980362, 0.06486398726701736, 0.204876109957695, 0.4973964989185333, 0.9637784361839294, -0.09853614121675491, 0.02695918269455433, -0.02795383520424366, 0.06423848122358322, 0.02961483784019947, 0.007387251127511263, -0.05416249856352806, -0.12944427132606506, -0.12494135648012161, -0.16830001771450043, 0.0729345753788948, -0.12177502363920212, 0.01466828677803278, -0.08884703367948532, 0.19304688274860382, 0.06359118968248367, -0.03864913806319237, 0.04074392095208168, -0.14593073725700378, -0.22629620134830475, -0.08824027329683304, 0.01742965169250965, -0.08135659247636795, -0.07777673751115799, 0.17770527303218842, 0.04274189844727516, -0.1670801192522049, -0.11779951304197311, 0.1455075591802597, -0.09758525341749191, -0.2073793262243271, -0.08788829296827316, 0.01657251827418804, -0.029511453583836555, -0.23814494907855988, -0.07978690415620804, 0.30818653106689453, -0.045931126922369, -0.6711035370826721, -1.7085570096969604, -0.2525167763233185, 0.7357320189476013, -0.9083926677703857, -0.1204356849193573, 0.6037949323654175, -0.2482425570487976, 0.4894051253795624, 0.02289530821144581, 0.10455333441495895, 0.8237523436546326, -0.10278178006410599, -0.12287689000368118, 0.08151751011610031, 0.7086796760559082, 0.5932689309120178, -0.024470744654536247, -0.025668034330010414, -0.10696252435445786, 0.5549187064170837, -0.13700102269649506, -0.07347852736711502, -1.01874840259552, -0.0642307922244072, -0.10388016700744629, 0.01647154800593853, -1.0833598375320435, -0.5327768921852112, -0.03085234947502613, -0.08693455904722214, -0.49273303151130676, 0.7339830994606018, -0.10448388010263443, 0.17311178147792816, -0.9797131419181824, -0.23082129657268524, -0.014669566415250301, -0.03466230258345604, 0.8461806178092957, -0.19849932193756104, 0.07674854248762131, 0.1258111149072647, 0.15439066290855408, -1.2354389429092407, -0.019818244501948357, -0.004276714753359556, 0.04841392859816551, 0.197504922747612, 0.08131664246320724, -0.061502281576395035, 1.1454640626907349, 0.6095976233482361, 0.1267550140619278, -0.11502670496702194, 0.09678123146295547, -0.14662490785121918, 0.11542045325040817, -0.07980512827634811, 0.036448635160923004, 0.039043162018060684, 0.02660696767270565, 0.09362298250198364, -0.040995415300130844, 0.1063123568892479, -0.06639944761991501, 0.14783622324466705, 0.14674629271030426, -0.4064694941043854, 0.06480031460523605, 0.031974103301763535, -0.025906743481755257, -0.011982587166130543, -0.11331070214509964, 0.08839071542024612, 0.010368377901613712, 0.1326368898153305, 0.026301056146621704, -0.1791353076696396, -0.18537652492523193, 0.11547780781984329, 0.04260087385773659, -0.09195227175951004, 0.08945716172456741, 0.24872399866580963, 0.025837333872914314, 0.289593905210495, -0.8721014857292175, -0.6748890280723572, -0.2798977196216583, -0.5392780900001526, 0.3017583191394806, -0.3754262626171112, 0.38242825865745544, -0.6528730988502502, 0.2318553328514099, 0.44508978724479675, 0.36521434783935547, -0.7176470160484314, -1.409143328666687, -0.07916759699583054, 0.18021346628665924, -0.7666345238685608, -0.6582227349281311, 0.1847863346338272, 0.035974714905023575, -0.02316194586455822, 0.49848511815071106, 0.11280561238527298, 0.020817024633288383, -0.0841565728187561, -0.6026864051818848, -0.027797279879450798, -0.015445648692548275, 0.5418655276298523, 0.395216703414917, 0.18175791203975677, 0.1079154834151268, 0.717763364315033, 0.8439936637878418, -0.12624822556972504, -0.07439875602722168, -0.7222924828529358, -0.9599139094352722, -0.14142335951328278, -0.01519011054188013, -0.04592009261250496, -0.24730783700942993, -0.014167682267725468, -0.12246561795473099, -0.530734658241272, -0.3876647651195526, 0.08422673493623734, 0.274809867143631, 0.679222047328949, 0.8186585307121277, -0.09236066788434982, -0.11552918702363968, -1.0073282718658447, -0.804337203502655, 0.19909478724002838, -0.02121168188750744, 0.00023985026928130537, 0.1852572113275528, -0.06915230304002762, 0.015185012482106686, 0.20255644619464874, 0.10333853960037231, 0.1168292686343193, 0.056293610483407974, 0.03808814659714699, -0.09559189528226852, 0.03570011630654335, -0.15213657915592194, 0.0059931171126663685, 0.18730442225933075, -0.00012468862405512482, -0.11447620391845703, 0.6037425398826599, 0.05133523419499397, 0.019598381593823433, 0.08964674919843674, -0.26164552569389343, -0.09840261936187744, 0.05226195231080055, 0.06578183174133301, 0.11773251742124557, 0.11280060559511185, 0.07360904663801193, 0.12752020359039307, 0.047208841890096664, -0.03450411185622215, -0.08331888914108276, -0.008306964300572872, -0.12622641026973724, -0.15444062650203705, -0.02428746223449707, 0.0830877497792244, -0.8273849487304688, -0.05031454190611839, 1.104345440864563, 0.09445178508758545, -0.7887210249900818, -0.7521346211433411, -0.39635372161865234, 0.3148338198661804, 0.08269251137971878, 0.08465098589658737, 1.326871633529663, 0.9796364903450012, 0.20080707967281342, 0.2840001881122589, -0.057778239250183105, -0.5860824584960938, -0.7167310118675232, 0.1320200115442276, 0.09789079427719116, 0.001627531019039452, 0.2929864525794983, 0.05277416110038757, -0.08560710400342941, -1.040566325187683, 0.35044243931770325, -0.027266057208180428, -0.0828639343380928, 0.09317823499441147, 0.5015928149223328, 0.12484525889158249, -0.03622424229979515, -0.4967503249645233, 0.15753337740898132, 0.036440785974264145, 0.08538740873336792, -0.1819772571325302, -0.9779326915740967, 0.04555201902985573, -0.05434548854827881, -0.056781668215990067, 0.15879389643669128, -0.028948547318577766, -0.044357750564813614, 0.4474422037601471, 0.05748218670487404, 0.03740603104233742, -0.06393551826477051, -0.17169535160064697, -1.0133590698242188, 0.10298358649015427, -0.07392258197069168, 1.2401608228683472, 0.9492397308349609, -0.10834089666604996, 0.10723782330751419, 0.13298888504505157, -0.19516372680664062, -0.04359087347984314, -0.11744462698698044, 0.14705036580562592, 0.14634886384010315, 0.026836344972252846, -0.052286144345998764, -0.11388728022575378, -0.18148350715637207, -0.13216935098171234, -0.032907191663980484, -0.04246130213141441, -0.12266064435243607, -0.015925871208310127, -0.1010698676109314, -0.0360858328640461, -0.08564139157533646, -0.05662602558732033, -0.007908902131021023, 0.13016937673091888, -0.12920606136322021, 0.08547145873308182, -0.0664151981472969, -0.07431637495756149, 0.23381207883358002, 0.04677613452076912, 0.18395088613033295, 0.08824343234300613, 0.07678282260894775, 0.15203668177127838, -0.020248429849743843, 0.0061853197403252125, 0.1104496642947197, -0.0327441431581974, -0.0401112399995327, 0.3720223605632782, -0.10362850874662399, 0.4649401009082794, -0.5081353783607483, -1.1707020998001099, 0.3630525767803192, -0.7683934569358826, 0.13439108431339264, -0.5360308289527893, 0.39287427067756653, -1.0115996599197388, -0.4508999288082123, 1.0875834226608276, 0.050597187131643295, -0.0033008356112986803, -0.11664878576993942, -0.23469088971614838, -0.04913092032074928, -0.2052648812532425, -0.20793724060058594, -0.6457647681236267, 0.1204834058880806, 0.030638454481959343, -0.34019017219543457, 0.10177596658468246, -0.02489415742456913, 0.06540273874998093, 0.40137800574302673, -0.37117621302604675, 0.24661467969417572, 0.027276376262307167, 0.3648543059825897, -0.10290388017892838, 0.1110619381070137, -0.023418409749865532, 0.11574161797761917, 0.3447727859020233, 0.06946790963411331, 0.09568964689970016, 0.10262054204940796, -1.167830228805542, 0.05423182621598244, -0.08966737240552902, -0.23421980440616608, 0.04891956225037575, 0.06303954869508743, -0.004277214873582125, -0.3888706862926483, -0.07234614342451096, -0.13788475096225739, 0.13105355203151703, 0.008062085136771202, -1.0391494035720825, 0.10174465924501419, 0.01620107889175415, -0.2250545769929886, -1.1348989009857178, 0.007758944761008024, -0.0038975554052740335, 0.11781800538301468, 0.019439633935689926, -0.13342154026031494, -0.07488583773374557, -0.14296941459178925, -0.15300120413303375, 0.16360174119472504, -0.126814603805542, -0.006133553106337786, 0.019509553909301758, -0.14750753343105316, 0.07524525374174118, -0.09157825261354446, -0.29328352212905884, -0.14803959429264069, 0.06506430357694626, -0.003965599928051233, 0.37268590927124023, 0.14660979807376862, 0.07501768320798874, 0.032277967780828476, -0.011852175928652287, 0.04494929313659668, 0.02543640322983265, 0.0007757048006169498, -0.02140355110168457, -0.005629911553114653, -0.02778535895049572, 0.016027236357331276, 0.03252721577882767, -0.026858657598495483, 0.013151268474757671, -0.37647032737731934, -0.3755054771900177, 0.059318799525499344, -0.17267747223377228, -0.12772192060947418, -1.9083632230758667, -0.19335196912288666, -0.38145971298217773, -0.4203071892261505, -0.1027710810303688, -1.6662635803222656, 0.47275272011756897, -0.5444784760475159, -0.04319476708769798, -0.15922047197818756, -0.19263207912445068, 0.7034034132957458, -0.0823785588145256, 0.031197132542729378, 0.024162784218788147, -0.39388105273246765, 0.07130897045135498, -0.024817703291773796, -0.10559233278036118, 1.4222594499588013, -0.08443146198987961, -0.09283392876386642, 0.131039097905159, -0.3601393401622772, -0.0010712648509070277, -0.03157883509993553, 0.1599508821964264, -0.5892671346664429, -0.03686779737472534, 0.010743462480604649, -0.29279476404190063, -0.15305449068546295, -0.025143412873148918, 0.081328384578228, 0.03609335795044899, 0.06455672532320023, 0.17515753209590912, -0.0028707568999379873, -0.4709213674068451, -0.9533922672271729, 0.2193567007780075, -0.17603160440921783, 0.9000092148780823, 0.03330615907907486, 0.0892750546336174, 0.050974901765584946, 1.3822096586227417, 1.7452741861343384, 0.10665150731801987, -0.022897420451045036, 0.5904831290245056, 0.42958101630210876, -0.033293187618255615, 0.03604975715279579, 0.1945347785949707, 0.026627004146575928, 0.06707180291414261, -0.007747642230242491, -0.1295626312494278, -0.1390213519334793, -0.16514350473880768, -0.1604257971048355, 0.13300858438014984, 0.109162338078022, 0.06469667702913284, -0.036722008138895035, -0.013750404119491577, -0.04439738765358925, -0.06335163861513138, -0.057969871908426285, 0.1999235898256302, 0.045085277408361435, 0.04066663607954979, 0.0502035915851593, 0.15759442746639252, -0.05616467818617821, -0.03165915980935097, 0.17680715024471283, -0.1293991059064865, 0.04231518134474754, -0.1528414636850357, -0.05244090035557747, 0.03174971789121628, -0.14569853246212006, -0.004165526945143938, 0.07231467217206955, 0.31925445795059204, 0.01315607875585556, 1.142232894897461, -0.41727641224861145, -1.4343987703323364, 0.4956074059009552, -2.1927239894866943, 1.0688560009002686, 1.4103947877883911, 0.14033900201320648, 0.3816770017147064, -0.24132846295833588, -0.35375407338142395, -0.013416563160717487, 0.01898312382400036, 0.5150322318077087, 1.5948625802993774, -0.2002079337835312, -0.22475861012935638, 0.6876279711723328, 0.06786400824785233, 0.12253154069185257, 0.020084349438548088, -0.4161181151866913, 0.6149907112121582, -0.04640892520546913, -0.10297263413667679, -0.5982438921928406, -0.5710756182670593, 0.09242164343595505, 0.007696316111832857, 0.16588501632213593, 0.28786230087280273, 0.10018793493509293, -0.14882276952266693, -1.1218663454055786, -0.16475439071655273, 0.017353294417262077, 0.14472626149654388, -0.3278077244758606, -0.5483736395835876, -0.0922861099243164, -0.02135409228503704, 0.28681710362434387, 0.4176907241344452, 0.0179643202573061, -0.1607220321893692, 0.5664423108100891, -0.5808876752853394, -0.1302405744791031, -0.04471570625901222, 0.13608159124851227, -0.8917436599731445, -0.07398880273103714, -0.034718211740255356, 0.1787034422159195, -0.11849537491798401, 0.07042700052261353, -0.013810918666422367, 0.159138485789299, 0.12462484836578369, -0.09888339787721634, 0.1531618982553482, 0.1062161847949028, 0.14055003225803375, 0.07937436550855637, 0.1389894336462021, 0.15910325944423676, -0.08081800490617752, -0.16549180448055267, 0.11768078058958054, 0.1684117168188095, 0.1196751520037651, 0.027507545426487923, 0.0904264971613884, -0.23092055320739746, 0.1390773355960846, 0.03424128517508507, 0.011795640923082829, -0.07181502133607864, -0.05770963057875633, 0.005224771331995726, -0.1378924697637558, 0.16304679214954376, -0.036205802112817764, 0.12834642827510834, 0.01517163123935461, -0.1262035220861435, -0.3920483887195587, 0.024446966126561165, 0.20144431293010712, -0.32984665036201477, -0.5650114417076111, 0.458128422498703, -0.6196527481079102, -0.07714188098907471, -0.2838539481163025, -0.27312594652175903, -0.4951840937137604, 1.275145411491394, 0.43329527974128723, -0.31712228059768677, -0.6078506708145142, -0.027946950867772102, -0.17388296127319336, 0.013724193908274174, -0.4128853380680084, -1.3880854845046997, -0.09114284068346024, 0.07840918749570847, 0.2175583690404892, -0.8683390617370605, -0.1492917686700821, 0.0885302945971489, -0.07460032403469086, -0.715425968170166, 0.028162213042378426, 0.22407864034175873, -0.2596326172351837, -0.16548414528369904, 0.07389294356107712, 0.022992195561528206, -2.3418126147589646e-05, -0.16615839302539825, 0.03569262847304344, 0.09199195355176926, -0.39908504486083984, 0.277324378490448, -0.17917585372924805, 0.02496039681136608, -0.5555828809738159, -0.487970232963562, 0.061532143503427505, 0.1111595556139946, 0.524386465549469, 0.39869245886802673, -0.048739586025476456, -0.0032108400482684374, 0.5443187355995178, -0.6357344388961792, -0.04698833450675011, -0.11588739603757858, 0.04867047071456909, -1.4645272493362427, 0.0404626689851284, -0.005318731535226107, 0.9748688340187073, 1.1442104578018188, -0.24221181869506836, 0.14576993882656097, 0.029207417741417885, -0.057074885815382004, 0.13694776594638824, -0.23409058153629303, -0.10081207007169724, 0.051765259355306625, -0.05626005306839943, 0.08539474755525589, 0.041716307401657104, -0.0729813501238823, -0.0953594371676445, 0.10176102072000504, 0.23802679777145386, 0.2750939726829529, 0.018615705892443657, 0.12987007200717926, -0.054970141500234604, 0.09185933321714401, -0.13995195925235748, 0.004465178120881319, 0.16436050832271576, -0.10270384699106216, -0.024241775274276733, -0.06223195418715477, 0.14979387819766998, 0.11434312909841537, -0.05333718657493591, -0.054262369871139526, 0.09444690495729446, 0.009816613979637623, 0.03208288922905922, -0.06099599227309227, -0.5106201767921448, -0.3774509131908417, 0.341720312833786, -0.13559210300445557, -0.165101557970047, -0.39736703038215637, 0.3336780369281769, 0.7452066540718079, -1.2364364862442017, -0.3127795159816742, -1.236049771308899, 0.25292912125587463, 0.6960053443908691, 0.06150895729660988, -0.06883174180984497, -0.11517790704965591, -0.25650519132614136, 0.016310645267367363, -0.19017110764980316, -0.19687475264072418, -0.5189922451972961, -0.03778267279267311, 0.048232968896627426, -0.04701095446944237, 0.45744720101356506, -0.12800049781799316, -0.05378969386219978, 0.0848127081990242, -0.10779651254415512, -0.2075224071741104, 0.22298026084899902, -0.0566026009619236, -0.8866497874259949, 0.12645719945430756, -0.20879842340946198, -0.04062342271208763, 0.8349793553352356, 0.10570014268159866, 0.10034442692995071, -0.2767429053783417, 1.4509812593460083, -0.15443287789821625, 0.022565675899386406, 0.7157803177833557, 0.1704033762216568, 0.22303436696529388, 0.1855299323797226, -0.5861831903457642, -0.30071666836738586, 0.1520472913980484, -0.09210670739412308, -0.596831202507019, -1.2442474365234375, 0.12251580506563187, 0.11604081839323044, 0.1540149301290512, -0.4215550720691681, -0.05952787026762962, 0.006663225591182709, 0.06068486347794533, -0.02838040143251419, -0.11692310124635696, 0.03917866572737694, -0.1029595211148262, 0.16748511791229248, 0.063167504966259, 0.07024718075990677, 0.10731147974729538, -0.01546499039977789, 0.05912875756621361, 0.04715415835380554, 0.03917691856622696, -0.057434793561697006, -0.05463317036628723, -0.004449229221791029, 0.10038746148347855, 0.46072185039520264, -0.01803422160446644, -0.0173263531178236, -0.0014703205088153481, -0.025570228695869446, 0.10476719588041306, -0.016224177554249763, 0.077507384121418, 0.3140271008014679, 0.03029760904610157, 0.11471235007047653, 0.033228252083063126, -0.07060594111680984, 0.00689243758097291, -0.26932528614997864, 0.021666988730430603, -0.23387163877487183, -0.24754150211811066, -0.26463183760643005, 0.22724859416484833, -1.0853936672210693, 1.0282421112060547, 1.4521921873092651, -0.9450109004974365, -1.2006418704986572, -1.316253900527954, -0.7505199313163757, 0.2951900362968445, -0.10405374318361282, 0.03159433230757713, -0.3959008753299713, 0.17609815299510956, -0.05571889504790306, -0.06499480456113815, 0.14027860760688782, 0.9586489200592041, -0.035873863846063614, 0.13684488832950592, -0.4613742530345917, 0.11907872557640076, -0.08982963114976883, 0.07687593251466751, 0.10603546351194382, -0.07078437507152557, -0.034380730241537094, -0.12784217298030853, 0.690708339214325, 0.16954921185970306, 0.08758961409330368, 0.09229468554258347, -0.743965208530426, -0.5793375968933105, -0.14854632318019867, 0.17710472643375397, 0.18581245839595795, -0.272614985704422, 0.07333136349916458, -0.07793157547712326, -0.03300696983933449, 0.21598051488399506, -0.0033319927752017975, 0.14345775544643402, 0.4843321144580841, 0.6512631773948669, 0.14367951452732086, 0.038378242403268814, -0.4726303517818451, 1.2951232194900513, 0.04619196429848671, -0.08539081364870071, -0.5281573534011841, -0.5880102515220642, -0.1006549522280693, -0.04947784170508385, 0.07984577864408493, 0.10949373990297318, -0.12538661062717438, 0.007775485515594482, -0.0986873134970665, 0.06773462146520615, 0.01571771502494812, -0.11105407029390335, -0.09389793127775192, 0.014407173730432987, 0.11980462819337845, -0.22441790997982025, 0.3093259036540985, 0.24710911512374878, -0.08768730610609055, -0.18083296716213226, -0.26813942193984985, 0.2870764434337616, 0.011693686246871948, 0.09042328596115112, -0.14599941670894623, 0.05575114116072655, -0.03000328131020069, -0.06297052651643753, -0.060838621109724045, -0.3444683849811554, -0.0532982312142849, 0.04312014579772949, 0.01960945315659046, 0.08257414400577545, -0.04619825258851051, -0.0028153916355222464, -0.6040592789649963, -0.5622835755348206, 0.8754387497901917, -0.1975545436143875, -0.7514705657958984, -0.1149134635925293, -0.12433945387601852, 0.41946569085121155, 0.6245971918106079, 0.07767211645841599, 0.5806583166122437, -0.5161124467849731, 0.0983319878578186, -0.07192570716142654, -0.05486925318837166, 0.10929466038942337, -0.12380313128232956, -0.07089156657457352, 0.16686487197875977, -0.07620953768491745, 0.37105080485343933, -0.05116233229637146, -0.03148313984274864, -0.4559989273548126, 0.07009164988994598, 0.06078476086258888, -0.2169925421476364, -0.722507894039154, -1.7256375551223755, 0.23385955393314362, -0.0014879890950396657, 0.4690060615539551, 0.56378173828125, 0.040214862674474716, 0.09977561980485916, -0.25207850337028503, 0.11719568818807602, 0.1102571114897728, 0.1340784877538681, 0.5637537240982056, 1.1578881740570068, -0.11423253268003464, 0.06462907046079636, -0.0426262728869915, -0.2918204963207245, 0.0966188982129097, 0.09321636706590652, 0.026920350268483162, 0.12387797236442566, 0.02448725514113903, 0.13373540341854095, -0.0057581462897360325, -0.7068877816200256, -0.07761716097593307, 0.11290157586336136, 0.10016745328903198, -0.975034773349762, -0.14635039865970612, -0.03900688514113426, -0.018110331147909164, -0.055003803223371506, -0.04901723191142082, 0.15713654458522797, -0.053681131452322006, 0.019942911341786385, -0.026682958006858826, -0.13895724713802338, 0.09739255160093307, -0.12377799302339554, -0.0035923232790082693, -0.21483825147151947, 0.23351503908634186, -0.26543307304382324, 0.1384425014257431, -0.0446624718606472, -0.1935955286026001, -0.20974524319171906, -0.05136849358677864, -0.20605064928531647, 0.07188021391630173, 0.21326732635498047, -0.1336679309606552, 0.11205732077360153, -0.015319262631237507, 0.01194994617253542, 0.023925574496388435, -0.030687956139445305, 0.12803661823272705, 0.26246875524520874, -0.15005920827388763, -0.08122087270021439, -0.7960338592529297, -0.5842633843421936, 0.11155366897583008, -0.4775114357471466, 0.06094561144709587, -0.26993680000305176, 0.48274990916252136, -0.9601615071296692, 0.48649391531944275, 0.07330037653446198, 0.13417650759220123, -0.25907984375953674, 0.0994715765118599, -0.010308884084224701, 0.02908634953200817, -0.19331254065036774, 0.46702292561531067, 0.15585459768772125, -0.05506265535950661, -0.07744644582271576, 0.2656324505805969, -0.020860610529780388, -0.05112228915095329, -0.4767131805419922, 0.4614351689815521, 0.06905179470777512, -0.1449972540140152, 0.2130429595708847, -0.2088828831911087, -0.17919208109378815, -0.18681681156158447, 0.10549795627593994, -0.643717885017395, 0.12445782870054245, 0.05500425770878792, 0.09397410601377487, -0.6443546414375305, -0.2989850342273712, 0.13942551612854004, -0.01730179972946644, 0.7843970656394958, 0.10746888071298599, 0.061848219484090805, -0.18472886085510254, 0.04955044761300087, -0.0729571059346199, -0.06530816107988358, 0.02199934609234333, -0.27997538447380066, -0.01936751790344715, -0.017259446904063225, 0.10032781213521957, 0.48515379428863525, 0.014078051783144474, -0.06256736069917679, -0.2997259497642517, -0.9134673476219177, -0.08393173664808273, -0.056205686181783676, -0.07691662758588791, -0.20850174129009247, 0.1892709881067276, 0.03501760587096214, -0.1472311168909073, -0.000659173761960119, 0.0842672660946846, -0.019578488543629646, 0.06921183317899704, 0.007134288549423218, -0.09905175119638443, -0.07962489128112793, -0.006689745932817459, -0.06256017833948135, -0.07985072582960129, 0.05923420563340187, 0.06689803302288055, -0.019336814060807228, 0.00943546649068594, 0.1805741935968399, -0.057868774980306625, 0.0681183859705925, 0.026318849995732307, 0.11226177960634232, -0.031583309173583984, -0.12928414344787598, -0.05119049921631813, 0.0172909963876009, 0.02144181914627552, -0.17879821360111237, 0.027461310848593712, 0.15196919441223145, -0.3534350097179413, -0.6914916038513184, 0.08789832144975662, -0.761102020740509, -0.3239505887031555, -1.0103777647018433, -0.5918077826499939, -0.07103008776903152, 0.06751473248004913, 0.3496878445148468, 0.5616148710250854, -0.32470250129699707, 1.2330236434936523, -0.018638191744685173, -0.1280679553747177, -0.3472323715686798, -0.5055580139160156, 0.08308886736631393, -0.11821473389863968, 0.42395129799842834, -0.1413213312625885, 0.03332405909895897, -0.24497388303279877, -0.7325434684753418, 0.2173609584569931, -0.2136356681585312, -0.15665696561336517, -0.7500729560852051, 0.5857599377632141, -0.1639871746301651, -0.024471566081047058, -0.9358815550804138, -0.20857860147953033, -0.15919993817806244, 0.11208904534578323, 0.03463122993707657, -0.18176569044589996, 0.09881985932588577, -0.1040377989411354, -0.21810029447078705, 0.38952532410621643, 0.10303386300802231, -0.18251682817935944, 0.49324658513069153, 0.13676705956459045, -0.09719892591238022, 0.07732255011796951, 0.7853499054908752, 0.6444762945175171, 0.1545279175043106, -0.11026924848556519, -0.19245533645153046, -1.2796084880828857, 0.041745301336050034, 0.0065940022468566895, 0.48385146260261536, 0.6824097633361816, 0.07526355236768723, 0.0740857645869255, 0.17106854915618896, -0.14670708775520325, -0.1531522125005722, 0.2889048755168915, -0.13616438210010529, 0.10056415945291519, -0.014616535045206547, 0.04725535586476326, 0.011001759208738804, 0.0779770091176033, -0.06548739224672318, 0.1275329738855362, 0.4707632064819336, 0.07563437521457672, 0.11505316942930222, -0.04185551032423973, -0.07945920526981354, -0.026302417740225792, -0.013951747678220272, 0.0642012283205986, 0.14221499860286713, 0.14257682859897614, 0.14281165599822998, -0.1407398134469986, -0.10649324208498001, 0.153921976685524, -0.10569573193788528, -0.11916755884885788, 0.27835771441459656, 0.3735640347003937, 0.053251225501298904, 0.14860986173152924, 0.6825560927391052, -0.19545488059520721, 0.4502321779727936, -0.5290600061416626, -0.3343341648578644, -0.4911332428455353, -0.7967687249183655, -1.432244896888733, 1.285558819770813, 0.1542734056711197, 0.40019798278808594, -0.7163987755775452, 0.2505384087562561, 0.047468286007642746, -0.15898846089839935, 0.8358516097068787, -1.0132297277450562, 0.1496427208185196, -0.04506290331482887, 0.5151301622390747, 0.16129957139492035, 0.09141445904970169, -0.05252069607377052, -0.40137943625450134, 0.5809602737426758, 0.05222756043076515, 0.040087584406137466, -0.7027860283851624, 0.12993572652339935, 0.013012334704399109, -0.166260227560997, 0.3305831253528595, 1.2170716524124146, 0.09430091828107834, -0.12430690973997116, -1.0991400480270386, -0.4160397946834564, 0.09504150599241257, -0.046692315489053726, -0.4181857407093048, 0.20470617711544037, 0.04567927494645119, 0.24461723864078522, 0.6685407757759094, 1.2441433668136597, 0.03897083178162575, -0.07170623540878296, 0.18682871758937836, 0.7285199165344238, 0.12230812758207321, 0.1521754413843155, -0.2897171676158905, -0.237884521484375, -0.0017943400889635086, 0.014770491980016232, 0.5779420137405396, 0.9167481064796448, 0.06934273988008499, 0.03247755393385887, -0.0550500750541687, 0.14647485315799713, -0.057879868894815445, -0.09082866460084915, 0.1128365695476532, -0.06568269431591034, 0.17262722551822662, 0.09114953130483627, 0.03286895528435707, -0.07109249383211136, -0.03703436627984047, 0.09233402460813522, 0.2936400771141052, 0.0003478217695374042, 0.06137264147400856, 0.01796072907745838, 0.08092325925827026, -0.05758827552199364, 0.04406541585922241, 0.11851060390472412, 0.11525475233793259, 0.1906789392232895, -0.20515544712543488, 0.0970844104886055, 0.06430672109127045, 0.11520898342132568, 0.12546883523464203, -0.10155455023050308, -0.007220163941383362, -0.13368067145347595, -0.09691525250673294, 0.05241399630904198, -0.35327795147895813, -0.556821882724762, 0.028436807915568352, -0.6318992972373962, 0.08150797337293625, -0.4807595908641815, 0.6710720658302307, -0.0982409119606018, -0.08379025012254715, 1.050180196762085, -0.07300354540348053, -0.045608263462781906, 0.5478610396385193, -0.17879198491573334, -0.11717747896909714, 0.30912312865257263, -0.09106779843568802, 0.0733991339802742, 0.24170635640621185, 0.45214036107063293, -1.0782544612884521, -0.12143195420503616, -0.10622712224721909, -0.3045029044151306, 0.04192030802369118, 0.19505293667316437, -0.10779281705617905, 0.021464897319674492, -0.032880160957574844, -0.18866942822933197, 0.05160272493958473, -0.3308335244655609, 0.34124755859375, -0.06719475239515305, 0.09530007094144821, 0.2820740342140198, 0.6266202926635742, -0.14276836812496185, -0.004403114318847656, -0.2983262240886688, -0.8478432297706604, -0.11287582665681839, -0.043405260890722275, 0.05814891681075096, 0.7873868346214294, -0.12785981595516205, -0.1435101181268692, 0.0017598214326426387, 1.3475559949874878, 0.06266175955533981, 0.10684084892272949, 1.0369263887405396, -0.04256201162934303, 0.025459488853812218, -0.06625055521726608, 0.11983692646026611, 0.7834763526916504, 0.0038400220219045877, -0.041101131588220596, 0.1143510714173317, -0.046544399112463, -0.1329130083322525, -0.05446740984916687, -0.025528252124786377, -0.03166141360998154, -0.013643823564052582, 0.15569902956485748, 0.14108921587467194, -0.1890457421541214, 0.006500429939478636, -0.20028026401996613, -0.042363714426755905, -0.25513532757759094, 0.09720908850431442, -0.053189631551504135, 0.07029061764478683, -0.08999990671873093, 0.002680875128135085, 0.0760415717959404, -0.10577207803726196, 0.12086235731840134, 0.1071658506989479, 0.0318719744682312, -0.07308206707239151, 0.009337961673736572, -0.05631261691451073, 0.041981786489486694, 0.016663653776049614, 0.04449034854769707, -0.10487142950296402, -0.1487741619348526, -0.6549710631370544, -0.5453549027442932, 0.04519945755600929, -0.32187777757644653, 0.10292912274599075, -0.8049378395080566, -0.6496472954750061, -0.06581699848175049, 0.41786494851112366, -0.23151612281799316, 0.8388118743896484, 0.41225293278694153, -0.03229888528585434, 0.1324523538351059, 0.04286846145987511, -0.8094186186790466, 0.2735063433647156, 0.19187094271183014, -0.17457129061222076, -0.13664565980434418, 0.8428659439086914, -0.01232107076793909, 0.06534433364868164, -0.42489954829216003, -0.7438536286354065, -0.08155841380357742, 0.04770034924149513, 1.1254745721817017, 0.812583863735199, -0.044119659811258316, 0.043278034776449203, -0.9454459547996521, -1.2962124347686768, -0.0801205113530159, 0.002270200988277793, 0.018601279705762863, 0.7463231086730957, 0.00690506910905242, 0.094151072204113, 0.27295881509780884, -0.14791211485862732, -0.10524237900972366, 0.07612896710634232, -0.6764902472496033, -0.7891930937767029, 0.17367053031921387, -0.036850009113550186, 0.25878268480300903, -0.4122588634490967, -0.022045878693461418, 0.08172131329774857, -0.03690421208739281, -1.2003881931304932, -0.05911200866103172, -0.10650526732206345, 0.3311176002025604, 0.010575837455689907, -0.11385572701692581, 0.1164780929684639, 0.06274282932281494, -0.06229553744196892, 0.07676661759614944, 0.032101333141326904, 0.02646651677787304, -0.11595655232667923, -0.11286710947751999, -0.11947273463010788, 0.0474931038916111, -0.003716286038979888, 0.1295783668756485, 0.005578100215643644, 0.19733475148677826, 0.08752018958330154, -0.15952299535274506, -0.08794229477643967, -0.01108247134834528, -0.1652461141347885, -0.1074899360537529, 0.04121040925383568, 0.10105260461568832, -0.014368831180036068, 0.12159992009401321, -0.08779674023389816, -0.07077426463365555, 0.059042271226644516, -0.11298584192991257, 0.0942147895693779, 0.05353546142578125, 0.4332425594329834, 0.07258128374814987, -0.15644323825836182, -0.8278020024299622, -0.350264310836792, 0.9223482608795166, -0.16087058186531067, -0.3199922442436218, -0.19666339457035065, -0.0005156793631613255, 0.17468832433223724, -0.5769692659378052, 0.7535863518714905, -1.0412490367889404, 0.6017218232154846, -0.5451430082321167, 0.25260376930236816, -0.13627219200134277, -0.21640388667583466, -0.9643478989601135, 0.011138410307466984, 0.15599240362644196, 0.626404345035553, 0.659640371799469, 0.04291393980383873, -0.012738347984850407, -0.26830777525901794, -0.2937328517436981, 0.06921105831861496, 0.18522955477237701, -0.36268946528434753, -0.009350365027785301, 0.04608637094497681, 0.04665398970246315, -0.2667417526245117, 0.48331210017204285, -0.03903213515877724, -0.07837618142366409, 0.5863710045814514, 0.3758625090122223, 0.14495693147182465, -0.006251208949834108, 0.6466199159622192, 0.2430872917175293, 0.16240321099758148, -0.0249767005443573, -0.09631789475679398, -0.06999430805444717, -0.010802365839481354, 0.0940653458237648, 0.5757398009300232, -0.09851130098104477, -0.11194764822721481, -0.00842155423015356, -0.14447830617427826, 0.24324752390384674, 0.07420528680086136, 0.004305619280785322, -0.8242775797843933, 0.062472645193338394, 0.03649255260825157, -0.037390682846307755, -0.121574766933918, 0.03557731956243515, -0.0009004566236399114, 0.02449013851583004, 0.11858654767274857, 0.13211402297019958, -0.20079906284809113, 0.08197856694459915, 0.156260147690773, 0.02510022185742855, 0.027890177443623543, 0.043788257986307144, -0.29018980264663696, 0.28405359387397766, 0.01988960988819599, 0.12533141672611237, -0.014237869530916214, -0.14989027380943298, -0.06638830155134201, -0.01115067396312952, 0.05300204083323479, -0.09633902460336685, 0.1714855283498764, -0.12209772318601608, 0.039238449186086655, 0.052333589643239975, 0.06588060408830643, 0.00013346971536520869, 0.09918340295553207, 0.21740858256816864, 0.10809112340211868, 0.03156835213303566, 0.4645114243030548, 0.3867030143737793, 0.426268607378006, 0.0069045014679431915, -0.09545308351516724, -1.991528868675232, 0.9020081162452698, 0.7135694622993469, -0.8362827897071838, -0.2462175041437149, 1.194778323173523, -0.012795318849384785, -0.6947303414344788, 0.0688057467341423, 0.2228698581457138, -0.012865342199802399, -0.9744128584861755, 0.06755001097917557, 0.1736217588186264, -0.39854899048805237, 0.2188589721918106, -0.007501407992094755, 0.0035060124937444925, -0.36863335967063904, -0.16260848939418793, -0.004065730143338442, -0.09566164761781693, 0.3162820041179657, -0.4932369887828827, -0.040202680975198746, -0.04815283045172691, 0.4386005103588104, 0.05307573080062866, 0.004119426477700472, -0.1372525542974472, 0.9726048111915588, 0.43872323632240295, 0.07350409775972366, -0.025753946974873543, 0.5223022103309631, 0.11771026253700256, 0.12939311563968658, -0.061013754457235336, -0.13112184405326843, -0.2720660865306854, -0.16426967084407806, 0.1431097835302353, -0.11663874238729477, 0.5733775496482849, 0.05596023425459862, 0.01564083807170391, 0.5156665444374084, 0.5582786202430725, -0.041695479303598404, -0.07948935776948929, -0.5343227386474609, 0.5413137674331665, -0.07028329372406006, -0.06831782311201096, -0.005728714168071747, -0.1804744005203247, 0.005625531543046236, 0.13437388837337494, 0.07655225694179535, -0.08258713036775589, 0.05883372202515602, 0.07816290110349655, -0.26892849802970886, -0.0770522877573967, -0.11826776713132858, 0.08725012093782425, 0.1983981877565384, 0.13541272282600403, -0.12518905103206635, 0.05248075723648071, 0.04531151056289673, 0.2776155173778534, 0.005527555476874113, 0.004590087104588747, -0.14689208567142487, 0.2543792426586151, 0.05439219996333122, 0.08599216490983963, 0.1417856067419052, 0.14786246418952942, -0.018271923065185547, 0.04327172413468361, -0.16351710259914398, 0.2542046904563904, -0.03908059373497963, -0.0025861356407403946, -0.6856502890586853, -0.593769907951355, -0.15580032765865326, -0.09735245257616043, 0.41565176844596863, -0.6186543703079224, 1.066042184829712, 0.6898894906044006, -1.3035393953323364, 1.2005728483200073, -1.3123900890350342, -0.06597321480512619, 0.4514766037464142, -0.07956892997026443, 0.06354779005050659, -0.030891725793480873, -1.1507961750030518, -0.10371764749288559, -0.11603892594575882, -0.3251638412475586, -0.27072006464004517, 0.24982881546020508, -0.04340166226029396, -0.6766042113304138, 0.07930408418178558, 0.04177200421690941, -0.06918364763259888, 0.06578076630830765, -0.2714442312717438, -0.02417478896677494, 0.1781461387872696, -0.23391002416610718, 0.1802508682012558, -0.20044271647930145, 0.10909820348024368, -0.08413463085889816, -0.5607475638389587, -0.01280539482831955, -0.007557891774922609, 0.5573340058326721, -0.6279035210609436, -0.13759398460388184, -0.03634661063551903, -0.39024636149406433, -0.5601205229759216, 0.0026315057184547186, -0.02339748479425907, 0.2072748988866806, 0.33499136567115784, -0.12169694155454636, -0.029025880619883537, 1.3667370080947876, 0.8512532114982605, 0.09101318567991257, -0.04846769943833351, -0.38306841254234314, -0.6173641085624695, -0.0293422918766737, 0.026818105950951576, 0.11136367917060852, -0.10153933614492416, 0.04909467324614525, -0.03298408165574074, 0.038227807730436325, 0.0809931606054306, -0.044562216848134995, 0.007468544412404299, 0.028672484681010246, -0.01294469740241766, 0.18172313272953033, 0.04728507995605469, -0.20481418073177338, -0.2047014981508255, -0.0071813915856182575, 0.09607657045125961, 0.22398759424686432, 0.19173915684223175, 0.007015563081949949, 0.06739933043718338, -0.0909578800201416, 0.06599264591932297, 0.07322800904512405, 0.18244530260562897, -0.0774938315153122, -0.2185664027929306, 0.12655435502529144, 0.0224990863353014, -0.181081160902977, -0.1684647649526596, 0.2541155517101288, 0.02437409572303295, -0.1553363800048828, -0.44102904200553894, -0.01424261461943388, -0.7000784277915955, 0.12377313524484634, -1.421655535697937, 0.04317493364214897, 0.42152896523475647, 0.22199328243732452, -0.49462029337882996, -0.6926241517066956, -0.9756737351417542, -0.13605889678001404, -0.0766342356801033, 0.09376906603574753, 0.6200909614562988, 0.021792041137814522, 0.05323803797364235, -0.0032191870268434286, 0.7444151043891907, -1.3437117338180542, 0.05674732103943825, 0.026335565373301506, -0.005924359429627657, -0.017484594136476517, 0.03974362835288048, 0.14500738680362701, -0.1859920769929886, 0.019452961161732674, -0.025403710082173347, 0.12114989012479782, -0.6057733297348022, -0.7793036103248596, -0.010109142400324345, 0.16643951833248138, -0.9575052857398987, 0.6518774628639221, 0.1617077738046646, 0.030290154740214348, -0.9687376618385315, 0.6564344167709351, -0.07840920239686966, 0.016690077260136604, 0.8216075897216797, 0.16949810087680817, -0.1749945878982544, -0.17157672345638275, 0.7651317715644836, 0.3412477970123291, 0.016330866143107414, 0.08268178254365921, 0.016033248975872993, 0.21342022716999054, -0.10404933243989944, 0.08920275419950485, 0.253984272480011, -0.10564637929201126, 0.04684889689087868, -0.15453611314296722, 0.06994996219873428, 0.057283882051706314, 0.07543110102415085, 0.1256934404373169, 0.0003093039558734745, 0.01589408703148365, 0.02569177933037281, -0.08423078805208206, 0.06088119372725487, 0.06141871586441994, 0.055665310472249985, -0.08904039114713669, 0.05296703055500984, -0.4587416350841522, -0.060950104147195816, 0.07068859785795212, 0.15840089321136475, -0.13093659281730652, -0.13309358060359955, -0.021153731271624565, -0.015169799327850342, -0.011800587177276611, 0.06384868174791336, 0.012174307368695736, -0.1977071911096573, -0.04846203699707985, 0.14871500432491302, 0.13069377839565277, 0.3060791790485382, 0.08807910233736038, 0.12820623815059662, 0.06756895035505295, -0.6325282454490662, -0.11814406514167786, 0.29478901624679565, -0.09654306620359421, -0.3573722839355469, -1.4212112426757812, -0.2914752662181854, -0.7233005166053772, -0.9625988602638245, -0.10336529463529587, -0.16291652619838715, 0.1364649385213852, 0.3685050308704376, -0.03250643238425255, -0.051838573068380356, -0.5041847229003906, 0.5947471261024475, 0.03572249040007591, -0.008293204009532928, -0.39826110005378723, 0.178206667304039, -0.15925095975399017, 0.1514512449502945, -0.08514320850372314, 0.4535631835460663, -0.019728662446141243, -0.14963555335998535, 0.4412112236022949, -0.1470043659210205, -0.12473677843809128, -0.14258255064487457, 0.3024674355983734, 0.10541104525327682, 0.06500422954559326, -0.058282677084207535, -0.31998682022094727, -0.717427670955658, -0.0016751977382227778, -0.09266328066587448, 0.658149242401123, 0.44554436206817627, 0.14863084256649017, -0.03832366690039635, -0.3621448576450348, 0.7074589133262634, 0.13197661936283112, -0.11673580855131149, 0.4761667549610138, -0.03421095013618469, -0.19995595514774323, 0.013085599057376385, 0.5136804580688477, -0.41365694999694824, 0.0702623799443245, -0.01422732975333929, -0.1461479812860489, -0.08234371989965439, 0.15470312535762787, -0.16902245581150055, 0.12519896030426025, 0.12800799310207367, -0.08065330237150192, -0.16300761699676514, -0.03976652771234512, -0.0734875351190567, -0.07213997095823288, -0.1736600250005722, 0.028866829350590706, 0.1381201595067978, 0.10297250747680664, -0.03679978474974632, 0.20207880437374115, -0.07479455322027206, -0.07376974076032639, 0.1682891994714737, 0.007776170969009399, -0.07500429451465607, -0.06438518315553665, 0.01422195229679346, -0.054918963462114334, -0.01665342040359974, 0.02103176899254322, 0.06215524300932884, -0.01721831038594246, -0.25244811177253723, -0.03331151232123375, 0.041432175785303116, -0.056332334876060486, 0.13912364840507507, -0.0574762187898159, -0.16926775872707367, -0.7040702700614929, -0.4175321161746979, 0.6178232431411743, -0.25751346349716187, 0.10338541120290756, -0.10349277406930923, 0.7820466160774231, 1.4238795042037964, 0.7723618149757385, -0.20394133031368256, -0.13934718072414398, -0.9553948044776917, -1.3784847259521484, -0.12964583933353424, -0.10754235833883286, -0.07064979523420334, -1.0551186800003052, -0.07181250303983688, -0.03302690014243126, -0.1518833488225937, 1.1775342226028442, 0.0037168001290410757, -0.06279026716947556, -0.18040300905704498, -0.4954911768436432, 0.13401247560977936, -0.05059153214097023, -0.3098330795764923, 0.05488000437617302, 0.23800204694271088, 0.026690194383263588, -0.35709741711616516, -0.3446635901927948, -0.05808817967772484, -0.15531350672245026, -0.9765869975090027, 0.7531327605247498, 0.08193624764680862, 0.11063457280397415, -0.08852612972259521, 0.0979912206530571, 0.10508144646883011, -0.12893567979335785, 0.282466858625412, 0.45031020045280457, 0.021095214411616325, 0.04771718010306358, 0.6526857614517212, -0.12602773308753967, 0.0012491325614973903, -0.039546672254800797, -0.14202286303043365, -0.10897022485733032, -0.16374264657497406, 0.05960768833756447, 0.305483341217041, 0.1323113739490509, 0.059629086405038834, 0.03297514095902443, -0.14231644570827484, -0.22724215686321259, -0.09526515752077103, 0.07597780227661133, 0.07513470947742462, -0.08753765374422073, -0.21932126581668854, 0.050513703376054764, 0.11377834528684616, 0.014570443890988827, 0.13251949846744537, -0.13597561419010162, -0.0767514631152153, 0.20633451640605927, -0.042953912168741226, 0.19153665006160736, -0.08776534348726273, -0.10645664483308792, -0.14629803597927094, -0.14812898635864258, -0.04415241256356239, 0.020957650616765022, 0.07686387747526169, 0.06235789880156517, 0.07712768763303757, -0.1547771841287613, 0.012945533730089664, -0.10336359590291977, -0.12959779798984528, 0.21723461151123047, 0.03571176156401634, -0.05794280767440796, -0.15673957765102386, -0.15252891182899475, 0.6659229397773743, -0.15967558324337006, -0.19197630882263184, -1.191127896308899, -1.1157968044281006, -0.6772245764732361, 0.8981055617332458, -1.6040323972702026, 1.2648839950561523, 0.12100907415151596, 0.5518561601638794, 0.07837141305208206, 0.042733047157526016, -0.03450760617852211, 0.9884156584739685, -0.04548502340912819, -0.06621628999710083, -0.35230496525764465, -1.6958140134811401, -0.015329941175878048, -0.005001016426831484, -0.35480746626853943, 0.034319907426834106, 0.09379226714372635, 0.19445060193538666, -0.43222594261169434, -0.8816903233528137, 0.13744162023067474, -0.050433140248060226, -0.30465933680534363, -0.5936554670333862, -0.25426313281059265, -0.19095994532108307, -0.4260149300098419, -0.342284232378006, 0.027567842975258827, -0.005260333884507418, -0.5132965445518494, -0.1537148803472519, -0.09644628316164017, 0.08159226924180984, -0.08984273672103882, -0.8967993855476379, -0.10791169852018356, 0.07552682608366013, -0.07864551991224289, 0.1658836305141449, -0.09314883500337601, 0.0268085990101099, -0.1656206101179123, -0.4779415428638458, -0.04332875832915306, 0.036091532558202744, 0.02268409915268421, 0.23901890218257904, -0.01564946584403515, -0.08714324980974197, 0.0030042158905416727, -0.08206634968519211, -0.0026096722576767206, 0.014358566142618656, 0.07571762055158615, 0.0980924591422081, 0.05140232667326927, -0.3020782768726349, -0.07548154145479202, 0.02748080901801586, -0.09209399670362473, -0.008108274079859257, 0.26906561851501465, -3.3206306397914886e-06, -0.1325991004705429, 0.10645914822816849, 0.05753696337342262, -0.15994490683078766, 0.03695285692811012, 0.13731692731380463, 0.10231626778841019, -0.11205767840147018, -0.07735776156187057, 0.03322720155119896, -0.05024724826216698, -0.16430488228797913, -0.005073901731520891, 0.05585288628935814, -0.07237698137760162, -0.19412671029567719, 0.02506687305867672, 0.0005303235375322402, -0.8293952345848083, -0.3397347927093506, 0.6013912558555603, -0.6119645833969116, -0.26772019267082214, -0.5364662408828735, -0.021485460922122, 0.009071850217878819, -0.3095123767852783, -0.6614576578140259, -0.734713077545166, 1.2912789583206177, 0.13524308800697327, -0.004343624692410231, 0.0008517252281308174, -0.7524098753929138, 0.5262344479560852, -0.06574899703264236, -0.09534735232591629, -0.30878153443336487, -0.18222497403621674, -0.062389079481363297, -4.3445495975902304e-05, -0.1208333671092987, -0.26936936378479004, -0.10535892099142075, -0.010037912987172604, -0.18469345569610596, -0.3819257318973541, 0.013851090334355831, -0.06626801937818527, 0.4985934793949127, 0.618712306022644, 0.05763697996735573, -0.189878448843956, -0.15102669596672058, -0.965883195400238, -0.05792247876524925, 0.04608616605401039, 0.901823103427887, 0.2607559263706207, 0.036622170358896255, -0.1418025642633438, -0.5484882593154907, -0.18998301029205322, -0.105667345225811, -0.11728347092866898, -0.392654687166214, -0.5696887373924255, 0.1653188318014145, 0.08509618788957596, 0.6372622847557068, 1.8698755502700806, -0.04490360990166664, 0.11296688765287399, -0.6982031464576721, 0.7848358750343323, -0.2356286197900772, 0.06826592236757278, 0.27493759989738464, 0.2104947417974472, -0.021482301875948906, -0.018484322354197502, 0.05006386712193489, 0.015080614946782589, -0.0040992083959281445, -0.09695076197385788, -0.03212752565741539, -0.11992823332548141, -0.0978057011961937, -0.07082850486040115, -0.2811639904975891, 0.34733065962791443, -0.013864492066204548, -0.04604937508702278, 0.02892380766570568, -0.0253961980342865, -0.02735471911728382, -0.034699972718954086, 0.1765599399805069, 0.05928027257323265, -0.08935319632291794, -0.18647749722003937, -0.010793942026793957, 0.18771640956401825, 0.029021648690104485, 0.10820614546537399, -0.022634102031588554, -0.07268064469099045, 0.025585385039448738, 0.011383011005818844, -0.39780035614967346, -0.2571893036365509, 0.8283701539039612, 0.14239145815372467, -0.3345012664794922, -1.356249213218689, -0.19242501258850098, -0.07742375135421753, 0.2027435302734375, -0.5806864500045776, 0.6379035711288452, 0.5318948030471802, -0.3352261483669281, -0.09161826223134995, -0.08368606120347977, 0.7995216250419617, 0.944703996181488, -0.17877794802188873, -0.026601312682032585, -0.3134444057941437, 0.05473627522587776, 0.05996501073241234, -0.00859712902456522, -0.5523943305015564, -0.863872230052948, 0.15452514588832855, 0.10801459103822708, 0.2407226711511612, 1.0511901378631592, -0.0059797693975269794, 0.019162610173225403, 0.3275947868824005, -0.04156344011425972, -0.02208608202636242, 0.00894205179065466, 0.13563255965709686, -0.2746567726135254, -0.012790084816515446, -0.10945535451173782, 0.22605393826961517, -0.5082091689109802, 0.1351999193429947, -0.06696140021085739, -0.18014885485172272, -0.7141780853271484, 0.22513629496097565, 0.007046311628073454, 0.04357662424445152, 0.07467282563447952, 0.015509634278714657, 0.2475104182958603, -0.1399102360010147, -0.8925898671150208, 0.22828151285648346, 0.17794834077358246, 0.039936572313308716, -0.6834545731544495, 0.1800948530435562, 0.20454858243465424, -0.09102871268987656, -0.028677524998784065, -0.22485090792179108, -0.1900797039270401, 0.043291062116622925, 0.07710808515548706, 0.08659922331571579, 0.052702683955430984, -0.03285428509116173, 0.014405758120119572, -0.018910588696599007, 0.0028186964336782694, -0.0913442000746727, 0.14453265070915222, -0.10039373487234116, -0.23947693407535553, 0.08214937150478363, 0.06514335423707962, -0.0911686047911644, 0.029042335227131844, 0.2116122990846634, 0.023965490981936455, -0.07241220027208328, -0.09280364960432053, -0.12887373566627502, -0.06337736546993256, 0.0016352402744814754, 0.0919126346707344, 0.0018027625046670437, 0.17108725011348724, 0.17583058774471283, 0.2700330913066864, -0.3952028751373291, -0.40413567423820496, 0.7205458283424377, -0.2165594846010208, -0.24430543184280396, -1.0628955364227295, 0.15187501907348633, 0.41582539677619934, 0.35180386900901794, -0.5722463726997375, 0.4047265350818634, -0.1485215276479721, 0.36868777871131897, -0.06099003180861473, -0.08564960211515427, 0.3625030517578125, 0.883633553981781, -0.05516276881098747, -0.10539066046476364, 0.5336361527442932, 0.48946189880371094, -0.017989663407206535, -0.09713073819875717, -0.1663665473461151, 0.4704030454158783, 0.09504605084657669, -0.06053293123841286, -0.5966996550559998, -0.12242785841226578, -0.10970541089773178, 0.17793165147304535, -0.42885491251945496, -0.04758724570274353, -0.056536849588155746, 0.05955147370696068, -0.4149760901927948, -0.26783064007759094, -0.06751144677400589, 0.017608031630516052, -0.4872974157333374, -0.7149171233177185, 0.2876003086566925, 0.08922164887189865, 0.42573437094688416, 0.5012317299842834, 0.00873695407062769, -0.09003401547670364, 0.46887490153312683, -0.5240984559059143, 0.04131979122757912, -0.09465848654508591, 0.6236320734024048, 1.0847254991531372, -0.14509309828281403, -0.1717296689748764, -0.21998079121112823, -0.7644053101539612, -0.13514183461666107, 0.003643706673756242, 0.04905979707837105, 0.10075420141220093, 0.0068135191686451435, -0.02602228708565235, -0.0007272791699506342, 0.025674894452095032, 0.06749314069747925, -0.058804746717214584, 0.12486100941896439, 0.16659845411777496, -0.012984995730221272, -0.025743534788489342, 0.43715718388557434, 0.008606940507888794, 0.1654556840658188, 0.11477483063936234, 0.06125074252486229, -0.2384169101715088, -0.11091645807027817, 0.1029781922698021, -0.08536422997713089, -0.04051235690712929, -0.12137424200773239, -0.14241193234920502, -0.2619364559650421, 0.13574229180812836, -0.10570959001779556, 0.1385863870382309, 0.014281882904469967, -0.07085683196783066, -0.06583952158689499, 0.05768870934844017, -0.39367756247520447, -0.22218824923038483, 0.5317292809486389, -0.502644419670105, -0.6882951855659485, -1.8971704244613647, -0.697453498840332, 0.5551074743270874, 0.9591044783592224, -0.761146068572998, 0.7389180064201355, 0.2760680317878723, 0.49825990200042725, -0.03314671292901039, -0.14832735061645508, 0.07475553452968597, -0.13065658509731293, 0.02657952718436718, 0.1299823373556137, 0.06887974590063095, -0.3295263946056366, -0.03175142779946327, 0.00275034480728209, -0.7322357296943665, -0.20116937160491943, -0.028808413073420525, 0.04690122976899147, -0.8614107966423035, -0.6906132102012634, 0.19092418253421783, 0.1316300481557846, 0.0781063362956047, 0.7986531853675842, 0.10075553506612778, 0.062375787645578384, 0.20797084271907806, 1.1198631525039673, -0.20288561284542084, -0.10871585458517075, -0.5665664076805115, -0.4430525302886963, -0.02694092132151127, 0.024399368092417717, 0.8693568110466003, -0.06219537556171417, 0.10988763719797134, 0.03241071105003357, 0.8256291747093201, 1.6308225393295288, 0.022962333634495735, 0.12350023537874222, 0.5213565230369568, -0.15119056403636932, -0.09025537222623825, -0.10965609550476074, 0.4110899269580841, -0.6057471632957458, -0.1696634441614151, -0.04533464089035988, 0.14440642297267914, 0.08725883811712265, -0.05308165028691292, 0.011493162252008915, 0.07855028659105301, -0.017301617190241814, 0.3295261561870575, -0.08950387686491013, 0.009707302786409855, 0.016519321128726006, -0.042487531900405884, -0.16001509130001068, 0.07938986271619797, 0.3092450797557831, 0.05224459990859032, 0.20385973155498505, 0.22002767026424408, -0.08023280650377274, -0.2484588772058487, -0.06768076866865158, 0.0006991876871325076, 0.06929308921098709, -0.3049278259277344, 0.03587842360138893, -0.05492377653717995, 0.0037337616086006165, -0.2055511325597763, -0.00023665395565330982, 0.019265446811914444, -0.42448028922080994, -0.006231389939785004, 0.15667439997196198, -0.06106537953019142, -0.12908720970153809, 0.32910385727882385, -0.5261726975440979, -0.983109712600708, -0.10451237112283707, -0.9763829708099365, -0.0729287788271904, -0.6325746774673462, 0.7437592148780823, -0.09356366842985153, -0.5954164862632751, -0.6910228729248047, -0.057071391493082047, -0.04894096031785011, 0.45726874470710754, 0.5725316405296326, 0.2452557235956192, -0.014651344157755375, -0.8732461929321289, -0.8037290573120117, -0.0812724307179451, -0.1012805625796318, -0.2446892112493515, -0.6669053435325623, -0.022607965394854546, -0.02672266960144043, 0.4376392364501953, -0.17299924790859222, -0.06884824484586716, 0.07488101720809937, -0.7348187565803528, -0.6538525223731995, 0.0668032243847847, 0.018785076215863228, -0.5262519121170044, 0.29244929552078247, -0.13129304349422455, 0.04576307162642479, 0.33458542823791504, 0.31996527314186096, -0.20953519642353058, 0.009636097587645054, -0.24265378713607788, -0.15383902192115784, 0.18941949307918549, 0.18163441121578217, 0.47237953543663025, 0.2282867431640625, -0.050477031618356705, -0.11329733580350876, -0.5931426286697388, 0.5568774938583374, 0.05149232968688011, -0.017365334555506706, -0.4098125994205475, 1.0246751308441162, 0.31842806935310364, -0.02003970928490162, 0.11428932100534439, -0.11775898188352585, -0.019687069579958916, 0.10304790735244751, 0.07545463740825653, 0.010390236973762512, 0.09556769579648972, -0.09313317388296127, 0.07257646322250366, 0.2758207619190216, 0.09515226632356644, -0.04307373985648155, 0.28212612867355347, 0.22283323109149933, 0.17830847203731537, 0.024343518540263176, 0.21333551406860352, -0.06000376120209694, 0.07915007323026657, 0.023572226986289024, -0.010405546985566616, 0.09649855643510818, -0.06794130057096481, 0.10763896256685257, 0.053330522030591965, -0.16789031028747559, 0.0761379674077034, -0.21268798410892487, 0.026370063424110413, -0.09552531689405441, -0.10611379891633987, -0.18900682032108307, -0.7352082133293152, -0.506348729133606, 0.5322366952896118, -0.34626078605651855, -0.3766581118106842, 0.21112926304340363, 0.6518611311912537, -1.4346524477005005, -0.5141268372535706, 0.11937502026557922, 0.09681858867406845, -0.017772706225514412, 0.8228062987327576, 0.11341489106416702, -0.22693157196044922, 0.026203064247965813, -0.2182159423828125, -0.18473540246486664, 0.09486978501081467, 0.20557020604610443, 0.45193907618522644, -0.03526986017823219, 0.21394269168376923, -0.7454352974891663, -0.6694111824035645, -0.1282625049352646, 0.01874355785548687, -0.19854547083377838, -0.2287815362215042, -0.016250165179371834, 0.06631308048963547, -0.5253835320472717, -0.4107687473297119, 0.10029495507478714, 0.053171928972005844, 0.4694916307926178, -0.8140716552734375, -0.20476077497005463, 0.11848901957273483, -0.4786849021911621, -0.2638840973377228, -0.26462796330451965, 0.05506362393498421, 0.11784723401069641, 0.6099881529808044, -0.01791525073349476, 0.08099757879972458, -0.4826006591320038, 1.3237714767456055, -0.1141587570309639, -0.10655272006988525, 0.05871080979704857, 2.106008529663086, 0.15119504928588867, 0.0009195655002258718, 0.1874142438173294, -0.6071815490722656, -0.01205198559910059, 0.12290550023317337, 0.0019854125566780567, 0.17394064366817474, -0.07433872669935226, -0.005170681048184633, 0.05886201560497284, -0.010351828299462795, -0.0729672834277153, 0.19894839823246002, 0.04807126894593239, -0.07087557762861252, -0.06359224766492844, -0.07355947047472, 0.1575808972120285, 0.4625239670276642, -0.1143251582980156, -0.13891981542110443, 0.3123643100261688, 0.01125467661768198, -0.12499713152647018, 0.022158069536089897, 0.0992552638053894, -0.04749703034758568, 0.14330075681209564, 0.070525161921978, -0.07730210572481155, 0.0258756373077631, -0.004519597161561251, -0.001451771822758019, -0.0022991078440099955, 0.14695240557193756, 0.012414486147463322, -0.13001905381679535, -0.1768723875284195, -0.49123990535736084, 0.014528109692037106, -0.38632532954216003, -0.010792330838739872, 0.26563599705696106, 0.7964730262756348, 0.2998557388782501, 0.5125461220741272, -0.3400573432445526, 0.47642436623573303, 0.1487358808517456, -0.5375179648399353, -0.15561771392822266, 0.12594805657863617, -0.2643808424472809, 0.1124330386519432, -0.003907435107976198, 0.027363093569874763, 0.06207210198044777, 0.9646739959716797, 0.038667235523462296, -0.20635239779949188, -0.4443453252315521, 0.4171110689640045, -0.1406346708536148, 0.12554693222045898, -0.08109134435653687, -0.32164710760116577, -0.002294594654813409, 0.08814358711242676, 0.7254734635353088, 0.8426188826560974, 0.18388889729976654, 0.00041874474845826626, -0.3733936846256256, 0.12703296542167664, 0.07788551598787308, -0.07669103890657425, 0.13265106081962585, -0.4430237114429474, -0.12830699980258942, 0.0446721576154232, 0.11696639657020569, 0.6118836402893066, -0.03226056694984436, -0.14652490615844727, 0.014599536545574665, -0.8214928507804871, 0.17258523404598236, 0.04636964201927185, 0.8379681706428528, 1.0233962535858154, -0.04349881038069725, -0.07782834023237228, -0.3635260760784149, -0.972349226474762, -0.06555943936109543, 0.11875676363706589, -0.005996399093419313, -0.07798218727111816, 0.07209694385528564, 0.09306561201810837, 0.12810024619102478, 0.002405367325991392, -0.10601639002561569, 0.21309654414653778, -0.09801717847585678, 0.026267709210515022, 0.13639439642429352, 0.04328286275267601, 0.0601976104080677, 0.3597048819065094, 0.008099974133074284, 0.03793224319815636, 0.14364591240882874, -0.20797444880008698, 0.0011399100767448545, -0.006377168465405703, -0.09627825766801834, -0.2034117430448532, 0.048701051622629166, 0.08941227197647095, -0.073985755443573, 0.03564610332250595, 0.09684228152036667, 0.14896558225154877, 0.06922787427902222, -0.05495148524641991, -0.0469830296933651, 0.0016438458114862442, -0.6158609390258789, -0.5396741628646851, 0.3756164610385895, -0.3727817237377167, -0.07601819932460785, -0.317598819732666, 0.5135102868080139, -0.177681565284729, 0.007871268317103386, 0.29873254895210266, -0.9047613739967346, -0.6592889428138733, 0.4641871154308319, 0.08987850695848465, -0.1722773313522339, -0.908461332321167, -0.5633949041366577, 0.029601363465189934, -0.08467977494001389, -0.1946997493505478, 0.7200499176979065, 0.03830162063241005, 0.11206043511629105, -0.123320572078228, -0.40319696068763733, -0.02524365484714508, 0.061706844717264175, -0.5933533906936646, -0.8965272903442383, 0.3171240985393524, -0.06694865971803665, 0.15461792051792145, 0.30447906255722046, -0.0810026004910469, 0.030623437836766243, 0.24740172922611237, -0.5550838708877563, -0.2729911506175995, 0.18492291867733002, -0.5381861925125122, 0.3847821056842804, 0.025707630440592766, -0.2033805102109909, -0.4635638892650604, -0.9541272521018982, 0.08682788163423538, -0.18925617635250092, 0.6890764832496643, -0.2996453642845154, 0.11163007467985153, 0.08347565680742264, 0.1907091587781906, -0.20610105991363525, 0.008273548446595669, 0.09660052508115768, 0.43001314997673035, 0.7522948384284973, -0.08693058043718338, -0.06476951390504837, 0.046018775552511215, 0.12928985059261322, -0.05391905829310417, -0.07014615088701248, -0.011468813754618168, -0.08433956652879715, 0.034235239028930664, -0.02753768302500248, 0.12920892238616943, -0.016529979184269905, -0.1379387527704239, -0.04641679301857948, 0.18070697784423828, -0.06716055423021317, 0.01616002805531025, -0.09004998952150345, -0.19942112267017365, 0.0049358238466084, -0.05681252107024193, 0.12653495371341705, 0.11986566334962845, -0.15082193911075592, 0.03957933560013771, 0.02698013000190258, -0.15953399240970612, 0.0724412351846695, -0.07375461608171463, 0.056375566869974136, 0.1652521938085556, 0.09695803374052048, -0.03626304492354393, -0.12485624104738235, -0.5910953879356384, -0.40860268473625183, 0.02279554307460785, -0.536342978477478, -0.2063112109899521, -0.6802253127098083, -0.12391141802072525, -1.2600966691970825, 0.4727649986743927, 0.9232428073883057, -0.21240879595279694, 0.13010075688362122, -0.904848039150238, -0.07611031085252762, 0.07180868834257126, -0.7015122771263123, -0.7950208783149719, -0.022825079038739204, -0.01077034417539835, -0.9129076600074768, 0.1386343091726303, 0.019476519897580147, 0.0592879019677639, -0.39977315068244934, -0.2341761738061905, 0.1860731691122055, -0.03398359194397926, 0.4087853729724884, 0.47994276881217957, -0.06672418862581253, -0.1881418079137802, 0.6429690718650818, -0.07064096629619598, -0.04941403493285179, -0.03678864240646362, 0.5405159592628479, 1.0345150232315063, 0.08500445634126663, 0.05578398331999779, 0.7235651016235352, 1.2143763303756714, -0.1430114507675171, 0.04318409785628319, 0.2826676666736603, -0.1665981262922287, -0.049397293478250504, 0.010452068410813808, 0.013159076683223248, 0.9418087601661682, -0.09983796626329422, -0.05482769012451172, 1.1544426679611206, 1.095245122909546, -0.02703944779932499, 0.22275115549564362, -0.6615256667137146, 0.020954400300979614, -0.12089227885007858, -0.016213448718190193, -0.17735327780246735, -0.05163465067744255, -0.10242534428834915, 0.16247250139713287, 0.1982276290655136, -0.21567918360233307, -0.01092060748487711, 0.03291422128677368, 0.20455949008464813, 0.08208859711885452, 0.07962233573198318, -0.14997850358486176, -0.008411386981606483, -0.3677116930484772, 0.18319447338581085, 0.058646198362112045, 0.01083425898104906, 0.17950178682804108, -0.1603928655385971, -0.029022933915257454, -0.0002709172840695828, -0.20029734075069427, -0.042392548173666, 0.0489160381257534, 0.03675132617354393, -0.1890384703874588, -0.1640298217535019, 0.12700079381465912, -0.18962500989437103, -0.016360793262720108, 0.004166379105299711, 0.03542885556817055, -0.369922012090683, -0.9100856184959412, -0.0015911123482510448, -0.7289643883705139, 0.112350694835186, -0.046340461820364, -0.463227242231369, -0.8827419877052307, -1.320832371711731, -0.5210303068161011, 0.4576760530471802, -0.5461612343788147, -0.5177663564682007, -0.5463624596595764, -0.3801431953907013, -0.5351819396018982, -0.3178233802318573, -0.13863441348075867, -0.38895726203918457, -0.5444808602333069, -0.4165482819080353, -0.2146289199590683, -0.46512123942375183, -0.546995997428894, -0.07495992630720139, -0.29355913400650024, -0.3878973424434662, -0.10340274125337601, -0.641365647315979, -0.5691027045249939, -0.5094817876815796, -0.11937058717012405, -0.2583625018596649, -0.4941258132457733, -0.4001598358154297, -0.0990680381655693, -0.6576470732688904, -0.32045668363571167, -0.3652450144290924, -0.18306754529476166, -0.4502321481704712, -0.3691597282886505, -0.35965755581855774, 0.09488365799188614, -0.45056450366973877, -0.3085094094276428, -0.26210203766822815, -0.5090323686599731, -0.19732855260372162, -0.4322476089000702, -0.12627409398555756, -0.40983662009239197, -0.3833886682987213, -0.3659902513027191, -0.6149445176124573, -0.45496174693107605, -0.4218139350414276, -0.3823051154613495, 